{"model": "node_mlp_pca_fair_k1", "layers": [{"type": "lin", "act": "relu", "W": [[0.21111628413200378, -0.004238382447510958, 0.25411397218704224, -0.1701033115386963, 0.11622180789709091, -0.007205663248896599, 0.28437256813049316, -0.2536221444606781, -0.10730566084384918, -0.03813774138689041, 0.2433892786502838, -0.009257005527615547, -0.11580445617437363, 0.03615155071020126, -0.0016852231929078698, 0.09639009088277817, 0.07099657505750656, -0.1119079440832138, -0.1797460913658142, -0.2815660238265991, -0.1318606734275818, -0.067824587225914, -0.09878721088171005, -0.11168525367975235, 0.021124152466654778, -0.2789575755596161, -0.17306487262248993, -0.02948308177292347, 0.18812820315361023, 0.13285337388515472, -0.17691373825073242, -0.1909647285938263], [-0.34370675683021545, -0.20163635909557343, 0.10713481158018112, 0.20697344839572906, -0.18865853548049927, 0.2612222731113434, -0.3449340760707855, -0.095670685172081, 0.25984427332878113, 0.15933914482593536, -0.011887865141034126, 0.003237445605918765, 0.10852174460887909, 0.2721118927001953, -0.04895816743373871, 0.21872243285179138, -0.11319534480571747, 0.07028724998235703, -0.112148717045784, 0.180399551987648, -0.025416316464543343, 0.3284446895122528, 0.019987361505627632, 0.056294333189725876, -0.13621266186237335, -0.1677393913269043, -0.05341728776693344, -0.09490080177783966, 0.08938168734312057, 0.006052476819604635, -0.09384749084711075, -0.20918156206607819], [0.00303959590382874, -0.33589521050453186, 0.06274933367967606, 0.06290395557880402, -0.09151962399482727, -0.24992795288562775, 0.18212628364562988, 0.11188649386167526, 0.04354673624038696, -0.2817319929599762, -0.1769961565732956, -0.2229003757238388, -0.3153010308742523, -0.058570362627506256, -0.2352086901664734, -0.04029862582683563, -0.16239523887634277, -0.32432594895362854, -0.07240957021713257, -0.0687248483300209, -0.11719783395528793, 0.2631518542766571, -0.21186880767345428, -0.07298856228590012, 0.15134091675281525, 0.14935725927352905, 0.010705696418881416, 0.32723307609558105, -0.193132683634758, 0.23344212770462036, 0.11508406698703766, 0.11658404022455215], [0.3031802177429199, 0.044358279556035995, -0.08625111728906631, 0.24167127907276154, -0.12899507582187653, -0.07040567696094513, -0.09789565950632095, -0.24311599135398865, -0.2836626172065735, 0.26697149872779846, 0.023693151772022247, 0.13471995294094086, -0.24952296912670135, -0.24229595065116882, 0.027392003685235977, -0.03494613617658615, -0.19145745038986206, -0.1630924642086029, 0.09263455122709274, -0.21020352840423584, 0.07645601034164429, 0.03397466614842415, 0.30025845766067505, 0.2145470529794693, 0.16658000648021698, 0.04391046240925789, -0.08861460536718369, -0.05375777184963226, 0.06694187223911285, -0.053990889340639114, -0.14841662347316742, 0.20213563740253448], [-0.08657504618167877, -0.08682200312614441, 0.04938841238617897, 0.029301168397068977, 0.05944748967885971, -0.20091907680034637, 0.14677944779396057, -0.01796795055270195, -0.09984852373600006, -0.07898508757352829, 0.19108012318611145, -0.26851534843444824, 0.01566636934876442, 0.18439632654190063, -0.13106049597263336, 0.046891093254089355, -0.022736623883247375, -0.2297600656747818, 0.0004547815187834203, 0.13143476843833923, 0.027950290590524673, -0.06245590001344681, -0.0317673422396183, 0.013846316374838352, 0.2862951159477234, 0.018646493554115295, 0.061114758253097534, 0.06101186200976372, -0.14396226406097412, -0.2086213082075119, -0.07541652768850327, -0.36680591106414795], [0.2212481051683426, -0.32069793343544006, -0.007959175854921341, -0.1180037260055542, -0.02245076186954975, 0.09150020033121109, 0.29127800464630127, 0.09889478981494904, -0.20664319396018982, 0.1807636171579361, -0.03690395876765251, 0.16760309040546417, 0.1356826275587082, -0.03837854415178299, -0.17376938462257385, -0.10325267910957336, -0.010986704379320145, 0.30681946873664856, -0.2470189332962036, 0.2364485114812851, 0.0049208588898181915, 0.12969258427619934, -0.05649563670158386, -0.036931540817022324, 0.1555965393781662, -0.07605365663766861, -0.03674376755952835, 0.04418893903493881, -0.048118989914655685, 0.05532127991318703, -0.09585791826248169, 0.18282732367515564], [-0.14058217406272888, 0.29843977093696594, 0.1394028514623642, -0.05366447567939758, -0.1872214525938034, 0.1363297998905182, 0.1811678260564804, -0.13747340440750122, 0.08089696615934372, -0.03318316861987114, -0.1649431586265564, 0.03261517360806465, 0.2724594175815582, -0.11422063410282135, -0.17979614436626434, -0.2007274329662323, 0.127725288271904, 0.2882637083530426, -0.01661873236298561, -0.19627709686756134, -0.010136676020920277, -0.12686079740524292, -0.29857316613197327, -0.004795629996806383, -0.31402498483657837, 0.09321331977844238, -0.14845071732997894, 0.24149760603904724, -0.11860918998718262, 0.2877727746963501, -0.18414315581321716, -0.11313014477491379], [-0.21610324084758759, -0.18527133762836456, -0.16531331837177277, 0.02566998079419136, -0.06600424647331238, -0.0559108592569828, 0.10866820812225342, 0.03996479883790016, 0.0859975814819336, 0.19338956475257874, 0.14403526484966278, 0.30999478697776794, 0.01022494025528431, -0.06486760079860687, 0.24735012650489807, 0.10330416262149811, 0.058817699551582336, 0.080037921667099, -0.044288698583841324, -0.12367747724056244, -0.011873036623001099, 0.2460750788450241, -0.2150420993566513, -0.0075788176618516445, -0.16428399085998535, 0.08302053064107895, 0.20614130795001984, 0.2541172504425049, -0.23478402197360992, -0.15521736443042755, 0.05513465777039528, -0.13381114602088928], [-0.11045057326555252, -0.01559069287031889, -0.15193873643875122, -0.04210272803902626, 0.13889044523239136, -0.3176669478416443, 0.16146059334278107, -0.0608164481818676, 0.06332375109195709, -0.17462456226348877, 0.20884263515472412, 0.1292886883020401, -0.23582211136817932, 0.28856369853019714, 0.11437608301639557, 0.020885486155748367, -0.03538001701235771, 0.07273729890584946, 0.09704037010669708, 0.10284651815891266, -0.02704872190952301, -0.1941852867603302, 0.12303116172552109, 0.008431894704699516, -0.19235572218894958, -0.048521287739276886, -0.15087343752384186, 0.16288042068481445, 0.08911270648241043, 0.17692764103412628, 0.22108103334903717, 0.1357763707637787], [-0.25583967566490173, -0.16454964876174927, -0.021693717688322067, 0.021436896175146103, 0.05117548257112503, -0.11625456809997559, -0.17460721731185913, 0.2152653932571411, -0.11332646757364273, -0.30135074257850647, 0.12439947575330734, -0.09688585996627808, 0.013748045079410076, 0.040933649986982346, -0.015372262336313725, 0.04008380323648453, 0.060718558728694916, 0.14439882338047028, 0.1109241470694542, -0.12989574670791626, -0.05615497753024101, 0.07610118389129639, -0.10844222456216812, 0.04030594229698181, -0.07426805794239044, 0.11071852594614029, 0.043611254543066025, -0.018584052100777626, 0.03202531486749649, 0.11455300450325012, 0.04885849729180336, 0.012288777157664299], [0.08629214018583298, 0.22723284363746643, 0.09835860133171082, 0.22569285333156586, 0.008517248556017876, -0.10691795498132706, 0.04255252704024315, 0.3025120794773102, -0.10302457213401794, 0.0542725995182991, -0.0291135236620903, -0.30465564131736755, 0.1821851134300232, -0.11713875085115433, 0.11111004650592804, -0.008302944712340832, 0.0007036546594463289, 0.17125163972377777, -0.15206950902938843, 0.00888009462505579, 0.23081375658512115, -0.19426099956035614, -0.012034118175506592, -0.03665200620889664, 0.1834806501865387, 0.06142804026603699, 0.1875995397567749, -0.1503385454416275, -0.10043423622846603, -0.2119450718164444, 0.2809590995311737, -0.012330428697168827], [-0.2522902488708496, -0.23377752304077148, 0.21255618333816528, 0.0629577785730362, -0.1909938007593155, 0.26767048239707947, -0.02229856513440609, -0.05871221423149109, 0.2953498065471649, 0.17701749503612518, -0.15938690304756165, -0.004828228149563074, -0.04057595878839493, 0.024446243420243263, 0.0032863335218280554, 0.018256159499287605, -0.11411362141370773, 0.09238921850919724, -0.10662636160850525, 0.17040853202342987, -0.08913640677928925, 0.20743492245674133, 0.12141533195972443, -0.06764590740203857, -0.09773753583431244, -0.09732070565223694, -0.15130548179149628, -0.10754672437906265, 0.11481700092554092, 0.3021172285079956, 0.09893479943275452, -0.024300100281834602], [0.04900403320789337, -0.15180566906929016, 0.2486891746520996, -0.16872645914554596, -0.284584641456604, -0.0830945074558258, 0.054472245275974274, -0.08770579099655151, 0.21305283904075623, 0.05402850732207298, 0.1317172646522522, 0.06940580904483795, 0.056501179933547974, -0.27783313393592834, -0.0772775188088417, 0.11303313821554184, 0.05545792728662491, 0.016712134703993797, -0.24588055908679962, -0.16287101805210114, -0.079038605093956, -0.274877667427063, -0.07302042841911316, -0.05834144726395607, -0.14645683765411377, 0.21225367486476898, -0.18386274576187134, 0.2341139018535614, -0.02776963636279106, 0.23203712701797485, -0.2149866819381714, -0.10876908898353577], [0.08749332278966904, 0.20753516256809235, -0.11123495548963547, 0.133336141705513, 0.1434267908334732, -0.191014364361763, -0.24401523172855377, 0.30980920791625977, 0.1276884227991104, -0.03127250820398331, -0.18546366691589355, -0.2671175003051758, -0.17082342505455017, -0.09088049829006195, 0.15502335131168365, 0.20798267424106598, -0.014083094894886017, 0.25588056445121765, 0.14881198108196259, -0.10868183523416519, 0.040878355503082275, 0.11552561074495316, 0.12558665871620178, -0.1969105750322342, -0.045476190745830536, 0.004801375791430473, -0.01915794052183628, -0.058312609791755676, -0.036964308470487595, 0.03897704556584358, 0.23331932723522186, -0.13397152721881866], [0.0025827037170529366, -0.11639208346605301, -0.2581806182861328, 0.17766867578029633, 0.15246538817882538, -0.10539189726114273, -0.01122201420366764, -0.046760331839323044, 0.24159689247608185, 0.05295933783054352, -0.033560581505298615, -0.29566749930381775, -0.20262078940868378, 0.24369360506534576, -0.07348527759313583, -0.07475252449512482, 0.0018680902430787683, -0.19578281044960022, 0.17062580585479736, 0.10770174115896225, -0.13895364105701447, 0.1405479460954666, 0.01677342876791954, -0.13089321553707123, -0.11145363748073578, 0.2782662808895111, 0.010677025653421879, 0.23978067934513092, -0.18131059408187866, 1.63260137924226e-05, 0.3348790407180786, -0.21481740474700928], [0.07727960497140884, -0.16476429998874664, 0.03971495479345322, 0.11506091803312302, 0.11709167808294296, -0.2717333734035492, -0.09207969903945923, 0.32953721284866333, 0.1087137758731842, -0.22207200527191162, 0.011533049866557121, 0.013788199983537197, -0.05756004899740219, -0.09721008688211441, -0.0844893679022789, 0.1388666182756424, -0.030591970309615135, -0.026432469487190247, 0.17798469960689545, 0.03921787440776825, -0.13210876286029816, 0.30614617466926575, -0.10625452548265457, -0.10597137361764908, 0.1398896723985672, 0.018299615010619164, 0.058622464537620544, 0.15182964503765106, -0.2476189285516739, -0.08388864994049072, 0.1019233912229538, -0.25299546122550964], [-0.31233304738998413, -0.13182002305984497, 0.2159702628850937, -0.19526050984859467, -0.22592823207378387, 0.19332706928253174, -0.11717503517866135, -0.12319575250148773, 0.2392442673444748, 0.06887437403202057, 0.13778378069400787, 0.2286032885313034, -0.057226888835430145, 0.0011905946303158998, -0.1609933227300644, -0.13429689407348633, -0.3115640878677368, 0.14048230648040771, 0.2316317856311798, -0.25188159942626953, -0.024800604209303856, 0.01672782190144062, 0.06311467289924622, 0.18934865295886993, -0.005340158939361572, 0.23896905779838562, 0.02441370114684105, 0.19948448240756989, 0.25576087832450867, 0.21526946127414703, 0.2246900498867035, -0.15532033145427704], [0.31045249104499817, 0.2252439260482788, -0.23562894761562347, -0.08605298399925232, -0.10103478282690048, -0.19902575016021729, 0.16745838522911072, -0.0695323720574379, -0.251742959022522, 0.07007391005754471, -0.11264349520206451, 0.005694442428648472, -0.14723680913448334, 0.17457129061222076, 0.1444525569677353, 0.171967014670372, -0.21358586847782135, -0.09048937261104584, -0.06502242386341095, 0.282619833946228, -0.03191891685128212, -0.260090708732605, -0.02341802604496479, 0.0007484962115995586, 0.16929258406162262, 0.1289891004562378, 0.2090636044740677, 0.01441817544400692, -0.16249504685401917, 0.19821888208389282, -0.15212340652942657, 0.05484458804130554], [0.08835951238870621, 0.215743288397789, -0.09738799184560776, 0.15541505813598633, -0.07562147080898285, 0.22412295639514923, -0.20569555461406708, -0.06605933606624603, 0.08766867220401764, 0.05972512811422348, -0.08249758929014206, 0.27584680914878845, 0.1280345618724823, 0.1601438820362091, 0.22924096882343292, -0.256812185049057, 0.19690324366092682, 0.1290895640850067, 0.09158144146203995, 0.28832823038101196, 0.2506629526615143, -0.21950769424438477, -0.14212355017662048, 0.25325149297714233, 0.061755988746881485, 0.1432260423898697, 0.08721380680799484, -0.14849327504634857, -0.07727367430925369, -0.0016903472132980824, -0.058367133140563965, -0.10567338764667511], [-0.11312885582447052, 0.06206309050321579, 0.04319477453827858, 0.3044073283672333, 0.2957009971141815, -0.22738859057426453, -0.005711390636861324, 0.10105612874031067, -0.0903046652674675, -0.03661002591252327, -0.011122168973088264, -0.07275666296482086, -0.02295912615954876, 0.14801724255084991, 0.18686187267303467, -0.06300023943185806, -0.2174951285123825, 0.2525336444377899, 0.017977086827158928, -0.22842425107955933, 0.0939408466219902, 0.09670712798833847, 0.004024952184408903, 0.10541018098592758, -0.18584467470645905, 0.06455805897712708, 0.10361681878566742, -0.008922525681555271, -0.1693524718284607, -0.15486417710781097, 0.085941381752491, 0.01788520999252796], [0.13921569287776947, 0.038949619978666306, 0.018433058634400368, 0.052969031035900116, 0.09923931956291199, -0.0627158135175705, 0.23445358872413635, -0.06016988307237625, -0.17295169830322266, -0.05697599798440933, 0.24690614640712738, -0.21027398109436035, 0.14276079833507538, 0.3317614495754242, 0.048454903066158295, -0.13308821618556976, 0.040367741137742996, -0.14137130975723267, -0.059250690042972565, -0.1802665889263153, 0.14914105832576752, -0.16917306184768677, 0.025952888652682304, -0.1804151087999344, -0.07111586630344391, 0.11576100438833237, -0.23777544498443604, -0.2462693303823471, 0.05854778364300728, -0.16112934052944183, -0.34696781635284424, -0.29019269347190857], [0.10744861513376236, 0.2915096580982208, -0.2426786720752716, -0.025473199784755707, -0.14651744067668915, 0.19489800930023193, 0.19035962224006653, -0.030502254143357277, -0.08166275173425674, -0.0337493009865284, -0.09725024551153183, 0.0884159728884697, 0.0596066489815712, -0.0635077953338623, 0.1286911815404892, 0.11328346282243729, -0.16803885996341705, -0.012624531053006649, -0.11183921992778778, 0.14034989476203918, 0.326974093914032, -0.025808462873101234, 0.0635472908616066, 0.103752501308918, 0.16562768816947937, -0.039221443235874176, 0.25033730268478394, 0.05383385345339775, -0.12421445548534393, 0.04623258113861084, 0.05995555222034454, -0.23603534698486328], [0.29090479016304016, -0.011403706856071949, 0.27177414298057556, -0.12170358002185822, 0.10713658481836319, -0.007094382308423519, 0.3019689917564392, -0.0033326062839478254, 0.11744068562984467, -0.04162520915269852, 0.07710283249616623, -0.0735362246632576, 0.11469542980194092, -0.17509610950946808, 0.007123194169253111, -0.25934290885925293, 0.05848301947116852, -0.0863124206662178, -0.236797034740448, -0.09047572314739227, -0.01988847926259041, -0.246660053730011, 0.13381993770599365, -0.02827322483062744, 0.02836632914841175, -0.16344068944454193, 0.034843314439058304, 0.19223672151565552, 0.08696497231721878, 0.2188781350851059, -0.022990738973021507, 0.10724681615829468], [0.20299533009529114, -0.042547088116407394, 0.22662240266799927, -0.07043525576591492, 0.18734481930732727, -0.19102215766906738, -0.2279900163412094, -0.14193056523799896, -0.1808549463748932, 0.010132069699466228, 0.30520492792129517, 0.20284102857112885, 0.013385952450335026, 0.00328310439363122, -0.005283416714519262, 0.2998121976852417, -0.027298910543322563, -0.21705782413482666, -0.26847001910209656, -0.23380953073501587, -0.05089549720287323, 0.1604904979467392, -0.24321892857551575, 0.011472556740045547, 0.17964108288288116, 0.002053862204775214, -0.2202577292919159, -0.05452936887741089, 8.836261258693412e-06, 0.13897453248500824, -0.10363272577524185, -0.07201304286718369], [-0.0261165089905262, 0.04012797027826309, 0.021203454583883286, 0.03423916548490524, -0.08639618754386902, 0.266692578792572, -0.18427875638008118, -0.15337665379047394, 0.021521344780921936, 0.21242912113666534, 0.07666812092065811, 0.17248846590518951, -0.22552460432052612, -0.15171149373054504, -0.30664899945259094, -0.2591954469680786, -0.15331964194774628, -0.01671794429421425, 0.013340577483177185, -0.24270331859588623, -0.19586002826690674, 0.24034383893013, -0.004356354009360075, 0.04896222800016403, 0.002174810506403446, 0.03852444514632225, -0.20720233023166656, -0.07364276796579361, 0.0893949419260025, 0.12845999002456665, -0.03011619672179222, -0.23411452770233154], [0.25022026896476746, -0.08380302786827087, 0.3011651337146759, 0.21360740065574646, -0.21546916663646698, -0.14176899194717407, -0.1116078570485115, -0.12160702794790268, -0.12202123552560806, -0.003021820681169629, 0.23804140090942383, 0.15545222163200378, -0.14464296400547028, 0.21564842760562897, 0.10046322643756866, 0.045167844742536545, 0.14040426909923553, 0.024684704840183258, 0.06643466651439667, -0.30152514576911926, 0.19651010632514954, -0.1861184686422348, 0.22985108196735382, 0.1762363761663437, 0.025295188650488853, 0.024798547849059105, 0.10623212158679962, -0.005576356779783964, 0.035458434373140335, -0.18895472586154938, -0.15681031346321106, 0.16952528059482574], [-0.04855632781982422, -0.09950225800275803, -0.056806061416864395, 0.04449423775076866, -0.03867151215672493, -0.11164740473031998, -0.05336282402276993, -0.09255610406398773, -0.1807847023010254, -0.08688715845346451, 0.2058776617050171, 0.17235101759433746, 0.12511838972568512, 0.1954512745141983, -0.11728265136480331, 0.09730648994445801, -0.2063983827829361, -0.14127832651138306, 0.2530061602592468, -0.18561840057373047, -0.16933023929595947, -0.10697891563177109, 0.23072735965251923, -0.06352928280830383, 0.1514439880847931, -0.058065496385097504, 0.09830627590417862, -0.094054214656353, -0.02796774171292782, 0.10655975341796875, -0.2894898056983948, -0.22090856730937958], [0.13769420981407166, 0.2098594754934311, 0.06387857347726822, -0.22985084354877472, -0.022686628624796867, 0.17022013664245605, -0.027072997763752937, -0.05739561840891838, -0.05324964225292206, 0.05962821841239929, 0.32256269454956055, -0.08374489843845367, 0.14042238891124725, 0.05732348561286926, -0.21169103682041168, -0.008282145485281944, -0.1535433679819107, 0.0319848507642746, 0.07917886227369308, 0.0010821957839652896, 0.01568644493818283, 0.048682957887649536, -0.11921415477991104, -0.12926341593265533, 0.18120233714580536, 0.18853537738323212, -0.20033438503742218, 0.18218521773815155, -0.08872044086456299, -0.2625991106033325, 0.07782047241926193, -0.014271539635956287], [0.01628834381699562, 0.15680694580078125, -0.1672770380973816, 0.317019522190094, 0.10583019256591797, 0.17817455530166626, 0.16701672971248627, 0.03798188641667366, 0.007587021216750145, -0.08580736815929413, 0.013919246383011341, 0.1712118685245514, 0.12174540758132935, 0.017337700352072716, 0.25762972235679626, -0.14348691701889038, 0.20169904828071594, -0.21784114837646484, 0.03396529331803322, -0.022170335054397583, 0.13687676191329956, -0.09201987832784653, 0.06741780042648315, 0.09912784397602081, 0.11163059622049332, -0.11787182837724686, 0.011126362718641758, 0.04865793511271477, 0.29259490966796875, -0.09895700216293335, -0.05320686474442482, 0.07300184667110443], [0.14003248512744904, 0.28830742835998535, 0.057587169110774994, -0.13563625514507294, -0.08360163122415543, 0.14140675961971283, 0.24210293591022491, -0.15376782417297363, -0.055367328226566315, 0.07746580243110657, -0.09169284254312515, -0.054554592818021774, -0.01809229701757431, 0.04877430945634842, -0.006284956820309162, -0.35717713832855225, 0.08853544294834137, 0.2266228049993515, 0.06239017844200134, -0.2661793529987335, -0.10633928328752518, -0.31273266673088074, -0.05877716466784477, -0.14926959574222565, 0.05967656522989273, -0.19962991774082184, -0.06949329376220703, -0.14667293429374695, 0.03384554758667946, -0.03818322718143463, -0.14803948998451233, 0.06477520614862442], [0.059026747941970825, -0.23188410699367523, -0.10601425915956497, 0.22511662542819977, 0.29562854766845703, 0.024062298238277435, 0.294864684343338, 0.09688086807727814, 0.18833798170089722, 0.10249187797307968, 0.07307174801826477, 0.30649393796920776, -0.04071991890668869, -0.2518743574619293, -0.2273973822593689, 0.2728170156478882, 0.1373244822025299, 0.037263423204422, 0.12321460992097855, 0.08602868765592575, -0.20272810757160187, 0.23142723739147186, 0.10095736384391785, -0.09579942375421524, 0.03226850926876068, 0.06440658867359161, 0.15355482697486877, 0.0346679762005806, 0.12021338939666748, -0.036530137062072754, -0.11063969880342484, -0.08859370648860931], [-0.19116252660751343, -0.14600110054016113, 0.0033371795434504747, 0.006266216281801462, -0.3135944902896881, -0.027919813990592957, -0.005938317161053419, -0.016493244096636772, 0.0381343811750412, 0.2450142800807953, 0.027533261105418205, 0.10382471233606339, 0.13751444220542908, -0.07441911846399307, -0.2335275262594223, 0.2506822645664215, 0.08286821842193604, 0.09964544326066971, -0.05938144400715828, -0.030271831899881363, -0.02748730406165123, 0.3320215940475464, -0.11150303483009338, 0.18593573570251465, 0.1725051999092102, 0.2622629702091217, -0.01653641276061535, 0.2022276371717453, 0.039174746721982956, 0.11975771933794022, -0.061415594071149826, -0.2662499248981476], [0.14651654660701752, -0.10578155517578125, 0.05936885252594948, -0.06476563960313797, 0.032429758459329605, -0.15290971100330353, 0.16094641387462616, 0.0008919998072087765, -0.022391710430383682, 0.07643662393093109, 0.06758858263492584, 0.1862352192401886, 0.18034912645816803, -0.02386852726340294, 0.024199893698096275, 0.0008982802391983569, 0.14494527876377106, 0.2673196792602539, -0.11054946482181549, 0.03764572739601135, 0.07524227350950241, -0.2667216658592224, 0.028615139424800873, -0.15490882098674774, 0.23952053487300873, -0.007095589768141508, -0.15474861860275269, -0.05282491073012352, -0.11469975858926773, -0.06666480749845505, 0.07782609015703201, 0.13194793462753296], [-0.24291640520095825, 0.06775614619255066, -0.10594393312931061, 0.06264781206846237, -0.11798807233572006, 0.22539332509040833, 0.04226167872548103, 0.2422998696565628, -0.11483678221702576, 0.22942928969860077, 0.27887266874313354, 0.06446328014135361, 0.20642447471618652, -0.03286747634410858, -0.2571624517440796, -0.2806572914123535, 0.029288742691278458, -0.23721875250339508, -0.0035193092189729214, 0.22756367921829224, 0.025854960083961487, 0.020077446475625038, -0.18039117753505707, 0.3304137885570526, 0.0018326780991628766, 0.18685318529605865, 0.005034897476434708, -0.07573123276233673, 0.2848713994026184, 0.1564502865076065, -0.08955516666173935, 0.026896119117736816], [0.17312747240066528, 0.08519159257411957, -0.0747469887137413, 0.06807859241962433, 0.16529113054275513, 0.04236110672354698, -0.18260934948921204, 0.2786996364593506, -0.18737661838531494, 0.07725019752979279, -0.01102304458618164, 0.16243135929107666, -0.043092090636491776, -0.1393321305513382, 0.013314277864992619, -0.2998703718185425, 0.26368165016174316, -0.30330419540405273, 0.12217942625284195, 0.15407684445381165, 0.3453102707862854, -0.09250829368829727, -0.008236905559897423, 0.008169595152139664, -0.2782246470451355, 0.15063273906707764, 0.09408972412347794, -0.148580864071846, -0.050686564296483994, -0.2266549915075302, 0.06118093430995941, 0.04582741856575012], [0.0704832673072815, -0.15452459454536438, 0.011821686290204525, 0.23775647580623627, -0.04369380697607994, 0.22975148260593414, -0.07046958059072495, -0.21354526281356812, -0.18976062536239624, -0.09544652700424194, -0.17027679085731506, 0.09203963726758957, 0.019807204604148865, -0.0527336485683918, 0.2687291204929352, -0.1109364852309227, 0.07731856405735016, -0.1493474692106247, 0.18506737053394318, -0.10043199360370636, 0.04969816654920578, 0.01174803264439106, -0.023556021973490715, -0.0234375, 0.29248765110969543, -0.04284881427884102, -0.0025398903526365757, -0.12385357171297073, -0.011354153044521809, -0.3155069649219513, -0.3351059556007385, -0.17728778719902039], [0.10358620434999466, -0.11967448145151138, -0.2862599194049835, -0.10200128704309464, -0.13951334357261658, -0.011555073782801628, 0.10525438189506531, -0.013017467223107815, -0.07903890311717987, -0.007399684749543667, -0.006898324005305767, 0.0768727958202362, 0.27317893505096436, 0.021504975855350494, -0.18158167600631714, 0.1215682402253151, -0.14218810200691223, -0.10624410957098007, -0.23534342646598816, 0.2798369228839874, -0.13779179751873016, 0.19952313601970673, 0.08462870866060257, 0.22830906510353088, 0.21581386029720306, -0.08684790134429932, 0.050213322043418884, -0.016766510903835297, -0.12385999411344528, 0.085649773478508, 0.1604970395565033, -0.24449971318244934], [-0.07896972447633743, -0.13073600828647614, 0.1643161177635193, 0.2045871913433075, 0.34916552901268005, -0.10372903943061829, 0.09941739588975906, 0.07026984542608261, 0.10123806446790695, -0.15315009653568268, -0.08750481903553009, -0.010533062741160393, 0.263049453496933, 0.014007984660565853, -0.06429154425859451, -0.2120102047920227, -0.26394006609916687, 0.25765734910964966, 0.22207991778850555, -0.08357593417167664, -0.0017597570549696684, -0.27374500036239624, 0.13723984360694885, -0.035392601042985916, 0.09404563903808594, -0.005179709289222956, 0.11548752337694168, 0.2375224232673645, -0.24118943512439728, 0.06563882529735565, -0.06647656112909317, 0.09935087710618973], [0.24751394987106323, -0.13640862703323364, -0.13921155035495758, -0.34219440817832947, -0.18664658069610596, -0.09038685262203217, 0.19699238240718842, -0.2069532871246338, 0.02657432109117508, -0.0678841769695282, 0.07614771276712418, 0.150397390127182, 0.043868083506822586, -0.014078700914978981, -0.30313169956207275, -0.03433236479759216, -0.21216610074043274, 0.15981630980968475, -0.05631686747074127, 0.2660641670227051, 0.08271512389183044, -0.27327579259872437, 0.12800556421279907, -0.061808351427316666, 0.21090763807296753, 0.01797991804778576, -0.023538444191217422, 0.16382946074008942, 0.067146435379982, -0.09971912205219269, 0.2733323574066162, -0.08551929146051407], [-0.11644881963729858, -0.09028607606887817, 0.25818219780921936, 0.25893211364746094, 0.24037779867649078, -0.2794395387172699, -0.2261189967393875, 0.028680207207798958, -0.04101140424609184, 0.022200975567102432, 0.07338958978652954, 0.1393340677022934, -0.10186068713665009, 0.13265910744667053, 0.1874738484621048, -0.18379531800746918, -0.287948340177536, -0.11507465690374374, 0.002614994766190648, -0.3169882595539093, -0.21724115312099457, -0.035358723253011703, 0.022312654182314873, 0.17517422139644623, -0.13990141451358795, -0.2682311236858368, 0.12203273922204971, 0.22375816106796265, 0.13923801481723785, 0.09097227454185486, -0.22138188779354095, -0.06636486202478409], [0.29848676919937134, 0.15913061797618866, -0.06542856246232986, 0.22204135358333588, 0.055476948618888855, -0.1088954284787178, 0.1333286166191101, 0.28746557235717773, -0.21469682455062866, 0.1302773654460907, -0.04439292103052139, -0.20142218470573425, -0.11253196746110916, 0.22506152093410492, 0.09683063626289368, 0.055860187858343124, -0.1470332145690918, 0.2775307595729828, 0.06594157218933105, 0.2391667664051056, 0.09401897341012955, -0.06430747359991074, -0.07587219029664993, -0.07008843868970871, -0.25168943405151367, 0.014848900027573109, -0.041100651025772095, -0.12506641447544098, -0.11964335292577744, -0.12416394054889679, 0.21080833673477173, 0.03511514887213707], [0.26408496499061584, 0.004564485512673855, 0.18585218489170074, -0.05513323098421097, 0.041738785803318024, 0.2953110933303833, 0.147063210606575, -0.2555873692035675, 0.0692138820886612, 0.22941191494464874, 0.04210502281785011, -0.16543573141098022, 0.07054377347230911, -0.12014606595039368, -0.2410355508327484, -0.24388548731803894, 0.08027219027280807, -0.21174871921539307, 0.11310792714357376, 0.0696902796626091, -0.060127027332782745, -0.06818094104528427, 0.15805993974208832, -0.1327812522649765, -0.05753485858440399, -0.24067068099975586, -0.1612953394651413, -0.07740018516778946, 0.010790831409394741, 0.014287835918366909, 0.234911248087883, -0.09455430507659912], [0.360195130109787, -0.11509750783443451, 0.11770585924386978, -0.19371411204338074, 0.10430201143026352, -0.31396621465682983, 0.08237795531749725, -0.17996440827846527, -0.17023642361164093, -0.22927193343639374, 0.15096160769462585, -0.041305121034383774, 0.10453066229820251, 0.14687438309192657, -0.23442231118679047, -0.0904742181301117, -0.25020483136177063, -0.2103515863418579, -0.10588498413562775, -0.007898228242993355, -0.21984578669071198, -0.0995083823800087, 0.10752659291028976, -0.1059693768620491, 0.07887174934148788, -0.2583180367946625, 0.1350059062242508, 0.14027756452560425, 0.11368276178836823, 0.26680904626846313, 0.03235313296318054, 0.19011938571929932], [0.35581254959106445, -0.11379428207874298, 0.18856026232242584, -0.10183481127023697, 0.23928801715373993, 0.17209435999393463, -0.224995419383049, 0.2452949583530426, 0.17256030440330505, 0.14081896841526031, -0.3089294731616974, -0.30610254406929016, -0.0300709530711174, 0.20409609377384186, 0.15855833888053894, -0.21422472596168518, -0.3196280896663666, 0.15088686347007751, -0.05733897536993027, -0.02194872871041298, 0.18728218972682953, 0.11285949498414993, -0.0033303634263575077, -0.225274920463562, -0.08351093530654907, 0.15369531512260437, -0.0677485242486, -0.06318546831607819, 0.2107318490743637, -0.0777745321393013, -0.20895268023014069, 0.038278426975011826], [0.14386232197284698, 0.1933145374059677, 0.2767292559146881, 0.04859082028269768, -0.014649786055088043, 0.18018969893455505, 0.14060229063034058, -0.10939697176218033, -0.2260580211877823, 0.03748423606157303, 0.15166187286376953, -0.24842433631420135, -0.15325024724006653, -0.04207191616296768, -0.33462539315223694, -0.05476976931095123, 0.10014461725950241, -0.2789221704006195, 0.1699194461107254, 0.02192944847047329, 0.09590703994035721, -0.15435050427913666, -0.12640264630317688, -0.15724782645702362, -0.029745718464255333, 0.008755451999604702, 0.22151564061641693, -0.03547252342104912, -0.047359779477119446, -0.2597861886024475, 0.14931170642375946, -0.13927309215068817], [0.013831842690706253, 0.1532629281282425, -0.0649479404091835, 0.04544798284769058, 0.06808936595916748, 0.04463067278265953, -0.19470247626304626, -0.1063302531838417, -0.14553870260715485, -0.0302059855312109, 0.007404317148029804, 0.08759183436632156, 0.0258707907050848, -0.06609492748975754, 0.21775679290294647, -0.09926977753639221, -0.011414761655032635, -0.27935877442359924, -0.04216104373335838, 0.097528837621212, 0.32830607891082764, -0.20623788237571716, -0.14200781285762787, -0.10185796767473221, 0.2334703654050827, 0.06921331584453583, -0.11192560195922852, 0.008503557182848454, 0.18604688346385956, 0.010601385496556759, -0.04135793074965477, -0.18447884917259216], [0.3112820088863373, 0.07850676774978638, -0.12438653409481049, -0.1170172169804573, -0.08201532065868378, -0.29473501443862915, 0.03098568506538868, 0.27803492546081543, 0.1701442152261734, -0.05503583326935768, 0.016289589926600456, 0.005092274397611618, -0.14817173779010773, 0.15846030414104462, 0.21705693006515503, 0.15567855536937714, -0.2809295654296875, 0.09114803373813629, 0.04105652496218681, 0.31639593839645386, 0.25225913524627686, -0.22792163491249084, 0.051495082676410675, -0.04237693175673485, -0.03511388972401619, -0.09963270276784897, 0.023699143901467323, -0.010210360400378704, -0.006622426211833954, -0.018524853512644768, 0.26367688179016113, 0.12007074058055878], [0.042204588651657104, 0.25604337453842163, -0.008113197982311249, -0.017768261954188347, -0.12419696152210236, -0.00861190166324377, 0.18452779948711395, 0.2632744312286377, -0.09740754216909409, -0.01430364977568388, -0.1567576825618744, -0.16357022523880005, -0.03570519760251045, -0.2238677740097046, -0.06701355427503586, -0.23223601281642914, 0.26450738310813904, -0.18706250190734863, -0.010021781548857689, 0.34144288301467896, -0.092445008456707, -0.1290050745010376, -0.06320033967494965, 0.009636030532419682, -0.26657986640930176, -0.15678296983242035, -0.0186616200953722, -0.1268901526927948, -0.024851016700267792, 0.25426405668258667, 0.05184398218989372, 0.2222384214401245], [-0.18096792697906494, 0.304918497800827, 0.10642407089471817, 0.1107756495475769, -0.029942533001303673, 0.030155668035149574, -0.10545404255390167, -0.18725693225860596, -0.2723323702812195, -0.04471374303102493, -0.018108360469341278, -0.0968119353055954, 0.032477930188179016, 0.0032416917383670807, -0.1989085078239441, -0.1505761593580246, 0.20950962603092194, -0.07499703019857407, 0.1387464553117752, 0.08995712548494339, 0.10093940049409866, -0.22795504331588745, -0.06795540452003479, 0.32745906710624695, 0.09347479790449142, 0.22945371270179749, 0.028218893334269524, -0.2415289729833603, 0.02895045280456543, -0.03624536097049713, 0.03954716771841049, 0.3259766399860382], [0.16893982887268066, -0.24830284714698792, 0.04458881542086601, 0.0005112760700285435, -0.19767425954341888, 0.2988267242908478, 0.15693415701389313, -0.12492593377828598, -0.06727045029401779, 0.2634907066822052, -0.2311239093542099, 0.019669895991683006, -0.16944192349910736, -0.19546933472156525, -0.012953922152519226, -0.006799937225878239, 0.01370968483388424, -0.01865583285689354, -0.2543809711933136, 0.0637156218290329, -0.24774299561977386, 0.18194323778152466, -0.04764939844608307, -0.30451565980911255, 0.050304535776376724, -0.1179158017039299, -0.12345944344997406, -0.08358804881572723, -0.14249975979328156, -0.15608087182044983, -0.2508046329021454, -0.016068441793322563], [-0.28146111965179443, -0.22315937280654907, 0.031401410698890686, -0.11495199799537659, -0.26597535610198975, 0.026411494240164757, -0.06436514854431152, -0.149962916970253, 0.1490645557641983, 0.20737357437610626, -0.09110604226589203, 0.2876461446285248, 0.0233621709048748, -0.09763548523187637, 0.0170650165528059, -0.08990886062383652, -0.2867897152900696, 0.2867666184902191, 0.07647617161273956, 0.15560196340084076, 0.139219269156456, -0.032752856612205505, -0.0371164046227932, 0.15720446407794952, 0.07245513796806335, -0.019217293709516525, 0.07400771975517273, -0.1551291048526764, 0.0981234610080719, 0.14901970326900482, 0.1035245731472969, -0.004073990508913994], [-0.26921677589416504, -0.22726787626743317, 0.19822369515895844, -0.02285202033817768, -0.3028772175312042, 0.08668621629476547, 0.02717849425971508, 0.1440161019563675, 0.25285547971725464, -0.01348171941936016, -0.3230679929256439, 0.20146366953849792, -0.017944609746336937, 0.07344923168420792, 0.2687810957431793, -0.16202476620674133, -0.060294609516859055, 0.13195763528347015, -0.052842214703559875, -0.16727089881896973, -0.025855135172605515, 0.31381121277809143, -0.20018427073955536, 0.0435374416410923, -0.07642168551683426, -0.06583454459905624, -0.1392640769481659, -0.016027648001909256, 0.15680521726608276, -0.03466208651661873, 0.01917182467877865, 0.06444720178842545], [0.1734326183795929, 0.23243746161460876, -0.19410467147827148, 0.0993548333644867, -0.03990590572357178, 0.1135018840432167, -0.014478476718068123, -0.010250561870634556, -0.15256616473197937, -0.007441983558237553, 0.006764769554138184, 0.019983841106295586, 0.013543793000280857, -0.056820593774318695, -0.07084447890520096, 0.003737810766324401, 0.12539571523666382, -0.2563949227333069, 0.09053812175989151, -0.14307533204555511, 0.11453139036893845, -0.26140227913856506, 0.16206495463848114, 0.27294692397117615, 0.27575063705444336, 0.18662378191947937, -0.003471692558377981, -0.1686137467622757, -0.01714908331632614, 0.0701967179775238, -0.074775330722332, 0.06735868006944656], [0.20531049370765686, -0.12403801083564758, 0.1443175971508026, -0.039207298308610916, -0.0988617017865181, 0.018796127289533615, 0.04745333641767502, -0.035380471497774124, 0.2664923667907715, 0.33439281582832336, 0.00453468132764101, -0.21971091628074646, -0.1126822680234909, 0.15774627029895782, 0.1098666787147522, 0.08843694627285004, -0.04737625643610954, -0.2645454406738281, -0.000169613616890274, -0.23461657762527466, 0.10463975369930267, 0.026990234851837158, -0.0808844044804573, 0.01822787895798683, 0.0654483437538147, -0.015246164985001087, -0.31555095314979553, -0.24188798666000366, -0.0014540964039042592, -0.2325039803981781, -0.2589682638645172, -0.058512989431619644], [-0.21802425384521484, -0.04230748489499092, 0.12107310444116592, -0.06866054981946945, -0.23490990698337555, 0.17821641266345978, 0.04093314707279205, -0.015755172818899155, -0.06923658400774002, 0.045168161392211914, 0.06297483295202255, 0.07976151257753372, -0.09885482490062714, -0.27784010767936707, 0.01715070568025112, -0.188734233379364, 0.1369490772485733, -0.006159650627523661, -0.10559554398059845, -0.17320449650287628, -0.14014430344104767, -0.07304981350898743, -0.21200254559516907, -0.0035799453034996986, -0.17861618101596832, -0.004317473154515028, 0.06115339323878288, 0.12715725600719452, 0.12590071558952332, 0.08869125694036484, -0.24070216715335846, 0.10331549495458603], [0.12433484196662903, 0.29635563492774963, -0.17200374603271484, -0.09925995767116547, 0.14735595881938934, -0.20855017006397247, -0.06922215223312378, 0.3284848630428314, -0.14855343103408813, -0.16860128939151764, 0.0710684284567833, -0.11412014812231064, 0.15398605167865753, -0.041092220693826675, 0.07882818579673767, 0.026670299470424652, -0.05239623785018921, -0.07185040414333344, 0.0891079381108284, 0.10508234798908234, 0.2389269918203354, 0.09750549495220184, -0.1760709136724472, 0.29010817408561707, 0.28443318605422974, 0.1409999281167984, 0.1427033543586731, -0.26911383867263794, -0.05635690689086914, -0.11844220012426376, -0.2148546725511551, 0.023783858865499496], [0.18136003613471985, 0.2976522743701935, -0.19958022236824036, -0.05184733122587204, -0.1487194001674652, 0.08890165388584137, -0.1793442964553833, -0.21133071184158325, -0.09860121458768845, -0.25852394104003906, -0.019545715302228928, -0.04837023466825485, -0.16171491146087646, 0.06491556763648987, -0.05929812043905258, 0.2094908207654953, -0.26168662309646606, -0.0911826491355896, 0.0008920601103454828, -0.249503955245018, -0.12045761197805405, 0.004839660134166479, 0.273693710565567, 0.232255220413208, 0.2726636230945587, 0.2381453961133957, 0.3018699586391449, 0.15854474902153015, -0.15869072079658508, 0.09677086025476456, -0.14548122882843018, 0.03302488103508949], [0.1439850777387619, -0.23613514006137848, 0.11709756404161453, 0.09790752083063126, 0.2890181839466095, -0.16960516571998596, 0.15940698981285095, -0.080975741147995, -0.15246452391147614, 0.09378933906555176, 0.05337665602564812, -0.18769830465316772, -0.027520066127181053, 0.003932489547878504, -0.30302754044532776, -0.02962663024663925, -0.08340528607368469, -0.1625816375017166, -0.24512778222560883, -0.055495209991931915, 0.01933550089597702, 0.03893992677330971, 0.22112010419368744, -0.04402448609471321, 0.11236143857240677, -0.04721520096063614, -0.17273038625717163, -0.2306668609380722, -0.06658820062875748, -0.0050186654552817345, -0.003410068806260824, -0.17200428247451782], [-0.041191816329956055, 0.18900440633296967, -0.12824781239032745, 0.21213586628437042, 0.08490370959043503, -0.22095070779323578, -0.24969251453876495, 0.03669894114136696, -0.035726629197597504, -0.24283093214035034, -0.07595270872116089, 0.01867092028260231, -0.11971607059240341, 0.11791031807661057, 0.30802565813064575, -0.01523484755307436, 0.0849476084113121, 0.10076435655355453, 0.024907628074288368, 0.0042243157513439655, -0.14793382585048676, 0.03550960123538971, 0.24667391180992126, -0.05579354241490364, 0.05649055168032646, 0.22239622473716736, 0.26711025834083557, 0.0828585997223854, 0.010919176042079926, -0.1601879596710205, 0.10403238981962204, -0.06623981893062592], [-0.07963313907384872, -0.15297380089759827, 0.1572565734386444, -0.1699075698852539, -0.3128170073032379, 0.08213746547698975, -0.22529654204845428, 0.11896104365587234, 0.04113324359059334, 0.23622199892997742, 0.0590006560087204, 0.11359453946352005, -0.3258095383644104, -0.1810464709997177, -0.24981153011322021, -0.16521692276000977, -0.09708679467439651, -0.2586042582988739, 0.07622025907039642, -0.14497356116771698, -0.010971681214869022, -0.07006093114614487, -0.1764785498380661, 0.08442451059818268, 0.011313025839626789, 0.3294493854045868, -0.10751057416200638, -0.15215107798576355, -0.0853394865989685, -0.06784699112176895, -0.31159743666648865, -0.0004444901132956147], [0.023999564349651337, 0.08889815211296082, 0.04231248423457146, -0.038512349128723145, -0.07760526984930038, 0.18917787075042725, 0.07868728041648865, 0.013256967067718506, 0.19983352720737457, 0.15895827114582062, 0.2336723506450653, -0.023678096011281013, -0.09207712113857269, -0.10700249671936035, -0.046503178775310516, -0.009446338750422001, 0.041793618351221085, -0.23111316561698914, -0.0979052186012268, 0.11766719818115234, -0.04426334425806999, -0.005089166574180126, -0.11317979544401169, 0.01946294493973255, -0.07093235105276108, -0.3375474512577057, 0.19627581536769867, -0.19163671135902405, -0.21847617626190186, 0.19673506915569305, 0.32430198788642883, 0.20374919474124908], [-0.25580304861068726, 0.2561172544956207, -0.1947050839662552, 0.3057096004486084, 0.23828190565109253, 0.11265837401151657, 0.018325168639421463, 0.03240035101771355, -0.29569604992866516, -0.09942495077848434, 0.021830782294273376, -0.0015159357571974397, -0.0864805355668068, -0.043644264340400696, 0.27706214785575867, 0.14763109385967255, 0.10708973556756973, 0.19225762784481049, 0.10300232470035553, -0.1366942822933197, 0.12053954601287842, 0.02004595473408699, 0.23785550892353058, 0.21170979738235474, 0.003960448782891035, 0.052511315792798996, 0.1025705635547638, 0.011658179573714733, -0.06355807185173035, -0.2568880319595337, 0.14157629013061523, 0.07136150449514389], [-0.198540598154068, -0.1949157416820526, -0.12980706989765167, 0.26012322306632996, 0.12099985033273697, -0.02884085476398468, -0.3216581344604492, 0.07583082467317581, -0.06906051188707352, -0.1923620104789734, -0.15905261039733887, -0.23853807151317596, 0.0006027538329362869, -0.13800999522209167, 0.14512206614017487, 0.07706999778747559, 0.16257981956005096, 0.23488639295101166, 0.006711553782224655, 0.11250804364681244, 0.26116743683815, 0.14843496680259705, -0.06467165797948837, -0.2938784956932068, -0.14484524726867676, 0.15482468903064728, -0.1549377143383026, -0.010671385563910007, 0.10889267921447754, -0.2087552696466446, 0.14448857307434082, 0.037431273609399796], [0.21772105991840363, 0.1726415902376175, -0.14983277022838593, -0.1834479719400406, -0.13264620304107666, 0.251329630613327, -0.023065505549311638, -0.270626962184906, -0.02843588963150978, -0.03920227661728859, 0.1570224165916443, -0.008249929174780846, -0.04764598235487938, 0.015365520492196083, -0.004678374622017145, 0.05853218585252762, 0.02234969101846218, -0.18268045783042908, 0.2341044545173645, 0.16139796376228333, 0.22460786998271942, -0.20824137330055237, 0.12337734550237656, -0.01243335660547018, 0.08080451190471649, 0.12275092303752899, 0.06685759127140045, 0.051756154745817184, 0.09185633808374405, -0.012407240457832813, 0.19710862636566162, -0.16275718808174133], [-0.18861271440982819, 0.17574810981750488, 0.15798984467983246, 0.3190845847129822, 0.2113783210515976, -0.19453217089176178, 0.10586824268102646, 0.1293366551399231, 0.01402448583394289, -0.13521595299243927, 0.05593613162636757, -0.03832298144698143, 0.05029093101620674, 0.1548280417919159, -0.04055405408143997, 0.043829042464494705, -0.17095407843589783, 0.014028944075107574, 0.037775084376335144, -0.20226284861564636, -0.04701460897922516, -0.1291889250278473, 0.19217848777770996, 0.26415330171585083, 0.005359968636184931, 0.13865889608860016, 0.02435274049639702, -0.084525927901268, -0.15789569914340973, -0.26254770159721375, -0.05848380923271179, 0.05261291190981865], [0.2003040760755539, 0.251371294260025, -0.11479149013757706, 0.21463502943515778, -0.05874250456690788, -0.20552100241184235, 0.07188110053539276, 0.07825322449207306, -0.06428515911102295, -0.20963889360427856, 0.06296919286251068, 0.12952758371829987, -0.08332750201225281, -0.09581641107797623, 0.2644351124763489, 0.01694345287978649, -0.22914746403694153, -0.22613711655139923, -0.04321197047829628, 0.193644717335701, 0.22514864802360535, -0.003527035703882575, 0.12968303263187408, -0.08976992219686508, 0.1403624266386032, 0.09181030839681625, 0.1347161829471588, 0.20542648434638977, -0.10452467948198318, 0.1568743735551834, -0.13762961328029633, -0.12432188540697098], [-0.09943883121013641, 0.2754179835319519, -0.09227260947227478, -0.30778148770332336, -0.16784992814064026, 0.014251531101763248, 0.08070416003465652, -0.24485087394714355, 0.0695987418293953, -0.2448197603225708, -0.1678733378648758, 0.1626182645559311, 0.014305911026895046, -0.14246384799480438, -0.008630082942545414, -0.08666341751813889, 0.16326041519641876, 0.17502279579639435, -0.09221915900707245, -0.05314226448535919, -0.2034732699394226, -0.10980574786663055, -0.2804373502731323, -0.18727858364582062, -0.1683686524629593, 0.02606794610619545, -0.056645967066287994, -0.20949651300907135, -0.04634366184473038, 0.15194639563560486, -0.178068146109581, -0.14064441621303558], [0.2299780249595642, 0.10465531796216965, 0.027859846130013466, 0.2959478795528412, -0.00613081781193614, -0.002640322782099247, 0.07450265437364578, 0.08709868788719177, 0.03679109737277031, 0.13046357035636902, 0.24332642555236816, 0.23683398962020874, 0.22896040976047516, -0.17594051361083984, -0.0401935949921608, -0.20177742838859558, -0.05020418018102646, -0.18395954370498657, 0.10337766259908676, -0.16737060248851776, 0.037769872695207596, -0.15020327270030975, 0.024650447070598602, -0.016934776678681374, 0.2837487757205963, -0.20701859891414642, -0.19498108327388763, -0.13581332564353943, 0.14524225890636444, -0.11233782023191452, -0.08062716573476791, 0.03993777930736542], [0.29778560996055603, 0.0934605821967125, -0.07794944196939468, -0.11522810161113739, 0.07338263839483261, 0.025726541876792908, -0.0032646122854202986, 0.2207019329071045, -0.10448405891656876, 0.09184781461954117, -0.19610828161239624, -0.24480904638767242, 0.11373894661664963, -0.18277676403522491, 0.23332363367080688, -0.016444828361272812, 0.06321916729211807, 0.08828041702508926, 0.11497955769300461, 0.17976167798042297, 0.16984710097312927, -0.29245811700820923, 0.033414654433727264, 0.21753230690956116, 0.05845341458916664, 0.28365060687065125, 0.28021761775016785, -0.028364920988678932, 0.08762865513563156, -0.02265097387135029, 0.23694124817848206, -0.056591592729091644], [0.053645726293325424, -0.052646491676568985, 0.1317533254623413, -0.20852534472942352, 0.02153974212706089, 0.000406193285016343, 0.13956628739833832, -0.020148850977420807, -0.043523430824279785, 0.14010676741600037, -0.03151370584964752, -0.12594324350357056, 0.03778351470828056, -0.07842883467674255, -0.10931161046028137, -0.13072368502616882, -0.03891449421644211, -0.0354057252407074, -0.050374142825603485, -0.0535750575363636, -0.009246965870261192, -0.2707365155220032, 0.027442773804068565, -0.22453516721725464, -0.03926751762628555, -0.09886164218187332, -0.2576611042022705, -0.10220606625080109, -0.15886451303958893, 0.10795143246650696, -0.12752705812454224, 0.0036956313997507095], [0.12891599535942078, 0.09820077568292618, 0.020187707617878914, -0.15391291677951813, -0.3250907361507416, -0.2532709836959839, 0.02715907245874405, -0.2665485739707947, 0.045713771134614944, -0.0902736485004425, -0.050107911229133606, -0.07022127509117126, 0.18965211510658264, 0.12966273725032806, -0.03690776228904724, 0.016831984743475914, -0.060977257788181305, 0.2056475281715393, -0.17361114919185638, -0.06526448577642441, 0.0606885589659214, -0.2470136433839798, -0.33512234687805176, 0.0096061322838068, -0.18203526735305786, 0.11840145289897919, -0.20999351143836975, 0.31285667419433594, -0.11897200345993042, 0.05018656328320503, -0.26150840520858765, 0.00519364420324564], [-0.08471950888633728, -0.10157391428947449, -0.1864883154630661, -0.08612310886383057, 0.13047191500663757, -0.23781746625900269, 0.09228427708148956, 0.22783906757831573, -0.0029019126668572426, 0.03006066009402275, -0.1589774787425995, 0.2485891580581665, -0.1513998657464981, -0.053611449897289276, 0.25978603959083557, -0.2868204414844513, 0.2057119607925415, 0.21900661289691925, 0.135020449757576, -0.09145918488502502, -0.11795344948768616, 0.23710064589977264, -0.11718235164880753, -0.221280038356781, -0.0548715740442276, 0.09117239713668823, 0.10594749450683594, 0.2721777856349945, 0.09951640665531158, 0.133822500705719, 0.09322024136781693, -0.04459398612380028], [-0.3203031122684479, -0.16691429913043976, 0.23729084432125092, 0.28817540407180786, -0.13731525838375092, -0.009249773807823658, 0.06575752049684525, -0.19353556632995605, -0.09838749468326569, -0.10977809131145477, 0.10867248475551605, 0.19925932586193085, -0.08464490622282028, 0.20199330151081085, 0.23930425941944122, 0.062166955322027206, 0.2427317202091217, 0.05914238095283508, 0.05304548144340515, 0.0006265646661631763, -0.17621490359306335, 0.0843874141573906, -0.2501850724220276, -0.012547179125249386, -0.042481858283281326, -0.16852639615535736, -0.022649211809039116, 0.032770976424217224, 0.2658562958240509, -0.06118139252066612, -0.13926376402378082, 0.010203440673649311], [0.17970186471939087, 0.2882273495197296, 0.20715069770812988, -0.16926877200603485, 0.17036499083042145, -0.06761407852172852, 0.19407014548778534, -0.15126217901706696, -0.1115427017211914, -0.026826826855540276, -0.10818474739789963, -0.13043268024921417, 0.24113264679908752, -0.025795865803956985, -0.0075424956157803535, -0.17486153542995453, 0.057217471301555634, -0.07578129321336746, 0.022631170228123665, 0.17956651747226715, -0.06816776096820831, -0.06554783135652542, 0.131562277674675, -0.0278983972966671, 0.06328991055488586, 0.005109568126499653, -0.00019655071082524955, -0.06438606977462769, -0.010165954940021038, -0.17242057621479034, -0.05345814675092697, 0.18942034244537354], [0.21002067625522614, -0.16621865332126617, 0.17498961091041565, -0.2822176218032837, -0.31954053044319153, -0.1575651466846466, 0.10140179097652435, -0.28840625286102295, -0.05541856959462166, -0.030646145343780518, 0.07043671607971191, 0.0013547615380957723, 0.23775582015514374, -0.15117429196834564, 0.12137185037136078, -0.11408879607915878, -0.2862245738506317, 0.06599387526512146, -0.24139249324798584, -0.0712093859910965, -0.09894932061433792, -0.1954255849123001, -0.0058297994546592236, -0.28300321102142334, -0.020162547007203102, 0.19307498633861542, -0.06966528296470642, 0.17555531859397888, 0.06372760236263275, 0.08522161096334457, -0.15112514793872833, 0.07817535847425461]], "b": [0.20513637363910675, 0.1766897439956665, -0.023380741477012634, 0.13525313138961792, -0.025229718536138535, 0.03648225963115692, 0.14567042887210846, 0.1488248109817505, 0.06791477650403976, 0.1530538648366928, 0.24548067152500153, 0.2735532224178314, -0.13752079010009766, 0.09451994299888611, -0.03330904245376587, 0.2765767574310303, 0.01897440291941166, 0.07314202189445496, -0.050529398024082184, 0.2223452627658844, -0.0038041085936129093, -0.08070622384548187, 0.009645363315939903, 0.12750817835330963, 0.16344861686229706, 0.11583402007818222, 0.1146775409579277, 0.07640863209962845, -0.010003741830587387, 0.19629356265068054, 0.12610135972499847, 0.08680140972137451, -0.19630365073680878, 0.0904894769191742, -0.05210540071129799, 0.19173133373260498, 0.01453222893178463, 0.13260683417320251, 0.030638614669442177, 0.2841215133666992, 0.1477300226688385, 0.06071179732680321, 0.19895632565021515, 0.025062797591090202, 0.07715541124343872, -0.014346002601087093, 0.1531742513179779, 0.12757718563079834, 0.25444909930229187, 0.034495510160923004, 0.2400413304567337, 0.16650842130184174, 0.25287261605262756, 0.038203246891498566, 0.22681958973407745, 0.22914008796215057, 0.09317144751548767, 0.19185133278369904, 0.3046044707298279, 0.1340964436531067, 0.1890448033809662, 0.3009955585002899, 0.0899922102689743, 0.032349128276109695, 0.017706839367747307, 0.20548869669437408, 0.15739047527313232, -0.013620331883430481, 0.20952455699443817, 0.25167328119277954, 0.04408656433224678, 0.0730801597237587, 0.2598803639411926, 0.10178367048501968, -0.04910096898674965]}, {"type": "lin", "act": "relu", "W": [[-0.04230094328522682, 0.008840135298669338, -0.04840173199772835, 0.00271189259365201, -0.046400852501392365, 0.03086555004119873, -0.09126200526952744, 0.032263971865177155, 0.011409741826355457, 0.1120411828160286, -0.025045320391654968, -0.10091454535722733, -0.0730675607919693, 0.03666992485523224, -0.015823371708393097, 0.14665700495243073, 0.07386516779661179, -0.02888638526201248, -0.0834786593914032, 0.0452817864716053, -0.026804884895682335, -0.02212814800441265, 0.006469058338552713, -0.05011920630931854, -0.09672421962022781, -0.13797114789485931, -0.09180498868227005, 0.07671771198511124, -0.00454371701925993, -0.09746167808771133, -0.07303561270236969, -0.06735770404338837, -0.003124778624624014, -0.08087819814682007, 0.08497036248445511, -0.04949935898184776, -0.015556496568024158, 0.033126749098300934, 0.015348798595368862, -0.12700869143009186, 0.10623733699321747, -0.05072528496384621, -0.16658319532871246, 0.20117096602916718, 0.008343450725078583, -0.1214812844991684, -0.0017526674782857299, -0.15899869799613953, 0.015404704958200455, -0.054847754538059235, 0.06949794292449951, -0.0012247876729816198, -0.14888405799865723, 0.03789917007088661, -0.11251819878816605, 0.08099938184022903, 0.005001763813197613, 0.0051545132882893085, -0.03095797263085842, -0.15346074104309082, -0.1404334157705307, -0.0617118738591671, 0.04634902626276016, -0.03099656105041504, -0.04424317553639412, 0.04978250339627266, 0.03542155772447586, 0.013584126718342304, 0.08803676068782806, -0.07310590147972107, -0.10087458044290543, 0.11147944629192352, -0.09480908513069153, 0.03870494291186333, -0.15598200261592865], [0.15022459626197815, 0.23130479454994202, 0.06843552738428116, 0.010772037319839, 0.05145972967147827, -0.11239330470561981, -0.17143097519874573, 0.06374290585517883, 0.10998045653104782, -0.06828314810991287, 0.14148683845996857, 0.19880172610282898, 0.1625874638557434, 0.21368271112442017, 0.06665392965078354, 0.07711464166641235, 0.1095225140452385, -0.11696354299783707, 0.03500499203801155, 0.12459316104650497, -0.08835145086050034, 0.032522205263376236, -0.05117812007665634, 0.11978107690811157, 0.12780357897281647, -0.016737891361117363, 0.04124903678894043, 0.016424421221017838, 0.017890213057398796, -0.05124685913324356, 0.19341322779655457, 0.18708091974258423, 0.004569522570818663, -0.15501588582992554, -0.017144054174423218, 0.18005867302417755, -0.16177721321582794, 0.22931860387325287, -0.17448705434799194, 0.06512689590454102, 0.06802336126565933, 0.05392972007393837, -0.21997898817062378, 0.27434828877449036, -0.11550531536340714, -0.018759042024612427, -0.050585612654685974, -0.09236027300357819, -0.019747214391827583, 0.0827050656080246, 0.11136142164468765, 0.20381756126880646, -0.17055071890354156, 0.2221003770828247, -0.10611868649721146, 0.12925557792186737, -0.18118514120578766, 0.11509416252374649, 0.004900943022221327, 0.11333734542131424, -0.2459399402141571, -0.037997398525476456, 0.06510032713413239, -0.017157593742012978, 0.08286813646554947, -0.013258609920740128, -0.10584789514541626, -0.004073860123753548, 0.11798423528671265, 0.0829913318157196, -0.04826108366250992, 0.21566763520240784, 0.032975971698760986, -0.03951111435890198, -0.08987336605787277], [0.2366170585155487, -0.0025500424671918154, -0.16171976923942566, 0.1313757300376892, 0.015048532746732235, 0.1542687714099884, 0.12826748192310333, -0.018689071759581566, 0.011442197486758232, -0.17150861024856567, -0.00907228421419859, -0.07015539705753326, 0.24243275821208954, -0.11346650868654251, -0.035843249410390854, -0.08574222773313522, -0.029407218098640442, 0.1074208915233612, -0.09895669668912888, -0.11795574426651001, 0.16160736978054047, -0.18896809220314026, 0.18111109733581543, 0.07206211984157562, 0.13616454601287842, 0.26793259382247925, 0.2095743715763092, 0.04981589689850807, 0.04259380325675011, 0.07550571113824844, -0.03238441050052643, -0.012294990010559559, -0.024977687746286392, 0.025743268430233, -0.05818839743733406, 0.08181940764188766, 0.08622723072767258, 0.11096031963825226, 0.05886320397257805, 0.2437230944633484, 0.013579772785305977, 0.2574377655982971, 0.1693718284368515, 0.17286735773086548, 0.0015464405296370387, 0.13316605985164642, -0.15782906115055084, -0.05409296602010727, -0.09628742933273315, 0.29826784133911133, -0.038805343210697174, 0.020111707970499992, 0.06579697877168655, 0.1598203182220459, 0.18348221480846405, -0.03470534458756447, 0.1811584085226059, 0.1908247023820877, -0.04349452629685402, 0.11026456207036972, -0.04783042520284653, -0.08837908506393433, -0.05129515752196312, 0.03632554039359093, -0.08998925983905792, -0.11752467602491379, 0.060717418789863586, 0.2206677496433258, -0.09171261638402939, 0.10850793123245239, 0.18045568466186523, -0.04441455751657486, -0.005882421974092722, 0.1012488380074501, 0.2355157732963562], [0.026037972420454025, 0.10764451324939728, 0.09105578064918518, -0.0975293517112732, 0.09779570251703262, 0.0459199883043766, -0.05413876473903656, 0.18282611668109894, 0.2561253309249878, 0.11635842174291611, 0.007674620021134615, 0.05754507705569267, 0.2338191717863083, 0.1983950436115265, 0.13096296787261963, 0.034205708652734756, 0.17912159860134125, 0.03590768203139305, -0.07142560184001923, 0.03841189295053482, 0.17860892415046692, -0.061268363147974014, 0.20309239625930786, -0.044182613492012024, -0.07315494865179062, 0.06282656639814377, 0.024465231224894524, -0.2150784283876419, 0.025373008102178574, 0.15142999589443207, 0.13381697237491608, 0.0031652876641601324, -0.02631179243326187, -0.12072065472602844, -0.04178883135318756, -0.1488565057516098, -0.06763757020235062, 0.19965146481990814, -0.15006884932518005, 0.004696420393884182, 0.20150542259216309, 0.015625711530447006, -0.014529691077768803, 0.21817007660865784, -0.07718347758054733, -0.04836222156882286, 0.11698833853006363, 0.014407052658498287, -0.08192411065101624, 0.022863293066620827, 0.01715000532567501, 0.11094397306442261, -0.188278466463089, 0.17636163532733917, 0.0017936303047463298, 0.03224875032901764, -0.1355973333120346, 0.029886165633797646, 0.13070277869701385, -0.12134250998497009, 0.009547482244670391, -0.07157149165868759, 0.04177087917923927, -0.027530696243047714, 0.08728928118944168, 0.13530831038951874, 0.006400529760867357, -0.11163026839494705, 0.1645190566778183, -0.03592319041490555, -0.15530890226364136, 0.22338618338108063, 0.008956657722592354, -0.04997943341732025, 0.07973027974367142], [-0.10241886973381042, 0.1340755969285965, -0.003163296030834317, -0.002837216714397073, -0.07221673429012299, 0.13995930552482605, 0.16081233322620392, 0.21088983118534088, -0.015709631145000458, 0.2462647408246994, 0.0006187724648043513, 0.06629086285829544, 0.1061534658074379, 0.218195840716362, -0.0003301433171145618, 0.09747049957513809, 0.25771957635879517, 0.005014065187424421, 0.13884270191192627, 0.03344487398862839, -0.07101454585790634, 0.12260830402374268, -0.02558760903775692, -0.14543269574642181, -0.014439948834478855, -0.05276966467499733, -0.0882023274898529, -0.021037695929408073, -0.040526095777750015, 0.07573764026165009, 0.07889407128095627, 0.10693193972110748, 0.06061096489429474, 0.10012246668338776, 0.1259608268737793, 0.021435663104057312, 0.0647343322634697, -0.0479927733540535, 0.10808739066123962, 0.01686972565948963, 0.010121187195181847, -0.15461334586143494, -0.18318352103233337, -0.04312983155250549, 0.025805097073316574, -0.09078674018383026, 0.10340997576713562, 0.026587504893541336, 0.07966633886098862, -0.06885214149951935, 0.13060590624809265, 0.06927364319562912, -0.052397068589925766, 0.03207455202937126, 0.10296589881181717, 0.1480645090341568, -0.1879628300666809, -0.08997432142496109, 0.14843808114528656, 0.10940089821815491, 0.02914223074913025, 0.16196656227111816, 0.09862605482339859, 0.09907963126897812, 0.02985358238220215, 0.07730914652347565, 0.07527778297662735, 0.01602848246693611, 0.09078927338123322, -0.06118694692850113, -0.07748789340257645, 0.19893193244934082, 0.04825146123766899, -0.1148688793182373, -0.05017571523785591], [0.10515081882476807, -0.18528728187084198, 0.21583226323127747, 0.22801078855991364, 0.2553318738937378, 0.06548159569501877, 0.13660910725593567, -0.024602150544524193, -0.13928331434726715, -0.04889567568898201, 0.22388003766536713, -0.07858119159936905, -0.05787958949804306, 0.1392822265625, 0.07099399715662003, 0.087837815284729, -0.2100684493780136, 0.18591518700122833, -0.023416798561811447, 0.10557948052883148, 0.1707320362329483, 0.1908685266971588, 0.24272099137306213, 0.1963716596364975, 0.01856893114745617, -0.04114168882369995, -0.0024315209593623877, 0.03281267732381821, 0.02437545917928219, 0.20860709249973297, -0.026987485587596893, -0.11989644169807434, 0.04739833623170853, -0.041344933211803436, 0.05659995600581169, 0.005931303836405277, -0.011262455023825169, -0.018835004419088364, 0.05543769896030426, -0.07041821628808975, 0.20857180655002594, 0.18382924795150757, 0.23973073065280914, 0.026097463443875313, 0.14005954563617706, 0.16092652082443237, 0.11667760461568832, 0.25474926829338074, 0.06001279503107071, -0.039805930107831955, -0.1540931612253189, -0.15653808414936066, 0.18924105167388916, -0.017339808866381645, -0.08257544785737991, 0.25280216336250305, 0.08538274466991425, 0.14905236661434174, -0.09611722081899643, -0.04149999842047691, 0.07935718446969986, 0.05719240754842758, -0.014071522280573845, 0.018041688948869705, 0.034877922385931015, 0.0671086311340332, 0.011138921603560448, 0.08273417502641678, 0.13341058790683746, 0.15345804393291473, 0.010375797748565674, -0.06915156543254852, -0.11398129165172577, 0.09225568920373917, 0.0353197306394577], [-0.11184173822402954, -0.09697353839874268, 0.19031020998954773, -0.26152512431144714, -0.23211544752120972, 0.19294549524784088, 0.0014295148430392146, 0.04329945519566536, 0.13165777921676636, 0.010943571105599403, 0.19747427105903625, -0.006268637254834175, 0.015329819172620773, 0.22287844121456146, 0.15149757266044617, 0.18923918902873993, -0.05255658179521561, 0.2348814457654953, -0.04170539230108261, 0.04029954597353935, 0.054185640066862106, 0.010802123695611954, 0.1410805583000183, -0.05772125720977783, -0.1818862408399582, -0.09661047160625458, -0.16957014799118042, 0.03752710670232773, 0.0048690675757825375, 0.08271905034780502, 0.004457555711269379, 0.08743128180503845, 0.19981074333190918, -0.09262453019618988, -0.07948540896177292, -0.18499675393104553, 0.11929945647716522, 0.16991715133190155, 0.19484969973564148, -0.11900366097688675, 0.22706802189350128, 0.06811246275901794, 0.1630086600780487, 0.09350983798503876, -0.02917839027941227, -0.10738721489906311, 0.2321513593196869, 0.11133909970521927, -0.21232077479362488, -0.08399933576583862, 0.020167281851172447, 0.10690825432538986, -0.20234684646129608, -0.03449857980012894, -0.19906683266162872, -0.02777790278196335, -0.12715892493724823, 0.028800874948501587, 0.09056229144334793, -0.19698463380336761, 0.13943392038345337, -0.11607059836387634, 0.09327824413776398, 0.011624477803707123, -0.04462239891290665, 0.13211269676685333, 0.02938675880432129, 0.06672770529985428, 0.12198149412870407, 0.1128845289349556, 0.024711724370718002, 0.2390623539686203, -0.027169667184352875, -0.017905913293361664, 0.11161980777978897], [-0.1323707550764084, 0.18558132648468018, 0.20233085751533508, 0.10871322453022003, 0.16139809787273407, -0.0026659080758690834, -0.038877371698617935, -0.025190766900777817, -0.11677297204732895, 0.08167538046836853, 0.0315263606607914, 0.07913833111524582, -0.11231403052806854, -0.023332683369517326, 0.012955131009221077, 0.12563669681549072, 0.03540346026420593, -0.15396204590797424, 0.1274537295103073, -0.09171012043952942, -0.19918641448020935, 0.08069530129432678, -0.18093369901180267, 0.08196382224559784, 0.20747621357440948, -0.06938724219799042, 0.06017348915338516, 0.1877676248550415, -0.07849270105361938, -0.04417365416884422, -0.04148707911372185, 0.0025266993325203657, 0.007711384445428848, 0.2704257369041443, 0.23327837884426117, -0.09709912538528442, 0.05242669954895973, -0.06140034273266792, 0.13026008009910583, -0.03844457492232323, -0.010393121279776096, 0.09544901549816132, -0.09814383834600449, -0.20547617971897125, 0.17344965040683746, 0.06204964593052864, -0.18047977983951569, 0.13300758600234985, 0.18572452664375305, 0.015942132100462914, 0.029047202318906784, 0.1086813360452652, 0.21046534180641174, 0.08570948243141174, 0.1360909342765808, 0.10665367543697357, 0.25407513976097107, 0.01623283512890339, 0.0768008604645729, 0.19624899327754974, 0.10852840542793274, -0.0018542377511039376, 0.10384244471788406, 0.1791667938232422, -0.06426581740379333, -0.09041627496480942, -0.06920066475868225, -0.04762184992432594, 0.014397411607205868, 0.09438274800777435, -0.1909778118133545, -0.03066619485616684, -0.1601942628622055, 0.05594421923160553, -0.16537994146347046], [-0.05830466002225876, 0.19965112209320068, 0.27211469411849976, -0.12967360019683838, -0.04900604858994484, 0.06382786482572556, 0.0221545472741127, 0.17403189837932587, 0.01738523691892624, 0.09551486372947693, -0.0013216191437095404, 0.13532286882400513, 0.008748607710003853, 0.09600356221199036, 0.06843920797109604, 0.0291941799223423, 0.1414835900068283, -0.1407175362110138, 0.05562945827841759, 0.1621929407119751, -0.0829823911190033, 0.09440988302230835, -0.16641584038734436, -0.02734282985329628, 0.043510179966688156, -0.1453007459640503, 0.008521871641278267, 0.019053254276514053, -0.15188424289226532, -0.12114442139863968, 0.18703727424144745, 0.1243644505739212, -0.0637156143784523, 0.12473349273204803, 0.030115211382508278, 0.0814487487077713, 0.09429530799388885, -0.02324036881327629, 0.11237989366054535, 0.023198265582323074, 0.028611863031983376, 0.21319761872291565, -0.09592417627573013, -0.1365351378917694, 0.002413409063592553, -0.14592701196670532, 0.021086793392896652, 0.08265387266874313, 0.13969402015209198, 0.05277901887893677, 0.06512106209993362, 0.05472138151526451, -0.1736445426940918, 0.09399056434631348, 0.0015426884638145566, 0.1989748775959015, -0.02777343988418579, 0.15757118165493011, 0.008573995903134346, -0.07169198989868164, 0.09108877182006836, 0.1702459454536438, 0.212183877825737, -0.03546129912137985, 0.05167018249630928, -0.12279806286096573, -0.09774551540613174, -0.06680403649806976, -0.0044796038419008255, -0.02471713349223137, -0.09206821024417877, 0.04540874436497688, 0.05621304735541344, -0.10814285278320312, -0.03168509900569916], [0.17619732022285461, -0.1270199418067932, -0.013373039662837982, -0.16555730998516083, -0.11851880699396133, 0.06965767592191696, 0.039645884186029434, 0.0843811184167862, 0.07996144890785217, 0.1256556510925293, -0.08712895959615707, 0.09050633013248444, 0.14752216637134552, 0.010579164139926434, 0.10723322629928589, 0.06782104074954987, 0.02097616158425808, 0.20726419985294342, -0.05146951973438263, 0.06108660623431206, -0.018763884902000427, 0.052917737513780594, 0.14111660420894623, -0.022923972457647324, -0.02079019322991371, 0.12360269576311111, -0.022002145648002625, 0.03624660149216652, 0.060959141701459885, 0.08654604852199554, 0.06527598202228546, -0.07392627000808716, 0.06255770474672318, -0.09541196376085281, -0.1623261272907257, -0.05016389861702919, 0.033045489341020584, -0.03977635130286217, 0.08229506760835648, -0.006010986398905516, -0.036195989698171616, -0.021935824304819107, 0.1351265013217926, 0.1340128630399704, -0.1233130693435669, 0.059827402234077454, 0.10331739485263824, 0.09352409094572067, -0.1508295238018036, 0.10449012368917465, 0.07789885252714157, 0.052217792719602585, -0.11561565101146698, 0.11135125160217285, 0.04681559279561043, -0.08841701596975327, -0.05375729128718376, 0.0031983647495508194, 0.07153359800577164, -0.002872118027880788, 0.006196156609803438, -0.13914021849632263, 0.07534514367580414, 0.018196480348706245, -0.11297346651554108, 0.1992705911397934, 0.16035382449626923, 0.06719080358743668, -0.022278526797890663, -0.04393058642745018, 0.06522754579782486, -0.05152452737092972, 0.06534206867218018, -0.021068397909402847, 0.25054243206977844], [-0.19822710752487183, 0.18628080189228058, 0.09846953302621841, 0.0815153419971466, -0.0022832858376204967, 0.025882333517074585, 0.0988532081246376, 0.038836970925331116, -0.10140292346477509, 0.028400849550962448, -0.06297381222248077, 0.061989784240722656, -0.09506650269031525, -0.009532253257930279, 0.022570518776774406, 0.09191592782735825, 0.04247425124049187, -0.005405832082033157, 0.2668936252593994, -0.12616392970085144, -1.932723716890905e-05, 0.17492784559726715, -0.1867990344762802, -0.21357585489749908, 0.1526145488023758, -0.10316386818885803, -0.08025690913200378, 0.14738744497299194, 0.08951880037784576, -0.0136621268466115, 0.01283778715878725, 0.11269014328718185, 0.01790451630949974, 0.22430336475372314, 0.28051069378852844, 0.14253254234790802, 0.15277281403541565, -0.038794346153736115, 0.060463156551122665, -0.19610673189163208, -0.1840168684720993, 0.15049152076244354, -0.09035513550043106, -0.30492839217185974, 0.16280604898929596, 0.13234737515449524, 0.15236283838748932, 0.25529417395591736, 0.26966220140457153, -0.04736752063035965, 0.17220577597618103, -0.010450421832501888, 0.059449825435876846, -0.08315309882164001, 0.24073746800422668, 0.13087303936481476, 0.09535128623247147, -0.11582814157009125, 0.029391927644610405, 0.1589992642402649, 0.15090160071849823, 0.015558903105556965, 0.021402014419436455, 0.2857363820075989, -0.19188442826271057, 0.008239510469138622, -0.07578632980585098, -0.06386175006628036, 0.10108082741498947, -0.022954873740673065, -0.16739726066589355, 0.005428656004369259, 0.043427735567092896, -0.03526465222239494, -0.11304695159196854], [0.2188345491886139, -0.10818056762218475, -0.10561667382717133, 0.1485285609960556, -0.008326070383191109, -0.032139670103788376, 0.16205742955207825, -0.17554804682731628, -0.025156628340482712, -0.139024555683136, 0.011322751641273499, -0.17996978759765625, 0.05346418917179108, -0.01964414119720459, -0.019752565771341324, -0.08788502216339111, -0.2093963325023651, 0.19810330867767334, 0.09552334249019623, -0.06010173633694649, 0.16332322359085083, 0.22452522814273834, 0.24030499160289764, -0.06682122498750687, -0.14493587613105774, 0.04284536466002464, -0.11755188554525375, 0.04538237303495407, 0.040588490664958954, 0.09928890317678452, -0.13699635863304138, -0.04657680541276932, 0.0013767621712759137, 0.1108090803027153, 0.11476989090442657, -0.06133464723825455, 0.19143256545066833, -0.027171935886144638, 0.24165794253349304, -0.0629294216632843, 0.0898839458823204, 0.1305554211139679, 0.17323724925518036, -0.12810267508029938, 0.20587138831615448, 0.1320199817419052, 0.24721096456050873, 0.17284679412841797, 0.20819593966007233, 0.02062215656042099, 0.14135049283504486, -0.20183181762695312, 0.14245598018169403, -0.05042538419365883, 0.01926307938992977, 0.07375923544168472, 0.21717073023319244, 0.04289298877120018, 0.07395623624324799, -0.049696534872055054, 0.1511763036251068, 0.13013209402561188, -0.210074320435524, 0.09688781946897507, 0.11518809199333191, 0.23714613914489746, 0.2724408507347107, 0.0768907219171524, 0.014827949926257133, 0.17382237315177917, 0.1538354605436325, -0.11447568237781525, -0.12482702732086182, 0.2714717388153076, 0.08311536908149719], [0.03794471547007561, 0.16633665561676025, 0.16493520140647888, -0.2301390916109085, -0.21074500679969788, 0.2086278647184372, 0.03883960843086243, 0.17145326733589172, 0.1913476288318634, -0.03601354733109474, 0.05385163426399231, 0.19903188943862915, 0.19131354987621307, -0.07573176920413971, 0.09279090911149979, 0.10132855176925659, 0.18424175679683685, 0.0609385147690773, -0.16996794939041138, -0.04376029595732689, 0.011299232952296734, -0.02379678748548031, 0.15959151089191437, -0.06266417354345322, 0.031022891402244568, -0.10275258868932724, -0.044348862022161484, 0.17741315066814423, 0.03390771150588989, 0.10106795281171799, 0.20688290894031525, 0.18934541940689087, 0.05348906293511391, -0.02051554061472416, -0.10828331112861633, -0.005475664511322975, 0.13271711766719818, 0.07283798605203629, 0.21801310777664185, 0.21041657030582428, -0.03956916555762291, 0.18654271960258484, 0.13236384093761444, 0.0951571837067604, -0.08492720872163773, -0.22500869631767273, 0.029005074873566628, -0.025768565014004707, -0.17889901995658875, 0.22180980443954468, 0.18955545127391815, 0.2629678249359131, -0.14804887771606445, 0.25646257400512695, 0.0595167838037014, -0.1603773683309555, -0.04809903725981712, 0.0604097805917263, -0.14397485554218292, 0.053173381835222244, 0.1908213049173355, -0.1401105374097824, 0.05573931336402893, 0.005656067281961441, -0.23399291932582855, 0.023134281858801842, 0.14180335402488708, 0.0006275313789956272, -0.19226908683776855, 0.07357972115278244, 0.20678584277629852, 0.19954624772071838, 0.13111811876296997, -0.07574846595525742, 0.24535882472991943], [0.008801230229437351, 0.04702230915427208, -0.13985252380371094, 0.24863259494304657, -0.16669753193855286, -0.13765692710876465, 0.2709534168243408, -0.035113655030727386, -0.02192128263413906, 0.06621436774730682, -0.04048625007271767, 0.1463465690612793, 0.17000801861286163, -0.15692158043384552, -0.15064620971679688, -0.2000012993812561, 0.17193414270877838, -0.1026047095656395, 0.10923973470926285, 0.05254703760147095, -0.13083647191524506, 0.03357899188995361, -0.14676335453987122, -0.11996563524007797, 0.26342976093292236, 0.2498861849308014, 0.0528828389942646, 0.07414737343788147, 0.09639088064432144, 0.1698083132505417, -0.1431364268064499, -0.03070388361811638, -0.1193007156252861, 0.16300132870674133, 0.16742919385433197, 0.1997254341840744, 0.019651494920253754, -0.06326842308044434, 0.11322753131389618, 0.04008246213197708, -0.11798302829265594, -0.08642581105232239, -0.12368812412023544, -0.18108661472797394, 0.007987012155354023, 0.11972659826278687, -0.13518674671649933, 0.22496944665908813, 0.23999808728694916, -0.09817185252904892, 0.2657950818538666, 0.09882073104381561, 0.12339968979358673, -0.09639070183038712, 0.14738094806671143, 0.06843240559101105, 0.22278358042240143, -0.141760915517807, 0.030052466318011284, 0.2690776288509369, 0.06320726126432419, 0.2059817910194397, -0.098150335252285, 0.2021884024143219, 0.05060097202658653, -0.03125901147723198, 0.11006315052509308, 0.11606799811124802, 0.025502685457468033, 0.032399702817201614, 0.11641037464141846, -0.0827384814620018, 0.1467333287000656, -0.02115434966981411, 0.10083121061325073], [0.20505961775779724, -0.0350257083773613, -0.17196357250213623, -0.1078416034579277, 0.12884150445461273, 0.030386723577976227, 0.0989554151892662, -0.015240744687616825, -0.0979444682598114, -0.11318637430667877, 0.04320291429758072, -0.0502227284014225, 0.11219944804906845, -0.025377998128533363, -0.05026082694530487, -0.14581584930419922, 0.042332008481025696, 0.09418018162250519, 0.06846378743648529, -0.007908369414508343, 0.20468489825725555, 0.029269447550177574, -0.03638148680329323, -0.11217054724693298, 0.10881361365318298, 0.08313968777656555, 0.15745919942855835, -0.10803163051605225, -0.02156558260321617, 0.21599413454532623, -0.12284151464700699, -0.07646892964839935, 0.05892627313733101, -0.0753183513879776, -0.013869702816009521, 0.1319064497947693, 0.0924651026725769, -0.09373167902231216, 0.060354381799697876, -0.014727580361068249, -0.004369934555143118, 0.04401189461350441, 0.04972218722105026, 0.01430566981434822, 0.01586495339870453, -0.017059264704585075, -0.0029072975739836693, -0.07074816524982452, -0.04593747481703758, 0.12546546757221222, 0.03341931104660034, -0.04310145229101181, 0.1982147991657257, 0.1578480750322342, 0.09587708860635757, -0.07288064807653427, 0.0822719857096672, 0.010566720739006996, 0.0597810223698616, 0.05520975962281227, 0.012903553433716297, 0.10446574538946152, 0.017909450456500053, -0.07956316322088242, -0.053081344813108444, 0.032182350754737854, 0.1641542762517929, 0.010128302499651909, -0.09386951476335526, -0.0013044712832197547, 0.1754014939069748, -0.01558214146643877, 0.02128611132502556, -0.05647796392440796, 0.10851845890283585], [-0.19991251826286316, 0.04912364482879639, 0.08662348240613937, 0.14817745983600616, 0.05009329319000244, -0.04482544958591461, -0.10832764208316803, 0.14543327689170837, 0.004713365342468023, 0.17698965966701508, 0.1511716991662979, 0.13243569433689117, -0.11810838431119919, 0.23426049947738647, -0.052557703107595444, 0.023514671251177788, 0.0889565646648407, 0.08260834217071533, 0.26788443326950073, 0.11425825208425522, -0.24368570744991302, 0.2095031440258026, -0.1284230649471283, -0.1395832598209381, -0.059246718883514404, -0.05594850704073906, -0.07141342014074326, -0.0450139157474041, 0.0859544426202774, -0.11272089183330536, -0.12588226795196533, -0.016840185970067978, -0.04804960638284683, 0.18441908061504364, 0.2116963267326355, -0.0320156030356884, -0.038881830871105194, 0.1118064895272255, 0.04904226213693619, -0.06574099510908127, 0.102462999522686, -0.16901065409183502, -0.07240226864814758, -0.11837586015462875, 0.03192179650068283, 0.05691878870129585, 0.036637257784605026, 0.08326248824596405, 0.2664344608783722, -0.21371342241764069, 0.020222391933202744, -0.04000227898359299, 0.24988918006420135, -0.1790844053030014, 0.01992911286652088, 0.22408027946949005, 0.010540531948208809, 0.08949100971221924, 0.19856087863445282, 0.07429780066013336, 0.11567825824022293, 0.19107495248317719, 0.19932082295417786, 0.13793136179447174, 0.10350578278303146, 0.015724042430520058, 0.012178607285022736, 0.09143680334091187, 0.23342116177082062, 0.0058191497810184956, -0.22896790504455566, -0.11226893961429596, 0.15656813979148865, 0.07965666055679321, -0.19186125695705414], [-0.023198740556836128, -0.13220036029815674, 0.11866140365600586, -0.04281528666615486, -0.004320583306252956, 0.1959899216890335, -0.0016075267922133207, -0.004117567092180252, 0.05906099081039429, 0.10583878308534622, 0.20809513330459595, -0.09995311498641968, 0.01848668046295643, 0.08832425624132156, 0.2120344191789627, 0.16884052753448486, -0.1877167969942093, 0.08436072617769241, -0.06773222237825394, 0.16816291213035583, 0.029091382399201393, 0.200702503323555, 0.08415346592664719, -0.15525135397911072, -0.2435244917869568, -0.1367884874343872, -0.14580929279327393, 0.14567071199417114, 0.014152126386761665, -0.036509618163108826, 0.013106370344758034, -0.0065915025770664215, 0.2201128453016281, -0.036268629133701324, 0.10665811598300934, -0.026818403974175453, 0.16595719754695892, 0.06369531154632568, 0.17404943704605103, -0.03177304193377495, 0.14650443196296692, -0.00735119916498661, 0.016070829704403877, 0.14033353328704834, 0.02884048968553543, 0.04293572157621384, 0.2635703682899475, 0.18224912881851196, 0.07325736433267593, -0.12652789056301117, 0.009837402030825615, -0.07667915523052216, -0.06452171504497528, -0.045706626027822495, -0.2381625920534134, 0.20378310978412628, -0.03415124863386154, 0.09164587408304214, 0.214242085814476, -0.19053810834884644, 0.11836504936218262, 0.09540537744760513, 0.057246025651693344, 0.13219034671783447, 0.061468079686164856, 0.0407247394323349, 0.16738954186439514, 0.007290529552847147, 0.13746748864650726, 0.07157926261425018, -0.08295003324747086, 0.028105687350034714, -0.10740424692630768, 0.2199215590953827, -0.018659116700291634], [-0.08911006897687912, -0.18327653408050537, -0.01708531752228737, -0.14389784634113312, -0.16673989593982697, 0.008337736129760742, 0.10703202337026596, -0.07435453683137894, 0.055207427591085434, 0.030251536518335342, 0.11072021722793579, -0.03240678831934929, -0.22847387194633484, 0.05956355109810829, 0.17049898207187653, -0.1354924738407135, -0.0732022151350975, 0.1402495950460434, 0.2530224621295929, 0.05063887685537338, 0.03359152004122734, 0.146158829331398, 0.12038537859916687, -0.08813910186290741, -0.09541326761245728, 0.001313376589678228, -0.16496329009532928, 0.028071992099285126, 0.11178838461637497, 0.028921646997332573, -0.002382618375122547, -0.19468723237514496, 0.09891340881586075, -0.023149589076638222, 0.020678678527474403, 0.01751311495900154, -0.01870613917708397, -0.130004420876503, 0.20994573831558228, -0.153703972697258, 0.23814620077610016, -0.03278689831495285, -0.2514360845088959, -0.07388266921043396, 0.018726971000432968, 0.13516516983509064, 0.19390766322612762, 0.15173709392547607, 0.16500142216682434, -0.2680409550666809, 0.043963830918073654, -0.23712889850139618, 0.017079493030905724, -0.013378568924963474, -0.0020443752873688936, 0.1288452297449112, 0.10713376104831696, -0.04960903897881508, 0.1880965381860733, -0.19345663487911224, 0.1884864717721939, 0.2212928831577301, 0.1013232171535492, 0.12368214875459671, 0.05062103644013405, 0.24111390113830566, 0.1938057690858841, 0.009668122045695782, 0.2373688668012619, -0.08066007494926453, -0.0279268566519022, -0.017988422885537148, -0.1784253567457199, 0.08676321059465408, -0.16949088871479034], [0.2093290537595749, -0.03255821764469147, -0.1557992845773697, -0.07746745645999908, -0.16780927777290344, 0.07881303131580353, 0.27486440539360046, -0.003213806077837944, 0.16545549035072327, -0.051538653671741486, 0.044268231838941574, 0.12058751285076141, 0.16685736179351807, -0.1350744217634201, -0.07904896140098572, -0.11213689297437668, 0.1522916555404663, -0.011078659445047379, -0.07014396786689758, -0.07284709066152573, -0.01104429829865694, -0.1725643426179886, 0.0528586320579052, 0.026216069236397743, -0.050358109176158905, 0.03922324255108833, -0.09868385642766953, -0.017980080097913742, 0.007236170582473278, 0.10599496960639954, 0.13149580359458923, -0.07655609399080276, 0.10552258789539337, -0.13493986427783966, -0.1666250377893448, -0.018739864230155945, -0.020268794149160385, 0.21848717331886292, 0.14359509944915771, 0.14862893521785736, 0.07191656529903412, 0.11616231501102448, 0.09314771741628647, 0.11480879783630371, -0.0880299061536789, 0.15008662641048431, 0.14670580625534058, 4.1951057937694713e-05, -0.04289108142256737, 0.14754654467105865, 0.1331951916217804, 2.7295787731418386e-05, -0.08181735128164291, 0.0032897733617573977, 0.17715896666049957, -0.1010417565703392, -0.0740644559264183, 0.00035021762596443295, -0.24220684170722961, 0.06442975997924805, 0.03869160637259483, -0.09270887076854706, -0.04931751266121864, -0.1328568160533905, -0.020182715728878975, -0.06049748882651329, 0.19996577501296997, 0.04900547116994858, 0.018361251801252365, 0.1852341890335083, 0.16480928659439087, 0.04798666015267372, -0.06899795681238174, 0.04653381183743477, 0.06486131995916367], [0.07757162302732468, -0.15595422685146332, 0.014494822360575199, -0.21323907375335693, 0.036839019507169724, -0.008755041286349297, -0.0845549926161766, -0.04086192324757576, 0.2266465276479721, 0.12636318802833557, 0.0712554007768631, 0.02667640708386898, 0.04608037695288658, 0.04378344491124153, 0.2593079209327698, 0.0821390300989151, -0.21892647445201874, 0.19054795801639557, -0.1127672865986824, 0.11059178411960602, 0.2779054343700409, -0.1733078956604004, 0.22001710534095764, 0.2331380695104599, -0.08257546275854111, 0.0833725854754448, 0.04316549375653267, 0.08758442103862762, 0.11782155930995941, 0.010666453279554844, 0.04354551434516907, 0.05056408420205116, 0.017073217779397964, -0.17554153501987457, -0.22281476855278015, 0.16000542044639587, -0.034642789512872696, 0.1814708113670349, 0.06625866889953613, 0.21015554666519165, 0.13962934911251068, 0.02735290676355362, 0.18378882110118866, 0.11479577422142029, 0.03475320711731911, 0.03532681241631508, 0.021138474345207214, -0.04900289699435234, -0.15713545680046082, 0.13681158423423767, -0.22290240228176117, 0.04786960408091545, -0.056562695652246475, 0.20391418039798737, -0.10639077425003052, 0.03057251125574112, -0.07080897688865662, 0.21737411618232727, 0.051472198218107224, -0.08013394474983215, 0.0523233525454998, -0.05194983631372452, 0.1172930896282196, 0.023847384378314018, 0.07154468446969986, 0.14279203116893768, -0.015220594592392445, 0.02052364870905876, 0.002768150996416807, 0.12740100920200348, 0.042347684502601624, 0.19432111084461212, 0.058391276746988297, 0.07596508413553238, 0.09076147526502609], [-0.0033521100413054228, -0.012072693556547165, 0.079183429479599, 0.11649079620838165, 0.08486420661211014, -0.13829053938388824, -0.1355804055929184, -0.06601879000663757, -0.12095746397972107, 0.14618486166000366, 0.2532839775085449, -0.008819475769996643, -0.03008860908448696, 0.1244923546910286, -0.051288362592458725, 0.2002021223306656, -0.22452925145626068, 0.011306695640087128, 0.12591767311096191, 0.24704448878765106, -0.03168444335460663, -0.044239774346351624, 0.016217192634940147, 0.1247352808713913, 0.18068906664848328, 0.08043299615383148, 0.10834400355815887, 0.14787109196186066, -0.14048293232917786, -0.10468367487192154, -0.049151740968227386, 0.02628270536661148, 0.028155764564871788, -0.17124509811401367, 0.22097624838352203, 0.023914478719234467, -0.062463726848363876, 0.09157489240169525, -0.16393637657165527, 0.1697929948568344, 0.16245236992835999, -0.08475104719400406, -0.09286371618509293, 0.2764078378677368, 0.1265455186367035, 0.1638353019952774, 0.022854845970869064, -0.22069652378559113, 0.06469450891017914, -0.11309406161308289, -0.17807234823703766, 0.09591659903526306, 0.12252987176179886, 0.10734567046165466, -0.12191250920295715, 0.2384650856256485, -0.018222182989120483, 0.09827977418899536, 0.20545656979084015, -0.05730225145816803, -0.08886685222387314, 0.019905664026737213, 0.19337601959705353, -0.10009784251451492, 0.12485895305871964, 0.14212043583393097, -0.12269376963376999, -0.0020589041523635387, 0.23649272322654724, -0.06421341747045517, -0.1272653341293335, 0.12421150505542755, 0.007609315682202578, 0.18314389884471893, -0.17456082999706268], [0.2425563633441925, -0.0034123046789318323, -0.03818193078041077, 0.03159158304333687, 0.01254904642701149, -0.2531493902206421, -0.015545479953289032, 0.2085995227098465, 0.24011965095996857, 0.12664452195167542, -0.014664995484054089, 0.03321041166782379, 0.2687448561191559, -0.02517169713973999, -0.12026681751012802, 0.11513282358646393, 0.01432884018868208, -0.09254050999879837, -0.08530201017856598, 0.11377356201410294, 0.12822577357292175, -0.06678858399391174, 0.09499023854732513, 0.22406405210494995, -0.030934248119592667, 0.23603902757167816, 0.13497287034988403, -0.09994714707136154, 0.07630933821201324, 0.074613556265831, 0.23268848657608032, -0.00019172397151123732, -0.09539880603551865, -0.05597233027219772, -0.1633569449186325, 0.13321301341056824, -0.17781773209571838, 0.20720234513282776, -0.13472945988178253, 0.23624391853809357, 0.043988343328237534, -0.1662036031484604, 0.11218307167291641, 0.29379957914352417, -0.1348533183336258, 0.06975395977497101, 0.04272426292300224, -0.0708240494132042, -0.029667440801858902, 0.17321151494979858, -0.03912026807665825, 0.2465008646249771, -0.06600458174943924, 0.25061094760894775, 0.07836081832647324, -0.09251607954502106, -0.25414320826530457, 0.02516334503889084, 0.15421932935714722, 0.006461419630795717, -0.15667405724525452, -0.05691824108362198, 0.13301800191402435, -0.020943351089954376, 0.17986935377120972, 0.09282055497169495, 0.08340439945459366, 0.13245217502117157, 0.013368462212383747, -0.017377719283103943, 0.12737202644348145, 0.1381169855594635, 0.1511092185974121, -0.011372847482562065, 0.24045436084270477], [7.778056169627234e-05, -0.02176780253648758, -0.14623551070690155, 0.28000718355178833, -0.017375878989696503, -0.11532917618751526, 0.09455964714288712, 0.08052252978086472, -0.04215655103325844, -0.08824446052312851, 0.0687478706240654, 0.008145468309521675, -0.045337505638599396, -0.028966637328267097, -0.05646958574652672, -0.24496735632419586, -0.06885776668787003, -0.023980382829904556, 0.12076255679130554, 0.0867227241396904, -0.038788843899965286, 0.033136025071144104, -0.10869523137807846, -0.13810621201992035, 0.01039380393922329, 0.16012020409107208, -0.1367165893316269, -0.04592646285891533, 0.16302204132080078, 0.03842033073306084, -0.012140262871980667, 0.05796894058585167, 0.0052420999854803085, 0.24577189981937408, 0.07952766865491867, -0.0014432809548452497, -0.02499973401427269, -0.11274421960115433, 0.010603468865156174, 0.06569584459066391, 0.09078700095415115, 0.07106399536132812, -0.016454916447401047, -0.10757797211408615, -0.03966585919260979, 0.16477563977241516, 0.11510258167982101, 0.10113907605409622, 0.08320673555135727, 0.043016981333494186, 0.19542299211025238, -0.004162034019827843, 0.05726950615644455, 0.011165538802742958, 0.02074078842997551, 0.019780835136771202, 0.04679020121693611, 0.01315021887421608, 0.12344489246606827, 0.1343478560447693, -0.022651050239801407, 0.05480777844786644, -0.008671987801790237, 0.006001252681016922, 0.026998326182365417, 0.07291337847709656, -0.017998483031988144, 0.10444727540016174, 0.07050715386867523, 0.0987711250782013, 0.11624050885438919, -0.12999360263347626, 0.11289015412330627, 0.05799572914838791, 0.11850538849830627], [0.11318119615316391, 0.14618489146232605, -0.20842626690864563, 0.04336000233888626, -0.13048677146434784, -0.08393394201993942, 0.12165246903896332, 0.05602775514125824, -0.0012453915551304817, -0.09648594260215759, -0.08814674615859985, 0.2285289615392685, 0.19381482899188995, -0.16240163147449493, -0.10955187678337097, -0.17675182223320007, 0.09813190996646881, -0.09956721216440201, 0.050159115344285965, -0.048961006104946136, 0.048171550035476685, 0.0024205963127315044, -0.11545633524656296, 0.08655977249145508, -0.0023505399003624916, 0.2149609923362732, 0.046563781797885895, 0.036132171750068665, 0.09759299457073212, 0.09106536954641342, 0.03699813783168793, 0.040816958993673325, -0.06795018166303635, 0.1172620952129364, -0.007268102373927832, 0.16952961683273315, -0.021271752193570137, -0.10837707668542862, 0.06290202587842941, 0.08418210595846176, -0.12434718757867813, 0.010627775453031063, -0.09581443667411804, -0.07198981195688248, -0.060805633664131165, 0.030790533870458603, -0.11105211079120636, -0.16762256622314453, 0.028693635016679764, 0.19557644426822662, 0.23703762888908386, 0.1906363070011139, -0.06555919349193573, 0.12532274425029755, 0.06506527215242386, -0.17426475882530212, 0.1786368191242218, -0.0713367834687233, 0.07772353291511536, 0.13014556467533112, 0.11920491605997086, 0.17489629983901978, 0.1846141219139099, 0.08616895228624344, -0.09484916180372238, -0.037490081042051315, 0.056539036333560944, 0.03935600444674492, -0.0912875384092331, -0.11590354889631271, 0.06815651804208755, 0.047005701810121536, 0.1361176073551178, -0.1815645396709442, 0.10505542159080505], [0.2278883308172226, -0.24610288441181183, 0.06028437241911888, 0.20564615726470947, 0.12701815366744995, 0.07727591693401337, 0.046442508697509766, -0.21102356910705566, -0.10089782625436783, -0.03592973202466965, 0.16101622581481934, -0.09906356781721115, 0.10126477479934692, -0.13028854131698608, -0.09482083469629288, -0.037436049431562424, -0.1258981078863144, 0.2527692914009094, -0.23836667835712433, -0.09000591933727264, 0.26399683952331543, -0.08444570004940033, 0.2169564664363861, 0.2378479242324829, 0.03850969672203064, 0.16216054558753967, 0.08387966454029083, 0.062417980283498764, 0.09349790215492249, 0.1966555416584015, 0.13236494362354279, -0.06251845508813858, 0.13102073967456818, -0.0389704629778862, 0.00012190495908726007, -0.025679893791675568, 4.0237773646367714e-05, -0.01923447661101818, 0.11057692766189575, 0.09458785504102707, 0.17100685834884644, 0.17385710775852203, 0.254142701625824, 0.23786261677742004, 0.055912598967552185, -0.05468405410647392, 0.04581768438220024, 0.09063492715358734, -0.05978355184197426, 0.27628862857818604, -0.28128838539123535, -0.19228312373161316, 0.077774778008461, 0.1271226704120636, -0.004451026674360037, 0.03839646279811859, 0.07958480715751648, 0.0895577222108841, -0.18867969512939453, 0.15039275586605072, 0.06400188058614731, -0.24594725668430328, -0.15019828081130981, -0.04477982968091965, 0.01518896035850048, -0.08518438786268234, -0.2208525538444519, 0.08080680668354034, 0.047338299453258514, 0.2144034504890442, 0.07919639348983765, -0.16952215135097504, -0.02404549904167652, 0.09232790768146515, 0.0509558841586113], [-0.01727965660393238, 0.10973890870809555, 0.09229860454797745, 0.08459993451833725, 0.1494029462337494, -0.03886249661445618, -0.2179155796766281, 0.16362324357032776, -0.042440108954906464, 0.04386315122246742, 0.07078898698091507, 0.010342122055590153, -0.021555420011281967, 0.17783327400684357, 0.22598373889923096, 0.2703861594200134, -0.2212476283311844, -0.07400353997945786, 0.06982801854610443, 0.11438299715518951, 0.03273976221680641, -0.031139487400650978, -0.20808899402618408, 0.11171239614486694, 0.07169198244810104, -0.09188530594110489, 0.08315662294626236, 0.12038207054138184, -0.06607046723365784, -0.14082667231559753, 0.20925061404705048, 0.1531057357788086, 0.06314573436975479, 0.021168623119592667, 0.045748207718133926, -0.009480013512074947, -0.041809145361185074, 0.059182651340961456, -0.24831953644752502, 0.2479878067970276, 0.23329395055770874, 0.015985090285539627, -0.13826146721839905, 0.21767857670783997, 0.16756831109523773, 0.05584702268242836, -0.00823922548443079, -0.11226282268762589, 0.09133139252662659, -0.054359957575798035, -0.22272905707359314, -0.07959435880184174, 0.007732583209872246, 0.06569752097129822, -0.13727924227714539, 0.24490396678447723, -0.07070498168468475, 0.20863491296768188, 0.0890602245926857, -0.041706714779138565, -0.053357452154159546, 0.08591633290052414, 0.20439913868904114, -0.18130777776241302, 0.22230485081672668, 0.14880037307739258, -0.22275783121585846, -0.03939945995807648, 0.14466190338134766, 0.06506755203008652, -0.2631717920303345, 0.03695983067154884, 0.17411909997463226, 0.052821628749370575, -0.05512864887714386], [-0.08225350826978683, 0.17625181376934052, 0.16860978305339813, -0.12283854186534882, 0.1557963490486145, -0.0037004821933805943, -0.10060107707977295, 0.05726909637451172, 0.1754940152168274, 0.03144121542572975, 0.14159633219242096, 0.12697359919548035, -0.10031316429376602, 0.2145213633775711, 0.07147882133722305, 0.03915392607450485, 0.0280035100877285, -0.07497942447662354, -0.07572902739048004, 0.24813760817050934, -0.02917679399251938, -0.055842891335487366, -0.1749124675989151, -0.07080548256635666, -0.014639434404671192, -0.0885726660490036, 0.12784543633460999, 0.06015835702419281, -0.1123850867152214, -0.14708177745342255, 0.03922300413250923, 0.025658700615167618, 0.07517187297344208, 0.0328279510140419, 0.2154758721590042, -0.05370589718222618, -0.03018667921423912, 0.11594175547361374, -0.06070239096879959, 0.08884492516517639, 0.07010605186223984, 0.0883697047829628, -0.17119088768959045, 0.09676217287778854, 0.03466915339231491, -0.0850437581539154, 0.11844111979007721, -0.03800703585147858, 0.05084299296140671, -0.03604275360703468, -0.07581312209367752, 0.07220761477947235, -0.09850654006004333, 0.017229272052645683, -0.031724777072668076, 0.0870165303349495, -0.2144910842180252, 0.17858187854290009, 0.12596899271011353, -0.16679178178310394, 0.0034617865458130836, 0.1705397218465805, 0.11583155393600464, -0.0406561978161335, 0.07188836485147476, -0.04005305469036102, -0.04039180651307106, -0.05999240279197693, 0.04077102616429329, 0.18802790343761444, -0.22946606576442719, 0.07702416926622391, 0.05620591714978218, -0.101458840072155, -0.059044208377599716], [-0.1081780344247818, 0.2506636679172516, 0.2543317675590515, -0.18814021348953247, 0.05911226570606232, 0.22784897685050964, -0.04663347825407982, 0.24185530841350555, 0.1817941814661026, 0.24152381718158722, 0.04435634985566139, 0.24846425652503967, -0.06900973618030548, 0.22891220450401306, 0.16965703666210175, 0.11030568182468414, 0.17048457264900208, -0.09167225658893585, 0.06253646314144135, 0.144478902220726, -0.12869612872600555, -0.007324072532355785, -0.14733217656612396, -0.15800268948078156, 0.1296975165605545, -0.20316308736801147, 0.06559392064809799, 0.0026481731329113245, -0.1366078108549118, -0.05098818987607956, 0.12366846948862076, 0.1829022616147995, 0.2069915533065796, -0.03145492449402809, 0.05622971057891846, -0.07654101401567459, 0.08104148507118225, 0.03872142732143402, 0.14024770259857178, 0.1830100268125534, 0.1779392957687378, 0.0706101730465889, -0.1258864849805832, 0.18347588181495667, 0.06423195451498032, -0.09544732421636581, 0.0835629478096962, 0.17462529242038727, -0.09731805324554443, 0.111484594643116, 0.18024760484695435, 0.2596592605113983, -0.17783570289611816, -0.07256191223859787, -0.008696265518665314, 0.05704184249043465, -0.21848078072071075, 0.05119156464934349, 0.18128912150859833, 0.03372715413570404, 0.09649164229631424, 0.11288517713546753, 0.26917341351509094, -0.18992629647254944, 0.03217257559299469, 0.05678986385464668, -0.1061951071023941, -0.18436174094676971, 0.04034365713596344, 0.07688397914171219, -0.2964716851711273, 0.25895634293556213, 0.0971173346042633, -0.21689873933792114, -0.10614675283432007], [0.004403681959956884, 0.12389301508665085, -0.04760361462831497, 0.06194937974214554, -0.22064431011676788, 0.016987308859825134, 0.24751237034797668, 0.11833379417657852, 0.02847919799387455, 0.21653729677200317, 0.05759163945913315, 0.0921332910656929, -0.005265981424599886, -0.11607126146554947, -0.20697936415672302, -0.15890420973300934, 0.08461668342351913, -0.044687867164611816, 0.1129760891199112, 0.10087751597166061, -0.03943959251046181, -0.09049177914857864, 0.0105583555996418, 0.08532290160655975, 0.15840120613574982, 0.16976940631866455, 0.00832968857139349, 0.0001304285106016323, 0.03533142805099487, 0.16081897914409637, 0.022221550345420837, 0.14051751792430878, 0.016848543658852577, 0.2098623514175415, 0.10451328009366989, 0.08647841215133667, -0.08549797534942627, 0.08467566221952438, 0.05098060145974159, 0.02747155725955963, -0.1962907463312149, -0.002193344756960869, 0.06304720044136047, -0.08645939081907272, 0.02078266069293022, 0.0020628487691283226, -0.09946492314338684, 0.04932723194360733, 0.1473952680826187, 0.043961815536022186, 0.1938629001379013, 0.14007167518138885, 0.04080061614513397, -0.06905704736709595, 0.16959702968597412, -0.12343039363622665, 0.1386638879776001, -0.19515904784202576, -0.0341312400996685, 0.191542848944664, -0.04379068315029144, 0.06859008967876434, 0.16605038940906525, 0.07649260759353638, 0.0583978071808815, -0.09046526998281479, 0.1712287813425064, 0.1329638808965683, -0.07538404315710068, 0.05385735258460045, 0.10429715365171432, -0.01753416284918785, 0.1920178234577179, -0.1574263870716095, 