{"model": "node_mlp_pca_fair_k3", "layers": [{"type": "lin", "act": "relu", "W": [[0.08322159200906754, 0.16579769551753998, 0.14625179767608643, -0.1266106218099594, -0.025661809369921684, 0.02067558467388153, 0.10343825817108154, -0.1694968044757843, -0.032565969973802567, -0.10599005222320557, 0.22494669258594513, 0.023768143728375435, -0.051727294921875, -0.07436812669038773, -0.0954035148024559, 0.0810794085264206, 0.07929419726133347, -0.13244351744651794, -0.029874227941036224, -0.2081480324268341, -0.12600399553775787, -0.07160389423370361, -0.1427268236875534, -0.037408992648124695, 0.14180050790309906, -0.243879497051239, -0.0804266557097435, -0.0882972702383995, 0.09849679470062256, 0.07788404822349548, -0.170934796333313, -0.13363118469715118], [-0.2026415765285492, -0.07126274704933167, 0.005542420316487551, 0.17876403033733368, -0.10846052318811417, 0.1740531176328659, -0.19929946959018707, -0.10108533501625061, 0.15342111885547638, 0.14027856290340424, 0.07017306983470917, -0.14252981543540955, 0.08431968092918396, 0.16449272632598877, -0.10363921523094177, 0.1349707543849945, -0.039208441972732544, 0.05798293277621269, 0.01983059197664261, 0.20024876296520233, 0.042758069932460785, 0.21819372475147247, 0.0012658018385991454, 0.04472091421484947, -0.036864593625068665, -0.009182201698422432, -0.17322242259979248, -0.19266767799854279, 0.028755763545632362, -0.08891322463750839, -0.14595405757427216, -0.14777757227420807], [-0.08199165761470795, -0.24112269282341003, 0.02672562375664711, 0.10397414118051529, -0.140586718916893, -0.052888572216033936, 0.19924631714820862, 0.08199408650398254, 0.15260767936706543, -0.17074862122535706, -0.1527242511510849, -0.11600641906261444, -0.12353179603815079, -0.06348645687103271, -0.017213916406035423, 0.10173715651035309, -0.05653458461165428, -0.05661287531256676, 0.033661164343357086, 0.021324194967746735, -0.005579956341534853, 0.2234189659357071, -0.1660856008529663, -0.03809001296758652, 0.08553426712751389, 0.04652693122625351, -0.019916629418730736, 0.21367955207824707, -0.16524972021579742, 0.18838804960250854, 0.0877595990896225, 0.1482388973236084], [0.22320765256881714, -0.10570530593395233, -0.011984004639089108, 0.05148885399103165, -0.2105734795331955, -0.007400942035019398, 0.08081343024969101, -0.22827744483947754, -0.19781364500522614, 0.12404346466064453, -0.016862185671925545, 0.021092165261507034, -0.13283248245716095, -0.09539192169904709, 0.13473977148532867, -0.024864843115210533, -0.207732692360878, -0.019400645047426224, 0.009937897324562073, -0.06532903015613556, -0.04168202355504036, 0.08863009512424469, 0.1595659852027893, 0.14369340240955353, 0.008059211075305939, 0.07321441173553467, 0.025259055197238922, 0.08865036070346832, 0.15771004557609558, -0.09765779972076416, -0.046385809779167175, 0.1630955934524536], [-0.18041056394577026, -0.12074840813875198, 0.04495800659060478, 0.12721852958202362, 0.0017573208315297961, -0.07908731698989868, -0.007346119731664658, 0.09138152003288269, 0.1289723515510559, -0.07087627053260803, 0.06682055443525314, -0.26804548501968384, -0.1075160875916481, 0.13716425001621246, -0.07747163623571396, 0.0766289159655571, -0.03917323797941208, -0.19018925726413727, 0.07539504021406174, 0.06359032541513443, -0.03120853751897812, -0.05216025561094284, -0.07680587470531464, -0.08931654691696167, 0.14993086457252502, 0.0040952833369374275, 0.08125975728034973, 0.013207904994487762, -0.10012675821781158, -0.1861320585012436, 0.08299703150987625, -0.18787282705307007], [0.18207380175590515, -0.25503039360046387, -0.13200810551643372, 0.037713248282670975, 0.007108673453330994, 0.03864104673266411, 0.19226625561714172, 0.09239595383405685, -0.13633011281490326, 0.09081438183784485, 0.06311342120170593, 0.23757034540176392, 0.13902975618839264, -0.13155408203601837, -0.2396860420703888, 0.09974336624145508, -0.09631460160017014, 0.07808045297861099, -0.07325897365808487, 0.096677266061306, 0.023764774203300476, 0.2013310045003891, 0.11156344413757324, -0.16442546248435974, 0.2043152153491974, 0.07437773048877716, -0.06890885531902313, 0.18606407940387726, -0.02820535935461521, 0.05041399225592613, -0.10849286615848541, 0.14764896035194397], [0.05029499903321266, 0.13978494703769684, 0.06716771423816681, 0.005921094678342342, -0.16151076555252075, 0.046302299946546555, 0.22930273413658142, 0.055685386061668396, -0.009853295981884003, -0.009554790332913399, -0.06289092451334, -0.12655118107795715, 0.18008612096309662, -0.10384193062782288, -0.21085986495018005, -0.13112755119800568, 0.020688170567154884, 0.17550958693027496, -0.0892338827252388, 0.06289757788181305, -0.03565781190991402, 0.10857639461755753, -0.07828810065984726, -0.11949942260980606, -0.12371360510587692, 0.17040982842445374, -0.15523011982440948, 0.1934317946434021, -0.05861818417906761, 0.21924294531345367, -0.14416424930095673, -0.03145187720656395], [-0.10835063457489014, -0.13738885521888733, -0.040065038949251175, 0.05346259847283363, -0.21051672101020813, -0.17014078795909882, -0.032701682299375534, -0.15777292847633362, 0.06802380084991455, 0.16336725652217865, 0.14374922215938568, 0.24617433547973633, 0.05743132159113884, 0.007200197316706181, 0.17700731754302979, 0.1797657310962677, -0.010449854657053947, 0.0004972174065187573, -0.0127219557762146, -0.15493035316467285, -0.13244374096393585, 0.11596580594778061, -0.15234555304050446, -0.050011251121759415, -0.08429882675409317, 0.05385174974799156, 0.05562268942594528, 0.10103708505630493, -0.08197858184576035, -0.07967229932546616, -0.17555147409439087, -0.14590634405612946], [-0.10048522800207138, -0.031763527542352676, -0.23730872571468353, -0.12590017914772034, 0.022579964250326157, -0.2420632243156433, 0.09253154695034027, -0.10805383324623108, 0.1310066282749176, -0.135642409324646, 0.21598637104034424, 0.074345663189888, -0.12881602346897125, 0.22224809229373932, 0.07905960828065872, -0.15271098911762238, -0.08669570088386536, 0.0029330498073250055, 0.11019586026668549, -0.05434051901102066, -0.05565382167696953, -0.21091288328170776, 0.05700409412384033, -0.05198192596435547, -0.16200876235961914, -0.05361836776137352, -0.04526285082101822, 0.08797033131122589, 0.08160821348428726, 0.15493571758270264, 0.05077827721834183, 0.13863028585910797], [-0.19401371479034424, -0.16529463231563568, -0.005112871527671814, -0.15326309204101562, -0.05940353125333786, -0.04735414683818817, -0.12707899510860443, 0.04528190940618515, -0.1145658940076828, -0.19403183460235596, 0.14807087182998657, 0.032288406044244766, 0.09481503069400787, -0.11382709443569183, -0.12708091735839844, 0.03091937117278576, 0.18569713830947876, 0.00030125834746286273, 0.23845700919628143, -0.026611287146806717, 0.0520479790866375, 0.10628055781126022, -0.034497927874326706, 0.03443782404065132, -0.1877499371767044, 0.0273063313215971, -0.027165506035089493, 0.053903788328170776, 0.005207623355090618, 0.1308627724647522, 0.04227291792631149, 0.08548878878355026], [-0.123740054666996, -0.039171140640974045, 0.10740873962640762, 0.1367407590150833, -0.21700532734394073, -0.06151349097490311, 0.09879065304994583, 0.27301040291786194, -0.11233445256948471, 0.08594200760126114, -0.05304526910185814, -0.15761573612689972, 0.09332595765590668, -0.050936002284288406, 0.17055027186870575, -0.06499138474464417, -0.09069064259529114, 0.092196024954319, -0.05599666014313698, -0.08461923152208328, 0.031980399042367935, -0.04869009926915169, -0.22056637704372406, -0.21848164498806, 0.06915054470300674, -0.12886254489421844, 0.0853671208024025, -0.16786833107471466, -0.04598576948046684, 0.011016307398676872, 0.22498618066310883, -0.0007906653918325901], [-0.1899719089269638, -0.15246066451072693, 0.18229441344738007, 0.08258817344903946, -0.09909986704587936, 0.12053176760673523, -0.03071693331003189, -0.20310121774673462, 0.1691441535949707, 0.19232065975666046, -0.17710882425308228, 0.08817515522241592, -0.09829799830913544, 0.042185720056295395, 0.20572219789028168, -0.03625291585922241, -0.2399572879076004, 0.0457395538687706, -0.029382916167378426, 0.16069765388965607, 0.014467577449977398, 0.0410788431763649, 0.048195451498031616, 0.048534609377384186, 0.02602452039718628, 0.026617679744958878, -0.12012261897325516, -0.011061896570026875, 0.02980487421154976, 0.21049907803535461, 0.16960085928440094, 0.02732759714126587], [-0.17673377692699432, -0.12629394233226776, 0.14461328089237213, -0.04591884836554527, -0.18377314507961273, 0.0650690570473671, 0.006336385849863291, 0.07694718986749649, 0.12545304000377655, -0.02918431907892227, 0.08516156673431396, -0.01142461970448494, -0.09824813157320023, -0.14395779371261597, -0.1778537929058075, 0.20739243924617767, 0.1130913719534874, -0.130746528506279, -0.1593950390815735, -0.1647009402513504, -0.016230212524533272, -0.04949794337153435, -0.15596310794353485, -0.1797407865524292, -0.016914889216423035, 0.18165837228298187, 0.028257546946406364, 0.08011648803949356, -0.20715561509132385, 0.14258700609207153, -0.11012386530637741, -0.02187676727771759], [0.12311223149299622, 0.16219212114810944, -0.002397241536527872, 0.041707608848810196, 0.18625329434871674, -0.10324665158987045, -0.13673357665538788, 0.16398096084594727, -0.05018063634634018, 0.10675426572561264, -0.002603981178253889, -0.1479410082101822, -0.1643686592578888, -0.15342050790786743, -0.0059233978390693665, 0.12804599106311798, -0.12927743792533875, 0.07738732546567917, 0.1728350669145584, -0.2447832077741623, -0.05410904064774513, 0.20798607170581818, 0.08591701835393906, -0.1787383109331131, -0.0994553491473198, -0.04392329603433609, -0.19744691252708435, 0.04988575726747513, 0.07141617685556412, 0.21706928312778473, 0.10240302234888077, -0.20848065614700317], [0.1949063241481781, -0.1423756629228592, -0.2102591097354889, -0.07159149646759033, 0.049965642392635345, -0.06691142171621323, 0.1490412950515747, -0.16378845274448395, -0.015520414337515831, 0.08807741105556488, -0.03836585581302643, -0.21322929859161377, -0.15842236578464508, 0.2493366003036499, 0.0023987542372196913, -0.1698462963104248, -0.1594100147485733, -0.17926260828971863, 0.05628496780991554, 0.04163018614053726, -0.06920667737722397, 0.07908523082733154, -0.13337019085884094, -0.2238292247056961, -0.17268569767475128, 0.137748584151268, -0.007469702512025833, 0.08770197629928589, -0.1176660805940628, 0.10521325469017029, 0.083924300968647, -0.17293977737426758], [0.17187178134918213, -0.13265861570835114, 0.0888226255774498, 0.03062753565609455, 0.08796506375074387, -0.17171232402324677, -0.15296204388141632, 0.20629601180553436, 0.0444561168551445, -0.13827286660671234, 0.0506671778857708, 0.16359049081802368, -0.1451343595981598, -0.09461695700883865, 0.09297848492860794, 0.1351730078458786, -0.025018353015184402, 0.015275750309228897, 0.20988047122955322, -0.054692450910806656, -0.1127498671412468, 0.14371807873249054, -0.1734248846769333, -0.17134350538253784, -0.0979011058807373, -0.12801913917064667, 0.1493198722600937, 0.00729025062173605, -0.15454241633415222, -0.09845907986164093, 0.1020469069480896, -0.10258843749761581], [-0.21577315032482147, -0.08596127480268478, 0.1382441371679306, -0.12380537390708923, -0.15859924256801605, 0.0626617819070816, -0.11004061996936798, -0.049472738057374954, 0.233069509267807, 0.009940635412931442, 0.010606090538203716, 0.1027386412024498, -0.02263469249010086, 0.02499346248805523, -0.07540225237607956, -0.15359412133693695, -0.11799846589565277, 0.16290491819381714, 0.16795513033866882, -0.15103623270988464, -0.04705578833818436, -0.01077676098793745, 0.04613408073782921, 0.19549845159053802, 0.1075550988316536, 0.1426733285188675, 0.12530438601970673, 0.1468784213066101, 0.18449240922927856, 0.17994610965251923, 0.10273522883653641, -0.06728873401880264], [0.1958322525024414, 0.08484998345375061, -0.15601444244384766, 0.06654635816812515, 0.02945585921406746, -0.25614115595817566, 0.10709065943956375, 0.0454569011926651, -0.14581653475761414, 0.060390911996364594, -0.1781432330608368, 0.09853879362344742, -0.11795724928379059, 0.11796030402183533, 0.2266300767660141, 0.1076061949133873, -0.14350411295890808, 0.014549262821674347, -0.04913187772035599, 0.2455262988805771, -0.11394836753606796, -0.16957956552505493, -0.1309630125761032, -0.005491700954735279, 0.18556471168994904, 0.13265961408615112, 0.11459535360336304, 0.0244287122040987, -0.0713142529129982, 0.2633151113986969, -0.11057078838348389, -0.04048457369208336], [-0.08418472111225128, -0.03741447627544403, 0.017084253951907158, 0.15061300992965698, -0.0637744888663292, 0.27017971873283386, -0.15915516018867493, -0.18366816639900208, 0.13985313475131989, 0.10528627038002014, -0.20861981809139252, 0.2628886103630066, 0.028646957129240036, 0.13887721300125122, 0.1444937139749527, -0.2345017045736313, 0.114841029047966, 0.18223078548908234, -0.05692649632692337, 0.055653639137744904, 0.09556625783443451, -0.20524217188358307, -0.20363114774227142, 0.14310503005981445, -0.13758966326713562, 0.07537450641393661, -0.06839499622583389, -0.050954319536685944, 0.06998265534639359, -0.09922044724225998, -0.1999191790819168, -0.15894104540348053], [-0.04778961092233658, 0.21980014443397522, -0.007970530539751053, 0.26278558373451233, 0.21137748658657074, -0.18205782771110535, -0.01674889586865902, 0.08366122096776962, -0.1175173819065094, 0.008073694072663784, 0.02858392708003521, -0.13222074508666992, 0.04448971524834633, -0.005298168398439884, 0.14142945408821106, -0.09208371490240097, -0.1537131816148758, 0.18875887989997864, 0.11052099615335464, -0.1558338850736618, 0.04491957649588585, -0.0016199947567656636, -0.022157512605190277, 0.184088796377182, -0.20721715688705444, 0.015154036693274975, 0.09032922238111496, 0.028150001540780067, -0.179935485124588, -0.0784217119216919, 0.04740660637617111, 0.04742370545864105], [0.043284378945827484, 0.0019081245409324765, -0.08035171777009964, 0.08936261385679245, 0.07440172880887985, -0.08423327654600143, 0.23611657321453094, -0.05030715465545654, -0.15214486420154572, -0.1217975839972496, 0.24356460571289062, -0.18626007437705994, 0.04873351380228996, 0.2538396120071411, 0.033870648592710495, -0.08460751175880432, 0.03875494748353958, 0.0090553043410182, -0.04141989350318909, -0.17275986075401306, 0.1477658450603485, -0.09077761322259903, 0.11665628105401993, -0.17636080086231232, -0.0776526927947998, 0.0700635015964508, -0.20291925966739655, -0.2087073028087616, -0.026053134351968765, -0.059397727251052856, -0.2680042088031769, -0.213979572057724], [0.05197606608271599, 0.19500625133514404, -0.10871422290802002, 0.01739678904414177, -0.024387529119849205, 0.008923838846385479, 0.050222158432006836, 0.1694900393486023, -0.06574659049510956, -0.07562585920095444, -0.09292234480381012, 0.128726527094841, -0.020558198913931847, -0.15794536471366882, 0.14404945075511932, 0.12335065752267838, -0.09388822317123413, 0.05378124490380287, -0.05672242492437363, 0.10049605369567871, 0.19231350719928741, 0.019630489870905876, 0.021736586466431618, 0.09902017563581467, -0.005450941622257233, 0.04182807356119156, 0.19952405989170074, 0.009558482095599174, -0.1271301805973053, -0.14041271805763245, -0.029136814177036285, -0.07021746784448624], [0.19986465573310852, -0.047102782875299454, 0.21000927686691284, -0.10825507342815399, 0.0851656123995781, -0.06892036646604538, 0.21100397408008575, 0.02070748433470726, 0.15202930569648743, -0.030662506818771362, 0.06252282112836838, -0.018798835575580597, 0.02880788780748844, -0.13765227794647217, 0.07778722792863846, -0.2053229659795761, 0.035975564271211624, -0.04985927790403366, -0.1605040580034256, -0.1186625212430954, -0.14348380267620087, -0.1432548612356186, 0.17991769313812256, 0.09255589544773102, 0.05012190714478493, -0.09760600328445435, 0.061119042336940765, 0.10368610918521881, -0.014784722588956356, 0.09769249707460403, -0.012597017921507359, 0.0942123681306839], [-0.009314561262726784, 0.1704019010066986, 0.06740780174732208, -0.08079351484775543, 0.1391114443540573, 0.055405329912900925, -0.15307940542697906, -0.15735718607902527, -0.18797671794891357, 0.03200286999344826, 0.1700579673051834, 0.11809395998716354, -0.01591866835951805, -0.14783060550689697, 0.11696799099445343, 0.20680655539035797, -0.10187887400388718, -0.14508377015590668, -0.10994445532560349, -0.1342204064130783, -0.028045853599905968, -0.02862502820789814, -0.058009155094623566, 0.14572963118553162, 0.14196038246154785, 0.03953535109758377, -0.06896183639764786, -0.1138749048113823, -0.2120022475719452, 0.040357284247875214, -0.09014821797609329, 0.003501885337755084], [-0.10639764368534088, 0.061990100890398026, 0.017426664009690285, -0.12257436662912369, -0.1360003799200058, 0.23725567758083344, -0.014433828182518482, -0.07643759995698929, 0.030678432434797287, 0.030698662623763084, 0.09800855070352554, 0.0783463642001152, -0.17568393051624298, -0.11215420067310333, -0.21593882143497467, -0.2524201273918152, -0.03213927522301674, -0.007983415387570858, 0.16319765150547028, -0.014250465668737888, -0.1788676679134369, 0.16640686988830566, 0.05212153121829033, -0.04208899661898613, -0.17835822701454163, 0.06813327223062515, -0.11230108886957169, -0.09715760499238968, 0.027238449081778526, 0.09108632802963257, 0.08922939002513885, -0.11858777701854706], [0.13618792593479156, 0.09554674476385117, 0.10798186808824539, 0.1420142948627472, -0.2410355806350708, 0.030034959316253662, -0.02807745151221752, -0.05666054040193558, -0.061992015689611435, -0.06340357661247253, 0.12351417541503906, 0.12002866715192795, -0.07671062648296356, 0.11657822132110596, 0.1736929565668106, -0.042403049767017365, 0.17269939184188843, 0.12718072533607483, -0.026406586170196533, -0.13489283621311188, 0.057242173701524734, -0.12396411597728729, 0.08033178746700287, 0.1135878935456276, 0.14272280037403107, -0.011168104596436024, -0.04903266951441765, 0.05888492986559868, -0.028982307761907578, -0.09259506314992905, -0.057940635830163956, 0.1584814488887787], [-0.23143699765205383, -0.020470725372433662, -0.14175546169281006, -0.19029615819454193, -0.0771002471446991, -0.029490692541003227, -0.05275670811533928, -0.1160631775856018, 0.09735184907913208, -0.05447292700409889, 0.12675845623016357, 0.12360828369855881, 0.08145436644554138, 0.08683932572603226, -0.18412981927394867, 0.026781730353832245, -0.0641832947731018, 0.023486483842134476, 0.19214847683906555, 0.07805786281824112, -0.004806680139154196, 0.006231081672012806, 0.13039100170135498, -0.21758927404880524, -0.02489735186100006, -0.17320726811885834, -0.004133604001253843, -0.09060869365930557, -0.07448947429656982, 0.13385175168514252, -0.08084362745285034, -0.09995727241039276], [0.06069684773683548, 0.1406727135181427, -0.02006298117339611, -0.16383622586727142, 0.018862882629036903, 0.1736220270395279, 0.0056110345758497715, 0.06553944945335388, -0.1382051408290863, 0.08676935732364655, 0.17038363218307495, -0.024274898692965508, 0.06744302809238434, 0.0032456202898174524, -0.2519029676914215, -0.04294171929359436, -0.016416095197200775, 0.004549275618046522, 0.1224820464849472, -0.05972659960389137, 0.0922352597117424, 0.10790162533521652, -0.24585507810115814, -0.1443215012550354, 0.10040851682424545, 0.13392598927021027, -0.1326315701007843, 0.15088163316249847, -0.04050742834806442, -0.12337277829647064, 0.23534831404685974, 0.02774958685040474], [0.03030526451766491, -0.07434175908565521, -0.03756129741668701, 0.2122144103050232, 0.1591518372297287, 0.11088794469833374, 0.2655988931655884, 0.0714845284819603, 0.10387911647558212, -0.019817981868982315, 0.059470586478710175, 0.2378236949443817, -0.01976192183792591, 0.10312102735042572, 0.16795781254768372, -0.05076914280653, 0.23004354536533356, -0.009984064847230911, -0.1006459966301918, -0.17177321016788483, -0.0024238568730652332, -0.0393524169921875, -0.033600468188524246, 0.01882149465382099, -0.008368713781237602, -0.20469430088996887, 0.061060890555381775, 0.010101030580699444, 0.2528117001056671, -0.029925532639026642, -0.1367531567811966, 0.09064780920743942], [0.15805920958518982, 0.12303990870714188, 0.08559934794902802, -0.07123584300279617, 0.10655887424945831, -0.060220520943403244, 0.14624859392642975, 0.012298522517085075, -0.13534916937351227, 0.12624554336071014, -0.03563210740685463, -0.16969701647758484, -0.06198468804359436, 0.02233266830444336, -0.023289430886507034, -0.19280993938446045, 0.04254819080233574, 0.12758617103099823, 0.03715372085571289, -0.16541197896003723, -0.13777689635753632, -0.183553546667099, 0.09642014652490616, -0.14965884387493134, 0.13413482904434204, -0.17752879858016968, -0.01911134272813797, -0.0997319146990776, -0.103019580245018, 0.1352946162223816, -0.07182454317808151, 0.12701453268527985], [0.15152783691883087, -0.04358866438269615, -0.1693245768547058, 0.2278447300195694, 0.23851579427719116, 0.01689913496375084, 0.09515966475009918, 0.1741781383752823, 0.10960618406534195, 0.029275359585881233, -0.0506560280919075, 0.07601714134216309, 0.02098979987204075, -0.08326487988233566, -0.123842254281044, 0.2438305765390396, 0.015249505639076233, 0.13247239589691162, 0.15316008031368256, 0.10758783668279648, -0.07928599417209625, 0.039317786693573, 0.19758418202400208, -0.007826467044651508, 0.09284074604511261, 0.07551270723342896, 0.19430607557296753, -0.14081968367099762, -0.011481578461825848, -0.16369639337062836, 0.028207937255501747, 0.02549981139600277], [0.031210144981741905, 0.05730627104640007, -0.14319148659706116, -0.04090741649270058, -0.05278130620718002, -0.2671014368534088, 0.21496839821338654, -0.07566043734550476, 0.09431876987218857, -0.0068245925940573215, -0.20167720317840576, -0.043986257165670395, 0.07997596263885498, -0.06982684880495071, -0.1372712403535843, 0.09626156091690063, 0.24074096977710724, 0.0624111145734787, -0.19307035207748413, 0.02684786356985569, 0.16834481060504913, 0.09270129352807999, -0.10085621476173401, 0.029246089980006218, 0.0037401127628982067, 0.12598328292369843, 0.18420784175395966, 0.08702727407217026, -0.11491913348436356, 0.19861184060573578, -0.06902770698070526, -0.14878103137016296], [0.07303248345851898, -0.05179314687848091, 0.004975143354386091, -0.17174868285655975, 0.05085133761167526, -0.027683669701218605, 0.06975280493497849, -0.20047429203987122, 0.07220317423343658, 0.014402652159333229, 0.11868834495544434, 0.027022559195756912, 0.17001190781593323, -0.1212325245141983, 0.081998810172081, -0.09393066167831421, 0.14533017575740814, 0.06449161469936371, -0.18538568913936615, -0.1517002284526825, -0.0721905380487442, -0.2140101194381714, -0.10844840109348297, -0.17298920452594757, 0.21155864000320435, 0.08401154726743698, -0.1473512053489685, -0.10826542228460312, -0.008000006899237633, -0.12700960040092468, -0.006104168016463518, 0.019909648224711418], [-0.1382322609424591, 0.07486464083194733, -0.18078041076660156, 0.18579033017158508, -0.05099400877952576, 0.1376153826713562, 0.06213340535759926, 0.19479648768901825, -0.22779570519924164, -0.02462051622569561, 0.18062971532344818, -0.1344064623117447, -0.032141730189323425, 0.04153219982981682, -0.09745469689369202, -0.11306110769510269, -0.17920048534870148, -0.19931091368198395, -0.024334343150258064, 0.25069189071655273, 0.057215675711631775, -0.05513415113091469, -0.0814274474978447, 0.23738232254981995, -0.21267466247081757, 0.11925087869167328, -0.1343740075826645, -0.05783417820930481, 0.15972842276096344, 0.06321301311254501, 0.05217938870191574, 0.05751620978116989], [0.18265169858932495, -0.02681245468556881, -0.11461828649044037, -0.01889328472316265, 0.2066776156425476, -0.17249220609664917, -0.10801772773265839, 0.1321740448474884, -0.07149306684732437, 0.03350430354475975, 0.03041592799127102, 0.1536785215139389, -0.06828185170888901, 0.06408624351024628, 0.026845475658774376, -0.11234209686517715, 0.025921475142240524, -0.0744682252407074, -0.023197587579488754, -0.0026728729717433453, 0.08946812152862549, -0.009979762136936188, 0.03739679977297783, -0.20983964204788208, -0.17516838014125824, 0.09530298411846161, -0.007846944965422153, -0.1739645153284073, -0.1815829575061798, -0.15850645303726196, 0.06845885515213013, -0.05836055055260658], [-0.019262274727225304, -0.10750360041856766, -0.07194127887487411, 0.16842882335186005, -0.02223149687051773, 0.22775760293006897, -0.08209680765867233, -0.15937423706054688, -0.01952025294303894, -0.09286639094352722, -0.06462302058935165, 0.18383726477622986, 0.10277251899242401, -0.16732004284858704, 0.18458348512649536, -0.13576823472976685, 0.1664581298828125, -0.06451568752527237, 0.23109866678714752, 0.175617516040802, 0.09603587538003922, 0.10534171760082245, 0.03831583261489868, 0.005721783731132746, 0.18134020268917084, -0.1387319266796112, 0.09482184052467346, 0.04525592178106308, -0.07677852362394333, -0.08492980897426605, -0.0820305198431015, -0.07198581844568253], [0.046235211193561554, -0.08627570420503616, -0.2236247956752777, 0.0969223827123642, 0.051073841750621796, 2.2492557036457583e-05, -0.06558465212583542, 0.11711768805980682, 0.06962750852108002, -0.12699685990810394, -0.05652601644396782, 0.04694889113306999, 0.14637061953544617, -0.09625142812728882, 0.0990697517991066, 0.22039897739887238, -0.02777012065052986, 0.012220358476042747, -0.15534208714962006, 0.14039160311222076, -0.1749260425567627, 0.17897434532642365, -0.03347255289554596, 0.02395068295300007, 0.041778143495321274, 0.02288915030658245, 0.0876227617263794, -0.08266101032495499, -0.14144201576709747, -0.04477803781628609, 0.21120664477348328, -0.1894230842590332], [-0.25776225328445435, -0.09235868602991104, 0.08026926219463348, 0.10783407092094421, 0.16377708315849304, 0.012051762081682682, 0.04770975932478905, 0.06713638454675674, 0.2335854321718216, -0.09529164433479309, -0.06313174217939377, -0.12690559029579163, 0.15430234372615814, 0.0996653288602829, -0.14911040663719177, -0.17788077890872955, -0.21592748165130615, 0.21960584819316864, 0.15316256880760193, -0.021457422524690628, 0.03434218838810921, -0.075516477227211, 0.1054900586605072, 0.04915666580200195, 0.07820937782526016, 0.18849781155586243, 0.14666329324245453, 0.17678646743297577, -0.10878456383943558, 0.041430335491895676, 0.14716404676437378, 0.023967258632183075], [0.17482081055641174, -0.09514599293470383, -0.09131050109863281, -0.20912058651447296, -0.06637375056743622, -0.1296989768743515, 0.1397087275981903, -0.17722085118293762, 0.04759921506047249, 0.023113228380680084, -0.019137317314743996, 0.09642302244901657, 0.1379428207874298, 0.07577654719352722, -0.1906537413597107, -0.11222108453512192, -0.19010844826698303, 0.05812104046344757, -0.0740368589758873, 0.10915680974721909, 0.041954029351472855, -0.23753643035888672, 0.050211235880851746, -0.19503483176231384, 0.10823449492454529, 0.08444641530513763, -0.17423689365386963, 0.08930235356092453, 0.005636144429445267, -0.01380228716880083, 0.15315386652946472, -0.09724663943052292], [-0.06326441466808319, -0.033193185925483704, 0.14314356446266174, 0.22758948802947998, 0.12903189659118652, -0.22165118157863617, -0.18576784431934357, 0.13739438354969025, 0.10626596212387085, -0.13052962720394135, 0.1743098348379135, 0.02213387005031109, -0.14297069609165192, 0.08668789267539978, 0.11287407577037811, -0.09856944531202316, -0.2515604496002197, -0.12630875408649445, -0.03339414671063423, -0.2236471027135849, -0.20850533246994019, 0.0537353977560997, 0.1420932412147522, 0.015536192804574966, -0.12483204156160355, -0.1970188468694687, 0.07564536482095718, 0.13992130756378174, 0.20010969042778015, 0.14761678874492645, -0.08173622936010361, 0.01589527726173401], [0.2171715348958969, 0.15349024534225464, -0.10631721466779709, 0.19594712555408478, 0.042959243059158325, 0.02313576638698578, 0.012863432988524437, 0.17067334055900574, -0.21770398318767548, 0.22077639400959015, -0.19677360355854034, -0.17569305002689362, -0.06379321217536926, 0.0480443499982357, 0.019020063802599907, -0.0003507765068206936, -0.07001671940088272, 0.11433523893356323, 0.07021722197532654, 0.14663471281528473, 0.1483924686908722, 0.033046651631593704, -0.011095021851360798, 0.18632622063159943, -0.13984884321689606, 0.09415231645107269, 0.02651633694767952, -0.24801258742809296, -0.0996331125497818, -0.2194317877292633, 0.16526512801647186, 0.08797241747379303], [0.21151337027549744, 0.15733648836612701, 0.07589658349752426, 0.1462368220090866, -0.06772850453853607, 0.22367700934410095, 0.12042199820280075, -0.1496158391237259, -0.09205035865306854, 0.19847916066646576, -0.1328916996717453, -0.03987151384353638, 0.07579788565635681, -0.14240247011184692, -0.06757762283086777, -0.1420324742794037, -0.0583813413977623, -0.07939418405294418, 0.17974962294101715, 0.1416717767715454, 0.1315077394247055, -0.023114636540412903, 0.08772630989551544, 0.028064008802175522, 0.037768516689538956, -0.10266710072755814, -0.08230654150247574, 0.05337429419159889, -0.053876474499702454, 0.014561530202627182, -0.011455459520220757, 0.06863903999328613], [0.2709401249885559, -0.25769588351249695, 0.14387114346027374, -0.1580926775932312, 0.07925130426883698, -0.21293078362941742, 0.1295400857925415, -0.1039954349398613, -0.14990511536598206, -0.06171146035194397, 0.038762398064136505, 0.030841613188385963, 0.05405256152153015, 0.03849994018673897, -0.15592724084854126, -0.08263321965932846, -0.2433357834815979, -0.06346551328897476, 0.004311449825763702, 0.050273727625608444, -0.1971009522676468, -0.03237227723002434, 0.08149829506874084, -0.07044150680303574, 0.17296797037124634, -0.21335434913635254, 0.010056205093860626, 0.1133817657828331, 0.024365633726119995, 0.2293085753917694, 0.0005083007272332907, -0.011958946473896503], [0.22946742177009583, -0.04877745732665062, 0.05452997609972954, -0.14635086059570312, 0.17703372240066528, -0.05320686846971512, 0.02201082371175289, 0.14880765974521637, 0.057037387043237686, 0.10316035896539688, -0.09630556404590607, -0.22329413890838623, 0.11204634606838226, 0.07802616059780121, 0.10524895787239075, -0.11188893765211105, -0.2274988889694214, 0.18158283829689026, -0.07651941478252411, 0.10343730449676514, -0.067328080534935, 0.030240336433053017, -0.07529759407043457, -0.18962837755680084, -0.08733274787664413, -0.0450720489025116, -0.15678520500659943, -0.02875952050089836, 0.07558547705411911, 0.1444450169801712, -0.12574419379234314, -0.08819262683391571], [0.17840853333473206, 0.1611480712890625, 0.22830139100551605, 0.08776383101940155, 0.007652726490050554, 0.18626761436462402, 0.1472608894109726, -0.01349496841430664, -0.12682445347309113, -0.05201108008623123, 0.06707482039928436, -0.16046534478664398, -0.14684829115867615, -0.07304415851831436, -0.19368255138397217, -0.10946968197822571, 0.06562963128089905, -0.217868372797966, 0.14403359591960907, -0.014758249744772911, 0.03781195357441902, -0.10186634212732315, -0.12424305081367493, -0.09544511884450912, -0.061305973678827286, -0.011881960555911064, 0.11713958531618118, 0.018443865701556206, -0.006463877856731415, -0.09137153625488281, 0.046248070895671844, -0.07247237116098404], [-0.0250361617654562, 0.08634126931428909, -0.08451609313488007, 0.07759037613868713, 0.0074987770058214664, 0.05273331329226494, -0.1750367283821106, -0.0031990758143365383, -0.20232714712619781, 0.07362335920333862, -0.004908687435090542, 0.04132898151874542, 0.047231823205947876, -0.16117766499519348, 0.07821732759475708, 0.02142944745719433, -0.09076933562755585, -0.23580968379974365, -0.01050039753317833, 0.05692476034164429, 0.20501494407653809, -0.11599418520927429, -0.03684313967823982, 0.011989157646894455, 0.11103959381580353, 0.20445974171161652, -0.10282835364341736, 0.09543942660093307, 0.12528353929519653, 0.028621478006243706, -0.07001554220914841, -0.14060965180397034], [0.1855386644601822, 0.09702670574188232, -0.19126050174236298, 0.0041451770812273026, -0.1634315550327301, -0.10380645841360092, -0.17311909794807434, 0.16311341524124146, 0.09856708347797394, 0.10702329128980637, 0.11016731709241867, 0.09583297371864319, -0.07534868270158768, 0.022784151136875153, 0.14200569689273834, -0.042326558381319046, -0.06070595234632492, -0.034101251512765884, 0.175198033452034, 0.2384413778781891, 0.18435300886631012, -0.22501836717128754, 0.008036206476390362, 0.07272019237279892, 0.08917393535375595, -0.10546008497476578, -0.024406708776950836, -0.08358418941497803, -0.06918365508317947, 0.005396077875047922, 0.16052334010601044, 0.13030628859996796], [-0.04323253408074379, 0.08655767887830734, 0.020192371681332588, 0.051235802471637726, -0.08697223663330078, -0.03932087868452072, 0.14927265048027039, 0.188432976603508, -0.17280271649360657, 0.0037609378341585398, -0.11615191400051117, -0.1307818442583084, -0.20185236632823944, -0.22074083983898163, -0.25707876682281494, -0.2556806802749634, 0.1925523579120636, -0.14070981740951538, 0.04210489243268967, 0.12396922707557678, -0.06781364977359772, -0.11117066442966461, -0.14317268133163452, -0.04767046123743057, -0.16030502319335938, 0.05403738468885422, 0.12615832686424255, -0.04650095850229263, 0.1392299234867096, 0.05998847261071205, -0.08682511001825333, 0.1311214566230774], [-0.24487097561359406, 0.22129787504673004, 0.15157760679721832, 0.25188547372817993, 0.0636652410030365, 0.03828972950577736, -0.0642649233341217, -0.19692905247211456, -0.20229770243167877, 0.016471605747938156, 0.09946481883525848, -0.07686951011419296, 0.014852150343358517, 0.10233385860919952, -0.23765207827091217, -0.09097527712583542, 0.010747780092060566, -0.09308802336454391, 0.08544787019491196, 0.057841211557388306, -0.003943696152418852, -0.027460984885692596, -0.13375815749168396, 0.22581888735294342, 0.2335100769996643, 0.12624897062778473, -0.044984593987464905, -0.1515740305185318, -0.08002777397632599, 0.010824098251760006, -0.14213810861110687, 0.19247102737426758], [0.14481554925441742, -0.14026707410812378, 0.0606774240732193, 0.09891413152217865, 0.01231162715703249, 0.10741104185581207, 0.216026172041893, -0.07487646490335464, -0.18203994631767273, 0.06749992817640305, -0.03085765428841114, 0.03298955038189888, -0.03552886098623276, -0.21261915564537048, -0.17211733758449554, -0.09311067312955856, -0.004183772951364517, -0.04729845002293587, -0.18497219681739807, 0.057854894548654556, -0.12176146358251572, 0.09445736557245255, 0.20229797065258026, -0.11241760849952698, 0.23131918907165527, -0.02411711774766445, -0.033610496670007706, 0.12010162323713303, -0.23924806714057922, -0.03754211589694023, -0.14256030321121216, 0.039185069501399994], [-0.20575736463069916, -0.06427010893821716, -0.03815022483468056, 0.11307954788208008, -0.11379840970039368, -0.11944354325532913, 0.01079713273793459, 0.0011739101028069854, 0.19341713190078735, 0.12140440940856934, -0.19446584582328796, 0.17331193387508392, 0.016511570662260056, -0.015196545980870724, 0.008481798693537712, 0.008270401507616043, -0.14120249450206757, 0.1819854974746704, 0.017009582370519638, -0.004777409601956606, 0.19135691225528717, -0.06906768679618835, -0.09638596326112747, 0.21610300242900848, 0.03568687289953232, -0.05355706065893173, 0.15019221603870392, -0.09516290575265884, 0.1430443525314331, -0.05237183719873428, 0.03876066207885742, 0.14176402986049652], [-0.12430426478385925, -0.10812082886695862, 0.2076559066772461, -0.09604982286691666, -0.1762617826461792, 0.04633672535419464, 0.15266980230808258, 0.08821327239274979, 0.18830032646656036, -0.0331672728061676, -0.1570972502231598, 0.08754926174879074, -0.012505627237260342, 0.014440740458667278, 0.17967894673347473, -0.07234053313732147, -0.1507483869791031, 0.041017595678567886, -0.182722806930542, -0.12679129838943481, 0.031578272581100464, 0.14910879731178284, -0.16778038442134857, 0.0895092561841011, -0.19543612003326416, -0.1378377377986908, -0.03702463209629059, -0.16965067386627197, 0.005170456133782864, -0.17183195054531097, -0.07359237223863602, 0.1147487536072731], [0.03672083839774132, 0.09786830842494965, -0.16092067956924438, 0.20857679843902588, -0.1632472574710846, 0.17640572786331177, 0.008442040532827377, 0.00450473977252841, -0.06513185054063797, 0.14058849215507507, 0.22090916335582733, 0.24434472620487213, -0.1410929262638092, -0.1344522386789322, -0.18988047540187836, 0.012454047799110413, 0.08866655826568604, -0.22751550376415253, 0.12375014275312424, -0.08296925574541092, 0.045156434178352356, -0.08474905788898468, 0.07994559407234192, 0.22430776059627533, 0.24153605103492737, 0.16553090512752533, -0.0005794969038106501, 0.00668558944016695, -0.0390625, 0.16689807176589966, -0.11280588805675507, -0.013624372892081738], [-0.04633135348558426, -0.08903615176677704, 0.15688775479793549, -0.08391343057155609, -0.237542524933815, 0.07886961102485657, -0.20927074551582336, -0.11687607318162918, 0.22793982923030853, 0.26526856422424316, 0.07842753082513809, -0.03292817249894142, -0.10608885437250137, 0.03247319161891937, 0.0987275019288063, 0.023636437952518463, -0.03793373331427574, -0.23331330716609955, 0.06500595808029175, -0.20391134917736053, 0.01701747626066208, 0.051835816353559494, -0.14756910502910614, 0.1821601390838623, 0.1113237515091896, 0.007496998645365238, -0.10389310121536255, -0.15112663805484772, -0.11421719938516617, -0.018357865512371063, -0.12539204955101013, -0.054845891892910004], [-0.050857868045568466, 0.11896836012601852, 0.08885052055120468, 0.012088288553059101, -0.17518441379070282, 0.116055928170681, 0.024068688973784447, -0.0304799135774374, -0.14376352727413177, 0.061154115945100784, 0.0042930175550282, 0.012833021581172943, -0.03318401426076889, -0.19224318861961365, -0.15287144482135773, -0.038519300520420074, 0.2112310379743576, -0.04448063671588898, -0.12200377136468887, -0.04070308059453964, -0.09482643008232117, -0.10355757921934128, -0.10235212743282318, 0.1902262568473816, -0.028718726709485054, 0.10609752684831619, 0.22533529996871948, -0.011148865334689617, 0.020216772332787514, 0.0350235290825367, -0.19204604625701904, 0.21907967329025269], [0.030278939753770828, 0.24221792817115784, -0.18996384739875793, -0.11237294226884842, 0.1191990077495575, -0.1782224327325821, -0.010973547585308552, 0.26283544301986694, -0.03870613873004913, -0.21214985847473145, 0.07127423584461212, -0.239629864692688, 0.10110430419445038, 0.14554813504219055, 0.11020965129137039, -0.038940418511629105, -0.07383698225021362, -0.020047053694725037, 0.06614554673433304, 0.08874914050102234, 0.0964951291680336, 0.07046746462583542, -0.14059250056743622, 0.07760054618120193, 0.1826460063457489, -0.018722884356975555, 0.05845789611339569, -0.22199642658233643, 0.04818611219525337, 0.13001391291618347, -0.08568035066127777, 0.030954256653785706], [-0.00012495442933868617, 0.25182288885116577, -0.14918556809425354, -0.1337881237268448, -0.17380622029304504, 0.14437533915042877, -0.11521663516759872, -0.18152229487895966, -0.02184295281767845, -0.0989132970571518, -0.09084860980510712, 0.02680409885942936, -0.15880487859249115, -0.04845735430717468, 0.0974554568529129, 0.1959928572177887, -0.13160313665866852, 0.056463778018951416, -0.09812920540571213, -0.08225791156291962, -0.01590886525809765, -0.08980017900466919, 0.18843874335289001, 0.19465968012809753, 0.08498045802116394, 0.14663943648338318, 0.1623389720916748, 0.09765912592411041, -0.022073620930314064, 0.015221470966935158, -0.08542679250240326, -0.019067227840423584], [-0.008979432284832, -0.10143212229013443, -0.15006494522094727, -0.0027512561064213514, 0.17692150175571442, -0.10828142613172531, 0.02103058621287346, -0.007585662417113781, -0.14201860129833221, 0.0845075398683548, -0.044083625078201294, -0.22238367795944214, -0.1440245807170868, -0.10762766748666763, -0.1588434875011444, -0.014127897098660469, -0.0308054331690073, -0.17239412665367126, -0.09985633194446564, -0.03630346059799194, 0.19999001920223236, -0.04752107337117195, 0.17621470987796783, 0.06552232056856155, 0.0504644401371479, -0.0218949131667614, -0.09971752762794495, -0.14152792096138, -0.265863299369812, -0.15591993927955627, 0.23981024324893951, 0.03929988294839859], [0.04863651096820831, 0.058147672563791275, -0.10895264893770218, 0.08673932403326035, 0.06168742477893829, -0.17023006081581116, -0.1392873078584671, -0.058527883142232895, 0.09410344809293747, -0.10013387352228165, -0.15570904314517975, -0.1675596684217453, -0.1483314037322998, 0.05318455398082733, 0.23676572740077972, 0.0730317234992981, -0.0012345148716121912, 0.03337602689862251, 0.04499993100762367, 0.24392201006412506, -0.07693053781986237, 0.0857992172241211, 0.10234814882278442, 0.06350277364253998, -0.01913384534418583, 0.15071146190166473, 0.15832939743995667, 0.24659444391727448, -0.03615903481841087, -0.09023489058017731, 0.058958619832992554, 0.031819045543670654], [0.17586535215377808, -0.10210617631673813, -0.006455759983509779, -0.19857081770896912, -0.08002614229917526, 0.10065770894289017, -0.09965752065181732, 0.07163280993700027, -0.07421538233757019, 0.1379295140504837, 0.047265034168958664, 0.02520369179546833, -0.2301023006439209, -0.08537159860134125, -0.1339942067861557, -0.11493080854415894, 0.030040482059121132, -0.19707530736923218, 0.2246360331773758, -0.15395110845565796, 0.0059965006075799465, -0.0481850728392601, -0.03995621204376221, 0.11863803118467331, 0.09406954795122147, 0.1730392575263977, -0.12678728997707367, -0.20670531690120697, -0.24794793128967285, -0.11697813868522644, -0.1947641521692276, -0.01408788375556469], [0.1938699632883072, 0.1784285604953766, 0.004722448531538248, -0.09919780492782593, 0.05805009976029396, 0.021770302206277847, 0.07845474034547806, 0.14954011142253876, -0.03250906616449356, 0.09312761574983597, 0.09758733212947845, 0.007007642649114132, -0.004216243978589773, -0.1617887020111084, 0.04615049809217453, 0.028166968375444412, -0.054226022213697433, -0.23722638189792633, -0.11948443949222565, 0.03438016027212143, -0.08187244087457657, -0.04976716637611389, -0.15940812230110168, 0.10731775313615799, -0.09191353619098663, -0.17661987245082855, 0.17921516299247742, -0.1663847416639328, -0.1610473394393921, 0.14612630009651184, 0.22895072400569916, 0.13475455343723297], [-0.2223012000322342, 0.2143445611000061, -0.2200034260749817, 0.17901703715324402, 0.08045247942209244, 0.085776686668396, -0.02614532969892025, 0.08443401008844376, -0.20068661868572235, 0.025860542431473732, -0.04473085701465607, 0.08501210808753967, 0.04496069625020027, -0.09496674686670303, 0.1820022165775299, 0.09528777748346329, 0.13614538311958313, 0.20771129429340363, 0.03884414583444595, 0.00822724774479866, 0.09310078620910645, 0.11656437069177628, 0.15528085827827454, 0.12879875302314758, -0.013782800175249577, -0.014432321302592754, 0.10725477337837219, 0.09912656992673874, -0.0545695535838604, -0.20815236866474152, 0.06451816111803055, 0.05334698036313057], [-0.22722099721431732, -0.2283463329076767, -0.2405417412519455, 0.1567099690437317, 0.04582123085856438, -0.04451612010598183, -0.24991366267204285, 0.023505697026848793, 0.04309401661157608, -0.12553106248378754, -0.2489442676305771, -0.2437012791633606, 0.1223529726266861, -0.18551084399223328, 0.15101397037506104, 0.10330836474895477, 0.06305257230997086, 0.18012608587741852, -0.0808272510766983, 0.09635980427265167, 0.18662115931510925, 0.06905487924814224, -0.1711282581090927, -0.2151869833469391, -0.1441032886505127, -0.011866786517202854, -0.05012539029121399, 0.11968103796243668, 0.035123374313116074, -0.1734238713979721, 0.11409727483987808, 0.08518900722265244], [0.1919291466474533, 0.11874759942293167, -0.18482300639152527, -0.0420210137963295, -0.10895903408527374, 0.13914261758327484, -0.17150303721427917, -0.18979021906852722, -0.034532997757196426, -0.03626973554491997, -0.004169128835201263, 0.038152214139699936, 0.032090216875076294, -0.014553580433130264, 0.18965601921081543, 0.1817047894001007, 0.08398552238941193, -0.06785203516483307, 0.08669594675302505, 0.1349775642156601, 0.24240560829639435, -0.18397937715053558, -0.08213502913713455, -0.028283512219786644, 0.055338677018880844, 0.16261687874794006, -0.09843795001506805, 0.07089366018772125, 0.12343818694353104, -0.054999127984046936, 0.09827964752912521, 0.0074863797053694725], [-0.08481337875127792, 0.14317774772644043, 0.0657113790512085, 0.20072609186172485, 0.06726734340190887, -0.1288396716117859, 0.08358606696128845, 0.20296022295951843, 0.1398267298936844, -0.23664379119873047, 0.14574816823005676, -0.12007667124271393, 0.10026681423187256, 0.12036498636007309, -0.12090867012739182, 0.04520609229803085, -0.09514179825782776, 0.04953039437532425, -0.157032310962677, -0.06884108483791351, 0.09675965458154678, -0.06208954006433487, 0.2546027898788452, 0.11087612062692642, 0.16902165114879608, 0.1700582355260849, 0.013394342735409737, -0.16246066987514496, -0.08448149263858795, -0.24426154792308807, 0.11181607842445374, -0.14823609590530396], [-0.030377335846424103, 0.17685694992542267, -0.09212557971477509, 0.15512272715568542, -0.23479464650154114, 0.02397596277296543, 0.0019422360928729177, -0.05329344421625137, -0.05698961764574051, -0.05366356670856476, -0.009343771263957024, 0.10674042254686356, -0.012149546295404434, -0.024667035788297653, 0.11390960961580276, 0.03242850303649902, -0.10058306902647018, -0.2440090924501419, 0.12607140839099884, 0.07229046523571014, 0.19043846428394318, 0.09737683087587357, 0.1240304559469223, -0.07876262068748474, 0.03535739332437515, 0.00802293885499239, 0.1929759979248047, 0.22636520862579346, -0.06699039041996002, 0.07719429582357407, -0.20076590776443481, -0.06573612987995148], [-0.17619021236896515, 0.07197123765945435, -0.04205409809947014, -0.23542509973049164, -0.14184583723545074, -0.1710282415151596, 0.08949009329080582, -0.18763166666030884, 0.12063585966825485, -0.08693712204694748, -0.12176558375358582, 0.11087430268526077, -0.04554235190153122, -0.20460574328899384, -0.018725043162703514, -0.022074541077017784, -0.0030124757904559374, 0.1778876930475235, -0.000706529594026506, 0.016610387712717056, -0.21457171440124512, -0.08566775918006897, -0.16613833606243134, -0.2042243331670761, -0.20647946000099182, 0.026141438633203506, -0.12892699241638184, -0.07190822064876556, 0.014444204978644848, 0.15298867225646973, -0.150157630443573, -0.10458790510892868], [-0.002014749450609088, 0.020673289895057678, 0.12849046289920807, 0.0864512026309967, -0.08589950948953629, 0.19305475056171417, -0.1586640626192093, 0.04321189597249031, 0.10020621120929718, 0.09662401676177979, 0.197814479470253, 0.07364498823881149, 0.13364575803279877, -0.11786516010761261, -0.11549526453018188, -0.18443483114242554, 0.09375601261854172, -0.17792227864265442, 0.06892725080251694, -0.05944410711526871, 0.04702937230467796, -0.08763933181762695, 0.10019243508577347, 0.0683569684624672, 0.21065376698970795, -0.08647726476192474, 0.03352903574705124, -0.16088391840457916, 0.10154435783624649, 0.01901882328093052, 0.12040062993764877, 0.06463011354207993], [0.16408294439315796, 0.026971811428666115, -0.011153270490467548, -0.09243327379226685, 0.029872694984078407, 0.05729417875409126, 0.08955846726894379, 0.18133418262004852, -0.07753892242908478, 0.057884957641363144, -0.14414650201797485, -0.17205704748630524, 0.044435951858758926, 0.0077111502178013325, 0.24039538204669952, 0.09096252918243408, -0.12463528662919998, 0.029195956885814667, -0.07348127663135529, 0.15759097039699554, 0.19898054003715515, -0.25787410140037537, 0.0934755727648735, 0.039898525923490524, 0.06887663155794144, 0.0628734603524208, 0.24838507175445557, 0.21253490447998047, 0.10740411281585693, 0.12358812987804413, 0.21097342669963837, -0.015092763118445873], [0.02003723382949829, 0.06869799643754959, 0.15377646684646606, -0.1783856600522995, 0.08689216524362564, 0.019970912486314774, 0.12031303346157074, -0.20144003629684448, -0.16298805177211761, 0.18406157195568085, -0.07480986416339874, -0.055927351117134094, 0.030711580067873, -0.034441713243722916, -0.1089036762714386, 0.031217843294143677, -0.007843737490475178, -0.13302208483219147, 0.09828832000494003, -0.182125061750412, 0.08355402201414108, -0.2214309275150299, 0.010335353203117847, -0.1057019978761673, 0.004995189607143402, 0.034592073410749435, -0.18220451474189758, -0.16526173055171967, -0.07980405539274216, 0.04213308170437813, -0.06750233471393585, -0.02668769285082817], [-0.0031919903121888638, 0.12558028101921082, 0.22778217494487762, -0.05210009962320328, -0.16676753759384155, -0.06839284300804138, -0.04485543444752693, -0.1518038958311081, 0.041380684822797775, 0.029285259544849396, 0.07314647734165192, 0.11428114026784897, 0.06460084021091461, -0.02586556039750576, 0.1543237715959549, 0.21951158344745636, 0.20748144388198853, 0.1672114133834839, -0.09941673278808594, 0.0007698869449086487, -0.0058636595495045185, -0.09865865856409073, -0.1669459193944931, 0.027005158364772797, -0.07132238894701004, 0.06997310370206833, -0.0865570604801178, 0.16939374804496765, -0.03465920314192772, -0.1592777669429779, -0.17937783896923065, -0.09581676125526428], [-0.05598893389105797, -0.006948353257030249, -0.14175625145435333, -0.07354841381311417, 0.08790060132741928, -0.18493784964084625, -0.035233911126852036, 0.21395288407802582, -0.1448352187871933, -0.09802350401878357, -0.11724042147397995, 0.17011407017707825, -0.07538119703531265, -0.1808193475008011, 0.2294311374425888, -0.11170213669538498, 0.1377093642950058, 0.12763261795043945, 0.18928971886634827, 0.07484886050224304, -0.09293489903211594, 0.15627126395702362, -0.22545744478702545, 0.00988874863833189, 0.03828020021319389, 0.005443170201033354, 0.012344378978013992, 0.14415967464447021, -0.026994474232196808, 0.08477066457271576, 0.01576513610780239, -0.024456605315208435], [-0.2484024167060852, -0.07027196139097214, 0.16845376789569855, 0.21271131932735443, -0.14675183594226837, -0.013303469866514206, 0.013069892302155495, -0.14954066276550293, -0.15977422893047333, -0.18042443692684174, -0.027126114815473557, 0.09137158840894699, 0.05167490243911743, 0.22172898054122925, 0.18347316980361938, 0.03362220898270607, 0.2512942850589752, -0.048773135989904404, -0.10431097447872162, 0.11049362272024155, -0.13681069016456604, 0.031567227095365524, -0.16921523213386536, -0.03848851099610329, -0.027519846335053444, -0.19073942303657532, -0.020485548302531242, 0.09878513962030411, 0.12310539931058884, -0.1083349883556366, -0.12910529971122742, 0.042047835886478424], [0.15966558456420898, 0.017950568348169327, 0.1884412169456482, -0.2550734579563141, 0.12861700356006622, -0.1187550351023674, 0.17091228067874908, -0.20175300538539886, -0.07147207856178284, 0.05148501321673393, -0.07512830942869186, -0.18430021405220032, 0.21978427469730377, 0.041899099946022034, 0.012609305791556835, -0.1771765798330307, -0.10751722753047943, -0.1230689138174057, -0.0705118328332901, 0.00901029072701931, -0.04997649043798447, -0.029734313488006592, 0.17298360168933868, -0.14447446167469025, 0.14263293147087097, -0.1493813544511795, -0.11641048640012741, 0.00895034521818161, -0.0030814141500741243, -0.05837549269199371, -0.20689651370048523, 0.06968922913074493], [0.20295682549476624, -0.0880294218659401, 0.14467693865299225, -0.2263370156288147, -0.21916958689689636, -0.07675084471702576, 0.08737652748823166, -0.2080499231815338, -0.07925259321928024, -0.04073181003332138, -0.013500098139047623, -0.11113858222961426, 0.23520001769065857, -0.12718436121940613, 0.15426531434059143, -0.044342271983623505, -0.11989250779151917, -0.06285424530506134, -0.2093338817358017, -0.10031826049089432, -0.08448555320501328, -0.08936670422554016, -0.0361785963177681, -0.22562454640865326, 0.08286195993423462, 0.07418577373027802, 0.009596516378223896, 0.1835625171661377, 0.1362495869398117, 0.016758810728788376, -0.13995836675167084, -0.01244994718581438], [-0.022859148681163788, 0.08747734874486923, -0.1265992373228073, 0.1448453813791275, -0.03705345466732979, -0.03565407171845436, 0.027300888672471046, 0.11455556005239487, -0.14284458756446838, -0.006336047779768705, 0.17150446772575378, 0.17715829610824585, -0.18084290623664856, -0.04587871953845024, -0.24320191144943237, 0.24321484565734863, -0.12729360163211823, -0.10686329007148743, -0.1100822314620018, 0.05053451657295227, -0.02114027552306652, -0.10652658343315125, -0.015533490106463432, 0.05259205773472786, 0.13495711982250214, 0.03243526071310043, 0.036839403212070465, -0.07833040505647659, -0.031856536865234375, -0.017923085018992424, -0.04858311638236046, -0.0423920601606369], [-0.12121815979480743, 0.1695147454738617, -0.2115858495235443, 0.1239267885684967, -0.1058548167347908, 0.08945560455322266, -0.14896301925182343, 0.17903824150562286, 0.017994515597820282, 0.0029132007621228695, -0.020330101251602173, -0.23278219997882843, -0.1407327651977539, -0.15925398468971252, 0.09222543984651566, 0.008705826476216316, 0.1409796178340912, -0.03263787180185318, 0.18426066637039185, 0.04557495564222336, 0.25455042719841003, -0.062025703489780426, 0.07239571958780289, 0.19322419166564941, -0.08434167504310608, 0.19128823280334473, 0.2210732251405716, -0.01830366440117359, -0.008694716729223728, 0.10314349085092545, 0.028692303225398064, 0.16676756739616394], [0.056247029453516006, 0.19348882138729095, 0.091641366481781, -0.043672461062669754, 0.04146089032292366, 0.13017620146274567, -0.041925281286239624, 0.007139059714972973, 0.0809548869729042, 0.10255701094865799, -0.15522153675556183, 0.018035227432847023, -0.20410826802253723, 0.03974221274256706, 0.09476103633642197, -0.15228891372680664, 0.07802452147006989, -0.12983176112174988, 0.13515718281269073, 0.21044807136058807, 0.19639430940151215, -0.2040219008922577, -0.15006929636001587, -0.10124295204877853, -0.1141555979847908, -0.04179072007536888, 0.03483344987034798, 0.15755493938922882, -0.01286127045750618, -0.002946942811831832, 0.15993371605873108, 0.07170166075229645], [0.07203513383865356, 0.08321887254714966, -0.0060594342648983, -0.1305750012397766, -0.22464926540851593, -0.10288941860198975, 0.1475408524274826, -0.0065741827711462975, -0.010788177140057087, -0.08637887984514236, 0.03499593585729599, 0.09956124424934387, -0.04096483439207077, 0.1844264715909958, 0.08083977550268173, -0.17902502417564392, 0.228743314743042, 0.1754707396030426, -0.19414177536964417, -0.16938139498233795, -0.08236847817897797, -0.20500929653644562, 0.0194311011582613, -0.09319049119949341, -0.20897041261196136, -0.07115209847688675, -0.16114550828933716, 0.14201314747333527, -0.09212817251682281, 0.20497961342334747, 0.13664446771144867, -0.18582914769649506], [0.18089042603969574, -0.044008441269397736, 0.20077697932720184, 0.172029510140419, 0.13000918924808502, -0.1343713253736496, -0.15908347070217133, -0.061879925429821014, -0.08539474010467529, 0.09209674596786499, 0.09269294887781143, -0.04029751941561699, 0.1528983861207962, 0.15103872120380402, 0.12652446329593658, 0.10443362593650818, -0.101896733045578, -0.12376373261213303, 0.16488946974277496, -0.0527057982981205, 0.04517975449562073, -0.08203728497028351, 0.15103445947170258, 0.07572805881500244, 0.20758701860904694, 0.0016923871589824557, -0.06508533656597137, 0.002047742484137416, -0.19460807740688324, -0.1484452337026596, -0.13371391594409943, -0.18711043894290924], [0.1453729271888733, 0.20971648395061493, 0.058246150612831116, 0.18861684203147888, 0.15702813863754272, -0.17778043448925018, -0.07940889149904251, -0.021857120096683502, -0.004329001996666193, 0.0690830796957016, -0.13081462681293488, 0.06254299730062485, -0.07740964740514755, 0.15416695177555084, 0.01289038360118866, -0.24920131266117096, -0.111956387758255, 0.05735931172966957, -0.034181859344244, -0.16208858788013458, 0.09171655029058456, 0.18261629343032837, 0.09946416318416595, -0.13013984262943268, -0.1843569278717041, 0.16576674580574036, 0.0221084114164114, 0.05395842343568802, -0.06976915895938873, -0.23099276423454285, -0.11358331143856049, 0.11980105191469193], [-0.24166519939899445, 0.0813044011592865, -0.06610388308763504, -0.09144727140665054, -0.233601376414299, 0.21229049563407898, -0.0012503667967393994, -0.07527567446231842, 0.18983198702335358, 0.054643839597702026, -0.13668622076511383, 0.19222909212112427, -0.11635816097259521, 0.2372215986251831, -0.025983154773712158, -0.044370681047439575, -0.06876600533723831, 0.2302999198436737, -0.10742708295583725, -0.09094560146331787, -0.1740507334470749, 0.1074700579047203, -0.05884673818945885, -0.038438186049461365, -0.2261466234922409, -0.14733311533927917, 0.08674495667219162, -0.023164331912994385, 0.08753693103790283, 0.18804208934307098, -0.20801839232444763, -0.12408357858657837], [-0.11975672096014023, 0.15768364071846008, 0.22295185923576355, -0.0459294430911541, -0.056625548750162125, -0.14623533189296722, 0.06612227857112885, -0.027005217969417572, 0.09227021783590317, 0.01787867397069931, -0.1527715027332306, 0.008034124039113522, -0.07758758962154388, 0.18738074600696564, 0.1766841858625412, 0.12868554890155792, 0.061126139014959335, 0.1403452754020691, 0.17792023718357086, -0.09529565274715424, -0.11446268856525421, 0.11432389169931412, -0.06265004724264145, 0.1389065533876419, -0.26056161522865295, 0.00045966001925989985, 0.22316859662532806, 0.16561460494995117, 0.12850207090377808, -0.046891916543245316, -0.07958399504423141, -0.07565222680568695], [-0.09573445469141006, -0.07295450568199158, 0.12433961778879166, 0.18894340097904205, -0.1100044772028923, -0.03729189187288284, 0.18543462455272675, -0.1160268783569336, 0.08264817297458649, 0.1190415471792221, 0.1401936411857605, -0.037233732640743256, 0.14818641543388367, -0.04747120663523674, 0.18166622519493103, -0.07805133610963821, 0.09062285721302032, -0.11236455291509628, 0.22070100903511047, -0.10067559033632278, -0.08484695851802826, -0.10758810490369797, -0.034018028527498245, -0.004701670259237289, 0.1241866871714592, 0.08131557703018188, 0.0749291181564331, 0.09354491531848907, 0.03475481644272804, -0.1811172217130661, -0.01195412315428257, -0.003408597782254219], [0.24067498743534088, 0.005984335672110319, -0.10316336154937744, -0.0176484864205122, 0.21357232332229614, 0.04907560348510742, -0.13696782290935516, 0.02617628313601017, -0.007512860931456089, -0.08049868047237396, -0.05755888298153877, 0.08695796132087708, 0.09441660344600677, -0.04834305867552757, 0.03858838602900505, 0.0491049662232399, 0.11111276596784592, -0.1494179517030716, 0.05806731805205345, 0.012061712332069874, 0.1475476324558258, -0.10290385037660599, -0.1950635462999344, -0.06745178997516632, 0.1130463033914566, 0.18726374208927155, -0.00957124400883913, -0.16699542105197906, 0.06306201219558716, -0.09387975931167603, -0.10425093024969101, -0.06003931164741516], [0.06536104530096054, -0.11568282544612885, 0.2685448229312897, 0.0072983806021511555, -0.046213552355766296, 0.08154179900884628, 0.08046568930149078, -0.24186921119689941, 0.09087139368057251, 0.10612884908914566, -0.053734973073005676, -0.007850134745240211, 0.014223268255591393, -0.23635147511959076, 0.21212011575698853, -0.2465079426765442, -0.19688968360424042, 0.0050520882941782475, -0.11303424090147018, -0.19113701581954956, 0.0815877914428711, 0.08987116813659668, -0.08607275784015656, 0.05137540400028229, -0.022279368713498116, -0.0120948925614357, -0.06790600717067719, -0.0601142980158329, 0.154568612575531, -0.0579557865858078, -0.1075020581483841, -0.10509829968214035], [-0.052086327224969864, 0.08256714046001434, 0.11665134131908417, -0.0277774166315794, 0.0033454198855906725, 0.002663245191797614, 0.1525358408689499, -0.15285465121269226, 0.020184563472867012, -0.21455828845500946, -0.04391248896718025, -0.08891579508781433, 0.07582338899374008, 0.02145751565694809, -0.029447434470057487, -0.255132257938385, 0.102091945707798, -0.07721581310033798, -0.2050175815820694, 0.08496721088886261, -0.1881786733865738, 0.036416102200746536, -0.020663641393184662, 0.06293171644210815, -0.09922183305025101, -0.24128125607967377, 0.004486474208533764, 0.04903996363282204, 0.09769084304571152, 0.20990130305290222, 0.07381685823202133, -0.0766041949391365], [0.24267561733722687, -0.16295254230499268, -0.03888244554400444, 0.06260107457637787, 0.19248828291893005, -0.15600119531154633, -0.045272599905729294, 0.20739313960075378, 0.1289319545030594, 0.05799206718802452, -0.09897921979427338, 0.04095645621418953, 0.15377207100391388, -0.1466692090034485, -0.07149369269609451, -0.2072916477918625, 0.015097501687705517, 0.14852949976921082, -0.22877247631549835, -0.014159131795167923, 0.08546453714370728, -0.050701968371868134, 0.11989244818687439, -0.13788598775863647, 0.06099359318614006, -0.020760292187333107, 0.10691332817077637, 0.19587388634681702, -0.14945654571056366, 0.1050400361418724, 0.13850867748260498, -0.026837415993213654], [-0.2040816843509674, -0.08486036956310272, 0.0745629221200943, 0.17665167152881622, -0.18416914343833923, 0.09606998413801193, -0.10849882662296295, 0.1033443957567215, 0.13774973154067993, -0.013548411428928375, -0.1387808471918106, -0.08889178186655045, 0.04493289813399315, 0.14866158366203308, 0.19947676360607147, -0.10538557916879654, -0.1256062239408493, 0.09714525938034058, 0.20914261043071747, 0.02569015882909298, 0.0035271586384624243, -0.022826889529824257, 0.11692991852760315, 0.08515013754367828, 0.12244052439928055, -0.08206909149885178, 0.17847375571727753, 0.13997578620910645, -0.0815703347325325, -0.006176952738314867, 0.21776622533798218, -0.15305720269680023], [-0.18440702557563782, -0.19006545841693878, 0.06285054236650467, 0.06402712315320969, 0.1101590171456337, 0.1575116664171219, 0.2496349960565567, -0.1115509569644928, 0.25775837898254395, 0.2471461147069931, -0.0897773802280426, 0.09112280607223511, 0.10712455958127975, 0.16474825143814087, 0.1656411737203598, 0.17557325959205627, -0.14774134755134583, 0.0889975056052208, 0.011892290785908699, 0.02713952586054802, 0.04926040396094322, 0.18270765244960785, -0.04936879128217697, 0.10354826599359512, 0.19038645923137665, 0.07721483707427979, 0.10261086374521255, -0.011487131007015705, -0.06798897683620453, -0.12804383039474487, 0.07810278981924057, -0.0023580470588058233], [0.06611718982458115, -0.0031548738479614258, -0.11356963217258453, -0.20593878626823425, -0.1339256316423416, 0.14407086372375488, -0.11504033952951431, 0.06863724440336227, -0.16554035246372223, 0.09546776115894318, 0.03412140533328056, 0.08733195066452026, 0.16004909574985504, -0.15360166132450104, -0.123041070997715, 0.170580193400383, -0.0459388829767704, 0.24090179800987244, 0.024264661595225334, -0.08337036520242691, -0.13800641894340515, -0.04751868546009064, 0.12885910272598267, -0.09199222177267075, 0.09543251991271973, 0.16687782108783722, -0.1634838730096817, -0.02117154188454151, -0.10157705843448639, -0.04211750626564026, -0.035987645387649536, 0.11358311772346497], [0.010170258581638336, -0.07741910219192505, -0.10617898404598236, -0.13708548247814178, -0.0024506670888513327, -0.03577861562371254, -0.053068168461322784, 0.13087263703346252, -0.14776229858398438, 0.027977973222732544, 0.05257480964064598, -0.04769279062747955, 0.1459282785654068, -0.17426139116287231, -0.07097743451595306, -0.004455720540136099, -0.16145680844783783, -0.255606085062027, 0.07203727960586548, -0.18650628626346588, -0.0026634600944817066, -0.048475589603185654, -0.09392455220222473, 0.27086299657821655, -0.05119908228516579, 0.0022653730120509863, 0.09701289981603622, -0.14198154211044312, 0.05387831851840019, 0.20307765901088715, 0.05207888409495354, 0.1883900761604309], [-0.19022327661514282, -0.18785357475280762, 0.05490349233150482, 0.06239641457796097, 0.2126157581806183, -0.13715140521526337, 0.06876683235168457, -0.22176986932754517, 0.05025532469153404, 0.061923377215862274, -0.11583712697029114, -0.05192432925105095, 0.0032931005116552114, 0.24235108494758606, 0.1911856234073639, -0.0670972615480423, -0.06653273850679398, 0.05858496576547623, 0.218718484044075, 0.015117286704480648, -0.13699296116828918, 0.16919144988059998, -0.0006290283636189997, 0.1522689014673233, 0.0011030598543584347, 0.0007188720046542585, -0.007472842466086149, 0.10481531918048859, -0.043167486786842346, -0.14257244765758514, -0.11570405960083008, 0.035017237067222595], [0.014265831559896469, -0.0935058668255806, 0.05339496582746506, -0.09074103087186813, -0.2483552098274231, 0.11873570084571838, -0.14909587800502777, -0.09130828082561493, -0.09074944257736206, 0.19273166358470917, -0.16032810509204865, 0.17428605258464813, -0.04900934547185898, -0.16437870264053345, -0.05752678960561752, -0.14586591720581055, 0.16993677616119385, -0.05193399637937546, 0.11130742728710175, 0.21253211796283722, 0.04989437758922577, -0.12616293132305145, -0.047421012073755264, 0.003051033243536949, -0.235197052359581, 0.05419754609465599, 0.1810004711151123, -0.11227873712778091, 0.10358401387929916, -0.10043291002511978, -0.11337555199861526, -0.14962397515773773]], "b": [0.14096198976039886, 0.15216253697872162, 0.2167416512966156, -0.028384979814291, -0.026449818164110184, 0.04192100092768669, -0.0199362114071846, 0.0975341871380806, -0.09354768693447113, -0.03202091157436371, 0.03386886417865753, 0.007458279374986887, -0.038059450685977936, 0.02499277889728546, 0.016605228185653687, 0.08443471044301987, 0.14682547748088837, -0.050353411585092545, 0.0856984332203865, 0.1815941035747528, -0.05567525699734688, 0.07470973581075668, 0.008423132821917534, -0.11728467047214508, 0.18395958840847015, 0.16252008080482483, 0.19469571113586426, -0.05573730915784836, -0.1334407776594162, 0.19251418113708496, 0.17285946011543274, -0.08841569721698761, 0.23171983659267426, 0.09881855547428131, 0.07892900705337524, -0.07693900913000107, 0.08870517462491989, 0.12432580441236496, -0.14488403499126434, 0.10883031785488129, 0.24745900928974152, 0.17429861426353455, 0.027270006015896797, 0.17285136878490448, 0.13137204945087433, 0.1529274582862854, 0.09670025110244751, 0.1048738956451416, 0.20557716488838196, 0.09637848287820816, 0.0610673613846302, 0.21088340878486633, 0.12854918837547302, -0.07910145819187164, 0.17507338523864746, 0.09311303496360779, -0.059183504432439804, 0.023708513006567955, 0.1076313778758049, -0.035589348524808884, 0.13889238238334656, 0.26312732696533203, 0.007752257864922285, 0.008673318661749363, -0.12494555860757828, 0.14490124583244324, 0.05516628548502922, 0.031079797074198723, 0.16936072707176208, 0.2428179532289505, -0.07280896604061127, -0.12605170905590057, -0.04669170454144478, 0.0024728924036026, 0.20256339013576508, 0.01665487326681614, 0.0571989044547081, -0.12827777862548828, 0.06905147433280945, 0.13203562796115875, -0.0035272743552923203, -0.030291924253106117, -0.08176806569099426, 0.10917934775352478, -0.008798090741038322, 0.0347803570330143, 0.1914176046848297, -0.022809840738773346, 0.19663487374782562, -0.03634628653526306, -0.029671531170606613, -0.048319894820451736, -0.07635774463415146, -0.03283433988690376]}, {"type": "lin", "act": "relu", "W": [[-0.07844522595405579, -0.12636351585388184, -0.09491455554962158, 0.00747488671913743, -0.042008593678474426, -0.024603677913546562, -0.007986178621649742, 0.05702488496899605, 0.14429545402526855, 0.037728529423475266, -0.04257497936487198, 0.09135660529136658, -0.06122596189379692, -0.0009304717532359064, 0.09255935251712799, 0.036448314785957336, -0.08308650553226471, -0.07286769896745682, -0.09520088881254196, -0.05642898380756378, 0.02090645208954811, 0.061706021428108215, -0.07075949013233185, -0.09406231343746185, -0.035447072237730026, -0.1400115042924881, 0.0649271309375763, -0.05919666588306427, 0.06418082863092422, 0.043639782816171646, 0.14813904464244843, -0.11117775738239288, -0.05531816557049751, -0.012708554975688457, 0.152953639626503, 0.06777369230985641, 0.006467153783887625, -0.007791547104716301, -0.07160872220993042, 0.014506337232887745, -0.09242798388004303, -0.09662360697984695, -0.14193788170814514, 0.06093572825193405, 0.006173050031065941, -0.1141756996512413, -0.025275344029068947, 0.09339415282011032, -0.01639130525290966, -0.09806735068559647, -0.11277082562446594, -0.05669746547937393, 0.01645071990787983, -0.045453332364559174, -0.05086967721581459, 0.03261147439479828, -0.07630874961614609, 0.15005680918693542, -0.02642851509153843, 0.03376592695713043, 0.10793553292751312, 0.07797759026288986, 0.12570436298847198, 0.08824068307876587, 0.08032044023275375, 0.016429124400019646, 0.002607843140140176, 0.09732360392808914, -0.10574162006378174, 0.009020146913826466, 0.00463103735819459, -0.06582081317901611, -0.004943767562508583, 0.016062162816524506, -0.10212944447994232, 0.12598580121994019, 0.05718393623828888, 0.03681595250964165, 0.06172213703393936, -0.09533005952835083, 0.040263209491968155, -0.07084422558546066, -0.10413017868995667, -0.09088673442602158, -0.054829079657793045, -0.043718233704566956, -0.055283501744270325, -0.01894528418779373, -0.11041524261236191, -0.0524907223880291, -0.027074189856648445, 0.14914460480213165, -0.07292421162128448, 0.09263894706964493], [-0.04635825753211975, 0.18356908857822418, -0.03324821963906288, -0.07616479694843292, 0.04499785229563713, 0.022546889260411263, -0.13179165124893188, 0.11180806159973145, 0.0184603501111269, 0.02056986838579178, 0.02757655270397663, 0.0046441578306257725, 0.1646374613046646, 0.07377471774816513, 0.036054015159606934, -0.01847219280898571, 0.12476761639118195, -0.023265324532985687, -0.009029848501086235, 0.08245570212602615, 0.08548974990844727, 0.07006050646305084, -0.028298191726207733, -0.04937755689024925, -0.0013967930572107434, -0.06844277679920197, 0.1057378277182579, -0.01872224546968937, 0.14376747608184814, -0.04147613048553467, 0.1511821150779724, -0.034428130835294724, 0.030927225947380066, 0.04665626585483551, -0.012034587562084198, 0.007741353940218687, 0.058385446667671204, 0.0026742180343717337, -0.02695612423121929, -0.007036703173071146, 0.057282693684101105, -0.07592383027076721, -0.05694271996617317, 0.024305274710059166, 0.008456625044345856, -0.0956539586186409, -0.04576597735285759, 0.10551656037569046, -0.010881631635129452, 0.1217966079711914, 0.02481643110513687, -0.009213477373123169, -0.06574208289384842, 0.05449778959155083, 0.024321775883436203, -0.045101627707481384, -0.03689718618988991, 0.16042587161064148, 0.03711032122373581, 0.06302590668201447, 0.02248987928032875, 0.08156555145978928, 0.1399017572402954, 0.09427177160978317, 0.17382663488388062, -0.001991044729948044, -0.018984859809279442, 0.020754395052790642, -0.06658081710338593, -0.02354244701564312, 0.037317901849746704, 0.03190367668867111, -0.013977808877825737, 0.045219019055366516, -0.021805692464113235, 0.08359989523887634, 0.10994633287191391, 0.08583716303110123, -0.08877702057361603, 0.09447126090526581, -0.04867911711335182, -0.11185487359762192, 0.031082166358828545, 0.14496323466300964, 0.02959795854985714, -0.09937281161546707, -0.11323963105678558, -0.029538948088884354, 0.03602878376841545, 0.09227017313241959, -0.04747435078024864, 0.04940680041909218, 0.17659446597099304, -0.02209511026740074], [0.053706444799900055, -0.08878034353256226, -0.03535284474492073, 0.095124751329422, -0.10969924926757812, -0.14883670210838318, 0.05833750218153, 0.09984442591667175, -0.007971466518938541, -0.001643164549022913, 0.07831700891256332, 0.051050152629613876, 0.00428337836638093, 0.0767759457230568, -0.061009377241134644, -0.09246567636728287, 0.06903297454118729, 0.02502741478383541, 0.020454630255699158, -0.028798047453165054, -0.03235665708780289, 0.04089602082967758, 0.12396223098039627, -0.0698179230093956, 0.08914957195520401, 0.12248433381319046, -0.04818517342209816, 0.029414979740977287, 0.04142314940690994, -0.004666807129979134, -0.022234909236431122, 0.13363096117973328, 0.10281196981668472, -0.05488087236881256, -0.08771684020757675, -0.08554456382989883, -0.04797821864485741, -0.1440586894750595, -0.01829340122640133, -0.07819342613220215, 0.011492823250591755, 0.11335539072751999, -0.07147631794214249, 0.00425587547942996, 0.11413107067346573, -0.04020623862743378, 0.18911612033843994, 0.1006704792380333, 0.16574522852897644, 0.009155389852821827, -0.02870110049843788, 0.07741888612508774, 0.037442293018102646, 0.012823672965168953, 0.17735902965068817, 0.05248691886663437, 0.171751007437706, -0.056106194853782654, 0.007367676589637995, -0.04660656303167343, 0.15687908232212067, -0.03770054876804352, -0.00902108009904623, 0.09115219861268997, 0.006546517834067345, 0.012740577571094036, 0.09697604179382324, 0.06454341113567352, 0.027733465656638145, 0.01876153238117695, 0.08973757922649384, -0.09669233113527298, 0.01718473620712757, 0.03202882781624794, 0.09398802369832993, 0.0884425938129425, 0.12657184898853302, 0.07105650752782822, 0.0035871712025254965, 0.006955393590033054, 0.055045053362846375, 0.06871387362480164, 0.06830346584320068, 0.13930629193782806, -0.0625838115811348, 0.0892791748046875, 0.07530444115400314, 0.02926589548587799, -0.08763984590768814, -0.12693631649017334, 0.058883436024188995, -0.012027448043227196, -0.005818539299070835, 0.06191316992044449], [-0.002837532199919224, -0.014413520693778992, -0.01846420019865036, 0.18479160964488983, -0.16086381673812866, 0.09122635424137115, 0.062391649931669235, -0.0737561509013176, -0.05014563351869583, -0.09598660469055176, -0.06125866621732712, -0.042333610355854034, 0.11027755588293076, -0.022186800837516785, 0.1626901626586914, -0.14624223113059998, -0.04441828653216362, 0.08915507048368454, 0.14869537949562073, -0.004190030507743359, 0.055010054260492325, 0.10314172506332397, 0.13298514485359192, 0.05486619472503662, 0.007627710234373808, 0.1461247056722641, 0.022773247212171555, 0.1313106119632721, -0.011821186169981956, 0.15983828902244568, 0.026120392605662346, 0.051744405180215836, 0.17479754984378815, 0.05293329432606697, 0.04936347156763077, 0.11525030434131622, -0.17413198947906494, -0.05615106597542763, 0.06929433345794678, -0.17587581276893616, 0.08675894141197205, 0.12036588788032532, 0.18391011655330658, 0.010499834083020687, 0.19067703187465668, 0.020695939660072327, 0.03269217908382416, 0.1518387645483017, 0.14560559391975403, -0.007680580019950867, 0.05841876566410065, -0.003104445291683078, 0.004480822943150997, -0.019109126180410385, 0.10778988152742386, -0.00918411836028099, 0.172083780169487, 0.023732634261250496, -0.032858993858098984, 0.03970906883478165, 0.03914935141801834, 0.009733503684401512, -0.06357165426015854, 0.1046241745352745, -0.0500367246568203, 0.15583664178848267, 0.007938493974506855, 0.007996679283678532, 0.059188682585954666, 0.16857606172561646, 0.03535536304116249, -0.17838513851165771, 0.010369056835770607, 0.012753954157233238, 0.0892733484506607, 0.061386726796627045, 0.03985707834362984, 0.10870245099067688, 0.1567012071609497, -0.047264792025089264, 0.06157940626144409, 0.015233420766890049, 0.06722860038280487, -0.014978474006056786, 0.040664080530405045, 0.13824068009853363, 0.11615444719791412, -0.0917135626077652, -0.17607496678829193, -0.13710807263851166, 0.15481790900230408, 0.1311921626329422, -0.08877411484718323, 0.1569700837135315], [0.07441352307796478, 0.05100000649690628, -0.03498152643442154, 0.11977598071098328, -0.08202297240495682, -0.040879156440496445, 0.0687265545129776, 0.07571232318878174, 0.03420231491327286, 0.10399048775434494, 0.0003927740326616913, 0.16349194943904877, 0.01941504143178463, -0.07451675087213516, -0.03401622176170349, -0.030588345602154732, 0.06697762757539749, -0.08418695628643036, -0.02132815308868885, 0.07491715252399445, 0.045045822858810425, -0.08175067603588104, 0.14590689539909363, 0.003572666086256504, 0.044282834976911545, 0.004853472579270601, -0.010931875556707382, 0.04348987340927124, 0.13793712854385376, 0.04698798805475235, 0.010487296618521214, 0.08812128752470016, -0.01288716308772564, 0.04046965390443802, -0.10637292265892029, 0.14103561639785767, 0.04559781029820442, 0.09980282932519913, 0.035710208117961884, 0.02499561570584774, -0.0062497262842953205, 0.03359872102737427, 0.02344052493572235, -0.03408147394657135, 0.09864343702793121, -0.08364617824554443, 0.06648965924978256, 0.11090075969696045, 0.07433540374040604, -0.04731423035264015, -0.016991745680570602, 0.18462905287742615, -0.06190826743841171, 0.09485261142253876, -0.011110885068774223, -0.04572821781039238, -0.0640028715133667, -0.03487160801887512, -0.06359703093767166, 0.07130927592515945, 0.049726150929927826, 0.027889434248209, -0.07029547542333603, 0.07165801525115967, 0.03985297307372093, 0.04523384943604469, 0.05131576955318451, 0.09695885330438614, -0.1073240414261818, -0.01645559072494507, 0.0323767252266407, 0.06684470921754837, 0.017280040308833122, 0.08250187337398529, -0.02237485907971859, -0.15086956322193146, 0.09226544201374054, 0.05875060707330704, -0.07516200095415115, -0.11188351362943649, -0.08384706825017929, 0.08498640358448029, 0.05770895257592201, 0.05529237538576126, -0.07281973958015442, 0.010636348277330399, 0.11731712520122528, -0.010278920643031597, 0.023318486288189888, 0.06737510114908218, 0.04728243872523308, 0.07209260761737823, 0.04331512749195099, 0.041907016187906265], [-0.12162848562002182, -0.10163741558790207, -0.10256309062242508, -0.012074686586856842, -0.11828258633613586, 0.04795973747968674, -0.06456329673528671, -0.09359671920537949, -0.11675699055194855, -0.07692410051822662, 0.030260030180215836, -0.01995583064854145, -0.10325481742620468, 0.022391032427549362, 0.029386261478066444, 0.0369177982211113, -0.17920532822608948, 0.05452403053641319, 0.09082174301147461, 0.15025372803211212, 0.07673241198062897, 0.0199125949293375, -0.006407299544662237, 0.12948554754257202, -0.10327542573213577, 0.1301993876695633, -0.06392011791467667, -0.021085519343614578, -0.08020506799221039, 0.06448960304260254, 0.031377341598272324, 0.025067390874028206, 0.01776558719575405, 0.056350383907556534, -0.01344508957117796, 0.1735345423221588, 0.06435266882181168, 0.1410466879606247, -0.042472172528505325, 0.04263616353273392, 0.0531492754817009, 0.1492270976305008, -0.09527403116226196, -0.020616082474589348, 0.0467674657702446, 0.11785493791103363, 0.1849181354045868, -0.11788799613714218, -0.03884580731391907, 0.0714617446064949, 0.040186598896980286, -0.044763803482055664, 0.10802584141492844, -0.0833643227815628, 0.11952737718820572, 0.06750315427780151, 0.05478036776185036, 0.035686150193214417, 0.0105189960449934, -0.06122099235653877, -0.04619539529085159, 0.14905135333538055, 0.031094219535589218, 0.004134807735681534, 0.005116155371069908, 0.1573629230260849, -0.0431986041367054, 0.17831847071647644, 0.038933467119932175, -0.10913846641778946, 0.06942854076623917, -0.017856037244200706, -0.09337861090898514, -0.05848758667707443, -0.010425539687275887, 0.025645053014159203, 0.16632388532161713, 0.015235748142004013, -0.09974849969148636, 0.1230194941163063, 0.17158809304237366, -0.12517553567886353, -0.11921824514865875, 0.14790551364421844, 0.06529508531093597, 0.02585972100496292, -0.005929215345531702, 0.11493152379989624, 0.15822094678878784, -0.060039132833480835, 0.12863518297672272, 0.07133505493402481, -0.06934948265552521, -0.010486355051398277], [0.06910545378923416, 0.09240926057100296, 0.04173310101032257, 0.12936823070049286, -0.10968369245529175, 0.009525448083877563, 0.06874547898769379, 0.1488596349954605, -0.13034236431121826, 0.12241379171609879, -0.057589586824178696, 0.02900528348982334, 0.17003662884235382, -0.05921533703804016, -0.008378861472010612, -0.07703976333141327, 0.0001002226272248663, -0.06660015136003494, 0.07801538705825806, 0.06694938242435455, -0.12786272168159485, 0.074699766933918, -0.09086461365222931, 0.13081562519073486, 0.14480476081371307, 0.04830613359808922, -0.004274968523532152, -0.05101747810840607, 0.08246365189552307, -0.043473079800605774, 0.03441188484430313, -0.07045818120241165, 0.046325698494911194, -0.08672404289245605, -0.033035650849342346, 0.037809599190950394, -0.0317731574177742, 0.12159618735313416, -0.09114446491003036, 0.017010856419801712, -0.10239212214946747, 0.19152817130088806, -0.023802636191248894, -0.09707017242908478, 0.08808404207229614, 0.14788344502449036, 0.03298727795481682, 0.06323755532503128, 0.18238763511180878, 0.045998428016901016, -0.005019898060709238, 0.027762195095419884, 0.13581113517284393, 0.049308035522699356, 0.09861336648464203, 0.06812001019716263, 0.14072883129119873, 0.04618673026561737, -0.1431054174900055, 0.14151088893413544, 0.008561095222830772, -0.04288654029369354, 0.0009986840886995196, 0.045518659055233, 0.047051891684532166, 0.08285048604011536, 0.03400104120373726, 0.12318909913301468, -0.10694582760334015, 0.09147876501083374, 0.11983174085617065, -0.024440914392471313, 0.1354137659072876, -0.08698717504739761, 0.02093753218650818, 0.0500657856464386, 0.09094539284706116, 0.07853548228740692, 0.0786917582154274, 0.07764596492052078, 0.053014080971479416, 0.0694190040230751, 0.10090470314025879, 0.02108686976134777, 0.031762901693582535, 0.01830357313156128, 0.08966638892889023, -0.13064052164554596, -0.08793126791715622, 0.042230747640132904, 0.07186407595872879, 0.06943997740745544, 0.008163684979081154, 0.16053658723831177], [0.08442994207143784, -0.012483445927500725, -0.10836824774742126, -0.09903495013713837, 0.06830476969480515, -0.14679692685604095, 0.001795209595002234, -0.051487378776073456, 0.11372817307710648, 0.016144903376698494, 0.03160474821925163, -0.05399779602885246, 0.058652713894844055, 0.012140920385718346, 0.0968230664730072, 0.011939975433051586, -0.11385027319192886, -0.03819142282009125, 0.04602286219596863, -0.040043771266937256, 0.0543629489839077, -0.12080598622560501, 0.11899092048406601, -0.011059248819947243, -0.12641146779060364, -0.0018751741154119372, -0.10573436319828033, -0.12351855635643005, 0.05371948704123497, -7.911174179753289e-05, 0.028897004202008247, -0.01778489537537098, -0.07960096746683121, 0.06378322094678879, -0.04762520641088486, -0.051452137529850006, 0.010381225496530533, -0.031182635575532913, 0.034113798290491104, -0.105311319231987, -0.04430174455046654, -0.09332665055990219, -0.09175264835357666, 0.04363152012228966, 0.05809396877884865, -0.007875707931816578, 0.08873629570007324, -0.019830776378512383, 0.05840286985039711, -0.06983833760023117, 0.05618440732359886, 0.05657783895730972, 0.0944523736834526, 0.025587014853954315, -0.0683419331908226, 0.0837518572807312, 0.006813845597207546, -0.0002511806960683316, 0.03454669564962387, 0.028504405170679092, 0.09537766873836517, 0.0020666741766035557, -0.12814010679721832, 0.022951748222112656, -0.09763035178184509, 0.02026168256998062, -0.020964907482266426, -0.11066821962594986, -0.019278662279248238, 0.037656862288713455, -0.06244080513715744, 0.07558895647525787, 0.012205827981233597, -0.012499623000621796, -0.02669582888484001, -0.0093107670545578, 0.056231893599033356, 0.024039456620812416, 0.03406025841832161, -0.0007749886135570705, -0.03940735384821892, 0.023612767457962036, -0.10888467729091644, 0.06264196336269379, -0.0905519425868988, -0.033894870430231094, -0.05390571430325508, -0.14032888412475586, -0.058342624455690384, -0.1232810840010643, -0.09694284200668335, -0.004118725191801786, -0.1166519895195961, -0.011354119516909122], [-0.015037961304187775, 0.007314993999898434, 0.010240188799798489, 0.054473958909511566, -0.08662238717079163, 0.01981489732861519, -0.0008599670836701989, -0.026761405169963837, 0.0765233188867569, -0.06439494341611862, 0.15347820520401, 0.07245813310146332, -0.014706408604979515, 0.013184965588152409, 0.14264695346355438, -0.016317497938871384, 0.04191271960735321, 0.1982755959033966, -0.1000426635146141, 0.058364879339933395, 0.06215744465589523, 0.06395234912633896, 0.0028560771606862545, -0.11188274621963501, -0.10261434316635132, 0.07731249183416367, 0.04274621605873108, -0.07941008359193802, 0.0014161854051053524, 0.025876181200146675, 0.041393160820007324, 0.05416743829846382, 0.024885982275009155, 0.07694641500711441, -0.12228342890739441, 0.02485719695687294, 0.039725225418806076, 0.027674974873661995, 0.06830976903438568, 0.15310758352279663, 0.04560115560889244, 0.02903287671506405, 0.13416114449501038, 0.010966514237225056, 0.135360985994339, -0.07812273502349854, 0.024063490331172943, -0.08817487955093384, -0.08088738471269608, -0.03376394510269165, -0.056935060769319534, 0.025709956884384155, -0.05461404472589493, -0.10598589479923248, 0.010757877491414547, 0.16639377176761627, -0.010338674299418926, -0.019029615446925163, 0.04276108741760254, 0.011400450021028519, 0.17613916099071503, -0.1354794055223465, -0.015727931633591652, 0.043597154319286346, 0.022619305178523064, 0.16104529798030853, 0.07495901733636856, -0.05582975223660469, 0.18218857049942017, 0.0744607225060463, 0.023073164746165276, 0.03547687456011772, -0.06875938177108765, 0.15930931270122528, 0.14688022434711456, -0.0374935120344162, -0.05211339518427849, -0.02000349946320057, -0.03482130169868469, -0.026742881163954735, 0.0009035798138938844, 0.008962827734649181, 0.010098773054778576, -0.028218543156981468, 0.16271692514419556, 0.0912710428237915, 0.11227017641067505, 0.007981725037097931, -0.026190727949142456, -0.08876071125268936, 0.024159714579582214, -0.009060308337211609, -0.055526286363601685, 0.05356087163090706], [-0.12423381954431534, 0.08592220395803452, 0.03187552094459534, -0.014780482277274132, 0.09796091169118881, -0.018603049218654633, 0.04561399295926094, 0.08742763102054596, 0.14920678734779358, 0.1365300416946411, 0.07614675909280777, 0.10974189639091492, 0.1833871304988861, 0.14626964926719666, 0.11532356590032578, 0.19160118699073792, 0.09384127706289291, 0.11061976850032806, 0.08428116887807846, 0.04206589236855507, -0.0667412281036377, -0.006139776203781366, -0.04299825429916382, -0.0015789141179993749, -0.010652466677129269, -0.03742954879999161, 0.02419195882976055, 0.0908280685544014, -0.03713260591030121, 0.0758068785071373, -0.02683626301586628, -0.07069183140993118, -0.06575081497430801, 0.014001145958900452, -0.024447033181786537, -0.02507764659821987, 0.1515352874994278, 0.14602594077587128, -0.06682249903678894, 0.1276283860206604, 0.027352530509233475, -0.1315559595823288, -0.04341626912355423, -0.006459399126470089, -0.033335570245981216, 0.042755190283060074, 0.09234307706356049, 0.06154936924576759, -0.03422420471906662, -0.0933879166841507, 0.038645170629024506, 0.12782783806324005, 0.006088309455662966, 0.14594554901123047, 0.016119951382279396, -0.07556135952472687, -0.08713380247354507, -0.12879498302936554, 0.08459868282079697, -0.008425523526966572, -0.10823307931423187, 0.13923431932926178, 0.01286577433347702, -0.08432531356811523, -0.08127234131097794, -0.018870191648602486, 0.08590848743915558, -0.025888880714774132, 0.04683012515306473, -0.060884710401296616, 0.06874740868806839, 0.19469048082828522, 0.1608302891254425, -0.02760852687060833, -0.10645417869091034, -0.07547225803136826, 0.08531766384840012, -0.0391232930123806, 0.06680316478013992, 0.036766812205314636, 0.04498392343521118, 0.028583915904164314, 0.12387807667255402, 0.014046378433704376, -0.113555409014225, 0.12298330664634705, -0.0134742995724082, 0.031213242560625076, 0.015014263801276684, 0.1083594262599945, -0.0763169601559639, -0.016194680705666542, 0.19485163688659668, 0.00643757451325655], [-0.12989561259746552, 0.09525100141763687, 0.023124437779188156, 0.009752141311764717, 0.1302824467420578, -0.1292363554239273, -0.010332575999200344, -0.08764410763978958, 0.03712845593690872, 0.029216675087809563, 0.14637188613414764, -0.011217023245990276, 0.04655100777745247, 0.021835194900631905, -0.06791049242019653, 0.08785006403923035, 0.025524131953716278, 0.11171343922615051, -0.006560327019542456, 0.06160387769341469, 0.05460622161626816, 0.08013493567705154, -0.0989934429526329, 0.10662645101547241, -0.05616983771324158, -0.06609801948070526, -0.007232994772493839, 0.006797000765800476, -0.08877428621053696, 0.03766869008541107, 0.05359197407960892, 0.0704466924071312, -0.08958426117897034, 0.15873633325099945, 0.08170241117477417, 0.03650112822651863, 0.03173965960741043, 0.05287511274218559, -0.005623620003461838, -0.039157330989837646, 0.041602954268455505, 0.13415928184986115, -0.11519049853086472, -0.08769702911376953, 0.017668357118964195, 0.07664065062999725, -0.004120448604226112, 0.14384140074253082, 0.12708906829357147, -0.06582074612379074, -0.02435016818344593, 0.08345354348421097, 0.0541500598192215, 0.041717324405908585, 0.09128106385469437, 0.13720381259918213, 0.0628243237733841, 0.1426461935043335, -0.0686538890004158, 0.05852985382080078, 0.09014000743627548, 0.16414782404899597, 0.0029433718882501125, 0.009188271127641201, 0.005576554220169783, 0.020537395030260086, 0.02349492721259594, -0.01600072905421257, 0.021228548139333725, 0.01121226605027914, 0.015721773728728294, 0.134865865111351, 0.08472184836864471, -0.02300655096769333, -0.019579432904720306, 0.022206401452422142, 0.10256446152925491, 0.008832966908812523, -0.08062458783388138, 0.05138915777206421, 0.05899128317832947, -0.009814037941396236, 0.09216491132974625, -0.00072524044662714, 0.14977799355983734, -0.16296447813510895, 0.1085246130824089, 0.1166565865278244, -0.08225060254335403, 0.06402062624692917, 0.09860672801733017, 0.04844957962632179, 0.017148012295365334, 0.07807391881942749], [0.10994481295347214, 0.055982861667871475, 0.022152641788125038, 0.11258300393819809, -0.01268727332353592, -0.11505617946386337, -0.09147486835718155, 0.08418422192335129, 0.0006068332586437464, 0.016883181408047676, 0.018125832080841064, -0.104805588722229, 0.014097671955823898, -0.09188967198133469, -0.016560804098844528, -0.047451771795749664, -0.09918080270290375, 0.02648169733583927, 0.06723154336214066, -0.10780888795852661, 0.09787602722644806, 0.040153488516807556, 0.024677325040102005, -0.05674871429800987, 0.0276195015758276, 0.1417611539363861, -0.12488876283168793, -0.05125483125448227, 0.07906316965818405, -0.036985669285058975, 0.020188989117741585, -0.06168217957019806, -0.10742998123168945, -0.11548396199941635, 0.07778603583574295, 0.1624530553817749, -0.10203759372234344, -0.025241540744900703, -0.03871795907616615, 0.021709388121962547, 0.07261950522661209, -0.06608469039201736, 0.018687734380364418, -0.05531056970357895, 0.043568309396505356, -0.06639892607927322, -0.12337193638086319, 0.049133289605379105, 0.04516350477933884, -0.00418552802875638, -0.06025522202253342, 0.002304506953805685, -0.04618874937295914, 0.018479004502296448, 0.07799921929836273, -0.08287245780229568, -0.008150307461619377, 0.05356226861476898, 0.029989641159772873, 0.09403720498085022, -0.08675861358642578, 0.0640363022685051, -0.02883787825703621, 0.005930638872087002, 0.07936462759971619, -0.023146744817495346, -0.11411163955926895, -0.08269665390253067, -0.006595563609153032, -0.08963314443826675, 0.03704744577407837, -0.09739464521408081, 0.028444010764360428, -0.07643507421016693, -0.019466707482933998, 0.05788403004407883, 0.04783492907881737, -0.10210664570331573, 0.014602549374103546, 0.027946297079324722, 0.030567746609449387, 0.0023380746133625507, -0.08886419236660004, -0.08678995072841644, 0.054999951273202896, 0.03829037770628929, -0.037825439125299454, -0.07696152478456497, -0.004788609687238932, 0.008625566028058529, -0.017006604000926018, -0.023367995396256447, -0.05057700723409653, 0.01718723028898239], [0.07005028426647186, -0.025447523221373558, 0.03835238888859749, 0.05728919059038162, 0.1017075628042221, 0.10598039627075195, 0.03262857347726822, -0.12623773515224457, -0.048252176493406296, -0.01051730290055275, -0.05566494166851044, 0.04985851049423218, -0.03983080014586449, 0.02495565079152584, 0.052967630326747894, -0.09499186277389526, -0.017914537340402603, -0.02086973749101162, -0.06021839752793312, 0.061302442103624344, 0.15570351481437683, 0.013028840534389019, 0.013461616821587086, -0.046439219266176224, -0.09553820639848709, -0.088433638215065, 0.13693569600582123, 0.029138287529349327, 0.03569919243454933, 0.06346108019351959, 0.04767678305506706, 0.1343543827533722, 0.11264559626579285, -0.0776851698756218, -0.07467806339263916, -0.07400741428136826, -0.028334608301520348, 0.025823166593909264, 0.10609003901481628, -0.09602093696594238, -0.09519550204277039, 0.05270818620920181, 0.08299717307090759, -0.0032310925889760256, -0.016591893509030342, 0.025180751457810402, -0.0763055682182312, 0.05108577758073807, 0.02463352307677269, 0.03837091103196144, -0.0696122944355011, 0.030981121584773064, -0.1049262210726738, -0.029220547527074814, 0.05176746845245361, 0.11972984671592712, 0.02953483536839485, 0.10373637080192566, 0.04918308183550835, -0.11771120131015778, -0.09836751222610474, -0.013771483674645424, 0.046349745243787766, -0.11790647357702255, -0.0015949222724884748, 0.09905807673931122, -0.014738950878381729, 0.036571670323610306, 0.10307740420103073, 0.011114812456071377, 0.013166496530175209, -0.006377908401191235, -0.09453067928552628, 0.08752093464136124, 0.11160073429346085, 0.003797524143010378, -0.03215247392654419, 0.03361840173602104, -0.03716561943292618, 0.12452712655067444, -0.07099758833646774, -0.11935504525899887, -0.014769094064831734, -0.009377862326800823, 0.1121668890118599, 0.03462620824575424, 0.049844201654195786, 0.16456054151058197, 0.05220179259777069, -0.157460555434227, -0.0993209183216095, -0.020512623712420464, 0.11892329156398773, -0.08950794488191605], [0.17443275451660156, -0.012753181159496307, -0.11976325511932373, 0.01748727448284626, -0.08406656235456467, -0.03664059564471245, -0.03635593503713608, 0.025505343452095985, -0.09130306541919708, 0.025928551331162453, 0.009910915046930313, 0.1691356748342514, 0.004190789069980383, -0.15972304344177246, -0.13388943672180176, -0.14284241199493408, 0.012056803330779076, -0.14475853741168976, 0.03070949576795101, 0.06478594988584518, -0.0026259645819664, 0.0813194215297699, -0.13602885603904724, 0.14474870264530182, 0.03522929549217224, 0.04546515643596649, 0.07513873279094696, 0.0050488547421991825, 0.05257892608642578, -0.09085944294929504, -0.026983482763171196, -0.14895932376384735, -0.005542508326470852, 0.10446712374687195, -0.0015097805298864841, 0.07930628955364227, -0.10985185950994492, 0.12540049850940704, 0.003017428098246455, 0.05119815096259117, 0.09033085405826569, 0.115018829703331, -0.14549048244953156, -0.1783808171749115, 0.04806848615407944, 0.08126658201217651, -0.03127793222665787, 0.031146468594670296, 0.03034605272114277, -0.033672649413347244, 0.09674934297800064, 0.040533289313316345, 0.07872110605239868, 0.14956918358802795, 0.08780009299516678, -0.08197391778230667, 0.18761201202869415, -0.07473383843898773, 0.040929291397333145, 0.11008582264184952, -0.11024121940135956, 0.009145926684141159, 0.0384434349834919, 0.05163717642426491, -0.11125919222831726, 0.11592551320791245, 0.16932642459869385, 0.15118442475795746, -0.06895759701728821, 0.10598124563694, 0.13589617609977722, 0.02028828300535679, 0.11685523390769958, -0.1493726223707199, 0.08382102102041245, 0.08567462861537933, 0.00936541985720396, 0.002786720171570778, 0.000826400239020586, 0.05010253190994263, 0.0009064492187462747, 0.1774192750453949, -0.029062969610095024, 0.09183362871408463, -0.07941599190235138, 0.056843362748622894, 0.12395790964365005, -0.041941143572330475, 0.13401642441749573, -0.01601964421570301, 0.17588824033737183, 0.06756600737571716, 0.016085419803857803, 0.011457731015980244], [0.13263243436813354, 0.01935247704386711, -0.10078973323106766, -0.05015147104859352, 0.1758766621351242, 0.07556036859750748, 0.15324772894382477, -0.06977509707212448, -0.04574912041425705, 0.02626386471092701, -0.09239353984594345, 0.0012027851771563292, -0.049975473433732986, 0.09684188663959503, 0.04184628650546074, 0.04997212812304497, -0.11443716287612915, 0.15624406933784485, -0.021967196837067604, 0.05340852588415146, 0.08940886706113815, -0.019778434187173843, -0.0034442590549588203, 0.10241825133562088, 0.02138601243495941, -0.022632651031017303, 0.13979530334472656, 0.09307727962732315, -0.06973975151777267, 0.02271386794745922, 0.10693731158971786, -0.01083386316895485, 0.012789484113454819, 0.19720345735549927, 0.09437425434589386, -0.07699420303106308, 0.02116251178085804, -0.04401547089219093, 0.009156378917396069, -0.04107796028256416, 0.12458515912294388, 0.16428393125534058, 0.03436977416276932, 0.1577884703874588, 0.08798819035291672, 0.09597981721162796, 0.09184691309928894, -0.05074603483080864, 0.09300022572278976, 0.09503816813230515, -0.031984224915504456, -0.0932411253452301, 0.09217552095651627, -0.05631380155682564, -0.03983627259731293, 0.09842725098133087, 0.12661103904247284, -0.02575875259935856, -0.02171584963798523, 0.10886376351118088, 0.1458326280117035, 0.08739425987005234, -0.034389425069093704, 0.0531209371984005, 0.048338331282138824, 0.07253985106945038, -0.10822182148694992, -0.02269144542515278, 0.13459649682044983, 0.045215632766485214, -0.00528918020427227, -0.012594060972332954, -0.14196161925792694, 0.006086698733270168, 0.13005134463310242, 0.02969735860824585, 0.1313069611787796, 0.02758665196597576, 0.017511878162622452, 0.04472632706165314, -0.0469905361533165, 0.0008421657257713377, 0.011325372382998466, 0.0506790354847908, 0.18617121875286102, -0.055124200880527496, 0.15637102723121643, 0.12924619019031525, -0.05843338742852211, 0.017865382134914398, 0.039618972688913345, 0.17929880321025848, -0.12334265559911728, 0.061422090977430344], [-0.040887318551540375, 0.11848600953817368, -0.01617712527513504, 0.026716014370322227, 0.09034846723079681, 0.03681207075715065, 0.03568873181939125, 0.04814948886632919, -0.042972978204488754, -0.09822920709848404, -0.04082483798265457, -0.152045339345932, 0.06681381911039352, 0.06974737346172333, 0.13468410074710846, -0.0028546317480504513, -0.11355101317167282, 0.0720217153429985, -0.09919863194227219, 0.08128391951322556, 0.16822440922260284, -0.11663128435611725, -0.015481806360185146, 0.0560336634516716, 0.010457304306328297, -0.0031557634938508272, 0.10014719516038895, 0.116884745657444, 0.16467362642288208, 0.14673881232738495, 0.07603175193071365, 0.08625604212284088, 0.10755125433206558, 0.05868489667773247, 0.07286112755537033, 0.05182366818189621, -0.06029236316680908, 0.12050659209489822, 0.07352448254823685, 0.1716739684343338, 0.06351202726364136, -0.0010386991780251265, 0.05185598507523537, 0.13860328495502472, 0.03436681628227234, 0.012139069847762585, 0.08495646715164185, 0.045367900282144547, 0.013361240737140179, 0.1277572512626648, 0.04583672434091568, -0.1034652516245842, -0.012209311127662659, 0.034405384212732315, -0.12275818735361099, 0.016380423679947853, 0.002094259951263666, 0.1368570327758789, -0.10491346567869186, 0.13866707682609558, -0.0013793663820251822, -0.1549883335828781, -0.058723922818899155, -0.09915406256914139, 0.07756742835044861, 0.08513902872800827, -0.0625176951289177, 0.013777388259768486, -0.03682875260710716, 0.09803768992424011, 0.017595350742340088, -0.15243922173976898, 0.07467199116945267, 0.10729923844337463, 0.04041434824466705, -0.038855306804180145, -0.09384126216173172, -0.10601440817117691, -0.05944286286830902, 0.03904128819704056, 0.11328641325235367, -0.10956338793039322, -0.07867584377527237, 0.10039021819829941, -0.03665698319673538, 0.14785240590572357, 0.07101105153560638, 0.0913017988204956, -0.06579533964395523, -0.14428652822971344, -0.053987596184015274, -0.022888723760843277, 0.04203915223479271, -0.04998619109392166], [0.007343125995248556, 0.008982503786683083, 0.08468163758516312, 0.06533128023147583, -0.03820260241627693, -0.1675136834383011, 0.0023740145843476057, -0.02204941213130951, -0.01340655330568552, -0.08302737027406693, 0.03840664401650429, 0.020381517708301544, -0.06367592513561249, 0.1357860118150711, -0.04763667657971382, 0.05596917122602463, -0.034993890672922134, 0.13992224633693695, -0.09398479759693146, 0.1627601683139801, 0.08482200652360916, -0.04183125123381615, -0.0815688967704773, 