{"model": "node_mlp_pca", "layers": [{"type": "lin", "act": "relu", "W": [[-0.12293736636638641, 0.02435304969549179, 0.12865899503231049, -0.11908022314310074, -0.10872836410999298, 0.21722623705863953, 0.008769293315708637, -0.08951543271541595, 0.12490424513816833, -0.21084998548030853, 0.25324738025665283, 0.035376131534576416, -0.2826893925666809, -0.21517333388328552, -0.28695619106292725, 0.12257103621959686, 0.23980455100536346, -0.20994213223457336, 0.15639354288578033, -0.08216934651136398, 0.0329597108066082, 0.14978423714637756, -0.25342288613319397, -0.15262208878993988, 0.16003867983818054, -0.2038498967885971, 0.084236741065979, 0.15192970633506775, -0.010207710787653923, -0.022897591814398766, 0.024287665262818336, 0.07312538474798203], [-0.2671931982040405, -0.09093015640974045, -0.08177152276039124, 0.2977130115032196, -0.08297116309404373, 0.18013344705104828, -0.22570472955703735, 0.058206744492053986, 0.27761542797088623, 0.13968072831630707, 0.04756728932261467, -0.2398114800453186, 0.22141259908676147, 0.15446245670318604, -0.16945821046829224, 0.15486818552017212, -0.1385541707277298, -0.07750225067138672, 0.11626659333705902, 0.308010995388031, 0.019250722602009773, 0.3015229105949402, 0.12036175280809402, -0.052299339324235916, 0.0420551635324955, -0.04424281790852547, -0.14212791621685028, -0.11392291635274887, -0.010571128688752651, -0.049545660614967346, 0.011236215941607952, -0.08251194655895233], [-0.1450158804655075, -0.2580709457397461, 0.07295360416173935, 0.0599031001329422, -0.20106257498264313, -0.12237371504306793, 0.18996460735797882, 0.16857905685901642, 0.09943835437297821, -0.06508062034845352, -0.041479744017124176, -0.045519422739744186, -0.22490240633487701, -0.03604469820857048, -0.18172940611839294, 0.04729106277227402, -0.11980126798152924, -0.2496185451745987, 0.07960199564695358, -0.24420922994613647, -0.12362611293792725, 0.252418577671051, -0.14499378204345703, 0.13854871690273285, 0.1752825230360031, 0.06973974406719208, -0.04870864376425743, 0.22292709350585938, -0.18677079677581787, 0.03588360920548439, 0.08026357740163803, -0.02274736389517784], [0.322329580783844, 0.06317906081676483, -0.06101503595709801, 0.11613882333040237, -0.2533254623413086, -0.011453233659267426, 0.15522679686546326, -0.29105037450790405, -0.06440344452857971, 0.07960372418165207, -0.01563797891139984, -0.010778483003377914, -0.06195748969912529, -0.1934211701154709, 0.13906310498714447, -0.20993313193321228, -0.2046641707420349, -0.14448422193527222, -0.08888889849185944, -0.1707172989845276, -0.05477592721581459, -0.041394323110580444, 0.06343210488557816, 0.0732499361038208, 0.1770533174276352, 0.04863771051168442, -0.10275844484567642, 0.003531615948304534, 0.26184898614883423, -0.12829777598381042, -0.1633485108613968, 0.23088966310024261], [-0.15884312987327576, 0.09486708045005798, -0.027796398848295212, 0.16796715557575226, 0.05175028741359711, -0.1409887969493866, -0.08865941315889359, 0.16241562366485596, 0.06283584982156754, -0.19521699845790863, -0.0050140018574893475, -0.10056263208389282, -0.13218927383422852, 0.029787270352244377, 0.05538110435009003, 0.045003797858953476, 0.03848206251859665, -0.01759764552116394, 0.18711771070957184, 0.26069268584251404, 0.14268971979618073, -0.21459203958511353, -0.08442428708076477, 0.12451347708702087, 0.08837546408176422, 0.06180876865983009, 0.19701525568962097, 0.036302488297224045, -0.1051407903432846, -0.3170369565486908, 0.07127673923969269, -0.10103747248649597], [0.03457862138748169, -0.2559056580066681, -0.25238385796546936, -0.06257777661085129, 0.007660667411983013, -0.060304660350084305, 0.2638282775878906, 0.17348022758960724, -0.2052723914384842, 0.1795494258403778, 0.1308627426624298, 0.2511371970176697, 0.25078126788139343, -0.2765011787414551, -0.31642770767211914, 0.09471369534730911, 0.0631757602095604, 0.18361327052116394, -0.03851529583334923, 0.18084685504436493, 0.07397883385419846, 0.2954598069190979, 0.000780342728830874, -0.1058720052242279, 0.2292257845401764, 0.08749576658010483, 0.05611147731542587, 0.2813745141029358, -0.05280597135424614, 0.05751854553818703, -0.09215087443590164, 0.04271575063467026], [-0.040587350726127625, 0.2473437488079071, 0.13325920701026917, -0.047381553798913956, -0.22761739790439606, 0.2460818737745285, 0.2584625482559204, 0.08500845730304718, -0.050627272576093674, -0.0922417938709259, 0.017091797664761543, -0.1939888298511505, 0.3160528242588043, -0.15255795419216156, -0.29468345642089844, -0.11568664759397507, 0.0870424211025238, 0.16162905097007751, 0.00786806084215641, 0.17081888020038605, -0.06842274218797684, 0.17857488989830017, -0.06064225733280182, -0.08642509579658508, -0.16683614253997803, 0.2641708254814148, -0.08079861104488373, 0.14340487122535706, 0.023923464119434357, 0.21833638846874237, 0.009765340015292168, 0.00863269530236721], [-0.2269679754972458, -0.22247974574565887, -0.002571407938376069, -0.03448198363184929, -0.28531286120414734, 0.06738680601119995, -0.09078802168369293, -0.14433175325393677, -0.053212668746709824, 0.18116909265518188, 0.31974464654922485, 0.3392241597175598, 0.21609556674957275, -0.02646883763372898, 0.17748768627643585, 0.07845277339220047, 0.14190728962421417, 0.11640188097953796, 0.03203306347131729, -0.18552695214748383, -0.01646185666322708, 0.26607951521873474, -0.04177749529480934, 0.11403417587280273, -0.10069002211093903, 0.010395262390375137, 0.0714607834815979, 0.07436066120862961, 0.02656536176800728, -0.016170043498277664, -0.25970563292503357, -0.2697387933731079], [-0.1413668692111969, -0.12297286093235016, -0.15425193309783936, -0.23394910991191864, -0.07685291022062302, -0.03029477596282959, 0.08406885713338852, -0.10982918739318848, 0.21003125607967377, -0.03263982757925987, 0.2247529923915863, 0.11193320155143738, -0.2464427500963211, 0.13927258551120758, 0.03812505677342415, -0.11287549138069153, 0.0699349045753479, 0.04540547356009483, 0.19026648998260498, -0.07613516598939896, -0.03660198301076889, -0.04413386434316635, -0.046386800706386566, -0.1544228345155716, -0.18374530971050262, -0.08993490040302277, -0.06911084055900574, 0.013693918474018574, 0.022731633856892586, 0.27848488092422485, 0.2814798653125763, 0.16771727800369263], [-0.28475409746170044, -0.25451183319091797, -0.1746549904346466, -0.08869105577468872, -0.04254818335175514, -0.21367837488651276, -0.07829258590936661, 0.030355961993336678, -0.0010697070974856615, -0.1412101686000824, 0.22387705743312836, 0.01871930994093418, -0.03247765079140663, 0.03353150188922882, -0.14532709121704102, 0.07112625986337662, 0.15960867702960968, 0.07928153872489929, 0.23435892164707184, -0.12506088614463806, -0.07341603189706802, 0.11298199743032455, 0.08827132731676102, -0.040219299495220184, -0.1902901530265808, 0.008134226314723492, -0.020664647221565247, 0.1020011380314827, -0.1151435524225235, 0.14097490906715393, 0.1256343275308609, 0.03335493057966232], [-0.07400018721818924, -0.11980459839105606, 0.09626013040542603, 0.23396466672420502, -0.09990379214286804, -0.08523128926753998, 0.022079603746533394, 0.36660006642341614, 0.06582171469926834, 0.07501519471406937, -0.15591615438461304, -0.28819209337234497, -0.043604057282209396, 0.10602301359176636, 0.18569903075695038, 0.02973582223057747, -0.07088493555784225, 0.14988698065280914, -0.027108533307909966, 0.10857219249010086, -0.015143102966248989, 0.10414527356624603, -0.12983201444149017, -0.23769310116767883, 0.11938518285751343, -0.10842347890138626, -0.02988448366522789, -0.04507632926106453, 0.018300911411643028, 0.08857295662164688, 0.2880515158176422, -0.029551533982157707], [-0.2764361500740051, -0.24737286567687988, 0.30397507548332214, 0.24324584007263184, 0.062191154807806015, 0.2717548906803131, -0.025301510468125343, -0.10919856280088425, 0.29338377714157104, 0.16995574533939362, -0.18362751603126526, 0.15596655011177063, -0.1593027114868164, 0.17096368968486786, 0.21849507093429565, -0.04218593239784241, -0.16888682544231415, 0.1571444869041443, 0.023019395768642426, 0.056787069886922836, 0.004664975218474865, 0.1762557327747345, 0.033790722489356995, 0.09127216041088104, -0.08294573426246643, -0.030968856066465378, -0.15406081080436707, -0.06035742536187172, 0.03336712718009949, 0.18721510469913483, 0.04775065928697586, -0.048845402896404266], [-0.2739081382751465, -0.19787786900997162, 0.07599671185016632, -0.12818357348442078, -0.32683005928993225, 0.19894170761108398, -0.12859848141670227, 0.015810305252671242, 0.1973818689584732, 0.008349468931555748, 0.10093492269515991, 0.05145307257771492, -0.0019106781110167503, -0.1686503291130066, -0.194165900349617, 0.22266152501106262, 0.19068370759487152, -0.01421464141458273, -0.07562955468893051, -0.11472929269075394, -0.02646341733634472, 0.04186602681875229, -0.20871500670909882, -0.09133807569742203, -0.037309564650058746, 0.011717806570231915, -0.053094565868377686, 0.17130231857299805, -0.0456688217818737, 0.08425313979387283, -0.01385283563286066, 0.08268740773200989], [0.1736655980348587, -0.04392809793353081, -0.031501542776823044, 0.03147406876087189, 0.1791456788778305, -0.105033278465271, -0.16665315628051758, 0.3051967918872833, -0.03593016415834427, 0.1474819928407669, -0.00787547416985035, -0.25674182176589966, -0.15571263432502747, -0.16037562489509583, -0.05704887583851814, 0.03177864849567413, -0.10142310708761215, 0.04205046594142914, 0.11670302599668503, -0.3400099277496338, -0.05546056106686592, 0.33724290132522583, -0.022115781903266907, -0.11150360107421875, 0.08233483135700226, -0.04554436728358269, -0.19043327867984772, -0.007274786941707134, 0.17806045711040497, 0.20708291232585907, 0.12377152591943741, -0.1755724400281906], [-0.04910944402217865, -0.25844573974609375, -0.11752599477767944, 0.010928494855761528, 0.04395611584186554, -0.0746314525604248, -0.06593886017799377, 0.05839710310101509, 0.227042555809021, -0.055972401052713394, 0.045194488018751144, -0.3211008906364441, -0.2558915913105011, 0.29614633321762085, -0.08946433663368225, -0.18559008836746216, -0.16365523636341095, -0.20698927342891693, 0.20693501830101013, 0.1681814193725586, -0.19605568051338196, 0.15224020183086395, 0.03237835317850113, -0.1864181011915207, -0.270366907119751, 0.21238943934440613, -0.03749433904886246, 0.02255222573876381, -0.0631263330578804, 0.0630592480301857, 0.35848695039749146, -0.20681871473789215], [0.15746498107910156, -0.12423016130924225, 0.06536639481782913, 0.16109047830104828, 0.2127995491027832, -0.21146218478679657, -0.28986263275146484, 0.2975180149078369, 0.11258777230978012, -0.10013438761234283, 0.09315034747123718, 0.10794811695814133, -0.06352029740810394, -0.07795318961143494, 0.2059800624847412, 0.08972606807947159, -0.0908103957772255, 0.12388018518686295, 0.16849711537361145, 0.01650618202984333, -0.13419879972934723, 0.10955258458852768, -0.20892561972141266, -0.0343257337808609, -0.07731955498456955, -0.033242009580135345, 0.15006369352340698, 0.11958108097314835, -0.27659672498703003, -0.13209481537342072, 0.09574843943119049, -0.2558313012123108], [-0.3163711428642273, -0.1545267105102539, 0.24922750890254974, -0.1102604866027832, -0.19000720977783203, 0.03590438887476921, -0.17761830985546112, -0.1084144338965416, 0.11690469086170197, 0.09145760536193848, 0.06155628338456154, 0.22966483235359192, 0.04143238812685013, -0.13824796676635742, -0.09271623939275742, -0.16695962846279144, -0.2976321280002594, 0.17922236025333405, 0.21191664040088654, -0.2698870003223419, -0.01731211692094803, -0.007550361100584269, 0.0710609033703804, 0.22878776490688324, 0.02059706300497055, 0.20013076066970825, 0.019647879526019096, 0.22213545441627502, 0.1940528303384781, 0.29164811968803406, 0.012269217520952225, -0.13826176524162292], [0.26616376638412476, 0.25235992670059204, -0.08836819976568222, 0.030583132058382034, -0.1384606957435608, -0.2798672020435333, 0.11086340993642807, -0.010035715065896511, -0.11911840736865997, 0.022837696596980095, -0.19475960731506348, 0.14005425572395325, -0.2061232477426529, 0.17868678271770477, 0.1629454642534256, 0.1008506640791893, 0.03354038670659065, -0.023875288665294647, -0.12494906038045883, 0.28500354290008545, -0.14433637261390686, -0.2707058787345886, -0.020185643807053566, 0.052360650151968, 0.0905437022447586, 0.05603538453578949, 0.11330240964889526, 0.17971502244472504, -0.12246140092611313, 0.1891891062259674, -0.21281887590885162, -0.027455586940050125], [-0.14050690829753876, -0.15493963658809662, 0.07818964868783951, 0.07645171880722046, -0.021790238097310066, 0.21137076616287231, -0.06533768773078918, -0.2230641096830368, 0.17906932532787323, 0.06793098151683807, -0.18642331659793854, 0.2708161175251007, -0.06737952679395676, 0.213505819439888, 0.20838241279125214, -0.14729265868663788, 0.16733047366142273, 0.2602252662181854, -0.13251543045043945, -0.057244572788476944, 0.0836891233921051, -0.03427191451191902, -0.1967141181230545, -0.01253679022192955, -0.22806352376937866, 0.0017797300824895501, 0.01422389317303896, -0.21481724083423615, 0.03305928409099579, -0.18476207554340363, -0.2928676903247833, -0.2378130853176117], [-0.16275840997695923, 0.20695878565311432, 0.11383025348186493, 0.2600720524787903, 0.28273701667785645, -0.1510489583015442, -0.04679597541689873, 0.08041293174028397, -0.14154769480228424, 0.05446489155292511, -0.010362586006522179, -0.0696265697479248, 0.06324079632759094, -0.041366733610630035, 0.2127906233072281, -0.08166155219078064, -0.2079482227563858, 0.24104072153568268, 0.16449801623821259, -0.35979923605918884, 0.20550313591957092, 0.04719940945506096, -0.06796174496412277, 0.1530955582857132, -0.1893182396888733, -0.0938621461391449, 0.1114685907959938, -0.02211684174835682, -0.13251911103725433, -0.12588658928871155, 0.0677945539355278, 0.10201061517000198], [-0.041520457714796066, 0.04042132943868637, 0.007964212447404861, 0.09609704464673996, 0.09698296338319778, -0.11875853687524796, 0.32126471400260925, -0.051608726382255554, -0.06702248752117157, -0.24428565800189972, 0.09995172917842865, -0.1006416454911232, 0.15584620833396912, 0.24542683362960815, 0.06439289450645447, -0.2447531670331955, 0.042756207287311554, -0.007722997572273016, -0.06776922196149826, -0.2797849178314209, 0.24649350345134735, -0.17943596839904785, 0.020630359649658203, -0.13552303612232208, -0.19769778847694397, 0.007753709331154823, -0.23653891682624817, -0.1174519881606102, 0.044374849647283554, -0.050612129271030426, -0.3066859543323517, -0.1365346759557724], [0.1423771232366562, 0.29037368297576904, -0.16517339646816254, -0.1926962286233902, -0.12839840352535248, 0.06867628544569016, 0.11734990030527115, -0.05221869423985481, -0.17633843421936035, -0.1797914355993271, -0.140388622879982, 0.03641389682888985, -0.11830838769674301, -0.07361391931772232, -0.0038519713561981916, 0.1281818151473999, -0.10361507534980774, -0.1570352017879486, -0.1329803466796875, 0.21180026233196259, 0.32762280106544495, -0.10066886246204376, 0.09647155553102493, 0.20562921464443207, 0.13714368641376495, 0.02854236587882042, 0.1157977357506752, 0.00310578104108572, -0.1469797044992447, -0.01019223965704441, -0.06085020303726196, -0.11136174201965332], [0.3251529932022095, 0.11814682185649872, 0.19562822580337524, -0.049298010766506195, 0.19614990055561066, -0.17630401253700256, 0.2750278115272522, 0.06568596512079239, 0.01602739840745926, -0.18810346722602844, -0.11048384755849838, -0.12694256007671356, 0.13630439341068268, -0.015028479509055614, 0.10450322926044464, -0.2341977208852768, 0.0035402821376919746, 0.03912067413330078, -0.24498681724071503, 0.047250404953956604, 0.02513745054602623, -0.22039328515529633, 0.2564336359500885, 0.05110562965273857, 0.07923763245344162, -0.024159131571650505, 0.2360074520111084, 0.13362257182598114, -0.14191627502441406, 0.1953127682209015, 0.1305861622095108, 0.14015579223632812], [0.1943179965019226, 0.014582810923457146, 0.1291084736585617, 0.01684275083243847, 0.3146511912345886, -0.14544765651226044, -0.07606444507837296, -0.00958242267370224, -0.2756982743740082, 0.05384569987654686, 0.2540123462677002, -0.024325810372829437, -0.03669172525405884, 0.014051423408091068, -0.13738705217838287, 0.10433890670537949, -0.1194910854101181, -0.32386982440948486, -0.18646852672100067, -0.17645800113677979, 0.12323876470327377, 0.0474974624812603, 0.008262532763183117, 0.014522711746394634, 0.2603587508201599, 0.09352557361125946, -0.18321195244789124, -0.27277854084968567, -0.01897224597632885, 0.012946955859661102, -0.22415302693843842, -0.02742471918463707], [-0.19091105461120605, 0.08891215175390244, 0.08877214789390564, -0.026147907599806786, -0.21295613050460815, 0.2617911696434021, -0.14635540544986725, -0.30486300587654114, -0.06489820033311844, 0.08128341287374496, 0.019592327997088432, 0.19023191928863525, -0.14523839950561523, -0.1973218023777008, -0.01809709146618843, 0.0054184505715966225, -0.04902586340904236, 0.23167437314987183, 0.0599166639149189, -0.2397688627243042, -0.10759051144123077, 0.11539605259895325, -0.03681067377328873, 0.08334401994943619, -0.14536996185779572, 0.030319059267640114, -0.07030995190143585, -0.10970994830131531, 0.1255675107240677, 0.08357689529657364, -0.09415701776742935, -0.11054908484220505], [0.1572721153497696, 0.1419571340084076, 0.2340138703584671, 0.30463936924934387, -0.1290622055530548, -0.07742787897586823, -0.09062904119491577, 0.01805826835334301, -0.09813953936100006, -0.12417716532945633, 0.11598546802997589, 0.1564842313528061, -0.23732279241085052, 0.22406233847141266, 0.22629249095916748, 0.08602035790681839, 0.10196343064308167, 0.2657802104949951, 0.12409010529518127, -0.2531890273094177, 0.2153979390859604, -0.13238048553466797, 0.095960333943367, 0.10500839352607727, 0.004933186806738377, -0.010544727556407452, 0.09533455967903137, 0.2134159505367279, 0.04227783530950546, -0.05995871126651764, -0.0012645161477848887, 0.04396432265639305], [-0.007051263935863972, -0.044967442750930786, 0.0345318466424942, 0.07410570234060287, 0.18142227828502655, -0.23084191977977753, 0.05403981730341911, 0.08105795830488205, -0.11952313780784607, -0.26042401790618896, 0.21217778325080872, 0.057584248483181, 0.1890714168548584, 0.18367430567741394, -0.12788613140583038, 0.2678062319755554, -0.15148290991783142, -0.2355511337518692, 0.21410702168941498, -0.05668941140174866, -0.11238856613636017, -0.13168637454509735, 0.1067582219839096, 0.021863123401999474, 0.1587340533733368, 0.04284867271780968, 0.02156040258705616, -0.06927760690450668, -0.1539148986339569, 0.11886991560459137, -0.37135231494903564, -0.29587244987487793], [-0.08068832010030746, -0.07905783504247665, 0.14295172691345215, -0.19466865062713623, -0.23706218600273132, 0.03296155855059624, -0.22952204942703247, -0.12319813668727875, -0.03683924302458763, 0.15820865333080292, 0.11341551691293716, 0.16417469084262848, 0.08772645145654678, -0.055593181401491165, -0.17082856595516205, -0.06527391821146011, -0.042058371007442474, 0.13925400376319885, 0.04007158800959587, -0.15642255544662476, 0.25177764892578125, 0.005644742399454117, -0.21253061294555664, -0.021498000249266624, 0.019377684220671654, 0.11203473061323166, -0.32107484340667725, 0.22093930840492249, -0.09645259380340576, -0.00661667063832283, -0.014255383983254433, 0.11291001737117767], [0.19222202897071838, -0.09145695716142654, -0.14207938313484192, 0.051833558827638626, 0.15781396627426147, -0.0393071249127388, 0.2562020719051361, 0.19999390840530396, -0.003882823744788766, -0.0324646458029747, 0.09857459366321564, 0.009933145716786385, 0.035243622958660126, 0.09701497107744217, 0.06997399777173996, 0.04339553788304329, 0.03669800981879234, -0.06522159278392792, -0.17965371906757355, 0.00843152217566967, 0.055539727210998535, -0.07919984310865402, 0.085169218480587, -0.10767706483602524, 0.17015109956264496, -0.17996829748153687, 0.10080394893884659, -0.14108437299728394, 0.22797469794750214, 0.13430733978748322, -0.14761687815189362, 0.1307322233915329], [0.24893681704998016, 0.3586266338825226, -0.008908208459615707, -0.016723796725273132, 0.0961034744977951, 0.14385078847408295, 0.09446834027767181, -0.14829517900943756, -0.24056485295295715, 0.1803300529718399, -0.06469503045082092, -0.21267783641815186, -0.2519471049308777, 0.018247034400701523, -0.019202232360839844, -0.04288711026310921, 0.008056996390223503, 0.2536430060863495, -0.020015891641378403, -0.18835029006004333, -0.005627037491649389, -0.18255437910556793, 0.26163962483406067, -0.14368456602096558, 0.08972932398319244, 0.06022237241268158, -0.08071931451559067, 0.0019147050334140658, -0.12058129906654358, 0.05245982110500336, 0.03377925604581833, 0.31136366724967957], [0.12918657064437866, -0.03028915636241436, -0.06732945144176483, 0.26519739627838135, 0.2520318031311035, 0.2498960644006729, 0.04487324878573418, -0.03698897361755371, 0.050750281661748886, 0.14847758412361145, 0.09456171840429306, 0.22308045625686646, -0.17792832851409912, -0.1560090184211731, -0.054089903831481934, 0.17667560279369354, -0.05780234932899475, -0.026375504210591316, 0.17201459407806396, -0.10973767936229706, 0.07597744464874268, 0.2191191464662552, 0.2971731722354889, -0.00044861729838885367, 0.0009012949303723872, 0.1772768199443817, -0.035726968199014664, -0.25185102224349976, 0.27181246876716614, -0.09613817930221558, -0.2125905156135559, 0.005165530368685722], [0.1089983582496643, 0.1081990972161293, -0.09543901681900024, -0.059977080672979355, 0.023760048672556877, -0.3393661677837372, 0.2954104244709015, -0.20608411729335785, 0.07830734550952911, 0.09000299870967865, -0.30006271600723267, -0.10887754708528519, 0.012212779372930527, -0.015759792178869247, -0.13765893876552582, 0.045977216213941574, 0.22391849756240845, 0.13023050129413605, -0.1969747543334961, 0.016670571640133858, 0.11744953691959381, 0.14524191617965698, -0.0618562214076519, -0.04991316795349121, -0.1125483512878418, 0.2425939291715622, 0.07312093675136566, 0.15933392941951752, -0.31967997550964355, 0.3135470151901245, -0.007389810401946306, -0.039120838046073914], [-0.11024286597967148, -0.14718779921531677, -0.004094991832971573, -0.2304190695285797, -0.14670488238334656, 0.10752216726541519, 0.10750150680541992, -0.2468792200088501, 0.18606771528720856, -0.05147181451320648, -0.0075542256236076355, 0.13941913843154907, 0.13658079504966736, -0.1292353868484497, 0.26352545619010925, -0.11355101317167282, 0.04994769021868706, 0.19806241989135742, -0.19650711119174957, -0.19519373774528503, -0.14068566262722015, -0.33623290061950684, -0.2086288332939148, -0.1669595092535019, 0.16933056712150574, 0.014404542744159698, -0.22896791994571686, -0.021648477762937546, 0.08610031753778458, -0.0077612679451704025, -0.08266952633857727, 0.016363026574254036], [0.09087774902582169, 0.2315494269132614, -0.02774348482489586, -0.054946571588516235, 0.01887456513941288, 0.21385037899017334, 0.2886617183685303, 0.03875766322016716, -0.2368554174900055, 0.09643655270338058, 0.10425299406051636, -0.20328746736049652, 0.22364073991775513, 0.03024590015411377, 0.0013156388886272907, -0.3043852150440216, -0.02238861285150051, -0.24568259716033936, -0.2094307392835617, 0.14891040325164795, 0.12302558124065399, -0.3291190564632416, -0.053913217037916183, 0.13346324861049652, -0.09200764447450638, -0.06806730479001999, -0.19565653800964355, 0.017332691699266434, 0.3017866015434265, 0.16209690272808075, -0.15945221483707428, -0.06554052233695984], [0.275235652923584, 0.13678139448165894, -0.17706550657749176, 0.16723021864891052, 0.21206289529800415, 0.011677362956106663, -0.32462194561958313, 0.0768236294388771, -0.07275791466236115, 0.10281938314437866, -0.07765550166368484, 0.1175742894411087, 0.05707859247922897, 0.022172147408127785, 0.05110380798578262, -0.11166385561227798, -0.08080687373876572, -0.053087715059518814, -0.1120111346244812, -0.08266784995794296, 0.28957125544548035, -0.0522763654589653, 0.09743870049715042, -0.0828113928437233, -0.24409149587154388, 0.2432602345943451, -0.10077138245105743, -0.2963726818561554, -0.08838102966547012, -0.3098197281360626, 0.09309916943311691, 0.07154496759176254], [0.1419561207294464, -0.10570481419563293, 0.1071670651435852, 0.08853711932897568, 0.20376236736774445, -0.050466232001781464, -0.007448157761245966, -0.09209742397069931, -0.22888322174549103, -0.11657111346721649, -0.03515216335654259, -0.05090050399303436, 0.17447540163993835, 0.02080446109175682, -0.04155243560671806, 0.01270971354097128, -0.07606018334627151, -0.07505591213703156, 0.043095529079437256, 0.012871679849922657, -0.05311832204461098, 0.031333837658166885, 0.05767199397087097, 0.07524210959672928, 0.2736397385597229, -0.014115494675934315, -0.08190704137086868, 0.014410674571990967, -0.3079683184623718, -0.31415098905563354, -0.2518741488456726, -0.1790543794631958], [0.14063473045825958, -0.015186481177806854, -0.15817150473594666, 0.1736900955438614, 0.18527187407016754, -0.019061816856265068, -0.10125920921564102, 0.2169441282749176, -0.20498405396938324, -0.1127408891916275, 0.032353151589632034, 0.24414768815040588, 0.31392449140548706, -0.27016255259513855, 0.043993692845106125, 0.25631940364837646, 0.08894001692533493, 0.01862308196723461, 0.01848667860031128, 0.024094823747873306, -0.10470578074455261, 0.21199341118335724, -0.13942286372184753, 0.1415904313325882, 0.13969695568084717, 0.07300567626953125, 0.10546478629112244, 0.0026878227945417166, -0.18326833844184875, 0.06561898440122604, 0.10072451829910278, -0.27993863821029663], [-0.27922147512435913, -0.11315944790840149, 0.1749824434518814, 0.16959580779075623, 0.19819952547550201, -0.0873846635222435, 0.17279554903507233, -0.14725172519683838, 0.23192717134952545, -0.038456905633211136, -0.221975177526474, 0.08784184604883194, 0.2306007742881775, -0.11926651000976562, -0.0223329346626997, -0.29270681738853455, -0.2621653378009796, 0.3085745573043823, 0.19896383583545685, -0.09265837073326111, 0.03486471250653267, -0.3511752188205719, -0.029877658933401108, 0.06200284883379936, 0.03245532885193825, 0.06671909987926483, -0.0996488407254219, 0.30263301730155945, 0.03042328916490078, 0.15898288786411285, -0.04725553095340729, 0.1311442255973816], [0.3077050447463989, -0.12960860133171082, -0.06173365190625191, -0.3415987491607666, -0.057632457464933395, -0.12373697012662888, 0.2541202902793884, -0.17530657351016998, 0.08370041102170944, -0.08482924848794937, 0.10921313613653183, -0.009214379824697971, 0.04130454361438751, 0.1691819429397583, -0.2855600416660309, -0.034840479493141174, -0.26397714018821716, -0.06424621492624283, 0.028650538995862007, 0.15265029668807983, -0.009977900423109531, -0.025850677862763405, -0.029779117554426193, -0.23133352398872375, 0.1460951864719391, 0.04211953654885292, -0.07310694456100464, 0.31348738074302673, 0.045768871903419495, -0.03516726568341255, 0.15826815366744995, -0.2896807789802551], [0.0906386449933052, 0.07163888961076736, 0.07323520630598068, 0.20565249025821686, 0.2905273139476776, -0.3228645324707031, -0.004196539055556059, 0.21081583201885223, 0.011705501936376095, -0.12011955678462982, 0.1459093689918518, -0.05046149343252182, -0.009479133412241936, 0.030690668150782585, 0.16294033825397491, -0.09900171309709549, -0.307640016078949, -0.03345976769924164, -0.14187553524971008, -0.055003292858600616, -0.2910168766975403, -0.11329592019319534, 0.14122070372104645, 0.04893346130847931, -0.14045089483261108, -0.04735159873962402, 0.11619355529546738, 0.3284769058227539, 0.1252145767211914, 0.043129660189151764, -0.11923351883888245, -0.10765191912651062], [0.10322210192680359, 0.19009102880954742, -0.08557120710611343, 0.21349874138832092, 0.010987921617925167, 0.08982793986797333, 0.05360136926174164, 0.23696328699588776, -0.14132951200008392, 0.050879333168268204, -0.022497989237308502, 4.839585926674772e-06, -0.18383392691612244, 0.07726404815912247, 0.0949183851480484, 0.044523775577545166, -0.24187996983528137, 0.2406790554523468, 0.1799781173467636, 0.18905171751976013, 0.12343189120292664, -0.04241636395454407, 0.08102249354124069, 0.2881828248500824, -0.1306459903717041, 0.07267611473798752, 0.03049195185303688, -0.13472677767276764, -0.0892266258597374, -0.31283220648765564, 0.16756442189216614, 0.18634316325187683], [0.3127439022064209, -0.03360201045870781, 0.08854655921459198, -0.05959687754511833, -0.01540452241897583, 0.016429999843239784, 0.3105832636356354, -0.18682816624641418, -0.011529529467225075, 0.17803563177585602, -0.22449365258216858, -0.2493462711572647, 0.16590110957622528, -0.08484780043363571, -0.20093278586864471, -0.31523093581199646, 0.10635675489902496, -0.04377003759145737, 0.0020632471423596144, 0.006112273782491684, 0.015572099015116692, -0.11544673889875412, -0.049255937337875366, -0.11468010395765305, 0.08609836548566818, -0.2390320748090744, -0.26097530126571655, -0.07725326716899872, -0.2041173130273819, 0.1170492097735405, 0.067583829164505, 0.01344879250973463], [0.3586847186088562, -0.2795904874801636, 0.16883784532546997, -0.17160911858081818, 0.03240455314517021, -0.2602262496948242, 0.19497928023338318, -0.2567307949066162, -0.26100265979766846, -0.16334407031536102, 0.22824715077877045, 0.09782019257545471, 0.16386108100414276, 0.0462045781314373, -0.25553491711616516, -0.06916609406471252, -0.23887886106967926, -0.1458270102739334, -0.07117018103599548, -0.10186021775007248, -0.23226477205753326, -0.009031134657561779, 0.14358454942703247, -0.016846060752868652, 0.14496678113937378, -0.28034743666648865, 0.07847853749990463, 0.11450344324111938, -0.03985518589615822, 0.34763896465301514, -0.09884155541658401, 0.08910727500915527], [0.35027915239334106, -0.11974382400512695, 0.15961633622646332, -0.21815639734268188, 0.17483553290367126, -0.022296492010354996, 0.06656473875045776, 0.036623939871788025, 0.030547570437192917, 0.0760180726647377, -0.13613997399806976, -0.21199622750282288, 0.04735054448246956, 0.1627664566040039, -0.0032271682284772396, -0.22629402577877045, -0.29729989171028137, 0.01108838152140379, -0.15801261365413666, -0.04516376182436943, 0.013665874488651752, -0.08501888066530228, 0.05333704128861427, -0.27810850739479065, -0.05476118251681328, -0.06786875426769257, -0.17338047921657562, -0.10465545207262039, 0.13147582113742828, 0.10333970189094543, -0.24667766690254211, -0.011681217700242996], [0.30466946959495544, 0.21856483817100525, 0.1132587343454361, 0.13413415849208832, 0.1345961093902588, 0.10545318573713303, 0.06763772666454315, -0.1595579981803894, -0.27607980370521545, 0.016289951279759407, 0.14094576239585876, -0.24963706731796265, -0.32566720247268677, -0.006012274883687496, -0.30590513348579407, -0.008491665124893188, 0.0896332710981369, -0.29287517070770264, 0.19309227168560028, -0.03663612902164459, 0.09027227014303207, -0.08601760119199753, -0.04082067683339119, -0.17890316247940063, 0.04302947223186493, 0.09110429137945175, 0.1381164789199829, 0.09400571882724762, -0.1254321187734604, -0.27536505460739136, 0.1079908236861229, -0.19543181359767914], [-0.1567983478307724, 0.1678200215101242, -0.1007300540804863, 0.018684636801481247, -0.11324110627174377, 0.17931419610977173, -0.08366638422012329, -0.179561585187912, -0.13257890939712524, -0.02312103845179081, -0.09776221960783005, 0.06124664098024368, -0.019332734867930412, -0.09135062992572784, 0.3144194185733795, -0.1651005744934082, -0.053009092807769775, -0.2924050986766815, 0.12422367185354233, 0.16572633385658264, 0.32420480251312256, -0.22159846127033234, -0.09987733513116837, -0.020178819075226784, 0.13008993864059448, 0.2014547437429428, -0.07616662234067917, 0.05005364865064621, 0.10847381502389908, 0.06771823018789291, 0.008756552822887897, -0.15081451833248138], [0.32252922654151917, 0.13744622468948364, -0.14422838389873505, -0.16769269108772278, -0.12065404653549194, -0.3473547697067261, 0.03592114523053169, 0.0031956383027136326, -0.0021759229712188244, 0.012883060611784458, 0.046231210231781006, 0.04665323719382286, 0.058914393186569214, 0.22516021132469177, 0.09747063368558884, 0.04457898810505867, -0.3171646296977997, 0.02113647200167179, 0.045331038534641266, 0.1557690054178238, 0.3351607918739319, -0.32544565200805664, -0.018765674903988838, 0.05372506380081177, 0.036158788949251175, -0.10880504548549652, -0.07047607749700546, 0.02510382980108261, 0.001982024870812893, -0.06494124233722687, 0.06479725241661072, 0.09286437928676605], [-0.08255788683891296, 0.2258102297782898, 0.0008447555010206997, -0.014370557852089405, -0.21803846955299377, 0.06746967881917953, 0.02175203338265419, 0.20000112056732178, -0.12906041741371155, 0.04533537104725838, 0.043086618185043335, -0.15974250435829163, -0.20054377615451813, -0.22430232167243958, -0.27720507979393005, -0.2870679497718811, 0.28723078966140747, -0.20126475393772125, 0.20069192349910736, 0.3424699008464813, 0.037985704839229584, -0.046443987637758255, -0.16333171725273132, 0.11890371143817902, -0.09196268022060394, -0.09710053354501724, 0.11276790499687195, -0.11066845804452896, -0.026289911940693855, 0.25329264998435974, -0.004019504878669977, 0.23321425914764404], [-0.32606589794158936, -0.029005898162722588, 0.09547407925128937, 0.31521371006965637, 0.08804180473089218, 0.041759077459573746, -0.023531360551714897, -0.2815634310245514, 0.041804756969213486, 0.17829176783561707, -0.053781528025865555, -0.06329427659511566, 0.1184702068567276, 0.32255956530570984, -0.2748625576496124, -0.1231374740600586, -0.06505995243787766, 0.17890092730522156, -0.006091011688113213, 0.056812554597854614, -0.17149749398231506, 0.07221512496471405, -0.3009958863258362, 0.2711704969406128, 0.006646487396210432, -0.05748068913817406, -0.04897379130125046, -0.06141236796975136, -0.005246597342193127, 0.24938401579856873, -0.06707830727100372, 0.2934875786304474], [0.2637602984905243, -0.12425370514392853, 0.014584245160222054, 0.1267356276512146, -0.149379700422287, 0.1400332748889923, 0.14275869727134705, -0.08382752537727356, -0.1233845055103302, 0.12392617762088776, -0.143137589097023, 0.019649142399430275, -0.13502062857151031, -0.18602699041366577, -0.17359934747219086, 0.02653798647224903, -0.045047108083963394, -0.09348918497562408, -0.10516323894262314, 0.005171145778149366, -0.14192034304141998, -0.005496693775057793, 0.16698011755943298, -0.2179630845785141, 0.20091810822486877, -0.07597682625055313, 0.003576851449906826, 0.0034847394563257694, -0.22348637878894806, -0.021061154082417488, -0.19950230419635773, 0.13363537192344666], [-0.15559989213943481, 0.11268115043640137, -0.22759035229682922, 0.06461158394813538, -0.012161091901361942, -0.21694089472293854, -0.06792207807302475, 0.14607806503772736, -0.013173220679163933, 0.0480240099132061, -0.21408049762248993, 0.020117798820137978, 0.02137211710214615, -0.03806354105472565, 0.06918460875749588, 0.10916642844676971, 0.058434486389160156, 0.26477891206741333, 0.00028123630909249187, 0.09987138211727142, 0.2988153100013733, -0.2087218165397644, 0.12027864158153534, 0.2655593752861023, 0.06467199325561523, 0.13498368859291077, 0.23200634121894836, -0.23027920722961426, 0.15444137156009674, -0.08089685440063477, 0.16533832252025604, 0.2059081345796585], [-0.16418372094631195, -0.1832706183195114, 0.10765930265188217, -0.007370464503765106, -0.14813829958438873, 0.013847743161022663, 0.04636436700820923, 0.32178550958633423, 0.26259252429008484, -0.22651207447052002, -0.2797080874443054, 0.12017343193292618, -0.037646546959877014, 0.17841067910194397, 0.25838401913642883, -0.10789504647254944, -0.1193968877196312, 0.1504984200000763, -0.14025253057479858, -0.03969277814030647, -0.054180994629859924, 0.23784801363945007, 0.016225451603531837, 0.015475581400096416, -0.21551761031150818, -0.029402337968349457, -0.07624616473913193, 0.029607104137539864, 0.01758551597595215, -0.11614479124546051, 0.06962496042251587, 0.03868307173252106], [-0.10089339315891266, 0.19514702260494232, -0.21004648506641388, 0.20863845944404602, -0.21104468405246735, 0.2185792624950409, -0.036800503730773926, 0.0038204125594347715, -0.1259395331144333, 0.06414827704429626, 0.13795633614063263, 0.17845748364925385, -0.02049334906041622, -0.12680047750473022, -0.23823226988315582, -0.062101565301418304, 0.12043717503547668, -0.2331760823726654, 0.1517314463853836, -0.052527736872434616, 0.1185869500041008, -0.09971874207258224, 0.1471269577741623, 0.18452686071395874, 0.3035071790218353, 0.18614517152309418, 0.12180653214454651, -0.045164212584495544, 0.06566337496042252, 0.0427846685051918, -0.013020427897572517, -0.11493120342493057], [-0.14920148253440857, -0.1287890523672104, 0.07700176537036896, -0.07677505165338516, -0.3239021599292755, -0.02687223069369793, -0.19061313569545746, -0.21389667689800262, 0.08824893832206726, 0.09110677242279053, -0.0209402684122324, 0.11632774025201797, 0.01447468250989914, -0.0407576747238636, 0.2834044098854065, -0.032383255660533905, 0.12842825055122375, -0.00852260459214449, -0.12123015522956848, -0.2807200253009796, -0.09176179021596909, -0.026022110134363174, -0.27549058198928833, -0.05176926031708717, 0.020356135442852974, -0.0250714011490345, -0.3006480634212494, -0.17310194671154022, 0.09792521595954895, -0.0974489226937294, -0.33604761958122253, -0.024491671472787857], [-0.20042158663272858, 0.18978869915008545, 0.06689188629388809, 0.048143982887268066, -0.2637385129928589, 0.06620799750089645, -0.06408663094043732, -0.14734165370464325, -0.1994107961654663, -0.12223958969116211, 0.05691247060894966, 0.0785057470202446, 0.07979239523410797, -0.23431430757045746, -0.0032739569433033466, -0.16289561986923218, 0.25973743200302124, -0.09852242469787598, -0.024258939549326897, -0.07863734662532806, 0.004869136493653059, -0.17127437889575958, -0.15405778586864471, 0.09284103661775589, -0.14262554049491882, 0.16267067193984985, 0.03738493472337723, -0.056371916085481644, 0.14695584774017334, -0.08608200401067734, -0.2861003279685974, 0.1564655750989914], [0.047865599393844604, 0.31198209524154663, -0.16778285801410675, -0.08503496646881104, -0.03858043625950813, -0.06692075729370117, -0.05563336983323097, 0.29321303963661194, -0.06425868719816208, -0.3578726053237915, 0.10652175545692444, -0.06996729224920273, 0.011120467446744442, -0.10166438668966293, 0.27331140637397766, -0.05018020048737526, 0.1313752681016922, 0.10701891034841537, 0.25704485177993774, 0.2568342089653015, 0.12159549444913864, -0.051956139504909515, -0.2132374495267868, 0.28528404235839844, 0.18501153588294983, 0.19839634001255035, 0.02427230030298233, -0.31188222765922546, 0.10658298432826996, -0.051911842077970505, -0.0681803748011589, 0.20787420868873596], [0.026501981541514397, 0.32738062739372253, -0.08051145821809769, 0.009752757847309113, -0.2290286123752594, 0.16191217303276062, -0.276500940322876, -0.2192022055387497, -0.16299328207969666, -0.1395108997821808, 0.03496912866830826, 0.0269936416298151, -0.02571471780538559, 0.013977709226310253, -0.06014051288366318, 0.14913178980350494, -0.0892295390367508, -0.09123560041189194, -0.004797156434506178, -0.35763534903526306, 0.00780470808967948, -0.08531128615140915, 0.36246877908706665, 0.2927553653717041, 0.23892557621002197, 0.14178308844566345, 0.18248632550239563, -0.049706894904375076, -0.21155375242233276, 0.021194173023104668, -0.2577519118785858, 0.03185047209262848], [0.05038716271519661, -0.3171774446964264, 0.02043156325817108, 0.14883098006248474, 0.3119964599609375, -0.24318978190422058, 0.12178031355142593, 0.064642995595932, -0.200697124004364, -0.04362880438566208, 0.04123329371213913, -0.27897027134895325, -0.2657677233219147, -0.08034776896238327, -0.269441694021225, 0.0065264166332781315, 0.05015919730067253, -0.06581591069698334, -0.11066583544015884, 0.004513963125646114, 0.05275441333651543, 0.07200084626674652, 0.2285420447587967, 0.05858997255563736, 0.14208006858825684, 0.07293529063463211, -0.09636381268501282, -0.005363335367292166, -0.30757999420166016, -0.21956831216812134, 0.03446101397275925, -0.15016478300094604], [-0.173411563038826, 0.04358222335577011, -0.16279266774654388, 0.009613796137273312, -0.012724621221423149, -0.08358659595251083, -0.1667899191379547, -0.07927560061216354, 0.20415984094142914, -0.10853121429681778, -0.06503308564424515, 0.04410537704825401, 0.06702577322721481, -0.006522524170577526, 0.30957379937171936, 0.02816556952893734, 0.15881603956222534, 0.10949340462684631, -0.10981453955173492, 0.2376919537782669, -0.030656153336167336, 0.18771930038928986, 0.215447336435318, -0.1825033277273178, -0.17424024641513824, -0.04184544086456299, 0.15340448915958405, 0.23597753047943115, 0.050127554684877396, -0.09908118098974228, 0.07410664111375809, -0.014908812940120697], [0.2735286355018616, -0.08236366510391235, 0.1393798142671585, -0.14802268147468567, -0.09719809889793396, -0.03568648174405098, 0.06421691179275513, -0.16548453271389008, -0.1042068749666214, 0.14101777970790863, 0.04755589738488197, -0.1684778332710266, -0.06007643789052963, 0.11598089337348938, -0.018581107258796692, -0.12356962263584137, -0.04564790055155754, -0.00786853302270174, -0.015459029003977776, -0.1488790661096573, -0.2111240178346634, -0.3050103187561035, -0.011747217737138271, -0.13878068327903748, 0.10219693183898926, 0.043404463678598404, -0.2901909351348877, -0.27636078000068665, -0.013733730651438236, -0.16624082624912262, -0.31876692175865173, -0.041836343705654144], [-0.07098087668418884, 0.010026144795119762, -0.03199261799454689, 0.04401840642094612, 0.07996951788663864, 0.2791224420070648, 0.06324633210897446, 0.005898084491491318, 0.22470955550670624, 0.22110925614833832, 0.21843668818473816, 0.12754464149475098, -0.1795048713684082, -0.14742790162563324, 0.2920118570327759, 0.24083863198757172, 0.10397709161043167, -0.041662365198135376, -0.14601735770702362, 0.08565183728933334, -0.11194440722465515, 0.16094397008419037, -0.18327128887176514, 0.024816835299134254, -0.14073967933654785, -0.29033389687538147, 0.2447621375322342, -0.17713019251823425, -0.2311779409646988, 0.03784521296620369, 0.13025441765785217, 0.1266411393880844], [-0.2214970886707306, 0.20726484060287476, -0.2694965600967407, 0.1474677175283432, 0.22946704924106598, -0.0015364002902060747, 0.04918104410171509, 0.20345595479011536, -0.16039618849754333, 0.010618648491799831, 0.11812153458595276, -0.12664352357387543, -0.02327701821923256, -0.17288942635059357, 0.21752770245075226, 0.14930711686611176, 0.15131738781929016, 0.26503923535346985, 0.09350843727588654, 0.09047119319438934, 0.19502893090248108, 0.06088733673095703, 0.16383719444274902, 0.19141487777233124, 0.11804171651601791, 0.0838923379778862, 0.14446590840816498, 0.0552818737924099, -0.15807150304317474, -0.2106960117816925, 0.14853809773921967, 0.14204634726047516], [-0.28080761432647705, -0.32493826746940613, -0.21532587707042694, 0.10782177001237869, 0.15139341354370117, -0.029328767210245132, -0.19975438714027405, 0.10838323086500168, -0.024830780923366547, -0.0026276283897459507, -0.18164025247097015, -0.2511686086654663, 0.0313815101981163, -0.2918868064880371, 0.13805629312992096, 0.10106173157691956, 0.020593833178281784, 0.2076147496700287, 0.1059308871626854, 0.13884425163269043, 0.14734137058258057, 0.17307095229625702, -0.033570919185876846, -0.31086423993110657, -0.2188464105129242, -0.06093483790755272, -0.045855868607759476, 0.05271229147911072, 0.09448424726724625, -0.01833619549870491, 0.18771883845329285, 0.03545147180557251], [0.3022136390209198, 0.20158325135707855, -0.25442224740982056, -0.11793498694896698, 0.14575034379959106, 0.14056642353534698, -0.2941538691520691, -0.058792442083358765, -0.033498767763376236, 0.03480515256524086, -0.05097159743309021, -0.12213783711194992, 0.1470358520746231, 0.021605979651212692, 0.17450490593910217, 0.1452496349811554, 0.13878172636032104, -0.05348660796880722, 0.30384162068367004, 0.07346375286579132, 0.2877228856086731, -0.09682641178369522, -0.10909105092287064, -0.12456981837749481, 0.04077030345797539, 0.11114909499883652, -0.05443745106458664, 0.18737347424030304, 0.09427151829004288, -0.10681869834661484, 0.0984075739979744, -0.1518474668264389]], "b": [0.013819867745041847, 0.20192308723926544, 0.14322017133235931, 0.2892313003540039, 0.14139284193515778, -0.020683027803897858, 0.1992000937461853, 0.2561188340187073, 0.2823265790939331, 0.0009180360939353704, 0.12640713155269623, 0.012575036846101284, 0.1480817347764969, 0.1124851182103157, -0.02376089245080948, 0.10011028498411179, -0.02225089818239212, 0.07298913598060608, 0.010868992656469345, 0.019143080338835716, 0.18866243958473206, 0.01477250549942255, 0.28924164175987244, 0.2311078906059265, 0.28899136185646057, 0.21730326116085052, 0.03604710474610329, -0.05832051858305931, -0.14488287270069122, -0.04486441984772682, 0.12336426228284836, -0.061243798583745956, 0.1395423859357834, 0.23529194295406342, 0.02285902202129364, 0.22139093279838562, -0.05170854926109314, -0.11104848235845566, 0.17319385707378387, 0.18455378711223602, 0.038235604763031006, 0.0015980598982423544, 0.2155153602361679, 0.18379636108875275, 0.061354342848062515, 0.05542201176285744, 0.23529823124408722, 0.1951652467250824, -0.08428174257278442, -0.12447528541088104, 0.106656514108181, 0.1591106802225113, 0.22163061797618866, 0.18237420916557312, 0.19507980346679688, -0.011057850904762745, 0.1849415898323059, 0.1266794502735138, 0.23395249247550964, 0.23787987232208252, -0.03721599280834198, 0.2090195268392563, -0.004561526235193014, -0.06985624879598618]}, {"type": "lin", "act": "relu", "W": [[-0.1843731552362442, 0.1716764271259308, -0.08320730179548264, -0.10695835947990417, 0.13598205149173737, -0.25380298495292664, -0.0033343834802508354, 0.06341174989938736, 0.13009844720363617, -0.017197882756590843, -0.003589071100577712, 0.15636709332466125, -0.011851510964334011, -0.019726049154996872, -0.13568346202373505, 0.19508197903633118, 0.12148316204547882, 0.13135021924972534, 0.14097458124160767, 0.26546695828437805, 0.04861127957701683, 0.04165605083107948, -0.02438492886722088, -0.0890277847647667, 0.01917715184390545, 0.21738885343074799, -0.08690778911113739, 0.04464178904891014, 0.0076766000129282475, 0.05313163623213768, 0.06696620583534241, -0.11640643328428268, 0.15577606856822968, -0.07015885412693024, 0.29374536871910095, 0.25912272930145264, 0.08951050788164139, 0.2802663743495941, -0.20692673325538635, 0.18230731785297394, 0.2499484121799469, -0.06562203913927078, -0.040432948619127274, -0.028958821669220924, 0.041613608598709106, 0.06298960745334625, -0.013802045956254005, -0.143048956990242, 0.11778233200311661, -0.1638520359992981, 0.2095097303390503, 0.11800623685121536, 0.021208517253398895, 0.09883800148963928, 0.13291378319263458, 0.20213916897773743, 0.18881870806217194, 0.027919499203562737, 0.10649092495441437, -0.13592062890529633, -0.0015334960771724582, 0.12225987017154694, 0.20860181748867035, -0.026032663881778717], [0.14527569711208344, 0.1316678524017334, 0.1398710310459137, -0.05274215340614319, 0.1322488635778427, 0.24173037707805634, 0.05558014288544655, 0.1930178701877594, -0.0689188614487648, 0.17818020284175873, 0.02597912959754467, -0.041512325406074524, 0.20312298834323883, 0.08757735043764114, 0.18579977750778198, 0.18094243109226227, 0.004359351005405188, -0.18464849889278412, -0.14819058775901794, 0.16751158237457275, 0.04806295782327652, -0.06249687820672989, -0.06978383660316467, 0.1864057332277298, 0.0290959682315588, 0.0844373106956482, 0.1650310456752777, 0.15486550331115723, 0.09393323957920074, -0.0683298334479332, 0.20679335296154022, -0.06400356441736221, -0.1751289814710617, -0.025857076048851013, 0.2234133780002594, 0.029608486220240593, 0.19757358729839325, -0.16351820528507233, 0.027182092890143394, -0.021361419931054115, 0.01838046684861183, -0.016069428995251656, -0.17140430212020874, -0.1827058643102646, 0.07597806304693222, -0.07873623073101044, -0.109041728079319, 0.043542150408029556, 0.07665444165468216, -0.08621823042631149, 0.19216491281986237, 0.034502677619457245, 0.2046826183795929, -0.2321159988641739, 0.11663725227117538, 0.04630424454808235, 0.04631119593977928, 0.19725297391414642, -0.08371049165725708, -0.10638672113418579, -0.061891160905361176, 0.197679340839386, 0.11587128043174744, 0.13517044484615326], [0.1566844880580902, 0.13831095397472382, 0.17216411232948303, -0.044724494218826294, -0.22271588444709778, 0.029393911361694336, 0.1495480239391327, 0.07156020402908325, 0.12900623679161072, 0.1218978762626648, 0.07987667620182037, 0.14670492708683014, 0.24537326395511627, -0.03577052429318428, 0.11695440858602524, 0.08770892769098282, 0.2492033839225769, 0.1397109031677246, 0.10161536931991577, 0.1578139066696167, 0.08509992808103561, -0.07539904117584229, -0.11864286661148071, -0.008490914478898048, 0.08887279033660889, 0.18908660113811493, -0.035492703318595886, 0.2156827449798584, -0.09201677143573761, -0.20473995804786682, -0.014121901243925095, 0.0843624398112297, 0.16109338402748108, 0.07795961946249008, -0.2294093370437622, -0.10368548333644867, -0.0274969432502985, 0.05043940246105194, 0.19847910106182098, 0.012053201906383038, -0.10924400389194489, -0.015297053381800652, 0.07617593556642532, 0.1958521604537964, -0.18142536282539368, 0.029375756159424782, 0.22294309735298157, -0.08275624364614487, 0.14590077102184296, 0.03748076409101486, 0.010491188615560532, 0.09901812672615051, -0.13096144795417786, 0.21250399947166443, -0.01974925771355629, -0.18004746735095978, 0.0396081879734993, -0.1640937477350235, 0.07487452030181885, 0.14967723190784454, 0.1514674872159958, -0.10546410828828812, 0.09428738802671432, -0.047685619443655014], [-0.1830299198627472, -0.072581946849823, 0.05663847178220749, 0.16119378805160522, -0.09085367619991302, -0.15465863049030304, 0.02345367521047592, -0.051268648356199265, -0.18947555124759674, -0.1137104332447052, 0.04956868290901184, -0.10355743765830994, -0.06503123790025711, 0.21148233115673065, 0.06618181616067886, -0.011203269474208355, 0.08145789802074432, -0.1112925186753273, 0.020435256883502007, 0.013063195161521435, -0.03214651346206665, -0.12656131386756897, -0.1802595853805542, 0.08041591197252274, 0.06970676779747009, -0.05306757614016533, -0.11275139451026917, 0.22250913083553314, 0.14605385065078735, -0.040488071739673615, 0.05771137401461601, 0.013172945939004421, 0.15353919565677643, 0.008425245992839336, 0.1712581068277359, -0.06502943485975266, 0.0030819622334092855, -0.007555427961051464, 0.12957873940467834, -0.09258174151182175, -0.061607807874679565, 0.18900182843208313, -0.05641955882310867, 0.07385356724262238, 0.09609387069940567, -0.060107745230197906, 0.04913581162691116, -0.16690586507320404, -0.12588612735271454, 0.03727922961115837, -0.036849990487098694, 0.046696122735738754, -0.13417911529541016, 0.18253372609615326, 0.08267240971326828, -0.1427791863679886, 0.10694687068462372, -0.05373420566320419, -0.1169290691614151, 0.14108404517173767, -0.10953068733215332, -0.228174090385437, -0.06291396915912628, 0.02261551469564438], [0.054602157324552536, 0.1556115597486496, 0.2204735428094864, -0.11809586733579636, 0.014918608590960503, 0.05303259193897247, -0.04647122696042061, 0.09803365916013718, -0.003665933618322015, 0.06617854535579681, 0.14527499675750732, 0.1295388638973236, 0.2668265700340271, 0.05172128602862358, 0.1252213418483734, 0.18840306997299194, 0.05602200701832771, -0.01955648884177208, 0.09839528799057007, 0.06928767263889313, 0.02627217024564743, -0.1305270791053772, -0.11099449545145035, -0.034343138337135315, 0.11177516728639603, 0.26423221826553345, 0.099708691239357, 0.16161607205867767, 0.10591434687376022, -0.20839877426624298, 0.1412193328142166, -0.14899106323719025, 0.00017188028141390532, -0.12688219547271729, -0.1287751942873001, 0.173618882894516, 0.02250419557094574, 0.13412976264953613, -0.0613207183778286, 0.2008911669254303, -0.011770336888730526, -0.1684318482875824, 0.06353473663330078, 0.04996555671095848, -0.22886642813682556, -0.0433550700545311, -0.18368348479270935, 0.023640399798750877, 0.0820784866809845, -0.08464700728654861, -0.10475721210241318, 0.27368679642677307, -0.02574726939201355, 0.05929996818304062, -0.05234415456652641, 0.0213648471981287, -0.002995290094986558, 0.06285890936851501, 0.0951620489358902, 0.00413090642541647, 0.004005481023341417, 0.1002541109919548, 0.1741703450679779, -0.139040008187294], [-0.20082008838653564, -0.0669834166765213, -0.18975500762462616, 0.03476551175117493, 0.013029242865741253, 0.04649226740002632, 0.035243868827819824, -0.08231403678655624, 0.18370231986045837, -0.08489570766687393, 0.1070309653878212, -0.2146378606557846, -0.18984727561473846, -0.006719793658703566, 0.17231452465057373, 0.16301079094409943, -0.1002277135848999, 0.14799922704696655, -0.07883600890636444, 0.015382128767669201, 0.22155353426933289, 0.02516578510403633, 0.2502463757991791, 0.05846935883164406, -0.22112441062927246, 0.1033981516957283, 0.13710370659828186, -0.03669975697994232, 0.1450965255498886, 0.2741564214229584, -0.19543853402137756, 0.23911601305007935, 0.18277664482593536, 0.24177800118923187, -0.023619867861270905, -0.05831748992204666, 0.13392436504364014, 0.12750592827796936, 0.06892582774162292, 0.03225657343864441, 0.22972603142261505, 0.23970575630664825, 0.022104335948824883, 0.2052268534898758, -0.04307475686073303, 0.04428901523351669, 0.270321786403656, -0.05811271071434021, -0.14585720002651215, 0.07610269635915756, 0.16652676463127136, 0.052312109619379044, -0.05811375007033348, -0.26670706272125244, -0.1966608315706253, 0.05419173464179039, -0.26193150877952576, -0.0034643097314983606, 0.02075294405221939, 0.1692884862422943, -0.00010761878365883604, -0.06206764280796051, 0.054635189473629, 0.1726050227880478], [0.1663951575756073, 0.1890493631362915, 0.09433584660291672, -0.030067723244428635, 0.030090168118476868, -0.04902279004454613, 0.1352376937866211, 0.24287739396095276, 0.01833903044462204, 0.05754183232784271, -0.03453228250145912, 0.15486520528793335, 0.111409030854702, 0.05000874772667885, -0.08047574013471603, -0.13952815532684326, 0.2800312340259552, 0.051375437527894974, 0.05233928561210632, 0.009760996326804161, 0.12316208332777023, 0.040520112961530685, -0.022812817245721817, 0.08479977399110794, 0.057332757860422134, 0.1258721500635147, 0.011172614060342312, 0.15393298864364624, -0.17123503983020782, 0.09028302878141403, 0.06652622669935226, -0.05028805136680603, 0.14066649973392487, -0.016274401918053627, 0.19509632885456085, 0.18259185552597046, 0.02326745167374611, -0.07799181342124939, -0.026222463697195053, -0.17045623064041138, -0.04238441586494446, -0.02364690601825714, -0.04227692261338234, -0.07404736429452896, 0.20843712985515594, 0.24496914446353912, 0.06450175493955612, 0.10117132216691971, -0.0315999872982502, -0.0658293291926384, 0.24902372062206268, 0.0214568842202425, 0.16829164326190948, 0.027412174269557, 0.16335073113441467, 0.16255749762058258, 0.27144140005111694, -0.07729019224643707, 0.10764247179031372, 0.0014289298560470343, -0.060019005089998245, -0.0090428926050663, 0.08076255768537521, 0.0029469879809767008], [0.15339292585849762, -0.0860157310962677, -0.05148725211620331, 0.18926681578159332, -0.08418989181518555, -0.11294565349817276, 0.13503628969192505, -0.14378800988197327, 0.16724495589733124, 0.00925227627158165, -0.13944178819656372, 0.02168404869735241, 0.024573691189289093, -0.06941467523574829, -0.10006269067525864, -0.2715107202529907, 0.06953070312738419, 0.13874861598014832, 0.005850621033459902, -0.018241427838802338, 0.1549978405237198, 0.2512856125831604, 0.18176142871379852, -0.09982733428478241, -0.013533179648220539, 0.07773476839065552, -0.06821833550930023, -0.001204012194648385, 0.07157622277736664, 0.010849324986338615, -0.11422690004110336, 0.3014446198940277, 0.08323119580745697, 0.2519230842590332, -0.2143993079662323, -0.08178996294736862, -0.16516190767288208, 0.2220458835363388, 0.22500595450401306, -0.10144821554422379, 0.07515116780996323, 0.19136331975460052, 0.06207192316651344, 0.1498033106327057, -0.012645119801163673, 0.26388347148895264, 0.13190674781799316, 0.14424076676368713, -0.12183395773172379, 0.2085057497024536, -0.021226095035672188, -0.16697123646736145, -0.051066040992736816, 0.10499373078346252, 0.02302013896405697, -0.04157847911119461, -0.009388952516019344, -0.2442692518234253, 0.06787755340337753, 0.1554662585258484, 0.14428599178791046, 0.01307922974228859, -0.2637735903263092, -0.025240935385227203], [-0.09404558688402176, 0.23266270756721497, 0.2524072825908661, -0.14457492530345917, 0.06871252506971359, 0.09176157414913177, 0.10262003540992737, 0.06674062460660934, 0.09426078200340271, 0.14864622056484222, 0.10969546437263489, 0.09821780025959015, 0.008239363320171833, 0.2963770627975464, 0.23938609659671783, 0.2839415371417999, 0.13252225518226624, 0.015412737615406513, -0.027389440685510635, 0.0016654330538585782, -0.21354955434799194, -0.05913335457444191, 0.013217366300523281, -0.06763510406017303, -0.10944780707359314, -0.12733937799930573, 0.07221648097038269, 0.01406848058104515, 0.04159555956721306, -0.11510214954614639, -0.10216391086578369, -0.03137974068522453, -0.17325572669506073, -0.13923820853233337, 0.013572374358773232, 0.07295963168144226, 0.08624497801065445, -0.04670843109488487, 0.192399799823761, 0.12537579238414764, 0.09139157086610794, 0.020489854738116264, 0.16610018908977509, 0.1351727843284607, 0.025758560746908188, -0.2467125654220581, 0.05212346464395523, -0.07349841296672821, 0.2531774938106537, -0.14099308848381042, 0.0897371917963028, 0.15999850630760193, -0.06909050792455673, -0.21534501016139984, -0.1776939481496811, 0.08789677172899246, -0.10509011149406433, 0.19817759096622467, 0.23823879659175873, -0.028023552149534225, 0.09700242429971695, -0.006538223009556532, 0.22734875977039337, -0.044355686753988266], [0.09907277673482895, -0.13696061074733734, -0.11224041879177094, 0.020672691985964775, -0.03510645031929016, -0.10549907386302948, -0.008796850219368935, 0.14844182133674622, 0.2145036906003952, 0.15034833550453186, 0.0345006063580513, 0.21479858458042145, 0.14592891931533813, -0.1356927752494812, -0.15310907363891602, 0.07398391515016556, 0.23520246148109436, -0.04132065176963806, 0.16921035945415497, 0.23411177098751068, 0.15008936822414398, -0.10225427895784378, -0.14999008178710938, -0.21529729664325714, 0.23871532082557678, 0.23131296038627625, -0.170868381857872, -0.0069105373695492744, 0.10773800313472748, -0.2110767960548401, 0.06192389503121376, 0.002364563290029764, 0.24804815649986267, -0.1371031105518341, -0.02741490863263607, 0.01621025614440441, -0.1858304888010025, 0.27348437905311584, -0.09557110071182251, -0.028585972264409065, -0.09114036709070206, -0.03633446246385574, -0.07166454195976257, -0.12830524146556854, -0.16892601549625397, 0.023296643048524857, 0.06216161698102951, -0.15559668838977814, -0.0022288430482149124, -0.0899704173207283, -0.0686473548412323, 0.05824509263038635, -0.027192117646336555, 0.24238424003124237, 0.10355068743228912, -0.061744410544633865, 0.033901456743478775, -0.11772465705871582, 0.11325103789567947, -0.030535854399204254, 0.1752634346485138, -0.014324265532195568, 0.11961625516414642, -0.1876107156276703], [0.005879924166947603, 0.19217321276664734, 0.10051628202199936, 0.19958415627479553, 0.00338793289847672, -0.015432847663760185, 0.01377120427787304, 0.10858957469463348, -0.12327416241168976, -0.016999226063489914, -0.08425042778253555, -0.003728075185790658, 0.20535746216773987, 0.05509954318404198, -0.12071848660707474, -0.14346373081207275, 0.18490277230739594, -0.10741237550973892, 0.04343618080019951, -0.00860951840877533, -0.012225484475493431, 0.17425699532032013, -0.15512016415596008, 0.16048802435398102, 0.10009536147117615, 0.016289368271827698, 0.15415412187576294, 0.17259711027145386, 0.0642615407705307, 0.09016245603561401, 0.20230738818645477, -0.24032601714134216, 0.1595693826675415, -0.01679331809282303, 0.05467640981078148, 0.18464899063110352, 0.1566394865512848, -0.014214023016393185, -0.06204698607325554, 0.1659659445285797, -0.03818463161587715, -0.06665666401386261, 0.04169464483857155, 0.05994923412799835, 0.05055266246199608, 0.13401731848716736, -0.10177735239267349, -0.14624087512493134, -0.14086025953292847, 0.06765446066856384, -0.21810458600521088, 0.08299604803323746, 0.24203066527843475, 0.17188435792922974, 0.17636777460575104, -0.056856825947761536, 0.2575068175792694, 0.022846585139632225, 0.08689569681882858, 0.1689968854188919, -0.09217888861894608, -0.015576353296637535, -0.006843680515885353, -0.03162204101681709], [0.04532410576939583, -0.18591253459453583, -0.07209984958171844, 0.2636454105377197, -0.12155337631702423, -0.09707758575677872, 0.11665496975183487, 0.02608708292245865, 0.04517126828432083, -0.1092575266957283, -0.10572352260351181, -0.15745556354522705, 0.07321305572986603, -0.05429655313491821, -0.06478867679834366, -0.2313627302646637, -0.06680087000131607, 0.09274017065763474, 0.16850188374519348, -0.018143072724342346, 0.158021941781044, 0.09915746003389359, 0.07971387356519699, 0.23976708948612213, 0.2043687254190445, 0.14121556282043457, 0.15485672652721405, 0.06945765018463135, 0.018571579828858376, 0.07540871948003769, 0.09132931381464005, -0.02044072560966015, 0.11685248464345932, 0.05248776450753212, -0.07672151178121567, 0.07784195244312286, -0.07487290352582932, 0.19877159595489502, 0.16516156494617462, -0.078815758228302, 0.10929447412490845, 0.2320641428232193, 0.11340390145778656, 0.008424900472164154, 0.169678196310997, 0.2478695958852768, 0.10919172316789627, 0.12088426947593689, -0.10028013586997986, 0.16100028157234192, 0.10074310004711151, -0.1278650015592575, 0.0616181418299675, 0.2350982427597046, 0.1973000168800354, 0.02159487083554268, 0.2797708809375763, 0.07105707377195358, -0.04579123854637146, 0.0999615415930748, 0.01858619973063469, -0.08475366979837418, -0.12803871929645538, 0.0835048034787178], [0.08062762022018433, 0.03173584118485451, 0.008049927651882172, -0.10103878378868103, -0.08196040242910385, 0.005240228958427906, -0.014528484083712101, 0.11229143291711807, -0.06893473118543625, 0.0254508126527071, 0.07488516718149185, 0.018923664465546608, 0.21842634677886963, -0.11657688021659851, -0.09005415439605713, 0.19344350695610046, -0.01742679625749588, 0.1049082949757576, 0.07060489058494568, -0.04125684127211571, 0.006670498289167881, -0.06693729758262634, 0.0752229169011116, 0.011228462681174278, -0.025131477043032646, 0.22547529637813568, 0.003915019799023867, 0.02121531218290329, -0.07615397870540619, -0.06973156332969666, 0.08079090714454651, 0.0765032172203064, 0.03526138886809349, 0.006417728960514069, -0.003500189632177353, -0.039562296122312546, 0.048354800790548325, -0.017433369532227516, -0.11108372360467911, 0.07531536370515823, -0.029881305992603302, -0.025312913581728935, 0.028519710525870323, -0.04470542073249817, -0.03323635831475258, 0.04886694997549057, 0.0352567583322525, -0.06818025559186935, -0.17239409685134888, -0.004806796088814735, -0.0024375971406698227, 0.00043531329720281065, -0.04581370949745178, 0.12104150652885437, -0.04063931852579117, 0.06895386427640915, -0.13068513572216034, 0.02939365804195404, 0.03329698368906975, 0.0062677692621946335, 0.1593528836965561, 0.10583201050758362, 0.0665297731757164, -0.05314135178923607], [0.07699849456548691, 0.0961255207657814, 0.13321197032928467, -0.0034547459799796343, 0.186148002743721, 0.04400024563074112, 0.056906748563051224, -0.012795211747288704, 0.06723414361476898, 0.15208189189434052, 0.1258312612771988, 0.04685327783226967, 0.20906825363636017, 0.26239123940467834, 0.21099638938903809, 0.1498536765575409, 0.09016693383455276, 0.01125936396420002, 0.14720335602760315, 0.12708373367786407, -0.17813199758529663, -0.06750515848398209, 0.03158585727214813, 0.15040799975395203, 0.09034091234207153, 0.036322299391031265, -0.0034105239901691675, 0.0858401209115982, 0.056030526757240295, -0.02042284421622753, -0.008694509044289589, -0.04690243676304817, 0.0042285737581551075, -0.10089916735887527, 0.04603824391961098, -0.034442104399204254, -0.037213362753391266, 0.030789848417043686, -0.005303146317601204, 0.12305791676044464, -0.023187747225165367, -0.0153136495500803, -0.10218244791030884, 0.08686742186546326, 0.03359978273510933, -0.13021130859851837, 0.04633568227291107, 0.052362747490406036, 0.23212210834026337, 0.06515703350305557, 0.06927281618118286, 0.26355424523353577, 0.20859022438526154, 0.12635712325572968, -0.05067632719874382, -0.03812006488442421, -0.004583736881613731, 0.12531958520412445, 0.15907004475593567, 0.06707307696342468, 0.2059466689825058, -0.051646411418914795, 0.14137661457061768, -0.16566523909568787], [0.17337454855442047, -0.08867954462766647, 0.014950004406273365, 0.12733711302280426, 0.03548441454768181, -0.1911972463130951, 0.08981310576200485, 0.13729389011859894, -0.007670518476516008, -0.0646914467215538, -0.1426009088754654, -0.08976477384567261, -0.01981375180184841, -0.17320309579372406, -0.23308180272579193, -0.14567779004573822, 0.11682476848363876, -0.0011753870639950037, 0.13622713088989258, 0.1804971694946289, 0.07439902424812317, 0.18252234160900116, -0.05921994149684906, -0.004192456137388945, 0.22971060872077942, 0.2593514323234558, 0.1223466545343399, -0.11005975306034088, -0.08865503966808319, 0.18522058427333832, 0.15642760694026947, -0.14147379994392395, 0.21293385326862335, 0.16254784166812897, 0.11193924397230148, -0.012073054909706116, -0.050014667212963104, 0.18094101548194885, -0.23404687643051147, -0.049241259694099426, 0.15569983422756195, -0.00796783808618784, -0.08372524380683899, -0.11452917754650116, 0.0877147763967514, 0.2867208421230316, 0.07958696782588959, 0.13431039452552795, 0.061333950608968735, -0.07755190134048462, 0.1655796766281128, 0.022166725248098373, 0.1982046514749527, 0.09017366915941238, 0.2937682569026947, 0.14653132855892181, 0.09262869507074356, -0.11345375329256058, 0.06934447586536407, 0.020770395174622536, 0.04956091567873955, 0.2777049243450165, -0.18606896698474884, 0.012348271906375885], [-0.026820184662938118, 0.17624972760677338, 0.12689976394176483, 0.08875701576471329, 0.07600302994251251, 0.18762806057929993, -0.03600439801812172, -0.04053311422467232, -0.06708747893571854, -0.014321964234113693, 0.18562808632850647, 0.043567195534706116, -0.015767483040690422, 0.05446489900350571, 0.1376355141401291, 0.14116179943084717, -0.016850177198648453, 0.0664442628622055, -0.05429455637931824, -0.05904953181743622, -0.022728819400072098, 0.054995276033878326, 0.12587304413318634, 0.088030144572258, 0.07892811298370361, -0.10336622595787048, 0.09830541163682938, -0.04285898804664612, 0.05470920726656914, 0.09482251852750778, -0.061662133783102036, 0.0005927366437390447, -0.09168051183223724, 0.05697588622570038, 0.022872796282172203, 0.012177661061286926, 0.10498834401369095, -0.07789786905050278, 0.19042091071605682, 0.08523783832788467, -0.0714564174413681, 0.17803508043289185, 0.11225451529026031, 0.05582265928387642, 0.1652221381664276, -0.0806126594543457, 0.04128251597285271, 0.045035913586616516, 0.049285199493169785, 0.12013467401266098, -0.038913510739803314, 0.10919401794672012, 0.0763995572924614, -0.02451021783053875, -0.13164199888706207, -0.11378832161426544, 0.04491441696882248, 0.10685519874095917, 0.0925019308924675, 0.13314813375473022, -0.009778201580047607, -0.09692475944757462, 0.029737742617726326, 0.06918330490589142], [0.15689165890216827, 0.05062296241521835, 0.03852931782603264, 0.15950988233089447, -0.10246172547340393, 0.007179821841418743, -0.13034190237522125, -0.14960625767707825, -0.19303758442401886, -0.02167339250445366, 0.035090912133455276, -0.24052074551582336, -0.036446839570999146, 0.21774688363075256, 0.12470462173223495, -0.08325496315956116, -0.2502107620239258, -0.06986688822507858, -0.007699820678681135, -0.13554365932941437, 0.08772765100002289, 0.08090855181217194, 0.1271897554397583, 0.269653856754303, -0.12725038826465607, 0.03571125864982605, 0.229305699467659, 0.12022803723812103, 0.1685597449541092, 0.2228468805551529, 0.1307651847600937, 0.1223832368850708, -0.001315301633439958, 0.2505457401275635, -0.0030728804413229227, 0.18184249103069305, 0.1231519877910614, -0.08903990685939789, 0.21790945529937744, 0.2628803253173828, -0.16448253393173218, 0.2820233702659607, 0.27484801411628723, 0.22617807984352112, 0.2502416968345642, -0.1349562406539917, 0.21336771547794342, -0.16200369596481323, -0.15466834604740143, 0.09561824053525925, -0.10429028421640396, -0.09915566444396973, 0.0131361223757267, 0.005758484359830618, -0.10747851431369781, -0.17574286460876465, 0.05693679302930832, 0.24054917693138123, -0.11765249818563461, 0.2660658061504364, -0.11699821054935455, -0.06308025866746902, -0.2195061892271042, 0.10454552620649338], [0.03765532746911049, -0.059950124472379684, -0.1961105465888977, 0.06496929377317429, 0.053108640015125275, -0.1313207447528839, 0.03181283548474312, 0.15147721767425537, 0.1581072211265564, 0.13052864372730255, 0.07401284575462341, -0.013476336374878883, 0.1756260246038437, -0.03341470658779144, -0.11961021274328232, 0.1043052226305008, 0.09229511022567749, 0.19949373602867126, 0.03225340321660042, 0.09961312264204025, -0.014129775576293468, -0.007822821848094463, -0.05654314532876015, -0.09579906612634659, 0.20291808247566223, 0.0947812870144844, 0.03030863031744957, -0.03221420571208, -0.03007931262254715, -0.12136528640985489, -0.07983426004648209, 0.13693688809871674, 0.16553737223148346, -0.07774624228477478, -0.03149404004216194, -0.0457853227853775, -0.03568907827138901, -0.013686886988580227, -0.09589073807001114, -0.10705028474330902, 0.16741125285625458, -0.16645978391170502, -0.22131070494651794, 0.011062998324632645, -0.24636469781398773, 0.24474497139453888, 0.11805880814790726, -0.07664418965578079, -0.17785203456878662, -0.08538846671581268, 0.11648278683423996, 0.0038824949879199266, 0.022502431645989418, 0.18368209898471832, 0.10893285274505615, 0.1292380690574646, 0.031809002161026, -0.044676315039396286, 0.13198937475681305, 0.11914095282554626, 0.1741342842578888, 0.21802043914794922, 0.16011852025985718, -0.164192333817482], [0.023384032770991325, 0.002624357817694545, 0.15754464268684387, 0.011503109708428383, -0.19830851256847382, 0.13177168369293213, 0.20584514737129211, 0.2057173252105713, 0.24139142036437988, 0.2875080704689026, 0.023824013769626617, 0.15225626528263092, 0.151747927069664, -0.09451251477003098, 0.06726925820112228, 0.047647688537836075, 0.17303407192230225, -0.09693077951669693, 0.06287509948015213, 0.021600376814603806, 0.06937503814697266, 0.04316633939743042, -0.16101288795471191, 0.051716070622205734, 0.24627968668937683, -0.043510157614946365, -0.11894979327917099, 0.06746367365121841, 0.05471362918615341, -0.04919204115867615, -0.05859190598130226, -0.0005420686211436987, 0.10926374793052673, 0.1768389791250229, -0.17153248190879822, -0.04808640480041504, -0.024684282019734383, 0.1785728484392166, 0.07035429030656815, 0.037226151674985886, -0.05584795027971268, 0.060283832252025604, 0.1188814714550972, 0.03507692366838455, 0.0033878430258482695, 0.009080629795789719, -0.07215619087219238, 0.08538668602705002, 0.16549472510814667, -0.05196956545114517, 0.04371337592601776, 0.13517771661281586, -0.04976685717701912, 0.19839994609355927, 0.07451147586107254, -0.08649105578660965, 0.07031408697366714, -0.07500925660133362, 0.1974731683731079, 0.014631490223109722, 0.1320890635251999, -0.14128786325454712, -0.00606116047129035, -0.03783481940627098], [-0.19426505267620087, -0.2158600240945816, -0.10462486743927002, -0.0439458005130291, -0.18983042240142822, 0.04464012011885643, 0.04710947349667549, -0.16191613674163818, 0.21832157671451569, 0.057954221963882446, 0.1284397691488266, -0.021551551297307014, -0.2125476896762848, 0.09521709382534027, 0.14653165638446808, 0.11863792687654495, -0.019108660519123077, 0.13501539826393127, -0.001405546790920198, -0.005433301441371441, 0.16211961209774017, -0.07901779562234879, 0.2733442783355713, -0.05034772679209709, -0.15274794399738312, 0.03442152962088585, 0.05179794505238533, -0.07417956739664078, 0.14934460818767548, 0.15482613444328308, -0.05906914547085762, 0.15247730910778046, 0.14848406612873077, -0.010681195184588432, -0.18905825912952423, -0.045790836215019226, 0.11240586638450623, 0.2380872517824173, 0.25431540608406067, 0.14448289573192596, -0.16399958729743958, 0.25680068135261536, 0.09673768281936646, 0.13935375213623047, -0.06907813251018524, -0.05120254307985306, 0.06270928680896759, -0.06991711258888245, -0.003817646997049451, 0.12849873304367065, -0.11375930905342102, -0.047795455902814865, -0.14438839256763458, -0.06991670280694962, -0.12184017896652222, -0.031135741621255875, -0.29369062185287476, 0.08250830322504044, 0.09922133386135101, 0.2111695408821106, -0.05309044197201729, -0.07167815417051315, -0.060138069093227386, -0.004633286967873573], [-0.15610052645206451, 0.07789311558008194, 0.05902624875307083, 0.022025665268301964, 0.2704695165157318, -0.008548633195459843, 0.007006112951785326, -0.04208507761359215, -0.1525900512933731, 0.05480964109301567, 0.17610275745391846, 0.04480539262294769, -0.104496531188488, 0.1721867173910141, 0.11581911891698837, 0.12569545209407806, -0.24155257642269135, 0.1458151936531067, -0.08430492877960205, 0.23286421597003937, 0.009673633612692356, 0.15317367017269135, 0.21057076752185822, 0.05592452362179756, -0.015488440170884132, 0.1110713928937912, 0.1137373223900795, -0.008727370761334896, -0.05825866758823395, -0.00863396842032671, 0.0011565109016373754, -0.09420884400606155, -0.06895335018634796, -0.019910991191864014, 0.2991749048233032, 0.13533426821231842, 0.26446089148521423, -0.060263752937316895, -0.21413999795913696, 0.2300565242767334, 0.2800181210041046, -0.22336970269680023, -0.15508490800857544, 0.02971557341516018, -0.0019924354273825884, 0.013203426264226437, 0.0759168416261673, -0.17452219128608704, 0.08701906353235245, -0.0894727036356926, 0.16374464333057404, 0.12374075502157211, 0.07199385017156601, -0.09309817105531693, 0.07018082588911057, 0.19831682741641998, 0.03476017713546753, 0.24891704320907593, -0.0009511550306342542, -0.06740739196538925, -0.13512682914733887, 0.2357756644487381, 0.04351360350847244, 0.046546485275030136], [0.11632657796144485, -0.15876081585884094, 0.09019045531749725, 0.11918523162603378, -0.03976049646735191, -0.06161298230290413, -0.038344692438840866, 0.07299253344535828, 0.14373764395713806, 0.1129901260137558, -0.03470941632986069, -0.03023560903966427, 0.02870931476354599, 0.08577757328748703, -0.06350113451480865, 0.03911060839891434, 0.03934827074408531, -0.13269411027431488, 0.2549138069152832, 0.1997835487127304, 0.10584783554077148, -0.02336484007537365, -0.0018763260450214148, 0.11876470595598221, 0.018780415877699852, 0.26395341753959656, 0.07958860695362091, 0.062488410621881485, 0.13797612488269806, -0.01960497722029686, 0.18852178752422333, -0.06223845109343529, 0.026275301352143288, 0.029903559014201164, -0.14035630226135254, 0.06359904259443283, -0.13072587549686432, 0.14933812618255615, -0.05740560218691826, 0.1451769918203354, -0.17888770997524261, 0.0669509693980217, 0.23399341106414795, -0.05063146725296974, -0.04348823055624962, -0.07675661146640778, 0.040091730654239655, -0.14506086707115173, 0.006645066197961569, 0.07140036672353745, 0.010553599335253239, 0.13564059138298035, -0.06649786978960037, 0.2561890184879303, -0.002111651934683323, -0.05395716428756714, 0.002884367946535349, -0.07023969292640686, 0.18734098970890045, 0.1023293286561966, -0.01299832109361887, 0.01909743994474411, -0.04392184689640999, -0.0951634868979454], [-0.12327464669942856, 0.0649230033159256, 0.1400175392627716, 0.03892732411623001, 0.24239517748355865, 0.051992349326610565, 0.02605404332280159, -0.1542189121246338, -0.13042417168617249, 0.09899774938821793, -0.01485765352845192, -0.039243508130311966, -0.17200317978858948, 0.04461709037423134, 0.028279056772589684, 0.12434514611959457, -0.16410420835018158, 0.17000842094421387, -0.09031570702791214, 0.10252425074577332, -0.03623604029417038, 0.12275438010692596, 0.20418141782283783, 0.1430501639842987, -0.03357459977269173, 0.17490854859352112, 0.09322025626897812, -0.17179879546165466, -0.022310037165880203, 0.1956407129764557, -0.03132028877735138, 0.22377201914787292, -0.1122930496931076, -0.013919124379754066, 0.2637441158294678, 0.05917678400874138, 0.05990447476506233, -0.07267577946186066, -0.10434140264987946, 0.16996526718139648, 0.22869305312633514, 0.008307401090860367, -0.17836128175258636, -0.05709321051836014, 0.20406419038772583, 0.19494463503360748, 0.15667995810508728, 0.01580321043729782, 0.018236473202705383, -0.036282483488321304, 0.21370209753513336, 0.04736606776714325, 0.08447172492742538, -0.21132072806358337, -0.011833888478577137, 0.0608106292784214, -0.05409467592835426, 0.30548322200775146, 0.04366570711135864, -0.08176488429307938, -0.11366185545921326, 0.19870522618293762, 0.1647292822599411, 0.2460329532623291], [0.027422001585364342, -0.08832830935716629, 0.009754911065101624, 0.2500450015068054, -0.14959433674812317, -0.1564839482307434, 0.05957743525505066, 0.1791239231824875, 0.006031674798578024, -0.1817854344844818, -0.05905315652489662, -0.025086645036935806, 0.04432287439703941, -0.0646170973777771, -0.13940554857254028, -0.1432802826166153, 0.0041405507363379, 0.03409375250339508, 0.10377773642539978, 0.0969296544790268, 0.14408452808856964, 0.07987391203641891, -0.010910337790846825, 0.2670053541660309, 0.1674472689628601, 0.22040879726409912, 0.14925044775009155, 0.15421117842197418, -0.007106280419975519, 0.23265086114406586, 0.14617721736431122, -0.018823478370904922, 0.19498977065086365, 0.1666826456785202, 0.0930737778544426, 0.03430292010307312, -0.18869644403457642, 0.15169894695281982, 0.018401453271508217, 0.10658924281597137, 0.08796142786741257, 0.13270381093025208, 0.1795644760131836, -0.012331322766840458, 0.05720064416527748, 0.15174157917499542, 0.0928754210472107, -0.06989964097738266, -0.14425678551197052, 0.23618659377098083, 0.08556906133890152, -0.14390899240970612, 0.021144650876522064, 0.23830488324165344, 0.17894138395786285, 0.07037695497274399, 0.12286731600761414, -0.15806417167186737, 0.06554137915372849, 0.18769781291484833, 0.019433092325925827, -0.15895485877990723, -0.1284504234790802, 0.022902073338627815], [0.046255216002464294, -0.11137296259403229, -0.1137278825044632, 0.05448449030518532, -0.0033127679489552975, -0.16561828553676605, -0.059979163110256195, 0.23068009316921234, 0.0902521088719368, 0.19580219686031342, 0.10541194677352905, 0.17654812335968018, 0.243302583694458, -0.1175544261932373, -0.09004630148410797, 0.14473436772823334, 0.1137845516204834, -0.10264044255018234, 0.11826766282320023, 0.21136994659900665, 0.1835857480764389, -0.08099441230297089, -0.08489576727151871, -0.13143901526927948, 0.09315323829650879, 0.2630164921283722, -0.11879047006368637, 0.18463562428951263, -0.07644018530845642, -0.1580178588628769, 0.17585699260234833, 0.0044816043227910995, 0.2436293065547943, -0.09860089421272278, -0.20172980427742004, 0.05079032480716705, -0.14729151129722595, 0.2796993851661682, -0.16580632328987122, 0.14794421195983887, -0.18637380003929138, -0.09254928678274155, 0.18488694727420807, 0.016338679939508438, -0.26306095719337463, -0.07072851806879044, 0.11059743165969849, -0.1790938526391983, 0.11042071878910065, -0.10648735612630844, -0.03689185157418251, 0.03996547311544418, -0.11909095197916031, 0.09441845118999481, 0.14203223586082458, -0.07598598301410675, -0.1601562350988388, -0.1577157825231552, 0.040820617228746414, 0.24477362632751465, 0.11095631122589111, -0.0869462639093399, 0.16321931779384613, -0.09893656522035599], [0.1473478078842163, 0.19137068092823029, 0.25214990973472595, -0.08906970173120499, 0.07240630686283112, 0.18572543561458588, 0.10493636876344681, 0.1414649933576584, 0.09502289444208145, 0.20988252758979797, 0.18471528589725494, 0.2487952560186386, 0.06784111261367798, 0.20975136756896973, 0.1797819286584854, 0.005299010314047337, 0.2084258794784546, -0.17152470350265503, 0.09474518895149231, 0.19935636222362518, -0.14541959762573242, 0.10748190432786942, -0.18968921899795532, 0.0005590133951045573, 0.1816592812538147, -0.0831235870718956, 0.010611671023070812, 0.04485921561717987, -0.055256444960832596, -0.09239182621240616, 0.09401676058769226, -0.05543011054396629, -0.055998217314481735, 0.08568498492240906, 0.0846642255783081, 0.0052382382564246655, 0.16500939428806305, -0.23869168758392334, -0.030500102788209915, -0.0796993300318718, 0.10972154885530472, -0.21904654800891876, -0.2122001349925995, -0.15057611465454102, 0.05747947096824646, 0.07358308881521225, 0.007263628300279379, 0.24498997628688812, 0.1550501137971878, -0.12967945635318756, -0.019974708557128906, 0.03791004791855812, 0.26964741945266724, -0.16255243122577667, 0.14091117680072784, 0.1481129229068756, 0.18472692370414734, 0.10402335971593857, 0.17661559581756592, -0.14762860536575317, 0.21792620420455933, 0.2403230518102646, 0.16836336255073547, 0.146981880068779], [-0.12162935733795166, -0.201895073056221, -0.11430037766695023, 0.13115288317203522, 0.18291690945625305, -0.2918982207775116, 0.13724187016487122, -0.2328273057937622, -0.0679740309715271, -0.0597802959382534, -0.09384101629257202, -0.24557746946811676, -0.10878598690032959, -0.00392767321318388, 0.03461652621626854, 0.02924881875514984, -0.206965371966362, 0.24381665885448456, -0.08619120717048645, 0.11416786909103394, 0.19469662010669708, 0.1632774919271469, 0.23558132350444794, -0.07998725026845932, 0.005997966043651104, 0.07022476196289062, 0.026716774329543114, -0.016829606145620346, 0.24513156712055206, 0.18382856249809265, 0.017407577484846115, 0.11853323131799698, 0.24093376100063324, 0.03455445542931557, 0.2292601615190506, 0.23086749017238617, 0.10771176218986511, 0.13583260774612427, 0.0022694808430969715, 0.20920893549919128, 0.22062312066555023, 0.20060433447360992, 0.1455124020576477, 0.06643623113632202, 0.156996950507164, 0.24254265427589417, 0.04962071403861046, 0.05672338604927063, -0.11201520264148712, 0.11693787574768066, 0.1860111653804779, -0.11831245571374893, -0.04493851214647293, -0.14603812992572784, 0.011388763785362244, 0.21241416037082672, 0.1431117057800293, 0.053731851279735565, 0.04129869490861893, 0.13923446834087372, -0.002704888116568327, 0.1945793777704239, -0.11842173337936401, 0.18657395243644714], [0.13969944417476654, -0.027467161417007446, 0.07252229750156403, 0.2385871261358261, -0.045092541724443436, -0.04326653108000755, -0.07216991484165192, -0.2551708221435547, -0.10839147120714188, -0.13414783775806427, -0.10601946711540222, -0.2537849545478821, -0.09085378050804138, 0.04765015468001366, -0.09115687757730484, -0.010968840681016445, -0.2124817669391632, 0.12362075597047806, -0.2128618359565735, -0.11627478897571564, 0.14644436538219452, 0.1890270859003067, 0.24483603239059448, 0.14093010127544403, 0.025606485083699226, 0.09901291877031326, 0.2519625723361969, -0.08329077810049057, 0.14960439503192902, 0.0837942510843277, 0.21345025300979614, 0.23364338278770447, -0.04062821716070175, 0.2030438780784607, 0.05735437572002411, 0.22089239954948425, -0.0784338191151619, -0.04054310545325279, 0.0944228321313858, 0.2501303255558014, -0.0012268433347344398, 0.09916596859693527, 0.15020599961280823, 0.07261291891336441, 0.17083081603050232, 0.077203169465065, 0.18408453464508057, 0.08245242387056351, -0.12109208106994629, 0.2527681589126587, 0.01094820722937584, -0.09538954496383667, 0.12202578037977219, 0.0525614395737648, 0.0457414947450161, 0.0911884531378746, 0.23322315514087677, 0.07802258431911469, -0.040861546993255615, -0.010763158090412617, -0.13651563227176666, -0.08901393413543701, -0.17047317326068878, 0.048997487872838974], [0.016941173002123833, 0.19980177283287048, 0.17449721693992615, -0.18667195737361908, 0.008424068801105022, 0.28563469648361206, 0.04600180685520172, 0.19860489666461945, 0.08815055340528488, 0.20354554057121277, 0.20497927069664001, 0.09736073762178421, 0.11861247569322586, 0.06775783747434616, 0.16204166412353516, 0.21799227595329285, 0.28975751996040344, -0.15030209720134735, 0.23516230285167694, 0.008488386869430542, -0.04847100377082825, -0.056918155401945114, -0.24295376241207123, 0.010448691435158253, 0.25876346230506897, -0.021390026435256004, -0.03544416278600693, 0.1575677990913391, -0.015523005276918411, -0.2458633929491043, -0.008341389708220959, -0.08139341324567795, 0.011500095948576927, -0.13281011581420898, 0.06756729632616043, 0.06664282828569412, 0.12953117489814758, -0.025076959282159805, 0.04550531879067421, 0.04335344582796097, -0.06501370668411255, -0.12121566385030746, 0.0189469326287508, 0.019394420087337494, -0.2049972265958786, -0.08084887266159058, -0.14421114325523376, 0.06045102700591087, 0.240809828042984, 0.05392436683177948, -0.06184028089046478, 0.20741067826747894, 0.10886828601360321, 0.20737379789352417, 0.10573868453502655, -0.10483165830373764, 0.05379638075828552, -0.02534450590610504, 0.25211358070373535, 0.055743031203746796, 0.1927374303340912, 0.0805857703089714, 0.20985271036624908, -0.13720504939556122], [0.06152254343032837, -0.17520011961460114, -0.02733698859810829, 0.27051424980163574, 0.053458988666534424, -0.20994028449058533, 0.02272445522248745, 0.06406456977128983, -0.0422683022916317, 0.041586052626371384, -0.17349720001220703, -0.21444843709468842, 0.08351320773363113, -0.06032362952828407, -0.2542184293270111, -0.20885023474693298, 0.033023569732904434, 0.26868000626564026, 0.06747569143772125, 0.16532976925373077, 0.1628362238407135, 0.006340314634144306, 0.21122616529464722, 0.04736456274986267, 0.05742809548974037, 0.25771886110305786, 0.219828262925148, 0.10677465796470642, 0.00012985635839868337, 0.14119917154312134, 0.08343199640512466, 0.093257836997509, 0.2415093034505844, 0.1369514912366867, 0.10398264974355698, 0.0364421121776104, -0.12668286263942719, 0.12125793099403381, -0.03520207852125168, 0.03249982371926308, -0.03523566573858261, 0.26846805214881897, -0.004157043527811766, 0.01549286674708128, 0.042376674711704254, 0.15458720922470093, 0.09622079133987427, 0.02571667730808258, -0.06916138529777527, 0.150797039270401, 0.11302156746387482, 0.012762977741658688, 0.07888201624155045, 0.1994384080171585, 0.032510850578546524, -0.04935827851295471, 0.20715051889419556, 0.04512913525104523, -0.01377753634005785, 0.2561362385749817, -0.05361723154783249, -0.05734024941921234, -0.012283739633858204, 0.05673378333449364], [-0.08810669183731079, 0.06755376607179642, 0.04080716520547867, -0.04798039048910141, -0.1182057112455368, 0.11575956642627716, 0.06569676101207733, 0.06333493441343307, 0.2875826060771942, 0.1179262176156044, 0.05155085772275925, 0.24156935513019562, 0.07825492322444916, 0.14372602105140686, 0.1864086389541626, 0.033520329743623734, 0.2154025137424469, 0.0356694720685482, 0.16049137711524963, 0.11538781970739365, 0.15585289895534515, -0.05470490828156471, 0.22055545449256897, -0.23401767015457153, 0.0032244836911559105, 0.09867661446332932, -0.021812299266457558, 0.1067805215716362, 0.07449157536029816, -0.026871398091316223, 0.10585962235927582, 0.059521883726119995, 0.1100882738828659, 0.0306355282664299, -0.13464829325675964, -0.025188755244016647, 0.1775972545146942, 0.15628397464752197, 0.09251853823661804, 0.15629038214683533, 0.01897997036576271, 0.20896516740322113, 0.038231898099184036, 0.22509737312793732, -0.1036473736166954, -0.021248001605272293, 0.07653496414422989, 0.012953479774296284, 0.22565579414367676, -0.02671470306813717, -0.0900842472910881, 0.26946133375167847, -0.20785383880138397, 0.02396051585674286, -0.14623045921325684, -0.05153238773345947, -0.20641082525253296, -0.019330985844135284, 0.21741710603237152, -0.019543031230568886, 0.08979678153991699, 0.10489528626203537, 0.14438052475452423, -0.022208837792277336], [0.13267971575260162, 0.25393882393836975, 0.16566573083400726, 0.04771432653069496, -0.210956409573555, 0.3018762767314911, 0.14482805132865906, 0.07257971912622452, -0.03480040654540062, 0.035733412951231, 0.06717321276664734, -0.01478198729455471, 0.0387905091047287, 0.14165371656417847, 0.11570150405168533, 0.0675811767578125, -0.004817503038793802, 0.16451510787010193, 0.020210089161992073, -0.09507498890161514, 0.028403891250491142, 0.006137089803814888, 0.11899415403604507, 0.043226540088653564, -0.0856894999742508, -0.0866227000951767, 0.04635204002261162, 0.0833670049905777, 0.12154388427734375, -0.003314423142001033, 0.057369623333215714, -0.014782351441681385, 0.02844148315489292, 0.1159440353512764, -0.1312546730041504, 0.009004727005958557, 0.256353497505188, -0.1318480223417282, 0.14529958367347717, 0.09953021258115768, 0.026866251602768898, 0.13306036591529846, 0.1309661716222763, 0.2544807195663452, -0.03113257884979248, -0.2731027603149414, 0.0022748815827071667, 0.08169306814670563, 0.12548036873340607, 0.2153441160917282, -0.04846245050430298, -0.029173992574214935, -0.11213221400976181, -0.20306335389614105, -0.05776283144950867, -0.07580694556236267, -0.1613486260175705, 0.21988211572170258, 0.04776691645383835, -0.07132774591445923, 0.14603681862354279, -0.08325277268886566, 0.20813977718353271, -0.08498548716306686], [-0.0829736664891243, 0.22630815207958221, -0.01612118072807789, 0.09459418058395386, 0.2181759774684906, 0.1595689356327057, -0.03799518570303917, 0.016248468309640884, -0.28668850660324097, -0.022729765623807907, 0.17070792615413666, 0.007528483401983976, -0.07310938835144043, 0.18036681413650513, 0.13597217202186584, 0.23254473507404327, -0.059687137603759766, 0.0709361582994461, 0.0193165335804224, -0.04359694570302963, 0.020526302978396416, -0.10953734815120697, -0.07022598385810852, 0.22543491423130035, 0.011245720088481903, 0.046620868146419525, 0.056611549109220505, 0.09522874653339386, -0.05548376962542534, -0.007856282405555248, 0.19220931828022003, -0.06965969502925873, -0.11373113840818405, -0.02523777261376381, 0.27382439374923706, 0.123416006565094, 0.09507318586111069, -0.01195098739117384, -0.030455155298113823, 0.2595081925392151, 0.012732965871691704, 0.02289164997637272, 0.0010789120569825172, -0.03760598599910736, 0.1879328042268753, -0.12493058294057846, -0.0431918129324913, -0.2005317658185959, 0.01883816160261631, 0.08918339014053345, 0.019513679668307304, 0.15173105895519257, 0.22646500170230865, -0.03426970914006233, 0.10240434855222702, -0.010972538962960243, 0.10827863961458206, 0.1305624097585678, -0.07519505172967911, -0.015067500993609428, -0.06432455778121948, -0.03782514110207558, 0.04591437801718712, 0.052870120853185654], [-0.27373751997947693, 0.0827968567609787, 0.06632676720619202, 0.0790693461894989, 0.151046022772789, -0.036936260759830475, -0.13675329089164734, -0.09388155490159988, -0.12583528459072113, 0.06358551979064941, 0.20151640474796295, -0.05796419829130173, -0.1446869969367981, 0.058345261961221695, 0.05930718034505844, 0.24507512152194977, -0.237782284617424, 0.18617211282253265, -0.09638472646474838, 0.08358165621757507, 0.059606682509183884, -0.06860066950321198, 0.21261706948280334, 0.08908753097057343, -0.12435194849967957, 0.21037344634532928, 0.20855283737182617, 0.0871056616306305, -0.119613416492939, 0.10601210594177246, 0.032693419605493546, -0.05380697920918465, -0.05033046007156372, -0.10156597942113876, 0.2182079255580902, 0.1672685295343399, 0.17099152505397797, 0.10759090632200241, 0.011301005259156227, 0.10571827739477158, 0.07164563238620758, -0.013683806173503399, -0.020203283056616783, 0.08070547133684158, 0.10128037631511688, -0.19078166782855988, -0.014921232126653194, -0.10068855434656143, -0.02196810580790043, -0.1120406836271286, 0.0004637192760128528, 0.19296643137931824, -0.16591842472553253, -0.06567399948835373, -0.06999828666448593, 0.001997761894017458, -0.1217830553650856, 0.250775009393692, 0.005338229704648256, 0.1327495574951172, -0.055558815598487854, 0.17345993220806122, 0.15891548991203308, 0.14295387268066406], [0.18220196664333344, -0.08852789551019669, 0.004158306401222944, 0.21405431628227234, 0.16543664038181305, -0.11443457752466202, 0.06345098465681076, 0.17904223501682281, -0.05119924619793892, 0.12481995671987534, 0.005500182043761015, 0.008672594092786312, 0.22907933592796326, -0.1082039326429367, -0.20148473978042603, -0.16257905960083008, 0.20048999786376953, 0.0692848339676857, 0.18033862113952637, 0.03497226908802986, -0.032299626618623734, 0.23952379822731018, -0.12098385393619537, 0.04232881963253021, 0.19297128915786743, 0.14424434304237366, 0.06595133244991302, 0.10490795224905014, -0.11068960279226303, 0.21122895181179047, 0.22860752046108246, -0.07605645060539246, -0.010134248994290829, 0.1805214285850525, 0.1282554417848587, 0.06614784896373749, 0.08655129373073578, -0.10651706904172897, -0.11278031021356583, -0.07384692132472992, 0.0505162812769413, -0.08971845358610153, -0.059690941125154495, -0.1679397076368332, 0.02128482609987259, 0.09892931580543518, 0.04614337161183357, 0.21249186992645264, -0.06744757294654846, -0.014843042939901352, 0.06789810210466385, -0.1036606878042221, 0.0806281790137291, 0.039424240589141846, 0.10525980591773987, 0.07463327050209045, 0.2802678346633911, 0.12260250002145767, -0.024722129106521606, 0.0966443344950676, 0.022564666345715523, 0.0455184131860733, -0.03469248116016388, -0.024896608665585518], [0.06739120185375214, -0.020944204181432724, 0.10081306099891663, 0.061633963137865067, -0.18944239616394043, 0.267316073179245, 0.04592675715684891, 0.06715964525938034, 0.08050529658794403, 0.05845543369650841, 0.07845861464738846, -0.027097957208752632, 0.07725031673908234, 0.2274056226015091, 0.08974871784448624, 0.005251404829323292, 0.19555677473545074, -0.01097469124943018, 0.039570875465869904, -0.13863688707351685, 0.02941662073135376, -0.04432625696063042, 0.13016170263290405, 0.10458556562662125, 0.013567727990448475, 0.022030480206012726, 0.1332801729440689, 0.12836655974388123, 0.1562730222940445, -0.0064871348440647125, 0.1892651617527008, 0.1311589479446411, 0.062250882387161255, 0.05716027319431305, -0.15157388150691986, 0.08702509105205536, 0.022922612726688385, 0.14076532423496246, 0.31381431221961975, 0.28003954887390137, -0.12256873399019241, 0.21807147562503815, 0.251041054725647, 0.18112193048000336, 0.04006483405828476, -0.21260850131511688, 0.26176708936691284, -0.0421450175344944, -0.03162126615643501, 0.052618369460105896, -0.17373761534690857, 0.10453515499830246, -0.09558343142271042, 0.24944867193698883, -0.15123771131038666, -0.043453965336084366, -0.0313752144575119, 0.037184737622737885, 0.04241582751274109, 0.23944497108459473, 0.1163303554058075, -0.23801854252815247, 0.03899979963898659, -0.026470651850104332], [0.05003637447953224, -0.2026742696762085, 0.09567984938621521, 0.19145910441875458, -0.25122156739234924, 0.048060812056064606, 0.22069351375102997, -0.14221206307411194, 0.13352026045322418, -0.05905412137508392, -0.04561391472816467, -0.026097409427165985, -0.050986550748348236, 0.022466104477643967, 0.12752778828144073, -0.09623098373413086, -0.16621209681034088, 0.09493798017501831, -0.13730937242507935, -0.0636405423283577, 0.0945596769452095, 0.2096962332725525, 0.23236185312271118, 0.019363492727279663, -0.1914207637310028, -0.12380791455507278, 0.10672823339700699, -0.05418207496404648, 0.13703878223896027, 0.14835144579410553, -0.2145555317401886, 0.12535595893859863, 0.15015731751918793, 0.06349006295204163, -0.06781308352947235, 0.09907367825508118, -0.06452949345111847, -0.10331316292285919, 0.1278066337108612, -0.05825311318039894, -0.1577775627374649, 0.11107423156499863, 0.23660454154014587, 0.2462567239999771, 0.007846922613680363, -0.037375837564468384, 0.14153330028057098, 0.0698520839214325, -0.09649261087179184, 0.04568617045879364, -0.09009435772895813, -0.12177208065986633, 0.019495762884616852, -0.11176136136054993, -0.1076023206114769, -0.017745647579431534, -0.11438694596290588, 0.08317574113607407, -0.040121302008628845, 0.05271823704242706, 0.06980644911527634, -0.12387258559465408, -0.08486659079790115, 0.2023671269416809], [0.1077030599117279, -0.12237464636564255, -0.12935641407966614, 0.046499475836753845, 0.03074481338262558, -0.2017776221036911, 0.18547964096069336, -0.14763839542865753, 0.026529863476753235, -0.10629487037658691, -0.11991717666387558, -0.22714093327522278, -0.031372543424367905, -0.060841139405965805, 0.04850785806775093, -0.17273610830307007, -0.15537944436073303, 0.10393624752759933, -0.1752893477678299, 0.24226242303848267, 0.08091524988412857, 0.23437125980854034, 0.2115158885717392, -0.07584604620933533, 0.17093874514102936, 0.09570862352848053, -0.005275709554553032, 0.01082182303071022, 0.07382100820541382, 0.2706429958343506, -0.12110887467861176, 0.19514113664627075, -0.07048594951629639, 0.21784654259681702, 0.00605044886469841, -0.08642878383398056, 0.010986356064677238, -0.030251333490014076, 0.10418808460235596, 0.03850014880299568, 0.07741326838731766, 0.11152640730142593, -0.21112120151519775, -0.12243078649044037, 0.22693072259426117, 0.12447204440832138, 0.17276564240455627, 0.035793088376522064, -0.08464877307415009, 0.05830712616443634, 0.13632890582084656, -0.05391521006822586, 0.15699008107185364, -0.18250222504138947, 0.015985140576958656, 0.0922672376036644, 0.14506830275058746, -0.07752636075019836, 0.15868283808231354, 0.061199355870485306, 0.11576175689697266, 0.25703170895576477, -0.10189981013536453, 0.23670682311058044], [0.29832831025123596, 0.20640632510185242, 0.13487683236598969, 0.16148264706134796, -0.1765812337398529, 0.2755771279335022, 0.22270677983760834, 0.2814818322658539, 0.14898505806922913, 0.038870178163051605, 0.007225975394248962, 0.2178783118724823, 0.13277430832386017, -0.08751876652240753, 0.04697267338633537, 0.006676642689853907, 0.13062159717082977, -0.04315074533224106, 0.2926788032054901, -0.16633251309394836, -0.022430123761296272, -0.00698747718706727, -0.2967958450317383, -0.018399905413389206, 0.24687860906124115, 0.07545822858810425, -0.1558319479227066, 0.2990001142024994, -0.053032781928777695, -0.3009420931339264, 0.14981698989868164, -0.1339557021856308, 0.16248878836631775, 0.1625732034444809, -0.15476354956626892, -0.08134547621011734, -0.08577879518270493, 0.14506837725639343, 0.15756568312644958, -0.20871837437152863, -0.0506414994597435, -0.07348468899726868, 0.11536238342523575, -0.19877977669239044, -0.11884886026382446, -0.020715629681944847, -0.1925400197505951, 0.07515614479780197, 0.23482084274291992, -0.017340555787086487, -0.07689900696277618, 0.15129463374614716, 0.06166290491819382, 0.24034613370895386, 0.23964938521385193, -0.005103635601699352, 0.1575031578540802, -0.2725442349910736, 0.0661790743470192, -0.05649644881486893, 0.18698656558990479, -0.06682807952165604, 0.18470600247383118, -0.10154178738594055], [0.07401460409164429, -0.01675558090209961, 0.018079636618494987, 0.04439329728484154, 0.21201637387275696, -0.07608764618635178, -0.08554215729236603, -0.1905899941921234, 0.002828918630257249, -0.055769819766283035, 0.01413213275372982, -0.07580479234457016, -0.20200155675411224, 0.021240143105387688, 0.05854327231645584, 0.15607187151908875, -0.1972414255142212, 0.2542054057121277, -0.04377157241106033, -0.08693475276231766, 0.0526728481054306, 0.14592911303043365, 0.15478315949440002, 0.27846917510032654, -0.12266846746206284, 0.04242529720067978, 0.21124358475208282, -0.07596395909786224, 0.21954436600208282, 0.2275320291519165, 0.05298151448369026, 0.2249045968055725, 0.02770509012043476, 0.204047292470932, 0.22397692501544952, 0.10456689447164536, 0.08890368789434433, 0.023146111518144608, 0.08898281306028366, 0.2888338565826416, 0.12873345613479614, 0.21028438210487366, 0.20726937055587769, 0.10384773463010788, 0.24337244033813477, 0.11289260536432266, 0.30094289779663086, 