{"model": "node_mlp_pca_fair_k2", "layers": [{"type": "lin", "act": "relu", "W": [[-0.06076112017035484, 0.16638541221618652, 0.2053009271621704, -0.0035896948538720608, -0.009609715081751347, 0.05113355442881584, 0.06821006536483765, -0.21886011958122253, -0.0617721825838089, -0.08363599330186844, 0.23846860229969025, 0.15355221927165985, -0.03778643533587456, -0.22536876797676086, -0.09089883416891098, 0.1707431972026825, 0.12045539915561676, -0.09780961275100708, 0.026305094361305237, -0.21029943227767944, -0.10806828737258911, 0.02551865391433239, -0.2139315903186798, 0.06109863519668579, 0.16228415071964264, -0.11655884236097336, -0.025260455906391144, 0.01695050112903118, 0.14424772560596466, -0.0017873697215691209, -0.17555133998394012, -0.08929884433746338], [-0.27259182929992676, -0.12657515704631805, 0.029697109013795853, 0.20140619575977325, -0.05704980343580246, 0.11787565052509308, -0.2652127742767334, -0.07359689474105835, 0.15577095746994019, 0.1099737286567688, -0.04296112433075905, -0.0869714617729187, 0.09835882484912872, 0.19321341812610626, -0.10575751960277557, 0.16740483045578003, -0.20050519704818726, 0.08720520883798599, -0.04063420370221138, 0.09101855754852295, -0.00012673194578383118, 0.13607139885425568, -0.12662769854068756, -0.03561371564865112, -0.05883407220244408, -0.009936689399182796, -0.2169427126646042, -0.04110240936279297, 0.0052591776475310326, -0.15062880516052246, -0.169370636343956, -0.169508159160614], [-0.04748940467834473, -0.1982133835554123, 0.03465193510055542, 0.22444507479667664, 0.01941644586622715, -0.18604479730129242, 0.13649940490722656, 0.10148492455482483, 0.02291700430214405, -0.06719299405813217, -0.061462100595235825, -0.09730958193540573, -0.19382596015930176, -0.06783231347799301, -0.0617363415658474, 0.14868630468845367, -0.028622735291719437, -0.20642952620983124, -0.04529642313718796, -0.09129190444946289, -0.002281866269186139, 0.18826250731945038, -0.0795341208577156, -0.05097167193889618, 0.12460219860076904, 0.09767909348011017, -0.017209673300385475, 0.11492891609668732, -0.0805727019906044, 0.08055499941110611, -0.004846321884542704, 0.04022074118256569], [0.25740835070610046, 0.02275788225233555, -0.16889366507530212, 0.20019003748893738, -0.034925270825624466, 0.012715424410998821, -0.08606287091970444, -0.18865647912025452, -0.17030607163906097, 0.21484827995300293, -0.04083495959639549, -0.07346303761005402, -0.10150232911109924, -0.21073269844055176, 0.09455346316099167, -0.03046514466404915, -0.1630287617444992, -0.06290541589260101, -0.027589216828346252, -0.09592165797948837, 0.09273780137300491, 0.06447834521532059, 0.23110255599021912, 0.20672079920768738, 0.09656829386949539, 0.1746777594089508, -0.033616095781326294, 0.07207214832305908, 0.07130001485347748, -0.08669394999742508, -0.01299135759472847, 0.13382667303085327], [-0.14428357779979706, -0.08020219951868057, 0.05287543684244156, 0.13740886747837067, 0.02641957998275757, -0.1192222312092781, -0.0967978984117508, 0.09920238703489304, 0.02512436732649803, -0.05946400761604309, -0.029314635321497917, -0.1952660083770752, -0.05837925150990486, 0.06213032081723213, 0.0639965608716011, 0.08502472937107086, -0.06121252849698067, -0.1805180162191391, 0.10419894754886627, 0.20413976907730103, -0.029748212546110153, -0.09782996773719788, -0.11517798155546188, 0.03483487293124199, 0.07294437289237976, -0.005937720648944378, 0.11405929177999496, -0.006582510657608509, 0.009267770685255527, -0.25498756766319275, 0.09144406020641327, -0.17944887280464172], [0.16238944232463837, -0.25839683413505554, -0.08622664213180542, -0.048046860843896866, -0.06484412401914597, 0.042251843959093094, 0.17268547415733337, 0.091279037296772, 0.042868029326200485, 0.03515543416142464, -0.011956100352108479, 0.07867920398712158, 0.1382417380809784, -0.0801803320646286, -0.17836503684520721, -0.014281190000474453, 0.02973165549337864, 0.2092200219631195, -0.1915905624628067, 0.1732996553182602, 0.08322116732597351, 0.1783851534128189, 0.02135230414569378, -0.190964937210083, 0.09608125686645508, -0.02462192252278328, 0.01722254790365696, 0.16261838376522064, 0.0011309027904644608, -0.00964280217885971, 0.05183739587664604, 0.17813868820667267], [-0.11145984381437302, 0.1307385116815567, 0.13972997665405273, 0.03442467004060745, -0.17465481162071228, 0.08207924664020538, 0.20883502066135406, -0.08434271812438965, 0.10464830696582794, 0.007100239861756563, -0.10182592272758484, -0.025317896157503128, 0.19412027299404144, -0.08006452769041061, -0.08891360461711884, -0.07460024952888489, 0.04579425975680351, 0.23655939102172852, -0.13089853525161743, -0.11431942135095596, -0.03067500703036785, -0.07741571217775345, -0.204667329788208, -0.09751641005277634, -0.21244549751281738, 0.08090918511152267, -0.14874215424060822, 0.2138659656047821, -0.011497327126562595, 0.2069903314113617, -0.2082807868719101, 0.0006423157756216824], [-0.09931590408086777, -0.07993140816688538, -0.1609453558921814, 0.08247724920511246, -0.14835098385810852, -0.20145298540592194, -0.031405482441186905, 0.0063611045479774475, 0.11980658024549484, 0.15559066832065582, 0.22073745727539062, 0.22687168419361115, 0.06974180787801743, 0.07487686723470688, 0.24567116796970367, 0.11985407769680023, 0.05940402299165726, 0.07564126700162888, -0.06083774194121361, -0.1667974591255188, -0.13606493175029755, 0.13980747759342194, -0.22012834250926971, -0.04986047372221947, -0.18895499408245087, 0.07001399248838425, 0.1834075152873993, 0.11788103729486465, -0.1479031890630722, -0.16661106050014496, -0.007341950200498104, -0.1674109697341919], [0.00982783641666174, 0.03167414665222168, -0.15905408561229706, -0.07703693956136703, -0.10525345802307129, -0.08392080664634705, 0.02437392994761467, -0.19183214008808136, 0.11153768748044968, -0.06006184592843056, 0.13380621373653412, 0.05992636829614639, -0.05549302324652672, 0.1544443964958191, -0.006141745485365391, -0.2147499918937683, -0.09815303236246109, -0.13224133849143982, 0.05773569643497467, -0.04751459136605263, 0.047391194850206375, -0.16689245402812958, 0.011436926200985909, 0.11017292737960815, 0.017880933359265327, -0.12199883162975311, 0.0032342099584639072, 0.13162826001644135, -0.008165096864104271, 0.22413450479507446, 0.07013902813196182, 0.23928429186344147], [-0.1987709105014801, -0.16207103431224823, -0.047968629747629166, -0.04943615570664406, -0.05133309215307236, -0.056670647114515305, -0.13903796672821045, 0.1031772643327713, 0.04834185913205147, -0.23124156892299652, 0.021555421873927116, 0.02803911454975605, -0.025586146861314774, -0.035096146166324615, -0.021756261587142944, 0.10146233439445496, 0.047742072492837906, 0.05999940261244774, 0.2277272343635559, -0.030239416286349297, -0.002300925785675645, 0.0485328771173954, -0.14698898792266846, -0.006550677586346865, -0.18881072103977203, 0.0743645504117012, 0.06181907281279564, 0.0890081450343132, -0.04260008782148361, 0.13225726783275604, 0.07192559540271759, 0.02632235735654831], [-0.07943136245012283, 0.007661596406251192, 0.10346516221761703, 0.23789693415164948, -0.1465759128332138, -0.06078881770372391, 0.06836859881877899, 0.10438185185194016, -0.1657496988773346, 0.12258803844451904, -0.060031868517398834, -0.1639147847890854, 0.14718687534332275, -0.016591662541031837, 0.10191833227872849, -0.04191398248076439, -0.07819748669862747, 0.05188383162021637, -0.12736530601978302, -0.06427931040525436, 0.12478824704885483, -0.1227453351020813, -0.10284624993801117, -0.14159740507602692, 0.08244412392377853, -0.003762447740882635, -0.052306633442640305, -0.21243155002593994, 0.05113670974969864, -0.12151778489351273, 0.11894792318344116, 0.010278160683810711], [-0.214570552110672, -0.1860513985157013, 0.1898816078901291, 0.10210754722356796, -0.11763840913772583, 0.18780869245529175, -0.006006956100463867, -0.19797255098819733, 0.22056610882282257, 0.16515755653381348, -0.10984320193529129, -0.061427973210811615, -0.11855573207139969, 0.11392157524824142, 0.06399305909872055, -0.032397061586380005, -0.2282886803150177, 0.012358139269053936, -0.08279295265674591, 0.12431127578020096, -0.061914488673210144, 0.13137757778167725, 0.014361963607370853, 0.00045695490553043783, 0.02515966258943081, -0.020441696047782898, -0.12566570937633514, -0.14479520916938782, 0.023798523470759392, 0.2142786979675293, 0.09462942183017731, 0.062396612018346786], [-0.16228087246418, -0.0920737236738205, 0.06354901194572449, -0.053695086389780045, -0.1669805645942688, 0.10182376950979233, -0.028710559010505676, 0.10486326366662979, 0.13242261111736298, -0.06694918870925903, 0.16884097456932068, 0.008179932832717896, -0.1131453663110733, -0.18683773279190063, -0.25413212180137634, 0.05983593687415123, 0.1777014136314392, -0.20004671812057495, 0.014930606819689274, -0.018561989068984985, 0.08423861116170883, -0.009372232481837273, -0.14564622938632965, -0.1574692279100418, 0.033499978482723236, 0.2315099835395813, 0.06712191551923752, 0.0977592021226883, -0.22111213207244873, 0.06548161804676056, -0.06272374093532562, -0.009863542392849922], [0.05448045954108238, 0.1247871145606041, -0.07886938750743866, 0.06597697734832764, 0.12000761926174164, -0.1440851092338562, -0.13720795512199402, 0.20064124464988708, 0.02597161941230297, 0.07149136811494827, -0.0911223292350769, -0.162883460521698, -0.11905374377965927, -0.12025424093008041, 0.0465192086994648, 0.21963171660900116, -0.050124943256378174, 0.16808180510997772, 0.12863121926784515, -0.10125326365232468, -0.027171067893505096, 0.18074342608451843, 0.09251989424228668, -0.20109958946704865, -0.06173563376069069, -0.12268070876598358, -0.13192018866539001, 0.0323779471218586, 0.06950794905424118, 0.23040997982025146, 0.09510981291532516, -0.19020120799541473], [0.18716475367546082, -0.16496014595031738, -0.1566839963197708, -0.031033366918563843, 0.10384368896484375, -0.06196139380335808, 0.0716431587934494, -0.002912740223109722, 0.13612815737724304, -0.03626781702041626, 0.049945369362831116, -0.20567020773887634, -0.12647897005081177, 0.20696572959423065, -0.0035563702695071697, -0.07132008671760559, -0.1487208902835846, -0.09107112139463425, 0.1537790596485138, 0.19327428936958313, -0.08066124469041824, 0.09057871997356415, -0.10495463013648987, -0.23048923909664154, -0.23934219777584076, 0.1505037546157837, 0.07961606979370117, 0.18783989548683167, -0.10482977330684662, 0.15734349191188812, 0.2191915512084961, -0.05650900676846504], [0.18530277907848358, -0.14685936272144318, 0.10545456409454346, -0.0034249897580593824, 0.08830270916223526, -0.09639051556587219, -0.1911812275648117, 0.18099775910377502, -0.030270181596279144, -0.10967246443033218, 0.1475762128829956, 0.19767211377620697, -0.15195898711681366, -0.05397350713610649, 0.020636143162846565, 0.1586817353963852, -0.011140946298837662, 0.03775833919644356, 0.10693925619125366, -0.0674971491098404, -0.05793122574687004, 0.2373548150062561, -0.11929866671562195, -0.13914960622787476, 0.020428990945219994, -0.12198591977357864, 0.06708794087171555, -0.044008076190948486, -0.23514465987682343, -0.06860438734292984, -0.023711156100034714, -0.13276180624961853], [-0.18414568901062012, -0.042262397706508636, 0.20045879483222961, -0.07361938804388046, -0.05870852246880531, -0.05030370131134987, -0.1256140023469925, -0.09187982231378555, 0.16968956589698792, 0.014492244459688663, 0.13769729435443878, 0.13909055292606354, 0.09712141007184982, -0.08684182912111282, -0.05931205302476883, -0.17375925183296204, -0.25860217213630676, 0.12889645993709564, 0.09172597527503967, -0.2051876336336136, -0.042647186666727066, -0.13678637146949768, -0.060802802443504333, 0.1269233673810959, 0.12342013418674469, 0.15551233291625977, 0.08668553829193115, 0.2594105005264282, 0.1747554987668991, 0.25260403752326965, 0.01762533187866211, 0.005530787631869316], [0.2158002257347107, 0.2005620151758194, -0.1697966307401657, 0.07281956821680069, -0.061909906566143036, -0.22436614334583282, 0.03389114886522293, 0.07140372693538666, -0.108793243765831, 0.10183610022068024, -0.17146603763103485, 0.16990716755390167, -0.11151954531669617, 0.12640659511089325, 0.22324687242507935, 0.019535301253199577, -0.05307319387793541, 0.08039939403533936, -0.026985647156834602, 0.20366336405277252, -0.17505690455436707, -0.2297723889350891, -0.08523094654083252, 0.015887778252363205, 0.06499974429607391, 0.0632079616189003, 0.0917293056845665, 0.03567621856927872, -0.010998980142176151, 0.185600146651268, -0.15688855946063995, -0.054485175758600235], [-0.07527279853820801, 0.10924642533063889, -0.10660810023546219, 0.10639707744121552, -0.061346519738435745, 0.20154663920402527, -0.15440569818019867, -0.17979389429092407, 0.019808586686849594, 0.14051617681980133, -0.20426806807518005, 0.19336211681365967, 0.005334747023880482, 0.08937028795480728, 0.03151680529117584, -0.17391914129257202, 0.1480071097612381, 0.015170000493526459, -0.04225987195968628, 0.22027984261512756, 0.25655075907707214, -0.22807276248931885, -0.20394396781921387, 0.20885798335075378, -0.024203483015298843, 0.1745351105928421, 0.08209521323442459, -0.17874792218208313, 0.03786161541938782, -0.04674302786588669, -0.08838222920894623, -0.11814288049936295], [-0.030237922444939613, 0.043703190982341766, -0.0477692075073719, 0.26595568656921387, 0.2480059415102005, -0.21530018746852875, -0.03319387882947922, 0.10307253152132034, 0.005377202294766903, -0.014627332799136639, 0.0500183030962944, -0.09699466824531555, 0.05297648534178734, 0.08586280047893524, 0.1794230192899704, -0.20343972742557526, -0.16605576872825623, 0.22706736624240875, 0.04903305321931839, -0.1646474003791809, -0.048080384731292725, 0.11234217882156372, -0.08658601343631744, 0.029427502304315567, -0.19612981379032135, -0.03880181908607483, 0.12479671090841293, 0.008071784861385822, -0.21109920740127563, -0.0676242783665657, 0.0703040212392807, 0.032806459814310074], [0.0467095673084259, 0.15421335399150848, -0.13068798184394836, 0.2308192104101181, 0.1462538093328476, -0.1349562555551529, 0.10388237237930298, 0.09591192752122879, -0.18097379803657532, -0.09145999699831009, 0.26472488045692444, -0.2070768028497696, 0.036657653748989105, 0.07728593796491623, 0.022803887724876404, 0.019301312044262886, -0.019452515989542007, -0.046787045896053314, -0.015851842239499092, -0.14551272988319397, 0.21693654358386993, -0.08901012688875198, 0.1683443784713745, -0.1348027139902115, -0.18719114363193512, 0.14009356498718262, -0.1045757383108139, -0.16747036576271057, -0.13387952744960785, -0.11989736557006836, -0.15576981008052826, -0.10691268742084503], [0.18608400225639343, 0.08001463860273361, 0.02926487848162651, -0.08571233600378036, 0.03489444777369499, -0.07588061690330505, -0.0005418465007096529, 0.040166016668081284, -0.13444535434246063, -0.11758251488208771, 0.09552199393510818, 0.14046257734298706, 0.072182796895504, -0.11396415531635284, 0.052406638860702515, 0.05529042333364487, -0.09472543001174927, -0.12198653817176819, -0.22358058393001556, -0.036574069410562515, 0.08786535263061523, 0.14544843137264252, 0.15384791791439056, 0.029090605676174164, 0.10460956394672394, 0.08008762449026108, 0.007812650874257088, -0.032394956797361374, -0.05819430574774742, -0.07952740788459778, -0.21997758746147156, -0.18883158266544342], [0.15568116307258606, -0.042468056082725525, 0.2103937417268753, -0.09474930167198181, 0.025420835241675377, 0.015005883760750294, 0.21426162123680115, 0.00412956066429615, 0.203496053814888, -0.009174799546599388, 0.04747042432427406, 0.11350253224372864, -0.05834363400936127, -0.19876712560653687, 0.1985488086938858, -0.23780789971351624, 0.10172191262245178, 0.012773260474205017, -0.1288090944290161, -0.1866326928138733, -0.06867505609989166, -0.068710558116436, 0.17808157205581665, 0.08698425441980362, -0.008814114145934582, -0.11602026969194412, 0.028542891144752502, 0.017933346331119537, 0.026275165379047394, 0.1097918227314949, -0.059190746396780014, 0.014208015985786915], [0.11900995671749115, 0.13030345737934113, 0.07474009692668915, -0.10767412185668945, 0.18498969078063965, -0.07823465019464493, -0.16502413153648376, -0.17539507150650024, -0.1939830631017685, -0.025824017822742462, 0.20037661492824554, 0.11065644770860672, 0.06164802983403206, -0.009776704013347626, -0.04021015018224716, 0.14375467598438263, -0.03892292082309723, -0.19761131703853607, -0.14192046225070953, -0.19080060720443726, 0.021045824512839317, 0.04924244061112404, -0.07928354293107986, 0.049246713519096375, 0.08622622489929199, 0.05225301533937454, -0.18868735432624817, -0.19828398525714874, -0.08661262691020966, 0.08912813663482666, -0.08811341971158981, 0.09765137732028961], [-0.07800976932048798, 0.06978699564933777, 0.03541550412774086, -0.10517700016498566, -0.07233677804470062, 0.2112259715795517, -0.03319175913929939, -0.15179142355918884, 0.05772873014211655, 0.1840146780014038, 0.09686195105314255, 0.04859154671430588, -0.16905628144741058, -0.0760178342461586, -0.18913844227790833, -0.22119513154029846, -0.08487361669540405, -0.037151459604501724, 0.09635946154594421, -0.12067797034978867, -0.16152423620224, 0.13724100589752197, 0.014145015738904476, -0.031036030501127243, -0.024871570989489555, -0.05901753902435303, -0.1436164230108261, -0.09911713004112244, -0.021043462678790092, 0.09592486172914505, 0.07095956802368164, -0.196206197142601], [0.034803684800863266, 0.041723694652318954, 0.19632023572921753, 0.2343365103006363, -0.2480560839176178, 0.07173152267932892, -0.11637082695960999, 0.013500447385013103, -0.10290059447288513, -0.16695334017276764, 0.19467100501060486, 0.20420484244823456, -0.16281050443649292, 0.14542162418365479, 0.06515977531671524, 0.025585301220417023, 0.14672833681106567, 0.1960740089416504, 0.08855036646127701, -0.21416454017162323, 0.12833015620708466, 0.060293059796094894, 0.09915590286254883, 0.10649320483207703, 0.14732351899147034, 0.09671252965927124, -0.013887768611311913, 0.14747357368469238, 0.06202347204089165, -0.021618327125906944, 0.0285576730966568, 0.07291238754987717], [-0.047794077545404434, 0.165142223238945, -0.029325788840651512, -0.03746486082673073, 0.02076665498316288, -0.18816640973091125, 0.01316611934453249, -0.07930433750152588, -0.04107265546917915, -0.14157383143901825, 0.07241040468215942, 0.1308552473783493, 0.11518251150846481, 0.1396699696779251, -0.1255303919315338, 0.0770898088812828, -0.12115897983312607, -0.1357022076845169, 0.19849446415901184, -0.06128963083028793, 0.07976851612329483, -0.057566314935684204, 0.07831920683383942, -0.1383058726787567, 0.09186415374279022, -0.1307542324066162, 0.06716888397932053, -0.13639011979103088, -0.0645517036318779, 0.13517118990421295, -0.25631386041641235, -0.22454585134983063], [0.10772784054279327, 0.13763128221035004, 0.12611165642738342, -0.2522358298301697, -0.01679186522960663, 0.13496889173984528, 0.004242025315761566, -0.029974333941936493, -0.061985552310943604, 0.07005400955677032, 0.21062125265598297, -0.037147149443626404, 0.08481186628341675, 0.00022275773517321795, -0.2468612790107727, -0.012807261198759079, -0.12996502220630646, -0.005445612128823996, 0.09188888221979141, -0.026846392080187798, 0.04070870578289032, -0.08169510215520859, -0.09210078418254852, -0.1625465750694275, 0.06741586327552795, -0.009143427014350891, -0.20796053111553192, 0.20006747543811798, 0.01807207055389881, -0.0705353319644928, 0.2035519927740097, 0.006628101691603661], [-0.09131895750761032, 0.04621327668428421, -0.19041773676872253, 0.2698131799697876, 0.12883177399635315, 0.03239618241786957, 0.0848681777715683, 0.178188294172287, 0.07313691079616547, 0.03741937875747681, -0.03498218581080437, 0.24647650122642517, -0.03507781773805618, -0.031203698366880417, 0.24606865644454956, 0.008756892755627632, 0.21065975725650787, -0.0004041348001919687, 0.045093294233083725, -0.00326961069367826, 0.16056273877620697, 0.12610016763210297, 0.005148742347955704, 0.06132002919912338, -0.014228111132979393, -0.07308294624090195, 0.12243876606225967, 0.020883962512016296, 0.2094944268465042, -0.023523274809122086, 0.03800206631422043, 0.07837551087141037], [0.13012461364269257, 0.2734297811985016, -0.07285607606172562, 0.10507161915302277, 0.07685355097055435, 0.06518334895372391, -0.024215470999479294, -0.11767514795064926, -0.16628773510456085, 0.11599868535995483, -0.09347954392433167, -0.0370718277990818, -0.17334392666816711, -0.0420815646648407, 0.09662695974111557, -0.12021584063768387, 0.07963914424180984, 0.18393872678279877, 0.13452190160751343, -0.23898965120315552, -0.05588557943701744, -0.09324561059474945, 0.18688629567623138, -0.15047800540924072, 0.1720047891139984, -0.02424362301826477, -0.06632719933986664, -0.05345012992620468, -0.046244196593761444, 0.030617384240031242, -0.029435457661747932, 0.12641356885433197], [0.18428407609462738, 0.029989780858159065, -0.19668562710285187, 0.1387280523777008, 0.09498250484466553, 0.18860822916030884, 0.10533178597688675, -0.015333357267081738, 0.017597654834389687, 0.08121555298566818, 0.0038463566452264786, 0.21663810312747955, -0.11340483278036118, -0.13735125958919525, -0.17015668749809265, 0.1572052538394928, -0.05164159834384918, 0.03070303238928318, 0.18091262876987457, 0.0654657706618309, -0.046086087822914124, -0.005346294492483139, 0.18777570128440857, 0.06327851116657257, 0.1255054473876953, -0.008630502037703991, 0.07360511273145676, -0.13684937357902527, 0.09542662650346756, -0.10114862024784088, -0.02843153104186058, 0.12955403327941895], [-0.0886937826871872, -0.08001451194286346, -0.03525247052311897, 0.028377382084727287, -0.06261789053678513, -0.23866118490695953, 0.1410907357931137, -0.09395554661750793, 0.08575614541769028, 0.04733067378401756, -0.17849931120872498, -0.04352167993783951, -0.0025818883441388607, -0.05355650186538696, -0.0052769724279642105, 0.2635488212108612, 0.2487669438123703, 0.13742130994796753, -0.022312305867671967, -0.022564582526683807, 0.06187843531370163, 0.18414627015590668, -0.07219213247299194, 0.09865554422140121, 0.0664781704545021, 0.23909933865070343, 0.12083935737609863, 0.12457086890935898, -0.053185947239398956, 0.09536287188529968, 0.04891027882695198, -0.149076446890831], [-0.04244285449385643, -0.0412483885884285, -0.000187608296982944, -0.17868110537528992, 0.010113528929650784, -0.0859730988740921, 0.10568966716527939, -0.23627981543540955, 0.091990165412426, 0.19598905742168427, 0.029087569564580917, 0.13524788618087769, 0.19941334426403046, -0.22630545496940613, 0.1801023632287979, -0.1141759604215622, 0.07593394070863724, 0.1708972305059433, -0.1600385159254074, -0.1197231337428093, -0.12054528295993805, -0.19327344000339508, 0.043972134590148926, -0.09317778795957565, 0.15699023008346558, 0.08736035227775574, -0.13034400343894958, -0.13801857829093933, -0.02056943066418171, -0.05790010094642639, 0.04523788020014763, 0.04732448235154152], [-0.18202801048755646, 0.09646926820278168, -0.06682481616735458, 0.10016702115535736, -0.007442305330187082, 0.24446822702884674, 0.03208513930439949, 0.04647271707653999, -0.17783541977405548, 0.11692827194929123, 0.24228715896606445, 0.04896991327404976, 0.05118541792035103, -0.05628321319818497, -0.17772051692008972, -0.19989000260829926, -0.10877756774425507, -0.14806139469146729, -0.029169807210564613, 0.21587443351745605, 0.016837341710925102, -0.0671623945236206, -0.2264399230480194, 0.17778590321540833, -0.07119575887918472, 0.120542511343956, -0.04959769546985626, -0.013359389267861843, 0.19442899525165558, 0.09229717403650284, -0.02217024564743042, 0.02156257815659046], [0.15571337938308716, -0.06344800442457199, -0.10153120756149292, -0.02606399543583393, 0.23607705533504486, -0.19866275787353516, -0.031057771295309067, 0.12503710389137268, -0.09202354401350021, 0.0026584689039736986, 0.03665132820606232, 0.04927784204483032, -0.0012864327291026711, 0.07631230354309082, -0.018233519047498703, -0.08840446174144745, 0.009974269196391106, -0.17539818584918976, -0.01860092021524906, -0.03707471489906311, 0.1324327141046524, 0.0006302453693933785, 0.059591323137283325, -0.17512597143650055, -0.16790619492530823, 0.07331555336713791, -0.07375328242778778, -0.15581966936588287, -0.2254498302936554, -0.17485034465789795, 0.02343018725514412, -0.0604197233915329], [0.012389373034238815, -0.23328614234924316, 0.061224162578582764, 0.011577749624848366, 0.0460081472992897, 0.11406455934047699, 0.08756113797426224, -0.2316276878118515, -0.09666227549314499, -0.13364705443382263, -0.18564246594905853, 0.0803510770201683, 0.07881756126880646, -0.13176707923412323, 0.10581508278846741, -0.18571671843528748, 0.020592287182807922, 0.07007796317338943, 0.0752202495932579, -0.011547756381332874, 0.07088253647089005, 0.07188786566257477, 0.019842837005853653, -0.030277466401457787, 0.19148536026477814, -0.20036140084266663, -0.0696108490228653, -0.04784892499446869, -0.07776778191328049, -0.14060714840888977, -0.2545526921749115, -0.18016502261161804], [0.15472744405269623, -0.1251407414674759, -0.08357040584087372, -0.07270429283380508, -0.014527792111039162, 0.05848092958331108, 0.02426384575664997, -0.0001478073827456683, 0.06214562803506851, -0.1910252869129181, -0.0018866368336603045, 0.0036265889648348093, 0.19431644678115845, -0.15188297629356384, -0.08150118589401245, 0.04513343423604965, -0.06115638464689255, -0.05313440412282944, -0.20420926809310913, 0.18168412148952484, -0.17953191697597504, 0.09591405838727951, 0.07064920663833618, 0.11718510091304779, 0.1009969487786293, -0.07828344404697418, -0.0425257608294487, -0.0637168288230896, -0.09348684549331665, 0.041457757353782654, 0.15706634521484375, -0.12330812215805054], [-0.26163938641548157, -0.13730187714099884, 0.11321178823709488, 0.149516299366951, 0.2584374248981476, -0.08213286101818085, 0.20752966403961182, 0.06432736665010452, 0.19704245030879974, -0.13560596108436584, -0.03817782923579216, -0.0454435870051384, 0.07646816223859787, 0.10086749494075775, -0.05266006290912628, -0.09003882110118866, -0.17052510380744934, 0.22808140516281128, 0.17739717662334442, 0.08451150357723236, -0.002230067038908601, -0.08626104891300201, 0.15087977051734924, 0.012254636734724045, 0.10378512740135193, 0.13569329679012299, 0.14637748897075653, 0.17255675792694092, -0.16669785976409912, -0.048314739018678665, 0.08943375200033188, 0.0421234555542469], [0.21635562181472778, -0.13351601362228394, -0.11322209984064102, -0.2580975592136383, -0.08926176279783249, -0.07921712845563889, 0.14267872273921967, -0.2060719132423401, -0.04239125922322273, -0.008045646362006664, -0.0336671806871891, 0.054240599274635315, 0.027655992656946182, 0.039835087954998016, -0.2603171467781067, -0.03774514049291611, -0.1788804829120636, -0.024022052064538002, -0.0018378756940364838, 0.17835859954357147, 0.002863205038011074, -0.07123759388923645, -0.0338386632502079, -0.1852484941482544, 0.1768019199371338, 0.08072726428508759, -0.10701174288988113, 0.17859670519828796, 0.005235195625573397, -0.0472416914999485, 0.10265088826417923, -0.22000302374362946], [-0.08305254578590393, 0.01921856589615345, 0.2304236739873886, 0.2119337022304535, 0.10709565132856369, -0.1699882596731186, -0.21772423386573792, 0.040129370987415314, 0.09718623012304306, -0.04965357109904289, 0.1707821935415268, 0.07891309261322021, -0.03611569106578827, -0.06749358028173447, 0.1514304280281067, -0.19031484425067902, -0.2081577479839325, -0.16909483075141907, -0.02508789859712124, -0.25451764464378357, -0.14240184426307678, 0.06819314509630203, 0.22873827815055847, 0.11591809242963791, -0.058402881026268005, -0.25392013788223267, 0.08856073766946793, 0.1379171907901764, 0.20380739867687225, 0.09385207295417786, -0.13734310865402222, 0.05745250731706619], [0.20889881253242493, 0.027847055345773697, 0.04395003989338875, 0.23870335519313812, 0.06483504921197891, -0.029115015640854836, 0.059481777250766754, 0.21358542144298553, -0.11308863013982773, 0.13446339964866638, -0.06813640892505646, -0.18475887179374695, -0.2043287307024002, 0.11509643495082855, 0.06591424345970154, -0.04198608174920082, -0.20430511236190796, 0.17765703797340393, 0.12400424480438232, 0.08691177517175674, 0.12935522198677063, 0.014623568393290043, 0.02371075190603733, 0.028865506872534752, -0.1935625523328781, -0.00276243151165545, 0.057385511696338654, -0.1492360383272171, 0.0016455785371363163, -0.1764809936285019, 0.1823679357767105, 0.03638625144958496], [0.21893252432346344, 0.15467527508735657, 0.05413272976875305, 0.13754203915596008, -0.04330861568450928, 0.2081727385520935, 0.2138100415468216, -0.1580454260110855, -0.09180115908384323, 0.120163194835186, -0.17581436038017273, -0.19930365681648254, 0.09695471078157425, -0.14187932014465332, -0.06536905467510223, -0.19385872781276703, 0.07527058571577072, -0.143871009349823, 0.20261706411838531, 0.045581068843603134, 0.13011956214904785, -0.02034226432442665, 0.019632691517472267, -0.0851476714015007, 0.03711742162704468, -0.06673672795295715, -0.07237518578767776, 0.12240872532129288, -0.13851234316825867, 0.044521816074848175, -0.023934483528137207, 0.04584503546357155], [0.2012908160686493, -0.23141421377658844, 0.19103370606899261, -0.15054303407669067, -0.05592562258243561, -0.1437503844499588, 0.030731214210391045, -0.18001048266887665, -0.13659918308258057, -0.10107947885990143, 0.1873856633901596, 0.07726366072893143, 0.08566055446863174, 0.10423886030912399, -0.23668569326400757, -0.1291748583316803, -0.2348339706659317, -0.01807766780257225, 0.0007517688791267574, -0.008083513006567955, -0.21941523253917694, 0.016538109630346298, 0.04206165298819542, -0.060063689947128296, 0.07969219237565994, -0.25431185960769653, 0.14700327813625336, 0.16716396808624268, 0.1400575041770935, 0.23508185148239136, 0.0703367292881012, 0.1253669410943985], [0.23284927010536194, 0.018953286111354828, 0.07267016172409058, -0.1464199274778366, 0.1404450535774231, 0.02071833610534668, 0.04638702794909477, 0.010099439881742, 0.07428893446922302, 0.07762853801250458, -0.15264858305454254, -0.16995340585708618, 0.0998033806681633, 0.023576175794005394, 0.0012089218944311142, -0.1868770867586136, -0.15099100768566132, 0.08394856750965118, -0.06490569561719894, 0.04720808565616608, -0.011490346863865852, -0.02218184433877468, -0.03662896528840065, -0.15315262973308563, -0.12032511830329895, -0.023128245025873184, -0.14435727894306183, -0.06873715668916702, 0.18475131690502167, 0.1142209842801094, -0.17935118079185486, -0.007167696952819824], [0.17307817935943604, 0.15760409832000732, 0.110434889793396, 0.2117091417312622, 0.017624258995056152, 0.18551130592823029, 0.02731626108288765, 0.10115932673215866, -0.14149215817451477, -0.03172117844223976, 0.11289355158805847, -0.19857768714427948, -0.13308852910995483, -0.14710724353790283, -0.2529336214065552, -0.020839864388108253, 0.008789697661995888, -0.2691628932952881, 0.22316431999206543, -0.011751984246075153, 0.005064521916210651, -0.026667330414056778, -0.08310540020465851, -0.11878833174705505, -0.05638569965958595, -0.012464617379009724, 0.12578383088111877, 0.08781294524669647, -0.11411672085523605, -0.1714775115251541, 0.08552027493715286, -0.08360903710126877], [-0.026819098740816116, 0.08881131559610367, -0.1837015151977539, 0.0496114119887352, -7.275615644175559e-05, 0.020116377621889114, -0.18165992200374603, 0.04749765619635582, -0.1674361377954483, 0.013478863053023815, -0.08561433851718903, -0.02354034036397934, 0.13320167362689972, -0.18409980833530426, 0.19482232630252838, 0.033132489770650864, 0.0023456616327166557, -0.23819655179977417, 0.1338319331407547, 0.20931869745254517, 0.19109594821929932, -0.0850200355052948, -0.06446180492639542, 0.019545242190361023, 0.08343428373336792, 0.20208191871643066, -0.11348368972539902, 0.145750030875206, 0.14725060760974884, 0.1000661626458168, 0.030598293989896774, -0.17191031575202942], [0.09826180338859558, -0.023083645850419998, -0.030680261552333832, -0.03392058238387108, -0.22421544790267944, -0.20071306824684143, -0.13612546026706696, 0.12208037823438644, 0.24899756908416748, 0.2039993554353714, 0.2319011241197586, 0.1623484045267105, 0.028544345870614052, 0.04241162911057472, 0.08931677788496017, 0.07612374424934387, -0.15590029954910278, -0.13869230449199677, 0.21379882097244263, 0.05925038084387779, 0.11757560074329376, -0.07088460773229599, 0.15064066648483276, -0.005630109924823046, 0.09510241448879242, -0.1246156245470047, -0.06887401640415192, 0.0387687087059021, -0.16856899857521057, 0.046620868146419525, 0.095299132168293, 0.09787143021821976], [-0.15342490375041962, 0.16068021953105927, -0.06536639481782913, 0.06958383321762085, -0.15590506792068481, -0.07710351794958115, 0.005381084978580475, 0.20225094258785248, -0.029068533331155777, -0.11029721051454544, -0.05364999547600746, -0.03405717760324478, -0.23792074620723724, -0.21082362532615662, -0.15366652607917786, -0.22093984484672546, 0.23994477093219757, -0.08028176426887512, 0.12807831168174744, 0.22177375853061676, -0.11656298488378525, -0.06419603526592255, -0.10483978688716888, -0.0504622757434845, -0.21398529410362244, 0.007457188330590725, 0.026656195521354675, -0.035253386944532394, 0.0898376926779747, 0.10529328137636185, -0.039355989545583725, 0.18464195728302002], [-0.21028278768062592, 0.21947027742862701, 0.044979143887758255, 0.12561945617198944, 0.12848219275474548, -0.02922590635716915, -0.010903839021921158, -0.17864854633808136, -0.1092575341463089, -0.006287203170359135, -0.07981429994106293, -0.08486776798963547, 0.07420042902231216, 0.08976418524980545, -0.06273499131202698, -0.12190782278776169, 0.15059125423431396, -0.03968266025185585, 0.13751263916492462, 0.12545600533485413, 0.02922259271144867, -0.14046239852905273, -0.15200656652450562, 0.2529534697532654, 0.1312045007944107, 0.17030102014541626, -0.043643441051244736, -0.13405902683734894, -0.07227233797311783, 0.00519295921549201, 0.0184241384267807, 0.2577510178089142], [0.12886463105678558, -0.1743726283311844, 0.042946476489305496, 0.023325519636273384, 0.012640697881579399, 0.1464398056268692, 0.26281651854515076, -0.037256088107824326, -0.2507692873477936, 0.05377398803830147, -0.07017219811677933, 0.04855527728796005, -0.046251602470874786, -0.15644538402557373, -0.20363475382328033, -0.04779577627778053, -0.010872971266508102, -0.051542993634939194, -0.0910755842924118, 0.1558830291032791, -0.1754782795906067, 0.2100197821855545, 0.07086874544620514, -0.07336051017045975, 0.203884556889534, 0.0008889981545507908, -0.06498052924871445, 0.11738976836204529, -0.20064151287078857, 0.017387226223945618, -0.055295221507549286, 0.1474882960319519], [-0.02734123170375824, 0.028891511261463165, -0.19280841946601868, 0.07154130935668945, -0.14168374240398407, -0.19089442491531372, -0.007620757445693016, 0.03171234205365181, 0.014585183002054691, 0.02757432870566845, -0.21079011261463165, 0.10890538990497589, 0.07003077119588852, -0.07184593379497528, -0.08959051221609116, -0.02665029838681221, -0.040580544620752335, 0.12333104759454727, -0.06795360147953033, 0.1305420845746994, 0.25207436084747314, -0.20150847733020782, 0.0011742302449420094, 0.2236650288105011, 0.14624901115894318, -0.02239403687417507, 0.25782281160354614, -0.07012370228767395, 0.1736389845609665, -0.07232654839754105, 0.04670863598585129, 0.15148870646953583], [-0.13569937646389008, -0.09194794297218323, 0.11394374072551727, -0.02614862658083439, -0.11527547240257263, -0.08323253691196442, 0.03586816415190697, 0.2561255395412445, 0.2322079986333847, -0.08357392251491547, -0.12770678102970123, 0.11851458996534348, 0.029815785586833954, 0.14931975305080414, 0.2000020295381546, -0.004805757664144039, -0.18325313925743103, 0.0690457746386528, -0.11626403778791428, -0.1395087093114853, 0.0005523069994524121, 0.18778929114341736, -0.04282688349485397, 0.132595032453537, -0.20806193351745605, 0.001445629633963108, -0.002048719208687544, -0.13004142045974731, -0.04422788321971893, -0.24458588659763336, 0.036188166588544846, 0.13188189268112183], [-0.007551100570708513, 0.018121477216482162, -0.16248388588428497, 0.16282717883586884, -0.170538067817688, 0.16511572897434235, 0.07011386752128601, 0.1572401076555252, -0.11951849609613419, 0.07699185609817505, 0.2394539713859558, 0.19000524282455444, -0.06775277853012085, -0.0031393880490213633, -0.16634242236614227, -0.14891302585601807, 0.08143354952335358, -0.1577787697315216, 0.15472766757011414, -0.05720338597893715, 0.06961376965045929, -0.0226962398737669, -0.024722237139940262, 0.19023160636425018, 0.21635352075099945, 0.23400653898715973, 0.11718685925006866, 0.05692523717880249, -0.03592564910650253, 0.2165035754442215, -0.019100535660982132, -0.10858047753572464], [-0.03440100699663162, -0.05589548870921135, 0.0908040702342987, -0.06743622571229935, -0.24234165251255035, -0.006531397812068462, -0.17011715471744537, -0.11195623129606247, 0.11624320596456528, 0.25457605719566345, 0.12775352597236633, 0.027059385553002357, -0.07712023705244064, 0.05892739072442055, 0.07708368450403214, 0.005305793602019548, 0.02796822227537632, -0.1556473821401596, 0.015584725886583328, -0.20169703662395477, -0.008824446238577366, -0.05925002321600914, -0.17642849683761597, 0.11084865778684616, 0.06200488284230232, 0.031523339450359344, -0.19501176476478577, -0.10253027081489563, -0.022582516074180603, -0.07262945920228958, -0.2373882383108139, -0.035710129886865616], [-0.11216177046298981, -0.07591903954744339, 0.022225823253393173, 0.04251360148191452, -0.16821281611919403, 0.07080663740634918, 0.13410481810569763, -0.10936460644006729, 0.024447185918688774, 0.06661061197519302, 0.14020034670829773, 0.14144419133663177, -0.07704613357782364, -0.1293346881866455, -0.176482692360878, -0.15392884612083435, 0.19507494568824768, 0.10876504331827164, -0.22700347006320953, -0.11099319905042648, -0.22057215869426727, 0.05310259014368057, -0.15966317057609558, 0.002483840798959136, -0.07565564662218094, 0.08954033255577087, 0.07863238453865051, 0.13553570210933685, 0.07654768228530884, 0.061233602464199066, -0.1552601158618927, 0.1325644850730896], [-0.006490148603916168, 0.24688604474067688, -0.20615261793136597, -0.11351554095745087, 0.01587790809571743, -0.14103038609027863, -0.10130708664655685, 0.26851922273635864, -0.029054367914795876, -0.1485590785741806, 0.05390068143606186, -0.1935437023639679, 0.062031909823417664, 0.017846405506134033, 0.08841588348150253, -0.043722741305828094, 0.02319793775677681, 0.045059848576784134, 0.17354676127433777, 0.2082364559173584, 0.15278378129005432, 0.081114262342453, -0.2052198052406311, 0.20563732087612152, 0.1458212435245514, 0.09791826456785202, 0.07083086669445038, -0.22357040643692017, -0.02773825265467167, 0.01953759230673313, -0.027746999636292458, 0.14724044501781464], [0.00795886293053627, 0.25452595949172974, -0.1399151235818863, -0.00857025571167469, -0.14876188337802887, 0.16091838479042053, -0.22852067649364471, -0.12419380247592926, -0.03417098522186279, -0.13604451715946198, -0.05167797952890396, 0.04841739311814308, -0.060903262346982956, -0.02842532843351364, 0.021901357918977737, 0.13574674725532532, -0.10713941603899002, -0.11851629614830017, 0.005288357846438885, -0.19227224588394165, 0.0035517483483999968, -0.07408186793327332, 0.22586236894130707, 0.19791434705257416, 0.17370066046714783, 0.1839284896850586, 0.09524340182542801, 0.03546914458274841, -0.15227220952510834, 0.10669461637735367, -0.21249280869960785, -0.04791944846510887], [0.06639278680086136, -0.09545211493968964, -0.14455646276474, 0.07219216227531433, 0.19691981375217438, -0.1399160474538803, 0.085202656686306, -0.0239900890737772, -0.1570814996957779, 0.08315214514732361, -0.12460619956254959, -0.20481878519058228, -0.15248136222362518, 0.023572660982608795, -0.21765650808811188, 0.019848763942718506, -0.010629624128341675, -0.018362073227763176, -0.1671832650899887, -0.10241614282131195, 0.262433260679245, -0.15105077624320984, 0.2592177987098694, 0.1991320103406906, 0.06444060802459717, 0.005316256079822779, 0.01030569989234209, -0.16156409680843353, -0.16398680210113525, -0.1321299821138382, 0.2621581554412842, 0.0537477470934391], [-0.019455045461654663, -0.0358448401093483, -0.06957214325666428, 0.11893914639949799, 0.08675000816583633, -0.21583612263202667, -0.20319673418998718, -0.015248715877532959, 0.060614585876464844, -0.17920634150505066, -0.1389760673046112, -0.11792369186878204, -0.07242804020643234, 0.12289393693208694, 0.25188860297203064, 0.029457760974764824, 0.0569307878613472, 0.018453117460012436, 0.05423031002283096, 0.12643112242221832, -0.16619819402694702, 0.2360270619392395, 0.11983217298984528, 0.005637119058519602, -0.05690024048089981, 0.05836067721247673, 0.16009660065174103, 0.16851317882537842, -0.0209368783980608, -0.12743309140205383, 0.014621878042817116, -0.05600641667842865], [0.15587691962718964, 0.07264581322669983, 0.03148748353123665, -0.14439891278743744, -0.1751493364572525, 0.09090089797973633, -0.10208055377006531, -0.10673580318689346, -0.12318682670593262, 0.06324629485607147, -0.01764129102230072, -0.0376020222902298, -0.09962806105613708, -0.0836360976099968, -0.025673307478427887, -0.12023037672042847, -0.11348550021648407, -0.09269629418849945, 0.19659267365932465, -0.06962751597166061, -0.02222476899623871, -0.19454708695411682, -0.02068967930972576, 0.11821185052394867, 0.05612471327185631, 0.2359175831079483, -0.20562110841274261, -0.24917490780353546, -0.08372761309146881, -0.22594806551933289, -0.2385834902524948, 0.10265453159809113], [0.04695884883403778, -0.00756482919678092, -0.07559268176555634, 0.07378944009542465, 0.13377495110034943, 0.04172520339488983, -0.08880378305912018, 0.1586541086435318, 0.15985827147960663, 0.05469717085361481, 0.11160017549991608, 0.05968442186713219, -0.15800046920776367, -0.08971105515956879, 0.23526819050312042, 0.20474959909915924, -0.06990142911672592, -0.056821972131729126, -0.07687105238437653, 0.026479287073016167, -0.07048763334751129, 0.1447857767343521, -0.15840516984462738, 0.04422307386994362, -0.19345004856586456, -0.10666050016880035, 0.1958010345697403, -0.053163547068834305, -0.20304834842681885, 0.04912581294775009, 0.2363089770078659, 0.07066883146762848], [-0.20812344551086426, 0.14223167300224304, -0.10243948549032211, 0.07798071205615997, 0.058863565325737, 0.1701434850692749, -0.023261811584234238, -0.06680136173963547, -0.11094607412815094, -0.055558785796165466, -0.09017343819141388, 0.12361746281385422, 0.06900211423635483, -0.14401134848594666, 0.23844122886657715, -0.004518747329711914, 0.14803119003772736, 0.1274019330739975, -0.018253780901432037, 0.020869886502623558, 0.09820861369371414, 0.04420062527060509, 0.07577096670866013, 0.06572186201810837, -0.018153613433241844, -0.12319658696651459, 0.13181455433368683, 0.10128430277109146, 0.04834265261888504, -0.11491183936595917, -0.003131267847493291, 0.057872481644153595], [-0.2317424863576889, -0.23475022614002228, -0.1606762856245041, 0.18708109855651855, 0.057692088186740875, -0.06690432131290436, -0.21941840648651123, 0.024034284055233, 0.06304600089788437, -0.17401880025863647, -0.2127940058708191, -0.15321913361549377, 0.07574576884508133, -0.11144512891769409, 0.14500848948955536, 0.09662917256355286, 0.07922477275133133, 0.182305708527565, 0.02734329365193844, 0.1320914775133133, 0.08172442764043808, 0.10272574424743652, -0.09425374865531921, -0.22867873311042786, -0.19829636812210083, -0.020180286839604378, -0.060824040323495865, 0.0976736843585968, 0.039680350571870804, -0.10058468580245972, 0.11556500196456909, 0.04950007423758507], [0.18155311048030853, 0.11689084768295288, -0.1924561858177185, -0.026793062686920166, -0.03419479355216026, 0.11708526313304901, -0.16084906458854675, -0.2258608341217041, -0.028379272669553757, 0.005550285801291466, -0.0018525565974414349, 0.03737535700201988, 0.0019195195054635406, 0.04150525853037834, 0.01812729425728321, 0.07997840642929077, 0.18208041787147522, -0.11949725449085236, 0.2034432590007782, 0.1488579958677292, 0.2584446966648102, -0.15780778229236603, -0.03847117722034454, -0.08387249708175659, 0.054002080112695694, 0.021997736766934395, -0.009073908440768719, 0.10962400585412979, 0.1104956641793251, -0.028727388009428978, 0.21790993213653564, -0.13740739226341248], [-0.04523099958896637, 0.08042839169502258, 0.064344123005867, 0.15996472537517548, 0.12686721980571747, -0.1353471577167511, 0.18775661289691925, 0.2044084072113037, 0.0800640732049942, -0.16663192212581635, 0.18580244481563568, -0.21402445435523987, 0.054263852536678314, 0.09255857765674591, -0.17723052203655243, 0.013724432326853275, -0.1352034956216812, -0.04161936044692993, -0.16784602403640747, -0.13903559744358063, 0.04614245519042015, -0.18672500550746918, 0.22682932019233704, 0.13671712577342987, 0.19025221467018127, 0.05775267630815506, -0.11692981421947479, -0.11041337996721268, -0.08707364648580551, -0.17030544579029083, -0.01639419049024582, -0.21869876980781555], [0.07550925761461258, 0.15237469971179962, -0.14207801222801208, 0.224170982837677, -0.10408119112253189, -0.05014713853597641, 0.04180840402841568, 0.06668908149003983, -0.01763295941054821, -0.15118317306041718, -0.01797773689031601, 0.10229916870594025, -0.06962840259075165, 0.03277914598584175, 0.2393573373556137, 0.08210541307926178, -0.2644106149673462, -0.12271464616060257, -0.01350592914968729, 0.13276854157447815, 0.10254427045583725, 0.04746741056442261, 0.05846641585230827, -0.1972058266401291, -0.05305808410048485, 0.025225909426808357, 0.1800827831029892, 0.1668512374162674, -0.10740894824266434, 0.06652235239744186, -0.0057457671500742435, -0.2044021487236023], [-0.11323042213916779, 0.24960823357105255, -0.08957386761903763, -0.1527724415063858, -0.03997679799795151, -0.1466800719499588, 0.04752073436975479, 0.003785972250625491, -0.010179915465414524, -0.21019919216632843, -0.13145986199378967, -0.07031663507223129, -0.18947209417819977, -0.19480620324611664, -0.0899910256266594, 0.13827469944953918, 0.13787569105625153, 0.07547586411237717, 0.1029575914144516, 0.2048369199037552, -0.08062398433685303, 0.07743469625711441, -0.14045263826847076, -0.06081787496805191, -0.16824908554553986, -0.03178569674491882, -0.09350063651800156, -0.1061062216758728, -0.025357667356729507, 0.09513133019208908, -0.04644524306058884, 0.020408591255545616], [0.1412164866924286, -0.11883106827735901, 0.17990897595882416, 0.15626609325408936, 0.027394916862249374, 0.05170609802007675, -0.1538582444190979, 0.17758803069591522, 0.24032194912433624, 0.09476348757743835, 0.117139533162117, 0.04195664823055267, 0.09531433135271072, -0.14714130759239197, -0.034536536782979965, -0.046641524881124496, -0.021507611498236656, 0.010659677907824516, 0.11432746052742004, -0.021037716418504715, -0.07803620398044586, 0.07211066782474518, -0.06248720362782478, -0.03707682341337204, 0.0623503215610981, -0.12788471579551697, 0.03379521146416664, -0.1363905966281891, 0.0013518885243684053, -0.09910991042852402, 0.1623115837574005, -0.02582891657948494], [0.21413804590702057, 0.03170456737279892, -0.05940227955579758, -0.16868114471435547, -0.09066537022590637, 0.09641796350479126, 0.1721590906381607, 0.1088925451040268, -0.07022789865732193, 0.07162415236234665, -0.11198129504919052, -0.14412198960781097, 0.16436271369457245, -0.10346917808055878, 0.09440243989229202, 0.015465018339455128, -0.1052628681063652, -0.09243295341730118, -0.10878827422857285, 0.16268359124660492, 0.16587671637535095, -0.23252885043621063, 0.11133906245231628, 0.0440310575067997, 0.0392550528049469, 0.07989132404327393, 0.22292351722717285, 0.17686530947685242, 0.030596697703003883, 0.1663605123758316, 0.16280415654182434, 0.011427054181694984], [-0.16350503265857697, -0.07069855183362961, 0.17430415749549866, -0.06319572031497955, -0.04649890586733818, -0.027481114491820335, -0.026305759325623512, -0.2612380087375641, 0.008389318361878395, 0.22439374029636383, -0.22276432812213898, 0.025628788396716118, 0.05099965259432793, -0.0952824130654335, -0.07701948285102844, -0.08295220136642456, -0.11578738689422607, -0.01191991101950407, 0.19597631692886353, -0.1632552444934845, 0.039328087121248245, -0.254859983921051, 0.05570688843727112, -0.04150683805346489, -0.061516862362623215, -0.035398680716753006, -0.19613979756832123, -0.0489269495010376, -0.03291206434369087, 0.0915226861834526, -0.10113205760717392, -0.0357636883854866], [0.06357712298631668, 0.26075780391693115, 0.12872394919395447, -0.12014925479888916, -0.2263796031475067, -0.15394769608974457, -0.05296917259693146, -0.2223777323961258, 0.0235668383538723, -0.056991416960954666, -0.014114213176071644, 0.022979162633419037, 0.1926305890083313, -0.021948369219899178, 0.036234188824892044, 0.050161369144916534, 0.16409899294376373, 0.15818029642105103, -0.0999600887298584, 0.009262369945645332, 0.14144188165664673, -0.15290358662605286, -0.21128667891025543, 0.07614373415708542, -0.0685480460524559, 0.11109016090631485, -0.14815302193164825, 0.11793714761734009, -0.14815284311771393, -0.03627278283238411, -0.24095788598060608, -0.008142542093992233], [-0.015490314923226833, 0.07915448397397995, -0.18723788857460022, -0.06918512284755707, 0.02790587767958641, -0.2050051987171173, -0.04410567134618759, 0.13307546079158783, -0.0025791944935917854, -0.16191686689853668, -0.07051870971918106, 0.02694791741669178, -0.010992586612701416, -0.04302556440234184, 0.23853400349617004, -0.15216058492660522, 0.16395659744739532, 0.14005835354328156, 0.106843002140522, -0.06876160949468613, -0.1927160918712616, 0.05531856790184975, -0.05179914832115173, -0.11390696465969086, -0.029848605394363403, 0.053721532225608826, 0.0846991166472435, 0.06769958883523941, 0.07954365760087967, 0.020145418122410774, 0.014144697226583958, -0.025865353643894196], [-0.1368035525083542, -0.10391291230916977, 0.14709612727165222, 0.0971001610159874, -0.145311638712883, -0.1859130561351776, 0.18240663409233093, -0.11962741613388062, -0.05900818109512329, -0.09817615151405334, 0.11414091289043427, 0.1079191192984581, 0.06903790682554245, 0.23504768311977386, 0.08186323940753937, 0.04963322728872299, 0.16231215000152588, -0.09910452365875244, -0.09562159329652786, 0.07824253290891647, -0.08293404430150986, -0.09349443763494492, -0.22583626210689545, -0.13088421523571014, 0.04290242865681648, -0.17996130883693695, -0.10052099823951721, 0.08087994903326035, 0.20167481899261475, -0.14396674931049347, -0.16420184075832367, -0.0421023815870285], [0.1599649041891098, 0.012305647134780884, 0.19463443756103516, -0.2520175278186798, 0.13109301030635834, -0.1263655424118042, 0.1747131645679474, -0.17235411703586578, -0.08960740268230438, 0.10296613723039627, -0.0470806322991848, -0.2239755392074585, 0.11459973454475403, 0.06201513111591339, -0.011852096766233444, -0.1772129386663437, -0.0855417251586914, -0.13559815287590027, -0.06737962365150452, -0.03798355162143707, -0.06888743489980698, -0.03029002994298935, 0.13821837306022644, -0.2208358198404312, 0.15250664949417114, -0.14766010642051697, -0.11957836896181107, -0.03993489593267441, -0.017223844304680824, -0.05221254751086235, -0.21283504366874695, 0.010674010030925274], [0.20327343046665192, -0.12217250466346741, 0.11512237787246704, -0.2075248658657074, -0.18056310713291168, -0.06784282624721527, 0.11298777163028717, -0.08626867085695267, -0.1258193850517273, -0.019397811964154243, -0.054947156459093094, -0.08310846239328384, 0.22112900018692017, -0.21018104255199432, 0.11844322830438614, -0.006879383698105812, -0.21863801777362823, 0.090535968542099, -0.20181643962860107, -0.07847291976213455, -0.010167081840336323, -0.11421612650156021, 0.07911337912082672, -0.23417671024799347, 0.12290343642234802, 0.07845661789178848, 0.0860457718372345, 0.2161032259464264, 0.08952867239713669, 0.003507329383864999, -0.017238279804587364, -0.064316026866436], [0.10955023765563965, -0.07411574572324753, -0.13104918599128723, -0.052602630108594894, -0.06469117105007172, -0.009103648364543915, 0.15451239049434662, 0.10400161892175674, 0.03943924978375435, -0.052010636776685715, 0.15805619955062866, 0.07529560476541519, -0.07252635061740875, 0.1394813507795334, -0.20035836100578308, 0.08240776509046555, -0.06618250906467438, 0.027077706530690193, -0.21763570606708527, 0.22860509157180786, -0.14946503937244415, -0.12478804588317871, -0.18403728306293488, -0.055240754038095474, 0.019152086228132248, -0.1437978595495224, 0.007837631739675999, -0.006687978748232126, -0.13472431898117065, 0.0848291665315628, 0.08149080723524094, 0.05113616958260536], [-0.2316875457763672, 0.13768157362937927, -0.24062082171440125, 0.03508450835943222, -0.11733197420835495, 0.06171867251396179, -0.11366702616214752, 0.20948049426078796, 0.17229391634464264, -0.04428492486476898, -0.004777953960001469, -0.22184422612190247, -0.08876753598451614, -0.061781931668519974, -0.018676957115530968, 0.15628913044929504, 0.1488564908504486, -0.0034396147821098566, 0.19255658984184265, 0.03382309898734093, 0.22248752415180206, 0.042373597621917725, 0.0758456289768219, 0.12736360728740692, -0.03471040725708008, 0.17014676332473755, 0.251577228307724, 0.08124921470880508, -0.03045658767223358, 0.14493410289287567, 0.04117776080965996, 0.059665434062480927], [0.10131677240133286, 0.20964737236499786, 0.08472325652837753, -0.052042700350284576, 0.08485224843025208, 0.1980155110359192, -0.13181565701961517, -0.06280466914176941, 0.0379176139831543, 0.0760045126080513, -0.157817542552948, 0.15593118965625763, -0.14030000567436218, 0.10812699049711227, 0.12214600294828415, -0.15781991183757782, 0.05038316175341606, -0.07617662847042084, 0.11868159472942352, 0.13811840116977692, 0.23023833334445953, -0.12265600264072418, -0.10929584503173828, 0.04283052682876587, -0.10884347558021545, 0.04923797771334648, -0.007796919904649258, 0.24444535374641418, 0.09162764996290207, -0.1255773901939392, 0.05057873949408531, 0.006224022246897221], [0.16710591316223145, 0.1317182332277298, 0.09844228625297546, -0.1788366287946701, -0.20887470245361328, -0.0565338060259819, 0.2547074556350708, -0.00618013134226203, -0.037155721336603165, -0.04306245967745781, -0.03169078007340431, 0.019397811964154243, 0.04707467928528786, 0.04288782551884651, -0.08687115460634232, -0.23194830119609833, 0.2326016128063202, 0.05500556156039238, -0.17322218418121338, -0.014932802878320217, 0.03312249481678009, -0.2501964569091797, 0.031034881249070168, 0.0033255319576710463, -0.19912436604499817, -0.08521962910890579, -0.23270368576049805, 0.06304562091827393, -0.23728395998477936, 0.2552179992198944, 0.038986630737781525, -0.25261643528938293], [0.014598969370126724, -0.08285865187644958, 0.14097349345684052, 0.1905299872159958, 0.04213745519518852, -0.019587453454732895, -0.19117461144924164, -0.22830522060394287, -0.07978594303131104, 0.012767395004630089, 0.06473897397518158, 0.010465520434081554, 0.13395164906978607, 0.20502403378486633, 0.14148932695388794, 0.05403165519237518, -0.08074706792831421, -0.07934682816267014, 0.2073839008808136, -0.1100846529006958, 0.09862586110830307, -0.0785539448261261, 0.11610575020313263, 0.19868001341819763, 0.16558922827243805, -0.0582590326666832, 0.10793653875589371, 0.0025070172268897295, -0.07714702934026718, -0.07355551421642303, -0.0657254159450531, -0.20089168846607208], [0.07845241576433182, 0.13395583629608154, -0.020366109907627106, 0.23959945142269135, 0.1278315633535385, -0.1515151560306549, -0.09522801637649536, 0.04730139300227165, 0.0015111023094505072, -0.03445582091808319, -0.14181987941265106, 0.14634954929351807, -0.0547935925424099, 0.14776800572872162, 0.0831090584397316, -0.24132846295833588, -0.045993953943252563, 0.13180552423000336, -0.13385967910289764, -0.1568940281867981, -0.005904087331146002, 0.10901328176259995, 0.12857738137245178, -0.11038533598184586, -0.19926334917545319, 0.08709808439016342, 0.013692147098481655, 0.09560596197843552, -0.11385040730237961, -0.25774794816970825, 0.060223039239645004, 0.18307353556156158], [-0.19635337591171265, 0.209927037358284, -0.07817566394805908, -0.07371922582387924, -0.16438929736614227, 0.1860378384590149, 0.044142868369817734, -0.09036142379045486, 0.07944236695766449, 0.09597773104906082, -0.1116114929318428, 0.1836535483598709, -0.17702053487300873, 0.13892827928066254, 0.02081919088959694, 0.057700444012880325, -0.018502186983823776, 0.15292096138000488, -0.14790211617946625, -0.09237030148506165, -0.04631975293159485, -0.018521644175052643, 0.03886951133608818, 0.0077618700452148914, -0.19918784499168396, -0.23072655498981476, 0.12749314308166504, 0.04361746832728386, 0.08360939472913742, 0.08560514450073242, -0.1501917541027069, -0.13553428649902344], [-0.17032451927661896, -0.0009073559776879847, 0.15443383157253265, 0.042051028460264206, 0.04862508922815323, -0.16147232055664062, 0.0699421763420105, 0.10243626683950424, 0.1016203761100769, 0.005363288335502148, -0.17661908268928528, -0.09031853824853897, -0.04868930205702782, 0.23562084138393402, 0.16873827576637268, 0.22262902557849884, 0.022497784346342087, 0.13570009171962738, 0.1643657237291336, 0.010278669185936451, -0.12764781713485718, 0.08488289266824722, -0.058560628443956375, 0.11345627903938293, -0.1084275022149086, 0.06540273129940033, 0.20466327667236328, 0.11788599193096161, 0.09395140409469604, -0.018656447529792786, -0.05146222934126854, -0.10286321491003036], [-0.14954982697963715, -0.16207875311374664, 0.1123557761311531, 0.2275121957063675, -0.10867662727832794, -0.09375197440385818, 0.20016051828861237, -0.11166789382696152, 0.11522867530584335, 0.11533163487911224, 0.10602171719074249, 0.05930060148239136, 0.09072796255350113, -0.06225176528096199, 0.25665560364723206, -0.19595661759376526, 0.1221386194229126, -0.004354187287390232, 0.17603470385074615, -0.09204994887113571, -0.09413986653089523, -0.02395607717335224, -0.10262821614742279, -0.007432722952216864, 0.06332913041114807, 0.020904581993818283, 0.07449762523174286, 0.09137152880430222, 0.04151083156466484, -0.17246824502944946, -0.00815681554377079, 0.012092692777514458], [0.08508739620447159, 0.009925819002091885, -0.2355361133813858, 0.1144992858171463, 0.04725382849574089, 0.11417816579341888, -0.16014359891414642, 0.07545728981494904, 0.03580975532531738, -0.02839605323970318, -0.12359759956598282, 0.12751419842243195, 0.012851448729634285, -0.07080207765102386, 0.006454211659729481, -0.030118001624941826, 0.16464436054229736, -0.18877239525318146, 0.07860854268074036, 0.18697939813137054, 0.207708477973938, -0.10824394971132278, -0.18660585582256317, -0.012306397780776024, 0.17613844573497772, 0.13071991503238678, 0.07270312309265137, -0.14381708204746246, 0.11421599239110947, -0.04385313391685486, 0.05042511224746704, -0.04801177233457565]], "b": [0.1676928699016571, 0.0722775012254715, 0.2148331254720688, 0.14853611588478088, 0.04457881674170494, 0.23469413816928864, 0.10613276064395905, -0.08601187914609909, 0.0684022381901741, 0.2485785186290741, 0.017768971621990204, 0.0008689870010130107, 0.05522128567099571, -0.10155672580003738, 0.1912296712398529, -0.08429267257452011, -0.04690547287464142, 0.08013215661048889, -0.06079859659075737, -0.08163280040025711, 0.17180152237415314, 0.1521608978509903, -0.03425445780158043, 0.15455934405326843, 0.14170466363430023, 0.1732686311006546, 0.002073722193017602, 0.046938106417655945, 0.15406060218811035, -0.08039841800928116, -0.019401242956519127, -0.005795993376523256, -0.049048736691474915, 0.18273866176605225, 0.1807830035686493, 0.15898986160755157, 0.05296526104211807, 0.04685269296169281, 0.12155886739492416, 0.03730860352516174, -0.03269660472869873, -0.0751359760761261, 0.035708241164684296, 0.05617224797606468, 0.13972777128219604, 0.0801418200135231, -0.036190859973430634, -0.12383047491312027, 0.07490428537130356, -0.03365359827876091, -0.11790810525417328, 0.24397140741348267, -0.10807682573795319, 0.13743077218532562, -0.0413287915289402, 0.12189634144306183, 0.013153745792806149, -0.06196766346693039, 0.07057768106460571, 0.13291290402412415, 0.11567261070013046, 0.10877716541290283, 0.18768185377120972, -0.07754626125097275, 0.1981186866760254, -0.06743362545967102, -0.030983073636889458, 0.1642133593559265, 0.2445111870765686, 0.021664997562766075, 0.04046237841248512, 0.12601672112941742, 0.20150575041770935, 0.17903584241867065, -0.04467257484793663, 0.2202485054731369, 0.16454795002937317, -0.02642148546874523, 0.0040986682288348675, -0.06469505280256271, 0.06486765295267105, 0.1135958731174469, -0.06349559128284454, 0.039136163890361786, 0.20620593428611755]}, {"type": "lin", "act": "relu", "W": [[-0.10076387226581573, 0.11372530460357666, 0.053434040397405624, -0.02558273635804653, 0.11640073359012604, 0.14671313762664795, -0.020882045850157738, 0.011472147889435291, 0.060523953288793564, 0.13629676401615143, -0.06702813506126404, -0.021917827427387238, 0.05962030217051506, 0.12715813517570496, 0.17330478131771088, -0.022444186732172966, 0.05479549989104271, 0.012762402184307575, -0.06685841828584671, 0.12635177373886108, 0.00398521451279521, -0.17162008583545685, -0.12437202036380768, -0.07215491682291031, 0.03860476613044739, 0.07770878821611404, -0.13685058057308197, -0.02183818817138672, 0.08426060527563095, -0.009550204500555992, 0.001411332981660962, 0.1401638388633728, -0.1061822921037674, 0.04055974632501602, 0.1269989013671875, -0.023859092965722084, 0.01694369688630104, 0.17024743556976318, -0.035944726318120956, -0.06592172384262085, 0.08268486708402634, -0.004041739739477634, -0.17638753354549408, -0.01213702093809843, -0.032561857253313065, 0.026573417708277702, 0.04684630036354065, 0.1651061475276947, 0.09250585734844208, 0.04727018624544144, -0.03020377643406391, 0.19223082065582275, 0.05877687782049179, -0.13918796181678772, 0.04333653301000595, 0.13795079290866852, -0.03170063719153404, 0.0037571247667074203, 0.1532488316297531, -0.14314673840999603, 0.14795741438865662, 0.01813659444451332, 0.09570854902267456, -0.03413990139961243, 0.09847607463598251, 0.02602493390440941, 0.12257847934961319, 0.16266898810863495, 0.10105179995298386, -0.0691603422164917, -0.15810991823673248, 0.0780249685049057, -0.05704503133893013, -0.09288474172353745, -0.018145810812711716, 0.03461957350373268, 0.09110239148139954, -0.012768431566655636, -0.1647854745388031, -0.1051928922533989, 0.1327127367258072, -0.053564395755529404, 0.1253974288702011, -0.025215376168489456, 0.025516768917441368], [0.07236116379499435, 0.019625892862677574, 0.0068173715844750404, -0.0726880356669426, -0.019032498821616173, 0.04571010172367096, -0.0777684673666954, 0.18562906980514526, -0.10244809091091156, -0.13762642443180084, -0.0683734267950058, -0.06095435470342636, 0.07899364084005356, -0.10637986660003662, -0.028099456802010536, 0.14042292535305023, -0.09722127765417099, 0.07392452657222748, 0.006654825992882252, -0.028914010152220726, 0.013525492511689663, 0.06441663205623627, 0.018957678228616714, -0.1437617689371109, -0.06612734496593475, -0.03642701730132103, 0.09272588789463043, -0.10555686801671982, -0.026398859918117523, 0.11135471612215042, -0.08271441608667374, 0.037836771458387375, 0.07839193195104599, -0.12015198916196823, 0.08123618364334106, -0.05910627171397209, -0.057151347398757935, 0.0009360091644339263, -0.1520324945449829, -0.04129115864634514, 0.03154871612787247, -0.10289648920297623, -0.026693282648921013, -0.008100882172584534, -0.03694860264658928, 0.049015212804079056, -0.11009794473648071, 0.08805510401725769, -0.00028139029745943844, 0.03111458383500576, -0.016879508271813393, 0.07705793529748917, 0.0608467273414135, 0.14255738258361816, -0.00805742759257555, -0.13199596107006073, -0.024091597646474838, -0.06352077424526215, 0.10778684914112091, -0.032346922904253006, 0.05546160414814949, -0.07571908831596375, -0.04143740236759186, 0.014766117557883263, -0.08141528069972992, -0.05349195376038551, 0.008332679979503155, 0.06849776208400726, 0.006840832531452179, -0.055287186056375504, 0.012491792440414429, 0.07885456085205078, 0.13989216089248657, 0.039393018931150436, -0.02957770600914955, 0.10543327778577805, -0.0830361545085907, 0.10893349349498749, 0.0508124865591526, 0.022381260991096497, 0.018485041335225105, 0.1004839837551117, 0.08076503127813339, -0.04164382070302963, -0.06715843081474304], [0.07631997764110565, -0.0164326261729002, 0.01178091298788786, -0.010019822977483273, -0.0378868393599987, -0.022843455895781517, 0.054069437086582184, -0.09228652715682983, 0.07769076526165009, -0.11007366329431534, 0.1473144143819809, -0.1817779690027237, -0.050226084887981415, 0.005508545320481062, 0.03468919172883034, 0.024177346378564835, -0.07921215146780014, 0.12449566274881363, -0.08086718618869781, 0.04217331111431122, 0.1989412158727646, 0.1113550141453743, 0.04884658381342888, 0.012988568283617496, 0.009699417278170586, -0.17192469537258148, 0.12244386970996857, 0.17052845656871796, -0.07596045732498169, 0.11509659141302109, -0.06089722737669945, -0.009171705693006516, 0.02947782538831234, -0.016793323680758476, 0.1245453730225563, 0.11283399164676666, 0.025252683088183403, -0.004305413458496332, 0.08287601917982101, 0.055875811725854874, 0.07026753574609756, -0.006842214148491621, 0.0253044031560421, 0.08343551307916641, -0.03933094069361687, -0.13815011084079742, 0.039633627980947495, -0.12980519235134125, -0.05602377653121948, 0.13645964860916138, -0.12104073911905289, 0.020276708528399467, -0.03117220848798752, 0.02091444656252861, -0.004114182665944099, -0.1090315654873848, -0.1714228093624115, 0.1059858500957489, 0.05621118098497391, 0.05754152685403824, -0.015750393271446228, -0.1806698739528656, 0.008874737657606602, -0.0034629241563379765, 0.010654215700924397, 0.14357292652130127, -0.03542359173297882, 0.046954140067100525, -0.013476633466780186, 0.1288866400718689, -0.01564211957156658, -0.06110837683081627, 0.03387654572725296, 0.19431555271148682, 0.13999377191066742, 0.026299798861145973, -0.04186639562249184, -0.014232845976948738, 0.18167121708393097, -0.04974738880991936, 0.1082705482840538, 0.029877392575144768, 0.017728067934513092, -0.03858455643057823, 0.026603633537888527], [-0.012864874675869942, -0.09332715719938278, 0.07782753556966782, 0.012881677597761154, -0.06663911044597626, -0.05488547682762146, 0.041154902428388596, 0.014995130710303783, 0.01680789701640606, 0.07536213845014572, 0.023620013147592545, -0.05062025785446167, -0.023308416828513145, 0.02347700111567974, -0.03639381751418114, 0.01289370097219944, 0.06586930900812149, 0.11670541763305664, -0.022844403982162476, -0.009315301664173603, -0.07871018350124359, -0.017373450100421906, -0.00860237143933773, -0.053683120757341385, 0.00020612232037819922, 0.003810959169641137, 0.003407561918720603, 0.033160481601953506, -0.027975328266620636, -0.007392612285912037, -0.1344694048166275, 0.05585712939500809, 0.04589046165347099, -0.042729608714580536, 0.03687659278512001, -0.0627480298280716, 0.03912994638085365, 0.012156294658780098, 0.025338511914014816, -0.03126633167266846, -0.08238881826400757, 0.023638078942894936, -0.008082106709480286, -0.007706063333898783, 0.019914863631129265, 0.051032356917858124, -0.046812012791633606, -0.022485457360744476, -0.02643655613064766, -0.011936681345105171, 0.01945813000202179, -0.025165000930428505, -0.10492696613073349, 0.0354866161942482, -0.006400626618415117, -0.02639240399003029, 0.01941969431936741, 0.016136860474944115, -0.06279944628477097, -0.03234256058931351, -0.08347664028406143, -0.061823513358831406, -0.003848952241241932, 0.0884459912776947, -0.04744100198149681, -0.02777797542512417, -0.03034653142094612, -0.01405202504247427, 0.050820134580135345, -0.034362662583589554, 0.08146980404853821, 0.034767087548971176, 0.04506716504693031, -0.045156676322221756, 0.021611807867884636, 0.010185791179537773, 0.04487636685371399, 0.061772480607032776, -0.08623100072145462, -0.037743546068668365, -0.08256614953279495, -0.09358605742454529, -0.03743963688611984, 0.014824258163571358, -0.018629925325512886], [-0.00031060344190336764, -0.06564545631408691, -0.13709525763988495, -0.06795918196439743, 0.032502681016922, -0.006925379391759634, -0.131007120013237, -0.02394995465874672, -0.14236974716186523, 0.015161128714680672, -0.07626187801361084, -0.08247657120227814, 0.027428200468420982, 0.03371190279722214, 0.07823403179645538, -0.07882378250360489, -0.049598269164562225, 0.11459137499332428, -0.0109516317024827, 0.0733206495642662, 0.05997201427817345, -0.05015159398317337, 0.10780911892652512, -0.10215695947408676, 0.019787078723311424, -0.12416591495275497, -0.014220376498997211, -0.026072978973388672, -0.13059130311012268, 0.05476928874850273, 0.006179510150104761, -0.06800375878810883, 0.07777867466211319, 0.030619211494922638, 0.006888371426612139, 0.046812668442726135, 0.0021330746822059155, 0.030964480713009834, -0.12174791842699051, -0.1516665518283844, -0.00011011975584551692, -0.013547171838581562, -0.11123097687959671, -0.04245760664343834, -0.09715224802494049, -0.09915247559547424, -0.11439570784568787, -0.06846576929092407, 0.06235771253705025, -0.10661851614713669, 0.07501372694969177, -0.04575905203819275, 0.0304655060172081, -0.10961625725030899, -0.06830473989248276, 0.060368672013282776, -0.07396724075078964, -0.05270141735672951, 0.0607728511095047, -0.02806776389479637, 0.0156530924141407, -0.11396240442991257, 0.05067792162299156, 0.017201609909534454, -0.0021812000777572393, 0.08276592195034027, -0.09784901142120361, 0.06327611207962036, 0.024211496114730835, -0.0494515597820282, 0.027727780863642693, 0.06171967834234238, 0.04160645976662636, 0.005867945030331612, -0.1363987773656845, -0.11051306873559952, -0.09478750824928284, 0.0019762679003179073, -0.09167567640542984, 0.05273236334323883, -0.044826533645391464, 0.013584157451987267, 0.016910674050450325, -0.016642257571220398, -0.060860831290483475], [-0.08098763972520828, 0.04849915951490402, 0.06424488872289658, -0.023983929306268692, -0.024240674450993538, 0.02328643761575222, 0.018905842676758766, 0.006716178730130196, 0.024696126580238342, -0.07018958032131195, 0.08246669918298721, -0.05540480092167854, -0.051290363073349, 0.12636171281337738, 0.007060530129820108, 0.1522693932056427, 0.032786451280117035, -0.04173026606440544, -0.06182403117418289, 0.0332929864525795, 0.039423178881406784, 0.009237000718712807, 0.1254296898841858, 0.17086927592754364, 0.08137790113687515, 0.04164646193385124, 0.08415956795215607, 0.07585259526968002, 0.08856666088104248, 0.10756140202283859, 0.15502089262008667, 0.09269916266202927, 0.056347157806158066, -0.045411694794893265, -0.013452417217195034, 0.00440681679174304, 0.15280279517173767, 0.08583993464708328, -0.020864512771368027, 0.131963312625885, 0.06619571894407272, 0.09216000884771347, 0.1621997356414795, 0.1759277880191803, 0.032865628600120544, -0.012803281657397747, 0.056729089468717575, -0.09697278589010239, -0.00722354045137763, 0.13857527077198029, -0.03352148085832596, -0.0017122033750638366, -0.0625256821513176, 0.05053112283349037, 0.038072023540735245, -0.01754290983080864, -0.1241617426276207, 0.07920786738395691, 0.14417719841003418, -0.03704191744327545, 0.006857790984213352, -0.140013188123703, -0.06761067360639572, 0.01409953087568283, -0.017648495733737946, -0.11249082535505295, -0.09545397013425827, 0.1570163518190384, -0.0049294414930045605, -0.005518398713320494, 0.04835965111851692, 0.08613695204257965, 0.05698412284255028, 0.16899633407592773, 0.05462375283241272, -0.008724048733711243, -0.032643985003232956, -0.0760301724076271, 0.05357512831687927, -0.009700067341327667, -0.06357848644256592, -0.09652529656887054, 0.0925571620464325, -0.07520340383052826, 0.05310804396867752], [0.06784499436616898, -0.021673228591680527, 0.05792858451604843, -0.05136430636048317, 0.012051354162395, -0.0238605048507452, 0.05526694282889366, 0.15194666385650635, 0.001689383527263999, 0.06804823875427246, -0.02090275287628174, -0.02814820036292076, -0.01935887709259987, -0.1585862934589386, -0.004909055307507515, 0.06542804837226868, 0.12217272073030472, -0.09711518883705139, 0.027785351499915123, 0.12294750660657883, -0.09958315640687943, 0.07746558636426926, 0.057483475655317307, 0.10363428294658661, 0.10464660078287125, 0.01880456879734993, -0.00400631595402956, -0.040535327047109604, 0.04947271570563316, 0.07826720923185349, -0.008607533760368824, 0.12078535556793213, 0.0676780566573143, -0.003970751538872719, 0.06042620167136192, 0.12214045226573944, -0.09791092574596405, 0.07877963781356812, -0.031069861724972725, 0.07379479706287384, -0.1103457510471344, -0.03165372833609581, 0.09849245846271515, -0.021567828953266144, -0.0956011638045311, -0.044298797845840454, 0.04097677767276764, -0.13031671941280365, 0.032716091722249985, -0.03552137315273285, 0.01129234116524458, 0.19310393929481506, -0.06157626211643219, -0.009536045603454113, 0.14476698637008667, -0.08056709170341492, -0.02159835770726204, -0.11465688794851303, 0.1855200231075287, -0.009267172776162624, 0.07542566955089569, 0.02209593914449215, 0.12611131370067596, -0.14647074043750763, -0.09498658031225204, 0.014773384667932987, -0.15867604315280914, 0.008339169435203075, -0.02889479324221611, -0.03288101404905319, 0.11315812915563583, 0.11087682098150253, 0.1842968612909317, -0.0727110356092453, 0.10562054067850113, -0.007130117155611515, -0.04751913994550705, 0.052235547453165054, -0.07878074795007706, 0.08673830330371857, 0.059954941272735596, 0.14661939442157745, 0.11119882017374039, 0.17862273752689362, -0.10970339924097061], [-0.0231318399310112, 0.09033520519733429, 0.13023409247398376, -0.01225732360035181, 0.0053489236161112785, 0.028755495324730873, 0.07326024025678635, 0.05656266212463379, 0.03159536421298981, 0.12281546741724014, 0.06691024452447891, 0.15937617421150208, 0.042675796896219254, 0.14742648601531982, 0.14682865142822266, 0.02417425625026226, 0.18929241597652435, 0.030299361795186996, 0.06479659676551819, 0.1447490155696869, -0.13926997780799866, -0.10223735123872757, 0.02813066355884075, -0.12253797799348831, 0.0692923441529274, -0.031420059502124786, 0.016173619776964188, -0.03396661952137947, 0.11833401024341583, -0.14102764427661896, -0.10376065224409103, 0.1403062641620636, 0.12236008793115616, -0.046567630022764206, -0.0633920356631279, 0.030908674001693726, -0.056054577231407166, 0.0629865974187851, -0.020051440224051476, -0.00260398187674582, 0.13062240183353424, -0.0812869444489479, 0.04988916963338852, 0.025170788168907166, -0.1281885951757431, 0.09140399098396301, 0.0952848494052887, 0.08461471647024155, 0.015282976441085339, 0.026980895549058914, -0.058750562369823456, 0.03820903226733208, -0.10145982354879379, 0.1386851966381073, -0.004447493702173233, -0.10029186308383942, 0.042889390140771866, -0.18521879613399506, 0.0700138583779335, -0.0018453348893672228, 0.09196767210960388, 0.05086849257349968, 0.15534064173698425, -0.13301415741443634, -0.0009067428763955832, -0.028773853555321693, 0.0492706261575222, 0.015857649967074394, -0.01747193932533264, 0.11389782279729843, 0.014635073021054268, -0.010625649243593216, -0.029105136170983315, -0.11596398800611496, 0.1970774233341217, 0.10592231899499893, 0.06068410351872444, 0.15659530460834503, 0.025370942428708076, 0.020309636369347572, -0.06593792140483856, 0.172775000333786, 0.057292111217975616, 0.05662534758448601, -0.05426021292805672], [0.13125847280025482, 0.11152563989162445, 0.11718107014894485, 0.10005144029855728, 0.11663224548101425, 0.013908435590565205, -0.10507822781801224, 0.09509734809398651, -0.0037791654467582703, 0.08806683868169785, 0.05814274773001671, 0.001655798521824181, 0.20577101409435272, 0.14448173344135284, -0.05117001757025719, 0.1725837141275406, 0.08077159523963928, 0.002982045989483595, -0.028345365077257156, 0.0601886622607708, 0.1222771480679512, 0.07483609020709991, -0.04463411495089531, 0.04121168330311775, 0.0784899890422821, 0.0036822461988776922, 0.07692602276802063, -0.09750308841466904, 0.1511051058769226, 0.07947800308465958, 0.12635211646556854, 0.039759550243616104, 0.003169831819832325, 0.054739728569984436, 0.09186270087957382, -0.0069387126713991165, 0.019149497151374817, 0.19453191757202148, -0.0994061529636383, 0.1561174839735031, 0.16099222004413605, -0.019350145012140274, -0.037917330861091614, -0.1136753112077713, 0.11758700758218765, 0.018939226865768433, 0.08901388198137283, -0.08536284416913986, 0.014529590494930744, 0.005802378058433533, 0.011964497156441212, 0.051467835903167725, 0.14046631753444672, 0.07143504917621613, 0.053569428622722626, -0.056944672018289566, 0.05066916346549988, 0.12271124869585037, 0.1529054343700409, 0.056606560945510864, 0.15828171372413635, 0.028472483158111572, -0.008677789010107517, -0.11960723251104355, 0.09847070276737213, 0.005184286739677191, 0.035876065492630005, 0.0029453684110194445, -0.1233084425330162, 0.08341507613658905, -0.08079807460308075, -0.03603154420852661, 0.0018742805114015937, -0.1345713585615158, -0.02749147266149521, 0.10981889069080353, 0.08152724802494049, -0.026489846408367157, -0.13209116458892822, 0.1571417897939682, 0.12275730818510056, -0.006645556539297104, 0.025674857199192047, 0.1456325203180313, 0.09103978425264359], [0.09812762588262558, -0.14075607061386108, -0.055319152772426605, 0.015509809367358685, -0.04535461589694023, -0.023760497570037842, -0.0021357820369303226, 0.017160050570964813, 0.01892693154513836, -0.13747702538967133, 0.012337753549218178, -0.06997089833021164, -0.02551436237990856, 0.14312665164470673, 0.025390896946191788, 0.012748311273753643, -0.047472033649683, 0.09509118646383286, -0.17066653072834015, -0.10601464658975601, 0.1306203305721283, 0.16934287548065186, 0.07898041605949402, 0.014484384097158909, 0.04948514327406883, -0.01299267541617155, 0.0005695470026694238, 0.1227247565984726, -0.042821116745471954, 0.07312403619289398, -0.02039896696805954, -0.010997400619089603, 0.06711839139461517, 0.07645560055971146, 0.02104104869067669, -0.006377168465405703, 0.009272020310163498, 0.02825440838932991, 0.13907475769519806, 0.0954909399151802, 0.02690603770315647, 0.12661048769950867, 0.05191614106297493, 0.182450532913208, 0.08543778955936432, 0.015524272806942463, 0.018762895837426186, 0.08535895496606827, 0.07244817912578583, 0.02760247327387333, -0.08531146496534348, -0.00425597233697772, -0.06617873907089233, -0.039654575288295746, -0.01338603813201189, 0.06096407398581505, 0.06747779995203018, 0.06575639545917511, -0.0950101912021637, 0.002668889006599784, -0.0001022875148919411, -0.09971949458122253, -0.15647076070308685, 0.15052279829978943, 0.10108788311481476, -0.03289586305618286, -0.022847644984722137, 0.08464524149894714, 0.09904594719409943, 0.11283312737941742, 0.007799859624356031, -0.07915336638689041, 0.07906213402748108, 0.1184316948056221, 0.057650383561849594, -0.04764719307422638, -0.11373931169509888, 0.019040249288082123, 0.1664019078016281, -0.15015394985675812, -0.12122225016355515, -0.04286586120724678, 0.11041752249002457, -0.08111698180437088, -0.03476705029606819], [0.033151764422655106, -0.10883277654647827, 0.06720920652151108, 0.09457109123468399, 0.08217313885688782, 0.03485288470983505, 0.053046293556690216, -0.004349268972873688, 0.007014570292085409, -0.04991496726870537, -0.025418419390916824, -0.07399259507656097, 0.014799834229052067, 0.15955772995948792, 0.09345261752605438, -0.14069783687591553, -0.10005375742912292, 0.15373726189136505, 0.1815117746591568, 0.030688613653182983, 0.10186651349067688, -0.03790443018078804, -0.030729196965694427, 0.027490364387631416, -0.1250784695148468, 0.06995941698551178, -0.02133197709918022, -0.14143019914627075, 0.02881729230284691, -0.0014449087902903557, 0.06406070291996002, -0.021540528163313866, -0.0010853694984689355, 0.013889744877815247, 0.10679692775011063, 0.016089243814349174, -0.0441473051905632, -0.030169684439897537, -0.15867026150226593, -0.02446037530899048, 0.019977079704403877, 0.09592302143573761, -0.16558611392974854, 1.2072668141627219e-05, -0.013222137466073036, 0.07557713240385056, -0.07370442897081375, 0.10730228573083878, 0.12449879944324493, -0.15550632774829865, 0.06470563262701035, -0.06442190706729889, 0.09695284068584442, -0.04312768951058388, -0.08212140947580338, 0.18320704996585846, 0.07812029123306274, 0.15435791015625, 0.09637849777936935, 0.06407798081636429, -0.012609779834747314, -0.0015112495748326182, 0.07614278048276901, 0.1342291682958603, 0.012045346200466156, 0.09326885640621185, 0.16655009984970093, 0.039697226136922836, 0.16852019727230072, -0.14858807623386383, 0.05521291866898537, 0.07135451585054398, -0.1564059853553772, -0.01052822731435299, -0.13773061335086823, 0.03239351511001587, 0.1811530739068985, 0.07107926905155182, 0.06476616114377975, -0.09680989384651184, 0.08656420558691025, 0.007160877343267202, 0.08119279146194458, 0.04101749509572983, 0.04700985923409462], [0.012145736254751682, -0.0542861744761467, 0.011307502165436745, 0.06086139380931854, 0.045027490705251694, 0.007914935238659382, 0.06717050820589066, -0.04252617806196213, 0.08224105089902878, -0.11351428925991058, 0.003267972730100155, -0.10349450260400772, -0.0290115587413311, -0.009025489911437035, -0.12805922329425812, -0.015328965149819851, -0.028614643961191177, 0.12551994621753693, 0.15430361032485962, -0.01799779199063778, 0.01746439002454281, 0.11530806869268417, -0.005907300394028425, -0.003355873515829444, 0.11143085360527039, -0.11228226125240326, 0.13958165049552917, 0.040298327803611755, 0.09061403572559357, 0.06436385959386826, 0.010058993473649025, -0.026457956060767174, 0.11229310929775238, 0.07845259457826614, 0.010923431254923344, 0.15017907321453094, -0.04620926454663277, -0.13197344541549683, 0.11346951872110367, -0.02491963841021061, 0.06785198301076889, -0.011960847303271294, 0.1664392501115799, -0.04453766718506813, -0.04033847525715828, 0.1166321188211441, -0.00697157671675086, -0.031626395881175995, 0.08719238638877869, -0.011907176114618778, 0.1751335710287094, -0.0810088962316513, -0.07840149104595184, 0.11919992417097092, -0.09250936657190323, 0.046523626893758774, 0.11258986592292786, 0.03674275800585747, 0.008937661536037922, -0.06493684649467468, -0.04606236144900322, -0.08570166677236557, -0.16446098685264587, 0.1545352041721344, 0.08274884521961212, 0.09336511790752411, 0.1416229009628296, -0.03964829444885254, 0.16088074445724487, -0.00010875868611037731, 0.17755001783370972, 0.04886357858777046, 0.09543980658054352, 0.050757717341184616, 0.05617478862404823, 0.11876408755779266, 0.006531772669404745, 0.10335566848516464, 0.16665492951869965, -0.007601763587445021, 0.021965792402625084, 0.09663478285074234, -0.0681055411696434, 0.031062550842761993, 0.012309707701206207], [0.11726206541061401, -0.022828277200460434, -0.09244155138731003, 0.009370114654302597, -0.05713806301355362, 0.015348183922469616, 0.18985305726528168, 0.02011272683739662, 0.04133767634630203, -0.0145995132625103, 0.0760822743177414, 0.05280371755361557, 0.027984611690044403, -0.04883723706007004, 0.02959061600267887, -0.03294049948453903, 0.11281803995370865, -0.033639028668403625, 0.0272649098187685, -0.11247388273477554, 0.04921531304717064, -0.08141609281301498, -0.01010049507021904, 0.0006859442219138145, 0.0027542661409825087, -0.12947942316532135, 0.01444004476070404, -0.027609316632151604, -0.03251016512513161, 0.0353291891515255, 0.12511928379535675, -0.09912604838609695, 0.12042811512947083, -0.05847461149096489, -0.02607705630362034, 0.07294684648513794, 0.04362793639302254, 0.13210566341876984, 0.062048040330410004, 0.15871158242225647, 0.12293066084384918, 0.12049970775842667, 0.06090331822633743, 0.13837707042694092, -0.09390083700418472, 0.06068391725420952, 0.07461588829755783, -0.04518713429570198, 0.026662535965442657, 0.05690161511301994, 0.0752192810177803, -0.08172476291656494, -0.061394285410642624, 0.0006484859623014927, 0.12678368389606476, -0.02512793056666851, -0.027669642120599747, -0.07742395997047424, -0.11522737145423889, 0.13672997057437897, -0.09891768544912338, 0.032658644020557404, 0.03214962035417557, -0.1664014607667923, 0.1042775958776474, -0.05539797618985176, 0.07154926657676697, 0.030676554888486862, 0.1034955382347107, 0.1369784027338028, 0.09301896393299103, 0.11422780901193619, -0.04374295473098755, 0.11732552945613861, 0.0025237021036446095, 0.07824713736772537, -0.1740708351135254, -0.09302235394716263, -0.004819637164473534, -0.09913749247789383, -0.04752526804804802, 0.0907730981707573, -0.10654883086681366, 0.12338012456893921, 0.04452984780073166], [-0.0892825499176979, -0.025216393172740936, -0.08404169231653214, 0.11348507553339005, 0.1465037316083908, -0.036998528987169266, -0.07533515244722366, 0.01214821357280016, 0.002717863768339157, 0.11082574725151062, 0.12405067682266235, -0.04377128928899765, 0.07581066340208054, 0.1254931092262268, 0.04367508366703987, -0.0003510937967803329, -0.1852928251028061, 0.15788866579532623, 0.18007659912109375, 0.006772281136363745, 0.03377688303589821, 0.015458745881915092, -0.1267894208431244, -0.10843031853437424, -0.1767885535955429, 0.11069511622190475, -0.1563943475484848, -0.04140791296958923, 0.16142722964286804, -0.03196779265999794, 0.05237350985407829, -0.027183489874005318, 0.025947896763682365, 0.016348354518413544, 0.16336163878440857, -0.01851944625377655, -0.05443231761455536, 0.07468336075544357, -0.10717875510454178, -0.0984063372015953, 0.03427721560001373, -0.01908954046666622, -0.036565061658620834, -0.025345031172037125, 0.0895807296037674, 0.11001508682966232, 0.06503347307443619, 0.11339540779590607, 0.07271319627761841, -0.07507479935884476, 0.18845996260643005, 0.10925298184156418, 0.15413929522037506, 0.03822069242596626, -0.02171519212424755, 0.17490625381469727, -0.0018665039679035544, 0.03984243422746658, -0.0044840252958238125, 0.006023078225553036, 0.01904943771660328, 0.17845489084720612, 0.0560823492705822, 0.014865737408399582, -0.05930311977863312, 0.09141405671834946, -0.014596771448850632, 0.07429901510477066, 0.04266071319580078, -0.16592440009117126, -0.01964394934475422, 0.07040848582983017, -0.13647791743278503, -0.16417866945266724, 0.042545489966869354, 0.06276777386665344, 0.05869858339428902, 0.16414867341518402, -0.08778408169746399, -0.11847343295812607, 0.10969458520412445, -0.16170431673526764, 0.0025489984545856714, 0.053271885961294174, 0.1796899139881134], [-0.048587068915367126, -0.09587137401103973, -0.006640064530074596, -0.025622619315981865, 0.11017677932977676, 0.07960876822471619, 0.054015323519706726, -0.003991339821368456, -0.05935120955109596, -0.06505715847015381, 0.006644701585173607, -0.09495189785957336, -0.11655239015817642, -0.0010185663122683764, 0.18538181483745575, -0.024236446246504784, -0.1299751251935959, 0.013254339806735516, -0.020605847239494324, 0.11272574216127396, 0.11238536983728409, 0.06107250228524208, 0.06599757075309753, 0.0629873052239418, 0.011300245299935341, 0.013649974018335342, 0.03770358860492706, -0.07419341802597046, -0.06015883386135101, 0.11745643615722656, -0.0063990456983447075, 0.10054640471935272, 0.017326604574918747, 0.04927074536681175, 0.008952467702329159, -0.008262666873633862, 0.08057140558958054, -0.0057616522535681725, 0.07963606715202332, -0.14775921404361725, 0.0866747573018074, -0.045216117054224014, 0.04843799024820328, 0.03820817172527313, 0.04038344696164131, 0.11631937325000763, 0.05531637743115425, -0.048379477113485336, 0.08446452766656876, 0.0694713294506073, 0.04219081252813339, 0.02796732261776924, -0.10183219611644745, -0.055356692522764206, -0.1716867834329605, 0.16313567757606506, -0.021539736539125443, 0.15408861637115479, 0.07286099344491959, 0.008270928636193275, 0.0011636466952040792, -0.014492172747850418, 0.08639267832040787, 0.09030929952859879, 0.1957569122314453, 0.02532261423766613, 0.04867703467607498, 0.12052419781684875, 0.08894295245409012, -0.12061993032693863, -0.0022387863136827946, -0.007762769237160683, -0.10900530219078064, 0.11491526663303375, -0.01844116486608982, 0.03058052435517311, 0.12883201241493225, 0.0982482060790062, 0.17575785517692566, -0.05072561651468277, 0.11965854465961456, -0.09388268738985062, 0.09692780673503876, -0.10406243056058884, 0.12316856533288956], [0.15091125667095184, -0.05813819169998169, 0.03292129561305046, 0.14414402842521667, 0.038799189031124115, 0.04347407445311546, -0.05191474035382271, -0.0673331469297409, 0.06294231861829758, -0.012750011868774891, 0.09398172050714493, -0.07734784483909607, 0.012569399550557137, 0.06394091248512268, 0.06252138316631317, 0.1106192022562027, 0.062350720167160034, 0.04232103005051613, 0.016150038689374924, -0.050979577004909515, -0.04710972309112549, 0.19004686176776886, 0.07614292204380035, 0.1705048382282257, 0.05592377856373787, 0.04153876006603241, -5.129441706230864e-05, 0.06010447442531586, 0.0539374053478241, 0.023794304579496384, 0.030519861727952957, 0.009841760620474815, 0.04063550382852554, 0.18493179976940155, 0.12818662822246552, 0.11841240525245667, 0.11661997437477112, -0.049572594463825226, 0.1292436420917511, 0.001742769731208682, -0.06444443762302399, 0.10910812020301819, 0.08771909028291702, 0.05277781933546066, 0.17777834832668304, -0.002486548153683543, 0.06625766307115555, -0.05045471340417862, 0.10109744966030121, 0.13170693814754486, -0.04075416177511215, -0.015750061720609665, 0.19827702641487122, 0.0587567500770092, -0.0006047266069799662, 0.03636554628610611, 0.1430777907371521, 0.08193662762641907, -0.06319820135831833, 0.15639325976371765, -0.12086384743452072, -0.15862654149532318, -0.1768152117729187, 0.11938024312257767, 0.15194426476955414, 0.034147631376981735, -0.042414821684360504, 0.023752616718411446, 0.030759241431951523, -0.06445077061653137, 0.014942282810807228, -0.12100376188755035, 0.03182037174701691, 0.1486479789018631, 0.04575875401496887, -0.009429702535271645, 0.0756814032793045, 0.035140570253133774, 0.11664163321256638, -0.0008036214858293533, -0.11902882903814316, 0.07360623776912689, -0.20322652161121368, -0.045255303382873535, 0.11271114647388458], [0.09157294780015945, 0.14918287098407745, -0.05852185934782028, -0.01986820437014103, -0.05196111649274826, 0.032023847103118896, 0.16460253298282623, 0.004360778257250786, 0.0853361040353775, 0.05185313522815704, 0.05181413143873215, 0.14266064763069153, 0.03850908949971199, -0.040330249816179276, -0.10657306760549545, -0.14029957354068756, 0.07791798561811447, -0.09082510322332382, 0.1681215465068817, -0.05254799500107765, -0.060395825654268265, -0.04170902818441391, -0.0248330757021904, -0.021302729845046997, 0.03039265051484108, 0.15009814500808716, 0.03411227464675903, 0.006970106158405542, 0.01637069694697857, 0.02973213419318199, -0.009307394735515118, 0.0014179956633597612, 0.16289927065372467, 0.06313159316778183, -9.083424811251462e-05, 0.0962337926030159, 0.02889425866305828, -0.14564645290374756, -0.024073343724012375, -0.026020990684628487, -0.14435099065303802, -0.0644800215959549, -0.08026719093322754, -0.10977475345134735, -0.01920170895755291, 0.08352296054363251, 0.12286684662103653, 0.13804246485233307, 0.006878076121211052, -0.040323060005903244, 0.04543987661600113, 0.08091359585523605, 0.0760994702577591, -0.014576921239495277, 0.033325403928756714, 0.0778510794043541, 0.04692843183875084, 0.04124243184924126, -0.022706717252731323, -0.04955777898430824, 0.07651001960039139, 0.09761388599872589, 0.023541076108813286, 0.06444968283176422, -0.03536917269229889, 0.02953457459807396, -0.044532325118780136, -0.023902729153633118, 0.09876319020986557, 0.11946427822113037, 0.11828561127185822, -0.004121806938201189, 0.014100446365773678, -0.08449695259332657, 0.1416252851486206, -0.022092390805482864, 0.15850454568862915, 0.018986597657203674, 0.011813860386610031, 0.08298972994089127, -0.16671112179756165, 0.12050811201334, -0.11132621020078659, 0.07361707836389542, 0.15437088906764984], [0.14496257901191711, 0.1594737321138382, -0.06381747871637344, 0.0786304697394371, -0.029710179194808006, -0.04354820400476456, 0.12497641891241074, 0.03009311482310295, 0.0769164189696312, 0.08211050182580948, 0.03641583397984505, 0.1414121687412262, 0.2029504030942917, -0.15236777067184448, -0.1037081852555275, -0.043482184410095215, -0.02152993157505989, -0.05668598785996437, 0.08589111268520355, -0.04304562509059906, -0.05231059342622757, -0.019120439887046814, -0.05506071075797081, -0.08405082672834396, 0.07093136012554169, 0.08611300587654114, 0.0217178612947464, 0.10379400849342346, 0.031370993703603745, -0.03446710854768753, 0.012705229222774506, 0.017797881737351418, -0.048672955483198166, 0.08875174820423126, 0.10362651944160461, 0.06582852452993393, 0.030063120648264885, -0.05487240478396416, 0.015110215172171593, -0.03416939079761505, -0.10188475251197815, 0.0362003892660141, 0.07826586812734604, -0.15424339473247528, -0.027188867330551147, 0.07943283766508102, -0.03926520422101021, 0.06689496338367462, 0.14437180757522583, -0.04993820562958717, 0.07040044665336609, 0.006464445032179356, -0.046084143221378326, 0.08264146000146866, 0.1199222281575203, -0.015430726110935211, 0.12579098343849182, -0.024521304294466972, -0.10167264938354492, 0.13555599749088287, -0.13825298845767975, -0.04195621237158775, 0.06371401995420456, -0.011912460438907146, 0.07339705526828766, 0.004220798145979643, 0.023253198713064194, 0.0647440105676651, 0.0656050443649292, -0.02538738027215004, 0.0058195884339511395, 0.027348466217517853, 0.1330890953540802, -0.06866201013326645, 0.07525920122861862, -0.08359992504119873, -0.04810689762234688, -0.05733808875083923, 0.009400817565619946, 0.11613637208938599, -0.013334601186215878, 0.024773620069026947, -0.1398104429244995, -0.08808667212724686, 0.03202597424387932], [0.17477825284004211, -0.05666695907711983, -0.08210508525371552, 0.05240698158740997, -0.0036391201429069042, -0.008509347215294838, -0.01339881494641304, -0.09825099259614944, 0.03221689537167549, 0.09786591678857803, 0.09926751255989075, -0.025094328448176384, 0.1696774661540985, 0.008095430210232735, -0.0595613494515419, -0.03538632392883301, -0.05641334876418114, 0.03608856350183487, 0.044719308614730835, -0.03445064648985863, -0.006916746962815523, 0.05031585320830345, 0.02298685349524021, 0.11128798127174377, 0.06492465734481812, 0.0059100426733493805, 0.15949343144893646, 0.0865151509642601, 0.11323530972003937, 0.14082759618759155, 0.12134566903114319, -0.015568018890917301, -0.04546547681093216, 0.18052124977111816, 0.03264371305704117, 0.06405313313007355, -0.01269538700580597, -0.10407997667789459, -0.025603674352169037, -0.07379312068223953, -0.0328311026096344, 0.06359302252531052, -0.028357960283756256, -0.09047587215900421, 0.08034423738718033, 0.19006991386413574, 0.05205867066979408, 0.15826869010925293, 0.11615816503763199, -0.13076113164424896, 0.014629453420639038, 0.006272146012634039, 0.09728553146123886, 0.015827486291527748, 0.06196846812963486, 0.20444390177726746, 0.1838020533323288, 0.03734433278441429, 0.05812964215874672, 0.15416844189167023, 0.034050408750772476, 0.12151025980710983, -0.055106665939092636, 0.15449471771717072, 0.06845226883888245, -0.03311123326420784, -0.0022163796238601208, 0.001540997065603733, 0.11371245235204697, -0.11615774780511856, 0.18562281131744385, -0.06859572231769562, 0.0014293594285845757, -0.14018462598323822, -0.13391800224781036, 0.08339603990316391, 0.14111147820949554, 0.14048779010772705, -0.07698678970336914, 0.14963456988334656, 0.1121632307767868, 0.03720492124557495, -0.10668514668941498, 0.13362060487270355, 0.16250912845134735], [-0.20300103724002838, 0.003706511575728655, 0.16812053322792053, -0.08339167386293411, 0.18261519074440002, 0.09986044466495514, 0.018018009141087532, 0.1597808450460434, -0.09723745286464691, 0.1860249638557434, 0.013528507202863693, 0.08892872184515, 0.036561574786901474, 0.1394108682870865, 0.05493922904133797, 0.17365634441375732, 0.03183038532733917, 0.10165635496377945, 0.0008614723919890821, 0.0017343696672469378, -0.11099185049533844, 0.0027280719950795174, -0.010278156027197838, -0.1592235118150711, 0.11009664833545685, -0.026158316060900688, -0.15430890023708344, 0.0295113492757082, 0.1321825385093689, -0.17093893885612488, 0.044949352741241455, 0.18724431097507477, 0.03802970424294472, -0.03669971600174904, 0.007448265794664621, -0.0845857486128807, 0.020107988268136978, 0.03795918449759483, 0.044300634413957596, 0.08866918087005615, 0.023630764335393906, 0.01066407561302185, -0.0963091254234314, 0.0026432080194354057, 0.0696432963013649, -0.027079449966549873, 0.04815908893942833, 0.08876202255487442, -0.020184654742479324, 0.029705237597227097, -0.04621252417564392, 0.11199386417865753, -0.09567324072122574, -0.03175463154911995, 0.06498349457979202, -0.0001978981017600745, -0.0840807780623436, 0.012764189392328262, 0.14295594394207, 0.012533502653241158, 0.14261092245578766, 0.054656583815813065, 0.11818666011095047, -0.06359785050153732, 0.013500106520950794, -0.031476572155952454, 0.14908000826835632, 0.04457747936248779, 0.022348787635564804, -0.05946987867355347, -0.2007416933774948, 0.008209960535168648, 0.10863002389669418, -0.12474065274000168, 0.019491856917738914, 0.018047600984573364, 0.09463147819042206, 0.0038276752457022667, -0.1427047997713089, 0.027394834905862808, 0.02200397290289402, 0.1028917208313942, 0.1920691877603531, -0.02200447767972946, 0.11206669360399246], [0.10759605467319489, 0.05831770971417427, 0.1684349924325943, 0.0983319953083992, 0.1947910189628601, -0.014253671281039715, -0.0015250707510858774, -0.10624008625745773, -0.00645548477768898, 0.0480179563164711, -0.06258105486631393, 0.02806691639125347, 0.06317392736673355, 0.13433486223220825, 0.10968196392059326, 0.013615122064948082, 0.016311777755618095, -0.17840629816055298, -0.11094183474779129, 0.00010377792932558805, 0.04231631010770798, 0.12951210141181946, -0.09714335948228836, 0.044078048318624496, 0.12723200023174286, 0.021633470430970192, 0.015783170238137245, 0.10406246036291122, -0.07776345312595367, -0.05826745182275772, 0.007080326788127422, 0.02639867179095745, -0.14117878675460815, 0.1252184957265854, 0.1313852071762085, 0.04453152045607567, 0.11422591656446457, 0.029461761936545372, 0.06603952497243881, 0.19280023872852325, -0.035276126116514206, -0.0753520280122757, 0.0515531487762928, -0.0832584947347641, 0.14505234360694885, 0.10981757938861847, 0.1345110535621643, 0.006241554860025644, -0.1422949880361557, 0.05266354978084564, -0.04190811142325401, 0.0493718720972538, 0.03402320295572281, 0.057961974292993546, 0.12585797905921936, 0.008813917636871338, 0.12080959975719452, 0.1430671364068985, -0.04032334312796593, -0.007934745401144028, 0.05383243039250374, -0.07281354069709778, -0.012518949806690216, 0.007787785027176142, 0.14698615670204163, -0.159858837723732, 0.06258318573236465, 0.03428564593195915, -0.15740805864334106, -0.030851827934384346, -0.1392790675163269, 0.05987423285841942, 0.12206108868122101, -0.020563378930091858, -0.12747199833393097, -0.09522400051355362, 0.16817258298397064, -0.02852516435086727, -0.17415252327919006, 0.07914023846387863, 0.007141665555536747, -0.07579408586025238, -0.12438581883907318, -0.009490043856203556, -0.048516903072595596], [-0.04963165149092674, -0.08226749300956726, 0.16119350492954254, 0.06762406975030899, 0.07474686205387115, 0.17032037675380707, -0.08170486241579056, -0.012708568945527077, 0.05710357427597046, 0.05607639253139496, 0.04614390805363655, -0.10431886464357376, 0.01639864593744278, -0.11825411766767502, 0.08753971755504608, 0.004341890569776297, 0.1084570437669754, 0.06412249803543091, 0.1477462351322174, 0.0264451764523983, 0.0016785544576123357, -0.008723964914679527, 0.029959961771965027, 0.019161073490977287, -0.014391398057341576, -0.05117369070649147, 0.001853465219028294, 0.11630856990814209, -0.01212105993181467, 0.10291856527328491, 0.00411943206563592, -0.015032638795673847, -0.09406396001577377, 0.14731638133525848, 0.01699157804250717, 0.123120978474617, 