{
  "layers": [
    {
      "type": "gcn",
      "act": "tanh",
      "W": [
        [
          0.030609190464019775,
          -0.049088429659605026,
          0.2781614363193512,
          -0.6108532547950745,
          -0.12301317602396011,
          0.24743963778018951,
          -0.06683216989040375,
          -0.26895636320114136,
          -0.09979657083749771,
          -0.010332572273910046,
          0.07631832361221313,
          -0.4373106360435486,
          0.004618178587406874,
          -0.26664480566978455,
          0.05179545655846596,
          0.3040617108345032,
          -0.06343715637922287,
          -0.051504578441381454,
          0.16752389073371887,
          -0.24193938076496124,
          0.02546841651201248
        ],
        [
          -0.2992231249809265,
          -0.14127114415168762,
          -0.15887649357318878,
          0.5418839454650879,
          -0.059892382472753525,
          0.125159353017807,
          0.03621046617627144,
          0.0532364696264267,
          -0.03416464477777481,
          -0.15456795692443848,
          -0.13999244570732117,
          0.10965948551893234,
          -0.3356081545352936,
          0.010140402242541313,
          0.17528778314590454,
          0.16708357632160187,
          0.05783957615494728,
          0.16131019592285156,
          0.21127645671367645,
          0.10869687795639038,
          0.04333050921559334
        ],
        [
          -0.05963899940252304,
          -0.3273140490055084,
          0.014535767026245594,
          -0.2341572791337967,
          0.0993390902876854,
          -0.13017161190509796,
          -0.017949460074305534,
          0.3051573634147644,
          -0.23169103264808655,
          -0.27832818031311035,
          -0.20237572491168976,
          -0.09125323593616486,
          0.2697993516921997,
          -0.2527475655078888,
          -0.16541709005832672,
          -0.011593669652938843,
          -0.1983117014169693,
          -0.003546440275385976,
          -0.14510850608348846,
          0.01265446376055479,
          -0.14241021871566772
        ],
        [
          0.09167679399251938,
          -0.13421310484409332,
          -0.20018495619297028,
          -0.11835702508687973,
          -0.144109308719635,
          -0.15908481180667877,
          0.06891871988773346,
          -0.25386911630630493,
          -0.5927608609199524,
          -0.4171539843082428,
          0.31034165620803833,
          -0.34922274947166443,
          -0.4241800904273987,
          0.21086671948432922,
          -0.07194265723228455,
          0.04301456734538078,
          0.24187740683555603,
          -0.6913619041442871,
          0.2087593525648117,
          -0.15233609080314636,
          -0.10629143565893173
        ],
        [
          -0.01154499500989914,
          0.01826794445514679,
          0.015105740167200565,
          0.4965648353099823,
          0.10567498952150345,
          -0.38984033465385437,
          -0.4712945222854614,
          -0.11362151801586151,
          -0.14489860832691193,
          -0.44736793637275696,
          -0.4737979471683502,
          0.29350656270980835,
          0.38202741742134094,
          -0.2741512954235077,
          -0.5383344888687134,
          -0.4175434410572052,
          -0.2730903923511505,
          0.1227184310555458,
          -0.051164429634809494,
          0.09355328977108002,
          0.33656272292137146
        ],
        [
          0.19031941890716553,
          0.05473744124174118,
          -0.006976169999688864,
          -0.06720968335866928,
          0.15112455189228058,
          -0.33033356070518494,
          -0.1477798968553543,
          -0.11467064172029495,
          0.0754532516002655,
          0.21949666738510132,
          -0.1882345825433731,
          -0.4681795835494995,
          -0.04674485698342323,
          -0.15844345092773438,
          0.05058210343122482,
          -0.11034779995679855,
          0.12561577558517456,
          -0.007631086744368076,
          0.1936696618795395,
          -0.17801831662654877,
          0.09355678409337997
        ],
        [
          -0.10496935248374939,
          -0.11855033040046692,
          0.21812379360198975,
          -0.2545402944087982,
          0.30634427070617676,
          -0.03123772144317627,
          0.01282524410635233,
          0.21301868557929993,
          -0.056484900414943695,
          0.2010001391172409,
          0.23087432980537415,
          -0.3111601769924164,
          0.17173463106155396,
          0.009366380982100964,
          -0.1019086241722107,
          0.1499408334493637,
          0.22338533401489258,
          -0.22297002375125885,
          -0.24378226697444916,
          0.2407730221748352,
          -0.13968171179294586
        ],
        [
          -0.07739045470952988,
          -0.1943981647491455,
          0.13404466211795807,
          0.42017024755477905,
          -0.042029015719890594,
          -0.11975659430027008,
          0.08694683015346527,
          0.11154147237539291,
          0.04775267466902733,
          -0.23779641091823578,
          0.3312141001224518,
          0.021536989137530327,
          0.03672098368406296,
          -0.013704176992177963,
          -0.07610197365283966,
          0.1668214201927185,
          0.03671318665146828,
          0.30420902371406555,
          -0.0647166445851326,
          -0.028697222471237183,
          0.3373475670814514
        ],
        [
          0.3897470235824585,
          0.2196720838546753,
          0.358664333820343,
          0.7483649849891663,
          0.2361333668231964,
          0.4583444893360138,
          0.24429424107074738,
          0.3031531870365143,
          0.29157865047454834,
          -0.16469290852546692,
          0.3201420307159424,
          0.6581800580024719,
          0.7149982452392578,
          0.36592087149620056,
          -0.02538052201271057,
          0.29443058371543884,
          0.006737720686942339,
          0.39442381262779236,
          -0.11048774421215057,
          0.3711334764957428,
          0.2759610116481781
        ],
        [
          -0.16113881766796112,
          0.34613850712776184,
          -0.12567880749702454,
          0.36145636439323425,
          0.12924878299236298,
          -0.18516166508197784,
          0.041696250438690186,
          -0.043989695608615875,
          0.2906191647052765,
          -0.34923481941223145,
          0.18037182092666626,
          0.4161994457244873,
          0.2591347098350525,
          0.4741346836090088,
          -0.06685619056224823,
          -0.2466484010219574,
          0.2557889521121979,
          0.12637071311473846,
          -0.1269134134054184,
          -0.17461349070072174,
          0.12716235220432281
        ],
        [
          -0.03373841196298599,
          0.4849439561367035,
          0.22024200856685638,
          0.47322598099708557,
          0.27984023094177246,
          -0.17865434288978577,
          -0.12535084784030914,
          -0.11990215629339218,
          0.11611893773078918,
          0.19024395942687988,
          0.17283913493156433,
          0.2913650870323181,
          0.03725297376513481,
          -0.16579300165176392,
          -0.06094807758927345,
          0.1389230340719223,
          0.17791926860809326,
          0.3048754036426544,
          -0.08450033515691757,
          -0.24208340048789978,
          -0.15873660147190094
        ],
        [
          -0.06606228649616241,
          -0.01974371075630188,
          0.19203028082847595,
          0.013153824023902416,
          -0.08281662315130234,
          0.22328677773475647,
          -0.36509427428245544,
          0.07118882983922958,
          -0.009295490570366383,
          -0.164971262216568,
          0.0644594207406044,
          -0.1123121827840805,
          -0.3407733142375946,
          0.1514902114868164,
          -0.11654070764780045,
          -0.24955980479717255,
          -0.3141689598560333,
          8.533574873581529e-05,
          -0.10350091010332108,
          0.008922490291297436,
          0.1793154925107956
        ],
        [
          -0.429731160402298,
          0.05434274300932884,
          0.0305684395134449,
          0.30442166328430176,
          0.32427340745925903,
          0.15128695964813232,
          -0.1675908863544464,
          -0.1209079846739769,
          -0.08268905431032181,
          -0.1301680952310562,
          0.17022821307182312,
          0.0030655546579509974,
          0.28586283326148987,
          0.16895818710327148,
          -0.08836545795202255,
          0.031130565330386162,
          0.1325499266386032,
          -0.051334626972675323,
          0.22969792783260345,
          -0.2544519603252411,
          0.24054141342639923
        ],
        [
          -0.1758956015110016,
          -0.23431113362312317,
          -0.03631332516670227,
          0.010473771952092648,
          0.20963020622730255,
          0.06324928253889084,
          -0.17062391340732574,
          0.21462033689022064,
          -0.22034107148647308,
          0.043341465294361115,
          -0.11772724986076355,
          0.31279024481773376,
          0.1485912948846817,
          -0.09147090464830399,
          -0.05576063320040703,
          -0.040559276938438416,
          -0.03424307331442833,
          -0.3237951099872589,
          0.2669234275817871,
          -0.34010422229766846,
          0.020118070766329765
        ],
        [
          0.24715778231620789,
          0.0014672082616016269,
          -0.37518444657325745,
          0.09734931588172913,
          -0.2417082041501999,
          0.027836687862873077,
          -0.5145761370658875,
          0.21668991446495056,
          -0.31607967615127563,
          -0.3707192838191986,
          -0.3127012848854065,
          0.22058820724487305,
          -0.059349704533815384,
          -0.4482170641422272,
          -0.18923434615135193,
          -0.4732709527015686,
          -0.15144935250282288,
          -0.05257507041096687,
          -0.003639698028564453,
          0.05478033795952797,
          -0.09857115149497986
        ],
        [
          -0.12071507424116135,
          -0.28887271881103516,
          -0.19360314309597015,
          -0.05633462220430374,
          0.1846674084663391,
          -0.04228956624865532,
          0.10323377698659897,
          -0.07627296447753906,
          -0.05502265691757202,
          -0.2974341809749603,
          0.17551271617412567,
          0.3809124529361725,
          -0.1350160837173462,
          0.3339892625808716,
          0.2170438915491104,
          0.20670536160469055,
          0.0750763937830925,
          -0.23722706735134125,
          -0.19010205566883087,
          -0.256828248500824,
          0.03166861832141876
        ],
        [
          -0.4276600778102875,
          -0.3211183249950409,
          -0.16535668075084686,
          -0.3435724973678589,
          -0.06748095154762268,
          0.036078616976737976,
          -0.27276232838630676,
          0.26520732045173645,
          -0.2182634025812149,
          -0.1876722127199173,
          0.18269284069538116,
          0.2758536636829376,
          -0.10183629393577576,
          -0.08083666861057281,
          -0.2327246218919754,
          0.14260341227054596,
          0.08600588142871857,
          0.014871875755488873,
          -0.07625839859247208,
          -0.33708611130714417,
          -0.15854410827159882
        ],
        [
          -0.03236646205186844,
          0.12053000181913376,
          0.04357466846704483,
          -0.45592230558395386,
          0.1560884267091751,
          -0.26055121421813965,
          -0.2575196325778961,
          -0.19959726929664612,
          -0.2454276829957962,
          0.3861578106880188,
          -0.10079089552164078,
          -0.18856070935726166,
          0.018802231177687645,
          -0.057892631739377975,
          0.003240934805944562,
          -0.3204145133495331,
          -0.1456025093793869,
          -0.3539277911186218,
          -0.0055708568543195724,
          -0.27819308638572693,
          0.05767270550131798
        ],
        [
          -0.13627003133296967,
          0.34210726618766785,
          0.12277766317129135,
          0.2545895576477051,
          -0.04574932903051376,
          -0.1844433695077896,
          0.28353947401046753,
          -0.29725807905197144,
          -0.3162488341331482,
          -0.1310255080461502,
          0.013263308443129063,
          -0.35908910632133484,
          0.14527574181556702,
          0.2125111222267151,
          -0.2857528626918793,
          0.10121908783912659,
          0.0013320137513801455,
          -0.21262361109256744,
          0.04499570280313492,
          0.19214926660060883,
          0.04520804062485695
        ],
        [
          -0.1304469108581543,
          -0.18328246474266052,
          0.156616672873497,
          -0.020961452275514603,
          -0.0010355132399126887,
          0.02751813270151615,
          -0.2975175976753235,
          0.027953751385211945,
          -0.0315103679895401,
          0.0014761080965399742,
          -0.014028005301952362,
          0.3930993974208832,
          -0.13936138153076172,
          0.10443154722452164,
          0.22630995512008667,
          0.09409672021865845,
          0.020809492096304893,
          0.19027361273765564,
          0.04701149836182594,
          -0.24334511160850525,
          -0.040170006453990936
        ],
        [
          0.09140484035015106,
          0.2974579930305481,
          0.1550600677728653,
          0.007890495471656322,
          0.16354672610759735,
          -0.1737939417362213,
          0.44289255142211914,
          0.11111277341842651,
          -0.11036813259124756,
          -0.3300909399986267,
          -0.09356184303760529,
          0.05579037964344025,
          0.038323774933815,
          -0.18425168097019196,
          -0.020605001598596573,
          -0.1085151731967926,
          -0.011845419183373451,
          -0.2374373823404312,
          -0.1465316116809845,
          -0.1634981483221054,
          -0.1045331358909607
        ],
        [
          0.0037836823612451553,
          0.2926325798034668,
          0.11540625989437103,
          -0.12007807195186615,
          -0.0713510513305664,
          -0.183232843875885,
          -0.3594937324523926,
          0.06370405852794647,
          -0.33518922328948975,
          -0.4429260790348053,
          -0.41996002197265625,
          -0.029680414125323296,
          0.11249825358390808,
          0.08727137744426727,
          -0.17600713670253754,
          -0.2419099658727646,
          -0.20655806362628937,
          -0.33967262506484985,
          -0.0633775070309639,
          0.10048715025186539,
          0.1168423518538475
        ],
        [
          0.017860854044556618,
          0.2997031509876251,
          -0.15012913942337036,
          -0.35887303948402405,
          0.06298302114009857,
          -0.1279912292957306,
          0.05790511518716812,
          0.25867730379104614,
          -0.21409600973129272,
          -0.09426772594451904,
          0.0003760479739867151,
          -0.32748186588287354,
          0.25633037090301514,
          -0.3638461232185364,
          0.2497493177652359,
          -0.31467750668525696,
          -0.09403197467327118,
          -0.05918603762984276,
          0.09760824590921402,
          0.1659756749868393,
          0.36369696259498596
        ],
        [
          0.28817692399024963,
          0.05153575539588928,
          0.019710395485162735,
          -0.22631293535232544,
          -0.010909019969403744,
          -0.19180475175380707,
          -0.13302458822727203,
          0.28950580954551697,
          -0.23509112000465393,
          0.2551296651363373,
          0.08851040154695511,
          0.08473540842533112,
          0.2206077128648758,
          -0.08343127369880676,
          0.05940220504999161,
          0.03177270293235779,
          0.2944374978542328,
          -0.33840450644493103,
          0.3524545729160309,
          -0.4412165582180023,
          0.12840604782104492
        ],
        [
          0.5117796063423157,
          0.08398571610450745,
          0.122845858335495,
          0.1148279532790184,
          0.2756102979183197,
          0.3764645457267761,
          0.01219992432743311,
          0.16482053697109222,
          -0.1276485025882721,
          0.2580273151397705,
          0.24791169166564941,
          0.3470412790775299,
          -0.1245434582233429,
          0.44172704219818115,
          0.10857044905424118,
          0.25766855478286743,
          0.4819762408733368,
          0.045749928802251816,
          -0.3391721844673157,
          0.45648887753486633,
          -0.014181740581989288
        ],
        [
          0.08473590016365051,
          -0.46535298228263855,
          0.01693647727370262,
          -0.5063620209693909,
          -0.007293749134987593,
          0.08422845602035522,
          -0.30163857340812683,
          -0.22622482478618622,
          0.21961988508701324,
          0.34094375371932983,
          -0.21635770797729492,
          -0.29282432794570923,
          0.03731429949402809,
          -0.4286368489265442,
          0.2649464011192322,
          -0.14660975337028503,
          -0.1122882291674614,
          -0.15868675708770752,
          -0.08151521533727646,
          0.1539486050605774,
          -0.0415225550532341
        ],
        [
          0.02011081948876381,
          -0.4044763743877411,
          0.4521820843219757,
          -0.04707179218530655,
          0.07082971930503845,
          -0.12964385747909546,
          -0.24243591725826263,
          0.19640885293483734,
          0.14330798387527466,
          0.39557188749313354,
          -0.3937675654888153,
          0.30640459060668945,
          0.13161307573318481,
          -0.5629381537437439,
          -0.03187813237309456,
          -0.43294715881347656,
          -0.10882879048585892,
          -0.1942819207906723,
          -0.18661357462406158,
          0.1390177607536316,
          -0.02184053137898445
        ],
        [
          -0.4658425748348236,
          0.27351415157318115,
          -0.10550683736801147,
          0.3711647093296051,
          0.16905948519706726,
          -0.1252254992723465,
          0.03792127966880798,
          0.15794245898723602,
          0.2514364421367645,
          -0.12075898051261902,
          0.43116480112075806,
          -0.3017319440841675,
          -0.26110273599624634,
          0.42329585552215576,
          -0.04104318842291832,
          0.3440713584423065,
          0.01750410906970501,
          -0.11628887802362442,
          0.4249202311038971,
          0.025420378893613815,
          0.08238106966018677
        ],
        [
          -0.048016175627708435,
          0.0251165721565485,
          -0.28138628602027893,
          0.08675236254930496,
          -0.13377942144870758,
          0.052623145282268524,
          0.3369796872138977,
          0.12773238122463226,
          -0.4006609320640564,
          0.11590391397476196,
          0.11673425137996674,
          -0.0019866186194121838,
          0.07611584663391113,
          0.26972752809524536,
          -0.0735689252614975,
          -0.1357126086950302,
          0.10045905411243439,
          -0.495291531085968,
          0.23112370073795319,
          0.11518315970897675,
          -0.11303050816059113
        ],
        [
          0.4216758608818054,
          -0.21649347245693207,
          0.21958935260772705,
          -0.17407894134521484,
          0.181718647480011,
          0.1895299106836319,
          0.4168371856212616,
          0.09878548234701157,
          -0.09937427192926407,
          0.39669907093048096,
          0.20037142932415009,
          0.19308117032051086,
          -0.02967817522585392,
          0.43156862258911133,
          -0.02003200724720955,
          0.4389522969722748,
          0.24058866500854492,
          0.05509248375892639,
          0.08263355493545532,
          0.10157554596662521,
          -0.07076887786388397
        ],
        [
          0.41566309332847595,
          0.17931902408599854,
          -0.29143765568733215,
          -0.06609001755714417,
          -0.31314605474472046,
          -0.16221152245998383,
          0.12627479434013367,
          0.018435390666127205,
          -0.049611806869506836,
          0.28703367710113525,
          -0.2864508628845215,
          -0.0005142927984707057,
          -0.0984034314751625,
          0.0383736826479435,
          0.04296104609966278,
          0.2340402901172638,
          -0.07437034696340561,
          -0.1653340607881546,
          0.03582557290792465,
          0.23967327177524567,
          -0.07281845062971115
        ],
        [
          0.3994275629520416,
          0.06293988972902298,
          0.3830743730068207,
          -0.04938581585884094,
          0.26458093523979187,
          0.08562091737985611,
          -0.4021569490432739,
          -0.06015997380018234,
          0.36783814430236816,
          0.2915817201137543,
          -0.10983121395111084,
          0.2019478976726532,
          -0.04563521593809128,
          0.001325757009908557,
          0.19316183030605316,
          -0.24455058574676514,
          0.2928118407726288,
          0.2888680696487427,
          0.06240943819284439,
          -0.19667652249336243,
          0.17929455637931824
        ],
        [
          0.028507661074399948,
          0.2651146352291107,
          0.06282830983400345,
          0.24720844626426697,
          -0.3198873996734619,
          -0.01611487939953804,
          -0.10289981961250305,
          -0.3187696933746338,
          0.005658362060785294,
          -0.36374837160110474,
          0.3182550370693207,
          -0.0483534149825573,
          0.11459609121084213,
          0.15378186106681824,
          -0.26442259550094604,
          0.12927106022834778,
          -0.040778908878564835,
          0.10699562728404999,
          0.369488388299942,
          -0.21806372702121735,
          -0.21325282752513885
        ],
        [
          0.3790706694126129,
          0.009274601005017757,
          -0.02408374659717083,
          0.10622943192720413,
          -0.09892868250608444,
          0.012521461583673954,
          0.420309454202652,
          0.06796469539403915,
          -0.161624014377594,
          0.10802261531352997,
          -0.2492642104625702,
          0.030679143965244293,
          0.32991939783096313,
          -0.0460321418941021,
          -0.12660379707813263,
          0.06018625944852829,
          0.18469645082950592,
          -0.15492931008338928,
          -0.18323731422424316,
          -0.2490968555212021,
          0.05707015097141266
        ],
        [
          -0.06218872591853142,
          0.0886971727013588,
          -0.11258339136838913,
          -0.16279169917106628,
          -0.16762514412403107,
          -0.10149814188480377,
          -0.21295276284217834,
          0.11362764984369278,
          -0.3100438117980957,
          -0.255073219537735,
          0.015385612845420837,
          0.16462120413780212,
          -0.13575302064418793,
          0.003676903434097767,
          0.2815936505794525,
          -0.3406875729560852,
          -0.019663222134113312,
          -0.27503326535224915,
          0.15960204601287842,
          -0.14791657030582428,
          -0.31943318247795105
        ],
        [
          0.23813608288764954,
          -0.291594922542572,
          0.23429350554943085,
          -0.3048110604286194,
          -0.09112593531608582,
          0.07241585850715637,
          -0.20613466203212738,
          0.3105732798576355,
          -0.17917361855506897,
          -0.009325502440333366,
          -0.37160173058509827,
          0.21805644035339355,
          0.18791764974594116,
          0.2840675711631775,
          0.010559984482824802,
          -0.10628900676965714,
          0.2087191939353943,
          0.02382647432386875,
          0.11470483243465424,
          -0.11798549443483353,
          0.008279317058622837
        ],
        [
          -0.18302111327648163,
          0.28126752376556396,
          -0.045428402721881866,
          -0.25472408533096313,
          -0.07096502184867859,
          -0.06978344172239304,
          -0.07903333008289337,
          0.13784165680408478,
          -0.14181458950042725,
          0.06722868233919144,
          -0.35535818338394165,
          0.14278383553028107,
          -0.29047322273254395,
          -0.03540606051683426,
          0.3211383521556854,
          0.16903658211231232,
          0.12503445148468018,
          0.18552573025226593,
          0.3156430125236511,
          0.010708664543926716,
          0.07815652340650558
        ],
        [
          0.15070442855358124,
          0.20215629041194916,
          0.4678831994533539,
          -0.15307773649692535,
          0.2540266811847687,
          -0.034011825919151306,
          0.31733348965644836,
          -0.387454092502594,
          0.4883195459842682,
          0.11066611111164093,
          0.36319172382354736,
          -0.0011818481143563986,
          0.06640438735485077,
          0.27350497245788574,
          0.14792369306087494,
          -0.012992069125175476,
          0.16278590261936188,
          0.6229910850524902,
          0.20085537433624268,
          -0.06733517348766327,
          0.10767140984535217
        ],
        [
          -0.2617344260215759,
          -0.18563275039196014,
          -0.04235076904296875,
          0.4839053153991699,
          -0.04078071936964989,
          -0.31369274854660034,
          0.20353077352046967,
          -0.08693376183509827,
          0.2044684737920761,
          -0.048531562089920044,
          0.2171369194984436,
          0.5558173656463623,
          0.21177764236927032,
          0.518349289894104,
          -0.3545148968696594,
          0.39660850167274475,
          -0.0034812940284609795,
          0.1315167099237442,
          0.06329764425754547,
          0.07311325520277023,
          0.1700933873653412
        ],
        [
          -0.35530343651771545,
          0.22074881196022034,
          -0.33619073033332825,
          -0.11985800415277481,
          -0.35690805315971375,
          0.09701578319072723,
          -0.2749137282371521,
          -0.014108775183558464,
          -0.2620678246021271,
          0.009832257404923439,
          -0.47334298491477966,
          0.10530753433704376,
          -0.044003069400787354,
          -0.14225439727306366,
          -0.02112448215484619,
          -0.003514909651130438,
          -0.06781154870986938,
          -0.3535172641277313,
          0.06664739549160004,
          -0.24629968404769897,
          0.13686491549015045
        ],
        [
          -0.08261588960886002,
          -0.04901731386780739,
          0.2564362585544586,
          -0.43154376745224,
          0.3308413028717041,
          -0.2124752402305603,
          -0.12066186219453812,
          -0.29473716020584106,
          -0.03363887220621109,
          -0.07387158274650574,
          -0.20929095149040222,
          -0.12211870402097702,
          -0.0650855228304863,
          0.32614561915397644,
          0.055929772555828094,
          0.305670827627182,
          -0.146677628159523,
          0.20497146248817444,
          0.2570294439792633,
          0.24393875896930695,
          -0.39159485697746277
        ],
        [
          -0.07937400043010712,
          -0.32210442423820496,
          0.10647336393594742,
          0.04961179569363594,
          0.3439154326915741,
          0.019208697602152824,
          -0.042893607169389725,
          -0.056735560297966,
          -0.20884205400943756,
          0.13242076337337494,
          -0.19632798433303833,
          -0.03535831719636917,
          0.3340488374233246,
          -0.12536518275737762,
          -0.1661710888147354,
          0.22954712808132172,
          0.1781310737133026,
          -0.1513150930404663,
          0.06650911271572113,
          0.18610504269599915,
          -0.37983423471450806
        ],
        [
          0.059879153966903687,
          0.08709151297807693,
          -0.07992259413003922,
          0.47885215282440186,
          -0.23943839967250824,
          0.19061511754989624,
          0.023259028792381287,
          -0.29191094636917114,
          0.14032919704914093,
          -0.2528376579284668,
          0.11706756055355072,
          0.22307923436164856,
          -0.2088971883058548,
          -0.21306492388248444,
          0.13248011469841003,
          0.2210879623889923,
          0.08567814528942108,
          0.1463610827922821,
          0.1951148509979248,
          -0.02400703728199005,
          -0.22487516701221466
        ],
        [
          0.3749130368232727,
          0.10202395915985107,
          0.07582546025514603,
          0.17015166580677032,
          -0.17838449776172638,
          0.04595376178622246,
          -0.08986276388168335,
          -0.045341312885284424,
          0.11562943458557129,
          0.22206571698188782,
          0.059238553047180176,
          -0.2744622528553009,
          -0.19716806709766388,
          -0.014544297941029072,
          0.031640127301216125,
          -0.3263055682182312,
          0.3395158052444458,
          0.06200110539793968,
          -0.4004634618759155,
          0.32554781436920166,
          0.14072468876838684
        ],
        [
          -0.23720501363277435,
          0.10110915452241898,
          -0.2603365182876587,
          -0.0024756304919719696,
          0.16803373396396637,
          0.13599403202533722,
          0.3074113130569458,
          -0.15769228339195251,
          -0.08895048499107361,
          -0.09641798585653305,
          0.08119379729032516,
          0.09249237924814224,
          0.06119224801659584,
          -0.0739082396030426,
          -0.22412556409835815,
          -0.2817627489566803,
          -0.11099451035261154,
          -0.3056028485298157,
          0.3202027976512909,
          0.011040326207876205,
          -0.42141085863113403
        ],
        [
          -0.404114693403244,
          0.20639847218990326,
          -0.15098708868026733,
          0.10792555660009384,
          -0.1296394318342209,
          -0.0901867002248764,
          0.01746959239244461,
          -0.013378331437706947,
          0.17012543976306915,
          0.20333069562911987,
          0.19841589033603668,
          -0.07484257221221924,
          -0.11287128180265427,
          -0.05446631461381912,
          -0.17968936264514923,
          0.06689730286598206,
          -0.03858402743935585,
          -0.0856645330786705,
          -0.3284560441970825,
          0.26293933391571045,
          0.015528412535786629
        ],
        [
          0.38977986574172974,
          -0.07038263976573944,
          0.002849557902663946,
          -0.06962008774280548,
          -0.257813036441803,
          -0.12525632977485657,
          0.16005493700504303,
          -0.1614653468132019,
          0.25702622532844543,
          -0.0007183468551374972,
          0.058100875467061996,
          0.31901371479034424,
          0.14027608931064606,
          0.24445557594299316,
          0.09299307316541672,
          -0.04987207055091858,
          -0.17357076704502106,
          0.014885451644659042,
          0.1692337542772293,
          0.17416474223136902,
          0.16771887242794037
        ],
        [
          -0.0583188533782959,
          -0.028813552111387253,
          -0.24997347593307495,
          -0.00972077064216137,
          -0.2633385956287384,
          -0.021429983898997307,
          0.24060547351837158,
          0.09447254240512848,
          -0.12883394956588745,
          -0.17305274307727814,
          -0.28116464614868164,
          0.3283900320529938,
          -0.2993358373641968,
          0.299142986536026,
          0.2864154279232025,
          0.08257404714822769,
          -0.016600148752331734,
          0.18901854753494263,
          0.1415165811777115,
          0.2150735855102539,
          0.25773921608924866
        ],
        [
          -0.04782173037528992,
          0.1195351779460907,
          0.10187188535928726,
          -0.42627885937690735,
          0.08134754002094269,
          -0.09141182154417038,
          -0.11550356447696686,
          -0.006935042329132557,
          -0.017344433814287186,
          -0.01950160413980484,
          -0.22420746088027954,
          0.16556097567081451,
          0.26894158124923706,
          -0.058256179094314575,
          -0.138057142496109,
          0.11131758242845535,
          -0.29854533076286316,
          -0.20044727623462677,
          -0.12301041930913925,
          0.1680258959531784,
          -0.08820860832929611
        ],
        [
          -0.03810973837971687,
          -0.22456201910972595,
          -0.23718437552452087,
          -0.10526659339666367,
          -0.011510545387864113,
          0.0005381347145885229,
          0.13969293236732483,
          0.040527813136577606,
          0.3022310137748718,
          0.20754672586917877,
          0.02775575965642929,
          0.009646343998610973,
          -0.25270047783851624,
          0.030655091628432274,
          0.2592105567455292,
          -0.1492796391248703,
          -0.09308682382106781,
          -0.06416668742895126,
          -0.3674173951148987,
          0.09885358810424805,
          0.19200505316257477
        ],
        [
          0.02033582143485546,
          0.1294686198234558,
          -0.3013063371181488,
          -0.3698035180568695,
          0.07998358458280563,
          -0.2644205093383789,
          0.12303750216960907,
          0.04040709510445595,
          0.19667576253414154,
          0.09674939513206482,
          -0.3199135661125183,
          -0.0336507111787796,
          -0.1089918315410614,
          -0.18669050931930542,
          0.1970284879207611,
          0.011937519535422325,
          -0.36992332339286804,
          -0.21577952802181244,
          0.23476362228393555,
          -0.06383496522903442,
          0.30871137976646423
        ],
        [
          0.0561211034655571,
          -0.36383095383644104,
          0.12333264201879501,
          0.3612278997898102,
          0.2357957363128662,
          0.012901682406663895,
          -0.34163543581962585,
          -0.10229017585515976,
          0.17085303366184235,
          -0.0683080330491066,
          -0.055591944605112076,
          -0.09169789403676987,
          0.18276768922805786,
          -0.1654253453016281,
          -0.20099398493766785,
          -0.2238878309726715,
          0.26795706152915955,
          0.02172468602657318,
          0.1336704045534134,
          -0.16746552288532257,
          0.3648870885372162
        ],
        [
          -0.294914573431015,
          0.05110966041684151,
          -0.01789485290646553,
          -0.19795262813568115,
          -0.19755198061466217,
          0.0031204361002892256,
          -0.0015390485059469938,
          -0.16060204803943634,
          0.08493797481060028,
          -0.38279789686203003,
          0.1778612732887268,
          0.3425962030887604,
          0.007181993685662746,
          0.03825175017118454,
          -0.2797715961933136,
          0.2459789216518402,
          0.1331642121076584,
          0.22126390039920807,
          0.044092293828725815,
          0.06237579137086868,
          0.29270151257514954
        ],
        [
          -0.17041648924350739,
          -0.19148796796798706,
          -0.1692146509885788,
          0.30000218749046326,
          0.19158871471881866,
          0.16481435298919678,
          -0.2532317340373993,
          0.1876840442419052,
          -0.14776894450187683,
          -0.02289445884525776,
          0.18182116746902466,
          -0.3473063111305237,
          0.17662999033927917,
          0.11436934769153595,
          -0.22071269154548645,
          0.14354495704174042,
          -0.09564610570669174,
          -0.035955194383859634,
          -0.026265159249305725,
          -0.3195309638977051,
          0.030842892825603485
        ],
        [
          0.11534523963928223,
          0.014549791812896729,
          -0.09246664494276047,
          0.21119125187397003,
          0.1058051809668541,
          -0.10148012638092041,
          -0.16047875583171844,
          -0.1420612633228302,
          -0.057386402040719986,
          0.11107844114303589,
          0.28224751353263855,
          -0.029058460146188736,
          0.1967918425798416,
          0.08542156219482422,
          -0.12726154923439026,
          -0.1576244831085205,
          0.2601999342441559,
          0.17615580558776855,
          0.05803085118532181,
          -0.2254902869462967,
          0.21900992095470428
        ],
        [
          -0.3195933699607849,
          0.179421529173851,
          -0.001172986114397645,
          0.25879013538360596,
          -0.25751426815986633,
          -0.09669110178947449,
          0.09712529182434082,
          0.2931895852088928,
          -0.20958544313907623,
          0.3719088137149811,
          -0.08004747331142426,
          -0.2699955105781555,
          -0.1878608614206314,
          -0.023588554933667183,
          0.07247807830572128,
          0.07976167649030685,
          -0.028941888362169266,
          -0.20910190045833588,
          -0.2526558041572571,
          0.21605531871318817,
          -0.08023147284984589
        ],
        [
          -0.3370848000049591,
          0.007003889884799719,
          0.010392171330749989,
          0.17906410992145538,
          0.009230532683432102,
          0.19979740679264069,
          -0.0647573173046112,
          -0.038436707109212875,
          -0.0033087211195379496,
          0.13409210741519928,
          0.28494054079055786,
          -0.06497375667095184,
          0.23539555072784424,
          0.28423428535461426,
          -0.10346829146146774,
          0.04808175936341286,
          -0.10802066326141357,
          0.1703011840581894,
          -0.09757450968027115,
          0.09850142151117325,
          -0.02323264442384243
        ],
        [
          -0.24222184717655182,
          -0.19605974853038788,
          -0.21953044831752777,
          -0.13230560719966888,
          0.0773141160607338,
          0.07510530948638916,
          0.29072847962379456,
          -0.16084223985671997,
          -0.11954662203788757,
          -0.2648651897907257,
          0.22430017590522766,
          0.030134988948702812,
          -0.32094240188598633,
          0.4336366653442383,
          -0.08747399598360062,
          0.4093126654624939,
          -0.025759149342775345,
          0.03894377872347832,
          0.45087143778800964,
          -0.34159985184669495,
          -0.015656564384698868
        ],
        [
          0.07494635134935379,
          -0.38909074664115906,
          0.2939366400241852,
          -0.2080988883972168,
          0.35363632440567017,
          -0.235115647315979,
          -0.2670225501060486,
          0.21957147121429443,
          -0.047537799924612045,
          0.23675888776779175,
          0.17513948678970337,
          0.16082674264907837,
          -0.2615639269351959,
          0.05908682942390442,
          -0.22746248543262482,
          0.1291235238313675,
          -0.3571872413158417,
          0.17708267271518707,
          -0.019900452345609665,
          -0.09805771708488464,
          -0.2996342182159424
        ],
        [
          0.3090839684009552,
          -0.14598193764686584,
          0.31029701232910156,
          0.03865978866815567,
          0.1265334188938141,
          0.08819123357534409,
          -0.05189967155456543,
          0.11303071677684784,
          -0.25175321102142334,
          0.15561777353286743,
          -0.16217708587646484,
          0.33934417366981506,
          -0.09088893979787827,
          0.33709487318992615,
          0.27682095766067505,
          -0.09637471288442612,
          0.3682428300380707,
          -0.015221443958580494,
          -0.3267520070075989,
          0.24779710173606873,
          0.1436544805765152
        ],
        [
          0.3521255850791931,
          -0.2496403306722641,
          0.3232254981994629,
          0.38221868872642517,
          0.3362552523612976,
          0.0022727609612047672,
          -0.39984339475631714,
          0.37715595960617065,
          0.30036836862564087,
          -0.18787416815757751,
          -0.1729358732700348,
          0.43061578273773193,
          0.3885215222835541,
          0.16792303323745728,
          -0.002757246373221278,
          -0.30697500705718994,
          -0.0028843553736805916,
          -0.04858837276697159,
          -0.08077467978000641,
          0.3059898316860199,
          -0.28149980306625366
        ],
        [
          -0.04346238821744919,
          -0.13878324627876282,
          -0.3296170234680176,
          0.2342030107975006,
          -0.2234838604927063,
          0.17891442775726318,
          -0.12797583639621735,
          0.048693958669900894,
          0.006159752141684294,
          0.17128294706344604,
          -0.1511860340833664,
          0.42185792326927185,
          0.18050645291805267,
          0.27679964900016785,
          -0.2660748362541199,
          -0.033201076090335846,
          -0.23824255168437958,
          -0.05009705573320389,
          0.014203505590558052,
          -0.0038041474763303995,
          0.161644846200943
        ],
        [
          0.06263123452663422,
          -0.24642403423786163,
          -0.17473731935024261,
          0.20344486832618713,
          0.011311260983347893,
          0.0586073063313961,
          -0.23961864411830902,
          -0.014414472505450249,
          0.03203318268060684,
          -0.2697274088859558,
          0.275736540555954,
          0.012608409859240055,
          -0.17948275804519653,
          -0.19567835330963135,
          -0.09293954074382782,
          0.05825556442141533,
          -0.19129875302314758,
          0.21055088937282562,
          -0.4078681468963623,
          0.03158601000905037,
          -0.23469620943069458
        ],
        [
          0.08529190719127655,
          0.12994343042373657,
          -0.1905655562877655,
          0.31117427349090576,
          -0.3790217339992523,
          0.11500745266675949,
          -0.3278377056121826,
          0.02607339434325695,
          -0.293567955493927,
          -0.38676872849464417,
          -0.30468234419822693,
          0.20029175281524658,
          -0.2655564844608307,
          0.14265787601470947,
          -0.08850818872451782,
          -0.2764437198638916,
          0.10347200185060501,
          0.18490956723690033,
          -0.10675353556871414,
          0.20749521255493164,
          0.03593108057975769
        ]
      ],
      "b": [
        0.06002679094672203,
        0.0011044872226193547,
        -0.2080467790365219,
        -0.13074225187301636,
        -0.17109647393226624,
        -0.11142794787883759,
        0.08679278194904327,
        0.05341934785246849,
        -0.08935075998306274,
        0.1406722366809845,
        0.212934210896492,
        -0.08951044082641602,
        0.19582527875900269,
        -0.06316246837377548,
        -0.022488530725240707,
        0.12171655148267746,
        0.026101067662239075,
        -0.09574930369853973,
        -0.10504775494337082,
        0.07125313580036163,
        -0.03699467331171036,
        0.07693812996149063,
        -0.1950797587633133,
        -0.01271328516304493,
        -0.09882815927267075,
        -0.03287127614021301,
        -0.18117083609104156,
        0.03017725981771946,
        -0.059927307069301605,
        -0.03751547262072563,
        -0.12314848601818085,
        0.1203288733959198,
        -0.10972677171230316,
        0.09479176253080368,
        -0.006394092459231615,
        0.10605640709400177,
        -0.03541261702775955,
        -0.13656871020793915,
        0.1280377209186554,
        0.22297118604183197,
        0.06613783538341522,
        0.05258737877011299,
        0.03934703767299652,
        -0.15103022754192352,
        0.13545286655426025,
        0.04282050579786301,
        0.03485233709216118,
        -0.06337296217679977,
        -0.055310431867837906,
        -0.10273104906082153,
        -0.09704244881868362,
        0.06820150464773178,
        0.019625307992100716,
        0.046193234622478485,
        0.06166251376271248,
        -0.0578499473631382,
        0.10236173123121262,
        0.06591525673866272,
        0.013398249633610249,
        0.12544091045856476,
        -0.1028270348906517,
        -0.036337316036224365,
        0.06864644587039948,
        0.11304061859846115
      ]
    },
    {
      "type": "gcn",
      "act": "tanh",
      "W": [
        [
          -0.11264615505933762,
          0.29244545102119446,
          0.058078035712242126,
          0.200254425406456,
          -0.17622390389442444,
          -0.1711081862449646,
          0.17239002883434296,
          0.10524804890155792,
          -0.245953768491745,
          -0.2608005404472351,
          -0.2377936840057373,
          0.23227588832378387,
          0.13552434742450714,
          0.5379652380943298,
          -0.14107772707939148,
          0.36494889855384827,
          0.5874248147010803,
          0.04130002483725548,
          -0.0836339071393013,
          0.19765827059745789,
          -0.010961199179291725,
          -0.033974695950746536,
          0.06304340064525604,
          -0.1624150425195694,
          0.017981676384806633,
          -0.02840387262403965,
          -0.03702796623110771,
          0.19640737771987915,
          0.6821060180664062,
          -0.1751575917005539,
          0.18399092555046082,
          -0.4226413667201996,
          0.2193763107061386,
          -0.0697520300745964,
          0.41506123542785645,
          0.08153583109378815,
          0.10504462569952011,
          -0.018970420584082603,
          -0.043121326714754105,
          0.0008968528709374368,
          -0.3870026469230652,
          0.3577389717102051,
          0.18215148150920868,
          -0.27569177746772766,
          0.19315847754478455,
          -0.06860138475894928,
          -0.2531143128871918,
          0.4830252230167389,
          -0.14428789913654327,
          -0.3158654272556305,
          -0.0759163424372673,
          -0.10996358841657639,
          -0.18038636445999146,
          0.2017890363931656,
          -0.08250541239976883,
          0.31687143445014954,
          0.07958118617534637,
          0.44565922021865845,
          0.083717480301857,
          -0.023320529609918594,
          -0.06444676965475082,
          0.20337656140327454,
          -0.11118907481431961,
          0.003630829742178321
        ],
        [
          -0.3227394223213196,
          -0.018287356942892075,
          -0.017575277015566826,
          0.03276820853352547,
          0.3107183575630188,
          -0.24985332787036896,
          0.1777789145708084,
          0.25903165340423584,
          0.3355183005332947,
          0.29962775111198425,
          0.22275541722774506,
          0.005865488201379776,
          0.2411300539970398,
          -0.06633751094341278,
          -0.03631570562720299,
          0.2918384075164795,
          0.0483841709792614,
          -0.3650992810726166,
          0.035158589482307434,
          -0.052504245191812515,
          -0.057899050414562225,
          -0.04329341650009155,
          -0.16729529201984406,
          -0.0458504855632782,
          0.2746768593788147,
          -0.12857253849506378,
          0.23293909430503845,
          -0.22634316980838776,
          0.06898223608732224,
          0.22974270582199097,
          0.07328549772500992,
          0.26942551136016846,
          -0.37366238236427307,
          0.2735500931739807,
          -0.3072860836982727,
          0.0065203155390918255,
          -0.20975996553897858,
          0.15697890520095825,
          0.0476035438477993,
          -0.22087407112121582,
          0.03764926269650459,
          0.14126157760620117,
          -0.19872698187828064,
          0.07453987747430801,
          -0.1923227608203888,
          0.3368590176105499,
          0.329114705324173,
          0.041658077389001846,
          0.0809163749217987,
          -0.11881871521472931,
          -0.4784524440765381,
          0.09608890116214752,
          0.08864790201187134,
          -0.09953724592924118,
          0.2960955798625946,
          0.18192516267299652,
          0.35513076186180115,
          -0.13560274243354797,
          -0.12930341064929962,
          0.7174157500267029,
          0.1490613967180252,
          0.10441169142723083,
          0.17056693136692047,
          0.30980992317199707
        ],
        [
          0.12940512597560883,
          -0.01866176165640354,
          0.1565837264060974,
          0.12550093233585358,
          0.039988111704587936,
          -0.14631037414073944,
          0.09756410121917725,
          -0.06712391972541809,
          0.11429156363010406,
          0.10420531779527664,
          -0.12799400091171265,
          -0.06417859345674515,
          -0.0937027856707573,
          0.030323388054966927,
          0.3978056311607361,
          0.1352883279323578,
          0.41510939598083496,
          -0.08354843407869339,
          -0.465021014213562,
          0.3181033432483673,
          -0.18442890048027039,
          0.15537698566913605,
          0.1616843342781067,
          0.0064279064536094666,
          0.15214994549751282,
          -0.2584417760372162,
          -0.05580373480916023,
          0.15568585693836212,
          0.21958498656749725,
          0.10481833666563034,
          0.1954985111951828,
          -0.18461227416992188,
          -0.06648263335227966,
          -0.22747410833835602,
          0.41039612889289856,
          0.20509740710258484,
          0.34425678849220276,
          -0.08438917994499207,
          0.031921640038490295,
          0.08679825812578201,
          -0.24187321960926056,
          -0.16823160648345947,
          -0.0549476221203804,
          -0.4434502124786377,
          0.18160033226013184,
          -0.19771039485931396,
          -0.3718424141407013,
          0.32482486963272095,
          -0.1369488388299942,
          -0.08402380347251892,
          0.08411754667758942,
          0.06301296502351761,
          -0.25334304571151733,
          0.16165609657764435,
          -0.27057355642318726,
          0.02393428608775139,
          -0.3648442327976227,
          0.004465342964977026,
          0.11443279683589935,
          0.1469295173883438,
          -0.12957650423049927,
          0.09248610585927963,
          -0.012038733810186386,
          0.29431670904159546
        ],
        [
          0.014330972917377949,
          -0.1731642633676529,
          0.20378704369068146,
          -0.31970077753067017,
          0.16366538405418396,
          0.16236171126365662,
          0.5531596541404724,
          -0.08680803328752518,
          -0.07906671613454819,
          -0.12858428061008453,
          0.015345963649451733,
          -0.15282705426216125,
          -0.2606762945652008,
          -0.2852872610092163,
          0.19059918820858002,
          -0.03800296038389206,
          -0.26768025755882263,
          -0.15085835754871368,
          -0.10532819479703903,
          -0.17290975153446198,
          -0.06414525955915451,
          -0.1411866843700409,
          -0.23155704140663147,
          -0.10403894633054733,
          0.11457426100969315,
          0.27243658900260925,
          0.2861775755882263,
          -0.3207635283470154,
          -0.4868951141834259,
          0.17664311826229095,
          -0.17345385253429413,
          0.15711046755313873,
          -0.4712725877761841,
          -0.1116439700126648,
          -0.3072907030582428,
          -0.011533851735293865,
          -0.5194920301437378,
          -0.20430748164653778,
          0.10173732787370682,
          0.0717514157295227,
          0.30113092064857483,
          0.4558209180831909,
          -0.11897540092468262,
          0.2227475494146347,
          -0.004296647384762764,
          -0.1138170063495636,
          -0.21122431755065918,
          -0.5475572347640991,
          0.29438209533691406,
          0.294571191072464,
          -0.2393961399793625,
          -0.05027564987540245,
          -0.31644338369369507,
          0.22626110911369324,
          -0.1588275283575058,
          0.20821422338485718,
          -0.003209674032405019,
          -0.05339222773909569,
          0.4801975190639496,
          0.3554176986217499,
          0.319612592458725,
          -0.2696564495563507,
          0.2280518114566803,
          -0.10820291936397552
        ],
        [
          -0.004068818874657154,
          0.055649034678936005,
          -0.22280791401863098,
          0.1824956089258194,
          -0.16724923253059387,
          -0.0975506454706192,
          -0.1952507197856903,
          -0.34270432591438293,
          0.06682412326335907,
          0.016820769757032394,
          0.18421413004398346,
          0.03372553735971451,
          -0.09601198136806488,
          -0.25752681493759155,
          0.09586681425571442,
          -0.03768479451537132,
          0.05764453485608101,
          -0.1112101674079895,
          0.2279043197631836,
          -0.06811700016260147,
          0.0909268707036972,
          -0.020036693662405014,
          0.09740723669528961,
          0.045873239636421204,
          0.04253404214978218,
          0.0841507837176323,
          -0.47117185592651367,
          0.14413538575172424,
          -0.13969872891902924,
          0.014398074708878994,
          0.2502979636192322,
          0.09507904201745987,
          0.04181883484125137,
          0.0368620939552784,
          0.01412831712514162,
          -0.16541878879070282,
          0.240871861577034,
          -0.1593596190214157,
          -0.01341607328504324,
          -0.14493073523044586,
          0.09946724772453308,
          -0.3606736958026886,
          -0.05909131467342377,
          -0.03525785729289055,
          0.295383483171463,
          0.1742442399263382,
          0.12601739168167114,
          0.08333320915699005,
          0.186094269156456,
          -0.04056190326809883,
          0.023340994492173195,
          -0.5460819602012634,
          -0.053373076021671295,
          -0.0800812765955925,
          -0.4147339165210724,
          0.24116429686546326,
          -0.011458157561719418,
          0.33164381980895996,
          -0.22534286975860596,
          -0.11250251531600952,
          -0.2398669719696045,
          0.0553111806511879,
          -0.12877190113067627,
          0.14365923404693604
        ],
        [
          -0.49892914295196533,
          0.42984455823898315,
          -0.34902244806289673,
          -0.2616316080093384,
          -0.24892883002758026,
          -0.16439515352249146,
          -0.1877383440732956,
          0.4393256604671478,
          0.08186128735542297,
          0.4189474284648895,
          -0.0016791383968666196,
          0.17681334912776947,
          0.3844878673553467,
          -0.020441731438040733,
          -0.02558545395731926,
          0.08413010090589523,
          0.2780782878398895,
          -0.14372926950454712,
          0.23516836762428284,
          0.21541114151477814,
          -0.20292800664901733,
          0.020702458918094635,
          -0.3786522448062897,
          -0.09170050919055939,
          -0.18121649324893951,
          -0.40641164779663086,
          -0.130978062748909,
          0.50333172082901,
          -0.12238340824842453,
          0.18332058191299438,
          -0.4034227430820465,
          -0.18742606043815613,
          0.25226476788520813,
          -0.06445380300283432,
          -0.13079127669334412,
          0.18042975664138794,
          0.02017558366060257,
          -0.21179324388504028,
          0.511123776435852,
          0.15756657719612122,
          -0.1067972332239151,
          -0.22725661098957062,
          0.17663119733333588,
          0.038932427763938904,
          0.03945082798600197,
          0.15851329267024994,
          -0.14840279519557953,
          0.02227865345776081,
          -0.273760050535202,
          -0.34210169315338135,
          -0.19867511093616486,
          -0.07832454144954681,
          0.31462717056274414,
          0.26732686161994934,
          0.2129317969083786,
          -0.10655687004327774,
          0.16640855371952057,
          0.05952770635485649,
          0.11259476095438004,
          -0.1619471162557602,
          -0.11185892671346664,
          0.11183947324752808,
          -0.08242933452129364,
          -0.018722640350461006
        ],
        [
          -0.34344738721847534,
          -0.24838323891162872,
          0.20907212793827057,
          -0.4054564833641052,
          0.2286967784166336,
          -0.07696474343538284,
          0.03106517717242241,
          0.048319704830646515,
          -0.16968800127506256,
          -0.1546403467655182,
          -0.13991396129131317,
          -0.1994936317205429,
          -0.4144115746021271,
          -0.3404168486595154,
          0.03505251556634903,
          -0.33924731612205505,
          -0.5410988926887512,
          -0.28066617250442505,
          0.23064206540584564,
          -0.09385397285223007,
          0.15228961408138275,
          -0.32554033398628235,
          0.07367188483476639,
          -0.4261170029640198,
          0.17846445739269257,
          0.15262162685394287,
          0.12729781866073608,
          -0.4267004132270813,
          -0.5766223073005676,
          -0.0025485979858785868,
          0.048361729830503464,
          -0.019084300845861435,
          -0.06834819912910461,
          -0.17830312252044678,
          -0.2489214837551117,
          -0.3376932442188263,
          -0.07200053334236145,
          0.03880561515688896,
          -0.09375923126935959,
          -0.3835952877998352,
          -0.08880925923585892,
          -0.32442706823349,
          0.0988353043794632,
          0.7379646897315979,
          -0.5737435817718506,
          0.07268752157688141,
          0.17231670022010803,
          0.2666700482368469,
          0.24308493733406067,
          0.4855424165725708,
          -0.26408010721206665,
          -0.28944724798202515,
          0.14662714302539825,
          -0.8212487101554871,
          -0.2945507764816284,
          -0.005979069042950869,
          -0.11683821678161621,
          -0.3438521921634674,
          -0.10409092158079147,
          0.03992940112948418,
          0.1497533768415451,
          -0.39206641912460327,
          -0.08882958441972733,
          -0.20570513606071472
        ],
        [
          0.17065079510211945,
          -0.0009181929635815322,
          0.19874697923660278,
          0.14858658611774445,
          0.04290343448519707,
          0.1436150223016739,
          -0.2827606201171875,
          -0.050631165504455566,
          0.07246845215559006,
          -0.00834629125893116,
          0.300131231546402,
          -0.013650945387780666,
          0.28579744696617126,
          0.06267253309488297,
          -0.0068205189891159534,
          -0.2501358091831207,
          -0.19793087244033813,
          0.008086903020739555,
          0.24873630702495575,
          0.04876179248094559,
          0.1587592512369156,
          0.002493377774953842,
          0.204666867852211,
          0.0352177657186985,
          -0.04760894551873207,
          -0.14656856656074524,
          -0.0039156717248260975,
          0.2784062922000885,
          0.3333209753036499,
          -0.22285468876361847,
          -0.1039608046412468,
          -0.020870380103588104,
          0.5185938477516174,
          -0.1289670616388321,
          -0.12867693603038788,
          -0.29731619358062744,
          -0.056320518255233765,
          0.19381172955036163,
          -0.24629010260105133,
          0.14764364063739777,
          0.06354187428951263,
          0.07087138295173645,
          0.4365561902523041,
          -0.1762465536594391,
          0.222829207777977,
          0.063216432929039,
          0.0320793092250824,
          -0.36964350938796997,
          -0.1492764800786972,
          -0.13480491936206818,
          -0.2371940016746521,
          0.3400741219520569,
          0.07909353822469711,
          0.06952007114887238,
          0.2883073687553406,
          0.021168887615203857,
          -0.06800105422735214,
          0.06057066097855568,
          -0.2776334285736084,
          -0.2455439418554306,
          -0.026293616741895676,
          -0.14531844854354858,
          0.315243124961853,
          -0.18396374583244324
        ],
        [
          0.24508440494537354,
          0.11849041283130646,
          0.12647263705730438,
          0.06981897354125977,
          -0.09055386483669281,
          -0.14901389181613922,
          0.12170971184968948,
          0.2764824330806732,
          0.07179649919271469,
          0.02036191150546074,
          0.2339104413986206,
          0.1006438210606575,
          0.285531222820282,
          0.030851542949676514,
          -0.03467477485537529,
          -0.1204671710729599,
          -0.13287651538848877,
          -0.10010826587677002,
          -0.08217333257198334,
          0.0034645714331418276,
          -0.16192187368869781,
          0.21248759329319,
          0.1237298920750618,
          -0.214323028922081,
          -0.06980744004249573,
          0.22324441373348236,
          0.12900009751319885,
          0.021103523671627045,
          -0.10322929918766022,
          -0.05138631910085678,
          -0.36786895990371704,
          -0.14160530269145966,
          -0.11510829627513885,
          0.06439649313688278,
          -0.2966673672199249,
          -0.01154713612049818,
          -0.17635953426361084,
          -0.04493572935461998,
          0.08739706128835678,
          -0.09357315301895142,
          0.09434466063976288,
          0.13009946048259735,
          -0.28121304512023926,
          0.16546882688999176,
          0.10347312688827515,
          -0.017381105571985245,
          0.03847481682896614,
          -0.34649765491485596,
          0.1594121903181076,
          -0.06110779196023941,
          -0.2308729737997055,
          0.27008408308029175,
          0.2743431031703949,
          0.21368680894374847,
          0.1280278116464615,
          -0.006688119377940893,
          0.25240659713745117,
          0.08391083031892776,
          0.13182830810546875,
          0.11610671877861023,
          0.18475230038166046,
          0.26618850231170654,
          0.22163747251033783,
          -0.25455182790756226
        ],
        [
          -0.08878067880868912,
          -0.2829555571079254,
          0.5092459321022034,
          -0.04647526517510414,
          0.3436921238899231,
          -0.030625296756625175,
          0.051594674587249756,
          0.07530726492404938,
          -0.15385589003562927,
          -0.32802918553352356,
          -0.14354047179222107,
          -0.144737109541893,
          -0.3201717734336853,
          0.21207426488399506,
          0.005607837811112404,
          -0.0894295796751976,
          0.37202492356300354,
          0.0542137548327446,
          -0.049697548151016235,
          0.16019083559513092,
          0.06625059247016907,
          -0.05110087990760803,
          0.14748266339302063,
          -0.0473431833088398,
          0.1625043898820877,
          0.3128429353237152,
          0.45233669877052307,
          -0.6493141055107117,
          0.2646619975566864,
          -0.16677536070346832,
          0.0175776444375515,
          -0.20215173065662384,
          -0.2793342173099518,
          0.24446061253547668,
          -0.2667468190193176,
          -0.05403308942914009,
          -0.08267070353031158,
          0.08158058673143387,
          -0.10703949630260468,
          -0.12415749579668045,
          -0.07740509510040283,
          0.3606392443180084,
          -0.3370795249938965,
          -0.07576160132884979,
          0.08487770706415176,
          -0.15601691603660583,
          -0.11520088464021683,
          -0.09072259813547134,
          0.028070561587810516,
          -0.10494348406791687,
          0.2355240434408188,
          0.25740328431129456,
          -0.03353295475244522,
          0.044363442808389664,
          -0.07843106985092163,
          0.01051410660147667,
          -0.2983038127422333,
          -0.32564952969551086,
          0.3428254723548889,
          0.007810648530721664,
          0.26586151123046875,
          0.25940048694610596,
          0.09453919529914856,
          -0.14738771319389343
        ],
        [
          -0.06453877687454224,
          0.0463174544274807,
          0.03226177394390106,
          -0.1649734526872635,
          -0.2511526942253113,
          -0.20556266605854034,
          0.291899710893631,
          0.1347004771232605,
          -0.2239285409450531,
          0.19575537741184235,
          0.04881509020924568,
          -0.2629386782646179,
          0.3764345049858093,
          0.0029766960069537163,
          -0.2226007729768753,
          0.2115003913640976,
          -0.0027824619319289923,
          -0.1589701920747757,
          0.19908827543258667,
          0.15418174862861633,
          -0.14826761186122894,
          -0.24333178997039795,
          -0.18899355828762054,
          0.06967222690582275,
          -0.26398971676826477,
          -0.0829525887966156,
          0.08522666245698929,
          -0.20465223491191864,
          -0.1220281794667244,
          0.10982261598110199,
          -0.10361413657665253,
          -0.21479639410972595,
          -0.22367312014102936,
          0.2853262424468994,
          0.15309898555278778,
          0.004953897558152676,
          0.1727387011051178,
          0.15997906029224396,
          0.32087165117263794,
          -0.07000553607940674,
          -0.056362561881542206,
          0.4066493511199951,
          0.09249119460582733,
          -0.16673876345157623,
          0.2247409075498581,
          0.08588364720344543,
          -0.16259746253490448,
          -0.38520586490631104,
          -0.29421865940093994,
          -0.31728729605674744,
          -0.19288240373134613,
          0.007261242717504501,
          -0.24575988948345184,
          0.23476442694664001,
          0.2942585051059723,
          0.20113404095172882,
          0.2771150767803192,
          -0.02311733178794384,
          -0.03596234694123268,
          -0.21768724918365479,
          -0.05734947696328163,
          0.10997522622346878,
          0.07735025882720947,
          -0.10222422331571579
        ],
        [
          -0.13490426540374756,
          -0.14854294061660767,
          -0.16463112831115723,
          -0.2841761112213135,
          0.042981624603271484,
          -0.09601662307977676,
          -0.10264396667480469,
          -0.04712975397706032,
          0.05091753974556923,
          0.21457023918628693,
          -0.10812193155288696,
          0.0888182669878006,
          -0.1821739226579666,
          -0.18985767662525177,
          0.3268105983734131,
          -0.023253072053194046,
          0.07464414834976196,
          -0.00720951845869422,
          -0.5773374438285828,
          0.22375452518463135,
          -0.16784049570560455,
          0.07619384676218033,
          -0.18652528524398804,
          -0.12983185052871704,
          -0.091517873108387,
          -0.011927966959774494,
          0.2223566472530365,
          -0.17808252573013306,
          -0.42660894989967346,
          0.10164067149162292,
          -0.42336979508399963,
          0.39292266964912415,
          0.12897247076034546,
          -0.2204076200723648,
          0.09374900162220001,
          0.33335205912590027,
          0.2603638470172882,
          0.19395215809345245,
          0.10150440782308578,
          0.0631541907787323,
          0.08841945976018906,
          -0.07200102508068085,
          0.3010868430137634,
          -0.4039730727672577,
          -0.048355743288993835,
          -0.2259240597486496,
          0.2922469675540924,
          0.09650195389986038,
          0.1598421186208725,
          0.022951841354370117,
          0.08818914741277695,
          0.17745260894298553,
          0.1868404895067215,
          -0.28382763266563416,
          0.18491719663143158,
          -0.48352089524269104,
          0.17869128286838531,
          -0.03533891215920448,
          0.327433317899704,
          0.08125405013561249,
          -0.0804036483168602,
          0.12202958017587662,
          -0.023135153576731682,
          0.0022839356679469347
        ],
        [
          -0.20043794810771942,
          0.2537458539009094,
          0.13202840089797974,
          0.265807181596756,
          0.052585333585739136,
          0.07097731530666351,
          0.21854093670845032,
          0.33415287733078003,
          0.2541622519493103,
          -0.11089745163917542,
          -0.04144230857491493,
          0.17966152727603912,
          0.31161171197891235,
          0.04057951271533966,
          -0.11288934201002121,
          -0.0809810683131218,
          0.42507660388946533,
          0.15341636538505554,
          -0.2780746817588806,
          0.1338673084974289,
          -0.02543724700808525,
          -0.008375843986868858,
          -0.11767983436584473,
          -0.22853787243366241,
          -0.026446549221873283,
          -0.02614021673798561,
          0.08793622255325317,
          0.16225756704807281,
          -0.027438201010227203,
          0.16958533227443695,
          -0.4322507381439209,
          -0.12536907196044922,
          0.25231510400772095,
          -0.17089158296585083,
          -0.11293026804924011,
          0.10884741693735123,
          -0.07242169976234436,
          0.1972113698720932,
          -0.13542436063289642,
          -0.25108277797698975,
          -0.1884017288684845,
          -0.06955434381961823,
          0.027443766593933105,
          0.08167718350887299,
          -0.041145309805870056,
          -0.11890064179897308,
          -0.10401030629873276,
          -0.23736006021499634,
          -0.11975925415754318,
          0.04977745562791824,
          -0.35959944128990173,
          0.07309186458587646,
          -0.11885548382997513,
          0.10628907382488251,
          0.12279438972473145,
          0.13065612316131592,
          -0.06569893658161163,
          0.19005219638347626,
          -0.013032207265496254,
          0.27134543657302856,
          -0.021605953574180603,
          -0.17810826003551483,
          0.2858615517616272,
          0.15494845807552338
        ],
        [
          -0.10225964337587357,
          0.24477918446063995,
          -0.22828231751918793,
          0.14080867171287537,
          0.030182676389813423,
          -0.12813669443130493,
          -0.41035136580467224,
          -0.1812920868396759,
          0.24988874793052673,
          0.2492879033088684,
          0.20904172956943512,
          -0.1605471819639206,
          0.14645600318908691,
          -0.0032922641839832067,
          0.17562329769134521,
          0.04561418294906616,
          -0.0002134872047463432,
          0.026394804939627647,
          0.3147599399089813,
          -0.3001456558704376,
          0.14919283986091614,
          0.13528330624103546,
          -0.21867261826992035,
          0.2600559890270233,
          0.17926178872585297,
          -0.43026962876319885,
          -0.5802541375160217,
          0.24901831150054932,
          0.34230467677116394,
          0.02503860555589199,
          0.2606165111064911,
          -0.027148878201842308,
          0.16612784564495087,
          0.3670431077480316,
          0.23600603640079498,
          -0.24445703625679016,
          -0.05397490784525871,
          0.14406302571296692,
          0.010763817466795444,
          -0.07646723836660385,
          -0.08945760875940323,
          -0.3275841772556305,
          0.46576154232025146,
          -0.1409820169210434,
          0.20553313195705414,
          0.10285195708274841,
          0.3292556405067444,
          0.37600716948509216,
          -0.06604120135307312,
          -0.08535914123058319,
          -0.009918801486492157,
          -0.323091596364975,
          0.28034302592277527,
          0.1447230726480484,
          -0.0785011276602745,
          -0.1889084130525589,
          0.1262757033109665,
          0.1684570014476776,
          -0.5190856456756592,
          0.0885397344827652,
          -0.3893395662307739,
          -0.026791902258992195,
          -0.0643441453576088,
          0.21038736402988434
        ],
        [
          -0.2300303876399994,
          0.062204502522945404,
          -0.1808551847934723,
          0.006699841003865004,
          -0.06923053413629532,
          -0.3676462173461914,
          0.08280069380998611,
          0.059312742203474045,
          0.3153640627861023,
          -0.07994448393583298,
          0.15976978838443756,
          -0.03768692910671234,
          -0.1994900107383728,
          -0.35270705819129944,
          0.33711686730384827,
          0.13146750628948212,
          -0.3339103162288666,
          -0.14824117720127106,
          0.12808683514595032,
          -0.07120412588119507,
          0.0347345769405365,
          -0.020528621971607208,
          -0.21539555490016937,
          -0.4771548807621002,
          0.12817183136940002,
          -0.1335732489824295,
          0.06817372888326645,
          -0.1281881481409073,
          0.13131099939346313,
          -0.25053200125694275,
          0.2593873143196106,
          -0.05992940068244934,
          -0.09781942516565323,
          -0.12931786477565765,
          0.17217601835727692,
          0.08734212070703506,
          0.15124563872814178,
          -0.18384264409542084,
          0.08458565175533295,
          0.11857307702302933,
          -0.17371243238449097,
          0.011016716249287128,
          0.33303090929985046,
          0.4062223732471466,
          0.2257678061723709,
          0.19222770631313324,
          -0.1276131570339203,
          0.0779278501868248,
          0.1526736617088318,
          0.09856026619672775,
          -0.299090713262558,
          -0.2260274589061737,
          0.12467091530561447,
          -0.3650820255279541,
          -0.0701688677072525,
          0.07437269389629364,
          0.1741316318511963,
          -0.19743232429027557,
          -0.3865453004837036,
          0.2539135813713074,
          0.2058524638414383,
          -0.20999757945537567,
          0.14373698830604553,
          0.3498130142688751
        ],
        [
          -0.2878667712211609,
          0.04992226883769035,
          0.06984112411737442,
          -0.21937598288059235,
          -0.13872945308685303,
          0.18084609508514404,
          0.09784858673810959,
          0.1477448046207428,
          -0.26157480478286743,
          -0.14210844039916992,
          0.061074547469615936,
          0.20028208196163177,
          0.14307068288326263,
          0.06409339606761932,
          0.16859659552574158,
          -0.16512463986873627,
          -0.09002763777971268,
          -0.1728155016899109,
          -0.08567650616168976,
          -0.197218656539917,
          -0.33599862456321716,
          -0.011385990306735039,
          -0.015100953169167042,
          0.07099531590938568,
          0.1260896474123001,
          -0.2570986747741699,
          -0.10388549417257309,
          0.2456403225660324,
          -0.09734055399894714,
          0.2208697646856308,
          0.1301756352186203,
          -0.2658211290836334,
          -0.0200559850782156,
          -0.08814556896686554,
          0.03868113085627556,
          -0.10010115057229996,
          0.16852395236492157,
          0.07898929715156555,
          0.3249591290950775,
          -0.05227610841393471,
          -0.1833055317401886,
          0.21442458033561707,
          -0.13454170525074005,
          0.43421849608421326,
          -0.12421166151762009,
          0.01197514496743679,
          0.10370969027280807,
          0.05178657919168472,
          -0.05890398472547531,
          0.1925189048051834,
          -0.03547373041510582,
          0.15998642146587372,
          -0.07608760893344879,
          -0.05535762384533882,
          0.18610909581184387,
          0.29747775197029114,
          0.20671974122524261,
          -0.060482148081064224,
          0.1970818042755127,
          -0.17611949145793915,
          0.17150558531284332,
          -0.10098076611757278,
          -0.29399049282073975,
          0.0338875986635685
        ],
        [
          -0.22903917729854584,
          -0.04341745749115944,
          -0.08369414508342743,
          0.2880016565322876,
          -0.13817933201789856,
          0.26583725214004517,
          -0.10023494064807892,
          0.06336087733507156,
          -0.09869297593832016,
          -0.35860276222229004,
          0.05582977086305618,
          0.04289930313825607,
          -0.272626668214798,
          -0.3129821717739105,
          0.06178058683872223,
          0.10983148217201233,
          -0.2612592279911041,
          -0.050315871834754944,
          -0.09999419003725052,
          0.042357027530670166,
          -0.03758345916867256,
          -0.18478894233703613,
          0.09887521713972092,
          0.09004342555999756,
          0.09900954365730286,
          0.22455695271492004,
          0.3089422881603241,
          -0.15997523069381714,
          0.22049838304519653,
          0.001900584320537746,
          -0.17075563967227936,
          -0.05453362315893173,
          -0.04180705174803734,
          0.13961301743984222,
          -0.14937321841716766,
          -0.2524937093257904,
          -0.13738319277763367,
          0.25108063220977783,
          -0.2565293610095978,
          -0.21929898858070374,
          -0.11210788786411285,
          -0.19232086837291718,
          0.20661675930023193,
          0.44333481788635254,
          0.06709025055170059,
          -0.11507624387741089,
          -0.0882357656955719,
          -0.1973578929901123,
          -0.2282346934080124,
          -0.014860869385302067,
          -0.2065618634223938,
          0.15744777023792267,
          -0.1422685980796814,
          -0.07658671587705612,
          0.12286155670881271,
          -0.08283457905054092,
          -0.11128155887126923,
          0.019726185128092766,
          -0.2657983601093292,
          -0.06128014624118805,
          0.054946620017290115,
          -0.2476896494626999,
          -0.009336753748357296,
          0.06998828053474426
        ],
        [
          0.0019957348704338074,
          0.015441031195223331,
          0.15987783670425415,
          -0.11878691613674164,
          -0.055908456444740295,
          0.10753356665372849,
          0.12520994246006012,
          0.04976130649447441,
          0.028555484488606453,
          0.18195727467536926,
          0.01383998617529869,
          0.007126844488084316,
          -0.22809307277202606,
          -0.08932650834321976,
          -0.0951802209019661,
          -0.06427409499883652,
          0.1492651104927063,
          0.049935080111026764,
          0.1252521574497223,
          -0.13700029253959656,
          0.09588320553302765,
          -0.0520283505320549,
          -0.1389388144016266,
          0.2079818993806839,
          0.10488826781511307,
          0.047770485281944275,
          0.013988221064209938,
          -0.26471081376075745,
          -0.16083350777626038,
          0.16813161969184875,
          0.21116748452186584,
          0.17632505297660828,
          -0.1782802939414978,
          0.16144812107086182,
          0.07773347198963165,
          0.10843861848115921,
          -0.12405939400196075,
          -0.1639470010995865,
          0.13131581246852875,
          -0.0378846600651741,
          0.24671012163162231,
          0.12806224822998047,
          -0.30445483326911926,
          0.0500669963657856,
          -0.2249806672334671,
          0.14189918339252472,
          0.23240967094898224,
          0.09069833159446716,
          0.03803772106766701,
          0.13219191133975983,
          0.06732771545648575,
          -0.2786823511123657,
          -0.07633080333471298,
          -0.04712611064314842,
          -0.2838655114173889,
          -0.19839724898338318,
          -0.24408215284347534,
          0.16246816515922546,
          0.2623195946216583,
          -0.030069168657064438,
          -0.07750304788351059,
          0.315932035446167,
          0.06617888063192368,
          0.19269922375679016
        ],
        [
          -0.06214915215969086,
          0.06058138608932495,
          -0.08521844446659088,
          0.07275138050317764,
          -0.23339447379112244,
          -0.214145228266716,
          -0.005734944250434637,
          0.006087471265345812,
          0.14562858641147614,
          0.12236658483743668,
          -0.24163439869880676,
          0.031408146023750305,
          -0.17162197828292847,
          -0.11530284583568573,
          0.08686328679323196,
          0.18401196599006653,
          0.1797989308834076,
          0.0924234688282013,
          -0.34982842206954956,
          0.11975786834955215,
          -0.3558962345123291,
          0.03483356162905693,
          0.012933739461004734,
          -0.2312813103199005,
          0.25614580512046814,
          0.07570701837539673,
          0.04746539518237114,
          0.2946717441082001,
          -0.12150119245052338,
          -0.04579503461718559,
          0.06056287884712219,
          0.20009270310401917,
          -0.36495769023895264,
          -0.21625976264476776,
          0.16363821923732758,
          -0.08752093464136124,
          -0.1879088580608368,
          -0.21103565394878387,
          -0.08189795166254044,
          0.09424957633018494,
          0.13434343039989471,
          -0.1825435906648636,
          -0.131588414311409,
          -0.09935996681451797,
          -0.15201625227928162,
          0.003068909514695406,
          0.060083869844675064,
          0.04065863788127899,
          0.029124367982149124,
          0.34948647022247314,
          0.11004851758480072,
          0.0070276884362101555,
          0.17183920741081238,
          0.06651981920003891,
          -0.29595351219177246,
          0.10867299139499664,
          0.1951751857995987,
          0.329435259103775,
          0.3262990713119507,
          0.13840486109256744,
          0.11645370721817017,
          0.24094514548778534,
          -0.007433883845806122,
          0.10862870514392853
        ],
        [
          -0.23795413970947266,
          0.17434918880462646,
          -0.25830695033073425,
          0.13969413936138153,
          0.13251054286956787,
          -0.183204784989357,
          -0.13547179102897644,
          -0.1142810583114624,
          0.12371022254228592,
          -0.17225509881973267,
          0.04839268699288368,
          -0.09623067826032639,
          0.055431198328733444,
          -0.1957143396139145,
          0.040812574326992035,
          -0.048531677573919296,
          -0.2034243643283844,
          -0.29326605796813965,
          -0.135297954082489,
          0.06518331915140152,
          0.1615620255470276,
          0.09147634357213974,
          0.10981765389442444,
          0.10648223757743835,
          0.11797802895307541,
          0.16948683559894562,
          0.16649574041366577,
          -0.2744627892971039,
          0.33926793932914734,
          -0.007203948218375444,
          -0.1040816381573677,
          -0.015620334073901176,
          0.3104473650455475,
          0.33065739274024963,
          -0.053466785699129105,
          -0.04037857428193092,
          -0.15715272724628448,
          0.2685803771018982,
          -0.23296988010406494,
          -0.2696596086025238,
          -0.20151488482952118,
          0.0730481892824173,
          0.5909431576728821,
          0.05621790885925293,
          0.22357140481472015,
          -0.29822924733161926,
          -0.044860001653432846,
          0.05856522545218468,
          -0.23581889271736145,
          -0.1733117550611496,
          -0.21602265536785126,
          0.0015717967180535197,
          -0.025307437404990196,
          -0.0801844596862793,
          0.13809868693351746,
          -0.08900270611047745,
          0.10577873140573502,
          -0.2349405437707901,
          -0.3193594813346863,
          0.02886945568025112,
          -0.14299950003623962,
          0.07209919393062592,
          -0.15003755688667297,
          0.1194038987159729
        ],
        [
          0.20921100676059723,
          -0.01402683649212122,
          -0.05500474199652672,
          0.08175834268331528,
          -0.14351597428321838,
          -0.09415506571531296,
          0.3234255909919739,
          0.3675350546836853,
          -0.11209945380687714,
          -0.11375638842582703,
          0.00849702674895525,
          -0.3461020886898041,
          0.1396453082561493,
          -0.1840241551399231,
          -0.14693202078342438,
          -0.05231500044465065,
          0.013960444368422031,
          -0.1630602777004242,
          0.29567402601242065,
          -0.10784390568733215,
          -0.05400888994336128,
          -0.324678897857666,
          0.15739989280700684,
          -0.12920215725898743,
          -0.293089896440506,
          0.17690597474575043,
          0.19339293241500854,
          -0.18770435452461243,
          0.2084774523973465,
          0.14994096755981445,
          -0.1859949678182602,
          0.13092878460884094,
          0.1559382826089859,
          -0.03019576333463192,
          -0.23844338953495026,
          -0.02137128636240959,
          -0.2565164268016815,
          0.22492749989032745,
          -0.1613646298646927,
          -0.17938952147960663,
          0.1341957002878189,
          -0.007715603336691856,
          -0.10074608772993088,
          -0.000525323033798486,
          0.11963154375553131,
          0.031611330807209015,
          -0.002989091444760561,
          0.04642985761165619,
          -0.12750814855098724,
          -0.01635381020605564,
          0.012062106281518936,
          0.0159675981849432,
          0.1652795821428299,
          -0.06411823630332947,
          0.026896091178059578,
          -0.05699522793292999,
          0.31221577525138855,
          -0.28044167160987854,
          -0.1472901552915573,
          0.08414898812770844,
          0.10759842395782471,
          -0.0140285175293684,
          0.08342517167329788,
          0.015394098125398159
        ],
        [
          -0.1687137931585312,
          -0.17177969217300415,
          -0.27423179149627686,
          0.12502099573612213,
          0.14043620228767395,
          -0.08037940412759781,
          -0.19308426976203918,
          -0.15080641210079193,
          -0.22730335593223572,
          0.14939717948436737,
          0.12911342084407806,
          -0.26716113090515137,
          -0.19554446637630463,
          0.20645487308502197,
          -0.04872957617044449,
          0.35019251704216003,
          -0.2983761727809906,
          -0.23885416984558105,
          0.10516685992479324,
          0.1372484266757965,
          0.3402583599090576,
          0.1144169420003891,
          0.17586231231689453,
          0.13309213519096375,
          -0.16027264297008514,
          0.2295486181974411,
          -0.07190254330635071,
          0.06176422908902168,
          0.4201921224594116,
          -0.15538489818572998,
          -0.01949675753712654,
          0.04856371507048607,
          0.22538097202777863,
          0.413858026266098,
          0.00785613153129816,
          -0.043093666434288025,
          0.08637690544128418,
          0.3361583948135376,
          -0.24366994202136993,
          0.09945357590913773,
          -0.14299418032169342,
          0.1382562816143036,
          0.07236293703317642,
          0.27174267172813416,
          -0.04121750220656395,
          -0.03422695770859718,
          -0.10342308133840561,
          0.240052729845047,
          0.06820590794086456,
          -0.13966122269630432,
          -0.20007984340190887,
          -0.04859229549765587,
          0.1527923047542572,
          -0.24594071507453918,
          -0.03294926509261131,
          -0.006438896991312504,
          -0.04670247435569763,
          -0.19124318659305573,
          -0.3269636332988739,
          0.12024503201246262,
          0.05640953779220581,
          -0.17795100808143616,
          0.025541098788380623,
          -0.021350698545575142
        ],
        [
          -0.00940590351819992,
          0.1320929229259491,
          0.003025072393938899,
          0.286162793636322,
          0.38767069578170776,
          0.19651994109153748,
          -0.1152830719947815,
          -0.06888388097286224,
          0.13466212153434753,
          0.2274988740682602,
          0.3043212890625,
          -0.007957310415804386,
          -0.017501194030046463,
          0.11646971106529236,
          -0.01702215149998665,
          -0.07636217027902603,
          -0.29586711525917053,
          -0.0027605933137238026,
          0.4943368136882782,
          -0.31027546525001526,
          0.16047506034374237,
          0.17125192284584045,
          -0.19536744058132172,
          0.06197536364197731,
          -0.029517920687794685,
          -0.009266459383070469,
          0.14256608486175537,
          -0.35740041732788086,
          0.004158208146691322,
          -0.012646768242120743,
          -0.08320605009794235,
          -0.11120771616697311,
          0.19818490743637085,
          0.31178274750709534,
          -0.14810596406459808,
          -0.16337421536445618,
          0.15479034185409546,
          -0.013154222629964352,
          -0.14334043860435486,
          -0.0943632498383522,
          0.34110021591186523,
          -0.16360215842723846,
          -0.0570002980530262,
          -0.12502089142799377,
          0.21108734607696533,
          0.11635013669729233,
          0.14211365580558777,
          -0.03155288100242615,
          -0.10192479193210602,
          -0.3341313302516937,
          0.12380532920360565,
          0.14663194119930267,
          0.13856229186058044,
          -0.10667300224304199,
          0.25256502628326416,
          -0.09204617142677307,
          -0.06498946994543076,
          -0.02401643618941307,
          -0.12804998457431793,
          -0.020560136064887047,
          -0.014736534096300602,
          -0.024869833141565323,
          -0.21965977549552917,
          0.20221102237701416
        ],
        [
          -0.06556736677885056,
          -0.02034921944141388,
          -0.09686774760484695,
          -0.2564202845096588,
          0.007162319030612707,
          0.001873500645160675,
          0.081114262342453,
          -0.2946668565273285,
          0.12376447021961212,
          0.11502615362405777,
          0.3120458424091339,
          -0.18820062279701233,
          -0.11024359613656998,
          0.0054195416159927845,
          0.09914157539606094,
          0.04871976375579834,
          0.07110316306352615,
          0.0980614572763443,
          0.34753260016441345,
          -0.21989655494689941,
          -0.11622551828622818,
          -0.10101450234651566,
          -0.08930694311857224,
          0.18371333181858063,
          0.20064008235931396,
          0.08445700258016586,
          -0.07581420242786407,
          0.04500964283943176,
          0.19436843693256378,
          0.051388971507549286,
          0.020268075168132782,
          -0.11904457211494446,
          0.07713289558887482,
          0.19087576866149902,
          -0.11690331250429153,
          -0.020601438358426094,
          -0.013555707409977913,
          -0.09248217195272446,
          -0.016148600727319717,
          0.07814770191907883,
          0.25566360354423523,
          0.2666475176811218,
          -0.15819144248962402,
          -0.2598763406276703,
          0.3518008887767792,
          0.05229756608605385,
          -0.13067583739757538,
          -0.5048846006393433,
          0.10841629654169083,
          -0.4637998342514038,
          0.052813369780778885,
          0.15890394151210785,
          -0.055071208626031876,
          0.32044729590415955,
          -0.05267662554979324,
          -0.020903168246150017,
          -0.1358569860458374,
          -0.20382413268089294,
          0.3155951499938965,
          0.060787808150053024,
          0.22817173600196838,
          0.0185843538492918,
          0.0844046100974083,
          -0.03931067883968353
        ],
        [
          0.13196606934070587,
          -0.11410045623779297,
          -0.20186005532741547,
          -0.17980080842971802,
          -0.0694013386964798,
          -0.2394213080406189,
          -0.24036805331707,
          -0.010680580511689186,
          0.34121638536453247,
          0.26827409863471985,
          0.181200310587883,
          -0.02373209036886692,
          -0.09424684196710587,
          -0.3305008113384247,
          0.24054977297782898,
          0.11489750444889069,
          0.17689940333366394,
          -0.30623143911361694,
          -0.19659769535064697,
          -0.10673060268163681,
          -0.20039720833301544,
          -0.11594881117343903,
          0.03163859620690346,
          0.105588398873806,
          0.17648914456367493,
          -0.14728586375713348,
          -0.05086226388812065,
          0.35112616419792175,
          -0.06128726899623871,
          -0.12248494476079941,
          -0.17334730923175812,
          0.27600008249282837,
          -0.0055234357714653015,
          -0.22365069389343262,
          0.21752847731113434,
          0.06184569001197815,
          0.002996728289872408,
          -0.17135998606681824,
          -0.04862382635474205,
          -0.06257819384336472,
          -0.07078791409730911,
          -0.3132409453392029,
          0.38820788264274597,
          0.0938553586602211,
          0.1815643608570099,
          0.08559205383062363,
          0.03390691429376602,
          0.37335118651390076,
          -0.090730682015419,
          0.21020150184631348,
          0.06180127337574959,
          -0.31225311756134033,
          0.1452513337135315,
          -0.14827679097652435,
          -0.2174176573753357,
          0.11102757602930069,
          -0.22772562503814697,
          0.22322069108486176,
          -0.2927742600440979,
          -0.015899356454610825,
          -0.23337161540985107,
          0.031563203781843185,
          0.0709986686706543,
          0.28123724460601807
        ],
        [
          0.07891342788934708,
          -0.031147101894021034,
          -0.008627157658338547,
          0.22121532261371613,
          -0.2822936177253723,
          -0.2796064019203186,
          -0.09858118742704391,
          -0.24751126766204834,
          0.044114336371421814,
          0.23937232792377472,
          0.08184376358985901,
          -0.1353273093700409,
          -0.18285351991653442,
          0.2329453080892563,
          0.0848170593380928,
          0.06326120346784592,
          0.3177069127559662,
          -0.07813934236764908,
          -0.17279048264026642,
          0.17092202603816986,
          0.09740766137838364,
          0.1543933004140854,
          -0.020573755726218224,
          0.12039981782436371,
          0.007003659848123789,
          -0.24377313256263733,
          -0.1679137647151947,
          -0.07469423860311508,
          -0.12646524608135223,
          -0.20879876613616943,
          -0.04693198949098587,
          -0.09059203416109085,
          0.1263103485107422,
          0.10067658126354218,
          0.2651030719280243,
          -0.10002931952476501,
          0.3070891201496124,
          0.02273368276655674,
          0.09461885690689087,
          0.13879434764385223,
          0.09247429668903351,
          -0.0821472778916359,
          0.26726341247558594,
          -0.4779006242752075,
          0.2693817615509033,
          0.11002976447343826,
          0.0038442318327724934,
          0.057557761669158936,
          -0.2029760479927063,
          0.023957403376698494,
          0.1715947538614273,
          -0.1352725327014923,
          -0.002257865620777011,
          -0.1367146074771881,
          -0.0943039208650589,
          -0.0077362218871712685,
          -0.016504544764757156,
          0.3374544382095337,
          -0.13300330936908722,
          0.1318926066160202,
          -0.009189698845148087,
          -0.23328395187854767,
          0.20639294385910034,
          0.21840976178646088
        ],
        [
          -0.06838632375001907,
          -0.23559299111366272,
          0.1715921312570572,
          0.468464195728302,
          0.1306854486465454,
          0.1914353370666504,
          0.17748700082302094,
          0.0017358137993142009,
          0.002349407412111759,
          0.07414885610342026,
          0.16022458672523499,
          -0.11790254712104797,
          -0.10818009078502655,
          0.0324174240231514,
          -0.08813471347093582,
          0.07247897237539291,
          -0.12487532943487167,
          -0.048127174377441406,
          0.15807229280471802,
          -0.10783733427524567,
          0.2655968964099884,
          -0.07772447913885117,
          -0.18203291296958923,
          0.01349309366196394,
          0.2962706685066223,
          -0.13034822046756744,
          0.10618258267641068,
          -0.11177708208560944,
          0.20348183810710907,
          0.19194702804088593,
          -0.16624876856803894,
          -0.020114723592996597,
          -0.19740396738052368,
          0.2878020703792572,
          0.07629823684692383,
          0.17478425800800323,
          -0.3091423511505127,
          0.20099307596683502,
          -0.16736403107643127,
          -0.047650791704654694,
          0.2280484437942505,
          0.05102767422795296,
          -0.2274916172027588,
          0.1845470666885376,
          0.25180667638778687,
          0.022823702543973923,
          -0.039250049740076065,
          -0.22739237546920776,
          -0.051669422537088394,
          -0.31117746233940125,
          -0.21823738515377045,
          0.11930860579013824,
          -0.015090052969753742,
          0.032738570123910904,
          0.038566429167985916,
          -0.20522211492061615,
          -0.14118506014347076,
          -0.16804973781108856,
          0.07917052507400513,
          0.36606892943382263,
