{
  "layers": [
    {
      "type": "global_mean_pool",
      "act": "",
      "W": [],
      "b": []
    },
    {
      "type": "lin",
      "act": "tanh",
      "W": [
        [
          0.34227460622787476,
          -0.057455357164144516,
          0.10247641056776047,
          0.10236018151044846,
          -0.1808563470840454,
          -0.0651373565196991,
          -0.0722239688038826,
          -0.15239934623241425,
          -0.23148269951343536,
          -0.25684764981269836,
          0.19426412880420685,
          0.10157941281795502,
          0.20616072416305542,
          0.31418609619140625,
          -0.2562743127346039,
          -0.05995837599039078,
          0.14906755089759827,
          -0.14809578657150269,
          0.1013561561703682,
          -0.017452223226428032,
          -0.05118011310696602
        ],
        [
          0.15736815333366394,
          0.022891631349921227,
          0.007751151453703642,
          -0.03328075632452965,
          -0.26065224409103394,
          0.20043103396892548,
          0.09346079081296921,
          -0.3606359362602234,
          0.17010749876499176,
          0.02332398295402527,
          -0.027704982087016106,
          0.05988933891057968,
          -0.3418594002723694,
          -0.09883216768503189,
          0.1579456478357315,
          -0.1555946171283722,
          -0.2914593517780304,
          0.09957971423864365,
          0.03019479475915432,
          0.10424268990755081,
          -0.11385633796453476
        ],
        [
          0.11274085938930511,
          -0.20188766717910767,
          0.1015160083770752,
          -0.045732613652944565,
          -0.14915451407432556,
          0.2276390790939331,
          -0.023210452869534492,
          -0.17947174608707428,
          -0.1467643678188324,
          0.22456328570842743,
          -0.29229986667633057,
          0.23334670066833496,
          0.09403189271688461,
          0.1086142510175705,
          -0.0644388347864151,
          0.14338980615139008,
          -0.0557098463177681,
          0.009242014028131962,
          -0.22712641954421997,
          0.2731142044067383,
          0.017415862530469894
        ],
        [
          -0.08216241747140884,
          -0.6038167476654053,
          -0.27093783020973206,
          0.21151484549045563,
          -0.17790859937667847,
          -0.2453758865594864,
          -0.17850850522518158,
          -0.07112787663936615,
          -0.20552556216716766,
          -0.158738374710083,
          -0.02692098170518875,
          0.18985779583454132,
          0.12460338324308395,
          -0.2839760184288025,
          -0.16279584169387817,
          -0.038644593209028244,
          -0.01914556510746479,
          0.10303309559822083,
          0.10181631147861481,
          -0.297304630279541,
          0.18408194184303284
        ],
        [
          0.35310855507850647,
          0.12651783227920532,
          -0.30848783254623413,
          0.14474426209926605,
          -0.10728628188371658,
          -0.05060577020049095,
          0.09491383284330368,
          -0.23462341725826263,
          0.015631888061761856,
          0.12056151032447815,
          0.14438937604427338,
          0.17810901999473572,
          -0.05506028234958649,
          0.1726894974708557,
          0.07988598942756653,
          0.12995490431785583,
          0.08412465453147888,
          -0.21523642539978027,
          0.024586668238043785,
          -0.26490160822868347,
          -0.10930340737104416
        ],
        [
          0.4874080419540405,
          -0.054305821657180786,
          0.5070284605026245,
          -0.14847873151302338,
          0.3341320753097534,
          0.14601874351501465,
          0.2676129639148712,
          0.2078772336244583,
          0.5022363662719727,
          0.05321388691663742,
          0.11535801738500595,
          0.21479728817939758,
          0.2509687542915344,
          -0.09368006139993668,
          0.2205866128206253,
          -0.26021307706832886,
          0.379084050655365,
          0.2001357525587082,
          -0.08482449501752853,
          -0.15628695487976074,
          -0.21756163239479065
        ],
        [
          -0.06907375901937485,
          0.3408268094062805,
          -0.0626944750547409,
          0.26240673661231995,
          -0.09804793447256088,
          0.19594652950763702,
          0.13507385551929474,
          0.01416617538779974,
          0.035990387201309204,
          -0.028824491426348686,
          0.31698769330978394,
          0.08345939964056015,
          0.09609047323465347,
          0.3235260844230652,
          -0.12891440093517303,
          0.42226797342300415,
          -0.013240332715213299,
          -0.11930463463068008,
          -0.1061837449669838,
          -0.16514962911605835,
          -0.02793780528008938
        ],
        [
          0.3016509413719177,
          0.08365096151828766,
          -0.20222511887550354,
          0.0682787224650383,
          -0.15620307624340057,
          0.18407058715820312,
          -0.002827569842338562,
          -0.258807897567749,
          -0.2054976373910904,
          -0.2211216241121292,
          -0.018345316872000694,
          0.10405770689249039,
          -0.29308396577835083,
          0.14942125976085663,
          0.17890313267707825,
          -0.0983118861913681,
          -0.15851254761219025,
          -0.1668999195098877,
          -0.2655346095561981,
          0.23842820525169373,
          -0.18383708596229553
        ],
        [
          0.20917488634586334,
          0.06434847414493561,
          0.15552231669425964,
          0.053718939423561096,
          -0.10527157038450241,
          0.0410587303340435,
          0.34162166714668274,
          -0.03155754134058952,
          -0.10127373784780502,
          -0.06181950867176056,
          0.1800931990146637,
          0.3079342246055603,
          0.12224885076284409,
          -0.13287939131259918,
          -0.08744078129529953,
          -0.13737276196479797,
          -0.09843310713768005,
          -0.0858394131064415,
          -0.01928703486919403,
          0.219812273979187,
          -0.1540352702140808
        ],
        [
          -0.3618634045124054,
          0.08385227620601654,
          -0.08560431003570557,
          0.01180560514330864,
          -0.16516408324241638,
          -0.0949244424700737,
          0.08508466184139252,
          -0.34905561804771423,
          -0.17377875745296478,
          -0.0975409597158432,
          0.3130476772785187,
          -0.39255085587501526,
          0.14819549024105072,
          -0.03538726642727852,
          0.044639769941568375,
          0.330453097820282,
          -0.38065892457962036,
          -0.0630079060792923,
          0.010184584185481071,
          0.028130237013101578,
          -0.04938368499279022
        ],
        [
          -0.011079404503107071,
          0.31153371930122375,
          0.15984676778316498,
          -0.1954796314239502,
          0.061133138835430145,
          0.1726330816745758,
          -0.21237584948539734,
          0.27166980504989624,
          0.2675643265247345,
          -0.009356032125651836,
          -0.27230367064476013,
          0.34514519572257996,
          -0.1919376254081726,
          0.2792353928089142,
          0.17469877004623413,
          0.17234639823436737,
          0.06610927730798721,
          0.06521352380514145,
          -0.005474742501974106,
          0.10039936751127243,
          -0.10620304197072983
        ],
        [
          0.09773989021778107,
          0.19431327283382416,
          -0.36938706040382385,
          0.08338969945907593,
          -0.2845483124256134,
          -0.16844573616981506,
          0.11786625534296036,
          -0.3746602237224579,
          0.015543017536401749,
          -0.2217944860458374,
          0.07201564311981201,
          -0.2959594428539276,
          0.04687649384140968,
          0.11474113911390305,
          -0.012596881948411465,
          0.21965964138507843,
          -0.3139047622680664,
          0.10318569839000702,
          0.19630835950374603,
          -0.3485170006752014,
          0.2696787714958191
        ],
        [
          -0.0004004510410595685,
          0.11268649995326996,
          -0.09505070745944977,
          0.3174939453601837,
          -0.1343352049589157,
          -0.027868730947375298,
          -0.04932430014014244,
          -0.015712961554527283,
          -0.22854238748550415,
          -0.18704268336296082,
          0.3308890461921692,
          -0.42794471979141235,
          -0.1646394282579422,
          -0.0184891726821661,
          0.0028512212447822094,
          0.027622422203421593,
          -0.21676883101463318,
          -0.11505673080682755,
          0.24886523187160492,
          -0.15488585829734802,
          -0.04655322805047035
        ],
        [
          -0.2843756079673767,
          0.12325263023376465,
          0.26028677821159363,
          0.17116262018680573,
          0.2784505784511566,
          -0.13763825595378876,
          -0.23979100584983826,
          0.026536928489804268,
          -0.08118516206741333,
          0.036972735077142715,
          0.16952896118164062,
          -0.16505149006843567,
          0.25220802426338196,
          -0.02860581874847412,
          -0.29959654808044434,
          -0.08406010270118713,
          -0.035361725836992264,
          0.09797961264848709,
          -0.4083058536052704,
          0.4572558104991913,
          -0.0033489083871245384
        ],
        [
          0.006850181147456169,
          0.31472891569137573,
          0.19733978807926178,
          -0.20212087035179138,
          0.08236576616764069,
          -0.08269775658845901,
          0.10865392535924911,
          0.3898407220840454,
          0.02980375848710537,
          0.28336983919143677,
          0.31163570284843445,
          0.038267459720373154,
          -0.16802707314491272,
          0.2905796468257904,
          0.30576595664024353,
          -0.020537788048386574,
          0.19917462766170502,
          0.1212054044008255,
          -0.1584164798259735,
          0.3663461208343506,
          -0.21565979719161987
        ],
        [
          -0.054665882140398026,
          -0.05436095595359802,
          0.09934474527835846,
          -0.06197551265358925,
          0.027461539953947067,
          0.02636897563934326,
          0.09031572937965393,
          -0.1885414570569992,
          0.051176998764276505,
          -0.08215724676847458,
          0.4470515549182892,
          -0.14648248255252838,
          -0.20443743467330933,
          0.36982637643814087,
          0.07229180634021759,
          0.4038239121437073,
          -0.10096987336874008,
          -0.015299542807042599,
          0.07076973468065262,
          -0.06860878318548203,
          0.14902624487876892
        ],
        [
          -0.11631476879119873,
          -0.1547594517469406,
          0.2482844442129135,
          -0.11653164029121399,
          -0.05109652131795883,
          -0.15921834111213684,
          -0.10621637105941772,
          0.09077975898981094,
          -0.16489674150943756,
          0.10456819087266922,
          0.12307023257017136,
          0.17892789840698242,
          -0.3067050874233246,
          -0.048552270978689194,
          -0.14114205539226532,
          0.13791623711585999,
          -0.21032027900218964,
          0.18262723088264465,
          -0.17677243053913116,
          0.0928216353058815,
          -0.21760402619838715
        ],
        [
          -0.05025096237659454,
          0.1322365701198578,
          -0.25698789954185486,
          0.5352966785430908,
          0.02747439593076706,
          -0.04855680838227272,
          -0.2192094922065735,
          0.26051658391952515,
          0.22247497737407684,
          0.00868708360940218,
          0.23531435430049896,
          0.24412988126277924,
          0.05417966842651367,
          0.20452627539634705,
          0.04786033183336258,
          0.23921935260295868,
          -0.05834473296999931,
          -0.15527737140655518,
          -0.29312270879745483,
          0.37264296412467957,
          -0.020838847383856773
        ],
        [
          0.24529752135276794,
          0.09547204524278641,
          0.07735604792833328,
          -0.2944088876247406,
          0.06531903892755508,
          0.23604929447174072,
          0.008965941146016121,
          0.027954338118433952,
          0.12219124287366867,
          0.1886165738105774,
          -0.1940748244524002,
          0.1552366018295288,
          -0.20590649545192719,
          -0.028338106349110603,
          0.15438871085643768,
          -0.16606080532073975,
          0.07532822340726852,
          -0.03638419881463051,
          0.1995851844549179,
          -0.38035428524017334,
          -0.22796966135501862
        ],
        [
          0.17369377613067627,
          -0.0749860405921936,
          0.17034031450748444,
          0.16624169051647186,
          -0.033848363906145096,
          0.027111221104860306,
          0.0917426198720932,
          -0.0221710205078125,
          -0.0729718804359436,
          0.21834029257297516,
          0.4436649978160858,
          -0.06637841463088989,
          -0.13837769627571106,
          0.08573739975690842,
          0.1735858917236328,
          0.27491599321365356,
          -0.1811107099056244,
          0.11935016512870789,
          0.10175485908985138,
          0.17825883626937866,
          0.11053051799535751
        ],
        [
          0.0019560689106583595,
          -0.21160615980625153,
          0.19585685431957245,
          0.158138707280159,
          -0.19757607579231262,
          -0.043487511575222015,
          -0.09998228400945663,
          -0.08775106817483902,
          -0.08382090926170349,
          0.01747579127550125,
          -0.01790466532111168,
          -0.02965167537331581,
          -0.30588722229003906,
          0.16514016687870026,
          0.14268837869167328,
          0.05725754797458649,
          0.07219049334526062,
          0.23751980066299438,
          -0.30192410945892334,
          0.22875726222991943,
          0.03957072272896767
        ],
        [
          0.2693484425544739,
          0.25252673029899597,
          -0.10043621808290482,
          -0.0690610334277153,
          0.028089048340916634,
          -0.11470653861761093,
          0.20161496102809906,
          -0.16496549546718597,
          0.2785446345806122,
          0.21198205649852753,
          0.13149070739746094,
          -0.2367294281721115,
          -0.02320489101111889,
          -0.1925167739391327,
          0.15053081512451172,
          0.17519307136535645,
          -0.07861065119504929,
          0.15828198194503784,
          -0.04612234979867935,
          0.08683802932500839,
          -0.007880354300141335
        ],
        [
          0.3523462414741516,
          0.19572100043296814,
          0.07459652423858643,
          -0.4156269133090973,
          0.02274128794670105,
          0.2770535349845886,
          0.14328394830226898,
          0.02389500103890896,
          -0.027812879532575607,
          -0.07929203659296036,
          -0.08631337434053421,
          -0.20410698652267456,
          -0.19002683460712433,
          -0.01616523042321205,
          0.24232614040374756,
          0.057076361030340195,
          -0.12359793484210968,
          -0.23617520928382874,
          0.2816469967365265,
          -0.27975428104400635,
          0.052469316869974136
        ],
        [
          -0.005352269392460585,
          0.13703620433807373,
          0.12100145220756531,
          0.3710615336894989,
          -0.07441091537475586,
          0.11602286249399185,
          0.22000372409820557,
          0.026057980954647064,
          -0.17743809521198273,
          -0.08093257993459702,
          0.3525230288505554,
          -0.06369449943304062,
          -0.09539798647165298,
          0.3497856855392456,
          -0.06526819616556168,
          0.24118025600910187,
          0.03329664096236229,
          0.17025239765644073,
          0.0117033701390028,
          -0.09513523429632187,
          -0.07750706374645233
        ],
        [
          -0.14849701523780823,
          0.14887505769729614,
          -0.3998821973800659,
          0.38652804493904114,
          -0.09246012568473816,
          0.0853424072265625,
          -0.08960043638944626,
          -0.11278991401195526,
          -0.24224622547626495,
          -0.32646703720092773,
          0.04248744621872902,
          0.029395950958132744,
          -0.13983142375946045,
          -0.35192522406578064,
          -0.28487473726272583,
          -0.11072200536727905,
          -0.04805200919508934,
          -0.03173205628991127,
          -0.3175836503505707,
          0.12560507655143738,
          0.11515852808952332
        ],
        [
          0.0414171926677227,
          0.15431900322437286,
          0.08152835816144943,
          -0.1528870165348053,
          0.0281953364610672,
          -0.17354582250118256,
          -0.09875107556581497,
          0.053910836577415466,
          0.0521710179746151,
          -0.17435558140277863,
          0.2553310692310333,
          -0.3469149172306061,
          0.15660275518894196,
          -0.131508469581604,
          0.09994149208068848,
          0.04371809959411621,
          0.08103968948125839,
          0.09869076311588287,
          0.09612022340297699,
          -0.05617128685116768,
          0.11516454070806503
        ],
        [
          -0.22688700258731842,
          0.03388857841491699,
          0.20732197165489197,
          -0.2699778079986572,
          -0.08017744868993759,
          -0.19591358304023743,
          -0.15163618326187134,
          0.032266367226839066,
          0.08380936086177826,
          -0.26732221245765686,
          0.21186161041259766,
          -0.1972777247428894,
          -0.030559509992599487,
          0.08228802680969238,
          0.0267594326287508,
          -0.003498140722513199,
          -0.29740989208221436,
          0.1288755238056183,
          0.30553215742111206,
          -0.019727274775505066,
          -0.1621549129486084
        ],
        [
          0.11374065279960632,
          0.25196608901023865,
          -0.10625997930765152,
          -0.15670935809612274,
          -0.2554326057434082,
          0.1899130940437317,
          -0.0613306500017643,
          0.1493055522441864,
          -0.10517790913581848,
          0.187445729970932,
          0.042927950620651245,
          0.16557949781417847,
          0.1639476865530014,
          -0.24012057483196259,
          -0.09976623207330704,
          0.09891476482152939,
          0.2664050757884979,
          -0.26926037669181824,
          -0.22776436805725098,
          -0.01643151044845581,
          0.023760398849844933
        ],
        [
          0.012603722512722015,
          0.13986800611019135,
          0.021931301802396774,
          0.1577632874250412,
          -0.00778722669929266,
          0.22514647245407104,
          0.029478896409273148,
          -0.11946642398834229,
          -0.08037879317998886,
          0.3338196575641632,
          0.13138218224048615,
          -0.33303698897361755,
          -0.12577767670154572,
          -0.2871423363685608,
          0.28882721066474915,
          0.17548511922359467,
          0.09438256919384003,
          0.10012158751487732,
          -0.26963555812835693,
          0.266086220741272,
          -0.003095469670370221
        ],
        [
          0.3381613790988922,
          0.18013881146907806,
          0.04194439575076103,
          0.3976652920246124,
          -0.1589401513338089,
          0.10771065950393677,
          0.2332320660352707,
          0.08223236352205276,
          0.16293664276599884,
          -0.1090741753578186,
          -0.12005365639925003,
          -0.11399751901626587,
          -0.09247725456953049,
          0.006419828627258539,
          0.15548890829086304,
          -0.24074551463127136,
          0.17100045084953308,
          0.08177269995212555,
          -0.17925263941287994,
          0.305818110704422,
          -0.050535354763269424
        ],
        [
          -0.11647510528564453,
          -0.37343117594718933,
          -0.10027287155389786,
          -0.3479943573474884,
          0.062159739434719086,
          -0.004028497263789177,
          0.07598645985126495,
          0.06874863803386688,
          -0.11950163543224335,
          0.08853064477443695,
          -0.19293372333049774,
          0.10853352397680283,
          0.14842036366462708,
          -0.07876227796077728,
          0.21703515946865082,
          0.14111118018627167,
          -0.21414785087108612,
          0.21157224476337433,
          -0.23614810407161713,
          -0.05273618549108505,
          0.02956666424870491
        ],
        [
          0.1881326138973236,
          0.17425008118152618,
          -0.040057603269815445,
          -0.0725783035159111,
          -0.294055312871933,
          0.08097892254590988,
          0.19776691496372223,
          -0.18961629271507263,
          0.08476196974515915,
          -0.028365252539515495,
          -0.15807726979255676,
          -0.06455466896295547,
          0.04525283724069595,
          -0.31481626629829407,
          -0.1505877673625946,
          -0.329154372215271,
          0.021709896624088287,
          -0.2208476960659027,
          -0.25187647342681885,
          0.018691204488277435,
          0.2319793850183487
        ],
        [
          0.4164367616176605,
          -0.3621717691421509,
          -0.013088318519294262,
          0.2589435577392578,
          0.3662627339363098,
          0.37812429666519165,
          0.1206902265548706,
          0.22681540250778198,
          0.22735595703125,
          0.31293001770973206,
          0.0458843857049942,
          0.3108447194099426,
          0.33029288053512573,
          0.23700328171253204,
          0.25386396050453186,
          0.08074220269918442,
          0.5610997676849365,
          0.011816847138106823,
          0.6466830968856812,
          -0.5978172421455383,
          -0.13101311028003693
        ],
        [
          -0.005201818887144327,
          0.2213301658630371,
          -0.11657477915287018,
          -0.03533581644296646,
          -0.2633568346500397,
          0.24407623708248138,
          0.12819954752922058,
          0.16814906895160675,
          0.13034164905548096,
          0.13448061048984528,
          -0.15399646759033203,
          0.26646360754966736,
          -0.18236061930656433,
          0.03816423937678337,
          0.1367451697587967,
          -0.22791017591953278,
          0.022896911948919296,
          -0.13246823847293854,
          0.16101889312267303,
          0.1398148089647293,
          0.053177062422037125
        ],
        [
          0.02312222309410572,
          0.19125284254550934,
          0.21017014980316162,
          0.164194256067276,
          0.2576008141040802,
          0.10378562659025192,
          -0.26911917328834534,
          -0.01919541135430336,
          0.16837163269519806,
          -0.15012678503990173,
          -0.19258221983909607,
          0.04071805253624916,
          0.040263719856739044,
          -0.27740561962127686,
          -0.2152598351240158,
          -0.08830162137746811,
          -0.07451097667217255,
          0.20378394424915314,
          0.11858068406581879,
          0.004899044521152973,
          0.03036542423069477
        ],
        [
          -0.10118445008993149,
          -0.08413182199001312,
          0.04718528315424919,
          -0.1863270252943039,
          -0.045870114117860794,
          0.01539419125765562,
          -0.09855421632528305,
          0.089778371155262,
          0.037469036877155304,
          0.15335708856582642,
          0.24417094886302948,
          -0.2841252386569977,
          0.3299463987350464,
          -0.2152368426322937,
          -0.02135457843542099,
          -0.1372637003660202,
          0.09476280212402344,
          -0.21345095336437225,
          -0.1898944079875946,
          -0.08971307426691055,
          0.06465159356594086
        ],
        [
          0.25151699781417847,
          -0.017062367871403694,
          0.061204396188259125,
          -0.3061031997203827,
          -0.15125170350074768,
          -0.21790838241577148,
          -0.12049103528261185,
          0.055628418922424316,
          0.0684351846575737,
          -0.2052030712366104,
          -0.039266977459192276,
          0.1901436448097229,
          -0.11330010741949081,
          0.18439981341362,
          -0.18801087141036987,
          0.05519349128007889,
          0.0501432828605175,
          0.10129696875810623,
          0.26020094752311707,
          0.0120136309415102,
          0.046090155839920044
        ],
        [
          0.14940504729747772,
          0.027162374928593636,
          0.03971168398857117,
          -0.29726672172546387,
          0.1055963784456253,
          0.07694897800683975,
          0.11003341525793076,
          -0.049944955855607986,
          0.12442310154438019,
          0.3357997238636017,
          -0.2824879586696625,
          -0.2322179228067398,
          0.15380893647670746,
          -0.04379726201295853,
          0.11489927023649216,
          -0.023569494485855103,
          -0.23170003294944763,
          0.25140923261642456,
          -0.23800157010555267,
          0.4097881019115448,
          -0.016544580459594727
        ],
        [
          0.1196211576461792,
          -0.035923343151807785,
          -0.1665957123041153,
          -0.2699001133441925,
          -0.039793919771909714,
          -0.07636729627847672,
          -0.1969257891178131,
          0.2157619595527649,
          0.13817709684371948,
          -0.16716988384723663,
          -0.10681184381246567,
          0.3340633511543274,
          -0.08802799135446548,
          0.4038679897785187,
          0.19552981853485107,
          0.1606360375881195,
          0.12495944648981094,
          0.17266438901424408,
          0.034613024443387985,
          -0.16163331270217896,
          -0.10158999264240265
        ],
        [
          0.1046413704752922,
          -0.464370459318161,
          -0.07149052619934082,
          -0.36626800894737244,
          -0.13280320167541504,
          -0.11649113148450851,
          0.06291989237070084,
          -0.1927214413881302,
          0.1245194673538208,
          0.10429428517818451,
          -0.3091806173324585,
          0.029928889125585556,
          0.03199949488043785,
          -0.3620007038116455,
          -0.14496153593063354,
          -0.21695584058761597,
          0.28206220269203186,
          -0.047369252890348434,
          0.05636601895093918,
          -0.28708502650260925,
          0.12108645588159561
        ],
        [
          -0.10052689909934998,
          -0.03133527189493179,
          0.0499701127409935,
          -0.12685082852840424,
          0.07874610275030136,
          0.044665828347206116,
          -0.051237884908914566,
          -0.20274852216243744,
          0.03684468939900398,
          -0.13181579113006592,
          0.1382526010274887,
          -0.19450700283050537,
          -0.15411809086799622,
          0.22194866836071014,
          -0.1152283176779747,
          0.2507357597351074,
          -0.07558395713567734,
          -0.05470217019319534,
          -0.17584030330181122,
          0.05160023644566536,
          0.1557065099477768
        ],
        [
          0.006790300365537405,
          0.002874921541661024,
          -0.07190737128257751,
          0.054221007972955704,
          0.10671699792146683,
          0.1198790967464447,
          -0.2055966705083847,
          0.22852244973182678,
          0.07902230322360992,
          0.09039996564388275,
          -0.022164786234498024,
          -0.2408917397260666,
          0.30061495304107666,
          -0.051891032606363297,
          -0.19318579137325287,
          0.07571519166231155,
          -0.25179246068000793,
          -0.2791253924369812,
          -0.08594760298728943,
          0.0930342748761177,
          0.2998720705509186
        ],
        [
          0.47310271859169006,
          0.3242682218551636,
          -0.007436892483383417,
          0.2449188083410263,
          -0.02038429118692875,
          0.14529427886009216,
          0.017444021999835968,
          -0.16207972168922424,
          -0.06631582975387573,
          0.058725371956825256,
          0.32432350516319275,
          0.23371905088424683,
          -0.3535396158695221,
          0.31282541155815125,
          0.07593831419944763,
          0.11759623140096664,
          -0.19228945672512054,
          -0.04506267234683037,
          0.19582785665988922,
          -0.3447621166706085,
          -0.005347067024558783
        ],
        [
          0.15250124037265778,
          0.15136098861694336,
          -0.09828418493270874,
          0.2796768248081207,
          -0.04003309831023216,
          0.1689789742231369,
          -0.054831016808748245,
          -0.21618323028087616,
          0.1607862263917923,
          0.15245310962200165,
          -0.24675174057483673,
          -0.002834031358361244,
          0.030696704983711243,
          -0.22078171372413635,
          -0.22149202227592468,
          -0.32369059324264526,
          -0.1173541322350502,
          -0.1690272092819214,
          0.2592947781085968,
          -0.08320248126983643,
          -0.131244957447052
        ],
        [
          0.3194068670272827,
          -0.11726592481136322,
          -0.15841636061668396,
          -0.3747706413269043,
          -0.05523773282766342,
          -0.22376249730587006,
          0.08063194155693054,
          0.042793892323970795,
          -0.21142515540122986,
          0.18744443356990814,
          0.13056206703186035,
          -0.13619545102119446,
          0.2016611546278,
          -0.2002035528421402,
          0.06441912800073624,
          0.09716818481683731,
          0.3109990060329437,
          0.029076309874653816,
          -0.07524248212575912,
          0.12453696131706238,
          -0.5269336104393005
        ],
        [
          -0.13311396539211273,
          0.20778632164001465,
          -0.062012869864702225,
          -0.06940240412950516,
          0.05729031190276146,
          0.2670447528362274,
          -0.22420212626457214,
          -0.11818600445985794,
          0.17591983079910278,
          -0.08589878678321838,
          0.12365464866161346,
          0.22000084817409515,
          -0.15602175891399384,
          0.07567775249481201,
          -0.17183929681777954,
          0.3309990465641022,
          0.12084240466356277,
          0.20321518182754517,
          -0.20194779336452484,
          -0.06780204176902771,
          -0.056687090545892715
        ],
        [
          0.008037619292736053,
          -0.14111314713954926,
          0.32070469856262207,
          0.1285776048898697,
          0.02999541535973549,
          -0.02218572050333023,
          0.09369639307260513,
          -0.04814692959189415,
          0.1519135683774948,
          0.28982779383659363,
          0.011292513459920883,
          -0.346047043800354,
          0.28278133273124695,
          -0.24809415638446808,
          0.06934226304292679,
          -0.22668655216693878,
          -0.12428773939609528,
          -0.15647858381271362,
          0.06780803203582764,
          -0.0096398014575243,
          -0.28210484981536865
        ],
        [
          -0.013532097451388836,
          0.2712011933326721,
          -0.2755628526210785,
          0.4503430724143982,
          0.026502575725317,
          -0.21147577464580536,
          0.017431840300559998,
          -0.06695057451725006,
          0.05061560869216919,
          0.014663392677903175,
          -0.4133321940898895,
          0.12886950373649597,
          -0.19213223457336426,
          -0.04479217156767845,
          -0.11714465171098709,
          -0.32915782928466797,
          -0.16258485615253448,
          0.165604367852211,
          -0.43821224570274353,
          0.13336579501628876,
          -0.0027875807136297226
        ],
        [
          0.21538567543029785,
          0.49233299493789673,
          0.25051432847976685,
          0.06440222263336182,
          0.35347482562065125,
          0.08418009430170059,
          0.03763452544808388,
          0.09107933193445206,
          0.007657844107598066,
          -0.20538440346717834,
          0.41551199555397034,
          0.05093809589743614,
          0.20221538841724396,
          0.4446370601654053,
          -0.1632562130689621,
          -0.010798564180731773,
          0.40676912665367126,
          0.1309979110956192,
          -0.20290930569171906,
          0.43301013112068176,
          -0.26723870635032654
        ],
        [
          0.2939917743206024,
          -0.023524833843111992,
          -0.07670874893665314,
          0.12407741695642471,
          -0.17654527723789215,
          -0.08237157016992569,
          0.28739669919013977,
          -0.2286089062690735,
          -0.16243976354599,
          -0.13912120461463928,
          0.09986798465251923,
          0.2867072522640228,
          0.22707420587539673,
          -0.06295762956142426,
          -0.22051973640918732,
          -0.03201064094901085,
          0.06540998071432114,
          0.061160940676927567,
          0.2012733519077301,
          -0.15798917412757874,
          -0.22078096866607666
        ],
        [
          -0.1471920609474182,
          -0.3614838123321533,
          -0.031923796981573105,
          -0.19903063774108887,
          0.24838531017303467,
          -0.11396653950214386,
          0.13850492238998413,
          -0.19723275303840637,
          -0.06345008313655853,
          0.07510556280612946,
          -0.4241754710674286,
          0.013803046196699142,
          -0.13227014243602753,
          -0.18437740206718445,
          0.1961362063884735,
          0.17650943994522095,
          -0.027111999690532684,
          -0.11184780299663544,
          0.41472604870796204,
          -0.3421896696090698,
          0.0799156203866005
        ],
        [
          0.09992393106222153,
          0.03739370405673981,
          0.06398665904998779,
          0.15068598091602325,
          0.35099050402641296,
          0.20025356113910675,
          -0.13002018630504608,
          -0.02186707593500614,
          -0.13807782530784607,
          -0.026528023183345795,
          0.2767795920372009,
          -0.2844354808330536,
          0.24156393110752106,
          -0.3359597325325012,
          -0.001992427743971348,
          -0.2304035723209381,
          0.12735870480537415,
          0.18789422512054443,
          0.2749083936214447,
          0.08442648500204086,
          0.02031213603913784
        ],
        [
          -0.12083964049816132,
          -0.12395128607749939,
          0.22259706258773804,
          -0.17778907716274261,
          -0.09270144999027252,
          -0.10840808600187302,
          -0.03598303347826004,
          0.08213648200035095,
          -0.43249833583831787,
          -0.24394875764846802,
          0.04939007759094238,
          -0.3533972203731537,
          -0.17715571820735931,
          0.21021494269371033,
          0.031334057450294495,
          0.10627080500125885,
          -0.08364854753017426,
          -0.41215604543685913,
          0.12252282351255417,
          0.16555123031139374,
          0.13551808893680573
        ],
        [
          -0.16264311969280243,
          -0.2798483967781067,
          0.24684502184391022,
          -0.031079068779945374,
          0.2756132185459137,
          -0.07509072870016098,
          -0.2800480127334595,
          0.25226834416389465,
          0.2581067383289337,
          -0.019579323008656502,
          -0.12593072652816772,
          -0.25702816247940063,
          0.0594821497797966,
          -0.05911686643958092,
          -0.26426464319229126,
          -0.09149675071239471,
          -0.12517794966697693,
          0.09290643781423569,
          0.0008678922313265502,
          0.15835781395435333,
          -0.2118256539106369
        ],
        [
          0.1545865386724472,
          0.088843435049057,
          -0.17692790925502777,
          -0.07416146993637085,
          -0.07345142215490341,
          0.10100763291120529,
          -0.023242231458425522,
          0.013447709381580353,
          -0.21401457488536835,
          -0.22908438742160797,
          -0.33722344040870667,
          0.39443525671958923,
          -0.01627844013273716,
          -0.20969858765602112,
          -0.17241227626800537,
          -0.27203691005706787,
          -0.016560325399041176,
          -0.0968322828412056,
          0.08219274878501892,
          -0.02615136094391346,
          0.07032890617847443
        ],
        [
          0.23959022760391235,
          0.18142561614513397,
          -0.050210993736982346,
          0.06979750096797943,
          -0.184190034866333,
          0.20057372748851776,
          0.11244650930166245,
          0.13911451399326324,
          -0.07866384834051132,
          -0.3610428273677826,
          0.20673030614852905,
          -0.14638695120811462,
          -0.17418524622917175,
          0.4117122292518616,
          -0.05949933081865311,
          -0.14485761523246765,
          0.08114016801118851,
          -0.12711116671562195,
          0.07354164123535156,
          0.10037528723478317,
          0.5052991509437561
        ],
        [
          0.2594834864139557,
          -0.19386348128318787,
          0.1801229566335678,
          0.24261032044887543,
          0.31466758251190186,
          0.23765920102596283,
          0.22789813578128815,
          -0.07444509118795395,
          0.41691330075263977,
          0.1753072887659073,
          0.4137361943721771,
          0.08237602561712265,
          -0.18902583420276642,
          0.3040165305137634,
          0.23403644561767578,
          -0.13370510935783386,
          0.273112416267395,
          0.3021547198295593,
          0.32945716381073,
          -0.24797579646110535,
          -0.01060250960290432
        ],
        [
          -0.046455878764390945,
          0.07034363597631454,
          -0.24564599990844727,
          -0.10444413870573044,
          -0.07969162613153458,
          -0.18460868299007416,
          -0.19180354475975037,
          0.060513440519571304,
          -0.065778948366642,
          -0.07642298936843872,
          -0.24495559930801392,
          0.36705219745635986,
          -0.17180122435092926,
          -0.13215480744838715,
          -0.0467371866106987,
          -0.3424592912197113,
          -0.1433923989534378,
          0.05983806028962135,
          0.23553228378295898,
          0.13970984518527985,
          0.07136595994234085
        ],
        [
          0.29594549536705017,
          0.25768205523490906,
          0.08182601630687714,
          0.05667692795395851,
          0.055461227893829346,
          -0.15595071017742157,
          -0.07258087396621704,
          0.004011652898043394,
          -0.196511372923851,
          -0.1097477525472641,
          -0.05607856810092926,
          0.42193251848220825,
          -0.08362045139074326,
          0.10728064924478531,
          0.03336412087082863,
          -0.14218302071094513,
          0.18967711925506592,
          -0.08761954307556152,
          -0.33406609296798706,
          0.09046173840761185,
          -0.10425595939159393
        ],
        [
          -0.31149640679359436,
          -0.05938587710261345,
          0.0473543219268322,
          -0.2117030769586563,
          -0.00024690869031473994,
          -0.04611251503229141,
          0.26997074484825134,
          -0.14497718214988708,
          0.17503531277179718,
          0.1716906875371933,
          0.21200919151306152,
          -0.2686746120452881,
          0.0365976020693779,
          -0.1598956435918808,
          -0.24948954582214355,
          -0.06104359030723572,
          0.21112772822380066,
          -0.004118806682527065,
          -0.02730483189225197,
          0.03258049860596657,
          -0.05178746581077576
        ],
        [
          0.116413414478302,
          0.029033824801445007,
          -0.26657599210739136,
          -0.2534295320510864,
          -0.2518613040447235,
          0.04538177698850632,
          -0.19837938249111176,
          -0.07261478155851364,
          -0.1363251507282257,
          -0.14452193677425385,
          -0.11335046589374542,
          0.36745548248291016,
          -0.0467078760266304,
          0.056695546954870224,
          -0.0659826397895813,
          -0.07676610350608826,
          0.21254491806030273,
          -0.15477818250656128,
          0.1906123012304306,
          0.23512040078639984,
          -0.1023072600364685
        ],
        [
          0.0634801909327507,
          0.15364453196525574,
          0.22495444118976593,
          0.2712656259536743,
          0.06597210466861725,
          -0.14336836338043213,
          -0.00011484722199384123,
          0.0376560352742672,
          0.009040181525051594,
          -0.09182045608758926,
          0.03559117764234543,
          -0.1993255913257599,
          -0.09724362194538116,
          -0.020689180120825768,
          -0.16497620940208435,
          -0.10932847857475281,
          0.03224442899227142,
          0.05898713320493698,
          0.18327584862709045,
          -0.11389854550361633,
          -0.45795321464538574
        ],
        [
          -0.24841637909412384,
          -0.17961597442626953,
          -0.476786732673645,
          0.1919892281293869,
          -0.3464702367782593,
          0.16118615865707397,
          -0.11833079904317856,
          -0.1210436150431633,
          -0.32382896542549133,
          -0.14052604138851166,
          -0.19157393276691437,
          0.25446394085884094,
          0.39936116337776184,
          -0.4154590368270874,
          -0.2803414463996887,
          -0.2695070207118988,
          -0.18676729500293732,
          -0.34182384610176086,
          0.0864671990275383,
          0.0703185647726059,
          0.06802836805582047
        ],
        [
          0.06838566064834595,
          0.04442444443702698,
          0.1047818586230278,
          0.20418602228164673,
          0.06941069662570953,
          -0.006220019888132811,
          0.041632506996393204,
          0.09733886271715164,
          0.06224212422966957,
          0.12487045675516129,
          -0.07632747292518616,
          -0.31401243805885315,
          0.25421538949012756,
          -0.045183420181274414,
          -0.07131275534629822,
          -0.3442997932434082,
          -0.1032002791762352,
          -0.1838485151529312,
          -0.03842315450310707,
          0.07298464328050613,
          -0.2979965806007385
        ]
      ],
      "b": [
        0.01271399948745966,
        -0.1386415958404541,
        -0.20525525510311127,
        0.19982194900512695,
        -0.1680895984172821,
        -0.10360424220561981,
        0.22463072836399078,
        0.17306795716285706,
        0.21567875146865845,
        -0.2377568781375885,
        0.19691438972949982,
        -0.22005566954612732,
        0.08765137195587158,
        0.19002467393875122,
        0.1099233329296112,
        0.14483746886253357,
        0.03879479691386223,
        -0.02865293249487877,
        0.026110844686627388,
        0.021707752719521523,
        0.032845281064510345,
        0.12242218106985092,
        -0.2577398717403412,
        0.26830852031707764,
        0.06378491967916489,
        0.1304541379213333,
        0.11729981750249863,
        -0.12386663258075714,
        -0.054523713886737823,
        -0.00166447670198977,
        0.10649264603853226,
        0.22440510988235474,
        0.06868398189544678,
        0.055018939077854156,
        -0.14579914510250092,
        0.03888316825032234,
        0.08835100382566452,
        -0.010184983722865582,
        -0.10250592976808548,
        -0.0718594565987587,
        0.16703446209430695,
        -0.17058783769607544,
        -0.12539875507354736,
        -0.2515731751918793,
        0.07847628742456436,
        -0.0012390107149258256,
        -0.03754343092441559,
        -0.24346023797988892,
        -0.14679448306560516,
        -0.05282920226454735,
        -0.20250016450881958,
        -0.20402806997299194,
        -0.2306097000837326,
        0.1344813108444214,
        -0.1727457195520401,
        0.10762090235948563,
        -0.0019313257653266191,
        -0.017572948709130287,
        0.11539947241544724,
        -0.06212099641561508,
        0.12408948689699173,
        0.17495478689670563,
        0.15431180596351624,
        -0.11493592709302902
      ]
    },
    {
      "type": "lin",
      "act": "tanh",
      "W": [
        [
          0.046882741153240204,
          -0.05537768825888634,
          0.16938813030719757,
          -0.3075050115585327,
          0.30238673090934753,
          0.2561870217323303,
          -0.2521864175796509,
          0.0888904482126236,
          0.027618814259767532,
          -0.007429252844303846,
          -0.018580732867121696,
          -0.1120777353644371,
          -0.23294110596179962,
          -0.07129476219415665,
          0.1650296449661255,
          -0.23495832085609436,
          -0.4133610725402832,
          0.08134543150663376,
          0.12529489398002625,
          0.052187468856573105,
          0.06289251148700714,
          0.02425389736890793,
          0.068227618932724,
          -0.03694576025009155,
          -0.04289417713880539,
          -0.04932275041937828,
          -0.35344240069389343,
          0.3968563675880432,
          0.1690942794084549,
          0.46867501735687256,
          -0.32706451416015625,
          -0.05263596400618553,
          0.1534505933523178,
          0.19685493409633636,
          -0.00920991413295269,
          -0.16510538756847382,
          0.018100136891007423,
          -0.013651115819811821,
          0.10954947769641876,
          0.13712191581726074,
          -0.2497975379228592,
          -0.13087525963783264,
          0.25809961557388306,
          0.14069777727127075,
          0.23716109991073608,
          -0.0982227548956871,
          -0.08976349234580994,
          0.129744291305542,
          0.2688254415988922,
          0.27175480127334595,
          -0.14335894584655762,
          0.1801522821187973,
          0.07023674249649048,
          -0.26399314403533936,
          0.13440550863742828,
          0.10344135016202927,
          0.18433405458927155,
          -0.17157235741615295,
          0.3091857135295868,
          -0.10237938910722733,
          -0.019121583551168442,
          -0.0066114445216953754,
          -0.33229973912239075,
          0.29382336139678955
        ],
        [
          0.0967751145362854,
          0.21486586332321167,
          0.08064927160739899,
          -0.003802624763920903,
          -0.00947642046958208,
          -0.036122795194387436,
          -0.05888385698199272,
          0.2188723087310791,
          -0.029744364321231842,
          -0.061820682138204575,
          0.1777590662240982,
          -0.05356794223189354,
          0.11419769376516342,
          -0.12177079170942307,
          -0.00782377365976572,
          0.06746397912502289,
          0.07242169976234436,
          0.14453712105751038,
          -0.04692249372601509,
          0.07990983873605728,
          0.2117929607629776,
          -0.027184059843420982,
          -0.03226892650127411,
          0.16083340346813202,
          0.11099573224782944,
          -0.17473234236240387,
          -0.12821175158023834,
          -0.06207465007901192,
          0.16767039895057678,
          0.3684024214744568,
          0.058040130883455276,
          0.08369830250740051,
          -0.059790462255477905,
          0.14575594663619995,
          -0.00423488998785615,
          -0.10773502290248871,
          0.0932525023818016,
          -0.1352248638868332,
          0.17593786120414734,
          -0.14489251375198364,
          -0.1028137281537056,
          -0.20548999309539795,
          0.21561554074287415,
          -0.0826699510216713,
          -0.27400219440460205,
          0.08403679728507996,
          -0.25716742873191833,
          0.16912105679512024,
          -0.0867161750793457,
          0.05631084740161896,
          -0.25389060378074646,
          -0.1779990792274475,
          -0.1635739505290985,
          -0.10722356289625168,
          -0.11264356970787048,
          0.04412555322051048,
          0.1136377826333046,
          0.0817694142460823,
          0.17167901992797852,
          -0.14857009053230286,
          0.19798842072486877,
          -0.16258275508880615,
          0.01602722331881523,
          -0.2046201080083847
        ],
        [
          -0.08070304989814758,
          -0.12931236624717712,
          -0.000964714155998081,
          -0.16907040774822235,
          -0.10484794527292252,
          -0.0919666439294815,
          0.07218903303146362,
          -0.0872374102473259,
          -0.1128757894039154,
          0.019917497411370277,
          0.042271535843610764,
          0.0951247438788414,
          0.145916149020195,
          -0.012100464664399624,
          0.1700958013534546,
          -0.0574101023375988,
          0.19053097069263458,
          0.1720125824213028,
          0.032876159995794296,
          0.07160422950983047,
          0.14119859039783478,
          -0.038835812360048294,
          -0.14777514338493347,
          -0.08813060820102692,
          -0.07689996063709259,
          0.020668257027864456,
          -0.004583093337714672,
          -0.06274297833442688,
          -0.17673173546791077,
          -0.0866691842675209,
          -0.09263932704925537,
          -0.006328579504042864,
          -0.0520377978682518,
          0.08417278528213501,
          -0.03488641232252121,
          -0.16711704432964325,
          0.008497428148984909,
          -0.08212016522884369,
          0.013542957603931427,
          -0.03283635899424553,
          0.10179157555103302,
          0.18037031590938568,
          0.03743480518460274,
          -0.01953117549419403,
          -0.2802110016345978,
          0.0018201208440586925,
          -0.13258035480976105,
          0.13519787788391113,
          0.13835085928440094,
          -0.16419032216072083,
          0.07778207957744598,
          -0.22681675851345062,
          -0.012928428128361702,
          0.1255531907081604,
          0.03366457298398018,
          0.27653276920318604,
          -0.008663075976073742,
          -0.02532484009861946,
          0.0641942173242569,
          -0.28725603222846985,
          0.04810738563537598,
          0.10485530644655228,
          -0.16800446808338165,
          -0.008338183164596558
        ],
        [
          0.3306121528148651,
          0.016495896503329277,
          0.09324558824300766,
          0.20684611797332764,
          0.32779866456985474,
          0.08469228446483612,
          0.002460653893649578,
          0.08573556691408157,
          0.023672442883253098,
          -0.2156652957201004,
          0.018077950924634933,
          0.0902036651968956,
          -0.08270429074764252,
          -0.18780340254306793,
          -0.06686796993017197,
          -0.006759982090443373,
          -0.28366589546203613,
          -0.11402159184217453,
          0.21479704976081848,
          -0.11067666113376617,
          -0.16013899445533752,
          -0.11044081300497055,
          0.05688019096851349,
          -0.1089242622256279,
          -0.05756915733218193,
          -0.09396456927061081,
          -0.13890579342842102,
          0.11860280483961105,
          -0.26414039731025696,
          0.12205157428979874,
          -0.26327958703041077,
          0.04262989014387131,
          0.06197930872440338,
          0.062123849987983704,
          0.06777247041463852,
          -0.3573879599571228,
          0.11554348468780518,
          -0.3381543457508087,
          0.18415400385856628,
          0.08891690522432327,
          -0.07810083031654358,
          -0.06942325830459595,
          0.24947938323020935,
          0.2063102275133133,
          -0.2239929735660553,
          -0.10600344836711884,
          -0.3149906098842621,
          0.04157217964529991,
          -0.18510574102401733,
          0.390536367893219,
          0.04889748990535736,
          -0.03966342657804489,
          -0.05936214700341225,
          -0.09565116465091705,
          0.10733892023563385,
          0.23947201669216156,
          0.20834128558635712,
          0.15188418328762054,
          0.21433724462985992,
          -0.28898686170578003,
          0.21003998816013336,
          0.032930344343185425,
          -0.06956179440021515,
          -0.2651802599430084
        ],
        [
          -0.039347585290670395,
          -0.004865589551627636,
          0.19853608310222626,
          -0.13963258266448975,
          0.014953342266380787,
          -0.13134291768074036,
          -0.167434424161911,
          -0.12047971785068512,
          -0.1550826132297516,
          -0.07652980089187622,
          0.14592203497886658,
          -0.20728228986263275,
          -0.16600823402404785,
          0.04334453120827675,
          -0.021404439583420753,
          -0.0011321516940370202,
          0.24042195081710815,
          -0.0516434945166111,
          -0.05456160008907318,
          -0.10577603429555893,
          0.20292861759662628,
          -0.14538517594337463,
          -0.10136501491069794,
          0.014014426618814468,
          -0.1458437144756317,
          -0.024389127269387245,
          0.046411026269197464,
          -0.03962768241763115,
          -0.1424872875213623,
          -0.20345991849899292,
          0.1263509839773178,
          -0.16812539100646973,
          -0.030705122277140617,
          0.006296306382864714,
          0.03352770581841469,
          -0.1069396436214447,
          0.11651083827018738,
          -0.039313770830631256,
          0.15800245106220245,
          -0.08615660667419434,
          0.10104493051767349,
          -0.04791276529431343,
          -0.0077116042375564575,
          0.09737210720777512,
          0.04137282818555832,
          0.0007164655835367739,
          -0.19700780510902405,
          0.10544070601463318,
          -0.026214709505438805,
          -0.23415003716945648,
          -0.05560987815260887,
          -0.11848191916942596,
          0.09983281791210175,
          0.09256518632173538,
          0.15217001736164093,
          0.040218744426965714,
          0.0046620178036391735,
          0.17586979269981384,
          -0.09159187972545624,
          -0.11001197248697281,
          0.14784778654575348,
          -0.08902708441019058,
          -0.07394780963659286,
          -0.09032221883535385
        ],
        [
          -0.07440662384033203,
          0.043095387518405914,
          -0.10413815826177597,
          0.00475319754332304,
          0.08600194752216339,
          0.08463684469461441,
          0.10405268520116806,
          -0.04512054845690727,
          0.06582615524530411,
          0.16367577016353607,
          -0.023717842996120453,
          0.17843089997768402,
          -0.10585974901914597,
          0.1449354588985443,
          -0.10203368961811066,
          0.12749388813972473,
          -0.16619709134101868,
          0.13591361045837402,
          -0.012431877665221691,
          -0.006743467878550291,
          -0.15667493641376495,
          0.2329780012369156,
          -0.07460301369428635,
          0.20288001000881195,
          0.01667625829577446,
          0.04299205541610718,
          -0.09161920100450516,
          0.017275014892220497,
          0.13553982973098755,
          -0.025327960029244423,
          -0.0020173087250441313,
          0.1405497044324875,
          -0.14790140092372894,
          -0.03921912610530853,
          0.049277495592832565,
          0.06717056035995483,
          -0.11423181742429733,
          0.06067874655127525,
          -0.19211922585964203,
          -0.14431916177272797,
          -0.005648722872138023,
          0.10755295306444168,
          -0.03928926959633827,
          0.05069940164685249,
          -0.11922810226678848,
          -0.0860210731625557,
          0.14127503335475922,
          0.0038460951764136553,
          -0.01488121785223484,
          -0.0952291488647461,
          -0.07623811811208725,
          0.17631907761096954,
          -0.11238177120685577,
          0.12945519387722015,
          -0.21842357516288757,
          -0.014945689588785172,
          0.061534054577350616,
          -0.23434773087501526,
          -0.0957409143447876,
          0.02226833999156952,
          -0.1689254641532898,
          0.054502494633197784,
          0.05106370896100998,
          0.1582304984331131
        ],
        [
          -0.15029631555080414,
          0.09527987986803055,
          0.09271620213985443,
          -0.004181941505521536,
          -0.037811338901519775,
          0.04654175788164139,
          -0.2974056005477905,
          -0.1332172453403473,
          -0.14544087648391724,
          0.06075197458267212,
          -0.10759598016738892,
          -0.20870588719844818,
          0.03527807071805,
          -0.10167370736598969,
          0.027160892263054848,
          -0.032945532351732254,
          0.13367688655853271,
          -0.28654077649116516,
          -0.001853661728091538,
          0.049279507249593735,
          0.16429956257343292,
          -0.19897115230560303,
          0.11677555739879608,
          -0.2869538962841034,
          0.034007713198661804,
          -0.09596479684114456,
          0.012134671211242676,
          -0.07078321278095245,
          0.0930963009595871,
          -0.1901721954345703,
          -0.11115474998950958,
          -0.09799204021692276,
          -0.03526642173528671,
          -0.11769405752420425,
          -0.060106534510850906,
          0.2661457061767578,
          -0.051726218312978745,
          -0.016554558649659157,
          -0.04231201112270355,
          0.16802728176116943,
          0.06266292929649353,
          -0.0067909532226622105,
          -0.05460440367460251,
          -0.08294917643070221,
          0.1923081874847412,
          -0.3146993815898895,
          0.2007250338792801,
          -0.10552584379911423,
          0.07444093376398087,
          -0.17553922533988953,
          0.15766793489456177,
          0.09983155131340027,
          0.13350777328014374,
          0.09220269322395325,
          -0.06428755819797516,
          -0.00856370572000742,
          0.0020971859339624643,
          0.08315559476613998,
          -0.08892562985420227,
          0.31911706924438477,
          -0.09773623198270798,
          0.09623450040817261,
          -0.10079490393400192,
          0.21253442764282227
        ],
        [
          0.16928985714912415,
          -0.08933800458908081,
          0.21723127365112305,
          0.13733598589897156,
          -0.016845745965838432,
          -0.028128327801823616,
          0.1424807608127594,
          0.04569998010993004,
          0.12869565188884735,
          -0.1525537371635437,
          0.24632969498634338,
          -0.04304184019565582,
          -0.09829933941364288,
          0.14112965762615204,
          0.1476140171289444,
          -0.10799238085746765,
          0.1316114068031311,
          0.2037470042705536,
          0.07597268372774124,
          -0.13781076669692993,
          0.267056941986084,
          -0.21433289349079132,
          -0.10891648381948471,
          0.07041630893945694,
          -0.07877667993307114,
          -0.1535644680261612,
          -0.06414586305618286,
          -0.012367339804768562,
          -0.04743523150682449,
          0.19701842963695526,
          -0.0036730263382196426,
          -0.054259952157735825,
          0.05708910524845123,
          -0.042003560811281204,
          -0.06491591036319733,
          -0.16579581797122955,
          0.18873237073421478,
          -0.048068270087242126,
          0.03096671961247921,
          0.006980789825320244,
          0.13337112963199615,
          0.027692288160324097,
          0.022567052394151688,
          -0.00954592414200306,
          -0.09025294333696365,
          -0.06974253058433533,
          -0.1892840713262558,
          0.15564654767513275,
          -0.01278136856853962,
          -0.050999801605939865,
          -0.15210430324077606,
          -0.23695258796215057,
          0.011890715919435024,
          0.0012178863398730755,
          0.11622311174869537,
          0.03404359146952629,
          -0.1074274480342865,
          0.1787695437669754,
          0.19147196412086487,
          -0.323762983083725,
          0.06404273211956024,
          -0.06067704036831856,
          -0.07097186148166656,
          0.02231445722281933
        ],
        [
          0.18660932779312134,
          -0.10935208946466446,
          -0.05389890447258949,
          -0.04683661088347435,
          0.3434763252735138,
          -0.1002747192978859,
          0.3255159258842468,
          0.17323392629623413,
          0.007833392359316349,
          0.1530725061893463,
          -0.06261828541755676,
          0.22110037505626678,
          0.15440914034843445,
          -0.023434508591890335,
          -0.06760863959789276,
          -0.04536975547671318,
          -0.30859753489494324,
          0.1315177083015442,
          0.042045094072818756,
          0.05617115646600723,
          -0.19754093885421753,
          0.2268138825893402,
          0.1972954124212265,
          0.21815714240074158,
          0.11722073704004288,
          0.021785443648695946,
          -0.09537873417139053,
          0.4172705411911011,
          0.06618855893611908,
          0.16015022993087769,
          -0.25832706689834595,
          0.19251959025859833,
          0.1022295355796814,
          0.2744053900241852,
          -0.1934119015932083,
          -0.06693878024816513,
          0.03850439563393593,
          -0.1899992823600769,
          -0.045704517513513565,
          -0.13699999451637268,
          -0.18540742993354797,
          0.020781824365258217,
          0.23629339039325714,
          0.04422052949666977,
          0.07434354722499847,
          0.16097354888916016,
          -0.2675473392009735,
          -0.026418212801218033,
          0.015426567755639553,
          0.23187623918056488,
          -0.10835466533899307,
          -0.05716415122151375,
          0.012058937922120094,
          -0.30123478174209595,
          0.08485155552625656,
          0.26262009143829346,
          -0.08712685108184814,
          -0.10361555963754654,
          0.14820359647274017,
          -0.11921727657318115,
          0.10117489099502563,
          0.005171361844986677,
          0.15701398253440857,
          -0.08863624185323715
        ],
        [
          -0.0844826027750969,
          -0.047257907688617706,
          0.12439543753862381,
          -0.06352362036705017,
          0.035209912806749344,
          -0.1279880404472351,
          -0.14024488627910614,
          0.09100671112537384,
          0.09372864663600922,
          -0.25596335530281067,
          0.24225936830043793,
          -0.13634397089481354,
          -0.09096752107143402,
          -0.06909611076116562,
          0.1667577624320984,
          0.06328372657299042,
          0.14152009785175323,
          0.16383272409439087,
          0.04274614527821541,
          -0.07729749381542206,
          0.26865917444229126,
          -0.1453140825033188,
          0.04103560745716095,
          -0.0798180028796196,
          0.017753103747963905,
          -0.08940044045448303,
          0.13668020069599152,
          -0.26754868030548096,
          -0.1633986383676529,
          -0.0322461798787117,
          0.021869229152798653,
          -0.02175719290971756,
          -0.0549369677901268,
          -0.051092762500047684,
          -0.08154536038637161,
          -0.17490804195404053,
          0.12086554616689682,
          -0.06302563846111298,
          0.20149140059947968,
          -0.1925048530101776,
          0.06969600915908813,
          -0.07928048074245453,
          0.12253165245056152,
          0.07152654230594635,
          -0.19628001749515533,
          0.057471469044685364,
          -0.26017215847969055,
          0.1652667224407196,
          0.04756321758031845,
          -0.08250368386507034,
          -0.024065174162387848,
          -0.23611874878406525,
          -0.05474996566772461,
          0.022275902330875397,
          0.1325552612543106,
          0.14729325473308563,
          0.08138753473758698,
          0.1079142615199089,
          0.1251988708972931,
          -0.14053672552108765,
          -0.0016538474010303617,
          -0.0957280844449997,
          -0.028502553701400757,
          -0.123008131980896
        ],
        [
          0.13499826192855835,
          -0.2876022160053253,
          -0.1370348036289215,
          0.07527507841587067,
          -0.007303451653569937,
          -0.02127022109925747,
          -0.033066850155591965,
          -0.2033277451992035,
          -0.17303356528282166,
          -0.03944409266114235,
          -0.043235842138528824,
          0.020444665104150772,
          0.21503646671772003,
          -0.0667121410369873,
          0.02831895463168621,
          0.15378513932228088,
          -0.07318978756666183,
          -0.0030487494077533484,
          0.09657169133424759,
          0.09220603853464127,
          -0.14651161432266235,
          0.006610925309360027,
          -0.09068836271762848,
          0.13083916902542114,
          -0.1058170348405838,
          0.14698682725429535,
          -0.02371281012892723,
          0.1633010059595108,
          -0.17676076292991638,
          -0.23142816126346588,
          -0.1480838507413864,
          -0.012014265172183514,
          0.010995759628713131,
          -0.015934720635414124,
          0.01879052072763443,
          0.204222172498703,
          0.22199900448322296,
          -0.17624589800834656,
          -0.16793601214885712,
          0.010924285277724266,
          0.04229263588786125,
          0.15722714364528656,
          -0.059110406786203384,
          -0.14966608583927155,
          0.08631028234958649,
          -0.030516676604747772,
          0.04273472726345062,
          -0.12907113134860992,
          0.08928637951612473,
          0.025507597252726555,
          0.06272021681070328,
          -0.021648287773132324,
          0.25016313791275024,
          0.047789521515369415,
          0.01072545163333416,
          0.008406043983995914,
          -0.08714322000741959,
          0.0586886927485466,
          -0.07041262835264206,
          -0.10960320383310318,
          0.034122124314308167,
          0.21364061534404755,
          -0.07913458347320557,
          -0.043437663465738297
        ],
        [
          -0.18902795016765594,
          0.1058964729309082,
          0.127792090177536,
          -0.035397280007600784,
          -0.180121511220932,
          0.06881390511989594,
          -0.13847647607326508,
          -0.06964744627475739,
          -0.13318702578544617,
          -0.07215932756662369,
          0.11964377015829086,
          0.0013081659562885761,
          -0.022203875705599785,
          -0.06321695446968079,
          0.15025943517684937,
          0.01964055933058262,
          0.03784928843379021,
          -0.009802507236599922,
          0.19853222370147705,
          0.005545113235712051,
          0.06311620771884918,
          -0.0701151117682457,
          -0.1423303335905075,
          0.020638592541217804,
          -0.17989949882030487,
          -0.16367779672145844,
          0.06588972359895706,
          -0.2880184054374695,
          -0.2025032639503479,
          0.02587602101266384,
          0.24900943040847778,
          -0.134498730301857,
          0.13769356906414032,
          0.03774087131023407,
          0.07183363288640976,
          -0.11332155764102936,
          0.07234504073858261,
          0.055365800857543945,
          0.04975659027695656,
          -0.01753179356455803,
          0.004935588221997023,
          -0.10841163247823715,
          0.07576295733451843,
          0.03150659799575806,
          0.07205187529325485,
          0.0606045201420784,
          -0.03960993513464928,
          0.0044839270412921906,
          -0.1116313710808754,
          -0.1929173767566681,
          -0.061372850090265274,
          -0.15880480408668518,
          -0.05671389028429985,
          0.2016310840845108,
          -0.0034239047672599554,
          -0.18794044852256775,
          -0.12261120229959488,
          0.0939992293715477,
          -0.14449703693389893,
          -0.22877323627471924,
          0.14923858642578125,
          -0.14226390421390533,
          0.08635975420475006,
          -0.10681062936782837
        ],
        [
          0.010249024257063866,
          -0.06001691892743111,
          -0.15286661684513092,
          0.007254795636981726,
          -0.028633959591388702,
          0.09124546498060226,
          -0.0031014317646622658,
          0.02152601256966591,
          -0.08525791764259338,
          0.22758902609348297,
          -0.24040988087654114,
          -0.09806683659553528,
          0.0892992615699768,
          0.16959013044834137,
          -0.0809410810470581,
          -0.0736197754740715,
          -0.013330278918147087,
          -0.04491904750466347,
          0.04103531315922737,
          -0.10542336106300354,
          0.03874744847416878,
          0.15005145967006683,
          -0.0348186194896698,
          -0.0742684155702591,
          -0.12426818907260895,
          0.022629007697105408,
          0.03897906839847565,
          -0.013000168837606907,
          0.1356208622455597,
          0.11197109520435333,
          -0.024114595726132393,
          0.049320999532938004,
          -0.0605742372572422,
          -0.010860603302717209,
          0.021798962727189064,
          0.27416691184043884,
          -0.061641763895750046,
          0.04869404807686806,
          -0.12811297178268433,
          0.14828740060329437,
          -0.11682073026895523,
          -0.07471823692321777,
          -0.15953771770000458,
          0.0703381896018982,
          0.29286468029022217,
          -0.2682827115058899,
          0.29023322463035583,
          -0.0843077078461647,
          0.004195570480078459,
          0.01157706044614315,
          0.03238188475370407,
          0.022068049758672714,
          0.08036059886217117,
          0.07479508221149445,
          0.009349018335342407,
          0.029000893235206604,
          -0.08496284484863281,
          -0.14315934479236603,
          0.005841120611876249,
          0.3115617632865906,
          -0.11078950017690659,
          0.12402734160423279,
          -0.06023165583610535,
          0.2418351024389267
        ],
        [
          -0.009402688592672348,
          -0.055246539413928986,
          0.002735461574047804,
          0.043760061264038086,
          0.0017687483923509717,
          -0.16940076649188995,
          0.04534551128745079,
          -0.04921779781579971,
          -0.2338225543498993,
          -0.06466427445411682,
          -0.07197445631027222,
          -0.030946798622608185,
          -0.025512823835015297,
          0.18495705723762512,
          0.13669754564762115,
          0.18840479850769043,
          -0.02191195823252201,
          0.3064262568950653,
          0.04186346009373665,
          0.03484085202217102,
          0.10089549422264099,
          -0.047827836126089096,
          -0.05213670805096626,
          0.13095301389694214,
          0.09924342483282089,
          -0.10845547914505005,
          -0.035413190722465515,
          -0.10156016796827316,
          -0.03150365501642227,
          -0.025582049041986465,
          0.04346818849444389,
          -0.10735660791397095,
          0.030350368469953537,
          0.0019054008880630136,
          0.17671619355678558,
          0.08828442543745041,
          -0.21952243149280548,
          -0.137945756316185,
          -0.07600165903568268,
          -0.12413140386343002,
          0.041631244122982025,
          0.13082067668437958,
          0.01782362163066864,
          -0.13080258667469025,
          -0.17748673260211945,
          -0.11149182170629501,
          0.12964601814746857,
          -0.13564462959766388,
          0.14415264129638672,
          -0.22746337950229645,
          0.05069882795214653,
          0.14690305292606354,
          0.08295971900224686,
          0.15528951585292816,
          -0.15811745822429657,
          -0.07026085257530212,
          0.08215904980897903,
          -0.1293030083179474,
          0.024430502206087112,
          -0.1606835275888443,
          -0.29226839542388916,
          -0.10244699567556381,
          -0.029668470844626427,
          0.16929180920124054
        ],
        [
          -0.11246562004089355,
          0.04587920010089874,
          0.24194200336933136,
          -0.13497298955917358,
          0.014790063723921776,
          -0.1183541938662529,
          -0.08588580787181854,
          0.025832606479525566,
          0.047167133539915085,
          -0.0758436992764473,
          0.03769345581531525,
          -0.19126959145069122,
          -0.16945649683475494,
          -0.0555933341383934,
          -0.03448006510734558,
          -0.07317783683538437,
          0.15759262442588806,
          -0.017283856868743896,
          0.15912823379039764,
          -0.0593286007642746,
          -0.002217354951426387,
          -0.07848874479532242,
          -0.09923014789819717,
          -0.12322450429201126,
          0.0225058663636446,
          -0.2615356147289276,
          -0.11051957309246063,
          0.04699347913265228,
          -0.17961524426937103,
          -0.10636189579963684,
          0.07381655275821686,
          -0.1409406214952469,
          0.16525934636592865,
          -0.002992368070408702,
          0.026118803769350052,
          -0.11000651121139526,
          0.028226515278220177,
          -0.014927318319678307,
          0.27267125248908997,
          0.05513430014252663,
          0.1284521073102951,
          -0.08414957672357559,
          -0.0438653826713562,
          -0.02584107592701912,
          -0.08003651350736618,
          0.17089740931987762,
          -0.20267976820468903,
          0.05480454862117767,
          -0.15520896017551422,
          -0.03072310984134674,
          0.08947573602199554,
          -0.1749211996793747,
          -0.11095224320888519,
          0.0359443835914135,
          0.24011974036693573,
          0.058498311787843704,
          -0.03999203443527222,
          -0.00027761238743551075,
          0.12761686742305756,
          -0.01187076885253191,
          0.17764317989349365,
          -0.206795334815979,
          0.03711105138063431,
          -0.11969839781522751
        ],
        [
          0.11939465254545212,
          -0.04372991621494293,
          0.07997146248817444,
          0.04952777549624443,
          0.118937186896801,
          0.0639973059296608,
          -0.07185856252908707,
          -0.13874751329421997,
          0.16774828732013702,
          0.14722703397274017,
          -0.14613929390907288,
          0.058576032519340515,
          -0.07860611379146576,
          -0.14515478909015656,
          -0.04848616570234299,
          -0.127742201089859,
          -0.14440621435642242,
          -0.08895383030176163,
          0.08089857548475266,
          -0.16358859837055206,
          -0.1284213364124298,
          0.06164379045367241,
          -0.0009860164718702435,
          -0.03368791937828064,
          -0.03648245707154274,
          0.06711838394403458,
          -0.06458340585231781,
          0.34248077869415283,
          0.2109212875366211,
          0.07663847506046295,
          -0.010769980028271675,
          -0.03474348038434982,
          0.0509670227766037,
          -0.0374799445271492,
          0.0007037282921373844,
          0.2891475260257721,
          -0.09633240103721619,
          0.11657078564167023,
          -0.1989259123802185,
          0.08854469656944275,
          -0.1741621494293213,
          0.06312871724367142,
          -0.027361387386918068,
          0.14153864979743958,
          0.09058013558387756,
          -0.12790249288082123,
          0.1441790759563446,
          -0.08130430430173874,
          -0.049308862537145615,
          0.08541473001241684,
          -0.014254609122872353,
          0.09711310267448425,
          -0.08155996352434158,
          -0.16362586617469788,
          0.02876606583595276,
          -0.13263928890228271,
          0.04045909643173218,
          0.049808237701654434,
          -0.09226838499307632,
          0.1496821939945221,
          0.09684644639492035,
          -0.12135095149278641,
          0.0963747426867485,
          -0.015604482963681221
        ],
        [
          -0.10232516378164291,
          0.08282136917114258,
          0.11408919841051102,
          0.03740013390779495,
          -0.045971162617206573,
          -0.1533811092376709,
          0.08037900924682617,
          0.03060021623969078,
          -0.235892191529274,
          0.09279315173625946,
          0.0331171378493309,
          0.001332852873019874,
          -0.018064696341753006,
          0.015451449900865555,
          0.022714799270033836,
          -0.06595286726951599,
          0.110380619764328,
          0.12408435344696045,
          0.13605304062366486,
          0.036801423877477646,
          0.228279247879982,
          -0.01459044124931097,
          0.06858488917350769,
          0.09985094517469406,
          0.01733202487230301,
          -0.005878611002117395,
          0.0004036278114654124,
          -0.0944371223449707,
          0.12238661199808121,
          0.03256282955408096,
          -0.040690116584300995,
          -0.06838349252939224,
          0.15092599391937256,
          -0.15091656148433685,
          -0.17293347418308258,
          0.03153230994939804,
          -0.13266518712043762,
          -0.01287057064473629,
          0.2208215594291687,
          -0.08250673860311508,
          -0.06601582467556,
          -0.1755378693342209,
          0.09134843200445175,
          0.009530805051326752,
          0.11523822695016861,
          -0.023554271087050438,
          0.3354876935482025,
          -0.12390711158514023,
          -0.1379472315311432,
          -0.2143578827381134,
          0.03353457897901535,
          0.11041581630706787,
          0.05450811982154846,
          0.11234849691390991,
          -0.17227093875408173,
          -0.05714126303792,
          0.10821302235126495,
          -0.10981893539428711,
          -0.2523043155670166,
          -0.039881911128759384,
          0.030260009691119194,
          -0.08808200806379318,
          -0.006686050910502672,
          0.21675719320774078
        ],
        [
          -0.3436286747455597,
          0.16770605742931366,
          -0.03363901749253273,
          0.019389934837818146,
          -0.05207204073667526,
          -0.21233367919921875,
          0.04244986176490784,
          -0.0636785477399826,
          -0.272612065076828,
          -0.055800363421440125,
          0.162563294172287,
          0.0736972913146019,
          -0.11977437883615494,
          -0.1517173796892166,
          -0.03200630471110344,
          0.17437686026096344,
          0.040034566074609756,
          -0.07314767688512802,
          0.12211598455905914,
          0.04487022012472153,
          -0.06111710146069527,
          0.058234862983226776,
          0.019311798736453056,
          -0.1556088626384735,
          0.04033084958791733,
          -0.075380340218544,
          -0.04672446846961975,
          -0.03582420200109482,
          0.10534700006246567,
          -0.2448718547821045,
          0.15302674472332,
          -0.11199793219566345,
          -0.15412798523902893,
          0.20591950416564941,
          -0.08965027332305908,
          -0.028293905779719353,
          0.08727815002202988,
          0.05949387699365616,
          0.06688062846660614,
          -0.10928194224834442,
          0.09329782426357269,
          0.15683366358280182,
          0.1823711097240448,
          -0.10066629946231842,
          -0.2199552357196808,
          0.019653232768177986,
          -0.2719945013523102,
          -0.03996105119585991,
          -0.22454002499580383,
          -0.32810479402542114,
          0.21635942161083221,
          -0.15149392187595367,
          -0.1832125186920166,
          -0.1053541973233223,
          0.1821993738412857,
          -0.00579846603795886,
          -0.19760702550411224,
          0.01079658605158329,
          -0.28062164783477783,
          -0.07370609790086746,
          0.011468544602394104,
          -0.22016474604606628,
          0.20256401598453522,
          -0.28340578079223633
        ],
        [
          0.07693957537412643,
          -0.12758146226406097,
          0.0019750515930354595,
          0.03638805076479912,
          -0.10583215206861496,
          -0.02603035978972912,
          0.05580378696322441,
          0.005847374442964792,
          0.004866586998105049,
          -0.09558837860822678,
          0.19154460728168488,
          -0.1855601817369461,
          0.05287191644310951,
          0.15198831260204315,
          -0.05272553861141205,
          0.016295164823532104,
          0.30901581048965454,
          -0.03145764768123627,
          0.0763874277472496,
          0.05485048517584801,
          0.12437378615140915,
          -0.04097721725702286,
          -0.14126107096672058,
          -0.010366146452724934,
          -0.04833168908953667,
          -0.13568894565105438,
          0.03610626235604286,
          -0.16341166198253632,
          -0.23406921327114105,
          -0.1464257687330246,
          -0.02787766419351101,
          -0.14778311550617218,
          -0.19629716873168945,
          -0.13911494612693787,
          0.16109910607337952,
          -0.05329287797212601,
          0.204961895942688,
          -0.06977201998233795,
          0.14236775040626526,
          -0.11375657469034195,
          0.07056950032711029,
          0.045566800981760025,
          -0.08059298992156982,
          -0.14430604875087738,
          0.028844278305768967,
          0.061501823365688324,
          -0.09926406294107437,
          -0.04965619370341301,
          0.06012218818068504,
          -0.07147133350372314,
          0.02721901424229145,
          -0.08054350316524506,
          -0.018363121896982193,
          0.32674452662467957,
          0.02970745414495468,
          -0.047844089567661285,
          -0.02237066440284252,
          0.07740413397550583,
          0.1141502633690834,
          -0.17826241254806519,
          -0.06790924817323685,
          -0.04725753888487816,
          -0.07553048431873322,
          0.041289620101451874
        ],
        [
          -0.16213802993297577,
          0.15682055056095123,
          0.06167063117027283,
          0.042209938168525696,
          -0.11846082657575607,
          -0.0034025178756564856,
          -0.16943977773189545,
          -0.13144847750663757,
          -0.02102941833436489,
          -0.15438395738601685,
          0.0006854320527054369,
          -0.08860957622528076,
          -0.15870414674282074,
          -0.03148302435874939,
          0.02055322378873825,
          -0.05776634439826012,
          0.07142530381679535,
          -0.052247315645217896,
          -0.014022327959537506,
          -0.09683924168348312,
          0.28628358244895935,
          -0.20109272003173828,
          0.05516558885574341,
          -0.0858243927359581,
          -0.2058863490819931,
          -0.1510622799396515,
          0.08519867062568665,
          -0.17030999064445496,
          -0.19148452579975128,
          -0.04471639171242714,
          0.2687583565711975,
          -0.04363701120018959,
          0.10270506888628006,
          0.02711809240281582,
          -0.03526965156197548,
          -0.008192583918571472,
          0.14326788485050201,
          0.1146259531378746,
          0.1491689532995224,
          0.10004452615976334,
          0.008337149396538734,
          -0.1338387429714203,
          -0.13833829760551453,
          0.05241573229432106,
          -0.007278840988874435,
          -0.0902693048119545,
          -0.004208956379443407,
          0.01300677377730608,
          0.023176109418272972,
          0.029144247993826866,
          0.14014123380184174,
          -0.15738534927368164,
          0.03515949845314026,
          0.0696943923830986,
          -0.0854363888502121,
          -0.042179688811302185,
          0.0982678234577179,
          0.06556440889835358,
          -0.05752407759428024,
          -0.13926257193088531,
          -0.013562379404902458,
          -0.06676503270864487,
          -0.09858754277229309,
          -0.16709774732589722
        ],
        [
          -0.06963171809911728,
          -0.023661799728870392,
          -0.043363913893699646,
          -0.14747372269630432,
          -0.3558122515678406,
          0.004212785977870226,
          -0.06638602912425995,
          -0.2178613394498825,
          -0.13377860188484192,
          -0.05595500394701958,
          0.07207321375608444,
          -0.2954646348953247,
          -0.22540147602558136,
          0.31027498841285706,
          0.15502609312534332,
          -0.05442572012543678,
          0.2106427252292633,
          -0.043081652373075485,
          -0.18505547940731049,
          -0.004304394591599703,
          0.00688380328938365,
          -0.09389945864677429,
          -0.22814135253429413,
          -0.1383884698152542,
          -0.12137573957443237,
          0.08140480518341064,
          -0.14403831958770752,
          0.044953830540180206,
          0.04511424899101257,
          -0.1836903691291809,
          0.17211255431175232,
          -0.03352613002061844,
          -0.08837129175662994,
          -0.1287352740764618,
          0.08937481045722961,
          0.3466065526008606,
          -0.25714170932769775,
          0.17030732333660126,
          -0.1867438703775406,
          -0.11192420870065689,
          -0.06654958426952362,
          -0.023668797686696053,
          -0.26757994294166565,
          -0.08527719229459763,
          0.2203524112701416,
          -0.19493994116783142,
          0.2967939078807831,
          0.004362420178949833,
          -0.01475123967975378,
          -0.11011429876089096,
          0.03809609264135361,
          0.18759748339653015,
          0.19988486170768738,
          0.16448922455310822,
          -0.08601652085781097,
          -0.1884211301803589,
          -0.04292888939380646,
          0.02128424495458603,
          -0.032991815358400345,
          0.280620813369751,
          -0.12727048993110657,
          0.09298335015773773,
          -0.031621091067790985,
          0.30080392956733704
        ],
        [
          -0.15878623723983765,
          0.04088611900806427,
          0.1343940794467926,
          -0.042978424578905106,
          -0.1999451220035553,
          -0.03272860497236252,
          -0.2785581946372986,
          0.03168933838605881,
          -0.08045686781406403,
          -0.05120011419057846,
          -0.04903976619243622,
          -0.1597779393196106,
          -0.12608276307582855,
          0.0275739636272192,
          0.05608019232749939,
          -0.103136345744133,
          0.17894543707370758,
          -0.28363585472106934,
          0.10315798223018646,
          -0.231531023979187,
          0.08101625740528107,
          -0.1987776905298233,
          0.13087990880012512,
          -0.3312777876853943,
          0.05126255378127098,
          -0.09607060998678207,
          0.08558037877082825,
          -0.053897179663181305,
          -0.17035841941833496,
          -0.0716203823685646,
          -0.013942060060799122,
          0.06393982470035553,
          -0.13489024341106415,
          -0.13967230916023254,
          0.13197669386863708,
          0.10296671837568283,
          0.11448513716459274,
          -0.0032235640101134777,
          0.027128906920552254,
          0.1682460904121399,
          0.11109703779220581,
          0.09568627178668976,
          -0.21541248261928558,
          0.03941769525408745,
          -0.03316314518451691,
          0.02407151460647583,
          -0.03239055350422859,
          0.21931470930576324,
          -0.1905323565006256,
          -0.21397769451141357,
          0.07254818081855774,
          -0.0544465035200119,
          0.17839065194129944,
          0.12204243987798691,
          0.24236387014389038,
          0.014305987395346165,
          -0.2282465100288391,
          0.14998480677604675,
          0.10632939636707306,
          0.1304973065853119,
          0.15736843645572662,
          -0.10095880925655365,
          0.13877394795417786,
          0.1310100108385086
        ],
        [
          -0.11382212489843369,
          0.25212785601615906,
          -0.08736634999513626,
          0.28841695189476013,
          0.1479034125804901,
          -0.14695550501346588,
          0.10597651451826096,
          -0.07304362952709198,
          -0.07731470465660095,
          0.15015093982219696,
          0.003557154443114996,
          0.23263008892536163,
          0.13374905288219452,
          -0.1277354210615158,
          -0.19244863092899323,
          0.020082423463463783,
          -0.01902044750750065,
          -0.012644380331039429,
          -0.07161860167980194,
          -0.01209227554500103,
          -0.15047559142112732,
          -0.03915639966726303,
          0.04680132865905762,
          0.105592280626297,
          -0.05655103176832199,
          0.018373124301433563,
          0.08710715174674988,
          0.060812246054410934,
          -0.076481394469738,
          -0.17835760116577148,
          0.14119145274162292,
          0.03036068007349968,
          0.039593830704689026,
          0.18781167268753052,
          0.06614276021718979,
          -0.20613552629947662,
          -0.14997127652168274,
          -0.1465732753276825,
          0.059969834983348846,
          0.01540316641330719,
          -0.2044287621974945,
          0.06259115040302277,
          -0.08030856400728226,
          0.06881888955831528,
          0.019567662850022316,
          -0.056093692779541016,
          0.06829053163528442,
          0.10950099676847458,
          -0.27469974756240845,
          0.20603275299072266,
          0.1384982019662857,
          -0.016801832243800163,
          -0.23961302638053894,
          -0.15356607735157013,
          0.1533076912164688,
          -0.10197991877794266,
          -0.16626133024692535,
          -0.053132083266973495,
          -0.2698102593421936,
          0.01346367783844471,
          0.18288058042526245,
          -0.05847311019897461,
          0.1974029839038849,
          -0.13000178337097168
        ],
        [
          0.009591223672032356,
          -0.10782188922166824,
          0.06123105064034462,
          -0.008257067762315273,
          -0.04272083193063736,
          -0.022733760997653008,
          0.20419543981552124,
          -0.04803764447569847,
          -0.01883675716817379,
          0.13998042047023773,
          -0.013257761485874653,
          0.004662687890231609,
          0.00480818934738636,
          0.007711469195783138,
          -0.08968110382556915,
          0.1041494756937027,
          -0.06652948260307312,
          -0.16422951221466064,
          0.06287088990211487,
          0.09645912796258926,
          -0.209766685962677,
          0.13895158469676971,
          -0.0027377232909202576,
          0.06916704773902893,
          -0.035078082233667374,
          -0.0031121496576815844,
          0.1179427057504654,
          0.15847660601139069,
          0.0176363717764616,
          -0.21636757254600525,
          0.1273626983165741,
          -0.07272662967443466,
          0.03441784530878067,
          -0.1628594547510147,
          0.02898615039885044,
          0.29959967732429504,
          0.013218561187386513,
          0.02752968668937683,
          -0.04446874558925629,
          0.055679626762866974,
          0.029827618971467018,
          0.06371846795082092,
          -0.021139303222298622,
          0.1285959929227829,
          0.022884080186486244,
          -0.012471402063965797,
          0.20792455971240997,
          -0.09937649220228195,
          -0.05411716550588608,
          -0.11551960557699203,
          0.22332078218460083,
          0.006752888672053814,
          0.07897073775529861,
          -0.15997010469436646,
          -0.09354902058839798,
          -0.1750364601612091,
          -0.07062265276908875,
          -0.07331264019012451,
          -0.11781306564807892,
          0.2452004998922348,
          -0.12864872813224792,
          -0.09391437470912933,
          0.08809022605419159,
          0.1005086675286293
        ],
        [
          0.29075032472610474,
          0.059185951948165894,
          0.18934085965156555,
          -0.038796328008174896,
          0.00854419358074665,
          0.030583009123802185,
          -0.014250677078962326,
          -0.006978771649301052,
          0.27977755665779114,
          -0.08597563952207565,
          -0.17775604128837585,
          0.10314024984836578,
          -0.0846429318189621,
          -0.10957447439432144,
          -0.11935602128505707,
          -0.16988958418369293,
          0.024755941703915596,
          -0.004797382280230522,
          -0.03477831557393074,
          -0.07641138881444931,
          -0.1621113270521164,
          0.07502647489309311,
          0.05695315822958946,
          -0.022346818819642067,
          -0.0814102366566658,
          -0.007229885086417198,
          0.04949890449643135,
          0.14032793045043945,
          -0.08135860413312912,
          -0.08419153094291687,
          -0.042658835649490356,
          -0.014197862707078457,
          -0.06001075357198715,
          -0.12815754115581512,
          0.023870984092354774,
          0.006849455181509256,
          0.013392670080065727,
          -0.00453062541782856,
          0.00363040785305202,
          0.14129722118377686,
          0.09050847589969635,
          -0.1481863111257553,
          -0.049711111932992935,
          0.06528359651565552,
          0.20169124007225037,
          -0.11636047810316086,
          -0.10461857914924622,
          0.049887530505657196,
          0.11474849283695221,
          0.27624833583831787,
          -0.11951403319835663,
          0.005768791306763887,
          0.06011927127838135,
          -0.15766820311546326,
          0.09481362998485565,
          0.02198757417500019,
          0.0393453873693943,
          -0.0895332545042038,
          0.05832129344344139,
          0.20675349235534668,
          0.12180820852518082,
          -0.04078548774123192,
          -0.07964927703142166,
          -0.11343754827976227
        ],
        [
          0.20107018947601318,
          -0.03381635248661041,
          0.028085244819521904,
          -0.046688273549079895,
          -0.023181242868304253,
          -0.10623210668563843,
          0.17880353331565857,
          0.04784848541021347,
          -0.07857870310544968,
          -0.04739541932940483,
          0.15505138039588928,
          0.1063852533698082,
          -0.013482718728482723,
          -0.07806730270385742,
          0.15881642699241638,
          0.040511831641197205,
          0.1564103662967682,
          0.08566667884588242,
          -0.04699533060193062,
          0.06400927156209946,
          0.04773538187146187,
          -0.1963200867176056,
          -0.10420504957437515,
          -0.011338496580719948,
          -0.07564926892518997,
          -0.06754811853170395,
          0.14501960575580597,
          -0.07945357263088226,
          -0.2997571527957916,
          -0.2480420619249344,
          0.055109210312366486,
          -0.017312534153461456,
          0.11406754702329636,
          -0.089554563164711,
          -0.20459477603435516,
          0.09030326455831528,
          0.22628895938396454,
          -0.20537400245666504,
          0.007473263423889875,
          -0.1835961490869522,
          0.06863552331924438,
          0.11741088330745697,
          -0.020690031349658966,
          -0.21005435287952423,
          -0.0437164381146431,
          0.15314500033855438,
          -0.2923562824726105,
          -0.11522118002176285,
          0.19865424931049347,
          -0.16009216010570526,
          0.03247789666056633,
          -0.09459876269102097,
          0.12991765141487122,
          0.13732773065567017,
          0.010459366254508495,
          0.2589832544326782,
          0.04256058856844902,
          -0.04146447032690048,
          -0.05899631232023239,
          -0.19631661474704742,
          0.189475879073143,
          0.08265834301710129,
          -0.01061255857348442,
          -0.17074164748191833
        ],
        [
          0.11916433274745941,
          0.10629067569971085,
          0.05086329206824303,
          -0.03343035653233528,
          0.145423024892807,
          -0.0008893476915545762,
          -0.12482991814613342,
          0.13353852927684784,
          0.049515873193740845,
          -0.07402562350034714,
          0.04457968845963478,
          -0.18491514027118683,
          0.031163817271590233,
          -0.1835915446281433,
          0.11036429554224014,
          -0.13942351937294006,
          -0.029058074578642845,
          -0.34259891510009766,
          0.21213030815124512,
          0.007090290077030659,
          -0.12430989742279053,
          -0.0779956802725792,
          0.02746471017599106,
          -0.028533419594168663,
          -0.211220845580101,
          0.08184223622083664,
          -0.055185459554195404,
          -0.07048118114471436,
          -0.2677089273929596,
          -0.012854545377194881,
          -0.03615304455161095,
          0.0676351860165596,
          0.23683758080005646,
          0.04661108925938606,
          -0.059167370200157166,
          -0.17634670436382294,
          0.37686893343925476,
          -0.0263227466493845,
          0.07640198618173599,
          0.2528684139251709,
          0.05273912101984024,
          -0.08745986223220825,
          0.06399092823266983,
          0.17766976356506348,
          0.08932958543300629,
          -0.1444368213415146,
