{
  "layers": [
    {
      "type": "global_mean_pool",
      "act": "",
      "W": [],
      "b": []
    },
    {
      "type": "lin",
      "act": "tanh",
      "W": [
        [
          -0.01562795229256153,
          -0.1959073543548584,
          0.1539975255727768,
          -0.15736828744411469,
          -0.030820952728390694,
          -0.06383956968784332,
          -0.2706117033958435,
          -0.13890379667282104,
          0.01699395477771759,
          0.30765485763549805,
          0.17517881095409393,
          -0.017864281311631203,
          -0.05338067188858986,
          -0.32305485010147095,
          0.21893538534641266,
          0.10464612394571304,
          -0.07240360230207443,
          0.08214307576417923,
          -0.2048952430486679,
          -0.027002086862921715,
          0.1913185566663742
        ],
        [
          -0.5125740766525269,
          0.013708860613405704,
          -0.49692502617836,
          -0.12429876625537872,
          -0.325437992811203,
          -0.3026108741760254,
          -0.2658649981021881,
          0.1724088042974472,
          -0.6850866675376892,
          -0.020855428650975227,
          -0.42136645317077637,
          -0.2684954106807709,
          -0.14015363156795502,
          -0.05356179177761078,
          -0.17116744816303253,
          -0.10375979542732239,
          -0.28887662291526794,
          -0.5841566324234009,
          -0.44081562757492065,
          0.17509326338768005,
          0.19288496673107147
        ],
        [
          0.024892227724194527,
          0.34369921684265137,
          0.1636407971382141,
          -0.39339467883110046,
          -0.08774955570697784,
          0.13117845356464386,
          -0.06623856723308563,
          -0.0006284168339334428,
          0.006264704745262861,
          0.22602656483650208,
          -0.21783098578453064,
          0.3230264484882355,
          0.019312696531414986,
          0.039336446672677994,
          0.258140504360199,
          -0.1239745020866394,
          -0.0549568235874176,
          0.06950020045042038,
          0.34295517206192017,
          -0.30842822790145874,
          -0.07496887445449829
        ],
        [
          -0.2403738796710968,
          0.2754075825214386,
          0.1508249193429947,
          0.24118046462535858,
          0.15035498142242432,
          0.05608997866511345,
          0.1333099752664566,
          -0.12407523393630981,
          0.0013500747736543417,
          0.030853984877467155,
          0.4156514108181,
          0.07206793874502182,
          -0.21897104382514954,
          0.3324075937271118,
          -0.025869406759738922,
          0.07899931818246841,
          -0.2282295823097229,
          -0.0009547163499519229,
          0.07584843039512634,
          0.09272723644971848,
          -0.02475348860025406
        ],
        [
          0.1581154465675354,
          0.026619145646691322,
          0.431315153837204,
          -0.4543621838092804,
          0.11383090913295746,
          -0.10856513679027557,
          0.015492132864892483,
          0.06961752474308014,
          0.3803512454032898,
          0.13818174600601196,
          0.2965531051158905,
          0.13364675641059875,
          0.05401603505015373,
          0.4321695864200592,
          0.2532479763031006,
          -0.09286200255155563,
          0.25886303186416626,
          0.3024802505970001,
          0.1485355794429779,
          -0.3511088192462921,
          -0.22251175343990326
        ],
        [
          0.10472524166107178,
          -0.1742820292711258,
          0.07860448956489563,
          0.4106857478618622,
          -0.19896569848060608,
          0.14943717420101166,
          -0.09960541874170303,
          0.21211518347263336,
          0.21798744797706604,
          -0.2570545971393585,
          0.30532586574554443,
          0.25409525632858276,
          0.05192644149065018,
          -0.11236738413572311,
          0.011827206239104271,
          0.013994717970490456,
          -0.06451700627803802,
          0.215834379196167,
          0.0555160790681839,
          0.16682498157024384,
          0.05023958161473274
        ],
        [
          0.15377984941005707,
          0.08733324706554413,
          -0.12079180032014847,
          -0.418504536151886,
          -0.0783366784453392,
          0.19634224474430084,
          -0.15772761404514313,
          -0.2509332597255707,
          0.19577397406101227,
          0.1716487556695938,
          0.1649387925863266,
          -0.1767641007900238,
          -0.2627357840538025,
          0.16370800137519836,
          0.2965303361415863,
          0.06028676778078079,
          0.06752093881368637,
          0.14544735848903656,
          0.40515777468681335,
          -0.3021116256713867,
          -0.26807448267936707
        ],
        [
          0.04271287843585014,
          -0.049167901277542114,
          -0.1089637279510498,
          0.24279722571372986,
          0.0723949447274208,
          0.046358898282051086,
          -0.3514065444469452,
          0.05079587921500206,
          0.28885290026664734,
          -0.18254990875720978,
          -0.13566990196704865,
          0.17023968696594238,
          -0.22847232222557068,
          0.17573736608028412,
          -0.11332487314939499,
          -0.12458443641662598,
          -0.16806748509407043,
          -0.053071003407239914,
          -0.2993694841861725,
          0.20167513191699982,
          0.062499869614839554
        ],
        [
          -0.441743940114975,
          -0.21160194277763367,
          0.27872025966644287,
          0.18363240361213684,
          0.15671171247959137,
          -0.18554970622062683,
          -0.12384269386529922,
          -0.03152201697230339,
          -0.07297353446483612,
          -0.15184910595417023,
          0.10995714366436005,
          -0.10567893087863922,
          0.05082147940993309,
          -0.04645061120390892,
          -0.16849181056022644,
          0.1272197663784027,
          0.01532425731420517,
          -0.14800971746444702,
          -0.4069291949272156,
          0.26017823815345764,
          0.17573809623718262
        ],
        [
          0.035183168947696686,
          0.22692222893238068,
          -0.20453788340091705,
          0.13766217231750488,
          0.014132498763501644,
          -0.12483806163072586,
          0.18082326650619507,
          -0.19977672398090363,
          -0.08711271733045578,
          -0.09073316305875778,
          -0.21570871770381927,
          0.37124934792518616,
          -0.05678536742925644,
          0.11822385340929031,
          -0.14229528605937958,
          0.1616724580526352,
          -0.06447487324476242,
          -0.13220888376235962,
          0.06514126807451248,
          0.010173291899263859,
          0.32614025473594666
        ],
        [
          -0.3004544675350189,
          -0.13138069212436676,
          0.2295396327972412,
          0.20062358677387238,
          0.2679768204689026,
          0.07377973198890686,
          -0.11904370784759521,
          0.2232428640127182,
          0.16823765635490417,
          -0.05725839361548424,
          0.2694317102432251,
          0.050635647028684616,
          0.30789104104042053,
          -0.026103392243385315,
          -0.23449526727199554,
          -0.07024533301591873,
          0.06932166963815689,
          0.13832169771194458,
          -0.11338027566671371,
          0.16824260354042053,
          -0.2840852737426758
        ],
        [
          0.07848996669054031,
          -0.051544614136219025,
          -0.08983008563518524,
          -0.34663257002830505,
          -0.05912267416715622,
          0.14620327949523926,
          -0.02689484693109989,
          -0.09217695146799088,
          0.09236955642700195,
          0.03763094171881676,
          0.13479559123516083,
          -0.39427614212036133,
          -0.06506587564945221,
          -0.34164103865623474,
          0.03703963756561279,
          -0.09033875912427902,
          0.06388713419437408,
          0.004936088342219591,
          0.20447899401187897,
          0.1074250116944313,
          0.01097826473414898
        ],
        [
          -0.10473974049091339,
          -0.3046027421951294,
          0.04181922227144241,
          -0.2409421056509018,
          0.061688099056482315,
          0.1336647868156433,
          -0.013291757553815842,
          0.23293061554431915,
          0.21096189320087433,
          0.08284536749124527,
          -0.3408636748790741,
          0.31817498803138733,
          -0.21205997467041016,
          -0.0739564523100853,
          0.18458512425422668,
          0.170914426445961,
          0.013456928543746471,
          0.017378048971295357,
          -0.1325618028640747,
          -0.01942758820950985,
          0.027734076604247093
        ],
        [
          0.09706632792949677,
          -0.06002146378159523,
          0.011287513189017773,
          -0.22092901170253754,
          0.19065453112125397,
          0.00016240680997725576,
          0.2365752011537552,
          -0.12368497997522354,
          0.11904625594615936,
          0.0915120467543602,
          0.1737317591905594,
          0.012017285451292992,
          0.25715234875679016,
          0.09203795343637466,
          0.15643267333507538,
          -0.13326188921928406,
          -0.1329296976327896,
          0.06359892338514328,
          0.17592249810695648,
          -0.22268877923488617,
          -0.12214147299528122
        ],
        [
          0.15270480513572693,
          0.23853126168251038,
          0.021931353956460953,
          -0.20450176298618317,
          -0.11896087974309921,
          -0.02808508463203907,
          0.011457934975624084,
          0.21261905133724213,
          0.06160220131278038,
          0.22336918115615845,
          -0.03269866108894348,
          0.13316503167152405,
          0.19767139852046967,
          -0.2720114290714264,
          0.023001784458756447,
          -0.02195897325873375,
          -0.028147941455245018,
          -0.22330151498317719,
          0.09346774220466614,
          0.27961692214012146,
          0.09679664671421051
        ],
        [
          0.2844991981983185,
          0.0380391851067543,
          -0.058576550334692,
          0.31838205456733704,
          -0.06638174504041672,
          -0.00034448926453478634,
          -0.1759391576051712,
          0.1611076295375824,
          -0.15363959968090057,
          -0.15136447548866272,
          0.20997580885887146,
          0.1608157902956009,
          -0.11362744122743607,
          0.2946605086326599,
          -0.06896811723709106,
          -0.12056094408035278,
          0.37255799770355225,
          -0.11122825741767883,
          -0.2909286320209503,
          0.036118075251579285,
          -0.07258416712284088
        ],
        [
          -0.17311535775661469,
          -0.12911978363990784,
          0.2189115285873413,
          -0.08627855777740479,
          0.05466639623045921,
          -0.16362889111042023,
          -0.014020102098584175,
          -0.16412310302257538,
          -0.03175383061170578,
          -0.06856422126293182,
          0.17904050648212433,
          -0.3846677541732788,
          -0.16014954447746277,
          -0.25547632575035095,
          0.15330031514167786,
          -0.15477243065834045,
          -0.095211461186409,
          0.21030648052692413,
          0.06296199560165405,
          0.1758938878774643,
          -0.20256328582763672
        ],
        [
          -0.170238196849823,
          -0.13807810842990875,
          0.25271856784820557,
          -0.009538480080664158,
          -0.08767571300268173,
          -0.03469476476311684,
          -0.23358502984046936,
          0.008299239911139011,
          -0.08314382284879684,
          0.3077564239501953,
          0.03776014968752861,
          -0.1418328583240509,
          0.09366808086633682,
          -0.10957838594913483,
          0.05239449813961983,
          0.11318277567625046,
          0.04421578347682953,
          -0.10819563269615173,
          0.17777982354164124,
          -0.009561197832226753,
          -0.06616691499948502
        ],
        [
          0.29204657673835754,
          0.10176369547843933,
          0.24339938163757324,
          0.20929886400699615,
          -0.027875326573848724,
          0.21476921439170837,
          0.41230639815330505,
          -0.2254764288663864,
          0.054864998906850815,
          -0.06336386501789093,
          0.3099455237388611,
          -0.06256885081529617,
          0.05209529027342796,
          -0.008515028282999992,
          0.22819599509239197,
          0.1700185239315033,
          -0.16776596009731293,
          0.25650325417518616,
          0.015138240531086922,
          -0.14503030478954315,
          -0.0027618396561592817
        ],
        [
          -0.18052572011947632,
          -0.6421887874603271,
          0.15438498556613922,
          -0.08252736926078796,
          -0.057105325162410736,
          -0.10651718080043793,
          -0.1949642449617386,
          -0.19608142971992493,
          -0.12490370869636536,
          -0.06991773843765259,
          -0.34313011169433594,
          -0.06738486886024475,
          0.2879936993122101,
          -0.5037153959274292,
          -0.29370975494384766,
          -0.13741736114025116,
          -0.039257656782865524,
          0.06914489716291428,
          -0.014077744446694851,
          -0.07715990394353867,
          0.17598941922187805
        ],
        [
          0.2042350023984909,
          -0.18896891176700592,
          -0.08848466724157333,
          -0.35046690702438354,
          -0.1560695916414261,
          0.1356867402791977,
          -0.04899098351597786,
          0.12038857489824295,
          -0.1269507259130478,
          0.059788260608911514,
          -0.2949979603290558,
          0.31476885080337524,
          -0.1143868938088417,
          0.008932081051170826,
          -0.19129396975040436,
          -0.020497672259807587,
          0.23699112236499786,
          0.10706274956464767,
          -0.18242529034614563,
          0.08855188637971878,
          -0.07406692951917648
        ],
        [
          -0.13206548988819122,
          0.28164759278297424,
          -0.049523092806339264,
          0.16667285561561584,
          -0.1465785801410675,
          -0.09885559976100922,
          0.04755924269556999,
          0.08255063742399216,
          -0.016959842294454575,
          -0.15698568522930145,
          0.22747212648391724,
          -0.026690984144806862,
          -0.19405460357666016,
          -0.1563669741153717,
          0.28292110562324524,
          -0.10879834741353989,
          0.07154704630374908,
          -0.15671974420547485,
          -0.11903335899114609,
          -0.129070445895195,
          -0.14146313071250916
        ],
        [
          0.07473909109830856,
          0.07198414206504822,
          0.21860241889953613,
          -0.21729592978954315,
          0.12733010947704315,
          -0.18341811001300812,
          0.19876617193222046,
          0.16515801846981049,
          0.079921655356884,
          0.23757562041282654,
          0.06575501710176468,
          -0.0002057175152003765,
          0.14935770630836487,
          -0.10526866465806961,
          0.060836296528577805,
          -0.1886766254901886,
          0.15352366864681244,
          -0.27888309955596924,
          -0.22594299912452698,
          0.08039471507072449,
          -0.19987604022026062
        ],
        [
          -0.2050056904554367,
          -0.241193488240242,
          0.028964629396796227,
          -0.02032584883272648,
          0.20508669316768646,
          0.1161341443657875,
          -0.1457793265581131,
          -0.19015581905841827,
          0.06579390913248062,
          0.1181781217455864,
          -0.3047583997249603,
          0.19587133824825287,
          0.16584710776805878,
          0.10100258141756058,
          -0.21088571846485138,
          0.2619161605834961,
          0.029838310554623604,
          0.12752506136894226,
          -0.18406620621681213,
          0.1800077110528946,
          -0.1644258201122284
        ],
        [
          0.28756678104400635,
          0.03129017353057861,
          0.09465022385120392,
          0.09387210756540298,
          0.04182777553796768,
          0.02762269787490368,
          0.10313254594802856,
          -0.025065075606107712,
          -0.16244196891784668,
          -0.09512894600629807,
          0.3315911889076233,
          -0.07397922873497009,
          -0.011720797047019005,
          0.07254989445209503,
          0.23217307031154633,
          0.2488284409046173,
          0.069063700735569,
          -0.06829892843961716,
          -0.2742368280887604,
          0.09162460267543793,
          -0.07124772667884827
        ],
        [
          0.11417076736688614,
          -0.2429538071155548,
          0.1311333030462265,
          0.3231857717037201,
          0.11658861488103867,
          0.046728506684303284,
          -0.26825398206710815,
          0.3425291180610657,
          -0.19861997663974762,
          -0.3107350766658783,
          0.22374139726161957,
          -0.014976704493165016,
          -0.0687800720334053,
          0.37670427560806274,
          -0.24528658390045166,
          -0.175833597779274,
          0.13395744562149048,
          -0.19050365686416626,
          0.18090473115444183,
          -0.32298266887664795,
          0.03789524734020233
        ],
        [
          -0.11394556611776352,
          -0.4071497619152069,
          -0.2630040943622589,
          0.161637082695961,
          0.0003275972558185458,
          -0.17314061522483826,
          0.18993718922138214,
          0.11588774621486664,
          0.049548808485269547,
          -0.10535982251167297,
          0.09414011240005493,
          0.19043488800525665,
          0.19873185455799103,
          -0.13822901248931885,
          0.19788315892219543,
          0.1456580013036728,
          0.07088695466518402,
          0.17854030430316925,
          0.4355776607990265,
          -0.41891393065452576,
          0.19746717810630798
        ],
        [
          -0.2864762246608734,
          0.08278360962867737,
          -0.1894787847995758,
          0.08720934391021729,
          -0.030373213812708855,
          -0.05418335273861885,
          -0.10726458579301834,
          0.07677990943193436,
          0.1946655958890915,
          0.06588708609342575,
          0.14933909475803375,
          0.10886740684509277,
          0.25509071350097656,
          -0.02375233732163906,
          -0.07514769583940506,
          0.13021805882453918,
          -0.273833692073822,
          -0.19637556374073029,
          0.06306048482656479,
          -0.14764703810214996,
          0.16799622774124146
        ],
        [
          -0.07787124067544937,
          -0.030368484556674957,
          0.1564318984746933,
          -0.20561285316944122,
          0.17326869070529938,
          0.15029190480709076,
          -0.11861817538738251,
          -0.3060268759727478,
          -0.1335923671722412,
          -0.10997284203767776,
          -0.2675560712814331,
          0.06533355265855789,
          -0.03087558038532734,
          -0.2575802505016327,
          -0.059747327119112015,
          -0.23258714377880096,
          0.21881218254566193,
          -0.037915632128715515,
          -0.14509297907352448,
          0.10341530293226242,
          -0.12606452405452728
        ],
        [
          0.2696325182914734,
          0.27920904755592346,
          0.13487069308757782,
          -0.19630838930606842,
          0.06685583293437958,
          0.20194467902183533,
          -0.004158076364547014,
          0.18061769008636475,
          0.05990559607744217,
          0.08971308916807175,
          0.10618066787719727,
          -0.1486559808254242,
          -0.3547617197036743,
          0.13162869215011597,
          0.16570253670215607,
          -0.1705406904220581,
          0.21830901503562927,
          -0.2900865972042084,
          -0.05125972628593445,
          0.47157618403434753,
          0.07333231717348099
        ],
        [
          -0.0863579511642456,
          0.18298085033893585,
          -0.021099288016557693,
          0.14315178990364075,
          0.024562785401940346,
          0.10593022406101227,
          -0.09727858752012253,
          -0.12183766812086105,
          -0.02135801687836647,
          -0.015434694476425648,
          0.2802768647670746,
          -0.35064226388931274,
          -0.040258750319480896,
          -0.06655008345842361,
          -0.08638206869363785,
          0.12353703379631042,
          -0.02950604259967804,
          -0.2825509011745453,
          0.03695899620652199,
          -0.18120324611663818,
          0.033554837107658386
        ],
        [
          -0.11526070535182953,
          -0.2697769105434418,
          -0.048888757824897766,
          -0.08272773772478104,
          -0.07696680724620819,
          0.19169090688228607,
          -0.166741743683815,
          0.16906921565532684,
          0.08618512004613876,
          -0.15505515038967133,
          -0.009432071819901466,
          0.14550504088401794,
          -0.2468232661485672,
          -0.10443457961082458,
          0.2208920270204544,
          0.21746663749217987,
          -0.21530285477638245,
          0.1634403020143509,
          -0.023095346987247467,
          -0.21030102670192719,
          -0.016187623143196106
        ],
        [
          0.0649929866194725,
          -0.07106563448905945,
          0.13372494280338287,
          -0.31866466999053955,
          0.21768847107887268,
          0.17183810472488403,
          0.15801109373569489,
          0.034259092062711716,
          0.03837346285581589,
          -0.004607470240443945,
          0.017333636060357094,
          -0.22876694798469543,
          -0.07935287058353424,
          -0.2299516499042511,
          0.15465055406093597,
          0.27866414189338684,
          -0.25189146399497986,
          0.035943180322647095,
          0.1108897253870964,
          0.1864699423313141,
          0.11890439689159393
        ],
        [
          0.07026290893554688,
          -0.03892658278346062,
          0.09236466139554977,
          0.2337845116853714,
          -0.2836250364780426,
          -0.21679173409938812,
          -0.17404869198799133,
          0.041982151567935944,
          -0.026071520522236824,
          -0.08783149719238281,
          -0.13086293637752533,
          0.044405847787857056,
          -0.3973289728164673,
          0.16974537074565887,
          0.20404507219791412,
          -0.3430650234222412,
          -0.09986579418182373,
          0.08294746279716492,
          -0.08669998496770859,
          0.3544633388519287,
          0.08920013159513474
        ],
        [
          0.01636112853884697,
          0.2112138867378235,
          -0.0984649509191513,
          0.2068122923374176,
          0.013074977323412895,
          -0.13941296935081482,
          0.1082308366894722,
          -0.18734531104564667,
          0.06384959816932678,
          0.041610222309827805,
          0.1526186466217041,
          -0.2594989240169525,
          -0.13051913678646088,
          -0.023469949141144753,
          0.2797999382019043,
          -0.26758936047554016,
          0.15679731965065002,
          -0.1192227303981781,
          -0.016923852264881134,
          0.20490343868732452,
          0.23373135924339294
        ],
        [
          -0.08962185680866241,
          0.22448480129241943,
          0.16746334731578827,
          0.13925701379776,
          0.2707241475582123,
          -0.10440291464328766,
          -0.04168599471449852,
          -0.1319746971130371,
          0.02657456509768963,
          0.07496966421604156,
          0.13830804824829102,
          -0.2989529073238373,
          -0.010590621270239353,
          -0.05353885516524315,
          -0.18510952591896057,
          -0.0837659165263176,
          0.010691232979297638,
          -0.09324031323194504,
          0.1696348637342453,
          -0.0952216386795044,
          0.15958774089813232
        ],
        [
          -0.10162343084812164,
          -0.16697782278060913,
          0.23639710247516632,
          0.062764972448349,
          0.011580880731344223,
          -0.114537812769413,
          0.05177343264222145,
          -0.16648082435131073,
          0.10014989227056503,
          0.2299409955739975,
          -0.16241054236888885,
          -0.22059303522109985,
          -0.20745080709457397,
          0.26505783200263977,
          0.24610668420791626,
          0.060651395469903946,
          0.2048846185207367,
          -0.030274933204054832,
          -0.3517899513244629,
          0.22357043623924255,
          0.10345929861068726
        ],
        [
          0.3160255551338196,
          -0.07140915095806122,
          0.18495692312717438,
          0.09076788276433945,
          0.17796912789344788,
          -0.1977757066488266,
          0.3558292090892792,
          -0.2079697996377945,
          0.1389206498861313,
          -0.010379631072282791,
          -0.15425124764442444,
          0.11603176593780518,
          0.07939250022172928,
          -0.20850367844104767,
          -0.1015288308262825,
          -0.031161988154053688,
          0.3273477852344513,
          -0.12380071729421616,
          0.1708177626132965,
          0.028062505647540092,
          -0.19075921177864075
        ],
        [
          0.006457529962062836,
          -0.11778811365365982,
          -0.10055617988109589,
          -0.21659275889396667,
          -0.11756959557533264,
          -0.08469127118587494,
          0.08332531899213791,
          -0.20583753287792206,
          -0.055559296160936356,
          0.07731020450592041,
          0.12211384624242783,
          -0.3466024696826935,
          0.065113864839077,
          -0.12509144842624664,
          0.1252426654100418,
          0.05433453992009163,
          -0.14459803700447083,
          -0.04017232730984688,
          0.07533440738916397,
          -0.20669867098331451,
          -0.019883668050169945
        ],
        [
          0.04927106574177742,
          0.21361839771270752,
          -0.014804651960730553,
          0.12409791350364685,
          -0.08029626309871674,
          -0.1514483094215393,
          0.1621328741312027,
          -0.16674329340457916,
          -0.05915152654051781,
          -0.20132087171077728,
          -0.11900264769792557,
          0.08177147060632706,
          0.14393335580825806,
          0.24237850308418274,
          0.03129888325929642,
          0.14925190806388855,
          -0.1302558183670044,
          0.006056379061192274,
          0.00173172855284065,
          0.2940327227115631,
          -0.20288094878196716
        ],
        [
          -0.04343302175402641,
          -0.08883106708526611,
          0.04882688447833061,
          -0.02619200386106968,
          -0.13543538749217987,
          -0.17039430141448975,
          -0.252541720867157,
          0.14872443675994873,
          0.20605091750621796,
          -0.2690025568008423,
          -0.09829072654247284,
          0.1587279736995697,
          -0.2614079415798187,
          0.30405744910240173,
          0.19413842260837555,
          0.06093492731451988,
          -0.2141430526971817,
          0.15711571276187897,
          0.12361285090446472,
          0.14311368763446808,
          -0.18774306774139404
        ],
        [
          -0.21385906636714935,
          0.19698253273963928,
          0.03668830916285515,
          -0.1363554149866104,
          -0.07030487805604935,
          -0.12109562009572983,
          0.12827518582344055,
          -0.016212807968258858,
          0.15613365173339844,
          0.18964941799640656,
          0.0969650074839592,
          -0.0542430616915226,
          -0.04817862808704376,
          0.22740401327610016,
          -0.25000452995300293,
          0.23131561279296875,
          -0.15683721005916595,
          0.09839516133069992,
          0.026715070009231567,
          -0.14797453582286835,
          0.11449287086725235
        ],
        [
          -0.02720082737505436,
          -0.33469170331954956,
          -0.07199862599372864,
          -0.13485769927501678,
          -0.03127620369195938,
          0.04417329654097557,
          0.1895504593849182,
          -0.18721382319927216,
          0.24272862076759338,
          -0.048528704792261124,
          -0.1997794210910797,
          -0.18116341531276703,
          -0.12959012389183044,
          -0.346309095621109,
          -0.16990973055362701,
          -0.33055806159973145,
          0.0313899889588356,
          0.16946853697299957,
          0.15994110703468323,
          0.24031628668308258,
          -0.0860804095864296
        ],
        [
          -0.006331360433250666,
          -0.15793576836585999,
          0.3047470152378082,
          -0.6836190223693848,
          0.2776043713092804,
          0.1746552437543869,
          0.07687370479106903,
          0.11926597356796265,
          0.06869027763605118,
          0.4276362657546997,
          0.04113474860787392,
          0.1587468534708023,
          -0.11748277395963669,
          0.3423071503639221,
          0.32556989789009094,
          0.21359506249427795,
          0.12136369943618774,
          0.12929530441761017,
          0.40377750992774963,
          -0.30775272846221924,
          0.30925968289375305
        ],
        [
          0.26513105630874634,
          0.10420280694961548,
          -0.13295459747314453,
          0.07855130732059479,
          0.0027383635751903057,
          0.07310499995946884,
          -0.02963796816766262,
          0.14577898383140564,
          0.1404658854007721,
          -0.22894884645938873,
          0.013161423616111279,
          0.059600695967674255,
          -0.2175145000219345,
          0.07201004773378372,
          -0.014591177925467491,
          -0.15148109197616577,
          -0.04576535522937775,
          -0.06844626367092133,
          0.28145819902420044,
          -0.010925261303782463,
          0.2820531129837036
        ],
        [
          0.10824756324291229,
          0.0761830285191536,
          0.0890994668006897,
          0.20496492087841034,
          -0.16843031346797943,
          -0.12690800428390503,
          0.00813292060047388,
          0.006026186048984528,
          0.05352151393890381,
          0.009736177511513233,
          0.2703325152397156,
          0.049223389476537704,
          -0.008157470263540745,
          -0.18555758893489838,
          -0.16255861520767212,
          -0.17405536770820618,
          0.15712882578372955,
          0.08921273052692413,
          0.23365217447280884,
          -0.10615565627813339,
          -0.06082605943083763
        ],
        [
          0.07206098735332489,
          -0.0026017907075583935,
          0.08693362772464752,
          -0.25996866822242737,
          0.03007531724870205,
          0.022701602429151535,
          0.20144496858119965,
          -0.06270506232976913,
          -0.22388890385627747,
          0.08226032555103302,
          -0.11984758079051971,
          0.011822987347841263,
          0.2534050941467285,
          0.02584688551723957,
          -0.1280190348625183,
          -0.028249921277165413,
          0.005660229828208685,
          -0.2793222963809967,
          0.13548371195793152,
          -0.06593482196331024,
          0.0565023347735405
        ],
        [
          0.0097393449395895,
          0.16215510666370392,
          0.04183096066117287,
          0.27668026089668274,
          -0.1254153996706009,
          0.18775829672813416,
          -0.02272825874388218,
          -0.12502388656139374,
          0.1478910744190216,
          -0.20929822325706482,
          0.040000058710575104,
          -0.11895310133695602,
          -0.32781028747558594,
          0.2880961000919342,
          -0.10327218472957611,
          0.0957249104976654,
          -0.21185581386089325,
          0.045352112501859665,
          0.010029918514192104,
          0.17241355776786804,
          -0.1485109180212021
        ],
        [
          0.13578830659389496,
          0.04535108059644699,
          0.13425329327583313,
          -0.055872343480587006,
          0.07527991384267807,
          -0.1287686824798584,
          -0.1773749738931656,
          0.25056037306785583,
          -0.1823953241109848,
          -0.061649441719055176,
          -0.15973085165023804,
          0.41916969418525696,
          -0.021418679505586624,
          -0.11303103715181351,
          -0.09835246205329895,
          0.04940872639417648,
          0.16351670026779175,
          0.15714283287525177,
          -0.14394637942314148,
          0.18853063881397247,
          -0.15031400322914124
        ],
        [
          0.03202516958117485,
          0.2515564262866974,
          0.09302128851413727,
          -0.17216159403324127,
          -0.12203235924243927,
          0.006900470238178968,
          -0.20878663659095764,
          -0.22721540927886963,
          -0.27492648363113403,
          -0.21347346901893616,
          0.12345543503761292,
          0.13762237131595612,
          -0.0778917595744133,
          0.16208933293819427,
          -0.2806483805179596,
          -0.010936028324067593,
          -0.1125558614730835,
          -0.1730407178401947,
          0.12479939311742783,
          -0.1582678258419037,
          0.195932537317276
        ],
        [
          -0.24994811415672302,
          0.02217061072587967,
          -0.1211637333035469,
          -0.0037106412928551435,
          -0.17006991803646088,
          0.09012626856565475,
          -0.3134412467479706,
          0.09324781596660614,
          -0.17057055234909058,
          0.04122081771492958,
          -0.27827760577201843,
          0.09852775931358337,
          -0.19146201014518738,
          0.15505777299404144,
          0.05923118814826012,
          -0.4159419536590576,
          0.04061442241072655,
          -0.15719002485275269,
          0.10752859711647034,
          0.1123274564743042,
          -0.15940679609775543
        ],
        [
          -0.04399290680885315,
          0.11620957404375076,
          -0.26957499980926514,
          0.22933349013328552,
          0.007572048809379339,
          0.13408201932907104,
          0.20108266174793243,
          -0.22422365844249725,
          0.07839493453502655,
          -0.16588012874126434,
          0.08419255167245865,
          -0.04428119957447052,
          0.18159227073192596,
          0.23172080516815186,
          -0.007916987873613834,
          0.1597403883934021,
          -0.1511630117893219,
          -0.07805748283863068,
          -0.3602003753185272,
          0.20736122131347656,
          -0.04436378553509712
        ],
        [
          -0.08179803192615509,
          0.23824834823608398,
          0.11252250522375107,
          -0.1306144744157791,
          -0.22148215770721436,
          0.04672002047300339,
          0.04905325546860695,
          -0.037194397300481796,
          -0.05079958960413933,
          -0.273846298456192,
          0.055538903921842575,
          0.3696499466896057,
          -0.23868948221206665,
          0.266474187374115,
          0.09576389193534851,
          0.24537228047847748,
          -0.09770436584949493,
          0.024221118539571762,
          0.15100905299186707,
          0.07759588956832886,
          0.41669654846191406
        ],
        [
          0.12511907517910004,
          0.22924195230007172,
          0.15508010983467102,
          -0.21949796378612518,
          0.04742584004998207,
          0.017145344987511635,
          0.35740676522254944,
          -0.08855082094669342,
          -0.043667156249284744,
          0.22974367439746857,
          -0.08274388313293457,
          -0.22894826531410217,
          -0.09180950373411179,
          0.20176970958709717,
          0.24577143788337708,
          -0.10417919605970383,
          0.19511693716049194,
          -0.17460206151008606,
          -0.22023656964302063,
          0.33448144793510437,
          0.02813001163303852
        ],
        [
          0.046690575778484344,
          -0.007669697981327772,
          0.08791375160217285,
          -0.08723095059394836,
          -0.044235676527023315,
          -0.030477959662675858,
          -0.002060891594737768,
          0.222520649433136,
          0.1447458565235138,
          0.004972136113792658,
          -0.10462743043899536,
          0.40416219830513,
          0.1449880748987198,
          0.09977757930755615,
          0.3253166675567627,
          -0.058222584426403046,
          0.1702509969472885,
          0.2607461214065552,
          0.31767386198043823,
          -0.20133179426193237,
          0.19090673327445984
        ],
        [
          0.09019744396209717,
          0.024021068587899208,
          0.06607770174741745,
          -0.21192099153995514,
          0.02873980812728405,
          0.26459217071533203,
          -0.0529644750058651,
          -0.19217565655708313,
          -0.22016367316246033,
          -0.07103095203638077,
          -0.2113679200410843,
          0.012068195268511772,
          0.012742639519274235,
          0.25439807772636414,
          0.10895411670207977,
          0.26500171422958374,
          0.003762895939871669,
          -0.1392744928598404,
          -0.22276461124420166,
          0.03333748131990433,
          0.3437664806842804
        ],
        [
          -0.00026435666950419545,
          -0.11545059829950333,
          -0.19309888780117035,
          -0.10873095691204071,
          -0.21207991242408752,
          0.1724449247121811,
          -0.04017987474799156,
          -0.23053458333015442,
          0.04878156632184982,
          -0.035798080265522,
          -0.19961896538734436,
          0.2556350827217102,
          0.1873113363981247,
          -0.3440989851951599,
          -0.1727638989686966,
          -0.15704958140850067,
          -0.15491613745689392,
          -0.17284806072711945,
          0.30335041880607605,
          -0.10598087310791016,
          -0.22356610000133514
        ],
        [
          -0.260112464427948,
          -0.3024064302444458,
          0.3337734043598175,
          -0.32187211513519287,
          0.03631288558244705,
          -0.1420125812292099,
          0.18138565123081207,
          -0.04397661238908768,
          0.08528906106948853,
          0.12388265877962112,
          -0.15785683691501617,
          0.01613627001643181,
          0.3298742473125458,
          -0.19940072298049927,
          0.02101314626634121,
          -0.07952622324228287,
          -0.14550374448299408,
          0.2997595965862274,
          -0.09878156334161758,
          0.2678373456001282,
          0.03398726508021355
        ],
        [
          -0.16481299698352814,
          -0.16122981905937195,
          0.2795034646987915,
          -0.3737231194972992,
          0.19233205914497375,
          -0.019526170566678047,
          -0.03654469922184944,
          0.1520671546459198,
          -0.1047215610742569,
          0.1762017011642456,
          -0.22046202421188354,
          -0.18700867891311646,
          0.20110276341438293,
          0.08145309239625931,
          -0.17916281521320343,
          0.02394944615662098,
          -0.23188729584217072,
          0.08506573736667633,
          0.038798876106739044,
          -0.0585329495370388,
          0.06065572053194046
        ],
        [
          0.0889403373003006,
          -0.13839560747146606,
          0.012756883166730404,
          0.30231961607933044,
          0.21679459512233734,
          -0.18030495941638947,
          -0.3096376061439514,
          0.04894305020570755,
          0.11652834713459015,
          0.041812386363744736,
          0.2760445177555084,
          -0.34106141328811646,
          0.16936449706554413,
          -0.2337479293346405,
          0.06380312144756317,
          0.06168763339519501,
          0.07684196531772614,
          0.17832344770431519,
          -0.10897086560726166,
          -0.18335916101932526,
          -0.38343968987464905
        ],
        [
          0.2312735915184021,
          0.03132501617074013,
          -0.3119502365589142,
          0.30370253324508667,
          0.059194304049015045,
          -0.25153571367263794,
          0.23636549711227417,
          -0.00884038582444191,
          -0.07224459201097488,
          0.021752364933490753,
          0.1295197755098343,
          0.26447799801826477,
          0.15808825194835663,
          0.11884903907775879,
          -0.03245941177010536,
          -0.3332061469554901,
          0.15141180157661438,
          -0.24779361486434937,
          0.0623764805495739,
          0.06778205186128616,
          -0.04647669568657875
        ],
        [
          -0.24697238206863403,
          -0.1924145370721817,
          0.24356742203235626,
          0.2573242783546448,
          0.18304987251758575,
          -0.08802574127912521,
          -0.122513547539711,
          -0.015733806416392326,
          0.14719736576080322,
          -0.07951994985342026,
          0.2231680005788803,
          0.026307174935936928,
          -0.2484028935432434,
          0.01624157652258873,
          -0.04198867082595825,
          -0.10997544229030609,
          0.06051823869347572,
          -0.029381947591900826,
          0.25581488013267517,
          -0.1868003010749817,
          0.07232385873794556
        ],
        [
          -0.2584390938282013,
          -0.40245965123176575,
          0.02855156920850277,
          0.2508164048194885,
          0.11571745574474335,
          -0.2793562412261963,
          0.04467279464006424,
          -0.28030768036842346,
          -0.02179003320634365,
          -0.2086547464132309,
          -0.2388172745704651,
          0.1614728718996048,
          -0.05178934335708618,
          -0.4712739884853363,
          -0.060912519693374634,
          -0.13776732981204987,
          -0.05534794181585312,
          0.1593051254749298,
          -0.06188040226697922,
          -0.1906713843345642,
          -0.26599690318107605
        ],
        [
          -0.17433172464370728,
          -0.29377657175064087,
          0.08869198709726334,
          -0.14437983930110931,
          0.006945934612303972,
          -0.07107333838939667,
          0.23261389136314392,
          0.04145175218582153,
          -0.17018960416316986,
          -0.02892127074301243,
          -0.3039178252220154,
          0.10845931619405746,
          -0.3260735273361206,
          -0.14916758239269257,
          0.28672289848327637,
          -0.13736951351165771,
          0.026997609063982964,
          0.04367445036768913,
          0.4229849576950073,
          -0.3635560870170593,
          0.10257726907730103
        ]
      ],
      "b": [
        -0.01008572243154049,
        0.016351092606782913,
        0.15205025672912598,
        -0.17643319070339203,
        -0.09435100108385086,
        0.24717867374420166,
        -0.140274316072464,
        -0.19844950735569,
        -0.05338818579912186,
        -0.05335734412074089,
        -0.08424597233533859,
        -0.1976870745420456,
        0.07923358678817749,
        -0.20061475038528442,
        0.01674460619688034,
        0.14245298504829407,
        -0.015235655009746552,
        0.040032170712947845,
        0.08411592245101929,
        -0.08849328756332397,
        -0.0908341258764267,
        -0.04862846061587334,
        -0.16984382271766663,
        -0.09169120341539383,
        0.2717464864253998,
        -0.00970206968486309,
        0.09561751782894135,
        0.14108413457870483,
        -0.04711248725652695,
        -0.06524354964494705,
        -0.1485181748867035,
        -0.053091373294591904,
        0.0979735255241394,
        -0.18310712277889252,
        -0.010775613598525524,
        0.056169454008340836,
        0.21141347289085388,
        0.05812787264585495,
        -0.0631566122174263,
        0.21862708032131195,
        0.08751145005226135,
        0.0681847557425499,
        -0.11388437449932098,
        -0.27342286705970764,
        -0.02011030912399292,
        -0.03465840592980385,
        0.04130297899246216,
        0.04827631637454033,
        0.12317202985286713,
        0.27437785267829895,
        -0.07793555408716202,
        -0.24290616810321808,
        -0.033878177404403687,
        -0.11310287564992905,
        0.11370715498924255,
        -0.17766548693180084,
        -0.0582098551094532,
        -0.042932383716106415,
        -0.13992755115032196,
        0.055538807064294815,
        -0.05558910220861435,
        -0.004035119898617268,
        -0.27545973658561707,
        -0.016780754551291466
      ]
    },
    {
      "type": "lin",
      "act": "tanh",
      "W": [
        [
          0.11094320565462112,
          0.07825969159603119,
          0.020710879936814308,
          0.050500690937042236,
          -0.10567855834960938,
          -0.008295292966067791,
          -0.12260797619819641,
          0.089394710958004,
          -0.1675599068403244,
          0.12002716213464737,
          -0.05969873070716858,
          -0.10988134145736694,
          0.10143711417913437,
          0.06803181022405624,
          0.01997385360300541,
          0.0022033285349607468,
          -0.15636548399925232,
          0.026109756901860237,
          -0.003710181685164571,
          -0.17549008131027222,
          0.026564864441752434,
          -0.013001061044633389,
          -0.005527331028133631,
          0.17300887405872345,
          0.049608465284109116,
          -0.14279788732528687,
          -0.11320710927248001,
          -0.04774615541100502,
          -0.11901453137397766,
          -0.09555395692586899,
          -0.1820094883441925,
          0.17403483390808105,
          0.07779180258512497,
          0.06025649979710579,
          -0.1352042555809021,
          -0.23865807056427002,
          -0.06550392508506775,
          -0.05175342783331871,
          -0.09391187131404877,
          0.00532548688352108,
          0.23408283293247223,
          0.05842011049389839,
          -0.027926133945584297,
          -0.061080507934093475,
          0.09635008871555328,
          -0.005168926902115345,
          -0.37215927243232727,
          -0.03995640203356743,
          0.1261454075574875,
          -0.0718851238489151,
          0.09510011970996857,
          -0.032771240919828415,
          -0.07656209170818329,
          -0.09364231675863266,
          0.026431364938616753,
          0.03887135908007622,
          -0.0027344361878931522,
          0.11096721142530441,
          0.07517819106578827,
          0.07790645211935043,
          -0.14953209459781647,
          0.011005131527781487,
          -0.02600879594683647,
          -0.14326851069927216
        ],
        [
          -0.08852002769708633,
          -0.04494069516658783,
          0.1471441388130188,
          0.12009555101394653,
          0.0948101282119751,
          0.06523329019546509,
          -0.10012559592723846,
          0.12578491866588593,
          0.19944177567958832,
          -0.11565263569355011,
          0.2495749294757843,
          -0.1708800196647644,
          0.039704468101263046,
          -0.0010056353639811277,
          0.15448617935180664,
          0.242890402674675,
          -0.2786458432674408,
          0.014216821640729904,
          -0.1737322360277176,
          -0.15256129205226898,
          0.11979207396507263,
          0.002305131172761321,
          0.25642699003219604,
          0.042262498289346695,
          0.05668853968381882,
          0.2044784277677536,
          -0.19279536604881287,
          -0.08383125066757202,
          -0.05527525022625923,
          0.36374133825302124,
          -0.05291508510708809,
          -0.2631765902042389,
          -0.08474986255168915,
          0.04376167431473732,
          0.06872545182704926,
          0.07047196477651596,
          0.2572029232978821,
          -0.07636454701423645,
          -0.25453251600265503,
          0.14954295754432678,
          -0.028685174882411957,
          0.06438174843788147,
          -0.1854194700717926,
          0.23864535987377167,
          -0.017305491492152214,
          -0.044789090752601624,
          0.1472323089838028,
          0.024509871378540993,
          0.29609784483909607,
          0.13145358860492706,
          0.061469510197639465,
          0.13115516304969788,
          0.24656124413013458,
          0.26312679052352905,
          -0.005904532503336668,
          0.22771498560905457,
          -0.4014556109905243,
          0.08741842210292816,
          0.19108738005161285,
          0.009664858691394329,
          0.08393137902021408,
          -0.14752443134784698,
          -0.11551012098789215,
          -0.24728398025035858
        ],
        [
          0.13559791445732117,
          0.022100243717432022,
          -0.3354652225971222,
          -0.00884629413485527,
          -0.1718374788761139,
          0.16743654012680054,
          -0.2246893048286438,
          0.187011256814003,
          0.21990346908569336,
          0.18364526331424713,
          0.20779864490032196,
          0.10008104145526886,
          -0.27607765793800354,
          0.05641121417284012,
          0.0960557833313942,
          -0.1215437799692154,
          -0.003457089653238654,
          -0.19235795736312866,
          0.11234308034181595,
          0.27347758412361145,
          -0.11867303401231766,
          0.14546194672584534,
          0.03110695257782936,
          0.003078815992921591,
          -0.09915030747652054,
          -0.16781465709209442,
          -0.013153824023902416,
          0.18518884479999542,
          0.05022492632269859,
          -0.05316693335771561,
          0.06799640506505966,
          -0.16548077762126923,
          -0.07600989192724228,
          0.07681728154420853,
          0.1712607741355896,
          0.05997439846396446,
          -0.13396359980106354,
          -0.05897060036659241,
          -0.053204264491796494,
          0.08293619751930237,
          -0.1717323213815689,
          -0.09130235016345978,
          0.15274743735790253,
          -0.2449975460767746,
          0.12037661671638489,
          0.10130653530359268,
          -0.282595694065094,
          -0.00035309544182382524,
          -0.2028198540210724,
          -0.1526089608669281,
          -0.1697632521390915,
          0.14975707232952118,
          -0.02273007296025753,
          -0.15005093812942505,
          -0.1869228631258011,
          -0.1640598028898239,
          0.027101099491119385,
          0.10246997326612473,
          -0.19032913446426392,
          0.16907821595668793,
          -0.07011131942272186,
          -0.03531212732195854,
          0.20682476460933685,
          -0.1527971625328064
        ],
        [
          0.1317054182291031,
          0.018277572467923164,
          -0.09186800569295883,
          -0.15569715201854706,
          -0.026056908071041107,
          -0.15529127418994904,
          -0.034966856241226196,
          -0.20062750577926636,
          0.10842453688383102,
          0.09531630575656891,
          0.04401465132832527,
          0.015163944102823734,
          -0.06504595279693604,
          0.02608449012041092,
          0.23789937794208527,
          -0.18684636056423187,
          -0.0031897772569209337,
          -0.1402483582496643,
          -0.0028105168603360653,
          0.07046572864055634,
          0.003740219399333,
          0.014983661472797394,
          0.13569936156272888,
          0.015795309096574783,
          0.01378706470131874,
          -0.24320076406002045,
          0.028933145105838776,
          -0.014249625615775585,
          0.08724653720855713,
          0.06677950918674469,
          0.018621040508151054,
          -0.21336203813552856,
          -0.00914817489683628,
          -0.1955983191728592,
          -0.13393428921699524,
          0.05788133665919304,
          -0.14144767820835114,
          0.2597914934158325,
          0.1330367624759674,
          -0.05858994275331497,
          -0.39922034740448,
          0.004212534986436367,
          -0.05284426733851433,
          -0.02891550585627556,
          -0.19072245061397552,
          0.08048858493566513,
          0.12317293137311935,
          -0.17892450094223022,
          -0.12188856303691864,
          -0.013016088865697384,
          -0.16808399558067322,
          -0.021200401708483696,
          -0.17599010467529297,
          0.04513685032725334,
          -0.06586258858442307,
          0.08251085877418518,
          0.13116028904914856,
          0.043773047626018524,
          0.0012904712930321693,
          0.006393725518137217,
          0.037338290363550186,
          -0.2938206195831299,
          -0.030164508149027824,
          0.042328231036663055
        ],
        [
          -0.009997822344303131,
          0.1650550663471222,
          -0.04804212972521782,
          -0.0893007293343544,
          -0.17854765057563782,
          0.2591688930988312,
          -0.10205618292093277,
          0.09016188979148865,
          0.14555339515209198,
          0.07484933733940125,
          0.16515807807445526,
          -0.07576627284288406,
          -0.07442294806241989,
          -0.13973230123519897,
          -0.07032108306884766,
          0.13792940974235535,
          -0.24489343166351318,
          0.0682806670665741,
          -0.09860912710428238,
          -0.21235069632530212,
          0.016543352976441383,
          -0.034775059670209885,
          -0.0896327868103981,
          0.18610575795173645,
          -0.02212069369852543,
          0.16241072118282318,
          0.09736579656600952,
          0.21439900994300842,
          -0.07724862545728683,
          -0.1721741110086441,
          -0.13352347910404205,
          0.0884072482585907,
          -0.0034357313998043537,
          0.11540281027555466,
          -0.13474854826927185,
          -0.14177089929580688,
          -0.08229226619005203,
          -0.09997782856225967,
          -0.18201106786727905,
          -0.09785960614681244,
          0.004566243849694729,
          -0.04366877302527428,
          -0.23776717483997345,
          -0.15095263719558716,
          -0.07839111983776093,
          -0.00877930223941803,
          -0.22440727055072784,
          0.02041436918079853,
          0.21402306854724884,
          -0.07093169540166855,
          0.06996577978134155,
          0.005709522403776646,
          -0.1831769347190857,
          -0.2881840467453003,
          -0.05787435546517372,
          -0.07877618074417114,
          -0.15816815197467804,
          -0.05632241070270538,
          -0.039933640509843826,
          0.2787429988384247,
          0.15669432282447815,
          0.19727499783039093,
          -0.06913527101278305,
          -0.14364510774612427
        ],
        [
          0.020360184833407402,
          -0.08680891990661621,
          -0.05297442525625229,
          -0.08192652463912964,
          0.049343500286340714,
          -0.07604911923408508,
          -0.030567577108740807,
          0.05128425732254982,
          0.03966391459107399,
          -0.12532460689544678,
          0.2110235095024109,
          -0.04082205146551132,
          0.02679254487156868,
          0.09238489717245102,
          0.044474776834249496,
          0.04657470062375069,
          0.10763554275035858,
          0.2541739344596863,
          -0.115142323076725,
          0.10048943012952805,
          0.031330689787864685,
          -0.16572023928165436,
          0.06100941076874733,
          0.2005641758441925,
          0.0028674830682575703,
          0.06564217805862427,
          0.08467980474233627,
          -0.09245447814464569,
          0.10784939676523209,
          0.07982873171567917,
          -0.08195805549621582,
          -0.07905254513025284,
          0.02876703254878521,
          -0.022499587386846542,
          -0.24732965230941772,
          0.06859926134347916,
          0.01623384840786457,
          0.2971656322479248,
          0.026578731834888458,
          0.05666699633002281,
          0.13714303076267242,
          -0.1435992419719696,
          0.17362555861473083,
          0.16654355823993683,
          -0.17281098663806915,
          0.006369870621711016,
          0.04649414122104645,
          -0.15537680685520172,
          0.2372400462627411,
          -0.10096785426139832,
          0.13714799284934998,
          -0.17898395657539368,
          -0.31586989760398865,
          -0.12669099867343903,
          -0.07324143499135971,
          -0.28167423605918884,
          -0.060754016041755676,
          0.2695760428905487,
          0.24383758008480072,
          0.3660176396369934,
          -0.11570613086223602,
          0.10046368837356567,
          0.0008952157222665846,
          -0.11873128265142441
        ],
        [
          0.0431307777762413,
          -0.23204049468040466,
          -0.13092343509197235,
          -0.14148029685020447,
          -0.0694269984960556,
          0.1625496745109558,
          0.13922663033008575,
          -0.10306400060653687,
          -0.14687733352184296,
          -0.13989609479904175,
          -0.17701634764671326,
          0.005000302102416754,
          0.09793133288621902,
          -0.02039027400314808,
          -0.101813904941082,
          0.19406436383724213,
          0.03355003148317337,
          -0.22374054789543152,
          0.1548510044813156,
          -0.09364531189203262,
          -0.0031787031330168247,
          0.23665578663349152,
          -0.07206813991069794,
          -0.1395091861486435,
          0.10840825736522675,
          -0.16593888401985168,
          0.15714281797409058,
          -0.14917206764221191,
          0.11202535033226013,
          0.03416837751865387,
          -0.13262292742729187,
          0.052726130932569504,
          0.03599095717072487,
          0.16405680775642395,
          0.26942408084869385,
          -0.1952095925807953,
          0.1103314608335495,
          0.07524093985557556,
          -0.013829013332724571,
          0.049446988850831985,
          -0.0335688591003418,
          -0.22515389323234558,
          0.18861228227615356,
          -0.1836155354976654,
          0.03843091055750847,
          0.016937728971242905,
          -0.2775174081325531,
          0.17092148959636688,
          -0.11638801544904709,
          -0.10129641741514206,
          0.05057750642299652,
          0.0617179237306118,
          -0.14234764873981476,
          0.19759173691272736,
          -0.07879021018743515,
          -0.010054687969386578,
          0.09520576149225235,
          -0.009721407666802406,
          -0.27857035398483276,
          -0.08400490880012512,
          0.16022039949893951,
          0.0328148789703846,
          0.09994678944349289,
          -0.03422246873378754
        ],
        [
          0.07543952018022537,
          0.08376994729042053,
          0.05394501984119415,
          -0.1293964385986328,
          -0.14414845407009125,
          -0.006570345256477594,
          -0.06008949503302574,
          0.005566710606217384,
          0.15454910695552826,
          -0.016245324164628983,
          -0.026218941435217857,
          0.25144270062446594,
          -0.07599848508834839,
          0.035397134721279144,
          0.04413030296564102,
          -0.2366495281457901,
          0.08531386405229568,
          0.0764152780175209,
          0.028270123526453972,
          0.09384315460920334,
          -0.05815941467881203,
          0.042967572808265686,
          0.12207271158695221,
          0.12318525463342667,
          -0.1380186229944229,
          -0.38465413451194763,
          -0.0854799821972847,
          0.08969533443450928,
          0.14336547255516052,
          -0.06872189044952393,
          -0.15115036070346832,
          -0.14359086751937866,
          0.1336730718612671,
          0.02323339506983757,
          0.053695958107709885,
          -0.05139705166220665,
          0.12281299382448196,
          0.1530817449092865,
          0.03575509786605835,
          -0.04237593337893486,
          -0.11138321459293365,
          -0.12301045656204224,
          0.2078876495361328,
          -0.003160420572385192,
          -0.19793209433555603,
          0.08173739165067673,
          -0.011657824739813805,
          -0.20558561384677887,
          -0.00844875629991293,
          -0.19147250056266785,
          -0.10793224722146988,
          -0.15888603031635284,
          -0.32079774141311646,
          0.0873221904039383,
          -0.11895162612199783,
          -0.17371483147144318,
          0.264342725276947,
          0.1976514309644699,
          0.12732557952404022,
          0.17781910300254822,
          -0.2031424343585968,
          -0.18386900424957275,
          0.21157824993133545,
          0.2031797617673874
        ],
        [
          -0.1140374094247818,
          0.05634463578462601,
          -0.18383105099201202,
          0.03234729915857315,
          0.17612238228321075,
          0.010401671752333641,
          0.18867497146129608,
          0.17468692362308502,
          0.017713695764541626,
          0.11011523008346558,
          0.07970581948757172,
          -0.0119017343968153,
          -0.06101052835583687,
          -0.055079929530620575,
          -0.30490192770957947,
          0.24798128008842468,
          0.10920485854148865,
          -0.0229085274040699,
          -0.029913531616330147,
          -0.05103273689746857,
          -0.0644363984465599,
          0.23005443811416626,
          0.0007483709487132728,
          -0.03761345520615578,
          0.11557028442621231,
          0.28536391258239746,
          -0.08622055500745773,
          -0.10073055326938629,
          0.054277244955301285,
          -0.04692687839269638,
          0.04052310436964035,
          0.11407002806663513,
          -0.11632431298494339,
          0.2957439124584198,
          0.03267909958958626,
          0.10333076119422913,
          0.01391196995973587,
          -0.0899815782904625,
          0.0010515828616917133,
          0.07983751595020294,
          0.20165276527404785,
          -0.04418414458632469,
          0.1380147486925125,
          0.18496964871883392,
          0.05813278257846832,
          -0.045386847108602524,
          -0.12919120490550995,
          0.17147284746170044,
          0.12121940404176712,
          0.11610371619462967,
          0.14551573991775513,
          -0.06007320433855057,
          0.17164404690265656,
          -0.002327681053429842,
          0.03809935972094536,
          0.029192203655838966,
          -0.2147865891456604,
          -0.06894591450691223,
          -0.18212439119815826,
          -0.15660125017166138,
          0.021615423262119293,
          0.23579491674900055,
          0.034217048436403275,
          0.1870342642068863
        ],
        [
          -0.21976542472839355,
          -0.18766029179096222,
          -0.03624908626079559,
          0.056441158056259155,
          0.032753266394138336,
          0.13168266415596008,
          -0.0232135821133852,
          -0.1180209144949913,
          -0.0013689709594473243,
          0.11457189172506332,
          0.007627005223184824,
          0.06919579952955246,
          -0.008077125996351242,
          0.08158040791749954,
          0.07747366279363632,
          0.1782921999692917,
          0.04335981234908104,
          -0.26172691583633423,
          0.017541728913784027,
          0.05757586285471916,
          0.023096581920981407,
          0.09395819902420044,
          0.12707854807376862,
          0.00561903603374958,
          0.03097185306251049,
          0.018520226702094078,
          0.030198227614164352,
          0.1439957618713379,
          0.0546114556491375,
          0.1333676278591156,
          -0.12238600105047226,
          -0.16636833548545837,
          -0.04938489943742752,
          0.07275311648845673,
          0.12746946513652802,
          -0.032859548926353455,
          -0.1344432830810547,
          0.0808003768324852,
          -0.09919971227645874,
          0.017259448766708374,
          -0.03405221551656723,
          -0.12474358826875687,
          0.17598006129264832,
          -0.08329635113477707,
          -0.02929924987256527,
          0.13312911987304688,
          -0.09646634012460709,
          0.07100403308868408,
          -0.04056164622306824,
          0.14357639849185944,
          0.125356987118721,
          -0.007301796693354845,
          0.01588401570916176,
          0.18418759107589722,
          0.038392867892980576,
          -0.05690871179103851,
          0.1006479412317276,
          -0.04346245527267456,
          -0.22660662233829498,
          -0.008719047531485558,
          0.16963039338588715,
          -0.06267530471086502,
          0.11237134039402008,
          -0.10717464238405228
        ],
        [
          -0.09272634983062744,
          0.0966230034828186,
          0.023657437413930893,
          0.01841309666633606,
          0.025442099198698997,
          0.12990301847457886,
          -0.07769620418548584,
          0.1355985701084137,
          -0.11972709745168686,
          0.0581822544336319,
          -0.09893528372049332,
          -0.08287263661623001,
          0.1022985428571701,
          -0.07010134309530258,
          -0.1542453020811081,
          -0.08081544190645218,
          -0.08877954632043839,
          -0.08930642902851105,
          -0.17581713199615479,
          -0.22065362334251404,
          0.19416457414627075,
          0.01527324691414833,
          -0.12628354132175446,
          0.120649054646492,
          0.05752188339829445,
          0.031285155564546585,
          -0.12708814442157745,
          -0.041809018701314926,
          0.02911287359893322,
          -0.05720546841621399,
          -0.20560748875141144,
          0.2475554645061493,
          -0.14542156457901,
          0.2123255431652069,
          -0.12876591086387634,
          -0.13656821846961975,
          0.06363169103860855,
          -0.18264493346214294,
          0.008000308647751808,
          -0.012230596505105495,
          0.1988304853439331,
          -0.03815031796693802,
          0.016890395432710648,
          0.1794748306274414,
          0.10902342945337296,
          -0.08509638905525208,
          -0.27807995676994324,
          0.23291952908039093,
          0.10895812511444092,
          0.11168769747018814,
          0.041302893310785294,
          -0.011565384455025196,
          0.05129946023225784,
          -0.036848340183496475,
          0.07205427438020706,
          -0.09662365168333054,
          0.007518482394516468,
          -0.07525542378425598,
          0.003702542046085,
          -0.055117733776569366,
          -0.13657020032405853,
          0.1285809874534607,
          -0.057608798146247864,
          -0.012416054494678974
        ],
        [
          -0.20157083868980408,
          0.04855000972747803,
          0.24673160910606384,
          0.1306079626083374,
          0.0434374175965786,
          0.13446222245693207,
          0.13321174681186676,
          0.2083655595779419,
          0.0021436961833387613,
          0.09155178815126419,
          0.06556689739227295,
          0.005564368795603514,
          0.08021465688943863,
          -0.033987194299697876,
          -0.0948052629828453,
          0.10910027474164963,
          -0.16761896014213562,
          -0.11853789538145065,
          -0.14153224229812622,
          -0.005860785022377968,
          0.20539820194244385,
          -0.0875198096036911,
          0.002608478767797351,
          0.1374656707048416,
          -0.14605438709259033,
          0.15063078701496124,
          0.0865287333726883,
          0.040245361626148224,
          0.08892020583152771,
          0.01924528181552887,
          -0.22927625477313995,
          -0.012547062709927559,
          -0.030649911612272263,
          0.1987384557723999,
          0.007112815976142883,
          -0.2528947591781616,
          0.1297207474708557,
          -0.055565666407346725,
          0.011559268459677696,
          0.1461992710828781,
          0.18290580809116364,
          0.1409440040588379,
          0.06504648178815842,
          0.13501980900764465,
          -0.023157095536589622,
          0.026026776060461998,
          -0.020480288192629814,
          0.12468739598989487,
          0.11358564347028732,
          0.1462581753730774,
          0.26982760429382324,
          -0.13050656020641327,
          0.3016981780529022,
          -0.15261180698871613,
          -0.03677660971879959,
          -0.042624201625585556,
          0.0602472648024559,
          -0.09985475242137909,
          -0.09905915707349777,
          -0.23370812833309174,
          0.021184181794524193,
          -0.15628613531589508,
          -0.027211446315050125,
          0.060975082218647
        ],
        [
          0.10394275933504105,
          0.0799274817109108,
          0.11663269996643066,
          -0.08961502462625504,
          -0.16111338138580322,
          -0.06625109910964966,
          -0.0660138726234436,
          0.19492852687835693,
          -0.11073584109544754,
          0.007536051329225302,
          0.001986866816878319,
          -0.1224660575389862,
          0.14151981472969055,
          -0.03366483747959137,
          -0.04880312457680702,
          -0.1836707592010498,
          -0.10015735775232315,
          0.002366406377404928,
          -0.2336915284395218,
          0.025690292939543724,
          0.1434829980134964,
          0.08732157200574875,
          0.04808412492275238,
          0.12871557474136353,
          -0.055227670818567276,
          0.027844121679663658,
          0.02408810704946518,
          0.09381657093763351,
          -0.1187504231929779,
          -0.08380518853664398,
          -0.13798505067825317,
          0.13993695378303528,
          -0.04912653565406799,
          0.16018527746200562,
          -0.045614246279001236,
          -0.05831380933523178,
          -0.14348167181015015,
          -0.25474339723587036,
          0.0252109095454216,
          -0.15991440415382385,
          0.06139564514160156,
          0.13990777730941772,
          -0.09380407631397247,
          -0.03169930353760719,
          0.18342328071594238,
          -0.02652495913207531,
          -0.14529533684253693,
          0.0727008581161499,
          0.09031042456626892,
          -0.14381632208824158,
          0.09970427304506302,
          0.032172657549381256,
          0.059717193245887756,
          0.023893706500530243,
          -0.09895799309015274,
          0.1201227679848671,
          -0.011088334955275059,
          -0.13668981194496155,
          0.25471124053001404,
          -0.0848669484257698,
          -0.10306499153375626,
          0.040140729397535324,
          -0.12988972663879395,
          -0.0897989273071289
        ],
        [
          0.2232508808374405,
          0.29814639687538147,
          -0.2132076621055603,
          0.05835917592048645,
          -0.1284203678369522,
          0.11252792924642563,
          -0.4378242492675781,
          0.18175747990608215,
          0.3465745747089386,
          0.032071780413389206,
          0.23545347154140472,
          -0.18944068253040314,
          0.04213470593094826,
          -0.22687841951847076,
          0.013683905825018883,
          0.15327993035316467,
          0.022647138684988022,
          0.05380520969629288,
          -0.08447533845901489,
          -0.07329697906970978,
          -0.08757036924362183,
          -0.12378497421741486,
          -0.1004544273018837,
          0.268004447221756,
          0.1571127474308014,
          -0.22346477210521698,
          -0.16098371148109436,
          0.12330330908298492,
          -0.08054663240909576,
          0.11881961673498154,
          -0.0220013614743948,
          -0.12733519077301025,
          0.19177377223968506,
          0.10345817357301712,
          0.18784281611442566,
          0.05106372758746147,
          0.3195740580558777,
          -0.12797203660011292,
          -0.028788011521100998,
          0.05220087245106697,
          -0.016182266175746918,
          -0.03428211808204651,
          -0.17118075489997864,
          -0.3196053206920624,
          -0.32563260197639465,
          -0.3662569522857666,
          0.01818445511162281,
          0.12037535756826401,
          -0.06297066062688828,
          -0.1585739701986313,
          -0.060518670827150345,
          0.08958997577428818,
          -0.13220646977424622,
          0.07074014097452164,
          -0.12766441702842712,
          0.07537642866373062,
          -0.16010291874408722,
          0.20935969054698944,
          0.09479689598083496,
          0.14953266084194183,
          -0.06948905438184738,
          -0.22661949694156647,
          -0.1282036006450653,
          -0.42690160870552063
        ],
        [
          -0.02553904987871647,
          -0.08208798617124557,
          -0.04455242305994034,
          -0.09598028659820557,
          0.09289522469043732,
          0.0631440132856369,
          0.18817996978759766,
          -0.02914542518556118,
          0.012822338379919529,
          -0.01951717399060726,
          -0.26706811785697937,
          -0.034666888415813446,
          0.030993686988949776,
          -0.15809528529644012,
          -0.037133973091840744,
          0.1826295703649521,
          0.1674821525812149,
          0.12305691093206406,
          -0.0009985135402530432,
          0.02928244136273861,
          -0.01618252880871296,
          0.09146686643362045,
          -0.15888461470603943,
          -0.17658059298992157,
          0.09263930469751358,
          0.2617371082305908,
          0.09518216550350189,
          0.0024342178367078304,
          0.05282336845993996,
          -0.009179220534861088,
          0.06831755489110947,
          -0.07810552418231964,
          -0.10099213570356369,
          0.19106291234493256,
          0.1178252100944519,
          0.0616464763879776,
          -0.028813043609261513,
          -0.09131408482789993,
          0.12125514447689056,
          -0.04241475462913513,
          0.26547950506210327,
          0.08399500697851181,
          0.08744680881500244,
          0.021714186295866966,
          0.1854848861694336,
          0.0942634642124176,
          0.05560288205742836,
          0.21378089487552643,
          -0.058201003819704056,
          0.26967453956604004,
          0.16577143967151642,
          -0.21881410479545593,
          0.08486174046993256,
          -0.06161754950881004,
          -0.17286795377731323,
          -0.06894248723983765,
          -0.03572538495063782,
          -0.19884656369686127,
          -0.24440385401248932,
          0.07632370293140411,
          0.10734151303768158,
          0.06971200555562973,
          -0.00398410065099597,
          0.07953806221485138
        ],
        [
          -0.22371405363082886,
          -0.13600005209445953,
          -0.14105649292469025,
          0.0899001806974411,
          -0.14587345719337463,
          0.009865242056548595,
          -0.12401185929775238,
          -0.18913854658603668,
          -0.07025352120399475,
          0.06101680546998978,
          -0.04623620584607124,
          0.08924024552106857,
          -0.10542864352464676,
          0.10777728259563446,
          0.0829261764883995,
          0.19280032813549042,
          -0.04803258925676346,
          -0.18074825406074524,
          0.21893972158432007,
          -0.03991839662194252,
          -0.21249082684516907,
          0.1713075488805771,
          -0.05892602726817131,
          -0.3267626166343689,
          0.13208366930484772,
          0.13378159701824188,
          0.0057626632042229176,
          0.0940740704536438,
          -0.23005884885787964,
          0.04037101939320564,
          0.3025989234447479,
          -0.19138023257255554,
          -0.007531084585934877,
          0.03343017399311066,
          0.14495210349559784,
          0.03947189450263977,
          -0.1996929794549942,
          -0.002111176960170269,
          -0.020986804738640785,
          -0.012673398479819298,
          -0.045251280069351196,
          -0.0857025533914566,
          -0.2104891538619995,
          -0.17443597316741943,
          0.19608324766159058,
          0.07272793352603912,
          0.06456004828214645,
          0.06090104207396507,
          -0.2305442988872528,
          0.020736197009682655,
          -0.012013310566544533,
          0.18809133768081665,
          0.07207106798887253,
          -0.09530152380466461,
          -0.07590492069721222,
          0.1029542088508606,
          -0.11753611266613007,
          -0.3457567095756531,
          -0.2570018172264099,
          0.0490148700773716,
          0.2508560121059418,
          -0.17553122341632843,
          -0.15227065980434418,
          0.016419220715761185
        ],
        [
          0.02093730866909027,
          0.08623018860816956,
          0.035513605922460556,
          0.09205756336450577,
          0.016209660097956657,
          -0.08358905464410782,
          0.0007556875934824347,
          0.06704414635896683,
          -0.01306789368391037,
          0.026344187557697296,
          0.036543235182762146,
          -0.15354126691818237,
          0.1769639253616333,
          -0.08878367394208908,
          0.12766478955745697,
          -0.005842565093189478,
          -0.06295899301767349,
          -0.0801631435751915,
          -0.27158793807029724,
          0.12953917682170868,
          0.337576687335968,
          -0.0525045320391655,
          0.044634751975536346,
          0.23656050860881805,
          0.015426057390868664,
          -0.1256064921617508,
          -0.11342357099056244,
          -0.11714771389961243,
          0.12488359212875366,
          -0.025373974815011024,
          -0.006435029674321413,
          -0.05599050596356392,
          0.06378751993179321,
          0.0011848325375467539,
          -0.14139989018440247,
          -0.048634231090545654,
          -0.12758204340934753,
          0.09189093112945557,
          -0.020981440320611,
          -0.0859290212392807,
          0.02683323621749878,
          0.04582156613469124,
          -0.004033813718706369,
          0.06638220697641373,
          -0.23273275792598724,
          -0.1621793657541275,
          0.24193891882896423,
          -0.11393114179372787,
          0.10879694670438766,
          0.030750136822462082,
          0.10658977180719376,
          -0.015652615576982498,
          0.04181143641471863,
          -0.11013657599687576,
          0.04983646050095558,
          0.183035746216774,
          0.15522396564483643,
          0.20891247689723969,
          0.2954139709472656,
          -0.09076382219791412,
          -0.11565717309713364,
          -0.12476938962936401,
          0.09080758690834045,
          0.12106139957904816
        ],
        [
          -0.12592759728431702,
          -0.27772200107574463,
          0.058248475193977356,
          -0.11891377717256546,
          0.15720701217651367,
          0.02128623053431511,
          0.06815807521343231,
          -0.19916598498821259,
          -0.20783090591430664,
          0.09896022826433182,
          0.06459671258926392,
          -0.04972689598798752,
          0.07003629952669144,
          -0.06522902846336365,
          -0.07252482324838638,
          0.18687422573566437,
          -0.04598136991262436,
          -0.16826646029949188,
          0.13614563643932343,
          -0.1476711481809616,
          0.09572768956422806,
          -0.04968659579753876,
          0.15757577121257782,
          -0.06570414453744888,
          -0.06530382484197617,
          -0.015042969025671482,
          0.022707941010594368,
          -0.22067105770111084,
          0.00952641386538744,
          0.2108399122953415,
          -0.0881711021065712,
          -0.22946789860725403,
          -0.14419695734977722,
          0.05139246955513954,
          0.16735807061195374,
          -0.15493622422218323,
          0.12653598189353943,
          0.3117327392101288,
          -0.09238714724779129,
          0.04565266892313957,
          -0.13909895718097687,
          -0.08341891318559647,
          -0.02365870587527752,
          -0.009618782438337803,
          0.07178892940282822,
          0.03884618356823921,
          0.036532510071992874,
          -0.13084189593791962,
          -0.006264227908104658,
          -0.046081747859716415,
          0.042788490653038025,
          0.11536184698343277,
          -0.2098190039396286,
          0.1676328182220459,
          -0.059569165110588074,
          0.017362086102366447,
          0.09811685234308243,
          -0.1342518925666809,
          -0.04388431832194328,
          -0.16168497502803802,
          0.43029147386550903,
          -0.2191157341003418,
          0.10333171486854553,
          0.06963778287172318
        ],
        [
          -0.20602382719516754,
          -0.04351160302758217,
          0.18362298607826233,
          -0.055650319904088974,
          0.09257283806800842,
          -0.02348979376256466,
          0.14420443773269653,
          0.023257190361618996,
          -0.13732247054576874,
          0.18257169425487518,
          -0.10167396068572998,
          -0.015679433941841125,
          0.15462490916252136,
          0.13362279534339905,
          -0.22034405171871185,
          0.022890767082571983,
          -0.1286013275384903,
          -0.11087162047624588,
          -0.1604456752538681,
          -0.003783730324357748,
          0.154547780752182,
          -0.10284817218780518,
          -0.17490889132022858,
          0.14042167365550995,
          -0.087703637778759,
          0.17368891835212708,
          0.06022261455655098,
          0.06678158789873123,
          -0.015253834426403046,
          -0.1446216106414795,
          -0.13370424509048462,
          -0.04373868182301521,
          -0.011862468905746937,
          -0.057298775762319565,
          -0.05972714349627495,
          -0.202606663107872,
          -0.03334217518568039,
          0.1040412113070488,
          -0.12701934576034546,
          0.20570041239261627,
          0.13234755396842957,
          0.004135796334594488,
          0.019763287156820297,
          0.1430358588695526,
          0.1167684942483902,
          -0.17438742518424988,
          0.1898626834154129,
          0.16660723090171814,
          0.23885880410671234,
          0.2212144434452057,
          0.036702439188957214,
          0.09859973192214966,
          0.31483423709869385,
          -0.2442602813243866,
          0.07862911373376846,
          0.08525162935256958,
          0.20326831936836243,
          0.06998322904109955,
          0.09388914704322815,
          -0.23343254625797272,
          -0.006563420407474041,
          -0.05569224804639816,
          0.08406998962163925,
          0.03824858367443085
        ],
        [
          -0.41327103972435,
          -0.11437363922595978,
          0.22019100189208984,
          -0.22492600977420807,
          0.25460726022720337,
          0.010372805409133434,
          0.11293134093284607,
          -0.3748769760131836,
          -0.3036614954471588,
          0.01963653974235058,
          -0.025529731065034866,
          -0.21203969419002533,
          0.19551220536231995,
          0.0676022619009018,
          -0.014543683268129826,
          0.09425488114356995,
          -0.28129124641418457,
          0.008302818052470684,
          -0.02250167354941368,
          -0.06466493755578995,
          0.059216905385255814,
          -0.16166943311691284,
          -0.04674366116523743,
          -0.3011767566204071,
          0.007833011448383331,
          0.3793566823005676,
          0.345820814371109,
          0.16448970139026642,
          -0.16958394646644592,
          -0.22605906426906586,
          -0.12350572645664215,
          -0.17269325256347656,
          0.06932045519351959,
          -0.16490057110786438,
          -0.277383953332901,
          0.04740622639656067,
          -0.02896648272871971,
          0.33364516496658325,
          0.006295064929872751,
          0.17821356654167175,
          -0.19130051136016846,
          0.081941619515419,
          -0.15562018752098083,
          0.16511626541614532,
          0.1449371576309204,
          0.09503556042909622,
          0.6689764261245728,
          -0.2931762933731079,
          0.05748666450381279,
          0.2625317871570587,
          -0.06279066950082779,
          -0.46110326051712036,
          -0.022466715425252914,
          -0.3247443735599518,
          0.26775893568992615,
          -0.11185101419687271,
          0.12967568635940552,
          -0.21611694991588593,
          -0.059654027223587036,
          -0.11870496720075607,
          0.2946416735649109,
          0.15068143606185913,
          -0.0861956849694252,
          0.31702709197998047
        ],
        [
          0.218230202794075,
          0.26040375232696533,
          0.12449426203966141,
          -0.0665280669927597,
          -0.16396382451057434,
          0.02382228709757328,
          0.04383149743080139,
          0.10909759253263474,
          0.04282013326883316,
          0.002304801484569907,
          -0.01235392689704895,
          -0.03772420808672905,
          0.0023755887523293495,
          -0.08765676617622375,
          -0.10193733870983124,
          -0.1086878776550293,
          -0.14225457608699799,
          -0.024798007681965828,
          -0.08846252411603928,
          -0.06740210205316544,
          0.12420599162578583,
          -0.117690309882164,
          -0.053352151066064835,
          0.11894751340150833,
          -0.17162089049816132,
          -0.044441260397434235,
          -0.07203246653079987,
          -0.01326711568981409,
          -0.07473219931125641,
          -0.07618846744298935,
          -0.012303495779633522,
          0.14979615807533264,
          -0.030627494677901268,
          0.07093609869480133,
          -0.01485330332070589,
          -0.13006147742271423,
          -0.031164070591330528,
          -0.21202890574932098,
          -0.0174461230635643,
          -0.14700642228126526,
          0.040981393307447433,
          0.22894427180290222,
          -0.16427797079086304,
          0.061128418892621994,
          -0.03976792097091675,
          -0.15784353017807007,
          -0.10987528413534164,
          -0.0012021881993860006,
          0.03802311047911644,
          0.057687800377607346,
          -0.04574022814631462,
          -0.05343330278992653,
          0.17527276277542114,
          -0.09778105467557907,
          0.0026718401350080967,
          0.1331331431865692,
          0.023019704967737198,
          -0.08450469374656677,
          0.20722562074661255,
          -0.12654918432235718,
          -0.2878827452659607,
          -0.08566102385520935,
          -0.08109991252422333,
          0.11280348896980286
        ],
        [
          0.006735143251717091,
          0.09197112172842026,
          0.1770535111427307,
          -0.1268661916255951,
          0.058093346655368805,
          -0.0754423514008522,
          0.03582480922341347,
          0.09981472045183182,
          -0.23380091786384583,
          0.07607663422822952,
          -0.2326263189315796,
          0.05767572671175003,
          0.1096300408244133,
          -0.08850735425949097,
          0.11044123023748398,
          -0.05727710947394371,
          -0.09346553683280945,
          0.013441319577395916,
          -0.004194061737507582,
          0.033281631767749786,
          0.20296767354011536,
          -0.06055895984172821,
          -0.06005905941128731,
          0.1519491821527481,
          -0.08547289669513702,
          -0.278750479221344,
          0.047482095658779144,
          -0.08827636390924454,
          -0.010263863019645214,
          0.03962527588009834,
          -0.16218122839927673,
          0.12374348938465118,
          0.04133380576968193,
          -0.03309477120637894,
          -0.10957996547222137,
          -0.3486752212047577,
          -0.04439324513077736,
          -0.0462452657520771,
          -0.07715262472629547,
          -0.007010322995483875,
          0.08101054280996323,
          -0.05236751213669777,
          0.09155793488025665,
          -0.01636342890560627,
          -0.041941311210393906,
          -0.0498611256480217,
          -0.06344610452651978,
          0.05962832272052765,
          0.17167550325393677,
          -0.13650023937225342,
          0.06411661207675934,
          0.10279624164104462,
          -0.05326732248067856,
          0.09120505303144455,
          0.09643097966909409,
          0.0703563317656517,
          0.1516515165567398,
          0.04586631804704666,
          -0.09625223278999329,
          -0.31201717257499695,
          0.16513440012931824,
          -0.2810989022254944,
          -0.027431705966591835,
          0.013928825967013836
        ],
        [
          -0.1303655356168747,
          -0.02051727846264839,
          0.10342401266098022,
          -0.028118547052145004,
          -0.006827029399573803,
          0.11310642212629318,
          0.21183151006698608,
          0.039494190365076065,
          -0.20353524386882782,
          0.1850767880678177,
          -0.25458142161369324,
          0.040975794196128845,
          -0.03671753779053688,
          0.14975303411483765,
          -0.06309410184621811,
          0.058806974440813065,
          -0.20487546920776367,
          -0.09214985370635986,
          0.02468368038535118,
          0.11293523013591766,
          0.06895701587200165,
          0.12168291211128235,
          -0.11564154922962189,
          -0.16041383147239685,
          0.006862613372504711,
          0.0372416228055954,
          0.03316975757479668,
          -0.11578494310379028,
          -0.05575234815478325,
          -0.0067511675879359245,
          0.03477068245410919,
          0.19529813528060913,
          -0.0593872107565403,
          -0.09481476247310638,
          -0.21271689236164093,
          -0.14378787577152252,
          -0.28564566373825073,
          0.035865139216184616,
          -0.0738743469119072,
          -0.08100128918886185,
          0.05421482026576996,
          -0.06229612976312637,
          0.008506565354764462,
          0.09219544380903244,
          0.15113691985607147,
          0.07465007156133652,
          0.02818363718688488,
          -0.010086571797728539,
          0.11693278700113297,
          0.22708015143871307,
          -0.05528033897280693,
          -0.10598470270633698,
          0.1899971216917038,
          -0.15588708221912384,
          0.18206901848316193,
          0.17238476872444153,
          0.17302565276622772,
          -0.21799565851688385,
          -0.13974629342556,
          -0.12375553697347641,
          0.12837263941764832,
          -0.14443688094615936,
          0.01805737055838108,
          -0.0036008364986628294
        ],
        [
          0.01811383292078972,
          0.1646021455526352,
          -0.11643339693546295,
          0.11037929356098175,
          -0.21483145654201508,
          0.25823283195495605,
          0.008109001442790031,
          0.11963103711605072,
          0.0032979100942611694,
          -0.007152483332902193,
          -0.07894407212734222,
          -0.11416659504175186,
          -0.09301575273275375,
          0.12093187123537064,
          -0.0704331248998642,
          0.08185629546642303,
          -0.211285799741745,
          0.03173568844795227,
          0.10130715370178223,
          -0.26178982853889465,
          -0.1920011341571808,
          -0.01610977202653885,
          -0.05395197868347168,
          -0.27757859230041504,
          0.1988382786512375,
          0.048980165272951126,
          0.049915242940187454,
          0.13822895288467407,
          -0.2615109384059906,
          0.14684024453163147,
          0.20607049763202667,
          0.05782816931605339,
          0.04829191416501999,
          0.04301153123378754,
          0.13844911754131317,
          0.04197002947330475,
          -0.08934871107339859,
          -0.23969201743602753,
          -0.15775448083877563,
          -0.08717243373394012,
          0.01775164157152176,
          -0.026479102671146393,
          -0.038314007222652435,
          -0.17884233593940735,
          0.00802313257008791,
          -0.08775587379932404,
          -0.4182961583137512,
          0.19772222638130188,
          -0.08051837235689163,
          -0.11265408247709274,
          -0.1388593167066574,
          -0.029267488047480583,
          0.0060014971531927586,
          0.029200589284300804,
          0.08580721169710159,
          0.10442470759153366,
          -0.10842009633779526,
          -0.35740992426872253,
          -0.26283738017082214,
          0.19535361230373383,
          -0.06259305030107498,
          0.09171511977910995,
          -0.13360686600208282,
          -0.012004765681922436
        ],
        [
          0.3330842852592468,
          0.07076232880353928,
          -0.029552141204476357,
          -0.12384451925754547,
          -0.13943347334861755,
          0.03891833499073982,
          -0.019776634871959686,
          0.08089146018028259,
          -0.06415388733148575,
          -0.2094079554080963,
          -0.10676594823598862,
          -0.14834071695804596,
          0.1525779664516449,
          -0.09620422124862671,
          0.04090553894639015,
          -0.11801712960004807,
          -0.12879830598831177,
          0.4531417191028595,
          -0.010774029418826103,
          0.05562532693147659,
          0.18828561902046204,
          -0.2250126600265503,
          -0.10082602500915527,
          -0.10886470973491669,
          0.08275774121284485,
          0.15097662806510925,
          0.15168270468711853,
          -0.051976777613162994,
          -0.10192845016717911,
          0.059519797563552856,
          -0.1903720200061798,
          0.12257485091686249,
          0.10869036614894867,
          -0.08120167255401611,
          -0.10969551652669907,
          0.0576830618083477,
          0.22706478834152222,
          -0.08533374965190887,
          -0.1432465761899948,
          -0.09763313829898834,
          0.2363540083169937,
          -0.13174960017204285,
          -0.05992819368839264,
          -0.07752710580825806,
          -0.04657210782170296,
          -0.009249220602214336,
          -0.0331905260682106,
          -0.055297087877988815,
          -0.009607387706637383,
          -0.13666389882564545,
          0.0938635990023613,
          -0.20973414182662964,
          -0.21557317674160004,
          -0.2176751345396042,
          0.1174679771065712,
          -0.1670253723859787,
          -0.11529596149921417,
          0.08975487947463989,
          0.05246428772807121,
          0.2665235996246338,
          -0.23642295598983765,
          0.09810656309127808,
          -0.12807494401931763,
          0.28735142946243286
        ],
        [
          0.15398098528385162,
          0.12400046736001968,
          -0.09023028612136841,
          -0.06263963878154755,
          -0.11952117830514908,
          -0.08855375647544861,
          -0.041177887469530106,
          -0.007448744028806686,
          0.18411676585674286,
          0.04669373482465744,
          0.09064656496047974,
          -0.05897941812872887,
          -0.00010869441757677123,
          -0.09368404746055603,
          0.0029279631562530994,
          -0.11881573498249054,
          -0.03030993789434433,
          0.27299949526786804,
          -0.00883718766272068,
          -0.01530444622039795,
          -0.1720898598432541,
          -0.17983147501945496,
          0.06043832004070282,
          0.09990137070417404,
          -0.1173105388879776,
          0.09744630008935928,
          -0.04681879281997681,
          0.19474487006664276,
          -0.12045501172542572,
          0.007817847654223442,
          0.24140170216560364,
          0.16923701763153076,
          0.11395184695720673,
          0.0010498902993276715,
          -0.016192002221941948,
          0.05090852826833725,
          -0.09219085425138474,
          -0.15744243562221527,
          0.1143915057182312,
          -0.18785052001476288,
          -0.02064306102693081,
          0.13325795531272888,
          -0.054339803755283356,
          0.07601900398731232,
          -0.0019330428913235664,
          0.03866155445575714,
          0.059627220034599304,
          0.08088871091604233,
          -0.13295897841453552,
          -0.08034589141607285,
          -0.18371859192848206,
          0.15360744297504425,
          -0.08278807997703552,
          -0.009320711717009544,
          -0.12162618339061737,
          -0.07797791808843613,
          -0.05785047635436058,
          -0.10153861343860626,
          0.2555111050605774,
          0.09921739250421524,
          -0.11792518943548203,
          0.1909743994474411,
          0.0011231236858293414,
          -0.11600270122289658
        ],
        [
          -0.15232717990875244,
          0.13435371220111847,
          0.04917827621102333,
          0.06489730626344681,
          0.005067424848675728,
          -0.034774985164403915,
          -0.1064230427145958,
          0.07546988129615784,
          -0.035227980464696884,
          -0.028213152661919594,
          -0.010758410207927227,
          -0.04229618236422539,
          0.15018025040626526,
          0.016273070126771927,
          0.07398869842290878,
          0.014261610805988312,
          0.03829560428857803,
          -0.07149626314640045,
          -0.22060264647006989,
          0.04835093766450882,
          0.17094404995441437,
          -0.27045342326164246,
          -0.09129562228918076,
          0.1911441534757614,
          0.018192986026406288,
          -0.1865144670009613,
          -0.1343967318534851,
          -0.018098287284374237,
          -0.05470949783921242,
          -0.16913950443267822,
          -0.03095627948641777,
          0.05386696755886078,
          -0.10145704448223114,
          0.0029683581087738276,
          -0.21767905354499817,
          0.03274683654308319,
          -0.14534874260425568,
          -0.027085822075605392,
          -0.1446993052959442,
          0.04596541076898575,
          0.08229857683181763,
          0.026377402245998383,
          0.002375780837610364,
          0.18393908441066742,
          -0.02633020281791687,
