{"model": "node_gcn", "layers": [{"type": "gcn", "act": "relu", "W": [[0.47190189361572266, 0.9277530908584595, 0.07220464944839478, 0.5254210233688354, -0.26911187171936035, 0.47732529044151306, -0.9952688217163086, 0.8024436831474304, 0.08144762367010117, -0.7412639260292053, 0.09330389648675919, 0.6091371178627014, -0.7980071306228638, 0.11379384249448776, 0.16582612693309784, 0.48155543208122253, -0.05636175721883774, 0.866509199142456, -0.34211137890815735, -0.48008841276168823, -0.7758530974388123, -0.4568820893764496, -0.30044320225715637, -0.7300018668174744, -0.1749083548784256, -0.25588011741638184, 0.3530685305595398, 0.1868431270122528, -0.33078405261039734, 0.1780269891023636, 0.33667102456092834, -0.10153204947710037, 0.41005152463912964, -1.4827545881271362, -0.34192171692848206, 0.6278279423713684, 0.12296228110790253, 0.8014916181564331, -0.24753373861312866, 0.28881770372390747, 0.7898178696632385, 0.23543784022331238, 0.09474804997444153, -0.9980270266532898, 0.04378461837768555, 0.6982837915420532, 0.319283127784729, -0.5802924633026123, -0.41927072405815125, 0.5793836116790771], [0.07592123001813889, 0.857688307762146, 0.5754715204238892, 0.10438801348209381, -0.6560720205307007, 0.764182984828949, 0.5148192048072815, 0.6042777895927429, 0.4876266419887543, -0.07030272483825684, -0.030362410470843315, 0.4609392285346985, 0.4663906693458557, -0.1859894096851349, 0.0893973857164383, 0.007355326786637306, 0.36652472615242004, 0.7324755787849426, -1.0228055715560913, -0.2880566716194153, -0.28663331270217896, -0.44231152534484863, -1.3231381177902222, 0.8284410238265991, -0.9474982023239136, -0.023896727710962296, 0.6121350526809692, -0.18712757527828217, 0.06398376822471619, 0.2516845166683197, -0.433086097240448, 0.13372352719306946, 0.2199360877275467, -0.4708166718482971, 0.384440541267395, 0.47840794920921326, -0.3009081780910492, 0.030483169481158257, 0.07839765399694443, -0.12209378182888031, 0.20422662794589996, 0.1425754725933075, -0.4861685037612915, 0.2829456031322479, 0.25100111961364746, -0.03314348682761192, 0.0856003388762474, 0.1140216663479805, 0.06622765213251114, -0.005399600602686405], [-0.018932301551103592, -0.412777304649353, -0.4356003701686859, -1.3091789484024048, -0.5691032409667969, 0.2505034804344177, -0.2575858533382416, -0.36293482780456543, -0.591156005859375, -0.2192731648683548, 0.029432429000735283, 0.6089932918548584, -0.11594782024621964, -0.6627510190010071, 0.5899450778961182, 0.09530176222324371, 0.15757060050964355, -0.1332237422466278, -0.49468523263931274, -0.12927228212356567, 0.40388473868370056, -0.9101226925849915, -0.8886163830757141, 0.19143426418304443, -0.039165198802948, -0.39579451084136963, -0.2491498589515686, -0.36971309781074524, 0.3268108069896698, -0.19761380553245544, -0.031036047264933586, -0.7786425352096558, 0.11041528731584549, -0.5844154357910156, -0.6005584001541138, -0.37457075715065, -0.092636838555336, -0.9381293654441833, 0.11048442870378494, 0.19429580867290497, -0.26858267188072205, 0.9428631067276001, -0.5080123543739319, -1.227721095085144, -0.2565562129020691, -0.16594703495502472, -0.2940486967563629, -0.7698818445205688, -0.9373000264167786, 0.019922442734241486], [-0.03315239027142525, -0.8557602167129517, -0.13784731924533844, -0.3354966938495636, 0.4659034013748169, -0.3641696870326996, -0.15510252118110657, -0.6996121406555176, 0.27747055888175964, 0.5778818130493164, -0.031673166900873184, -0.730181872844696, 0.3869304656982422, -0.417741060256958, -1.4198821783065796, 0.45461875200271606, -0.5004504323005676, -0.6013161540031433, -0.9121994376182556, -0.5031248927116394, -0.47118067741394043, -0.1319960653781891, 0.20346738398075104, 0.3595172166824341, 0.3749728500843048, -0.08104365319013596, 0.470171719789505, -0.4131847023963928, 0.3779420256614685, 0.23058225214481354, 0.23540858924388885, 0.6101811528205872, 0.11466726660728455, 0.0016867221565917134, -0.5679418444633484, -0.2830459475517273, 0.47280874848365784, 0.28381821513175964, -0.074559785425663, -0.28301623463630676, 0.39469435811042786, -0.33880117535591125, -0.5881408452987671, 0.1277269721031189, -0.49705275893211365, 0.020930003374814987, -0.07184968888759613, -0.14479537308216095, -1.2641438245773315, 0.4071376323699951], [0.2905999422073364, 0.40681740641593933, 0.0714467465877533, 0.3160666227340698, 0.10210085660219193, 0.2133476585149765, -0.8829904794692993, -0.3632846772670746, -0.1958574801683426, 0.5610849857330322, 0.06924068927764893, 0.4685012698173523, 0.2834422290325165, 0.6228778958320618, 0.7458176612854004, 0.7638595104217529, -0.23030997812747955, 0.6149569749832153, 0.6020223498344421, -0.25836318731307983, -1.1373425722122192, 0.4293746054172516, -0.9906073808670044, 0.2277366816997528, 0.01936369575560093, -0.07903750240802765, 0.20887646079063416, 0.30634286999702454, 0.390555739402771, 1.060117244720459, -0.569361686706543, 0.8633356094360352, -0.3024711608886719, -0.26675254106521606, 0.2887803912162781, 0.1222493126988411, -0.08699998259544373, 0.2640673816204071, 0.09413087368011475, 0.18496645987033844, 0.19589929282665253, 0.05191156640648842, -1.064846158027649, 0.4111194312572479, 0.12915611267089844, -0.1246517151594162, -0.16975480318069458, 0.5916107892990112, -0.909626841545105, -0.45799821615219116], [-0.30442333221435547, -0.21176940202713013, 0.8220938444137573, -0.01983809471130371, -0.2501741945743561, -0.5704498291015625, -0.18026602268218994, -0.2385343462228775, -0.25855615735054016, 0.6574816703796387, -0.11654161661863327, 0.5934885144233704, -0.09151164442300797, 0.2249998152256012, -1.257328748703003, 0.33693909645080566, 0.6555352807044983, 0.10911987721920013, 0.49985015392303467, 0.12479960173368454, 0.29174724221229553, 0.3486149311065674, -0.38032230734825134, 0.10064738988876343, 0.6918990015983582, -0.2836918532848358, 0.2671000063419342, 0.7396621108055115, 0.34485623240470886, -0.22030475735664368, 0.11541182547807693, 0.4734455943107605, -0.5119569897651672, 0.2717326879501343, 0.37167471647262573, -0.8082113862037659, -0.26363083720207214, 0.6446270942687988, 0.9189808368682861, -0.2590351402759552, -0.3907148241996765, -0.3115082383155823, -0.1999739408493042, -0.27162864804267883, 0.6504237055778503, -0.5666343569755554, -0.2247430980205536, -0.8520675897598267, 0.7726919651031494, -0.38310062885284424], [0.08243994414806366, 0.5726068615913391, -0.4874732196331024, -0.0768318772315979, -0.3195042014122009, 0.16082921624183655, -0.35041123628616333, -0.22892317175865173, -0.34238457679748535, 0.2674296498298645, 0.07975940406322479, -0.17755165696144104, -0.300319641828537, -0.5096545219421387, 0.6691805720329285, 0.43882808089256287, -0.05087357759475708, 0.13788706064224243, -0.19731999933719635, 0.35566386580467224, -0.48558804392814636, -0.11453557759523392, -0.3564073145389557, 0.4716914892196655, -0.7949391603469849, -1.3318595886230469, -0.0532238595187664, -0.3438611328601837, -0.18232665956020355, 0.24941042065620422, 0.9555553197860718, -0.589046835899353, -0.4940197765827179, 0.08788058906793594, 0.3883790075778961, -0.8423530459403992, 0.030719514936208725, 0.059312254190444946, 0.1788882464170456, -0.26151666045188904, 0.637773334980011, -1.1930549144744873, 0.07006356865167618, -1.319258213043213, -0.26694247126579285, 0.3963121771812439, 0.0572080984711647, 0.7532662749290466, 0.12576696276664734, -0.5891610980033875], [0.6506444215774536, 0.04744449630379677, -0.7397007942199707, 0.3009500801563263, -0.4584680497646332, -0.46077778935432434, 0.49534812569618225, 0.18675649166107178, 0.714765727519989, 0.9200658798217773, -0.021749190986156464, 0.7172690033912659, -0.004646520595997572, 0.22819723188877106, 0.011166944168508053, 0.23792362213134766, 0.0364227294921875, -0.7448034882545471, 0.027952078729867935, -1.0017555952072144, 0.08100300282239914, 0.13519299030303955, 0.11986494064331055, -0.1352507621049881, -0.38031914830207825, 0.16132418811321259, -0.3275401294231415, -0.22268106043338776, -0.2755582928657532, -0.2952384650707245, -0.7055420875549316, -0.31727978587150574, -0.3875034749507904, 0.6258049011230469, -0.07011836767196655, -1.0690793991088867, 0.3264656364917755, -0.1126566231250763, -0.4352324604988098, -0.3690005838871002, 0.4834938049316406, 0.01541163306683302, 0.2874172031879425, -0.7134165167808533, 0.12066426873207092, 0.8051291108131409, 0.1765131652355194, -1.49550461769104, -0.16098855435848236, -0.9990426301956177], [-0.0728042721748352, -0.2534405589103699, 0.6302991509437561, -0.0005768739501945674, 0.044395651668310165, -0.718086302280426, -0.8264060616493225, 0.5318435430526733, 0.230134978890419, 0.13330933451652527, 0.10298223793506622, -0.987900972366333, -0.09197618812322617, -0.06996332108974457, 0.42787253856658936, 0.016485797241330147, 0.040334880352020264, -1.0820069313049316, -0.0012738410150632262, -0.37752801179885864, -0.43317171931266785, 0.21909278631210327, 0.29870763421058655, -0.09895271807909012, 0.1923247128725052, -0.5834003686904907, -0.9216891527175903, -0.7193281650543213, 0.08430152386426926, 0.40064680576324463, -0.3218452036380768, -0.5201947689056396, 0.4525887370109558, -0.5634701251983643, -0.4680163860321045, -0.057699400931596756, 0.7452202439308167, -0.3208402097225189, 0.20690082013607025, 0.4021621644496918, 0.5665546655654907, 0.21854408085346222, 0.5067793726921082, 0.24437639117240906, 0.5852139592170715, -0.049769021570682526, -0.22549495100975037, -0.3735447824001312, -0.26508235931396484, -0.8310831785202026], [0.05780744552612305, -0.26875248551368713, 0.17645230889320374, 0.384616494178772, -0.5090641975402832, 0.126756951212883, 0.06665052473545074, 0.24340946972370148, -0.8476296067237854, -0.6114542484283447, 0.07019839435815811, -0.4358363151550293, -0.04676016420125961, 0.478334903717041, -0.16439591348171234, 0.13029281795024872, 0.06983526796102524, 0.49931302666664124, 0.5677361488342285, -0.0832747146487236, 0.5814828872680664, -0.6089043617248535, -0.7433110475540161, -0.0629926472902298, -0.10183800011873245, -0.4178721606731415, -0.09608042240142822, -0.6167691946029663, 0.5265005826950073, 0.6539167761802673, -0.12198948115110397, -0.29649612307548523, -0.43642300367355347, -0.610196590423584, 0.5176918506622314, -0.41430386900901794, -0.5324272513389587, -0.47430410981178284, -0.6577932238578796, 0.16855983436107635, 0.33088961243629456, 0.31913575530052185, 0.033676791936159134, -0.11739777773618698, 1.0975209474563599, -0.44230011105537415, 0.00361033552326262, 0.26256871223449707, 0.12085617333650589, 0.45644983649253845], [-0.2925647497177124, -0.831572949886322, -0.7094615697860718, -0.7958225011825562, 0.23387010395526886, 0.1994268000125885, 0.12839770317077637, -0.11670012027025223, 0.03490423038601875, -0.5601818561553955, 0.014817055314779282, 0.3068734109401703, 0.2063387930393219, -0.5391098856925964, -0.8590314388275146, 0.20262666046619415, 0.4790598154067993, 0.5727878212928772, -0.1102556437253952, 0.5811223983764648, -0.3162820041179657, -0.5864977836608887, -0.0660906508564949, -0.3697203993797302, -0.06446263939142227, -0.44170066714286804, -1.1739634275436401, -0.15354685485363007, 0.6687084436416626, -0.37569236755371094, 0.772031843662262, -0.512266993522644, 0.4521248936653137, 0.22399528324604034, -0.3292471170425415, -0.6238515973091125, 0.6057470440864563, -0.19713902473449707, -0.6641685962677002, -0.18088527023792267, 0.25798511505126953, -0.6661137938499451, -0.5641626715660095, 0.14683228731155396, -0.03213063254952431, -0.2578296661376953, 0.32796135544776917, 0.3644994795322418, -0.8406308889389038, -0.09923440963029861], [0.18390578031539917, -0.1554027944803238, 0.35090172290802, 0.060440246015787125, 0.48054322600364685, -0.6587769389152527, 0.6220546364784241, 0.7929194569587708, -0.9764118790626526, -0.04503224790096283, 0.09875040501356125, -0.626029372215271, 0.17368079721927643, -0.36098864674568176, -0.8754260540008545, -0.09366399049758911, 0.02699393592774868, 0.0346820242702961, -0.8692671656608582, -0.21730831265449524, 0.16734404861927032, -0.1732185333967209, 0.3065410256385803, 0.5072346329689026, 0.3611261248588562, 0.6229079961776733, 0.45407789945602417, -0.6056504249572754, 0.04129237309098244, -0.5526593327522278, -0.3369193375110626, -0.6288093328475952, -0.5965520143508911, -0.798927903175354, 0.17966778576374054, -0.13802728056907654, -0.4148864448070526, 0.3496447205543518, 0.10842123627662659, -0.30320215225219727, 0.15927398204803467, -0.16181299090385437, 0.12429564446210861, -0.16054339706897736, -0.3021608293056488, -0.6303946375846863, -0.13094393908977509, -0.23589900135993958, -0.06318406015634537, 0.5708643794059753], [-0.10574380308389664, -0.01939178630709648, 0.3404283821582794, 0.08908721804618835, 0.032618653029203415, -0.09932254254817963, -0.5941946506500244, -0.08545337617397308, 1.0399222373962402, 0.20456965267658234, 0.01523261796683073, -0.04452383890748024, 0.6187922954559326, -0.2538202702999115, 0.32752126455307007, 0.9498950839042664, 0.03635856509208679, -0.8003808856010437, 0.2852783799171448, -0.03584793955087662, 0.2617431879043579, 0.28774797916412354, -0.002019634237512946, 0.8163621425628662, 0.8371723294258118, -0.2556186020374298, -1.1609214544296265, -0.4217534065246582, -0.2982703149318695, 0.11533859372138977, -0.6951907873153687, -0.3281918466091156, 0.07963287830352783, -0.7400922775268555, 0.26336655020713806, -0.4665248990058899, -0.24326092004776, 0.23632392287254333, 0.21276827156543732, 0.4517156183719635, 0.1847301721572876, 0.14132899045944214, 0.3206630349159241, 0.5692857503890991, -0.33957722783088684, -0.5403295755386353, -0.2862226963043213, -1.2819974422454834, -0.0024746006820350885, -0.2671751081943512], [0.09543871879577637, 0.5891523361206055, -0.4399012327194214, -1.0891751050949097, -0.6383256316184998, 0.6337852478027344, 0.1522015482187271, 0.03124326840043068, -0.08531767129898071, 0.6794647574424744, -0.12344439327716827, 0.09252439439296722, 0.5051952600479126, 0.1627872735261917, -0.0566922128200531, -0.5313417315483093, -0.1506604701280594, -0.23966409265995026, -0.23871451616287231, -0.002563710557296872, -0.019014814868569374, 0.39860695600509644, -0.8835834860801697, -0.07614215463399887, 0.08807259798049927, -1.1014999151229858, 0.2815241813659668, 0.16446112096309662, -0.10957666486501694, 0.6151230931282043, -0.15011702477931976, -0.3449733555316925, 0.14822445809841156, -0.430336058139801, 0.38837873935699463, -0.9261875152587891, 0.675926148891449, -0.028582321479916573, -0.5074575543403625, 0.3507096767425537, -0.29349613189697266, 0.12817904353141785, 0.6913321614265442, -1.004584550857544, -0.3035765588283539, 0.5244132280349731, 0.696861743927002, 0.7613048553466797, 0.242951899766922, -0.024100501090288162], [-0.07711291313171387, -0.6548780798912048, -0.035559095442295074, -0.10578776895999908, 0.1559794843196869, -0.04144924879074097, -0.13552671670913696, -0.07230778783559799, -0.3376297950744629, -0.6058752536773682, -0.03749247267842293, 0.00481380894780159, 0.1615312099456787, 0.4823535084724426, -0.36135154962539673, 0.1231023371219635, -0.5633965134620667, -0.8474843502044678, -0.7098711133003235, -0.12024387717247009, -0.1265396773815155, 0.03236262872815132, -0.6151143908500671, -0.2559889256954193, -0.2969415485858917, -0.026292357593774796, -0.09848223626613617, -0.051571354269981384, 0.40387097001075745, -0.011473934166133404, 0.2303975224494934, -0.12465090304613113, 0.42207494378089905, -0.190841406583786, -0.5282437205314636, 0.2741421163082123, 0.3268565237522125, 0.6798209547996521, 0.6612154841423035, -0.11666002124547958, 0.39574214816093445, 0.5754042863845825, 0.035801418125629425, -0.2757032811641693, -0.3229108154773712, -0.10967431217432022, -0.3330039083957672, -0.7290725111961365, -0.5358507037162781, 0.10484617948532104], [-0.2805274426937103, -0.6044958233833313, -0.17379944026470184, 0.2579759955406189, -0.6909446716308594, 0.1474684178829193, 0.14538787305355072, 0.3095601201057434, -0.25987616181373596, 0.4113862216472626, -0.08223050087690353, 0.08673261851072311, -0.6124412417411804, -0.3152955174446106, -0.40460631251335144, -0.0964500904083252, 0.34683266282081604, -0.06331022828817368, -0.15311071276664734, -0.19882522523403168, -0.5530744194984436, 0.10176302492618561, -0.5366479158401489, 0.4290100932121277, -0.41267094016075134, 0.032735127955675125, -0.03250870853662491, 0.4775523245334625, -0.301842600107193, -0.444489985704422, 0.0695355013012886, 0.1586601287126541, -0.20446449518203735, -0.31369125843048096, 0.7688912749290466, -0.039187896996736526, -0.08639636635780334, -0.26435399055480957, -0.5658659934997559, 0.691857099533081, -0.684195876121521, -0.4628661572933197, -0.43121206760406494, -0.38357987999916077, -0.16781094670295715, 0.5674370527267456, 0.13216513395309448, -0.19002635776996613, 0.48159509897232056, 0.1745346039533615], [0.579486608505249, -0.8302026987075806, 0.7010040283203125, -0.5135927796363831, -0.44042083621025085, -0.7609671950340271, 0.10061412304639816, 0.39606669545173645, 0.06948822736740112, -0.08844749629497528, -0.016095545142889023, -0.09434732049703598, -0.3411605656147003, 0.695256233215332, 0.2666530907154083, -0.06375815719366074, 0.03272945061326027, 0.07521247863769531, 0.12284231930971146, 0.9678356051445007, 0.029442038387060165, 0.5301962494850159, 0.3872368633747101, -0.3175242245197296, 0.045747604221105576, -0.9042448401451111, -0.636605978012085, 0.07904724776744843, -0.18379664421081543, -0.3335103988647461, -0.1312885731458664, -0.11651220172643661, 0.38329342007637024, -0.5616869926452637, -0.2764974534511566, -0.438748300075531, 0.41937437653541565, -0.31386688351631165, 0.2979334890842438, -0.22681844234466553, -0.07329605519771576, 0.37687432765960693, 0.2876656949520111, -1.1130797863006592, 0.3743549883365631, 0.60640949010849, -0.5640341639518738, -0.7259823083877563, -0.33281874656677246, 0.5361801981925964], [-0.49540892243385315, 0.06469335407018661, 0.2181876003742218, 0.1632193773984909, 0.07085869461297989, 0.4114116430282593, -0.8384217619895935, -0.3703102767467499, 0.035468682646751404, 0.18994425237178802, -0.05532228201627731, -0.7586612701416016, 0.7115224003791809, -0.354580819606781, -0.08782076835632324, 0.4374266266822815, -0.01890011504292488, 0.14451076090335846, 0.656155526638031, 0.6411327123641968, 0.2009243369102478, 0.13077478110790253, -1.0848015546798706, -0.4657800495624542, 0.4743005335330963, 0.027131900191307068, -0.12483042478561401, 0.23821468651294708, -0.3466639220714569, -0.36785808205604553, 0.08803905546665192, -0.030633553862571716, 0.028850508853793144, -0.05418453365564346, -0.212855264544487, -0.036202285438776016, 0.6249874234199524, 0.23702417314052582, 0.12922248244285583, -0.20820637047290802, 0.7807676792144775, -0.6142542362213135, -0.5849570631980896, -0.2389058619737625, 0.9948225617408752, -0.9395473003387451, 0.38415849208831787, -0.9271809458732605, 0.10444221645593643, -0.44101154804229736], [0.4922000765800476, 0.25586602091789246, -0.337772935628891, -0.4042304754257202, -0.15543803572654724, 0.08817292749881744, 0.2496805638074875, 0.7257205247879028, 0.5427257418632507, -0.7874625325202942, 0.1086442619562149, 0.1383083313703537, 0.22196629643440247, -0.7906633019447327, -0.45851609110832214, 0.6742919087409973, -0.04961661994457245, -0.23098239302635193, 0.2791982889175415, 0.06458442658185959, 0.49194204807281494, 0.37365156412124634, -0.5930851101875305, -0.1480426788330078, 0.22038809955120087, -0.8276903629302979, -0.38173097372055054, -0.06972432136535645, -0.5525728464126587, -1.1054282188415527, -0.8585523366928101, -0.2665167450904846, -0.23960240185260773, 0.5956673622131348, -0.4502185583114624, 0.4072507321834564, 0.5335521697998047, -0.4802059829235077, 0.4085323214530945, 0.5250820517539978, 0.3205634355545044, 0.33851149678230286, 0.5550094842910767, -0.8048332333564758, -0.29528719186782837, 0.07938677072525024, -0.0525401271879673, -0.532569944858551, -0.15255574882030487, -0.6478216648101807], [-0.16119076311588287, -0.5294687747955322, 0.3429734706878662, 0.8026791214942932, 0.08965399116277695, -0.7187994718551636, -0.1815284639596939, 0.6314823031425476, -0.8945404291152954, -0.14034046232700348, -0.0897049829363823, 0.9142434597015381, 0.3546893894672394, 0.27693623304367065, 0.1212586909532547, 0.4219437539577484, -0.598956823348999, -0.5272849202156067, -0.4013242721557617, 0.80061936378479, 0.3677026629447937, 0.45924222469329834, -0.040566105395555496, 0.6501129269599915, -0.13380825519561768, 0.28233733773231506, 0.5430759787559509, -0.5901687741279602, 0.5840505361557007, -0.17006920278072357, -0.2885429561138153, 0.005747327581048012, 0.12193071842193604, 0.5001714825630188, -0.06406407058238983, 0.5794135928153992, -1.3574172258377075, -0.2630045711994171, 0.3256409764289856, -0.24749445915222168, -0.3307417631149292, -0.6720600724220276, -0.8785231113433838, -0.40645819902420044, -0.5014753341674805, 0.836269736289978, -0.9095199108123779, -0.20499204099178314, 0.29495444893836975, -0.34285804629325867], [-0.08379027992486954, 0.1389043778181076, -0.27079010009765625, -0.17138421535491943, 0.04198046401143074, -0.8504939675331116, 0.4663163423538208, -0.9946888089179993, -0.285509318113327, -0.5797562003135681, 0.12513630092144012, 0.07277283817529678, 0.4067878723144531, 0.3723348081111908, -0.425192654132843, 0.2512575089931488, 0.5534712672233582, -0.12086185067892075, 0.3700729012489319, -0.191779226064682, -0.675974428653717, 0.21956577897071838, 0.015785513445734978, -0.6807228922843933, -0.013746983371675014, -0.08536309748888016, 0.047428663820028305, -0.6245200634002686, -0.01941460371017456, 0.9247406125068665, -1.0354700088500977, -0.983779788017273, -0.43483325839042664, 0.3383515179157257, 0.5392155051231384, -0.729398787021637, 0.47347721457481384, -0.07093538343906403, -0.17243948578834534, 1.1143319606781006, -0.29633015394210815, -1.7736014127731323, 0.6078479886054993, -0.37168461084365845, -0.39647480845451355, 0.18387871980667114, 0.461354523897171, -1.0906646251678467, 0.5507286787033081, 0.3220045566558838], [0.03546374663710594, 0.6564638018608093, 0.609751284122467, 0.1683875024318695, 0.4806717336177826, 0.055479589849710464, -1.1571009159088135, 0.6502776741981506, -0.29916128516197205, 0.35252147912979126, 0.08848395943641663, -0.03705217316746712, -0.00448997737839818, -0.5848259925842285, -1.4683728218078613, 0.5155082941055298, -0.33871275186538696, -1.1641290187835693, 0.0978202074766159, -0.6012843251228333, 0.494280606508255, -0.1126478984951973, -0.2199479192495346, -0.13398246467113495, -0.09639313071966171, -0.0974515900015831, -0.13878026604652405, -0.5442325472831726, -1.028363585472107, 0.10584507137537003, 0.29107385873794556, -0.2601619064807892, -0.2749910354614258, 0.6214461326599121, -0.3695903718471527, -0.2289762645959854, -0.3505152463912964, -0.6717115640640259, -0.7332448363304138, -0.18174880743026733, 0.20933711528778076, 1.1536833047866821, -0.18844987452030182, 0.9222655892372131, -0.10651593655347824, 0.2845972180366516, -0.2851112484931946, -0.16489927470684052, 0.03478870168328285, -0.5701321959495544], [0.3331252336502075, -1.028374195098877, -0.0442294217646122, 0.5022560358047485, 0.33877402544021606, -0.006183818448334932, 0.06761925667524338, 0.15458329021930695, 0.024109799414873123, -0.543613851070404, 0.11988437175750732, 0.2643231153488159, 0.5057713985443115, -0.015184535644948483, 0.8393961191177368, -0.04528554528951645, 0.11408407241106033, 0.29785391688346863, -0.24657611548900604, 0.012575018219649792, -0.35965389013290405, 0.40300488471984863, -0.45211362838745117, 0.46382445096969604, -0.048107415437698364, 0.2686667740345001, 0.4908396899700165, 0.04343309625983238, -0.9453075528144836, 0.1332368552684784, 0.02931012585759163, 0.32866719365119934, 0.24981480836868286, -0.637781023979187, -0.3165905177593231, -0.06873413175344467, 0.2866646647453308, 0.6447736620903015, -0.8231493830680847, -0.3442673981189728, 0.49716177582740784, 0.5647068023681641, 0.22409312427043915, -0.5204712748527527, 0.7470400929450989, -1.074449896812439, -0.31298819184303284, 0.15902206301689148, -0.07725957036018372, -0.5713824033737183], [-0.027809642255306244, 0.18866701424121857, 0.35253316164016724, -0.15280213952064514, 0.48689499497413635, -0.0517590306699276, 0.36249613761901855, 0.46700412034988403, -0.09251855313777924, -0.2710433602333069, 0.023204021155834198, -0.3013313412666321, -0.028116434812545776, 0.46479982137680054, -0.44719985127449036, 0.256796270608902, 0.18924202024936676, -0.8381333947181702, -0.6399616003036499, -0.20129844546318054, -0.36923375725746155, 0.06921897828578949, -1.1487711668014526, -0.8109852075576782, 0.6314163208007812, -0.0408371202647686, -0.08939239382743835, 0.20462045073509216, 0.7180109620094299, 0.3918442130088806, -0.06428570300340652, 0.08858416229486465, -0.07910209894180298, 0.56106036901474, 0.5109863877296448, 0.14021998643875122, -0.8031972050666809, -0.8058298826217651, 0.5162355899810791, -0.6661940217018127, -1.063063144683838, -0.08442454785108566, 0.4023381471633911, 0.7485443353652954, -1.2485265731811523, 1.0684289932250977, 0.1257999688386917, -0.4242105782032013, -0.15123991668224335, 0.712219774723053], [0.24037589132785797, -0.3745822310447693, 0.45377179980278015, -0.288717120885849, 0.06454954296350479, -0.38658764958381653, -0.6052866578102112, -0.08274147659540176, -0.1579902619123459, 0.7311034202575684, 0.13226497173309326, -0.5606203079223633, 0.5657889246940613, -0.8830795884132385, -0.6919956207275391, -0.3079332709312439, 0.17336413264274597, -0.6935731172561646, 0.28139251470565796, 0.12109733372926712, -0.13485592603683472, -0.361469030380249, -0.7788839340209961, -0.6585782170295715, 0.729194164276123, 0.32606059312820435, -0.4781245291233063, -0.2436058670282364, -0.11150875687599182, -0.42077746987342834, 0.6406800746917725, -0.41731536388397217, 0.11130130290985107, 0.3387124538421631, 0.4571415185928345, -1.0221045017242432, 0.10053922235965729, 0.23457303643226624, 0.16241011023521423, 0.5109543204307556, -0.5785375833511353, -0.20848321914672852, 0.3331705927848816, -0.11877229809761047, 0.30149057507514954, 0.2036522626876831, -0.6378245949745178, 0.11361813545227051, -0.5513150691986084, -0.018626708537340164], [0.4974442422389984, 0.7930784821510315, 0.12818820774555206, 0.45939716696739197, -0.15476705133914948, 0.7805107235908508, 0.21598254144191742, 0.5924729108810425, -0.33490943908691406, 0.21663667261600494, -0.034117985516786575, 0.45880335569381714, 0.6060495972633362, 0.115949846804142, 0.46598300337791443, 0.15878945589065552, 0.24265094101428986, 0.6035706400871277, -0.06213119626045227, 0.03224564343690872, 0.37812307476997375, 0.2663940489292145, 0.023600419983267784, -0.33786556124687195, 0.6123838424682617, 0.07741634547710419, -0.10385037213563919, 0.09147145599126816, -0.1473439633846283, -0.283889502286911, -0.2818348705768585, -0.24652303755283356, -0.13558004796504974, 0.1492726355791092, -0.10116259753704071, 0.47752508521080017, -0.7653192281723022, -0.19947147369384766, -0.6463297009468079, -0.9748058915138245, 0.15845026075839996, 0.023126058280467987, 0.036011356860399246, 0.47550520300865173, -0.35876378417015076, -0.2863467335700989, 0.34858283400535583, 0.07953201234340668, 0.03403918817639351, 0.7006885409355164], [-0.442334920167923, 0.43003636598587036, -0.026885846629738808, -0.07099351286888123, -0.7371072173118591, 0.18077918887138367, 0.3660394251346588, -0.22250668704509735, 0.17084723711013794, 0.5058005452156067, -0.10630127042531967, -0.55756676197052, 0.3984815776348114, -0.4415701925754547, -0.14535723626613617, -0.25107070803642273, -0.17648914456367493, 0.3177248239517212, -0.6766473650932312, 0.2732938528060913, 0.10648443549871445, -0.67239910364151, -0.011621621437370777, -0.7710844278335571, -0.925021231174469, -0.1978820562362671, -0.1672893464565277, 0.2039640247821808, -0.2150326371192932, -0.38705581426620483, -0.32153618335723877, 0.7884020805358887, 0.39923229813575745, 0.07290397584438324, -0.27877670526504517, -0.240392804145813, -0.6275045275688171, -0.6089749336242676, -0.461509108543396, -0.842308759689331, -0.13805189728736877, 0.058154262602329254, 0.07800257205963135, 0.17921759188175201, -0.27102577686309814, -0.1971093863248825, 0.06331272423267365, 0.4265940487384796, -0.041006866842508316, -0.14670179784297943], [-0.8082137703895569, 0.35543951392173767, 0.9622963070869446, 0.207472562789917, 0.06787029653787613, -0.014374957419931889, 0.23720018565654755, 0.05324807018041611, 0.1009497195482254, 0.07194031774997711, -0.046093136072158813, -0.8561351299285889, -0.5005044937133789, -0.4563150405883789, 0.3446391224861145, 0.2679291367530823, 0.2019493579864502, 0.1935463845729828, 0.3086560368537903, -0.6397621631622314, -0.8882669806480408, 0.6598882675170898, 0.05359240248799324, 0.40078771114349365, 0.060193147510290146, 0.21149170398712158, 0.36958765983581543, -0.294727087020874, -0.2702304720878601, 0.39467740058898926, -0.14006713032722473, -0.8675651550292969, -0.25048789381980896, 0.6380077004432678, 0.514995276927948, 0.6999927163124084, -0.21012094616889954, -0.38671958446502686, -0.5081533789634705, 0.04551957920193672, -0.7562445998191833, -0.050450585782527924, 0.6335749626159668, 0.014438916929066181, -0.6689128279685974, 0.7608976364135742, 0.4410078227519989, 0.6272135376930237, 0.16737967729568481, -0.1519910842180252], [0.15631788969039917, -0.5309605002403259, -0.1081768348813057, -0.050366174429655075, -0.39775487780570984, -0.3834887742996216, -0.5067027807235718, 0.41319748759269714, -0.435130774974823, 0.23486776649951935, -0.12742941081523895, -0.4883893132209778, 0.1384800523519516, 0.21761685609817505, -0.04515182599425316, -0.6729114055633545, 0.21321988105773926, -0.08211295306682587, 0.3384059965610504, -0.513571560382843, 0.15225304663181305, 0.2980068027973175, 0.39691439270973206, -0.07619556039571762, -0.347361296415329, 0.2320389449596405, 0.20165088772773743, -0.06125931814312935, -0.32551655173301697, 0.2625710964202881, -0.24682490527629852, -0.13133062422275543, -0.3130366802215576, -0.03860614076256752, -0.26863211393356323, -0.2148868590593338, -0.3573276400566101, 0.5094771981239319, 0.7226462364196777, -0.29768815636634827, -0.4002677798271179, -0.004928457550704479, -0.8118373155593872, -0.148182213306427, 0.9418585896492004, -1.1349992752075195, 0.09080615639686584, 0.8179853558540344, 0.019634006544947624, -0.05463631451129913], [-0.20086413621902466, -0.558147132396698, -0.07173217087984085, -0.72370445728302, 0.034516386687755585, 0.8332579731941223, -0.2862465977668762, 0.7444925904273987, -0.4108477532863617, 0.11907298117876053, -0.13876448571681976, 0.22135919332504272, 0.04341575875878334, -0.3359657824039459, -0.07909632474184036, -0.2080058753490448, -0.4432874917984009, -0.2606853246688843, 0.09556823968887329, -0.0800735130906105, -0.42391470074653625, 0.02999741956591606, -0.0610322505235672, 0.04032422974705696, -0.31086575984954834, -1.022705316543579, -0.4808541238307953, 0.4241655468940735, -0.11179875582456589, -0.05504550412297249, 0.5587317943572998, 0.6721760630607605, -0.5082535147666931, -0.45566102862358093, -1.007797360420227, -0.7210469245910645, 0.3569115698337555, 0.7383583784103394, 0.5779147148132324, 0.09322066605091095, 0.17748510837554932, 0.5836071372032166, 0.6237303614616394, -0.15140211582183838, 0.18438875675201416, 0.4132261574268341, -0.14131030440330505, 0.09571831673383713, -0.9130582809448242, 0.08082587271928787], [0.20913474261760712, -0.2850997745990753, 0.6778748631477356, -0.6445081233978271, 0.6431741118431091, 0.15883296728134155, 0.4478793442249298, -0.19224393367767334, -0.7447472214698792, -0.5745338201522827, -0.13346433639526367, 0.8156782388687134, 0.6507246494293213, 0.25636953115463257, -0.6044436693191528, -0.4187338352203369, -0.3583518862724304, 0.3664757311344147, -0.23813959956169128, 0.525898277759552, 0.37001270055770874, -0.5448256731033325, -1.0509088039398193, -0.22220268845558167, -0.6062855124473572, 0.4242897629737854, -0.2479913830757141, 0.14681272208690643, 0.1766260266304016, -0.4212884306907654, 0.010820847004652023, 0.47005730867385864, -0.35957276821136475, -0.01897295005619526, 0.004587024915963411, 0.16453109681606293, 0.20427632331848145, -0.2837756872177124, -0.4856565296649933, -0.015059695579111576, -0.05868648737668991, 0.17950375378131866, 0.1272951066493988, 0.7775194644927979, -0.16024483740329742, -0.8629178404808044, 0.2810395359992981, 0.2863505184650421, 0.043560415506362915, -1.0097980499267578], [-0.6134772896766663, -0.14876383543014526, 0.4598877727985382, 0.20158651471138, -0.7233984470367432, 0.28988295793533325, -1.3242336511611938, 0.08886546641588211, -0.6796807646751404, -0.7100337743759155, -0.13807131350040436, 0.6105299592018127, 0.2819666862487793, -0.3342668414115906, -0.9545851945877075, 0.27427446842193604, -0.07150111347436905, -0.3413735032081604, 0.3390059471130371, 0.21395738422870636, -0.37236085534095764, 0.17219789326190948, -0.21353557705879211, -0.6830458641052246, 0.16392752528190613, -0.5761826634407043, -0.8142967820167542, -0.24775095283985138, 0.021830759942531586, -0.47093451023101807, -0.7060988545417786, 0.6882354617118835, 0.023878833279013634, -0.2295791357755661, 0.08092916011810303, -0.5999279618263245, -0.6882359981536865, -0.30405816435813904, 0.366426020860672, 0.8051630854606628, -0.5098082423210144, -0.4411373734474182, 0.7856399416923523, -0.2647382616996765, -0.1794205605983734, -0.5074162483215332, 0.3477403521537781, 0.32430174946784973, -0.00446742307394743, -0.48553168773651123], [0.14770857989788055, -0.009893394075334072, 0.012896472588181496, 0.11477813869714737, 0.2665044963359833, -0.27232626080513, -0.07783586531877518, 0.571688175201416, 0.03412463143467903, 0.40360745787620544, -0.060965027660131454, -0.5884290933609009, 0.6166094541549683, -0.10085951536893845, -0.5702611207962036, -0.33163973689079285, 0.03681063652038574, -0.16744616627693176, 0.2791173458099365, -0.10471296310424805, 0.30642685294151306, -0.7494406700134277, 0.23964743316173553, -0.03464125841856003, -0.29741451144218445, -0.5706764459609985, 0.013393467292189598, -0.0892740860581398, 0.15325741469860077, -0.08045735955238342, -0.33959725499153137, 0.29999086260795593, -0.3523893654346466, 0.17784711718559265, -0.016007199883461, 0.2847127616405487, 0.24879491329193115, 0.16324852406978607, 0.548056960105896, 0.25363796949386597, 0.3482707142829895, -0.55535888671875, 0.6635778546333313, 0.4310227930545807, -0.4698309004306793, 0.2725414037704468, -0.2555544376373291, -0.49482011795043945, 0.21018673479557037, 0.5031773447990417], [0.3167457580566406, -0.5269425511360168, -0.8085024952888489, -0.17459280788898468, -0.002069112379103899, 0.4143288731575012, -0.07983275502920151, -0.14402835071086884, -0.4449767768383026, -0.4808685779571533, -0.04596326872706413, 0.1838485598564148, 0.236044242978096, 0.3016805946826935, 0.01006215251982212, -0.28150641918182373, 0.1256115585565567, 0.333914190530777, 0.23442745208740234, -0.6560449004173279, -0.6344812512397766, 0.38647252321243286, -0.7046533226966858, 0.22512976825237274, 0.27141717076301575, -0.20051191747188568, -0.19259092211723328, 0.37118276953697205, 0.2505400776863098, 0.7778626084327698, -0.4427248537540436, -0.4963022470474243, -0.06667128950357437, -0.3647174537181854, 0.05607350170612335, 0.8235579133033752, 0.34689754247665405, 0.40325450897216797, -0.5043882727622986, -0.1936330646276474, -0.09436476975679398, -0.30643874406814575, -0.9621532559394836, -0.14673931896686554, 0.13534671068191528, 0.10450415313243866, 0.35726502537727356, -0.4470534920692444, 0.407275527715683, -0.39669764041900635], [-0.05024997144937515, -0.5108194351196289, 0.06324008107185364, -0.14439262449741364, -0.30722981691360474, -0.061280880123376846, 1.0135092735290527, -0.22040963172912598, -0.3666439950466156, 0.4427441656589508, 0.05770186707377434, -0.5027231574058533, 0.2045135200023651, -0.017405571416020393, 0.76337069272995, 0.1879458874464035, -0.12471064180135727, 0.13798891007900238, -0.5148109197616577, -0.6593608260154724, 0.11323177069425583, -0.791831910610199, -1.1266111135482788, 0.026615606620907784, 0.46185463666915894, 0.6598415970802307, 0.13686704635620117, -0.017882617190480232, -0.8320356011390686, 0.4429467022418976, 0.3965839147567749, 0.7634775042533875, 0.6151935458183289, -0.18552474677562714, -0.708818256855011, -0.24507814645767212, -0.791985034942627, 0.17690409719944, -0.5436496138572693, 0.41514357924461365, -0.21733547747135162, -0.6672097444534302, -1.2988606691360474, -0.746417224407196, 1.3199005126953125, -0.6493250131607056, -0.23304075002670288, -0.6888629198074341, -0.32401102781295776, 0.2353721261024475], [0.1547030806541443, 0.35550954937934875, 0.03510421887040138, 0.0362873338162899, -0.8588922023773193, -0.7491644024848938, -0.777425229549408, -0.4182169437408447, -0.04529285058379173, -0.22789441049098969, -0.03748828172683716, -0.19294922053813934, -0.0012306001735851169, 0.7905702590942383, 0.13340866565704346, 0.6073600649833679, -0.3099493980407715, -0.11420070379972458, -0.9136373996734619, -0.20081104338169098, 0.23120062053203583, 0.06841539591550827, 0.2326229214668274, 0.09529200941324234, -0.03495170176029205, 0.5156588554382324, -0.5906485915184021, 0.3597131371498108, -0.3730584383010864, -0.12331820279359818, 0.5474324226379395, 0.6960863471031189, 0.4769349694252014, -0.7655017971992493, 0.6566275954246521, -0.205993190407753, 0.15115225315093994, 0.09979162365198135, 0.5749428272247314, 0.5816713571548462, -0.38762691617012024, -0.48598864674568176, -0.6281914114952087, 0.17671766877174377, -0.10213091224431992, -0.16392162442207336, -0.6845971345901489, 0.20807848870754242, 0.247830331325531, 0.2961769104003906], [0.18471162021160126, 0.3359021842479706, -0.2270715981721878, -0.08354610204696655, -0.06584612280130386, -0.3900814950466156, 0.16423667967319489, -0.9576089382171631, -0.24934031069278717, -0.24128414690494537, -0.10660145431756973, -0.28337037563323975, -0.3242027759552002, -0.6686029434204102, 0.12036724388599396, -0.4604649841785431, -0.07958205044269562, -0.7116442918777466, 0.06938409060239792, -0.04545261710882187, 0.45492398738861084, -0.1952264904975891, -0.2278883308172226, -0.3830854296684265, 0.9465880990028381, -0.7692703008651733, -0.021255910396575928, -0.06867403537034988, -0.2396368682384491, 0.3856929540634155, 0.23736126720905304, -0.5072394013404846, 1.3143991231918335, 0.014811627566814423, -0.6007921099662781, -0.1517588347196579, 0.6655376553535461, -0.16019944846630096, -0.4522624909877777, -0.600675642490387, 0.10286660492420197, -0.3011322617530823, -0.5851553678512573, -0.3093457818031311, 0.5949752330780029, 0.5620324015617371, 0.21799710392951965, -0.019245345145463943, 0.2257544994354248, -0.2511472702026367], [-0.7193232774734497, 0.43486860394477844, -0.6124280095100403, 0.08534988760948181, 0.48293471336364746, -0.3602798283100128, 0.16924497485160828, -0.2748931050300598, -0.19635608792304993, -0.5654820799827576, -0.0855194479227066, 0.5953865647315979, 0.5579894185066223, 0.6990065574645996, 0.556509792804718, -0.002427132101729512, 0.3534068167209625, 0.2841813564300537, -1.2790006399154663, 0.3788735866546631, 0.13794785737991333, -0.5972751379013062, -0.21689553558826447, -0.19387412071228027, 0.1847693920135498, -0.5346867442131042, -0.09629637002944946, -0.14841817319393158, 0.5633261203765869, 0.48725026845932007, -0.1552884876728058, 0.4485217332839966, 0.49434584379196167, -0.3652145564556122, -0.562315046787262, 0.153744637966156, -0.25779494643211365, -0.10392219573259354, 0.5747717022895813, 0.624366044998169, -0.600284993648529, 0.7697547674179077, 0.42886945605278015, -0.36535653471946716, 0.8089963793754578, 0.3994961678981781, -0.7200358510017395, -1.2277427911758423, 0.11039740592241287, -0.6896218657493591], [-0.534071683883667, -0.4343041181564331, -0.37047845125198364, 0.1363065391778946, -0.4644538164138794, -0.630864679813385, -0.6276395916938782, 0.011431735940277576, -0.531511127948761, 0.9572303295135498, 0.024801641702651978, -0.056865621358156204, 0.21619758009910583, 0.31379204988479614, 0.47304293513298035, 0.7836916446685791, 0.25520560145378113, 0.36659547686576843, -0.5328547954559326, 0.2913384735584259, -0.7064857482910156, 0.15587551891803741, -0.31064286828041077, 0.3195889890193939, 0.2851238548755646, 0.2107822448015213, -0.012504816055297852, 0.24699120223522186, 0.8613885641098022, -0.17292581498622894, 0.5351818203926086, 0.240373432636261, -0.46783939003944397, -0.4043787717819214, -0.00723648676648736, 0.8628591895103455, -1.3312913179397583, 0.6990520358085632, 0.3057938516139984, 0.35721588134765625, -0.35091304779052734, 0.026140712201595306, 0.4347723722457886, 0.6971718072891235, 0.9597603678703308, -0.7965491414070129, 0.4132225811481476, -0.20990338921546936, 0.5037954449653625, -0.27306443452835083], [-0.32470643520355225, -0.6301555037498474, -0.41174331307411194, 0.4438319206237793, -0.39230668544769287, -0.43264177441596985, -1.0581740140914917, 0.12138049304485321, 0.3048490583896637, -0.4438697397708893, -0.08715417981147766, -0.21843841671943665, -0.37631964683532715, -0.429363876581192, -0.9167283177375793, 0.07495756447315216, 0.24412408471107483, -0.23868779838085175, -0.8364399075508118, 0.42968645691871643, -0.3808818757534027, -0.0002509938203729689, 0.12343908101320267, -0.36522868275642395, 0.1146564856171608, 0.05702746659517288, -0.6734707951545715, -0.3829801380634308, 0.35061389207839966, -0.5157843232154846, -0.2504757344722748, 0.37389105558395386, 0.4435512125492096, 0.1575181484222412, 0.5902155637741089, 0.12097729742527008, 0.04360296577215195, -0.27655476331710815, -0.273339182138443, 0.516290009021759, 0.6564720273017883, -0.07370591163635254, -0.26446229219436646, -0.01048585120588541, 0.11328413337469101, -0.3083174526691437, -0.6961849927902222, -0.5243102312088013, 0.19374218583106995, 0.03632062301039696], [-0.33721262216567993, -0.22318188846111298, 0.29441943764686584, -0.5389087200164795, -0.0712231919169426, 0.07215694338083267, -0.0784856453537941, 0.348534494638443, -0.8483362793922424, -0.9770993590354919, -0.0690029188990593, 0.3407116234302521, 0.11358579248189926, 0.0634981244802475, -0.3274332284927368, 0.6905189752578735, -0.03995514288544655, 0.6449885368347168, -0.6437019109725952, 0.48573213815689087, -0.041106753051280975, -1.131820797920227, 0.4828939437866211, 0.04067431017756462, 0.4003375470638275, -0.0723993256688118, -0.08750837296247482, -0.3558826148509979, 0.6623260378837585, 0.2537378668785095, 0.4190830588340759, -0.455752432346344, -0.5895098447799683, 0.5798298716545105, 0.0651860460639, -0.0015382930869236588, -0.10105094313621521, 0.9520794749259949, 0.7585925459861755, -0.09288747608661652, -0.1697828322649002, -0.28246474266052246, 0.08597204089164734, -0.6927223205566406, -0.3690600097179413, -0.11025895178318024, -0.20390072464942932, -0.5407376289367676, -0.19351816177368164, -0.3962222635746002], [0.5425046682357788, -0.4627935588359833, -0.6817855834960938, -0.023474136367440224, -0.41719889640808105, -0.4324643015861511, 0.0368073433637619, -0.5909770131111145, 0.3541317880153656, -0.07470666617155075, 0.03366471454501152, -0.022941933944821358, 0.36075350642204285, -0.026478778570890427, 0.0882195457816124, -0.698236882686615, -0.19406190514564514, -0.924733579158783, 0.3747652769088745, -0.8117132186889648, -0.6243480443954468, -0.22782354056835175, 0.6308731436729431, 0.14020517468452454, -0.04226130247116089, 0.5489711761474609, -0.6584938764572144, -0.6272251009941101, -0.3646363615989685, 0.04003007709980011, -0.9939208626747131, 0.27402642369270325, -0.1428729146718979, -0.1709233522415161, 0.11919178813695908, 0.257359117269516, 0.5645734667778015, -0.2924972176551819, 0.03143293038010597, -0.45308661460876465, 0.11582828313112259, -0.44475623965263367, 0.07773226499557495, -1.2821816205978394, -0.1470440775156021, -0.43630754947662354, -0.601674497127533, -1.2194385528564453, 0.3345757722854614, -0.39239710569381714], [-0.048762012273073196, -0.05504046007990837, -0.24180302023887634, 0.40349528193473816, 0.1049819067120552, 0.1781008243560791, -0.6938137412071228, -0.365119069814682, 0.1049615815281868, 0.002683966187760234, 0.0731847733259201, 0.4548918604850769, -0.3587549328804016, -0.3714793622493744, -0.4204511046409607, 0.6670216917991638, -0.8289988040924072, -0.6463276743888855, 0.7048618197441101, 0.5939875841140747, -0.006470013875514269, -0.20177792012691498, -0.2114948332309723, -0.4325053095817566, -0.3999162018299103, -0.005925287492573261, 0.2861210107803345, -0.5170509815216064, 0.05696651339530945, 0.9560328722000122, 0.49132171273231506, -0.26797574758529663, 0.8496864438056946, -0.39372342824935913, 0.1741640269756317, -0.6791472434997559, 0.1150999441742897, 0.29900798201560974, -0.8596681952476501, 0.17775340378284454, 0.5980302691459656, -0.2285127490758896, 0.31205034255981445, -1.5199391841888428, -0.4592137932777405, -0.5785907506942749, 0.5976176857948303, -1.3251700401306152, 0.04083710536360741, 0.0755343809723854], [0.22995352745056152, 0.9383522868156433, 0.40701743960380554, 0.10751649737358093, -0.7388097047805786, -0.15366195142269135, 0.8344548344612122, -0.3383663594722748, 0.5669530034065247, 0.4878942370414734, 0.10270512104034424, -0.280863881111145, 0.21252304315567017, 0.20417653024196625, 0.2300960272550583, -0.015910208225250244, -0.1337413638830185, -0.4013460874557495, -0.02405732125043869, -1.0861296653747559, 0.5224058032035828, 0.5666176080703735, -0.40162697434425354, -0.06767800450325012, -0.38366296887397766, 0.009522349573671818, -0.1369294971227646, 0.3153447210788727, 0.5118600130081177, -0.26667332649230957, 0.07656951248645782, 0.7777387499809265, -0.6827463507652283, 0.07030438631772995, 0.8475699424743652, -1.0082817077636719, 0.004190085921436548, 0.29859787225723267, 0.2416396290063858, 0.9929037094116211, -0.031328100711107254, -1.3376944065093994, 0.21914584934711456, -0.08929889649152756, 0.6150267720222473, -0.7196765542030334, -0.27466875314712524, 0.2133365273475647, -0.7461860775947571, 0.6001589298248291], [-0.224483460187912, -0.37185436487197876, 0.3182981312274933, -0.010471055284142494, 0.1914753019809723, 0.07769033312797546, -0.30098387598991394, 0.40192583203315735, -0.910800576210022, -0.4744046926498413, -0.09029543399810791, 0.3515699803829193, -0.7194823622703552, -0.3708987236022949, 0.5811439156532288, -0.5417532324790955, 0.08019453287124634, -0.42603060603141785, -0.09457288682460785, -0.6457136273384094, -0.19464217126369476, -0.8026409149169922, -0.6144367456436157, 0.2099648118019104, 0.01236786413937807, -0.43651849031448364, -0.8580064177513123, 0.5584142208099365, 0.5711683034896851, 1.029002070426941, -0.04074101522564888, -0.40539035201072693, -0.4752997159957886, 0.7604174017906189, -1.1500037908554077, -0.47920194268226624, -0.5815187096595764, -0.7488637566566467, 0.38132283091545105, -0.05685468018054962, -0.17333953082561493, -0.6131175756454468, -0.32323843240737915, -0.04623543471097946, -0.6199032664299011, 0.4482073187828064, -0.28544020652770996, 0.0053691137582063675, -0.015463180840015411, -0.07753808051347733], [0.29874563217163086, -0.3006386458873749, 0.09233877062797546, -0.6879504323005676, -0.12132656574249268, -0.6302930116653442, 0.5870452523231506, -0.5902314186096191, -0.05052430182695389, -0.12586359679698944, -0.08518948405981064, 0.45107540488243103, -0.3048454821109772, 0.11524329334497452, -0.26309821009635925, -0.86449134349823, -0.5826568007469177, -0.5514368414878845, 0.2987070679664612, 0.20297326147556305, -0.43209680914878845, -0.18783791363239288, -0.2937988042831421, -0.38215819001197815, -0.4440217614173889, 0.23847487568855286, 0.031829655170440674, -0.08182637393474579, -0.4547135829925537, 0.6854467988014221, -0.14342528581619263, -0.6978552937507629, -0.5331931710243225, -0.2474879026412964, -0.38550350069999695, 0.2667427957057953, -1.1991808414459229, -0.09822780638933182, 0.5516209006309509, -0.7201228141784668, -0.1998610496520996, 0.27635130286216736, -0.7085431218147278, -0.2235046625137329, -0.5200765132904053, 0.5086573362350464, -0.5090307593345642, -0.6331000924110413, 0.16261985898017883, 0.1130228340625763], [0.15972018241882324, -0.11979614198207855, -0.5250808596611023, -0.3241666257381439, -0.17038899660110474, 0.4869195520877838, -1.0990219116210938, 0.21245162189006805, -0.4303683340549469, 0.16598214209079742, 0.042424846440553665, -0.20180892944335938, -0.7170141339302063, -0.030631864443421364, -0.8613424897193909, 0.558392345905304, -0.7871512770652771, 0.9486890435218811, -0.78755122423172, -0.1887345165014267, 0.12743204832077026, 0.6894515156745911, 0.41153058409690857, -0.23361654579639435, -0.7534641623497009, -0.029467718675732613, -0.10856819152832031, -0.2628297507762909, 0.030891934409737587, -0.9563197493553162, -0.5137670636177063, 0.08914659917354584, 0.866891622543335, -0.9567838311195374, 0.17515698075294495, -0.051671359688043594, 0.07539739459753036, -0.17846909165382385, 0.09074070304632187, 0.5933758616447449, -0.46934694051742554, 0.625239372253418, -0.5542454719543457, 0.481805682182312, 0.2519553601741791, 0.23990502953529358, -0.339175283908844, -0.7060289978981018, -0.7732920050621033, -0.33202823996543884], [-0.601975679397583, 0.22279292345046997, 0.807701587677002, 0.08005170524120331, -0.1847386211156845, -0.8802312612533569, -1.6034460067749023, 0.5355305075645447, 0.8372880816459656, -0.633758544921875, -0.11269780248403549, -0.1483721137046814, 0.0949925109744072, 0.6317234039306641, 0.2700697183609009, -0.09999643266201019, -0.5980226993560791, -0.2959643602371216, -0.33581459522247314, 0.38782820105552673, -0.6550649404525757, 0.2593027353286743, -0.16094808280467987, 0.12556228041648865, 0.3463000953197479, 0.10940463095903397, 1.3131002187728882, -0.06197097897529602, -0.20496602356433868, -1.2063803672790527, 0.38920465111732483, -0.4151502549648285, 0.048077292740345, 0.7329047322273254, -0.28710904717445374, -0.8137245774269104, 0.706205427646637, 0.1837763637304306, -0.4601718783378601, 0.02199862338602543, 0.5056467652320862, -0.2070266306400299, -0.6561290621757507, -0.16787080466747284, 0.5827414393424988, 0.1629425585269928, -0.35930609703063965, -0.7585204243659973, -0.6170000433921814, -0.25655534863471985], [-0.283142626285553, 0.18000954389572144, 0.19306336343288422, -1.5233169794082642, 0.6006779074668884, -0.3172334134578705, 0.2955073416233063, 0.7878026962280273, 0.196132630109787, 0.3180482089519501, -0.032113268971443176, -0.2536059617996216, 0.3597949147224426, -0.5532903671264648, -1.2429903745651245, -0.008490443229675293, -0.08235249668359756, -0.6030189990997314, 0.5501643419265747, -0.04217761754989624, -0.7278595566749573, -0.33516252040863037, -0.038281768560409546, -0.3113759458065033, -0.22113138437271118, -0.45071256160736084, -0.576328456401825, 0.0072190118953585625, -0.0650944635272026, -0.5017988085746765, 0.0026877198833972216, 0.29580157995224, -0.07169762253761292, 0.04907164350152016, 1.0195050239562988, -0.5709820985794067, 0.621800422668457, 0.030309554189443588, -0.20058345794677734, 0.7538580298423767, -0.37249788641929626, 1.2548664808273315, 0.41061535477638245, -0.0461675263941288, 0.7026963233947754, -0.1344633847475052, 0.692818284034729, -1.3893816471099854, 0.16828285157680511, 0.0022406899370253086], [0.38328200578689575, 0.32851681113243103, -1.0123690366744995, 0.04591169208288193, -0.203943133354187, -0.13392458856105804, 0.4194868505001068, -0.2348881959915161, -0.756949245929718, -0.47281914949417114, 0.05144621804356575, -0.26399746537208557, -0.2720414698123932, -0.35377782583236694, 0.2133670300245285, 0.37075361609458923, -0.7073458433151245, 0.5184760093688965, -0.08997760713100433, -0.2833063304424286, 0.7465411424636841, 0.4570273756980896, -0.6645543575286865, 0.23239542543888092, -0.34556761384010315, -0.8591662049293518, -1.20534348487854, -0.9857966303825378, 0.8750028610229492, 0.6923763155937195, -0.2861040234565735, 0.2818048298358917, -0.29158154129981995, 0.1906103938817978, -0.5877262353897095, 1.0325075387954712, -1.3611096143722534, 0.49170368909835815, 0.5459466576576233, 0.5244547128677368, -0.18420854210853577, 0.8071573376655579, -0.3310520052909851, -0.7208109498023987, 0.9246736168861389, -1.0803039073944092, -0.4094463884830475, -0.32706210017204285, 0.022391801699995995, 0.1831676959991455], [-0.2528204619884491, 0.3808944821357727, 0.20376630127429962, -0.0822247788310051, -0.16475801169872284, -0.20230115950107574, 0.6030527353286743, 0.1764102280139923, -0.6661883592605591, 0.5203633308410645, -0.03914504125714302, 0.5096710324287415, 0.04469814524054527, -0.6598968505859375, 0.2398463934659958, 0.4485701024532318, 0.5780724287033081, -0.2526244521141052, 0.3531287908554077, -0.7451598644256592, 0.09442318975925446, 0.4690641760826111, -0.03428790718317032, -0.10919616371393204, 0.5516639947891235, -0.4683185815811157, -0.12897434830665588, 0.0655689537525177, 0.5336717963218689, -0.047136709094047546, -0.2749541401863098, -0.4839596450328827, -0.648466944694519, 0.25654059648513794, 0.1125657856464386, 0.01428265031427145, -0.30088889598846436, -0.12862463295459747, -0.29769065976142883, -0.5835650563240051, -0.42918577790260315, -0.2485363632440567, 0.7016070485115051, -0.9490149617195129, 0.4169767200946808, -0.3735794126987457, -0.5444034337997437, -0.9378023147583008, 0.326839417219162, -0.7488835453987122], [-0.23505809903144836, -0.1772768199443817, 0.4278055727481842, -0.5809841752052307, 0.03456427901983261, -0.4124845862388611, -0.42582967877388, -0.4482634663581848, 0.2506086826324463, -0.5264155268669128, -0.023988809436559677, 0.5772202610969543, 0.5371532440185547, -0.014821687713265419, -0.4516170620918274, 0.5896594524383545, 0.2863490879535675, -0.5981884002685547, -0.03580540046095848, -0.6954232454299927, -0.35094743967056274, -0.015662768855690956, -0.046044714748859406, 0.47994905710220337, 0.049786366522312164, -0.8306542634963989, -0.08835694938898087, 0.022216975688934326, 0.515315592288971, 0.2802658677101135, 0.08201150596141815, 0.019747575744986534, -0.34799858927726746, 0.3794299364089966, -0.7680565714836121, -0.1830592006444931, -0.044871751219034195, 0.33803170919418335, 0.5713317394256592, -0.031725578010082245, 0.8655751943588257, 0.4262644350528717, -0.6543223857879639, 0.240080788731575, 0.24035824835300446, -0.09329231083393097, 0.14316491782665253, -0.05409352108836174, -0.49517330527305603, 0.31568336486816406], [-0.08931927382946014, -0.8280193209648132, 0.15558061003684998, -0.20134225487709045, 0.7155574560165405, 0.6472547054290771, 0.8139787316322327, 0.3606438636779785, 0.44365808367729187, -1.035749912261963, 0.13498681783676147, 1.158156394958496, -0.2135349065065384, 0.14823435246944427, 0.29112109541893005, 0.6424719095230103, -0.694346010684967, -0.7617935538291931, -0.6846417188644409, -0.4100331664085388, 0.5781727433204651, -0.431112140417099, 0.1273258626461029, -0.14031676948070526, 0.05894063413143158, -0.22807182371616364, 0.1859149932861328, -0.8161054253578186, -1.3654640913009644, 0.032472722232341766, 0.2053859531879425, -0.12055332958698273, 0.21821755170822144, 0.3980615437030792, -0.4761058986186981, -0.41853073239326477, -0.012435567565262318, -0.44884875416755676, -0.4159317910671234, 0.38685327768325806, 0.23664693534374237, -0.6733015775680542, -0.41968920826911926, 1.0126250982284546, -0.02064296044409275, 0.4217824339866638, -0.14366228878498077, -0.6216602921485901, -0.015728821977972984, -0.28289520740509033], [-0.55642169713974, 0.03481872379779816, -0.037728626281023026, -0.4342125654220581, 0.2969479262828827, 0.3513544797897339, -1.0057822465896606, 0.08417575806379318, 0.20819859206676483, 0.45854878425598145, -0.03335040807723999, -0.2507941424846649, -0.4279420077800751, 0.40133383870124817, 0.03640120103955269, 0.25547337532043457, -0.2553273141384125, 0.7753698825836182, -0.1007576733827591, 0.3291979730129242, 0.5920732617378235, 0.5124703645706177, 0.4783325493335724, 0.1856069266796112, -0.04866364598274231, -0.49992305040359497, 0.8114241361618042, 0.40284407138824463, 0.9800819754600525, -0.38756707310676575, 0.12816134095191956, -0.6775192618370056, -0.7186222076416016, -0.46795013546943665, 0.062093351036310196, 0.19726291298866272, -0.4915998578071594, -0.3734300136566162, -0.31912127137184143, 0.1706857532262802, -0.009415839798748493, -0.12134082615375519, -0.6629446148872375, -0.3807440400123596, 0.2890833914279938, -0.25966012477874756, -0.06368216872215271, -0.6760787963867188, 0.5624539852142334, 0.35836267471313477], [0.6187880635261536, -0.0018620771588757634, 0.3058491051197052, 0.2907644808292389, 0.035622283816337585, -0.0054571740329265594, 0.024518165737390518, -0.04742303490638733, -0.15239669382572174, -0.1100633293390274, -0.05049640312790871, -0.608700156211853, 0.1408451646566391, 0.7892700433731079, -0.9659253358840942, -0.5876266360282898, 0.20618471503257751, -0.17113056778907776, -0.3797217905521393, 0.32119834423065186, -0.056758299469947815, -0.16555555164813995, -0.7305658459663391, 0.07037736475467682, 0.0666520968079567, -0.38520923256874084, -0.07042346149682999, -0.5252133011817932, 0.4571269154548645, -0.05592814087867737, 0.6496745347976685, -0.027042457833886147, 0.3556024730205536, -0.24826692044734955, -0.5588482618331909, -0.20927143096923828, 0.7092309594154358, -0.22110745310783386, -0.9525743126869202, 0.4091913104057312, -0.36110466718673706, -0.13141359388828278, 0.5003743767738342, -0.0805860161781311, 0.424246609210968, 0.18178533017635345, -0.24694819748401642, 0.31489691138267517, -0.1925688087940216, -0.20178964734077454], [-0.4300110936164856, 0.7766172289848328, 0.44593507051467896, 0.5508295893669128, 0.04080631211400032, 0.4409380555152893, -1.2062445878982544, -0.1721952110528946, 0.2590251564979553, 0.6877672672271729, -0.018698494881391525, -0.09952402859926224, 0.3578498363494873, -0.3363187611103058, -0.4580008089542389, -0.8453444838523865, -0.8558749556541443, 0.3207688331604004, -0.2621554434299469, -0.43058931827545166, 0.19867359101772308, -0.8507795333862305, 0.01194800715893507, -0.6873445510864258, 0.8663230538368225, -0.0029032255988568068, -0.3905862271785736, -0.7306498289108276, -0.6615986227989197, -1.4188135862350464, -1.0082982778549194, -0.1404309868812561, 0.2587161064147949, 0.5692964792251587, 0.6383206844329834, 0.3723428547382355, -0.06561499834060669, 0.0925411581993103, 0.1962260901927948, -1.1976404190063477, 0.4972932040691376, -0.9573445916175842, 0.4351678192615509, 0.04973920062184334, 0.7393826842308044, -0.26875734329223633, -0.754810631275177, -0.29139018058776855, -0.3816334307193756, 0.4301467835903168], [-0.3288077116012573, -0.4714816212654114, 0.3755960166454315, -0.280574232339859, 0.3704400658607483, -0.37829118967056274, 0.6749560832977295, -0.6302677989006042, -0.12474232167005539, -0.19802531599998474, 0.10439583659172058, 0.45606309175491333, 0.8082637190818787, 0.10364608466625214, -0.2638968229293823, -0.6877606511116028, 0.16073091328144073, -0.4497418701648712, -0.26563596725463867, -0.32522284984588623, 0.03713348135352135, 0.47429510951042175, 0.6957240700721741, 0.43770432472229004, 0.22988371551036835, -0.026970623061060905, -0.6776150465011597, -0.3785786032676697, 0.3665245771408081, -0.3361065983772278, -0.6197036504745483, 0.4804205894470215, -0.6614154577255249, 0.072956383228302, 0.2227090746164322, -0.09616941213607788, -0.3437153398990631, -0.21986998617649078, 0.645796000957489, -0.2921524941921234, -0.6761969923973083, 0.08989875763654709, -0.1417507827281952, -1.0539283752441406, -0.3174048364162445, -0.24616214632987976, -0.18749499320983887, 0.45614108443260193, -0.4521932899951935, 0.5503464937210083], [-0.21649548411369324, -0.34553149342536926, -0.45273903012275696, 0.6434780955314636, -0.4176141917705536, 0.6946954727172852, -0.6253442168235779, -0.6202313303947449, 0.5106387734413147, -0.4619803726673126, -0.08335438370704651, -0.4189743399620056, 0.30540451407432556, -0.38328424096107483, -0.3472767770290375, 0.5284698009490967, -0.4392976462841034, 0.363965779542923, 0.7161794900894165, -0.13236673176288605, -0.023699751123785973, -0.0008516569505445659, 0.31184834241867065, 0.08305720239877701, -0.2281816005706787, -0.13147428631782532, -0.5174108147621155, 0.3069879710674286, -0.34989187121391296, 0.27331098914146423, 0.3907754123210907, -0.08302810043096542, -0.09744487702846527, -0.223073348402977, 0.35007160902023315, -0.26361083984375, -0.8034833669662476, -0.30367350578308105, 0.806691586971283, 0.17540542781352997, 0.1023830696940422, -0.04131295904517174, -0.42464837431907654, -0.3513259291648865, 0.3181869387626648, -0.7676756381988525, -0.6935808062553406, -0.05448849871754646, -0.8632723093032837, 1.035418152809143], [0.05144435167312622, 0.724536120891571, -0.34578508138656616, 0.5277150869369507, 0.4911656975746155, 0.0296021718531847, 0.606209933757782, -0.7266550660133362, 0.010172435082495213, -0.6043343544006348, -0.009163608774542809, -0.501916229724884, 0.8010014295578003, 0.15142808854579926, -0.7018218636512756, -0.36722004413604736, 0.19408580660820007, -0.44925251603126526, 0.34057289361953735, 0.28038206696510315, -0.37480366230010986, 0.5045090317726135, -0.7164433598518372, -0.18417389690876007, -0.060897570103406906, 0.14594081044197083, -0.566138744354248, -0.23843656480312347, 0.02235482446849346, -0.9772796630859375, -1.0342894792556763, 0.1023913323879242, -0.5902206301689148, -0.7869629263877869, 0.29209864139556885, -0.4247654378414154, 0.1518649458885193, 0.5425176024436951, 0.1671224683523178, -0.05147629976272583, 1.0008876323699951, -0.8379685878753662, 0.4829683303833008, 0.2567934989929199, -0.33237648010253906, -0.4448891580104828, 0.35836249589920044, 0.4569638967514038, -0.1375706046819687, 0.040670789778232574], [-1.0548675060272217, -0.16463857889175415, 0.6613057851791382, 0.3880590498447418, -0.6657307744026184, -0.9040955305099487, 0.31490397453308105, 0.45376071333885193, 0.2011825144290924, -0.9867170453071594, -0.11327515542507172, 0.8160005807876587, -0.8224384784698486, 0.016535500064492226, 1.0033944845199585, -0.605987012386322, -0.7996930480003357, -0.6102414131164551, -0.17673179507255554, 0.25953662395477295, -1.3733333349227905, 0.2739061713218689, 0.31544026732444763, 0.5262534618377686, 0.4933778941631317, -1.8072971105575562, -1.2551281452178955, -0.7804039716720581, -0.25462380051612854, -2.027043581008911, 0.4670373201370239, 0.4307798743247986, -0.4954952001571655, -0.9043743014335632, -0.13624577224254608, 0.8572604656219482, -0.5891209840774536, -1.543410062789917, -1.4028234481811523, 0.295697420835495, -0.19061975181102753, 0.3993229269981384, -0.019424311816692352, -0.33035746216773987, -0.12158548086881638, 0.2560631036758423, -0.9195942878723145, 0.3284461498260498, -0.354678213596344, 0.008715873584151268], [-0.3024490773677826, -0.5075689554214478, -0.22497597336769104, -0.32986557483673096, 0.17339466512203217, -0.10424081981182098, -0.3274744749069214, -0.11823493242263794, -0.111725352704525, -0.44621196389198303, -0.003776726545765996, 0.14748743176460266, -0.5364294648170471, 0.17118434607982635, -1.2512966394424438, -0.6747657060623169, -0.06679081171751022, -0.4447120726108551, -0.09145492315292358, -0.47137415409088135, 0.301009863615036, -0.2216658890247345, -0.029726965352892876, -0.1441267877817154, -0.03547508642077446, 0.4622727632522583, 0.5787813067436218, 0.09054212272167206, 0.8768742084503174, 0.07789553701877594, 0.017368366941809654, -0.27209925651550293, 0.20245935022830963, 0.010295884683728218, -0.3545535206794739, -0.051447026431560516, -0.2796984314918518, -0.12230778485536575, 0.4615224301815033, 0.3166375160217285, 0.1704614758491516, -0.5429301261901855, -0.7030629515647888, 1.057955265045166, 0.06940682232379913, -0.6172718405723572, -0.16675473749637604, -0.35763710737228394, -0.15763214230537415, -0.39219367504119873], [0.21203745901584625, 0.20682339370250702, 0.1468181163072586, 0.1428004503250122, 0.30585557222366333, -0.02380231022834778, 0.297105997800827, -0.660713791847229, 0.6070657968521118, -1.1677697896957397, 0.09395468980073929, 0.07410941272974014, -0.15118995308876038, -0.2095097005367279, -0.09340076148509979, 0.8131544589996338, -1.0244427919387817, -0.37131550908088684, 0.32272908091545105, 0.08092783391475677, -0.342473566532135, -0.9214673042297363, 0.5395042896270752, 0.24599994719028473, -0.860700786113739, -0.8111478090286255, 0.08130153268575668, -0.11886437982320786, -0.12712185084819794, -0.39991477131843567, 0.26441529393196106, -0.533805251121521, -0.27456358075141907, -0.09094979614019394, -0.7101039886474609, -5.755235179094598e-05, -1.4257566928863525, -0.158138707280159, -0.002205324126407504, -1.072261929512024, -0.5300090312957764, -0.5282422304153442, 0.21584446728229523, 0.2675756812095642, 0.5793136954307556, -0.5158078670501709, 0.04437069967389107, 0.35949215292930603, 0.49968627095222473, -0.09346378594636917], [-0.20541830360889435, -0.8720119595527649, -0.2323428988456726, 0.49548017978668213, -0.2148301601409912, -0.9158710241317749, 0.3758299946784973, -0.48313191533088684, -0.027919534593820572, -0.18408817052841187, -0.02097044698894024, 0.2803804874420166, -0.47450482845306396, -0.6506632566452026, 0.18454211950302124, -0.3591274619102478, -0.37334635853767395, 0.5409840941429138, 0.7377017140388489, 0.19316180050373077, -0.39830347895622253, -0.06229227036237717, 0.2522968053817749, 0.07252444326877594, -1.0516448020935059, -0.6356111168861389, -0.18151406943798065, -0.7298493981361389, -0.12592719495296478, -0.14356929063796997, 0.04871392995119095, 0.07213801890611649, 0.1881818175315857, -0.5397666096687317, 0.11524231731891632, 0.1701175421476364, 0.27275773882865906, -0.46581482887268066, 0.005400972906500101, 0.21589870750904083, -0.3916912376880646, 0.049229830503463745, 0.6888012886047363, -0.2093140333890915, -1.0045652389526367, 0.6449580788612366, -0.2700576186180115, -0.38252922892570496, -0.3353827893733978, 0.1416260153055191], [-0.4628869593143463, 0.4916190207004547, -0.49904361367225647, -0.45793190598487854, -0.2940985858440399, -0.5013637542724609, -0.670169472694397, 0.520514190196991, -0.04300294816493988, 0.2511375844478607, -0.061359990388154984, 0.06899358332157135, -0.37003329396247864, 0.5812026262283325, -0.8326442241668701, -0.4630225896835327, -0.27445536851882935, -0.41102105379104614, -0.30677735805511475, -0.24165078997612, -0.16880707442760468, -0.28583720326423645, -0.8670783638954163, -0.014860053546726704, -0.14295639097690582, -0.6886476278305054, 0.3216286599636078, 1.0173014402389526, -0.5255686044692993, -0.16746604442596436, 0.005865870509296656, 0.4775371551513672, -0.8111311793327332, -0.7618226408958435, -0.008282274007797241, 0.32347366213798523, -0.12181659787893295, 0.3158802390098572, -0.1594209223985672, -0.1365867257118225, 0.4908638894557953, -0.0014973219949752092, -0.5398389101028442, -0.1891137957572937, -0.1490148901939392, -0.28978440165519714, -0.691475510597229, -0.8618379831314087, -0.1713358461856842, 0.2124045491218567], [-0.5629504919052124, 0.45204830169677734, 0.88706374168396, -0.5970233082771301, -0.36345842480659485, 0.1568313091993332, 0.3837633430957794, 0.08446455001831055, -0.011785103939473629, -0.572041392326355, 0.04423890262842178, 0.26981961727142334, 0.10998041182756424, -0.2772810161113739, -0.2317470908164978, -0.36773476004600525, 0.11787734925746918, -0.6953524947166443, 0.1425311118364334, -0.24571461975574493, -0.14708763360977173, -0.45398396253585815, -0.3628740906715393, -0.8124358654022217, -0.2743638753890991, 0.5643778443336487, 0.43518197536468506, 0.7128523588180542, 1.074170708656311, -0.619523823261261, -0.8113515377044678, -0.20977003872394562, 0.14144016802310944, -0.3254205584526062, -0.15412132441997528, 0.5937947034835815, -0.41811907291412354, 0.4902345538139343, -0.6658409237861633, 0.16004976630210876, 0.3356177806854248, 0.12309060245752335, 0.546001672744751, 0.30344274640083313, -0.8191167116165161, -0.7247567176818848, -0.30616670846939087, 0.4550268054008484, -0.5131775140762329, 0.22177435457706451], [-0.3119485676288605, 0.1318669617176056, 0.39841535687446594, 0.8708707094192505, -0.12315919995307922, 0.6077304482460022, -0.1605478674173355, 0.11788613349199295, 0.040755048394203186, -0.8409344553947449, 0.10525235533714294, 0.07666613906621933, -0.48076122999191284, -0.16368554532527924, 0.06816437840461731, 0.17375800013542175, -0.3321152925491333, 0.41348275542259216, -0.7358275651931763, 0.6518753170967102, -0.16170862317085266, -0.06518793106079102, 0.3274945914745331, 0.2009061872959137, 0.4901593029499054, -0.06720845401287079, -0.5432777404785156, -0.9134949445724487, 0.4919641613960266, 0.8379169702529907, 0.8164784908294678, 0.5897207856178284, 0.06033773720264435, -0.5335919260978699, 0.15715889632701874, -0.6027669906616211, -0.028246847912669182, -0.5619547963142395, 0.01704385317862034, 0.3978389501571655, -0.4525672495365143, 0.2455090880393982, -0.12036460638046265, 0.2500961422920227, -0.2765738070011139, 0.009533475153148174, -0.11274807900190353, -0.12444020062685013, 0.1660437434911728, 0.49219998717308044], [-0.7979009747505188, 0.2893325984477997, -0.26453664898872375, -0.14404718577861786, -0.49046576023101807, -0.30284860730171204, 0.11672346293926239, -0.11260432004928589, 0.26891401410102844, -0.7543457746505737, -0.058014001697301865, -0.13304667174816132, -0.8506768941879272, -0.7018660306930542, 0.4114038348197937, -0.9238237142562866, -0.20661094784736633, 0.5080882906913757, 0.20660966634750366, -0.4509584903717041, -0.3992607593536377, -0.5068540573120117, -0.09446321427822113, 0.6180115342140198, -0.5724145770072937, 0.20241428911685944, 0.6654807329177856, -0.11590486764907837, 0.2543315589427948, 0.3677760362625122, 0.11989432573318481, 0.23464980721473694, -0.25114139914512634, -0.5161248445510864, 0.2290162295103073, -0.5992724895477295, -0.16079086065292358, -0.5846526622772217, -0.9070202112197876, -1.44651198387146, 0.09848140180110931, 0.20065607130527496, -0.026401039212942123, -0.20628899335861206, 0.013597768731415272, 0.5697096586227417, 0.22867506742477417, 0.24817325174808502, -0.19958120584487915, 1.1220368146896362], [0.31374305486679077, -0.5364259481430054, 0.2608564496040344, 0.571036159992218, 0.04959065467119217, -0.023730726912617683, 0.43262988328933716, -0.7175626754760742, 0.07503173500299454, -0.005048719234764576, -0.06926305592060089, -0.22702942788600922, -0.1090926006436348, -0.3468804955482483, 0.015555049292743206, -0.797601044178009, -0.3649183213710785, 0.6085582375526428, -0.1272529661655426, -0.1877962201833725, 0.4115535616874695, -0.3874991834163666, -0.7623958587646484, -0.8197373747825623, 0.2594795227050781, -0.5613045692443848, -0.47682538628578186, -0.2363969087600708, 0.28196364641189575, 0.10063314437866211, -0.5628138184547424, 0.8075541853904724, -0.21053630113601685, -0.08397500216960907, 0.03322797268629074, -0.17329369485378265, 0.7155876755714417, 0.08833077549934387, 0.3672972023487091, 0.36686208844184875, -0.6318062543869019, 0.2149151861667633, -0.13800570368766785, -0.6986837387084961, -0.22651256620883942, 0.40716761350631714, -0.44266512989997864, -0.287008136510849, -1.0077515840530396, -0.5323415398597717], [0.2415088564157486, 0.32640936970710754, 0.7407107353210449, 0.11436047405004501, 0.09402606636285782, 0.985824465751648, 0.4749127924442291, -0.6032711267471313, -0.4932112991809845, -0.7650933861732483, 0.07892972975969315, 0.3104740083217621, 0.6903495192527771, -0.38110023736953735, 0.15271855890750885, -1.3450284004211426, -0.6321532130241394, -0.23789821565151215, -0.9657520055770874, 0.20565517246723175, -0.371205598115921, 0.2742753028869629, 0.07808686792850494, -0.2720290422439575, -0.8821011185646057, -0.9619548320770264, 0.3437732458114624, -0.025166863575577736, -0.2816961407661438, 0.026287492364645004, 0.5305995941162109, 0.200557678937912, 0.42562347650527954, -0.3186679780483246, 0.27854692935943604, 0.8310316205024719, -0.5383780002593994, 0.3371739983558655, 0.37075263261795044, 0.6888850927352905, -0.025006510317325592, -0.806501567363739, 0.4338758587837219, 0.04625917598605156, 0.20173101127147675, -0.4600283205509186, 0.46723854541778564, -1.031069040298462, -1.0401759147644043, 0.12954355776309967], [0.03963185101747513, -0.1824231892824173, 0.911372184753418, 0.17330466210842133, -0.2127387821674347, -0.01980840228497982, 0.3999534845352173, 0.33133262395858765, 0.10895414650440216, 0.22576715052127838, 0.09312455356121063, 0.6573613882064819, 0.5197322964668274, 1.051855444908142, 0.016742514446377754, -0.5354008078575134, -0.1934947371482849, 0.7126660346984863, 0.8205589056015015, 0.6604117155075073, 0.21730512380599976, -0.0628700703382492, -0.7337425947189331, 0.045788902789354324, 0.056501198559999466, 0.22028517723083496, 0.7707889080047607, 0.0027434653602540493, 0.8285011649131775, -1.1380828619003296, 0.37254518270492554, -0.07472608238458633, 0.41842570900917053, -0.06335512548685074, -0.41511523723602295, -0.6274572014808655, -0.19877780973911285, 0.26047876477241516, -0.06420014053583145, -0.7401548027992249, -0.14081871509552002, 0.4622616469860077, -0.6107434034347534, -0.7092482447624207, 0.467091828584671, -0.14778569340705872, 0.3000858426094055, -0.5202577114105225, 0.22634872794151306, -0.11623957753181458], [-0.9557440876960754, -0.44631075859069824, 0.3384987711906433, -0.6102572083473206, -0.424638956785202, -0.29355427622795105, -0.12470724433660507, 0.4317794740200043, -0.34223756194114685, 0.1304600089788437, 0.1276065856218338, -0.42445096373558044, -0.1650056093931198, -0.42323583364486694, 0.04220408573746681, 0.22061213850975037, -0.23292754590511322, 0.15236368775367737, 0.08227306604385376, 0.3479563593864441, -0.13329261541366577, 0.06430218368768692, -0.8987870216369629, 0.05894948169589043, -0.4135207235813141, 0.18679653108119965, 0.23783451318740845, -0.37718281149864197, 0.4053274989128113, 0.05640785023570061, 0.15562975406646729, 0.40862351655960083, -0.7983514070510864, 0.2842523157596588, -0.3264588713645935, -0.7196319103240967, -0.16814696788787842, -0.3985879719257355, -0.12769754230976105, 0.07129497081041336, -0.08760415017604828, -0.12550130486488342, 0.823127806186676, -0.13208788633346558, -0.10276994109153748, -0.7769827246665955, -0.12085875868797302, -0.29112857580184937, 0.45809510350227356, -0.7157690525054932], [-1.3032822608947754, -0.4988003075122833, 0.010247078724205494, 0.47118890285491943, -0.138308584690094, -0.3299176096916199, -0.9868122935295105, 0.2541692852973938, -0.43314382433891296, 0.09069903939962387, 0.03679582104086876, -0.40085116028785706, -0.029917936772108078, -1.0762382745742798, -0.06491414457559586, -0.22532233595848083, 0.29065608978271484, -0.08795657753944397, 0.4422934353351593, -0.5264054536819458, 0.10360168665647507, -0.11706309020519257, 0.17402659356594086, 0.7326712608337402, 0.2992086112499237, -1.0459401607513428, 0.42676016688346863, -0.16350391507148743, -0.662492573261261, 0.3531203269958496, -1.0263396501541138, 1.00253164768219, 0.27121955156326294, -0.031454503536224365, -0.9323468208312988, 0.10238125175237656, -0.06066522002220154, 0.3289991319179535, 0.8233041167259216, 0.1784173846244812, -0.6767981052398682, -0.06987283378839493, 0.45527970790863037, 0.5023612976074219, 0.6082413792610168, 0.20664627850055695, -0.1465325951576233, -1.3131495714187622, 0.6500194668769836, 0.10504992306232452], [0.14227572083473206, -0.05274548381567001, 0.0044284178875386715, 0.2797260582447052, -0.9289227724075317, -0.7538519501686096, 0.03421783074736595, -0.32685601711273193, 0.3069002330303192, -0.14486458897590637, -0.011770965531468391, -0.04965028166770935, -0.6518900990486145, 0.026108352467417717, -0.07238451391458511, 0.2357536107301712, -0.07242240011692047, -0.14742204546928406, -0.061607107520103455, 0.2342815101146698, 0.222533717751503, -0.3646920621395111, 0.29776665568351746, -0.36414650082588196, -0.022655997425317764, -0.6150715947151184, 1.2927155494689941, 0.2852317988872528, 0.8263102173805237, 0.6867064833641052, -1.3443794250488281, 0.4705084264278412, -0.16630682349205017, -0.882600724697113, 0.021334057673811913, 0.06284140050411224, -0.5061065554618835, -0.0686691626906395, -0.6617961525917053, 0.653537392616272, 0.12476585060358047, -0.3176030218601227, 0.05121614784002304, 0.7350908517837524, 0.5431894063949585, 0.058166079223155975, 0.005515779368579388, 0.16905295848846436, -0.6308807730674744, 0.24204449355602264], [0.2890496551990509, 0.7343875169754028, 0.8160048127174377, -0.07147767394781113, 0.18307510018348694, 0.5875660181045532, -0.464042067527771, -0.5776367783546448, -0.07690233737230301, 0.30010470747947693, 0.11871281266212463, 0.24025410413742065, 0.04643375799059868, -0.20344439148902893, 0.17764374613761902, -0.008399326354265213, -0.26673588156700134, -0.22524289786815643, -0.4036206007003784, -0.3408735394477844, -0.8145521879196167, -0.27513036131858826, -0.16893821954727173, 0.43367210030555725, 0.9865798354148865, 0.23392681777477264, -0.38860899209976196, -0.28510400652885437, 0.3545531630516052, -0.5363826155662537, -0.5264146327972412, 0.45074141025543213, 0.20969757437705994, -0.7788687348365784, 0.5403019785881042, 0.16495855152606964, -0.26827964186668396, -0.3186872899532318, -0.5579991340637207, 0.007690464146435261, 0.049935076385736465, -0.016396012157201767, -0.8242665529251099, 0.34703588485717773, 1.5278269052505493, -1.145538091659546, -0.09739544987678528, 0.9207330942153931, -1.0742465257644653, -0.05415241792798042], [-0.21294905245304108, -0.7739561796188354, 0.04095736891031265, 0.4355838894844055, -0.72796231508255, -0.037554457783699036, 0.10099591314792633, 0.5114765763282776, 0.6233485341072083, -0.008183013647794724, 0.07202570140361786, -0.2957782447338104, 0.3275376260280609, 0.4449023902416229, 0.03819149360060692, 0.31897133588790894, 0.1595114767551422, 0.16024383902549744, 0.5470108985900879, 0.03555773198604584, -0.4389745891094208, 0.4294838011264801, 0.17692042887210846, 0.00361622148193419, -0.3764922022819519, 0.8055383563041687, 0.21112236380577087, -0.5768030285835266, -0.3278636932373047, -0.035403311252593994, -0.5913151502609253, -0.4986426532268524, 0.6702767610549927, -0.1868409812450409, -0.6926331520080566, -0.6368247270584106, 0.11734075099229813, -0.15318632125854492, 0.1568039357662201, 0.1495824158191681, 0.5385110378265381, 0.6455734372138977, 0.4381982684135437, 0.40066441893577576, 0.21506203711032867, 0.11125131696462631, 0.6167820692062378, -0.729839026927948, 0.21137775480747223, 0.5267981290817261], [0.16717427968978882, -1.2861109972000122, 0.43090108036994934, -1.2353975772857666, 0.0023947227746248245, 0.8635208606719971, -0.16512228548526764, -0.24449504911899567, -0.23904521763324738, -0.11249516159296036, -0.0670246034860611, -0.6159706711769104, -0.4868457615375519, -1.8526723384857178, -0.1697005033493042, 0.30444449186325073, -0.7616121768951416, -0.007014980539679527, 0.6517283320426941, -0.5881576538085938, -0.7118091583251953, 0.028062857687473297, 0.2526480257511139, -0.6488522291183472, -0.2860131859779358, -0.830771267414093, -0.047456659376621246, -0.22511601448059082, -0.6375420093536377, -0.32440686225891113, 0.2939576506614685, -0.3949572443962097, -0.061180032789707184, -0.6921053528785706, -0.0942416712641716, -0.7207236289978027, 0.5634803175926208, -0.3057573735713959, 0.3287734389305115, -1.2285031080245972, 0.46429359912872314, 0.6319357752799988, -0.7988535761833191, 0.6824413537979126, 0.7157215476036072, -0.015057114884257317, -0.17049916088581085, -0.019310787320137024, 0.1538165807723999, -0.26762011647224426], [0.4674632251262665, 0.007700195070356131, 0.7107864022254944, 0.0825362503528595, -0.9913263320922852, -0.40606561303138733, -0.6735042929649353, -0.924515426158905, -0.34950903058052063, -0.08531007170677185, 0.09579268842935562, -0.566535472869873, -0.47436508536338806, 0.403068482875824, 0.10797248780727386, -1.1208529472351074, -0.7664966583251953, 0.4881456196308136, 0.24420320987701416, -0.05578480660915375, 0.3449104428291321, -0.17038580775260925, 0.6949309706687927, -0.441821813583374, 0.10766562819480896, -0.4524422883987427, 0.8008159399032593, -0.3568781316280365, -0.25614750385284424, 0.24089714884757996, -0.43780186772346497, -0.18559609353542328, -0.5033466219902039, -0.3468780517578125, 0.45021486282348633, 0.4326871335506439, -0.34888532757759094, 0.5173031687736511, 0.0446283183991909, 0.30982521176338196, 0.15864714980125427, 0.7253270149230957, -0.4840623140335083, -0.7470830082893372, -0.3830351233482361, -0.27176371216773987, -0.47634539008140564, -1.1973670721054077, 0.14891572296619415, -0.03422253206372261], [-0.20905739068984985, 0.5541596412658691, -0.47949516773223877, 0.644482433795929, -0.1233857274055481, 0.14707191288471222, 0.5206969976425171, 0.7978118062019348, -0.597904622554779, -0.3673819601535797, 0.0841996818780899, -0.5435963273048401, 0.026096278801560402, -0.7047219276428223, 0.2505418658256531, -0.7020238041877747, -0.10999177396297455, 0.5749974846839905, -1.3872753381729126, -0.11523661017417908, -0.09949570149183273, 0.25462064146995544, -0.1905529797077179, -0.29217779636383057, -0.22925126552581787, 0.4035942852497101, -0.11139225214719772, 0.18945828080177307, 0.282403826713562, 0.0011101017007604241, -0.1304229348897934, 0.5958982110023499, 0.2571653723716736, -0.9034334421157837, -0.5942086577415466, -0.03843769058585167, 0.37416958808898926, -0.6521854996681213, 0.1706387996673584, -0.441349595785141, 0.5486045479774475, 0.9406043887138367, -0.5326395034790039, 0.761563241481781, -0.18617384135723114, 0.32918229699134827, -0.6274327635765076, -0.2519318759441376, 0.28010401129722595, 0.40420234203338623], [0.4563354253768921, 0.23701892793178558, -0.43273892998695374, -0.2065390646457672, 0.6236484050750732, -0.11459966748952866, 0.2412128448486328, 0.46496695280075073, -0.050203338265419006, 0.07958154380321503, 0.09147201478481293, 0.13804198801517487, -0.407591313123703, -1.080696940422058, 0.36158573627471924, 0.0615597665309906, 0.0017452467000111938, 0.30601105093955994, -0.029435599222779274, 0.1456078141927719, 0.0983903780579567, 0.5753726363182068, 0.21359576284885406, -0.18539269268512726, 0.41270849108695984, 0.005075960885733366, 0.06908024102449417, -0.05954732745885849, 0.7009412050247192, -0.6432451605796814, -0.19537635147571564, 1.0212336778640747, 0.0271777156740427, 0.3884454667568207, 0.15017926692962646, -0.8445431590080261, 0.4151245653629303, 0.18147185444831848, 0.34867003560066223, 0.42295041680336, 0.5628452897071838, 0.58824622631073, 0.5847722291946411, -0.9747335314750671, 0.11826418340206146, -0.9804909825325012, 0.42037758231163025, -1.2106636762619019, 0.22668235003948212, -0.7611177563667297], [-0.5235210657119751, -0.07667387276887894, 0.349336177110672, 0.06790380924940109, -0.326412171125412, -0.5360267758369446, 0.05646354705095291, 0.2605140507221222, -0.19129584729671478, 0.29369229078292847, -0.026719558984041214, 0.14509212970733643, -0.04854673147201538, -0.02087418921291828, 0.3226764500141144, 0.0749998539686203, -0.32363617420196533, -0.5692989230155945, -0.06986469775438309, 0.3224584758281708, -1.1075116395950317, -0.5848139524459839, -0.03932247310876846, 0.15788120031356812, 0.33044156432151794, -0.6052238941192627, 0.5407544374465942, 0.5271449685096741, -0.44266757369041443, -0.02284282259643078, -0.09454267472028732, 0.3825847804546356, 0.3732147216796875, 0.5651236772537231, 0.12907089293003082, -0.7533866167068481, 0.810195803642273, -0.3875497281551361, -0.529427170753479, 0.6864428520202637, 0.3537912964820862, -0.3827802240848541, 0.06112990528345108, -0.8339839577674866, 0.01991897076368332, 0.1474943310022354, 0.37815061211586, -1.215132474899292, -0.2978595197200775, 0.6603456139564514], [-0.16830581426620483, -0.3631800413131714, 0.3634560704231262, 0.5977383255958557, 0.5041970014572144, -0.37536105513572693, -0.5502671599388123, -0.6771073341369629, -0.6149464845657349, -0.10485199093818665, 0.012381131760776043, -0.05650995671749115, -0.2369868904352188, -0.8585505485534668, 0.8588104844093323, 0.19230012595653534, -0.09285789728164673, -0.2941087782382965, -0.6592931151390076, -0.6083528399467468, -0.12988363206386566, -0.6723576784133911, 0.18202272057533264, -0.16250035166740417, 0.4362916052341461, 0.7152394652366638, -0.3243297040462494, -0.13833366334438324, -0.3066456615924835, 0.2774447202682495, 0.8441431522369385, 0.32590165734291077, -0.7748663425445557, -0.3492567241191864, -0.27065810561180115, 0.5428163409233093, -1.0889065265655518, -0.1745488941669464, -1.0804892778396606, 0.4609244167804718, -0.3422083854675293, -0.39480870962142944, 0.14599323272705078, 0.498422235250473, 0.6571704149246216, -0.012152225710451603, 0.797005832195282, 0.2164127379655838, 0.27159351110458374, -0.11331519484519958], [0.5156923532485962, -0.03837551549077034, 0.5020773410797119, 0.2892162501811981, 0.4564163088798523, -0.22510136663913727, 0.5881189107894897, -0.16747672855854034, -0.6350299715995789, -0.5660514831542969, -0.1181170716881752, -0.19003291428089142, -0.06224828213453293, -0.5992637276649475, 0.1184166893362999, 0.14777342975139618, 0.44112536311149597, 0.15958651900291443, -0.5193946957588196, -0.04342915117740631, -0.44865670800209045, 0.6003756523132324, -0.6882396936416626, 0.0005733937723562121, 0.10212787240743637, 0.7785566449165344, -0.019437141716480255, 0.37681668996810913, -0.07619128376245499, 0.18383866548538208, 0.4750220775604248, -0.2987203598022461, -0.20955057442188263, -0.13926339149475098, -0.17292778193950653, 0.28891250491142273, 0.2180781066417694, 0.048580437898635864, 0.025370057672262192, -0.6900561451911926, 0.5127891302108765, -0.33321523666381836, 0.42409446835517883, -0.39489465951919556, -0.44495272636413574, -0.31502342224121094, -0.9920681715011597, -0.45493945479393005, 0.23679614067077637, -0.36125510931015015], [-0.26376667618751526, 0.6172380447387695, -0.14997588098049164, -0.5958561301231384, -0.26250317692756653, -0.2576935291290283, -0.14157266914844513, -0.09340807050466537, -0.28702783584594727, -0.6760314702987671, -0.051302507519721985, -0.332042396068573, -0.09985596686601639, -1.1218690872192383, -1.0627741813659668, 0.22959403693675995, -0.620664119720459, -0.6278133988380432, -0.34901535511016846, -0.33261483907699585, -0.17848257720470428, 0.21551445126533508, -0.19255705177783966, -0.2804236114025116, 0.11175689101219177, -0.11209753155708313, -0.7417218685150146, 0.3711489140987396, -0.04932303726673126, -0.603044867515564, 0.4750678837299347, 0.3474051058292389, -0.5836432576179504, -0.602763295173645, 0.32924166321754456, -0.2780306041240692, -0.4722893536090851, -0.4236624240875244, 0.0009399009286426008, 0.18382275104522705, -0.6908740997314453, -0.7835304141044617, 0.24591320753097534, -0.7906486392021179, -0.5547488927841187, -0.297716349363327, -0.05808424577116966, -0.48512712121009827, 0.12669217586517334, 0.8220528364181519], [0.38521745800971985, 0.7558985948562622, -0.3683203458786011, -0.4864438772201538, 0.3407409191131592, 0.04444192349910736, 0.11567302793264389, 0.02737259492278099, 0.7505791783332825, 0.24450720846652985, -0.08015737682580948, -0.6890243887901306, -0.5802255868911743, -0.505662739276886, -0.11110737174749374, -0.3383588492870331, -0.4014854431152344, 0.30383774638175964, 0.9756232500076294, -1.13455069065094, 0.22831594944000244, -0.5507941246032715, -1.5302006006240845, -0.6951982378959656, 0.32224440574645996, -0.4422648549079895, -0.1183759793639183, -0.7154990434646606, 0.08542104810476303, -1.0470759868621826, 0.5728386044502258, -0.17270025610923767, 0.16315858066082, 0.6437410116195679, -0.12108932435512543, 0.31591448187828064, -0.7269788980484009, 0.0521288625895977, 0.2722838521003723, 0.7256039977073669, -0.6726365685462952, 0.03447825834155083, 0.5676804184913635, -0.3013306260108948, 0.023216139525175095, -0.3856080174446106, -0.4849197268486023, 0.1713792085647583, 0.29446351528167725, 0.4273909330368042], [0.050484661012887955, -0.8496853113174438, -0.2425948679447174, -0.06139837205410004, -0.6291205286979675, -0.5584114193916321, 0.060358524322509766, 0.02190917171537876, -0.10548195242881775, -0.3159399628639221, -0.04703814163804054, 0.0285414457321167, 0.5920348763465881, -1.5222758054733276, -0.7593411803245544, -0.2566065788269043, 0.058800362050533295, -0.4126761853694916, 0.22535642981529236, -0.3222483694553375, -0.679373025894165, 0.4286358654499054, -0.007339067757129669, 0.24007569253444672, 0.5267056822776794, -0.18130697309970856, 0.4931553900241852, -0.4805418848991394, 0.3642083406448364, -0.9661175012588501, 0.08721128851175308, 0.11822608858346939, 0.6063286662101746, -0.3053223788738251, -0.20543651282787323, -0.27860888838768005, -0.8088405728340149, -0.19048340618610382, 0.3871728777885437, 0.1952887773513794, -0.9304629564285278, -0.577319860458374, 0.5195311903953552, -0.7302299737930298, -0.6402295827865601, 0.24999859929084778, -1.2310588359832764, 0.6874414682388306, -0.08404794335365295, -0.5584738254547119], [-0.2909858226776123, -0.5954003930091858, 0.12829627096652985, 0.29948583245277405, -0.5175929069519043, 0.5778900384902954, -0.542262613773346, -0.3043091893196106, -0.6321984529495239, 0.03228652849793434, 0.034678876399993896, -0.6823233366012573, -0.7866004705429077, 0.11672163009643555, -0.1357892006635666, 0.09417244791984558, 0.10623236745595932, 1.0007333755493164, 0.09161771833896637, -0.15802891552448273, -0.2038380205631256, 0.09955736249685287, 0.02969382517039776, 0.523901641368866, 0.4889761805534363, -0.4199865758419037, -1.0351805686950684, -0.22379422187805176, -0.05291102081537247, -0.5823805928230286, -0.9411936402320862, 0.9181674122810364, 0.1998523473739624, -0.03288707882165909, 0.3859274685382843, -0.03787439316511154, 0.9284276962280273, 0.20111598074436188, -0.0464102141559124, 0.48636120557785034, 0.5171523094177246, 0.3904469311237335, 0.8430492281913757, -0.6779347062110901, -0.3821828365325928, -0.45030921697616577, 0.2623308002948761, -1.9458342790603638, 0.468360036611557, 0.8680319786071777], [0.6327104568481445, 1.0302996635437012, -0.09922786056995392, 0.1543976068496704, -0.266083300113678, -0.5358743071556091, -0.07066676020622253, 0.7391548752784729, 0.1268911361694336, -0.7804245352745056, 0.10611197352409363, -1.1313285827636719, 0.8962209820747375, -0.5586312413215637, 0.09792406111955643, -0.9485728144645691, -0.3751729726791382, -0.030888117849826813, -0.0923287570476532, 0.5714293718338013, 0.882140576839447, 0.16274426877498627, -0.0400003157556057, -0.8741497993469238, -0.462604284286499, -0.8120006322860718, -0.06648217886686325, -0.7386419773101807, -0.04851491004228592, 0.08594207465648651, 0.720292329788208, -0.19455976784229279, -0.16176153719425201, -0.5169572830200195, -0.4692939221858978, 0.18592430651187897, -0.027594760060310364, 0.468874990940094, -0.11336959153413773, -1.444832682609558, -1.0469226837158203, 1.0974435806274414, -0.045822687447071075, -0.46514105796813965, 0.5992659330368042, 0.12606178224086761, -0.2728993594646454, 0.2648836672306061, -0.7265979647636414, 0.07650937139987946], [0.19935692846775055, -0.1788119375705719, 0.9239159822463989, -0.09871100634336472, -0.2389923632144928, 0.12319066375494003, 0.8311038613319397, -0.23043327033519745, 0.03221673145890236, 0.8076750040054321, 0.030285507440567017, 0.4235972464084625, -0.7363078594207764, 0.4497229754924774, 0.27499210834503174, 0.1337636113166809, 0.4202452003955841, 0.3096000552177429, -0.160644069314003, 0.2538714110851288, -0.7303122282028198, 0.12360092252492905, 0.04615063592791557, -0.0634838417172432, 0.996945321559906, -0.7939214706420898, 0.4469733238220215, -0.5371884703636169, 0.3208562731742859, -0.6654725670814514, 0.8682802319526672, -0.10067018866539001, -0.7200280427932739, -0.5494580864906311, -0.39439284801483154, -0.6412901282310486, 0.5474460124969482, -0.5966646075248718, 0.12460803240537643, -1.2390053272247314, -0.03691525012254715, -0.11342289298772812, 0.8732280731201172, -0.21541836857795715, -0.5327488780021667, -0.011380933225154877, -0.11825260519981384, -0.8608279228210449, -0.6799831986427307, 0.11455197632312775], [0.0728769451379776, -0.9907650947570801, 0.14442801475524902, 0.06883587688207626, 0.3432256877422333, 0.13342060148715973, -1.0244007110595703, 0.8479210138320923, 0.6675622463226318, 0.24683824181556702, 0.07146152853965759, -0.7743517756462097, -0.1418856680393219, 0.25257548689842224, -0.9703981876373291, 0.6983975172042847, -0.4169762432575226, -0.16812576353549957, 0.5348197817802429, 0.3494105339050293, -0.4502025246620178, -0.8843538165092468, -0.20514395833015442, 0.3254580497741699, -0.3125842809677124, 0.6638078093528748, -0.5503117442131042, 0.21252715587615967, -0.2801506817340851, -0.24790926277637482, -0.2622341215610504, -0.10446817427873611, -0.35048919916152954, 0.4909731149673462, 0.1406274139881134, -0.316476047039032, -0.6933210492134094, 0.5210026502609253, -0.12893639504909515, -0.7149803042411804, -0.5236801505088806, 0.5454466342926025, 0.4060313403606415, -0.6537975072860718, 0.18885920941829681, 0.12905572354793549, -0.5966334342956543, 0.00906803086400032, 0.6616464257240295, 0.006010544486343861], [-0.0585893914103508, -0.39911794662475586, -0.6049620509147644, -0.4923534691333771, 0.4040664732456207, -0.6430683135986328, -0.4108177125453949, 0.540995180606842, 0.09487073123455048, -0.37392690777778625, 0.002945416374132037, 0.10908100754022598, 0.0705772116780281, -0.37141284346580505, 0.0906117781996727, 0.003080179914832115, -0.35672134160995483, -0.48445576429367065, -1.4358665943145752, 0.05206525698304176, 0.3065408170223236, -0.8622924089431763, -0.8361499905586243, -0.46161043643951416, -0.4142823815345764, 0.0684685930609703, -0.5749943852424622, 0.43034815788269043, -0.5048011541366577, 0.5628028512001038, -0.23553313314914703, -0.3288545608520508, -0.12769590318202972, 0.11501390486955643, 0.04089856892824173, -0.7222234606742859, -0.22482222318649292, 0.132237508893013, 0.5784555673599243, -0.3596251606941223, -0.419107586145401, -0.675961971282959, -0.30169838666915894, -0.6361260414123535, 0.046471722424030304, -0.21713194251060486, 0.04445156082510948, -0.07578121870756149, 0.6227341890335083, 0.11787024885416031], [-0.4387080669403076, 0.25519806146621704, 0.45628565549850464, -0.2167939692735672, -0.29918909072875977, -0.5401893854141235, -0.10885820537805557, 0.18586112558841705, 0.2703876793384552, 0.4189198613166809, 0.11287284642457962, 0.06819978356361389, -0.20870940387248993, -0.4661657214164734, -0.010135608725249767, -0.11008211970329285, 0.23201501369476318, 0.46503353118896484, 0.4560171365737915, -0.5191893577575684, -0.6251571774482727, -0.23231016099452972, -0.8038330674171448, 0.6953579783439636, -0.46528324484825134, -0.9006767272949219, 0.4457678198814392, -0.052813299000263214, 0.15555299818515778, -0.2799535095691681, -0.446995347738266, 0.17709241807460785, -0.0805390477180481, -0.7442976236343384, -0.1220816895365715, 0.1090056449174881, -0.2093510627746582, -0.3462769091129303, -0.2335604429244995, 0.8062222003936768, -0.43204158544540405, -0.5987747311592102, 0.9522555470466614, 0.1605720818042755, 0.21689121425151825, 0.9658193588256836, -0.7672391533851624, 0.6316255331039429, 0.24800260365009308, 0.5279483795166016], [-0.8253147006034851, 0.5300055146217346, -0.1299087256193161, 0.432282418012619, 0.00603244686499238, -1.0557066202163696, 0.26261720061302185, 0.44202131032943726, 0.4610501527786255, 0.7425438761711121, -0.09660127758979797, 0.3911876976490021, -0.553431510925293, 0.23766639828681946, -0.028770439326763153, 0.9217191934585571, -0.30234295129776, -0.2565239369869232, 0.263632595539093, -0.5921620726585388, 0.2675175666809082, 0.09273502230644226, 0.07519181817770004, -0.8389435410499573, 0.6165536642074585, 0.025426698848605156, -0.14054419100284576, -0.10364969819784164, -0.1898920238018036, -0.24790535867214203, -0.8913520574569702, 0.5466331243515015, 0.21113362908363342, -0.42488715052604675, -1.061043381690979, -0.39670488238334656, 0.8417195081710815, 0.26522576808929443, -0.47791317105293274, 0.20950086414813995, 0.32627996802330017, -0.2333366721868515, 0.32817572355270386, 0.3632897436618805, 0.8275373578071594, -0.02994874119758606, 0.30519258975982666, -0.7273517847061157, 0.48688018321990967, -0.1042383536696434], [-0.6191080212593079, 0.13547036051750183, 0.08720678836107254, 0.0701957494020462, -0.19047380983829498, -0.24561616778373718, 0.17675185203552246, 0.7385836243629456, -0.17383140325546265, -0.8305426836013794, -0.10187891870737076, 0.3588177263736725, 0.6016181111335754, 0.45029404759407043, -1.0467666387557983, -0.2622930407524109, 0.06517159938812256, 0.4841291606426239, 0.0762510895729065, -0.3740043044090271, -0.8766114711761475, -0.2806940972805023, 0.17726033926010132, 0.3060242533683777, 0.29831188917160034, -0.4119645059108734, -0.290881872177124, -0.430051326751709, 0.9505839347839355, -0.6872152090072632, 0.01687031425535679, -0.3214109241962433, -0.6455418467521667, 0.03621768578886986, 0.3651778995990753, 0.20419691503047943, 0.3975566029548645, 0.022947441786527634, -0.24625839293003082, 0.4320090711116791, -0.18545418977737427, -1.3049126863479614, -0.5154517889022827, -0.10897083580493927, -0.6474630236625671, 0.19953076541423798, -0.3622252345085144, -0.1781909465789795, 0.5356881618499756, -0.2826122045516968], [-0.014678407460451126, -0.8620907664299011, 0.33882948756217957, 0.447286456823349, 0.0875091478228569, 0.056185491383075714, -0.5971475839614868, -0.11972513794898987, -0.8029367923736572, 0.23853226006031036, 0.018808932974934578, 0.026183603331446648, -0.07915174216032028, 0.4866160750389099, 0.36441805958747864, -0.17780821025371552, 0.2402423769235611, 0.333980917930603, -0.0007053912268020213, 0.2780725955963135, -0.564330518245697, -0.2899738848209381, 0.09225523471832275, -0.3228037357330322, 0.5221436619758606, 0.02040843851864338, 0.7360397577285767, 0.4366159439086914, 0.013779285363852978, -0.911173939704895, -0.503629207611084, 0.03673001006245613, -0.5866088271141052, 0.427351176738739, -0.16455815732479095, -0.6890162825584412, 0.8544900417327881, -0.052519846707582474, -0.8208790421485901, -0.12221270054578781, -0.45152339339256287, -0.2719920873641968, -0.6718493700027466, -0.43761467933654785, 0.9938322305679321, -0.8226661086082458, -0.24794834852218628, -0.2931838035583496, -0.01579197309911251, 0.3814683258533478], [-0.4748421907424927, 0.20510725677013397, -0.8835945129394531, -0.2838066518306732, -1.081149935722351, 0.39565205574035645, 0.18511785566806793, 0.1351848691701889, -0.038523513823747635, -0.4032493829727173, 0.11057838797569275, -0.5477187037467957, 1.618424415588379, 0.2685016393661499, 0.10545775294303894, 0.010978005826473236, 0.21722882986068726, 0.5422276854515076, -0.4335666298866272, 0.3450060486793518, -0.48810550570487976, -0.17725130915641785, 0.4139336049556732, 0.7777522206306458, -0.10280897468328476, 0.1151788979768753, -0.02260812744498253, -0.030892200767993927, 0.007497922983020544, -0.8756568431854248, 0.38056835532188416, 0.3906231224536896, -0.5261062383651733, -0.23024924099445343, -0.121829554438591, -0.31417104601860046, -0.7269941568374634, 0.3931685984134674, -0.17910906672477722, 0.9158853888511658, -0.3386102020740509, -0.4261403977870941, 0.7729833722114563, -1.293445348739624, -0.3719656467437744, 0.7675556540489197, -0.42984944581985474, -1.1686956882476807, 0.4688449800014496, 0.7643997669219971], [0.22121575474739075, -0.35484832525253296, -0.04534001275897026, -0.13252831995487213, -0.24091899394989014, -0.4804908037185669, 0.6065199971199036, 