{"model": "node_mlp_pca_fair_k4", "layers": [{"type": "lin", "act": "relu", "W": [[0.06744609773159027, 0.08036766201257706, 0.19326438009738922, -0.12153755873441696, -0.08118445426225662, 0.10656464099884033, 0.13546043634414673, -0.2115626037120819, 0.09795602411031723, -0.06652593612670898, 0.09046734869480133, -0.008664962835609913, -0.031974535435438156, -0.15159262716770172, -0.1534973680973053, 0.059554122388362885, 0.08931988477706909, 0.005533359944820404, -0.0746411457657814, -0.2114778459072113, -0.18522945046424866, -0.08915252983570099, -0.23453663289546967, -0.007562612649053335, 0.007151866797357798, -0.19849127531051636, -0.0809059664607048, 0.031433865427970886, 0.131572425365448, 0.0645335242152214, -0.1681050956249237, -0.03187441825866699], [-0.24516823887825012, -0.08867039531469345, 0.004944995045661926, 0.2120063751935959, -0.06532957404851913, 0.15189939737319946, -0.2537846863269806, 0.013932364992797375, 0.15424619615077972, 0.1562347710132599, 0.06154833361506462, -0.08146349340677261, 0.09364425390958786, 0.19131934642791748, -0.06479467451572418, 0.18614982068538666, -0.03682622313499451, -0.01615706831216812, 0.08362223207950592, 0.1456322818994522, 0.08411575108766556, 0.2611461877822876, 0.043463289737701416, -0.04515742510557175, -0.061981942504644394, -0.08364304155111313, -0.09283673018217087, -0.022996604442596436, 0.03829117864370346, -0.04115143418312073, -0.1006242036819458, -0.1087646484375], [-0.04472505673766136, -0.21750091016292572, -0.003864025231450796, 0.18159571290016174, -0.04555264115333557, -0.05445568636059761, 0.12023840099573135, 0.10282785445451736, -0.014148094691336155, -0.2050958126783371, -0.11729411035776138, -0.12216682732105255, -0.19103467464447021, -0.005792314186692238, -0.12989595532417297, 0.07664477825164795, 0.009906956925988197, -0.16124758124351501, 0.020365113392472267, -0.14086900651454926, 0.011393759399652481, 0.12593066692352295, -0.12440288811922073, -0.11214800924062729, 0.12695445120334625, 0.18022829294204712, -0.0891605019569397, 0.1074896827340126, -0.2123376876115799, 0.049341000616550446, -0.0673600286245346, 0.08411989361047745], [0.26121219992637634, 0.009312446229159832, -0.11447477340698242, 0.1577008068561554, -0.09302589297294617, 0.07709750533103943, -0.0825875923037529, -0.2286912500858307, -0.20327050983905792, 0.15411531925201416, -0.014658262021839619, -0.07971549779176712, -0.13309192657470703, -0.14107908308506012, 0.11306313425302505, -0.024106642231345177, -0.1512680947780609, -0.08165088295936584, 0.049576517194509506, -0.11817590147256851, 0.07946966588497162, 0.09806492924690247, 0.2241322100162506, 0.07330112159252167, 0.04330303519964218, 0.12150651961565018, -0.09505657106637955, 0.07457921653985977, 0.06842172890901566, -0.11375608295202255, -0.04469292610883713, 0.10547565668821335], [-0.16973468661308289, -0.08697934448719025, -0.06398043781518936, 0.12342022359371185, -0.043990638107061386, -0.07089979946613312, -0.01987171545624733, 0.08847618848085403, 0.04502131789922714, -0.03499353304505348, -0.01857803389430046, -0.1949726790189743, -0.1389854997396469, 0.07815520465373993, 0.016629725694656372, 0.0687817633152008, -0.059346672147512436, -0.19184596836566925, 0.04308118298649788, 0.21937447786331177, 0.004649516195058823, -0.10050484538078308, 0.015151873230934143, -0.0065642972476780415, 0.14726141095161438, -0.03187013790011406, 0.15719319880008698, -0.035705965012311935, -0.01724546030163765, -0.13035909831523895, 0.08493661880493164, -0.12807822227478027], [-0.007047498598694801, -0.19701771438121796, -0.20163005590438843, 0.03572789952158928, -0.02230943739414215, 0.21158644556999207, 0.1311282515525818, 0.009580757468938828, -0.008821042254567146, 0.1773088425397873, 0.06340856105089188, 0.2033366709947586, -0.006796922069042921, -0.09570334851741791, -0.12819258868694305, 0.10872509330511093, 0.061974573880434036, 0.15664182603359222, -0.13910146057605743, 0.1665174514055252, 0.10883845388889313, 0.1685798615217209, -0.021305838599801064, 0.0046255760826170444, 0.08497826009988785, 0.03249967098236084, 0.036627545952796936, 0.11824943870306015, 0.01181515771895647, -0.05901345983147621, 0.07408519089221954, 0.05507558584213257], [0.06598469614982605, 0.047754500061273575, 0.10618188977241516, -0.0031647926662117243, -0.11532773822546005, -0.00461222417652607, 0.23114120960235596, 0.020202511921525, -0.018887976184487343, 0.05830240622162819, -0.09426574409008026, -0.17697928845882416, 0.15483738481998444, -0.11787094175815582, -0.22076334059238434, -0.13712070882320404, 0.01467832550406456, 0.1532314121723175, -0.23221684992313385, 0.07677430659532547, -0.09191418439149857, 0.05312148854136467, -0.08427385985851288, -0.2294308990240097, -0.07066593319177628, 0.15574651956558228, -0.1498105674982071, 0.21208244562149048, -0.0462464764714241, 0.17017029225826263, -0.21116864681243896, 0.033645741641521454], [-0.10002664476633072, -0.14177320897579193, -0.052810411900281906, -0.022929318249225616, -0.07260867208242416, -0.14295148849487305, 0.09382755309343338, -0.11234446614980698, 0.058990947902202606, 0.1306895911693573, 0.202179417014122, 0.23409371078014374, 0.0678694024682045, 0.04830840975046158, 0.10184657573699951, 0.19325657188892365, -0.03275979682803154, -0.005654676351696253, -0.03355294093489647, -0.1383441835641861, -0.13021612167358398, 0.19375371932983398, -0.16717161238193512, -0.018044332042336464, -0.09742794930934906, 0.10250530391931534, 0.06988538801670074, 0.251730352640152, -0.0797223299741745, -0.08279930800199509, -0.10309592634439468, -0.16369853913784027], [-0.15972104668617249, -0.1043894961476326, -0.08402866125106812, -0.15110839903354645, -0.057425275444984436, -0.1880931258201599, 0.10256177932024002, -0.17610293626785278, 0.1460185945034027, -0.1057170182466507, 0.23898689448833466, 0.12723408639431, -0.1812478005886078, 0.2357417494058609, 0.019039785489439964, -0.18622605502605438, -0.11918126046657562, 0.04046594351530075, 0.20282410085201263, -0.06778779625892639, -0.06456846743822098, -0.08711957186460495, 0.031815286725759506, -0.049174223095178604, -0.1552119255065918, -0.0626860186457634, -0.05039308965206146, 0.12871189415454865, 0.10514466464519501, 0.22484387457370758, 0.20284132659435272, 0.07265837490558624], [-0.15959995985031128, -0.09569653868675232, 0.026660151779651642, -0.15712428092956543, 0.007556635420769453, -0.10967078804969788, -0.1876232624053955, -0.0686277374625206, -0.08811793476343155, -0.17799505591392517, 0.09051934629678726, -0.005835465155541897, 0.1415654569864273, 0.018692124634981155, -0.12785573303699493, 0.028457362204790115, 0.08918193727731705, 0.04068521782755852, 0.11543735861778259, -0.16679850220680237, -0.006999226752668619, -0.07359465211629868, -0.10328134894371033, 0.07188645750284195, -0.19563139975070953, 0.00846518948674202, -0.05141545832157135, 0.07272053509950638, -0.021244056522846222, 0.21570684015750885, -0.058128755539655685, 0.08594562113285065], [0.010357053019106388, 0.13997283577919006, 0.19566363096237183, 0.10090726613998413, -0.0937686562538147, -0.08474207669496536, 0.18193411827087402, 0.1621854603290558, -0.11557066440582275, 0.04087001085281372, -0.07066909223794937, -0.2059912532567978, 0.17838741838932037, -0.14343929290771484, 0.050940677523612976, -0.07267482578754425, -0.007362235803157091, 0.1217135563492775, -0.106062151491642, 0.010929821990430355, 0.12485905736684799, -0.09728256613016129, -0.15541864931583405, -0.059329092502593994, 0.14840063452720642, -0.0682281032204628, 0.08333124220371246, -0.08564914762973785, -0.01347048208117485, -0.05430982634425163, 0.23059453070163727, -0.009636703878641129], [-0.21015334129333496, -0.149974063038826, 0.19687619805335999, 0.22175705432891846, -0.04887039214372635, 0.19323499500751495, -0.058036331087350845, -0.15205354988574982, 0.21848203241825104, 0.24024973809719086, -0.13708604872226715, 0.06704828143119812, -0.10338334739208221, 0.09445340931415558, 0.18735936284065247, -0.021383995190262794, -0.21025274693965912, 0.07119578123092651, -0.057801876217126846, 0.09389695525169373, 0.03982393816113472, 0.08650967478752136, -0.004625775385648012, 0.019047444686293602, -0.0039035205263644457, 0.03662002831697464, -0.18409471213817596, -0.14200450479984283, 0.043505508452653885, 0.10617925971746445, 0.050336096435785294, 0.05728626996278763], [-0.16984911262989044, -0.13260836899280548, 0.09424076229333878, -0.08119747787714005, -0.23048163950443268, 0.06653349101543427, -0.03312264382839203, 0.07851419597864151, 0.10428962856531143, -0.12106361240148544, 0.13210013508796692, 0.02763914130628109, -0.07491779327392578, -0.17238721251487732, -0.24927417933940887, 0.07415967434644699, 0.08693251758813858, -0.15904295444488525, -0.08750446885824203, -0.11089023947715759, 0.039965350180864334, -0.006796044297516346, -0.14526523649692535, -0.0819423720240593, 0.05721333250403404, 0.21839773654937744, -0.025126522406935692, 0.12201763689517975, -0.2497645616531372, 0.09385592490434647, -0.11749094724655151, -0.045490071177482605], [0.12102688103914261, 0.20641005039215088, -0.007608819752931595, 0.0676104798913002, 0.17718751728534698, -0.16002021729946136, -0.1911819875240326, 0.20014865696430206, -0.056583333760499954, 0.11486267298460007, -0.03173905238509178, -0.20254947245121002, -0.22118596732616425, -0.15500283241271973, 0.08356112986803055, 0.17310282588005066, -0.09600476920604706, 0.1615036278963089, 0.12987744808197021, -0.24636775255203247, -0.008609357289969921, 0.23530934751033783, 0.05324142053723335, -0.13775894045829773, 0.000692676636390388, -0.11323761940002441, -0.20166291296482086, 0.020947076380252838, -0.015918198972940445, 0.21920965611934662, 0.09772343188524246, -0.17495737969875336], [0.020441928878426552, -0.2086237668991089, -0.14036856591701508, -0.040183354169130325, -0.07220352441072464, 0.04935852065682411, 0.04905437305569649, -0.0805707573890686, 0.15674246847629547, -0.0625918060541153, 0.07406946271657944, -0.15322166681289673, -0.15009650588035583, 0.2395976483821869, -0.08254446089267731, -0.17431524395942688, -0.0997849702835083, -0.23847131431102753, 0.19436971843242645, 0.21446429193019867, -0.15202681720256805, 0.11556001007556915, -0.020862426608800888, -0.195570170879364, -0.24499882757663727, 0.23157213628292084, 0.11637963354587555, 0.07947583496570587, -0.05351735278964043, 0.12068025767803192, 0.15476763248443604, -0.06574518233537674], [0.1219300925731659, -0.06124773621559143, 0.029781414195895195, 0.05166896432638168, 0.06513065844774246, -0.11310919374227524, -0.19717423617839813, 0.18239426612854004, -0.01599273271858692, -0.1271713227033615, 0.1812015175819397, 0.16590328514575958, -0.1915530264377594, -0.03895822912454605, 0.12449794262647629, 0.13802491128444672, 0.03152234107255936, 0.006208328530192375, 0.07906658947467804, -0.08206620067358017, -0.09904477000236511, 0.2392224222421646, -0.11074481159448624, -0.1069837287068367, -0.12376327067613602, -0.13067017495632172, 0.1204134076833725, 0.0015737724024802446, -0.10604853183031082, -0.06279593706130981, 0.07661216706037521, -0.08617696166038513], [-0.24143528938293457, -0.0492948554456234, 0.14658288657665253, -0.13851460814476013, -0.15975700318813324, 0.06483621895313263, -0.09892071038484573, 0.00013907693210057914, 0.18444231152534485, -0.023297801613807678, 0.07541947811841965, 0.13306255638599396, 0.008433395065367222, -0.036616504192352295, -0.12835600972175598, -0.13264800608158112, -0.15768830478191376, 0.1287454217672348, 0.16158923506736755, -0.1945938616991043, -0.11291617900133133, -0.01514358352869749, -0.028311748057603836, 0.13394476473331451, 0.10592445731163025, 0.11437726020812988, 0.11260746419429779, 0.18479502201080322, 0.18559245765209198, 0.24030238389968872, 0.07909350842237473, -0.055560387670993805], [0.1599874198436737, 0.19729174673557281, -0.12175755947828293, 0.12761659920215607, -0.004756403621286154, -0.19277359545230865, 0.02894621528685093, 0.06608017534017563, -0.10944609344005585, 0.0135920699685812, -0.17431941628456116, 0.10540035367012024, -0.10681597888469696, 0.05249117687344551, 0.15290015935897827, 0.09918294101953506, -0.09562674909830093, 0.017795005813241005, -0.10373566299676895, 0.20317214727401733, -0.10578883439302444, -0.19230759143829346, -0.0928756594657898, 0.119859479367733, 0.15186050534248352, 0.1632297784090042, 0.14897984266281128, 0.030168073251843452, -0.1534133404493332, 0.19985337555408478, -0.12983056902885437, 0.04501429200172424], [-0.07223524898290634, -0.04480477422475815, 0.04256265237927437, 0.1453831046819687, -0.06277308613061905, 0.2694646716117859, -0.1624833047389984, -0.17482489347457886, 0.06084839627146721, 0.08453758805990219, -0.20641084015369415, 0.26472485065460205, -0.03719574958086014, 0.1300646811723709, 0.15527133643627167, -0.21508179605007172, 0.1888347566127777, 0.09921147674322128, -0.02323496714234352, 0.1138961911201477, 0.19204097986221313, -0.102133609354496, -0.14215582609176636, 0.1318325251340866, -0.1936177909374237, 0.02873368002474308, 0.0098425867035985, -0.1333659440279007, 0.07272424548864365, -0.1342814564704895, -0.21982577443122864, -0.1415751725435257], [-0.07931363582611084, 0.15452943742275238, 0.0762414038181305, 0.25852179527282715, 0.24623766541481018, -0.16741307079792023, -0.03163997828960419, 0.06448501348495483, -0.18565967679023743, 0.012132029980421066, 0.06051433086395264, -0.09974350035190582, 0.020988527685403824, 0.04791129752993584, 0.11721242219209671, -0.05234606936573982, -0.22413983941078186, 0.15372027456760406, 0.07013198733329773, -0.25550076365470886, 0.09035226702690125, 0.07873255759477615, 0.007009217049926519, 0.1426127552986145, -0.06913634389638901, -0.021455468609929085, 0.05735154449939728, -0.12486128509044647, -0.09522689133882523, -0.12014913558959961, -0.01677889935672283, 0.06166750565171242], [-0.06267209351062775, 0.0023023360408842564, -0.18775822222232819, 0.23106475174427032, 0.13533027470111847, -0.13702140748500824, 0.2315618395805359, 0.04881064593791962, -0.138978511095047, -0.1592596471309662, 0.23094531893730164, -0.16279132664203644, 0.02359752729535103, 0.17667418718338013, -0.020717376843094826, -0.004088349174708128, 0.050846174359321594, -0.06382706016302109, -0.07749621570110321, -0.1765875518321991, 0.1662486493587494, -0.053855035454034805, 0.19211749732494354, -0.22967368364334106, -0.12953734397888184, 0.2029164582490921, -0.17562982439994812, -0.21127179265022278, -0.06807384639978409, -0.10679971426725388, -0.19300714135169983, -0.09471239149570465], [0.18447814881801605, 0.1040380448102951, -0.0022367623168975115, 0.038749996572732925, 0.03559691086411476, -0.06946323066949844, -0.05406111106276512, 0.16279570758342743, 0.030832430347800255, -0.16177241504192352, -0.06491269171237946, 0.0924065038561821, 0.10382133722305298, -0.10807090252637863, 0.22307239472866058, 0.07322568446397781, -0.12788128852844238, 0.06088167056441307, -0.18026100099086761, 0.033123258501291275, 0.10950570553541183, 0.03851325809955597, 0.04727728292346001, -0.02703411504626274, -0.011881038546562195, 0.01074758917093277, 0.20514695346355438, -0.008660735562443733, -0.14761996269226074, -0.12929987907409668, -0.03986970707774162, -0.186876580119133], [0.23429928719997406, 0.09187743067741394, 0.21447373926639557, -0.06041592359542847, 0.04736669361591339, -0.02086198702454567, 0.20962409675121307, 0.006078136153519154, 0.0683823972940445, -0.1211908832192421, 0.05034623295068741, -0.06134534999728203, 0.07520004361867905, -0.15719163417816162, 0.04358489438891411, -0.2376604974269867, 0.017670607194304466, -0.1281091719865799, -0.19060471653938293, -0.044874340295791626, -0.12389819324016571, -0.17088115215301514, 0.17094185948371887, 0.06043512374162674, 0.15425968170166016, -0.127700537443161, 0.035841334611177444, 0.12453573197126389, -0.04152187332510948, 0.13681666553020477, -0.029827242717146873, 0.1416459083557129], [0.10841044038534164, 0.1703283190727234, 0.07824058085680008, -0.1069764494895935, 0.20774342119693756, 0.008875156752765179, -0.15291716158390045, -0.0999530553817749, -0.1624688357114792, -0.04998013377189636, 0.2574096620082855, 0.1393989771604538, 0.08605168014764786, -0.08804861456155777, 0.09459872543811798, 0.16182243824005127, -0.10145029425621033, -0.15267501771450043, -0.10259558260440826, -0.15391333401203156, -0.0011500607943162322, -0.027210958302021027, -0.033194974064826965, 0.1442471295595169, 0.17555594444274902, 0.054475001990795135, -0.1689029037952423, -0.21707314252853394, -0.1379384547472, 0.040823016315698624, -0.11383648216724396, 0.015608004294335842], [-0.05698279291391373, 0.08061131089925766, 0.01754741743206978, -0.13060711324214935, -0.04568380489945412, 0.13936832547187805, 0.04659239575266838, -0.19272597134113312, 0.017263518646359444, 0.17219063639640808, 0.033160027116537094, 0.06631820648908615, -0.11244354397058487, -0.18247652053833008, -0.11350525915622711, -0.25094130635261536, -0.0946616381406784, 0.021774159744381905, 0.11822991073131561, -0.09601438790559769, -0.14731183648109436, -0.001984513131901622, 0.0033110380172729492, -0.028071213513612747, -0.17726032435894012, -0.014817433431744576, -0.11546874791383743, -0.15876322984695435, -0.05169296637177467, 0.043581053614616394, 0.028275005519390106, -0.11956235766410828], [0.09282826632261276, 0.07657075673341751, 0.12491291761398315, 0.24758993089199066, -0.15197347104549408, 0.0007383249467238784, -0.11576460301876068, -0.05136668682098389, -0.039742451161146164, -0.1210864707827568, 0.1758652925491333, 0.14537081122398376, -0.1922513246536255, 0.05679886415600777, 0.07602259516716003, 0.04605474695563316, 0.11908011883497238, 0.06385564804077148, 0.06027026101946831, -0.1501895636320114, 0.18325328826904297, -0.007000652141869068, 0.1288885772228241, 0.11271756142377853, 0.1791844666004181, 0.09390342980623245, -0.05872141197323799, -0.015880223363637924, -0.02594630979001522, -0.11809619516134262, -0.006260136608034372, 0.18971064686775208], [-0.23223526775836945, 0.1056629866361618, -0.013827117159962654, -0.07333479821681976, -0.0026196418330073357, -0.024650629609823227, -0.03168698400259018, -0.06430837512016296, -0.07285112142562866, -0.038663242012262344, 0.16096749901771545, 0.21517367660999298, 0.12991636991500854, 0.026928476989269257, -0.16488245129585266, 0.02524172142148018, -0.02190093696117401, 0.020599715411663055, 0.214273139834404, -0.0012612729333341122, -0.004547894932329655, -0.13842472434043884, 0.1342145949602127, -0.07178755849599838, 0.006985892076045275, -0.009845397435128689, 0.09461278468370438, -0.09576199948787689, -0.01272226870059967, 0.09751199185848236, -0.18748290836811066, -0.13073305785655975], [0.11322002112865448, 0.003799826605245471, 0.054557736963033676, -0.25823134183883667, 0.032754819840192795, 0.0847722738981247, 0.014738074503839016, 0.03452714532613754, -0.053806617856025696, 0.18176287412643433, 0.23656471073627472, 0.047925595194101334, 0.154044970870018, 0.03071773238480091, -0.25373929738998413, -0.013065272010862827, -0.09053292870521545, 0.09740965813398361, 0.17070366442203522, -0.027149945497512817, 0.03776726871728897, -0.03447554633021355, -0.1698874831199646, -0.1820758730173111, 0.12663275003433228, -0.004170298110693693, -0.19881971180438995, 0.22045771777629852, 0.008158311247825623, -0.09160726517438889, 0.19383713603019714, -0.0027427049353718758], [-0.012540196068584919, -0.008539844304323196, -0.03418149799108505, 0.20967626571655273, 0.11664485931396484, 0.05475522205233574, 0.1973007470369339, 0.0796561911702156, 0.07219336181879044, -0.05916212499141693, 0.14829695224761963, 0.22288811206817627, -0.027218908071517944, 0.05478329956531525, 0.24656563997268677, -0.03144417330622673, 0.19385814666748047, -0.10096780210733414, 0.007567658554762602, -0.17079170048236847, 0.04800187796354294, 0.04703328758478165, 0.08003479242324829, 0.023105259984731674, -0.007991358637809753, -0.16820497810840607, 0.02961857058107853, 0.01716121844947338, 0.25739336013793945, -0.0018515861593186855, -0.12056709080934525, 0.12051283568143845], [0.1614290028810501, 0.23780016601085663, 0.057493049651384354, 0.024625107645988464, 0.022721221670508385, 0.061307065188884735, 0.15097026526927948, -0.11108728498220444, -0.15657372772693634, 0.13512665033340454, -0.044289957731962204, -0.1693003922700882, -0.06969685852527618, -0.03893404081463814, 0.003730373689904809, -0.09507786482572556, 0.1402302384376526, 0.16079676151275635, 0.07683133333921432, -0.18995891511440277, -0.1158125028014183, -0.2113109827041626, 0.09700246155261993, -0.06824658811092377, 0.13602861762046814, -0.03287248685956001, -0.009609564207494259, -0.08689988404512405, -0.16433346271514893, 0.13037756085395813, -0.01761299930512905, 0.21515434980392456], [0.1800524890422821, -0.15081466734409332, -0.02015444077551365, 0.055025916546583176, 0.18031027913093567, 0.1615290641784668, 0.2631417512893677, 0.03709028288722038, 0.17873553931713104, 0.17271307110786438, -0.030810793861746788, 0.23094381392002106, -0.10695276409387589, -0.23973174393177032, -0.14859288930892944, 0.11195913702249527, 0.04473044350743294, -0.007319563999772072, 0.11368859559297562, 0.008622740395367146, -0.19811099767684937, 0.115163654088974, 0.07702679932117462, -0.04077863320708275, -0.05128355696797371, 0.04134451970458031, 0.045817624777555466, -0.057856153696775436, 0.17756770551204681, -0.02334262803196907, -0.053795889019966125, 0.0782151073217392], [-0.11321735382080078, -0.0607743002474308, -0.03153005614876747, -0.06672347337007523, -0.24602758884429932, -0.10861692577600479, 0.04215015470981598, -0.21031691133975983, 0.15042634308338165, 0.08449167758226395, -0.04274408891797066, 0.08164864778518677, 0.05938321724534035, -0.08579432219266891, 0.003014728194102645, 0.12260328978300095, 0.13005292415618896, 0.08549924939870834, -0.20256736874580383, -0.044784028083086014, 0.06374478340148926, 0.05365147814154625, -0.23711711168289185, -0.014134328812360764, -0.03505594655871391, 0.16401009261608124, 8.316233288496733e-05, 0.11273139715194702, -0.1511596441268921, 0.2309180647134781, -0.025343643501400948, -0.11126326769590378], [0.051429200917482376, -0.08722906559705734, -0.05683402344584465, -0.20077775418758392, 0.011572791263461113, -0.12013795971870422, 0.11479264497756958, -0.10247434675693512, 0.08919419348239899, 0.05343318730592728, 0.10228990018367767, 0.08912453800439835, 0.18325385451316833, -0.07985981553792953, 0.15176746249198914, -0.08042661845684052, 0.17022113502025604, 0.17590321600437164, -0.2096758633852005, -0.015901144593954086, -0.09574136883020401, -0.2618248760700226, 0.04642282426357269, -0.17297756671905518, 0.22596603631973267, 0.041692692786455154, -0.09476515650749207, -0.14906954765319824, -0.016258105635643005, -0.05720067024230957, 0.06969362497329712, 0.08651302009820938], [-0.045036766678094864, 0.16590790450572968, -0.16193220019340515, 0.18897823989391327, -0.033376600593328476, 0.18830230832099915, 0.04693001136183739, 0.15021419525146484, -0.249454528093338, 0.15151193737983704, 0.25159358978271484, 0.006027491297572851, 0.14028584957122803, -0.05446483939886093, -0.11099303513765335, -0.13087521493434906, -0.132558211684227, -0.22185766696929932, -0.03822587430477142, 0.20143607258796692, 0.009233484044671059, -0.16800858080387115, -0.15896448493003845, 0.23723632097244263, -0.04586515948176384, 0.09217120707035065, -0.04102504253387451, 0.01611148566007614, 0.2449175864458084, 0.10686410963535309, -0.10093916952610016, -0.04142000153660774], [0.12115252763032913, 0.0007136526983231306, -0.21382193267345428, 0.08586370199918747, 0.23288585245609283, -0.20484229922294617, -0.1558082550764084, 0.1972319334745407, -0.044052936136722565, 0.01587330363690853, -0.007006519939750433, 0.1477227360010147, -0.009058154188096523, -0.013523446395993233, 0.03863059729337692, -0.07837849855422974, 0.06096043810248375, -0.06680608540773392, -0.009429646655917168, -0.029613304883241653, 0.14508448541164398, 0.022778600454330444, 0.07265940308570862, -0.1384154111146927, -0.2269403636455536, 0.1447422057390213, 0.10944849997758865, -0.09197914600372314, -0.22246208786964417, -0.2451019138097763, 0.11358925700187683, -0.05241665616631508], [-0.036995477974414825, -0.14837132394313812, 0.002278345637023449, 0.1509293168783188, 0.04214339330792427, 0.17323742806911469, -0.04648967087268829, -0.12186093628406525, 0.012862236239016056, 0.005405645817518234, -0.14652298390865326, 0.17755699157714844, 0.17083895206451416, -0.13911832869052887, 0.19149164855480194, -0.1909734606742859, 0.0817384272813797, 0.093833789229393, 0.06459168344736099, 0.006636029575020075, 0.00356852519325912, 0.24188385903835297, -0.060415539890527725, -0.03953372687101364, 0.08619967103004456, -0.2124653160572052, 0.10474143177270889, 0.060605376958847046, -0.11046241223812103, -0.17857672274112701, -0.09149350225925446, -0.06321689486503601], [0.11549539864063263, 0.03879203274846077, -0.20884265005588531, -0.005201774649322033, 0.07323386520147324, 0.0296050813049078, -0.05697698891162872, 0.07056523114442825, -0.05069208890199661, -0.193182572722435, 0.07903249561786652, 0.1056424081325531, 0.1896568387746811, -0.1570192277431488, 0.10031844675540924, 0.09969482570886612, -0.12686938047409058, -0.17005571722984314, -0.10608871281147003, 0.08466211706399918, -0.17021018266677856, -0.0049807606264948845, 0.06870153546333313, 0.1386774331331253, 0.22884833812713623, -0.0154114980250597, -0.023028362542390823, -0.14036232233047485, -0.11472607403993607, 0.006996665615588427, 0.033783361315727234, -0.12660305202007294], [-0.25721848011016846, -0.13774989545345306, 0.04789308086037636, 0.07163757085800171, 0.0857376754283905, 0.08230815082788467, 0.06645086407661438, 0.01837235875427723, 0.13624204695224762, -0.12981583178043365, -0.08685746043920517, 0.00915443990379572, 0.10433433204889297, 0.07936340570449829, -0.09173500537872314, -0.12105835974216461, -0.1749897301197052, 0.2529306709766388, 0.17004069685935974, 0.0073577044531702995, 0.08512827008962631, -0.06933511793613434, 0.1322132647037506, 0.06535222381353378, 0.07355745136737823, 0.14891298115253448, 0.04275479167699814, 0.20967815816402435, -0.07372362911701202, 0.07210765033960342, 0.11944901198148727, 0.051195524632930756], [0.21508705615997314, 0.03559120371937752, -0.1780271977186203, -0.2120787501335144, -0.05017852783203125, -0.019883209839463234, 0.0915135070681572, -0.2580816149711609, -0.04380793869495392, -0.013609938323497772, -0.10429900139570236, 0.04193563014268875, 0.010229703970253468, 0.04980916157364845, -0.13496674597263336, -0.06569121032953262, -0.18775895237922668, -0.016051068902015686, -0.09460552036762238, 0.18729490041732788, 0.1483011245727539, -0.22653715312480927, -0.032647598534822464, -0.014554337598383427, 0.18837255239486694, 0.09757381677627563, -0.11918341368436813, 0.07352500408887863, 0.13665321469306946, -0.10538673400878906, 0.14702633023262024, -0.14085228741168976], [-0.14991970360279083, -0.042341895401477814, 0.1817251592874527, 0.23772048950195312, 0.13233307003974915, -0.2082936316728592, -0.21760766208171844, 0.10953126847743988, 0.18358176946640015, -0.09361445158720016, 0.07343510538339615, 0.0431632474064827, -0.14677484333515167, 0.08285991847515106, 0.09057720005512238, -0.20564016699790955, -0.25194963812828064, -0.08739493787288666, 0.11275462061166763, -0.2334454506635666, -0.24125324189662933, -0.05783906579017639, 0.13502994179725647, 0.03185306116938591, -0.1915823519229889, -0.13813357055187225, 0.16750966012477875, 0.08789748698472977, 0.10717546194791794, 0.010054908692836761, 0.004744008183479309, -0.02798910066485405], [0.22042280435562134, 0.1354825347661972, -0.08016785979270935, 0.20773649215698242, 0.10214052349328995, -0.028623325750231743, 0.031952064484357834, 0.21901172399520874, -0.1672104299068451, 0.11979954689741135, -0.08297042548656464, -0.16960115730762482, -0.10388723015785217, 0.1712293177843094, 0.0690365880727768, 0.03284664824604988, -0.1983005404472351, 0.23007185757160187, 0.05985408276319504, 0.17921167612075806, 0.041884321719408035, 0.003096782835200429, 0.006420687772333622, 0.00904455129057169, -0.18534016609191895, 0.06197154521942139, 0.0978960171341896, -0.12428820133209229, -0.11208602041006088, -0.19214753806591034, 0.23596704006195068, 0.11346497386693954], [0.21886099874973297, 0.13588586449623108, 0.08991549164056778, 0.018690958619117737, 0.02617719955742359, 0.07077671587467194, 0.15633195638656616, -0.1775544136762619, -0.09286763519048691, 0.1788797378540039, -0.1240253746509552, -0.1766803115606308, 0.1288457214832306, -0.12371449172496796, -0.13645581901073456, -0.19293399155139923, 0.033971671015024185, -0.13385841250419617, 0.08942686766386032, 0.09525055438280106, 0.040410976856946945, -0.010488786734640598, 0.02950512245297432, -0.006927190348505974, 0.05186763033270836, -0.14828428626060486, -0.09651476889848709, 0.04258866235613823, -0.13523298501968384, 0.012785764411091805, 0.035421788692474365, 0.06907044351100922], [0.19214871525764465, -0.21630607545375824, 0.15381187200546265, -0.15185341238975525, -0.04820457845926285, -0.05843997001647949, 0.07187866419553757, -0.217954620718956, -0.08153939992189407, -0.08682066202163696, 0.18257924914360046, 0.10780464857816696, 0.04728534072637558, 0.032923828810453415, -0.1961817741394043, -0.14843256771564484, -0.18111549317836761, -0.08273138105869293, -0.019906016066670418, -0.06667423993349075, -0.19003476202487946, 0.009570726193487644, 0.03170476481318474, 0.009344720281660557, 0.008347876369953156, -0.24972794950008392, 0.08726087957620621, 0.09219943732023239, 0.14465832710266113, 0.20419274270534515, 0.06150780990719795, 0.10779502987861633], [0.21952369809150696, -0.026265639811754227, 0.055409740656614304, -0.09072946757078171, 0.12449317425489426, -0.006665256805717945, -0.028778323903679848, 0.1653267741203308, 0.0824638158082962, 0.08002885431051254, -0.22739951312541962, -0.22371545433998108, 0.0706719234585762, 0.026198428124189377, 0.13205935060977936, -0.06807919591665268, -0.1565246433019638, 0.18648993968963623, 0.023746170103549957, 0.23713518679141998, -0.034887559711933136, -0.001663390314206481, -0.10331730544567108, -0.11555241793394089, -0.15693123638629913, 0.005010335706174374, -0.04449421539902687, -0.08058223873376846, 0.0839419886469841, 0.1334981471300125, 0.0008448748849332333, -0.09998543560504913], [0.2505238354206085, 0.09990956634283066, 0.16803646087646484, 0.11433011293411255, 0.045742254704236984, 0.1942509561777115, 0.16279356181621552, 0.008581872098147869, -0.14674629271030426, -0.12780502438545227, 0.1563003659248352, -0.14523683488368988, -0.11091846227645874, -0.10712099820375443, -0.1464642435312271, -0.08390524983406067, 0.08178161829710007, -0.16744926571846008, 0.09435968846082687, -0.11982820928096771, 0.031110934913158417, -0.07167936116456985, -0.010365779511630535, -0.1414303034543991, -0.0525951012969017, -0.09518225491046906, 0.18391764163970947, 0.05479367822408676, 0.00431742612272501, -0.06686245650053024, -0.011638423427939415, -0.08616099506616592], [-0.18383030593395233, -0.09064069390296936, -0.06779809296131134, 0.03569726645946503, -0.03916524350643158, 0.086796835064888, -0.2228676974773407, -0.021757477894425392, -0.20000557601451874, 0.11226300150156021, -0.0912272185087204, 0.0593111626803875, 0.14917124807834625, -0.16815178096294403, 0.07591492682695389, -0.02479560300707817, -0.13900043070316315, -0.1885942816734314, 0.11623955518007278, 0.065036341547966, 0.14070668816566467, 0.008650325238704681, -0.10335034877061844, -0.059545259922742844, 0.05750998109579086, 0.12928004562854767, -0.228992760181427, 0.1788516789674759, 0.20797906816005707, 0.04940985515713692, -0.12097599357366562, -0.22637298703193665], [0.2695464789867401, 0.05374004319310188, -0.04627073183655739, -0.02828388847410679, -0.08666703850030899, -0.26224982738494873, -0.0001610781910130754, 0.16944874823093414, 0.09521418064832687, 0.04023032635450363, 0.164515420794487, 0.0829867273569107, 0.03927569463849068, 0.1837100088596344, 0.11463580280542374, -0.036236558109521866, -0.15585559606552124, -0.03906795009970665, 0.04573722556233406, 0.17368917167186737, 0.18126654624938965, -0.17569927871227264, 0.14076349139213562, -0.05274461209774017, 0.10711615532636642, -0.1835072785615921, -0.11341975629329681, 0.005874857306480408, -0.10350516438484192, 0.021081889048218727, 0.1337369829416275, 0.04124344512820244], [-0.1369425505399704, 0.16977226734161377, -0.012456857599318027, 0.09427230805158615, -0.09357188642024994, -0.19187605381011963, 0.010937558487057686, 0.09978114813566208, -0.02936531975865364, -0.12502750754356384, -0.11908053606748581, -0.09172908961772919, -0.1121114119887352, -0.14007173478603363, -0.12162842601537704, -0.1812402606010437, 0.2587555944919586, 0.030810415744781494, 0.12135783582925797, 0.17461758852005005, -0.1921771913766861, -0.21766634285449982, -0.15558506548404694, -0.012135697528719902, -0.1493244618177414, 0.038222406059503555, -0.006036174017935991, -0.12444832175970078, 0.06219138577580452, 0.1664055734872818, -0.08705411851406097, 0.18350212275981903], [-0.25590211153030396, 0.08617181330919266, 0.03117721900343895, 0.14049458503723145, 0.07193973660469055, 0.005485673900693655, -0.004190798383206129, -0.19351539015769958, -0.07953114062547684, 0.05540318042039871, 0.04829925671219826, -0.0689372792840004, 0.17366208136081696, 0.1897135227918625, -0.25398996472358704, -0.11130960285663605, -0.017405234277248383, 0.050352077931165695, 0.009541802108287811, 0.09283080697059631, -0.0594685934484005, -0.10535092651844025, -0.15849916636943817, 0.15906399488449097, 0.075719453394413, 0.06066109985113144, -0.10486826300621033, -0.063325434923172, -0.018487295135855675, 0.1417955905199051, -0.07659684121608734, 0.2239517867565155], [0.07794126868247986, -0.14116023480892181, 0.061959341168403625, 0.0937088280916214, -0.10175895690917969, 0.20767337083816528, 0.08697188645601273, -0.02470456436276436, -0.1707020401954651, 0.16503700613975525, 0.01249144971370697, 0.15949471294879913, -0.19330742955207825, -0.21341830492019653, -0.13618510961532593, -0.012124719098210335, -0.0023904915433377028, -0.13894088566303253, -0.103411465883255, 0.14989198744297028, -0.13065743446350098, 0.10402838885784149, 0.12725365161895752, -0.14140793681144714, 0.20772996544837952, -0.004069531336426735, -0.04916603863239288, 0.06602711230516434, -0.14103269577026367, -0.11213220655918121, -0.12498059868812561, 0.026486260816454887], [-0.15169377624988556, 0.01817152462899685, -0.08324875682592392, 0.014583749696612358, -0.21305641531944275, -0.11717140674591064, -0.010368679650127888, -0.09032018482685089, 0.06820143014192581, 0.03851824253797531, -0.2143377959728241, 0.20024517178535461, 0.040395867079496384, -0.0744534507393837, 0.016346728429198265, -0.04681840538978577, -0.21072429418563843, 0.2010001838207245, 0.027486469596624374, 0.08929941058158875, 0.22764110565185547, -0.2006179541349411, -0.07155037671327591, 0.2550455927848816, 0.030001895502209663, -0.010089070536196232, 0.09158352017402649, -0.11406836658716202, 0.18513073027133942, 0.07761682569980621, 0.0363275371491909, 0.12397346645593643], [-0.18875251710414886, -0.15394602715969086, 0.19955100119113922, -0.03530408814549446, -0.1743081957101822, 0.04319494217634201, 0.012320277281105518, 0.12153257429599762, 0.24555787444114685, -0.008644018322229385, -0.16233529150485992, 0.136111319065094, -0.0160673875361681, 0.11144226789474487, 0.21634329855442047, -0.040762219578027725, -0.1381620317697525, 0.08151785284280777, -0.07826707512140274, -0.17389753460884094, 0.04313158616423607, 0.1563534438610077, -0.11417478322982788, 0.10606707632541656, -0.2527671754360199, -0.04774723947048187, -0.0192957054823637, -0.06531084328889847, -0.02201208472251892, -0.2286536544561386, 0.025306520983576775, 0.13992691040039062], [0.12888425588607788, 0.11994375288486481, -0.07406530529260635, 0.18531572818756104, -0.14863955974578857, 0.13934800028800964, 0.08802074193954468, 0.02843969687819481, -0.13743771612644196, 0.11899384111166, 0.1841137558221817, 0.093921959400177, -0.032484449446201324, -0.06062138080596924, -0.15674498677253723, -0.07627034187316895, 0.09247126430273056, -0.22549007833003998, 0.030858591198921204, -0.13440512120723724, 0.05119619145989418, -0.14002098143100739, 0.12151779234409332, 0.18832558393478394, 0.18088768422603607, 0.10576554387807846, 0.0279591903090477, 0.007869148626923561, -0.03887569159269333, 0.23451511561870575, -0.06463265419006348, -0.01355993002653122], [0.1260194629430771, 0.0652664303779602, 0.008983368054032326, -0.20150698721408844, -0.089150071144104, 0.05539187788963318, -0.038243141025304794, -0.1233690083026886, 0.060382016003131866, 0.10731291770935059, 0.09864763170480728, -0.025038521736860275, -0.048647440969944, 0.07890012860298157, 0.23628905415534973, 0.06214785948395729, 0.034459203481674194, -0.09114885330200195, 0.017895366996526718, -0.053350768983364105, 0.1645628660917282, -0.09465737640857697, -0.09083306789398193, 0.05753207951784134, 0.15765054523944855, 0.04841834679245949, -0.24286548793315887, -0.14188280701637268, 0.07821084558963776, -0.13164132833480835, -0.21333998441696167, -0.07201170176267624], [-0.19017072021961212, 0.06533200293779373, -0.015956394374370575, 0.0114631662145257, -0.23383459448814392, 0.1602480411529541, 0.011861265636980534, -0.036923959851264954, -0.0727798119187355, 0.018191315233707428, 0.055778373032808304, 0.1363135576248169, -0.040410369634628296, -0.19842877984046936, -0.09441196173429489, -0.04682347550988197, 0.18335235118865967, -0.041756559163331985, -0.05205728858709335, -0.043345700949430466, -0.09073476493358612, 0.07514511793851852, -0.05559080094099045, 0.1527218520641327, -0.09184574335813522, 0.011051010340452194, 0.10315025597810745, -0.03412609174847603, 0.07239489257335663, -0.04755730926990509, -0.09130540490150452, 0.13787251710891724], [0.17866650223731995, 0.07317211478948593, -0.1823880970478058, -0.19008097052574158, 0.1460392326116562, -0.22196461260318756, 0.061537593603134155, 0.18597549200057983, 0.06605254858732224, -0.2608191967010498, 0.1846584528684616, -0.23575729131698608, 0.12431610375642776, 0.18893985450267792, 0.15906493365764618, -0.046852197498083115, -0.10633435845375061, -0.023644907400012016, 0.034939106553792953, 0.029840372502803802, 0.05715537816286087, 0.11405304819345474, -0.07039394974708557, 0.028116244822740555, 0.16133902966976166, 0.015310002490878105, -0.011807622388005257, -0.10674464702606201, 0.0922372043132782, 0.08526287227869034, -0.1567724496126175, 0.0016815810231491923], [0.04128025844693184, 0.256226509809494, -0.036833833903074265, -0.03921519219875336, -0.03648888319730759, 0.1604899913072586, -0.20452195405960083, -0.03179696574807167, -0.03998732194304466, -0.12441683560609818, 0.06087707355618477, 0.07148125022649765, -0.0247200857847929, -0.023555155843496323, -0.07542375475168228, 0.23651841282844543, -0.08290816843509674, -0.011829347349703312, 0.016386419534683228, -0.2670164704322815, -0.042394042015075684, 0.011822614818811417, 0.23682843148708344, 0.18392707407474518, 0.18209639191627502, 0.17035116255283356, 0.09883300215005875, 0.006043777335435152, -0.14822974801063538, 0.041766829788684845, -0.20226848125457764, -0.05918342247605324], [0.056893136352300644, -0.04609513282775879, -0.11006920039653778, 0.002500272821635008, 0.17973515391349792, -0.07035879045724869, -0.006976924370974302, 0.01775389537215233, -0.06400497257709503, -0.02673305571079254, -0.06571707129478455, -0.13953305780887604, -0.05723356083035469, -0.10381011664867401, -0.06635566800832748, -0.11110680550336838, 0.05114797130227089, -0.1582844853401184, -0.14228831231594086, 0.032136909663677216, 0.2559673488140106, -0.18468010425567627, 0.13244134187698364, 0.17701716721057892, 0.15798769891262054, 0.006238946691155434, 0.03766122832894325, -0.133744016289711, -0.17694075405597687, -0.09222441166639328, 0.25218528509140015, 0.07177820801734924], [-0.09786633402109146, -0.04174847528338432, -0.17926812171936035, 0.029168060049414635, 0.05028562247753143, -0.21278692781925201, -0.19833256304264069, -0.02537143975496292, 0.11400993168354034, -0.07082097232341766, -0.12641173601150513, -0.18396013975143433, -0.14803150296211243, 0.03457276150584221, 0.14798696339130402, 0.05025697126984596, -0.0013229517498984933, 0.019828492775559425, 0.06304094940423965, 0.25250402092933655, -0.12082706391811371, 0.13629204034805298, 0.23388922214508057, -0.04783233627676964, -0.08776508271694183, 0.09562117606401443, 0.11562027037143707, 0.12683258950710297, -0.05571577325463295, -0.06053530052304268, 0.0721922367811203, 0.006523857358843088], [0.11846442520618439, 0.07792966812849045, -0.026981888338923454, -0.2092691957950592, -0.1946670562028885, 0.08968120813369751, -0.15695655345916748, -0.04472159966826439, -0.12113293260335922, 0.04866306111216545, -0.007658030837774277, -0.0006577288149856031, -0.2557247281074524, -0.08813723176717758, -0.013486717827618122, -0.09147822856903076, -0.06402433663606644, -0.17627429962158203, 0.10148924589157104, -0.0025897223968058825, 0.00292019871994853, -0.17333050072193146, -0.0401034913957119, 0.12780946493148804, 0.11218501627445221, 0.2405172437429428, -0.13210563361644745, -0.24350064992904663, -0.17789846658706665, -0.21466974914073944, -0.24361588060855865, 0.11394914984703064], [0.08094246685504913, 0.07788418233394623, -0.06668782234191895, 0.07455234229564667, 0.12466935068368912, 0.03251054510474205, -0.0621844083070755, 0.1319127380847931, 0.13898438215255737, 0.08248753100633621, 0.06471244245767593, 0.08104564249515533, -0.050784673541784286, -0.13655029237270355, 0.22795841097831726, 0.08631264418363571, -0.06651952117681503, -0.06654990464448929, -0.0633520558476448, -0.04260825738310814, -0.09939125180244446, 0.11976106464862823, -0.18173465132713318, -0.06501595675945282, -0.09977778047323227, -0.15192049741744995, 0.1752517819404602, -0.09306827932596207, -0.2300759106874466, 0.0017536350060254335, 0.1907884031534195, 0.077858105301857], [-0.11708762496709824, 0.22131046652793884, -0.2290729135274887, 0.23534464836120605, 0.14315594732761383, 0.07863306999206543, -0.020229078829288483, -0.04631494730710983, -0.2039501965045929, -0.052276939153671265, 0.06344985216856003, 0.034782782196998596, 0.05100032314658165, -0.14188043773174286, 0.13816805183887482, 0.13737516105175018, 0.06782776117324829, 0.040618736296892166, 0.04361574724316597, -0.0983017086982727, 0.029439466074109077, -0.011953799985349178, 0.2016882300376892, 0.18778496980667114, 0.15688911080360413, -0.019395142793655396, 0.022652680054306984, 0.08652887493371964, -0.03754806891083717, -0.20878177881240845, -0.012306341901421547, 0.18321451544761658], [-0.08904067426919937, -0.087494857609272, -0.19512438774108887, 0.2161071002483368, 0.08049645274877548, -0.10323011130094528, -0.15462617576122284, 0.026797877624630928, -0.029864566400647163, -0.14898914098739624, -0.16112329065799713, -0.25607535243034363, -0.020026706159114838, -0.12627491354942322, 0.05707994103431702, 0.06054114177823067, 0.028855575248599052, 0.10566801577806473, -0.010814390145242214, 0.195434108376503, 0.17627131938934326, 0.10304934531450272, -0.07052069157361984, -0.11993993818759918, -0.044006556272506714, 0.15130159258842468, -0.08093489706516266, 0.02284286916255951, 0.11268963664770126, -0.26419728994369507, 0.11230382323265076, 0.02702399343252182], [0.15972469747066498, 0.036844652146101, -0.09998685866594315, -0.12208094447851181, 0.06213734671473503, 0.07736140489578247, -0.20763066411018372, -0.19575285911560059, 0.01100798137485981, 0.01722654700279236, 0.00908435508608818, -0.06640411913394928, 0.1437961608171463, 0.018366502597928047, 0.024514174088835716, 0.12121947854757309, 0.13859300315380096, -0.05108782649040222, 0.20064838230609894, 0.024830760434269905, 0.15599432587623596, -0.04437968507409096, 0.05594232678413391, -0.20229563117027283, -0.001112152123823762, 0.03988562896847725, -0.13101567327976227, 0.10494422167539597, 0.09559813886880875, -0.042227551341056824, 0.213396817445755, -0.11502502858638763], [-0.1716809719800949, 0.06382722407579422, 0.02600465901196003, 0.1874666064977646, 0.017139669507741928, -0.12868118286132812, 0.11545732617378235, 0.20398448407649994, 0.25141769647598267, -0.15542684495449066, 0.07597947120666504, -0.22053579986095428, 0.03596771880984306, 0.14822423458099365, -0.14048215746879578, 0.01172004733234644, -0.08457421511411667, 0.06216535344719887, -0.07707475870847702, -0.10883987694978714, 0.12385829538106918, -0.05954606831073761, 0.2476588487625122, 0.09429812431335449, 0.12054142355918884, 0.1587934046983719, 0.05187558755278587, -0.10566389560699463, -0.12683002650737762, -0.2499026209115982, 0.15493889153003693, -0.13634704053401947], [0.06688263267278671, 0.1829509735107422, -0.18018053472042084, 0.14145947992801666, -0.21852856874465942, 0.020135167986154556, 0.10411190241575241, -0.052286963909864426, 0.021283278241753578, -0.1247578039765358, 0.016961703076958656, 0.09449971467256546, -0.0901573896408081, -0.02685042843222618, 0.12887781858444214, 0.057751111686229706, -0.08929838240146637, -0.26279976963996887, 0.10331571847200394, 0.10797794163227081, 0.25738242268562317, -0.0029601547867059708, 0.08136306703090668, -0.056467197835445404, 0.07391012459993362, -0.03707773610949516, 0.16503851115703583, 0.1942129135131836, -0.08386560529470444, 0.08960288763046265, -0.15788912773132324, -0.12839964032173157], [-0.1270679533481598, 0.2576681077480316, -0.030176667496562004, -0.21267253160476685, -0.07387812435626984, -0.11072969436645508, 0.13528624176979065, -0.09758805483579636, 0.01572987250983715, -0.15959692001342773, -0.15602222084999084, 0.033632803708314896, -0.08881235867738724, -0.16885951161384583, -0.1262912154197693, 0.005818061530590057, 0.014023308642208576, 0.06731463968753815, 0.0029606535099446774, 0.029628248885273933, -0.09184698760509491, -0.08187858760356903, -0.14156748354434967, -0.06693682074546814, -0.17305821180343628, 0.061764173209667206, -0.15229575335979462, -0.11028096824884415, 0.024586671963334084, 0.12653957307338715, -0.21981291472911835, -0.03947625309228897], [0.007597961463034153, -0.10095430165529251, 0.22291947901248932, 0.13030412793159485, -0.09126432985067368, 0.1534373164176941, -0.007087366189807653, 0.07126394659280777, 0.13665571808815002, 0.025167396292090416, 0.10507605224847794, 0.1441047489643097, 0.05709762126207352, -0.0851510688662529, -0.01470247097313404, -0.22500720620155334, 0.01490757241845131, -0.025658201426267624, 0.11969859153032303, -0.16763147711753845, -0.024928754195570946, 0.08230371028184891, -0.02737383171916008, 0.12389087677001953, 0.144174724817276, -0.1385975331068039, -0.00030926812905818224, -0.22294045984745026, 0.06501667946577072, -0.03715144470334053, 0.08332091569900513, -0.022374240681529045], [0.16714787483215332, -0.06084774434566498, -0.04052693769335747, -0.09095390886068344, -0.023358594626188278, 0.06068996712565422, 0.16557152569293976, 0.17631204426288605, -0.03988218680024147, 0.12382975220680237, -0.2164434939622879, -0.21185526251792908, 0.05379548668861389, -0.001959771616384387, 0.21596916019916534, 0.13618946075439453, -0.20615433156490326, 0.037221893668174744, -0.11340269446372986, 0.15544681251049042, 0.1633421927690506, -0.22871845960617065, 0.054248448461294174, 0.03496613726019859, -0.02625471167266369, 0.037089753895998, 0.2354276180267334, 0.12092045694589615, 0.06871208548545837, 0.14085854589939117, 0.22173264622688293, 0.02095050923526287], [-0.017910383641719818, -0.07716426253318787, 0.13478398323059082, -0.191507950425148, 0.08652444183826447, -0.07094544172286987, 0.11408683657646179, -0.26214927434921265, -0.07852698862552643, 0.11964826285839081, -0.06044359505176544, -0.06116567552089691, -0.06481197476387024, -0.039543647319078445, -0.04430340230464935, -0.05524963513016701, -0.044822487980127335, -0.05538982152938843, 0.03174200281500816, -0.14886334538459778, -0.005146585870534182, -0.16393114626407623, 0.10632491856813431, -0.1907813847064972, -0.03581727296113968, 0.01786182075738907, -0.2584158480167389, -0.050134651362895966, -0.05163102596998215, 0.09266567975282669, -0.09940221905708313, -0.05249033123254776], [-0.007755768485367298, 0.2689000070095062, 0.1906881034374237, -0.1979433000087738, -0.22929567098617554, -0.06718028336763382, -0.06707404553890228, -0.19722643494606018, -0.04098553583025932, -0.025023669004440308, 0.07817299664020538, 0.12351768463850021, 0.20567122101783752, -0.06629359722137451, 0.06076035648584366, 0.05436757579445839, 0.13220617175102234, 0.09692274034023285, -0.14176702499389648, 0.012698614969849586, 0.0767858475446701, -0.153187096118927, -0.19294291734695435, 0.0745663121342659, -0.08480668067932129, 0.1166997104883194, -0.1192217469215393, 0.035234130918979645, -0.039219215512275696, -0.04888327792286873, -0.2408086657524109, -0.03128120303153992], [0.13292865455150604, -0.03433268144726753, -0.1297677904367447, -0.2026039958000183, 0.14362874627113342, -0.1911148577928543, 0.12499123811721802, 0.13333718478679657, -0.01327886339277029, -0.07031803578138351, -0.15768972039222717, 0.043218713253736496, 0.02510853298008442, -0.04975087568163872, 0.11784175038337708, -0.12882308661937714, 0.029489951208233833, 0.06108158826828003, 0.05248882621526718, 0.03542106971144676, -0.2477572113275528, 0.11136167496442795, -0.16921210289001465, -0.13450731337070465, 0.04574083909392357, 0.02754814177751541, 0.047169029712677, 0.2274274080991745, 0.003522787243127823, 0.16985447704792023, -0.046685025095939636, -0.035312097519636154], [-0.17914222180843353, 0.01089487224817276, 0.14261987805366516, 0.16472019255161285, -0.1480768918991089, -0.08306048065423965, 0.011831583455204964, -0.11515002697706223, -0.15345175564289093, -0.14157705008983612, 0.021975206211209297, 0.07339736819267273, 0.008257744833827019, 0.23922525346279144, 0.21495522558689117, 0.07754424959421158, 0.22618608176708221, -0.027504397556185722, -0.10216832160949707, 0.1088966578245163, -0.1375161111354828, 0.04026269540190697, -0.24451912939548492, -0.11263524740934372, -0.024198923259973526, -0.15769508481025696, 0.02683727815747261, 0.08072672039270401, 0.15432804822921753, -0.11885254830121994, -0.13028477132320404, -0.016122648492455482], [0.158929243683815, 0.11111737787723541, 0.1922181397676468, -0.2548205852508545, 0.16307216882705688, -0.10368773341178894, 0.1485130339860916, -0.12275716662406921, -0.07964692264795303, 0.1037452220916748, -0.1340353935956955, -0.19516415894031525, 0.20266805589199066, 0.05209008604288101, 0.02697882056236267, -0.13645097613334656, -0.03782349452376366, -0.0657239705324173, -0.06354517489671707, -0.0017409541178494692, -0.110699862241745, -0.05691693350672722, 0.18375620245933533, -0.2247951775789261, 0.14572834968566895, -0.007397857028990984, -0.009766407310962677, 0.10383263230323792, -0.030695274472236633, -0.024758806452155113, -0.1374415010213852, 0.0677521750330925], [0.15259459614753723, -0.0941166952252388, 0.034425247460603714, -0.20892401039600372, -0.2618468105792999, -0.11537693440914154, 0.11119751632213593, -0.1244671568274498, -0.10175035893917084, -0.012288438156247139, -0.0028355680406093597, -0.04204944521188736, 0.19102315604686737, -0.1481182873249054, 0.19394570589065552, -0.051941510289907455, -0.15377986431121826, -0.01433488354086876, -0.20251548290252686, -0.053135987371206284, -0.0534498393535614, -0.05190946161746979, 0.12553857266902924, -0.221485897898674, 0.06142352148890495, 0.09060391038656235, -0.010706190951168537, 0.16853076219558716, 0.07055696845054626, -0.027778157964348793, -0.13334250450134277, -0.11658433079719543], [0.10972438752651215, 0.12271401286125183, -0.24212335050106049, 0.0851999819278717, -0.20767565071582794, 0.06808122247457504, 0.0538492389023304, 0.03265278413891792, -0.13854272663593292, 0.06536683440208435, 0.09879586845636368, 0.0781637504696846, -0.17296117544174194, -0.016293765977025032, -0.16770736873149872, 0.15265223383903503, -0.19427503645420074, -0.07932101935148239, -0.09436050802469254, 0.20398502051830292, -0.012578441761434078, -0.20064805448055267, -0.007950970903038979, 0.12470053136348724, 0.13553769886493683, 0.035958994179964066, 0.004139531869441271, 0.004044210538268089, -0.07476818561553955, -0.024198012426495552, 0.041170086711645126, 0.08854905515909195], [-0.17595332860946655, 0.19050179421901703, -0.2335597276687622, 0.09017275273799896, -0.19763393700122833, 0.17960743606090546, -0.1666894406080246, 0.18423017859458923, 0.026375334709882736, 0.03921952471137047, -0.008359814062714577, -0.11262857168912888, -0.07660406082868576, -0.12258459627628326, 0.039150822907686234, -0.020238399505615234, 0.1262081414461136, -0.06965865939855576, 0.21102069318294525, 0.028983790427446365, 0.2628856897354126, 0.0074113355949521065, 0.08974035829305649, 0.2057855874300003, -0.1370534598827362, 0.177064448595047, 0.16376766562461853, -0.005800028331577778, -0.03349605202674866, 0.1905726194381714, -0.01481723040342331, 0.1646800935268402], [0.07676910609006882, 0.2532188296318054, 0.05038441717624664, 0.003366342280060053, 0.05264760181307793, 0.20926211774349213, -0.09584423154592514, -0.009967433288693428, 0.039944250136613846, 0.05960360914468765, -0.19722439348697662, 0.016076980158686638, -0.19862182438373566, 0.04615584388375282, 0.16378983855247498, -0.12636631727218628, 0.002338054357096553, 0.006285910494625568, 0.2501700818538666, 0.18359088897705078, 0.258726567029953, -0.23543782532215118, -0.06502745300531387, 0.034617338329553604, -0.06447619944810867, 0.048554323613643646, 0.09537667036056519, 0.10105312615633011, 0.0058035640977323055, -0.14282426238059998, 0.05809902772307396, 0.17372971773147583], [0.16451624035835266, 0.11006216704845428, 0.07790406048297882, -0.18089981377124786, -0.17873914539813995, -0.08238153904676437, 0.24567990005016327, -0.00765408156439662, -0.010739394463598728, -0.1242981106042862, -0.06606779247522354, 0.022338910028338432, 0.0416727289557457, 0.06142684817314148, -0.0784153863787651, -0.18242232501506805, 0.22093495726585388, 0.0738404169678688, -0.19534477591514587, -0.0033595373388379812, -0.07713650166988373, -0.21412882208824158, -0.012537662871181965, 0.0068487743847072124, -0.14154642820358276, -0.08498124778270721, -0.142804816365242, 0.1710846871137619, -0.2563321590423584, 0.2550090551376343, 0.04976210743188858, -0.2356773167848587], [0.07584893703460693, -0.08506348729133606, 0.15900202095508575, 0.20889247953891754, 0.036578673869371414, -0.11826448887586594, -0.21308644115924835, -0.20623719692230225, -0.13956278562545776, 0.014459366910159588, -0.025356899946928024, 0.06765303015708923, 0.1564721167087555, 0.25181588530540466, 0.035145293921232224, 0.0034000950399786234, -0.08467825502157211, 0.06108158826828003, 0.16294138133525848, -0.15132349729537964, 0.11158791929483414, -0.18142804503440857, 0.05325080826878548, 0.06809644401073456, 0.09987251460552216, -0.011068163439631462, 0.0360182449221611, 0.06831081211566925, -0.10373561829328537, -0.09175512194633484, -0.1409209817647934, -0.13414183259010315], [0.14182990789413452, 0.1742803454399109, 0.09387620538473129, 0.2381030023097992, 0.1621602475643158, -0.1487499475479126, -0.13602416217327118, 0.045648474246263504, -0.023033054545521736, -0.0063767703250050545, -0.07378306239843369, 0.07851822674274445, -0.06431570649147034, 0.08656647801399231, 0.005728551652282476, -0.1088719442486763, -0.06983691453933716, 0.10524540394544601, -0.05340663343667984, -0.1302347183227539, 0.006371764466166496, 0.12433506548404694, 0.10213526338338852, -0.027566222473978996, -0.020928524434566498, 0.17615468800067902, -0.01052731741219759, 0.004969330504536629, -0.13049334287643433, -0.25543707609176636, 0.038739535957574844, 0.195147305727005], [-0.20114825665950775, 0.14243510365486145, -0.13475348055362701, -0.030607810243964195, -0.1580984741449356, 0.1280037760734558, -3.6598201404558495e-05, 0.014628469944000244, 0.16629990935325623, 0.00813839677721262, -0.10274896770715714, 0.188346728682518, -0.13425859808921814, 0.08969070762395859, 0.00038648408371955156, 0.039650849997997284, -0.047124624252319336, 0.2029046267271042, -0.07437433302402496, -0.09652136266231537, -0.11130218207836151, -0.05483396351337433, 0.03350212424993515, -0.0957653671503067, -0.22273802757263184, -0.130228653550148, 0.13628219068050385, 0.05997436121106148, 0.02287253737449646, 0.0841534212231636, -0.08473329246044159, -0.13519759476184845], [-0.16175901889801025, 0.036798421293497086, 0.1386927217245102, 0.04294605925679207, 0.031528305262327194, -0.17249302566051483, 0.07588736712932587, 0.10546643286943436, 0.0869612842798233, 0.03785735368728638, -0.17215754091739655, -0.1380038857460022, -0.055439144372940063, 0.1703302264213562, 0.11703195422887802, 0.2456693947315216, 0.08643493801355362, 0.05942869186401367, 0.20363539457321167, 0.012843106873333454, -0.09988464415073395, 0.09170271456241608, -0.026043109595775604, 0.14337104558944702, -0.08257777988910675, 0.04811733588576317, 0.21108870208263397, 0.0906258225440979, 0.01996925100684166, -0.0899212583899498, -0.04830150306224823, -0.18776963651180267], [-0.10415419936180115, -0.05603243410587311, 0.09492877870798111, 0.24256904423236847, -0.1874522715806961, -0.05322171747684479, 0.1949460655450821, -0.12488389015197754, 0.1641387939453125, 0.15603256225585938, 0.15629249811172485, 0.08329043537378311, 0.07801404595375061, -0.09194391965866089, 0.2680235803127289, -0.22549831867218018, 0.049629032611846924, -0.0910426452755928, 0.24648870527744293, -0.09159645438194275, -0.031108640134334564, -0.05403362959623337, 0.0018900850554928184, 0.06962881982326508, 0.07663587480783463, 0.008525600656867027, 0.06719691306352615, 0.07875005900859833, 0.08075932413339615, -0.22637879848480225, -0.005493016913533211, 0.0350646935403347], [0.22677820920944214, 0.01893595978617668, -0.15310609340667725, 0.0779460147023201, 0.15646201372146606, 0.10022074729204178, -0.13322600722312927, -0.06872672587633133, -0.008526106365025043, 0.019220557063817978, -0.1030874028801918, 0.17187081277370453, 0.038444820791482925, -0.0272379033267498, -0.018212439492344856, -0.07219339162111282, 0.16372419893741608, -0.1902841478586197, 0.020041758194565773, 0.05904991179704666, 0.21052922308444977, -0.13722021877765656, -0.14935928583145142, -0.011457407847046852, 0.22443953156471252, 0.19195739924907684, 0.006221453659236431, -0.22594116628170013, 0.18433807790279388, -0.1537485271692276, -0.09687519818544388, -0.08397001773118973], [0.126503586769104, -0.010838131420314312, 0.18024612963199615, 0.11780785024166107, -0.021152149885892868, 0.1583053320646286, 0.03904489427804947, -0.23416166007518768, 0.09309782087802887, 0.09856649488210678, -0.10488134622573853, -0.05978758633136749, -0.05374729633331299, -0.12804003059864044, 0.14483799040317535, -0.22659407556056976, -0.1334482580423355, 0.06644000858068466, -0.13299226760864258, -0.22609272599220276, 0.24574598670005798, 0.13178205490112305, -0.06686687469482422, 0.05376166105270386, 0.056546494364738464, 0.0765683650970459, -0.10295767337083817, 0.03431214392185211, 0.09136581420898438, -0.16656632721424103, -0.07492721080780029, -0.0817466452717781], [-0.08089376986026764, 0.22570590674877167, 0.14580553770065308, -0.024864424020051956, -0.007409426383674145, -0.06933858245611191, 0.11777634918689728, -0.0703887864947319, -0.02751290611922741, -0.14968009293079376, -0.10724132508039474, 0.002543570240959525, 0.13303767144680023, -0.06230451166629791, -0.12875229120254517, -0.1656080037355423, 0.0837981253862381, -0.1928819715976715, -0.07978680729866028, 0.21756982803344727, -0.06016692519187927, 0.03652564063668251, -0.09443200379610062, 0.11275894194841385, -0.005254408810287714, -0.10097195953130722, 0.09512028843164444, -0.02033146657049656, 0.03874698653817177, 0.04624161124229431, 0.15723268687725067, -0.18139809370040894], [0.21698163449764252, -0.031992699950933456, -0.1367167830467224, 0.2036476880311966, 0.23431693017482758, -0.1565016657114029, -0.07485381513834, 0.1785174459218979, 0.13977310061454773, 0.030481688678264618, -0.173284113407135, 0.07482834905385971, 0.061743125319480896, -0.060134537518024445, 0.010899859480559826, -0.0703134834766388, -0.0378868393599987, 0.16762331128120422, -0.094366654753685, 0.08770742267370224, 0.2082456797361374, -0.08012565970420837, 0.07872619479894638, -0.07759162038564682, 0.08129409700632095, 0.051987577229738235, 0.17766427993774414, 0.170653834939003, -0.18229739367961884, 0.02117285691201687, 0.15342991054058075, -0.11108671873807907], [-0.20242343842983246, -0.05699129030108452, 0.03500320762395859, 0.16629785299301147, -0.22454123198986053, 0.194930762052536, -0.0562414824962616, -0.05972818285226822, 0.05016613379120827, -0.0032121646218001842, -0.15051603317260742, -0.015163229778409004, 0.11241821944713593, 0.04755562171339989, 0.14885050058364868, -0.1518615484237671, -0.18339572846889496, 0.050854653120040894, 0.19221852719783783, -0.1054663434624672, 0.1743709295988083, -0.1746608316898346, 0.010891244746744633, 0.1688302606344223, 0.1378183513879776, 0.013254097662866116, 0.07378014922142029, 0.06366090476512909, -0.1328386664390564, 0.04092966020107269, 0.12696409225463867, -0.1300671547651291], [-0.09378375113010406, -0.16644445061683655, 0.06026231870055199, 0.0634901225566864, 0.23216359317302704, 0.08033644407987595, 0.0923788994550705, 0.008547263219952583, 0.15687759220600128, 0.11004435271024704, -0.11324158310890198, 0.10378216952085495, 0.029218558222055435, 0.09151549637317657, 0.15017421543598175, 0.17932894825935364, -0.07285656034946442, 0.06428389251232147, 0.01339969877153635, -0.09264057129621506, 0.006930912379175425, 0.1311682164669037, 0.03956759348511696, 0.03443840146064758, 0.11625389009714127, 0.2619055211544037, 0.03992709890007973, -0.1791047900915146, -0.022845318540930748, -0.23911955952644348, 0.029327841475605965, 0.03714410960674286], [-0.07707633823156357, -0.054613322019577026, -0.016534090042114258, -0.19792063534259796, -0.236606627702713, 0.16385477781295776, -0.24623766541481018, -0.038855813443660736, -0.10296434164047241, -4.6959001338109374e-05, 0.048223815858364105, 0.11825558543205261, 0.038169749081134796, -0.10671892762184143, -0.10876660794019699, 0.24089862406253815, -0.09705869108438492, 0.24521076679229736, -0.13277986645698547, -0.24104982614517212, -0.15672478079795837, -0.1531939059495926, -0.0015434982487931848, -0.03531885892152786, 0.007393638603389263, 0.06867096573114395, -0.23792794346809387, 0.008125944063067436, -0.10334126651287079, 0.03827040269970894, -0.09316222369670868, 0.14846982061862946], [0.0856720581650734, -0.25421342253685, -0.1709205061197281, -0.042432062327861786, 0.12978050112724304, -0.1644526869058609, -0.055671606212854385, 0.14999355375766754, -0.05316062271595001, 0.07397853583097458, -0.029429420828819275, -0.20131893455982208, 0.06132228299975395, -0.04427950829267502, 0.02912326529622078, 0.1455441564321518, -0.2086133509874344, -0.21475398540496826, 0.10248851031064987, -0.14273853600025177, -0.05767164006829262, 0.07244609296321869, -0.07600788027048111, 0.08408793807029724, -0.1199343353509903, 0.07719651609659195, 0.10775994509458542, 0.014763069339096546, 0.10215841978788376, 0.17013125121593475, 0.11440937966108322, 0.07745372503995895], [-0.18845227360725403, -0.18502770364284515, -0.0019454013090580702, 0.012421699240803719, 0.1582643687725067, -0.013811971060931683, 0.07521796971559525, -0.17424912750720978, 0.03901712968945503, 0.18441176414489746, -0.0514356903731823, -0.02216564677655697, 0.04338303208351135, 0.23511630296707153, 0.19568699598312378, -0.0558895580470562, -0.09216434508562088, 0.17290496826171875, 0.19517004489898682, 0.13722795248031616, -0.17039458453655243, 0.14421144127845764, -0.11617358028888702, 0.041640665382146835, -0.04250996559858322, -0.021328143775463104, -0.04889962077140808, 0.15925294160842896, -0.0036391466856002808, -0.043619267642498016, -0.12437763065099716, 0.08866123110055923], [0.1936836987733841, 0.029100023210048676, -0.031342003494501114, 0.0012202115030959249, -0.1422671675682068, -0.0015870827483013272, -0.023325001820921898, -0.019327780231833458, -0.11892421543598175, 0.10232041031122208, -0.23358961939811707, 0.014203214086592197, 0.034932222217321396, -0.059547632932662964, -0.09592143446207047, -0.10495604574680328, 0.11317901313304901, -0.0173490010201931, 0.22364090383052826, 0.2249244600534439, 0.19947434961795807, -0.10406170785427094, -0.16117168962955475, 0.05380032956600189, -0.11669059842824936, 0.06804023683071136, 0.21004898846149445, 0.02268894948065281, -0.017107468098402023, -0.07328550517559052, 0.05190275236964226, -0.0034524803049862385], [0.15333570539951324, 0.08314044028520584, 0.18118666112422943, 0.047765493392944336, -0.04630881920456886, 0.0037204574327915907, -0.04652513936161995, 0.03286444768309593, -0.1995917558670044, -0.09543373435735703, 0.06931047141551971, -0.024050932377576828, -0.09862659871578217, -0.010037432424724102, -0.13271254301071167, 0.12703575193881989, 0.10385125875473022, -0.19224917888641357, -0.05973343551158905, 0.04103582352399826, -0.0777985155582428, 0.047073010355234146, 0.029708247631788254, -0.15611127018928528, 0.19258978962898254, 0.1670534759759903, 0.08780921250581741, -0.17151135206222534, -0.19232213497161865, 0.09103211760520935, 0.016189556568861008, -0.21101899445056915], [0.22625450789928436, 0.16930656135082245, -0.002017430029809475, -0.03610799089074135, 0.1170075386762619, 0.014058389700949192, -0.09825042635202408, 0.06898047775030136, 0.08221390098333359, 0.175495445728302, -0.09930980205535889, 0.02977515384554863, 0.18016760051250458, 0.063005730509758, -0.015055203810334206, 0.07386075705289841, 0.18221110105514526, -0.08583049476146698, 0.005236899014562368, 0.10532230883836746, 0.12340664118528366, -0.1555514931678772, 0.15978887677192688, 0.07385940104722977, -0.031022049486637115, 0.00779853668063879, 0.010695512406527996, -0.15368567407131195, 0.08512671291828156, 0.22896288335323334, -0.012452829629182816, -0.10080946981906891], [-0.15045474469661713, 0.2040785700082779, 0.02333729714155197, -0.09064411371946335, 0.017304686829447746, 0.2625408172607422, -0.08335473388433456, -0.18625475466251373, -0.2300281971693039, -0.04528366029262543, 0.09740254282951355, -0.018885083496570587, 0.035697631537914276, -0.18164598941802979, 0.08992907404899597, 0.05050833895802498, -0.0919034481048584, -0.10502082109451294, -0.21115726232528687, 0.15675517916679382, -0.04867919906973839, -0.10654928535223007, 0.17224320769309998, -0.01790565252304077, 0.18146002292633057, -0.058009326457977295, 0.0025464720092713833, -0.1385333389043808, -0.14485639333724976, -0.1540750414133072, -0.07562360912561417, -0.05783520266413689], [-0.016528692096471786, 0.13928765058517456, -0.010720549151301384, -0.2288244068622589, -0.0686388686299324, 0.14276887476444244, 0.21439675986766815, 0.03444041684269905, -0.21361218392848969, 0.11970677226781845, 0.029255444183945656, -0.1970556229352951, 0.02190455049276352, -0.03508470952510834, -0.23812004923820496, -0.07152333855628967, -0.1667676866054535, -0.030147165060043335, 0.0748208686709404, 0.17329765856266022, -0.05693339556455612, -0.16624385118484497, -0.21362721920013428, -0.10078413784503937, 0.09867993742227554, -0.11453963071107864, 0.23441480100154877, 0.06534681469202042, 0.16267193853855133, -0.11633780598640442, -0.039735376834869385, 0.022103488445281982], [0.14489781856536865, 0.21918700635433197, -0.041121695190668106, 0.03301408514380455, -0.24891138076782227, -0.07450211048126221, -0.058861080557107925, -0.1776328682899475, -0.1705000251531601, 0.13551466166973114, 0.07827407866716385, -0.08699727803468704, 0.03493784740567207, 0.09031008929014206, 0.12758822739124298, -0.21526677906513214, -0.08245037496089935, -0.24135324358940125, 0.10242854803800583, 0.08656757324934006, 0.032363224774599075, 0.09185148030519485, -0.017313944175839424, 0.20662304759025574, -0.14740028977394104, 0.05704750120639801, 0.09662467241287231, 0.05893777310848236, 0.02039928175508976, 0.0663730725646019, -0.04599546641111374, 0.06961889564990997], [-0.0291929729282856, 0.1266375184059143, -0.1346898227930069, 0.158224418759346, 0.17868882417678833, -0.23939383029937744, -0.001212261850014329, 0.21306969225406647, -0.18944460153579712, 0.11157266050577164, 0.19770504534244537, 0.1395873874425888, 0.09175106883049011, -0.1181156113743782, 0.08307761698961258, -0.017623398452997208, -0.2582353949546814, -0.19088664650917053, -0.09787481278181076, -0.17337477207183838, -0.08238225430250168, -0.025814469903707504, -0.18424808979034424, -0.17028634250164032, 0.02028053253889084, 0.08152264356613159, -0.1122647374868393, 0.1761634200811386, 0.047560352832078934, 0.1762649118900299, -0.1203029677271843, -0.05989901348948479], [-0.10939665138721466, -0.12267953902482986, -0.05732045695185661, 0.16947613656520844, 0.01857660710811615, -0.14483807981014252, -0.18416862189769745, 0.04392356425523758, 0.17132247984409332, 0.09544580429792404, -0.03561528027057648, -0.008968966081738472, 0.15106329321861267, 0.05228988826274872, 0.031077640131115913, 0.181981161236763, 0.02664199285209179, 0.20692534744739532, -0.09558882564306259, -0.17613735795021057, -0.21391823887825012, -0.03231478109955788, 0.014769514091312885, -0.15629401803016663, 0.09002721309661865, -0.09212988615036011, 0.09498780965805054, -0.09290942549705505, -0.06628534197807312, -0.111785389482975, -0.1758309155702591, -0.021129729226231575], [-0.06594868749380112, -0.23411230742931366, 0.04823073372244835, -0.07546094805002213, -0.06934557855129242, -0.05511598661541939, -0.03569004684686661, -0.10003707557916641, 0.058178484439849854, -0.10077612102031708, -0.046062082052230835, 0.26640793681144714, -0.1713106334209442, 0.20619246363639832, 0.10764094442129135, -0.24400213360786438, -0.01867051050066948, 0.1866334229707718, 0.0610622875392437, -0.15634885430335999, -0.02536003477871418, 0.21414995193481445, 0.11677185446023941, -0.045384880155324936, -0.05872327461838722, -0.02282492257654667, 0.1861744225025177, 0.1369449496269226, 0.20891594886779785, 0.11197327077388763, 0.025079350918531418, -0.11179883778095245], [-0.228880375623703, -0.23491445183753967, 0.18031135201454163, 0.00213414803147316, -0.2669713795185089, 0.17198364436626434, -0.05362004041671753, 0.022198600694537163, 0.24332351982593536, 0.2345549315214157, -0.08835180103778839, 0.10899347811937332, -0.13190196454524994, -0.13529014587402344, 0.09596479684114456, 0.08440873771905899, 0.06990504264831543, 0.012147177942097187, -0.17372821271419525, -0.13082119822502136, -0.090802401304245, 0.04224419593811035, -0.14316827058792114, -0.022931016981601715, 0.08807005733251572, -0.0943121463060379, -0.1680515557527542, -0.17659753561019897, -0.025962665677070618, 0.028673870489001274, -0.11498600244522095, -0.1790561079978943]], "b": [0.0034233846236020327, 0.20881666243076324, -0.07258674502372742, -0.052126895636320114, 0.1700170338153839, 0.10671062022447586, 0.014301521703600883, 0.1719244420528412, 0.052405860275030136, -0.1076546311378479, 0.047599609941244125, -0.008833336643874645, 0.027008624747395515, -0.053171876817941666, -0.08929717540740967, -0.039593081921339035, 0.20476028323173523, -0.08868160843849182, 0.16313932836055756, 0.14534996449947357, -0.06175293028354645, 0.07585799694061279, 0.0670679360628128, -0.002905589295551181, 0.09649784862995148, 0.12995852530002594, 0.07882578670978546, -0.07547887414693832, 0.032438233494758606, -0.026997167617082596, -0.07634087651968002, -0.12964566051959991, -0.08587157726287842, -0.040136031806468964, 0.060364458709955215, 0.0804816260933876, -0.12669144570827484, 0.06553024798631668, 0.1569880247116089, -0.05687226727604866, 0.15384253859519958, 0.07726722955703735, 0.22750170528888702, 0.16574135422706604, -0.08271557092666626, 0.0768183097243309, 0.10210072994232178, 0.001109148608520627, 0.13590191304683685, 0.05864328518509865, 0.15727116167545319, 0.12724867463111877, 0.12282133102416992, 0.07965907454490662, 0.23996175825595856, 0.013729746453464031, 0.03206337243318558, 0.10860589891672134, 0.05083264410495758, 0.008459372445940971, 0.028745250776410103, 0.10481107980012894, 0.09724839776754379, -0.034422993659973145, 0.04581548646092415, -0.04787258803844452, -0.1261449158191681, -0.04874604940414429, 0.10167078673839569, 0.16459503769874573, 0.2050246000289917, 0.061600226908922195, -0.07057993113994598, 0.1797410249710083, -0.014719144441187382, 0.04391482472419739, 0.047999266535043716, 0.24332062900066376, -0.03428120166063309, 0.10329268872737885, 0.03843212500214577, 0.048586443066596985, -0.0618104562163353, -0.14012837409973145, 0.09524858742952347, -0.11459124833345413, -0.023329930379986763, 0.11009182780981064, -0.12038751691579819, 0.21242885291576385, 0.09285782277584076, 0.23715339601039886, -0.03150837495923042, 0.06650157272815704, 0.004847877658903599, 0.08017482608556747, 0.08111265301704407, -0.022392597049474716, 0.0031539055053144693, 0.03997904807329178, 0.1935950219631195, 0.19561436772346497, 0.2265295833349228]}, {"type": "lin", "act": "relu", "W": [[0.03504682704806328, 0.019523680210113525, 0.07641813904047012, 0.052711982280015945, 0.0674172192811966, 0.10809460282325745, 0.13998228311538696, -0.022834734991192818, -0.04747074097394943, -0.0823141410946846, 0.039485953748226166, 0.010455852374434471, 0.15012210607528687, -0.10283276438713074, 0.1512608826160431, 0.024703621864318848, 0.05643976479768753, 0.019607961177825928, -0.009837338700890541, -0.008764350786805153, -0.0345144160091877, -0.09707830846309662, 0.0594400092959404, 0.024680234491825104, 0.010849865153431892, 0.06026412174105644, 0.10625758767127991, 0.17705747485160828, -0.06123189628124237, 0.17279838025569916, -0.018391676247119904, -0.019977567717432976, 0.13856495916843414, 0.17476968467235565, -0.14699886739253998, -0.03281521052122116, 0.04254181310534477, -0.04353291168808937, 0.07746327668428421, -0.04606795683503151, -0.12813875079154968, 0.15969790518283844, 0.1031002625823021, 0.009168872609734535, 0.05468751862645149, -0.02580459788441658, 0.14642594754695892, 0.072488933801651, 0.10234188288450241, 0.11165054887533188, 0.1507471203804016, -0.08716568350791931, 0.042342592030763626, 0.044186487793922424, 0.12368673086166382, 0.04853307455778122, 0.016416043043136597, 0.17015112936496735, -0.1389828473329544, 0.08935432136058807, 0.04942743480205536, -0.06853008270263672, -0.049700312316417694, 0.1487804353237152, 0.0052687861025333405, 0.07177852094173431, -0.02182961441576481, 0.08901293575763702, -0.02343945950269699, 0.03634273633360863, 0.12749792635440826, 0.0711490586400032, -0.17747677862644196, -0.0016133516328409314, 0.010248024016618729, 0.17821703851222992, 0.14632093906402588, 0.010668372735381126, 0.12566153705120087, -0.07862064987421036, -0.047312408685684204, -0.004420881159603596, -0.007348278537392616, -0.06085234135389328, 0.056065212935209274, 0.028525905683636665, 0.1629413515329361, -0.031338199973106384, -0.008653382770717144, -0.006411980837583542, 0.12191300094127655, -0.026591064408421516, -0.05585189163684845, 0.09093239903450012, 0.07871554046869278, 0.08400028944015503, 0.06674334406852722, 0.01601848565042019, 0.18186059594154358, 0.021486956626176834, -0.08664623647928238, 0.05292612314224243, 0.04853162169456482], [-0.020328465849161148, -0.13952158391475677, -0.09441456943750381, 0.08519674092531204, 0.08161024749279022, 0.016419101506471634, 0.046147484332323074, 0.007355138193815947, -0.06930948793888092, -0.0008331708959303796, 0.012731947004795074, 0.007550620473921299, 0.009213914163410664, -0.01472634356468916, 0.025256676599383354, -0.01447803620249033, -0.04979095980525017, 0.07049894332885742, -0.06384062767028809, 0.01637563854455948, 0.1871829777956009, -0.020574059337377548, 0.13920234143733978, 0.044427573680877686, 0.03279029577970505, -0.08758576959371567, -0.12093572318553925, 0.15923766791820526, 0.002514009363949299, 0.10278695821762085, -0.03884606808423996, -0.08080015331506729, -0.054891545325517654, 0.02286754548549652, -0.009573129005730152, 0.048110343515872955, 0.1116735190153122, -0.04990807920694351, 0.027315260842442513, -0.013917326927185059, 0.12983070313930511, 0.1392745077610016, 0.10992582142353058, 0.16476435959339142, 0.038495853543281555, -0.16970154643058777, 0.0347772054374218, 0.05619988963007927, -0.052598875015974045, 0.1481667160987854, -0.052287403494119644, -0.06556704640388489, 0.04907947778701782, -0.01574806310236454, -0.08745840936899185, 0.014003071933984756, -0.1612904667854309, 0.07549402117729187, -0.01407062541693449, -0.03173821419477463, -0.015732016414403915, -0.12041525542736053, 0.04103938117623329, -0.01033792644739151, 0.09246338903903961, 0.0123070627450943, 0.0538354218006134, 0.04798054322600365, 0.12473620474338531, 0.006694276817142963, -0.02604389376938343, 0.030022667720913887, -0.08514861762523651, -0.00476427748799324, 0.012441486120223999, 0.13458454608917236, -0.040899429470300674, -0.05868881568312645, 0.0520889051258564, 0.03328482434153557, 0.0863560289144516, -0.019580893218517303, -0.06774488091468811, 0.0012795206857845187, -0.011577598750591278, 0.0906643494963646, -0.0820593535900116, 0.04448964074254036, -0.025588328018784523, 0.03928569704294205, 0.025297818705439568, 0.0049994452856481075, 0.032290272414684296, 0.02103596366941929, 0.029112523421645164, 0.02766832523047924, 0.007797001861035824, 0.0559338815510273, -0.0008800292853266001, 0.0436934269964695, 0.01268177293241024, -0.05362262576818466, -0.0450744703412056], [-0.04285377636551857, -0.04479457437992096, 0.1651986837387085, -0.03621535375714302, 0.17413485050201416, 0.013205715455114841, 0.11137448996305466, 0.0498921237885952, 0.17286056280136108, -0.07324187457561493, 0.07034767419099808, 0.03763013333082199, 0.01534478459507227, 0.1890527755022049, 0.045449573546648026, 0.012740643694996834, 0.11826393008232117, 0.016248764470219612, -0.06498906761407852, 0.10394781082868576, 0.0675269216299057, 0.055642805993556976, 0.0644206702709198, -0.12491059303283691, -0.07668367773294449, -0.13166064023971558, -0.016717933118343353, 0.017905553802847862, 0.0484410896897316, 0.08497138321399689, 0.008440898731350899, 0.00025045120855793357, 0.08939167112112045, -0.04170143976807594, 0.13542760908603668, -0.028078146278858185, -0.08606357872486115, 0.1763080656528473, 0.07642660290002823, 0.07297870516777039, -0.05570041388273239, 0.0030077986884862185, 0.03399356082081795, 0.167296901345253, -0.019483132287859917, -0.1438017040491104, 0.0991273745894432, 0.06360968202352524, -0.046620648354291916, -0.01520509272813797, 0.009556860662996769, 0.06110424920916557, -0.019407028332352638, 0.08128967136144638, -0.009614912793040276, 0.1362498551607132, -0.06942436099052429, 0.06376159191131592, 0.12142805010080338, -0.13408131897449493, 0.03849253058433533, -0.1103772222995758, 0.15924061834812164, 0.0822625532746315, 0.11986366659402847, -0.09310141205787659, -0.012121078558266163, 0.07956443727016449, 0.11299949139356613, 0.02111871913075447, 0.04762226343154907, -0.0037908670492470264, 0.06820331513881683, 0.15931034088134766, 0.04579291120171547, 0.04453740641474724, -0.07127004861831665, -0.1365353912115097, 0.08766151964664459, 0.024901453405618668, 0.13449425995349884, -0.022387128323316574, 0.1134137511253357, -0.1135355681180954, -0.030168933793902397, 0.027738073840737343, -0.04533993452787399, 0.015848133713006973, -0.1406552493572235, 0.1275867372751236, -0.155727356672287, 0.09995300322771072, 0.016818232834339142, -0.1063089445233345, -0.09811746329069138, 0.06666409969329834, -0.1242067888379097, 0.035488735884428024, -0.01878521591424942, 0.03875943273305893, 0.08788898587226868, 0.03970620036125183, 0.11264527589082718], [0.06860792636871338, -0.06167706474661827, 0.012648815289139748, -0.0016053002327680588, -0.0055852485820651054, -0.04087493196129799, 0.17186108231544495, -0.06581200659275055, 0.01963064819574356, -0.03734714910387993, 0.09729764610528946, -0.06055501848459244, -0.04775518923997879, 0.09029088169336319, -0.002889490220695734, 0.006913215387612581, -0.05272075906395912, 0.04643140733242035, -0.022294390946626663, -0.026835709810256958, -0.0050047230906784534, -0.03585470840334892, 0.09524306654930115, 0.07677959650754929, 0.06432795524597168, 0.015562213025987148, 0.01357913389801979, 0.07737527787685394, -0.0306792464107275, 0.07751341164112091, -0.014715111814439297, -0.08746594190597534, -0.09344155341386795, -0.0005554115050472319, 0.022104412317276, -0.061358608305454254, -0.008917413651943207, -0.05505930632352829, -0.05846697837114334, -0.07450196892023087, 0.06340913474559784, 0.029585765674710274, -0.07599688321352005, -0.11632382124662399, 0.031246887519955635, -0.10288672894239426, -0.09428027272224426, 0.02188667096197605, 0.0373610183596611, -0.02324395440518856, -0.0017165689496323466, 0.0037801493890583515, -0.020673733204603195, -0.02063928171992302, -0.08260919898748398, -0.1089145615696907, 0.1237230896949768, -0.1078653410077095, -0.0074409241788089275, -0.048162322491407394, 0.09497042745351791, 0.06412497162818909, -0.010389763861894608, -0.06865445524454117, 0.11565113067626953, 0.13670317828655243, 0.10054732114076614, -0.004052231088280678, -0.10797993093729019, -0.014161244966089725, 0.0627749040722847, -0.04890275001525879, 0.02546714060008526, -0.06727120280265808, 0.039767004549503326, -0.05395286902785301, -0.033428601920604706, 0.06973633170127869, -0.006943340413272381, -0.12739846110343933, 0.03345199674367905, 0.0922391414642334, 0.1637115776538849, -0.07559124380350113, -0.10774703323841095, 0.009055395610630512, 0.027518723160028458, -0.07839933782815933, -0.019214153289794922, -0.03510703146457672, -0.007769471034407616, -0.1365073025226593, -0.046747710555791855, -0.11529503017663956, -0.01688540354371071, 0.0792960524559021, 0.15104658901691437, 0.08132078498601913, 0.14984329044818878, -0.027276206761598587, 0.03552122786641121, -0.10086449235677719, 0.014221834018826485], [0.024574996903538704, 0.16582611203193665, -0.02642209082841873, -0.006778041832149029, 0.09159112721681595, 0.15229570865631104, -0.0005552309448830783, 0.16174601018428802, 0.043088387697935104, -0.021941639482975006, 0.05364634841680527, -0.040259502828121185, -0.01715013012290001, -0.023622963577508926, 0.0547650121152401, 0.04715195298194885, -0.03277530521154404, -0.011449803598225117, -0.06261283159255981, 0.015385698527097702, 0.08867935091257095, 0.0936923623085022, -0.0349685437977314, -0.050964921712875366, -0.0015898055862635374, 0.004069656599313021, -0.04691554233431816, 0.010973140597343445, 0.042312297970056534, -0.06873016804456711, 0.05573876574635506, 0.009466416202485561, 0.04142992943525314, -0.09165916591882706, 0.0038782001938670874, -0.04551165923476219, -0.039754126220941544, -0.009703150019049644, -0.11316847801208496, 0.01352674886584282, -0.0066940877586603165, -0.11910423636436462, -0.09790157526731491, -0.06440934538841248, 0.028925130143761635, -0.058705080300569534, -0.02554238960146904, -0.14251457154750824, -0.0222978126257658, -0.021733563393354416, 0.01624608412384987, 0.1525738388299942, -0.07496102154254913, 0.05761933699250221, 0.06892760097980499, 0.03603281453251839, -0.0772344172000885, 0.1017950028181076, -0.030771253630518913, 0.03004670888185501, 0.1871555745601654, -0.017955999821424484, 0.08910059183835983, 0.03214234858751297, 0.07450859993696213, -0.028788583353161812, -0.08201657980680466, -0.08064571022987366, 0.10282556712627411, 0.01373539213091135, -0.09185682982206345, -0.022097473964095116, -0.07609376311302185, 0.00693547585979104, -0.014069358818233013, 0.10117748379707336, 0.013933268375694752, -0.11960222572088242, 0.005698155611753464, -0.032546304166316986, 0.041529592126607895, 0.026184462010860443, 0.12141726911067963, 0.040825821459293365, -0.014961554668843746, 0.0033046151511371136, -0.1156252846121788, 0.14033648371696472, -0.014455781318247318, 0.0340246856212616, -0.07575298845767975, -0.01562239695340395, -0.037492744624614716, -0.1155334860086441, -0.03806128725409508, -0.03639000281691551, -0.10960087180137634, 0.005003116559237242, 0.03828715905547142, -0.009333210997283459, 0.09867262095212936, 0.053248099982738495, 0.10292434692382812], [0.11388623714447021, -0.011512706987559795, -0.08612268418073654, -0.03519546613097191, -0.01181761734187603, 0.04933780059218407, 0.04737261310219765, 0.05525679886341095, 0.18230196833610535, 0.1456306427717209, -0.04310674965381622, 0.14946793019771576, -0.014064352959394455, -0.02140957862138748, 0.0188454557210207, -0.06296030431985855, 0.07136736065149307, -0.0478048175573349, 0.010048630647361279, 0.010253439657390118, -0.1760653704404831, -0.014036396518349648, -0.15287001430988312, -0.042266737669706345, 0.16153587400913239, 0.03292703256011009, 0.13482756912708282, -0.08271466940641403, 0.0759659931063652, -0.15748080611228943, 0.13131998479366302, 0.09589558839797974, -0.11815709620714188, -0.012726499699056149, -0.13893072307109833, 0.03921552374958992, -0.10003586858510971, 0.0961860790848732, 0.019560223445296288, 0.08728606253862381, 0.000576543970964849, -0.06193767860531807, 0.01851777732372284, 0.013862540014088154, -0.09967214614152908, 0.021414373070001602, 0.011422966606914997, 0.11368636041879654, 0.14686422049999237, 0.02895301766693592, 0.12373106926679611, 0.15534880757331848, -0.05467098206281662, 0.049303971230983734, 0.006901151966303587, -0.07051075994968414, -0.08540165424346924, -0.001151071977801621, -0.07344657927751541, -0.03333635255694389, -0.04104742407798767, 0.0568280853331089, 0.022635512053966522, 0.04431542381644249, -0.0577908530831337, -0.1266288459300995, 0.011743289418518543, -0.029679270461201668, -0.0828850194811821, 0.012893600389361382, 0.13475468754768372, 0.1159026175737381, 0.0518038235604763, -0.0017864968394860625, -0.05147676542401314, -0.040248990058898926, 0.03333943337202072, 0.010602396912872791, 0.057732630521059036, 0.11832331866025925, 0.05797167494893074, 0.08563186973333359, -0.002984212478622794, 0.04547968879342079, -0.07516645640134811, 0.0615510493516922, -0.024246491491794586, 0.05453679338097572, 0.14496608078479767, -0.009226445108652115, 0.07655224949121475, -0.04090813919901848, 0.08120542019605637, -0.0625654011964798, -0.1483037918806076, 0.025913167744874954, -0.0852193683385849, -0.0875139907002449, -0.047765135765075684, 0.006038696505129337, 0.06729879230260849, 0.10422319918870926, 0.10653768479824066], [0.011129025369882584, 0.12537331879138947, 0.1603047400712967, 0.1378544270992279, 0.10440260171890259, -0.012524132616817951, -0.0791972205042839, -0.02417217567563057, -0.1077403873205185, -0.06456467509269714, 0.050094544887542725, -0.037218064069747925, -0.01943526789546013, 0.1338208019733429, -0.10214727371931076, -0.10815677046775818, 0.0029579675756394863, 0.004503367468714714, 0.05823545157909393, 0.016813384369015694, 0.034488171339035034, 0.018707849085330963, -0.10489510744810104, 0.18510591983795166, 0.011080899275839329, -0.000403831887524575, 0.07974260300397873, -0.01583826169371605, 0.07445105910301208, 0.08926857262849808, -0.06676433235406876, -0.02024298720061779, -0.16625820100307465, 0.16284018754959106, 0.0428856685757637, 0.029749108478426933, 0.057427890598773956, 0.052273157984018326, -0.09103675186634064, -0.03572172299027443, 0.09485966712236404, 0.05412443354725838, 0.03423637896776199, -0.08567724376916885, 0.019461696967482567, 0.18809667229652405, -0.03429229557514191, -0.002724013989791274, 0.07404996454715729, 0.02132478356361389, -0.01794065535068512, -0.06385871022939682, 0.08902717381715775, 0.010641726665198803, 0.08448895066976547, 0.046725522726774216, 0.15711155533790588, 0.006678159348666668, 0.04377071186900139, 0.0771607980132103, -0.017963232472538948, 0.03402559086680412, 0.03427587077021599, 0.12395235896110535, 0.03476525470614433, 0.01485372707247734, 0.05734912306070328, -0.05513034760951996, -0.054922621697187424, -0.10732520371675491, 0.06482519209384918, -0.0696800947189331, 0.0814552828669548, -0.005213920027017593, -0.16295656561851501, 0.0016368187498301268, 0.18302364647388458, 0.06224704533815384, 0.001986666349694133, 0.09058897197246552, 0.15088263154029846, -0.0430414155125618, -0.009362580254673958, -0.05113762989640236, 0.18188036978244781, 0.08013153076171875, 0.12029558420181274, 0.015715964138507843, -0.0019167124992236495, -0.07546587288379669, 0.05231580138206482, 0.05724964663386345, -0.11504888534545898, -0.0004591339093167335, 0.07339770346879959, 0.053009163588285446, 0.16620919108390808, 0.15867412090301514, 0.11251045763492584, 0.12655232846736908, 0.0017515197396278381, -0.06034966558218002, -0.13692791759967804], [-0.09165041148662567, -0.003652166808024049, -0.054521143436431885, -0.026170121505856514, 0.04271260276436806, -0.06620475649833679, 0.022465160116553307, -0.02165869064629078, 0.1560225635766983, 0.0959789901971817, -0.030377132818102837, 0.031009582802653313, 0.021786551922559738, 0.09908890724182129, -0.08371596038341522, 0.0933166965842247, 0.029415035620331764, 0.015076739713549614, -0.023062316700816154, 0.14836402237415314, -0.028402507305145264, -0.006089196540415287, -0.043822843581438065, -0.034285664558410645, 0.04271572455763817, 0.06495169550180435, 0.011140761896967888, -0.02993813157081604, 0.012417425401508808, -0.09986287355422974, 0.016339795663952827, -0.05728137120604515, -0.0029933960177004337, 0.010420017875730991, 0.0741710215806961, -0.021756604313850403, 0.0488663949072361, 0.07905830442905426, 0.017674308270215988, -0.015521981753408909, 0.025753511115908623, 3.369943078723736e-05, -0.1785457730293274, 0.030396267771720886, 0.008168580010533333, 0.07582565397024155, 0.09369944036006927, -0.02894826978445053, -0.12380848824977875, -0.15205132961273193, 0.10715094208717346, 0.12876564264297485, -0.10468482971191406, -0.025120187550783157, -0.045052144676446915, 0.10023962706327438, -0.038395728915929794, -0.06787781417369843, 0.07656575739383698, -0.10527803748846054, 0.00875635351985693, 0.039237480610609055, 0.023908259347081184, 0.04721139371395111, 0.042436596006155014, -0.025311987847089767, 0.01857944019138813, -0.052514560520648956, -0.000592153228353709, -0.007972012273967266, 0.11599892377853394, 0.03497594594955444, 0.06507789343595505, 0.009599791839718819, 0.12465895712375641, -0.0048630135133862495, -0.041613757610321045, 0.13421085476875305, 0.016580769792199135, 0.11355860531330109, 0.0920465812087059, 0.016389092430472374, 0.010208426974713802, -0.07202085852622986, 0.0017759294714778662, -0.018168501555919647, -0.12694795429706573, 0.025005901232361794, -0.04765960946679115, 0.02530745044350624, 0.0321810320019722, 0.15428322553634644, 0.14825160801410675, -0.02597038261592388, -0.029670799151062965, -0.020416226238012314, -0.07274125516414642, -0.07347641885280609, -0.1296774446964264, 0.04442938044667244, 0.11752254515886307, 0.009618479758501053, -0.06621392071247101], [0.06600615382194519, 0.004844898823648691, 0.13587485253810883, 0.08557787537574768, 0.08547913283109665, 0.07311560958623886, -0.02155447192490101, 0.05635201930999756, -0.09466403722763062, -0.10857828706502914, 0.051400840282440186, 0.048143815249204636, 0.11463672667741776, 0.07365522533655167, 0.008077937178313732, 0.08111821115016937, 0.10384006798267365, -0.1359221637248993, 0.007690591737627983, 0.013020499609410763, 0.02461906708776951, -0.01131877489387989, -0.09800389409065247, 0.09686896950006485, -0.0059621320106089115, 0.0562172532081604, 0.1807546764612198, 0.1639765053987503, 0.09276501834392548, -0.02366403117775917, 0.10475500673055649, -0.06701229512691498, -0.09914864599704742, 0.1130448430776596, 0.00839377474039793, -0.031084876507520676, 0.04668828099966049, 0.05429748818278313, 0.11577709019184113, 0.18679477274417877, -0.07352244108915329, 0.01813354715704918, 0.08898723125457764, -0.00655002985149622, 0.010273706167936325, 0.07836516946554184, -0.07326500117778778, -0.11926604807376862, 0.0043538776226341724, 0.07912927865982056, -0.1557818055152893, -0.024547766894102097, 0.12501640617847443, 0.0008680850150994956, 0.07890681177377701, 0.11810830235481262, 0.03874875232577324, -0.0730675458908081, 0.06197059899568558, -0.022507915273308754, 0.09857040643692017, 0.032901011407375336, 0.05629996210336685, 0.14416328072547913, 0.06311758607625961, -0.07932143658399582, -0.17190884053707123, -0.019258147105574608, -0.03552839159965515, 0.12069080770015717, -0.08468947559595108, 0.027626026421785355, 0.14749585092067719, 0.015594897791743279, -0.007207308895885944, 0.02372049354016781, -0.09198521822690964, -0.03675400838255882, -0.07803568243980408, -0.07949335128068924, 0.043429527431726456, -0.02798054926097393, 0.00968472845852375, -0.02383611537516117, 0.08126610517501831, -0.02107231132686138, 0.06482874602079391, -0.1114998310804367, -0.16449645161628723, 0.09030111879110336, 0.06987228244543076, 0.13327188789844513, 0.0758725255727768, -0.060695406049489975, 0.1613653153181076, 0.11710169166326523, -0.0811750665307045, -0.07120656967163086, 0.03905308246612549, 0.19237551093101501, 0.05742674693465233, 0.08478576689958572, -0.0130138099193573], [-0.05546671152114868, 0.022948967292904854, -0.08803398162126541, -0.04334257170557976, -0.005027036182582378, -0.05421417951583862, -0.06950142979621887, -0.012867922894656658, 0.14952288568019867, 0.15253016352653503, -0.010179501958191395, 0.02463335357606411, -0.06940688192844391, -0.05956866219639778, -0.01813124120235443, -0.026238350197672844, 0.02259405329823494, 0.0669301375746727, 0.165307879447937, 0.13157491385936737, -0.12856876850128174, 0.09969569742679596, -0.11104532331228256, -0.10375014692544937, 0.11023467034101486, -0.018156470730900764, -0.026341941207647324, -0.10438094288110733, 0.0340614877641201, -0.0945887342095375, 0.04697541519999504, 0.09547582268714905, 0.014635328203439713, -0.05493392422795296, 0.029901307076215744, 0.1284925937652588, 0.0040293168276548386, 0.12408982962369919, 0.03884200006723404, 0.10848524421453476, 0.018609562888741493, -0.09188300371170044, 0.047868020832538605, 0.03052240051329136, -0.06358464807271957, -0.023769661784172058, -0.005532327573746443, 0.06939529627561569, 0.0476066991686821, -0.07365252822637558, 0.07127861678600311, 0.1340828388929367, -0.04226348549127579, -0.049022477120161057, 0.15970465540885925, -0.04956905171275139, 0.017622550949454308, -0.03509541600942612, -0.035155266523361206, -0.08644941449165344, 0.016339091584086418, 0.07679368555545807, 0.002638715784996748, 0.053015921264886856, 0.1222836822271347, 0.06490710377693176, 0.04083244130015373, 0.04606485739350319, 0.10998152196407318, 0.006238915026187897, -0.020461950451135635, -0.058328427374362946, 0.15275469422340393, -0.057318590581417084, -0.10845528542995453, -0.08193442970514297, 0.0235589649528265, 0.1013156995177269, -0.051589470356702805, 0.12149415910243988, -0.04242955893278122, 0.12262865900993347, 0.035618867725133896, 0.03467303514480591, 0.0019232366466894746, 0.0062486943788826466, 0.03165529668331146, 0.011922457255423069, 0.18556587398052216, 0.08768662065267563, 0.035751938819885254, -0.11453431844711304, 0.14197967946529388, 0.07903291285037994, -0.1556718349456787, -0.056683458387851715, 0.08044952154159546, -0.04564264789223671, 0.0488450713455677, -0.047408103942871094, 0.08551905304193497, 0.16817915439605713, 0.01637932099401951], [0.17842018604278564, -0.08931216597557068, -0.009125675074756145, -0.017805615440011024, -0.029840640723705292, 0.03407452255487442, 0.18220295011997223, 0.0024867975153028965, 0.13121454417705536, 0.13819682598114014, 0.01673341915011406, -0.17031453549861908, 0.04805286228656769, -0.08021751791238785, -0.06512798368930817, 0.04946433752775192, 0.0627618134021759, -0.04598866030573845, 0.06348991394042969, -0.023999791592359543, -0.11891712993383408, 0.023425083607435226, 0.1621195673942566, -0.005114622879773378, -0.0008368456619791687, -0.05522480234503746, -0.0533682145178318, 0.01996288262307644, -0.042308613657951355, 0.125604048371315, 0.036790795624256134, -0.005375768058001995, 0.1658339500427246, 0.030755190178751945, -0.05371514707803726, 0.0005339656490832567, -0.07613658905029297, -0.06600474566221237, 0.09513319283723831, 0.0006828966434113681, -0.01705896109342575, 0.06252586841583252, 0.11418017745018005, -0.08665194362401962, 0.09395535290241241, 0.007354582194238901, -0.04564923420548439, 0.06382521986961365, 0.006322240456938744, 0.09052405506372452, 0.1462305188179016, 0.008551961742341518, 0.023400235921144485, 0.04279133677482605, 0.07451336085796356, -0.06633538752794266, -0.012184743769466877, 0.049300700426101685, -0.09882919490337372, 0.0071750120259821415, 0.013819473795592785, -0.173197939991951, -0.13666768372058868, 0.09820473939180374, -0.1382645070552826, 0.14195767045021057, 0.059683650732040405, -0.03052256628870964, 0.024791203439235687, 9.11104361875914e-05, 0.17611326277256012, 0.019804511219263077, 0.0039778901264071465, 0.14514485001564026, 0.07991671562194824, 0.14635001122951508, 0.02552402950823307, -0.019205661490559578, 0.14449802041053772, 0.027444178238511086, 0.017983175814151764, 0.023951858282089233, -0.011807762086391449, -0.03249020129442215, -0.017938164994120598, 0.021483691409230232, 0.01351741049438715, 0.008401008322834969, -0.08545829355716705, -0.01240102481096983, 0.12857398390769958, -0.05727057158946991, -0.07582402974367142, -0.030580781400203705, -0.040067873895168304, 0.07593408972024918, 0.04681038483977318, 0.1584409773349762, 0.011202293448150158, -0.08362390846014023, 0.028193816542625427, 0.057050079107284546, 0.07827267050743103], [0.027689216658473015, -0.005210084840655327, 0.058475419878959656, -0.027165738865733147, 0.1405346542596817, -0.08295328915119171, 0.07217653840780258, 0.07091504335403442, 0.09562064707279205, 0.11344684660434723, 0.09448901563882828, 0.17171791195869446, 0.1538211852312088, 0.149642214179039, 0.024171452969312668, 0.15975727140903473, -0.03723662346601486, 0.07608496397733688, 0.06355767697095871, 0.17066965997219086, 0.059663645923137665, -0.0067329793237149715, -0.06855170428752899, 0.08792360872030258, 0.03373745083808899, 0.014848362654447556, 0.04865047335624695, 0.09925951808691025, -0.053139109164476395, 0.0395471565425396, 0.1104540228843689, -0.11024805158376694, -0.05292479693889618, 0.10405856370925903, -0.00333113013766706, -0.061156660318374634, 0.07380267232656479, 0.06821424514055252, -0.09337670356035233, 0.15440693497657776, 0.03923819586634636, -0.0960363894701004, -0.021910924464464188, -0.04252422973513603, -0.0016267114551737905, 0.14434006810188293, -0.0046518356539309025, 0.03800979256629944, -0.04992222413420677, 0.0842607244849205, 0.09359333664178848, -0.0329151414334774, 0.12018930912017822, 0.011004661209881306, 0.005633678752928972, -0.0348481684923172, -0.019057393074035645, 0.04415811598300934, -0.04027393087744713, 0.0062795826233923435, 0.1806924045085907, -0.03538023307919502, 0.041553057730197906, 0.036953672766685486, -0.04637816175818443, 0.07505675405263901, 0.02123103477060795, 0.0708080604672432, 0.05037469416856766, -0.05014323815703392, -0.05931859090924263, -0.008529256097972393, 0.13877595961093903, -0.03047831356525421, 0.051225196570158005, 0.03246741741895676, 0.11445330083370209, 0.12566755712032318, -0.09892231971025467, -0.07072977721691132, 0.05397139862179756, -0.06826253980398178, 0.0007742521702311933, -0.1028381809592247, 0.015589731745421886, 0.038120873272418976, 0.03633332997560501, 0.06928139925003052, 0.025725996121764183, 0.030372949317097664, -0.019364995881915092, 0.1040845438838005, -0.011849766597151756, 