{"model": "node_mlp_pca_kd", "layers": [{"type": "lin", "act": "relu", "W": [[-0.27958646416664124, 0.1842021346092224, 0.06808008998632431, -0.07792175561189651, -0.09033538401126862, 0.2931443452835083, 0.08191727846860886, -0.20967181026935577, 0.007434772327542305, -0.35168901085853577, 0.10577243566513062, -0.006338405888527632, -0.3221080005168915, -0.25637754797935486, 0.010992118157446384, -0.01922423392534256, 0.23373205959796906, -0.2409479171037674, 0.24904343485832214, -0.21051955223083496, 0.12046006321907043, 0.0491371676325798, -0.28317388892173767, -0.11560041457414627, 0.13670212030410767, -0.06100010126829147, -0.01868216134607792, 0.3020135164260864, 0.18774037063121796, -0.022110389545559883, 0.17142339050769806, -0.043755073100328445], [-0.3015221357345581, -0.10367042571306229, -0.09564770758152008, 0.254231333732605, 0.07730785012245178, 0.06347940117120743, -0.20752206444740295, -0.031120935454964638, 0.29234153032302856, 0.16709387302398682, 0.06714745610952377, -0.24733635783195496, 0.18246440589427948, 0.0785922035574913, -0.1893051415681839, 0.1136711984872818, 0.038223814219236374, -0.0566309429705143, 0.14829906821250916, 0.3967774510383606, -0.0271323099732399, 0.12285998463630676, 0.19840098917484283, -0.03406919911503792, 0.015428125858306885, -0.10419076681137085, -0.07790414988994598, 0.09734053909778595, -0.01402611006051302, -0.22057123482227325, 0.14994719624519348, -0.0974288210272789], [-0.13479173183441162, -0.21221880614757538, 0.010126164183020592, 0.17083977162837982, -0.11728368699550629, -0.1456402987241745, 0.3146049678325653, 0.1652994602918625, 0.018108094111084938, -0.14694584906101227, -0.07650245726108551, -0.141880601644516, -0.12294460088014603, -0.01627400331199169, -0.14987434446811676, -0.02286250703036785, -0.1295298933982849, -0.035612553358078, 0.05855756625533104, -0.09097389876842499, -0.3201027512550354, 0.2660062611103058, -0.15188750624656677, 0.0751945972442627, 0.25567707419395447, 0.11321701854467392, -0.06462207436561584, 0.11776255816221237, -0.13677267730236053, 0.11533290147781372, 0.07071369141340256, -0.05816331505775452], [0.2864629030227661, 0.05315578356385231, -0.15774165093898773, -0.07134971022605896, -0.07060100883245468, 0.10484487563371658, 0.32357487082481384, -0.23690539598464966, 0.1253443956375122, 0.09687987715005875, -0.10153787583112717, -0.11590780317783356, -0.015575259923934937, -0.16201426088809967, 0.16970881819725037, -0.08267863839864731, -0.23490789532661438, -0.0309692844748497, -0.1103719174861908, -0.1860959678888321, -0.06817136704921722, -0.05942123755812645, -0.12432653456926346, -0.10024847835302353, 0.21304059028625488, -0.0019868239760398865, -0.14226476848125458, -0.08951930701732635, 0.3951754868030548, -0.1319599747657776, -0.22301408648490906, 0.1246112659573555], [-0.3021681606769562, 0.09485804289579391, 0.09502118825912476, 0.18957635760307312, 0.1819041669368744, -0.07539210468530655, -0.023473672568798065, 0.2805911600589752, 0.031383246183395386, -0.11448340117931366, 0.12689238786697388, -0.24197855591773987, -0.0433366559445858, 0.07942571491003036, 0.030208688229322433, 0.047219838947057724, 0.121719591319561, -0.13566003739833832, 0.026510056108236313, 0.17283256351947784, -0.09409001469612122, -0.1603410840034485, 0.08168820291757584, 0.10940849781036377, 0.19293832778930664, 0.046844836324453354, 0.24862924218177795, 0.10586300492286682, -0.13435645401477814, -0.38072794675827026, 0.08208107203245163, -0.24435880780220032], [0.1344459503889084, -0.2657814621925354, -0.2797788977622986, -0.13328532874584198, -0.015776053071022034, -0.15934930741786957, 0.255602091550827, 0.12076892703771591, -0.13135766983032227, 0.01435898058116436, 0.009801534935832024, 0.1473376750946045, 0.2799012064933777, -0.15071876347064972, -0.22648204863071442, 0.0717395767569542, 0.0796324834227562, 0.36495548486709595, -0.12917792797088623, 0.3109996020793915, -0.00391632504761219, 0.3495771288871765, -0.05743023008108139, 0.020678814500570297, 0.057630330324172974, 0.08128368854522705, -0.012584209442138672, 0.3013532757759094, 0.23639710247516632, 0.16506992280483246, -0.194647878408432, -0.05044092237949371], [0.001661353511735797, 0.24769720435142517, 0.0014050448080524802, 0.11860410869121552, -0.21317704021930695, 0.16184420883655548, 0.20611782371997833, 0.04994507133960724, 0.14306369423866272, -0.15754574537277222, 0.07230527698993683, -0.20803509652614594, 0.26390358805656433, -0.13786542415618896, -0.37405309081077576, -0.1765853613615036, 0.31065598130226135, -0.1718885600566864, 0.09536486119031906, 0.16281209886074066, -0.007587304338812828, 0.16903364658355713, 0.02902585081756115, -0.0848373994231224, -0.34911730885505676, 0.28189122676849365, -0.2184135764837265, -0.005879171658307314, -0.12409383058547974, 0.32547709345817566, 0.05572286620736122, 0.013222070410847664], [-0.24495333433151245, -0.2771635055541992, 0.005271604284644127, 0.0006965462234802544, -0.2552039623260498, -0.0064409696497023106, -0.10252474248409271, -0.10234442353248596, -0.1226387694478035, 0.18890917301177979, 0.2060372233390808, 0.300018310546875, 0.12110743671655655, 0.01458701305091381, 0.1315445601940155, 0.022243432700634003, 0.2045775055885315, 0.040987636893987656, 0.001998055959120393, -0.16042008996009827, -0.03595822677016258, 0.31635692715644836, 0.016171609982848167, 0.06587696075439453, -0.09957372397184372, -0.11426527798175812, 0.2702396512031555, 0.1001364067196846, 0.003219055011868477, -0.06602884829044342, -0.17030060291290283, -0.28728801012039185], [-0.15698134899139404, -0.17794862389564514, -0.00525791198015213, -0.2544308602809906, -0.1320139765739441, 0.1260717660188675, 0.14500144124031067, -0.08824414014816284, 0.2388346642255783, -0.053546272218227386, 0.20242939889431, 0.20960961282253265, -0.11139960587024689, 0.10148043930530548, -0.026741361245512962, -0.156200110912323, 0.13202182948589325, 0.08491748571395874, 0.022887250408530235, -0.14601130783557892, -0.13577617704868317, 0.02361465059220791, 0.019470682367682457, -0.2517586350440979, -0.1925595998764038, -0.11892607808113098, -0.061805903911590576, 0.14668673276901245, 0.136671781539917, 0.1474199891090393, 0.18848203122615814, -0.01638174243271351], [-0.45116952061653137, -0.29309430718421936, -0.1788204312324524, -0.04088791087269783, -0.025855673477053642, -0.008336293511092663, 0.03009849786758423, 0.15894880890846252, -0.03079615719616413, -0.1519133448600769, 0.2765558660030365, 0.1136222556233406, 0.04052489250898361, 0.034181252121925354, -0.21242207288742065, 0.01057551708072424, 0.3235655128955841, -0.03745037689805031, 0.12657450139522552, -0.18344669044017792, -0.3399428129196167, 0.13084904849529266, 0.1127416118979454, -0.08406296372413635, -0.04097367823123932, 0.2018163800239563, -0.0778966099023819, 0.2205258160829544, 0.11770481616258621, -0.05699259787797928, 0.14791423082351685, -0.05137353390455246], [-0.25132668018341064, -0.15407028794288635, 0.013661419041454792, 0.24569594860076904, 0.015321601182222366, -0.04779796302318573, -0.06340822577476501, 0.48508262634277344, 0.03695332258939743, -0.0757964551448822, 4.118386277696118e-05, -0.2863587737083435, -0.08105005323886871, 0.13132084906101227, 0.15467436611652374, 0.0028832778334617615, -0.041684046387672424, 0.14658038318157196, 0.10315876454114914, 0.2231515347957611, -0.035551831126213074, 0.04353751987218857, -0.07921846956014633, -0.06708691269159317, 0.12975099682807922, 0.026597268879413605, 0.004885674454271793, 0.017336083576083183, -0.03721027076244354, -0.009458370506763458, 0.337857723236084, -0.01863846741616726], [-0.24939844012260437, -0.23590326309204102, 0.3336106836795807, 0.14367493987083435, 0.09685137122869492, 0.2720041871070862, 0.09550156444311142, -0.00973923597484827, 0.3161185085773468, 0.014090307988226414, -0.20011360943317413, 0.1029888391494751, -0.2681366205215454, -0.0064211636781692505, 0.24015916883945465, 0.05491532012820244, -0.07795640826225281, 0.15184377133846283, 0.2120938003063202, 0.06496763229370117, 0.13089755177497864, 0.21150566637516022, -0.013972928747534752, 0.08614019304513931, -0.17263482511043549, -0.09674409031867981, -0.032829806208610535, 0.01490361150354147, 0.07027607411146164, 0.13357408344745636, 0.06097104400396347, 0.03617071360349655], [-0.3517988622188568, -0.1606503278017044, -0.0596325658261776, -0.011113366112112999, -0.4150387942790985, 0.11925520747900009, -0.11925532668828964, 0.027253227308392525, 0.06131483241915703, 0.07746249437332153, 0.14781594276428223, 0.06837879121303558, -0.021575437858700752, -0.14040544629096985, -0.3062790632247925, 0.08662478625774384, 0.09944753348827362, -0.18846412003040314, -0.10472238063812256, -0.040796052664518356, -0.19309979677200317, 0.1323474794626236, -0.21745899319648743, -0.012184388004243374, 0.031807318329811096, -0.052663855254650116, -0.03952503576874733, 0.12694115936756134, 0.027591200545430183, 0.033588457852602005, 0.022201647982001305, 0.04911545291543007], [0.1381392776966095, 0.012063872069120407, -0.1314266473054886, -0.03378736972808838, 0.16861513257026672, -0.15121254324913025, -0.09146252274513245, 0.47465014457702637, -0.08898202329874039, -0.06332836300134659, -0.01742476597428322, -0.1645783931016922, -0.14689137041568756, 0.009097748436033726, 0.015073989517986774, 0.060380250215530396, -0.08906203508377075, 0.06109018623828888, 0.07872889190912247, -0.4193202257156372, 0.0005443866248242557, 0.41983625292778015, -0.1352536380290985, -0.048745930194854736, 0.11277502775192261, 0.1492297649383545, -0.20742183923721313, -0.046169087290763855, 0.22311203181743622, 0.13338367640972137, 0.11369521170854568, -0.05535732954740524], [-0.07535313814878464, -0.3632124662399292, -0.15267041325569153, 0.025945186614990234, 0.0817667618393898, -0.08105537295341492, -0.06543690711259842, 0.11156769841909409, 0.248804971575737, -0.05778788402676582, 0.10712725669145584, -0.3831971287727356, -0.2011917233467102, 0.1674400120973587, -0.12463388592004776, -0.12594927847385406, -0.13969002664089203, -0.09599050134420395, 0.30570486187934875, 0.23315858840942383, -0.19530613720417023, 0.09678607434034348, 0.09677688777446747, -0.15949445962905884, -0.26421353220939636, 0.012331326492130756, -0.1614014059305191, -0.019462602213025093, -0.03751162812113762, -0.13514283299446106, 0.48599889874458313, -0.01780305616557598], [0.0692245289683342, -0.15719442069530487, 0.008922704495489597, 0.19885361194610596, 0.2538495659828186, -0.13652434945106506, -0.15178097784519196, 0.3029260039329529, 0.13291525840759277, -0.021480709314346313, 0.021008264273405075, 0.11945561319589615, 0.04932478442788124, -0.16794617474079132, 0.2798217833042145, 0.16388626396656036, 0.07476362586021423, 0.31251028180122375, 0.34466269612312317, -0.03162403032183647, -0.061633843928575516, 0.032358184456825256, -0.09199364483356476, 0.068910613656044, 0.042816318571567535, -0.028093714267015457, 0.24811877310276031, 0.08370636403560638, -0.2596478760242462, -0.22667454183101654, 0.18348616361618042, -0.2652195990085602], [-0.3559238910675049, -0.055656347423791885, 0.1847541332244873, -0.0754716545343399, -0.0146113196387887, 0.01694849506020546, -0.09489422291517258, -0.08745785057544708, 0.12110351771116257, 0.14871349930763245, -0.09195972979068756, 0.2588009536266327, 0.024198291823267937, -0.12278100103139877, -0.3054661452770233, -0.11131240427494049, -0.17198356986045837, 0.29099100828170776, 0.09609202295541763, -0.27661406993865967, -0.014823445118963718, -0.011372040025889874, 0.03944345936179161, 0.19636964797973633, 0.05469125509262085, 0.1826857328414917, 0.0327448807656765, 0.278464138507843, 0.15717311203479767, 0.2942012548446655, -0.09558198601007462, -0.1438063681125641], [0.3250815272331238, 0.2728791832923889, -0.10110233724117279, 0.038724709302186966, -0.004615573212504387, -0.26721927523612976, 0.15707431733608246, -0.0021553162951022387, -0.2112502157688141, -0.03426537662744522, -0.20755623281002045, 0.0035227839834988117, -0.10038451105356216, 0.08442407101392746, 0.1278952956199646, 0.022626493126153946, 0.11917446553707123, -0.04058891534805298, 0.08046261221170425, 0.2211441844701767, -0.05054016038775444, -0.26131731271743774, -0.0012886199401691556, 0.03307132050395012, 0.047014735639095306, 0.0867847427725792, 0.03737252205610275, 0.2531474232673645, -0.09254998713731766, 0.40146732330322266, -0.12130403518676758, -0.02290574461221695], [-0.22924889624118805, -0.1608240306377411, 0.09160467237234116, 0.1284387856721878, 0.13959018886089325, 0.13996312022209167, -0.08138082921504974, -0.20972388982772827, 0.10206001251935959, -0.0942365974187851, -0.26390066742897034, 0.2869078516960144, -0.17007994651794434, 0.16254568099975586, 0.2554112374782562, -0.07037429511547089, 0.08999858051538467, 0.2762608528137207, 0.13335072994232178, -0.17424018681049347, -0.11766926199197769, -0.0764661356806755, -0.1524345576763153, 0.12773434817790985, -0.19075466692447662, -0.10813864320516586, 0.240201935172081, -0.1005406603217125, 0.014744647778570652, -0.15957129001617432, -0.21093270182609558, -0.2671726942062378], [-0.18670547008514404, 0.2638770341873169, 0.17218251526355743, 0.24856893718242645, 0.3126249313354492, -0.09729372709989548, 0.0234534852206707, -0.06198480725288391, -0.12472069263458252, -0.08915719389915466, -0.03446752950549126, -0.04701017215847969, 0.09415332973003387, -0.06161891669034958, 0.020421776920557022, -0.031056560575962067, -0.2232571840286255, 0.24253806471824646, 0.31757280230522156, -0.3027525246143341, 0.07954153418540955, -0.09080328047275543, 0.04535796120762825, 0.3378086984157562, -0.3097090423107147, -0.01266215555369854, 0.16491232812404633, -0.1510135680437088, -0.009567836299538612, -0.16977842152118683, 0.044705841690301895, 0.10804155468940735], [-0.1443822979927063, -0.018604490906000137, 0.046328846365213394, -0.024967728182673454, 0.0061492458917200565, 0.13913899660110474, 0.2743303179740906, -0.15334543585777283, -0.018971098586916924, -0.12662692368030548, -0.2171192318201065, -0.09721285849809647, 0.1609860062599182, 0.11774472147226334, 0.09441652148962021, -0.33790504932403564, 0.18882916867733002, 0.18184511363506317, -0.06477469205856323, -0.30605125427246094, -0.008345440030097961, -0.29591643810272217, -0.18606550991535187, -0.1790974736213684, -0.0966576635837555, -0.0643949955701828, -0.1945289522409439, -0.03316890820860863, 0.2384396344423294, -0.05263770744204521, -0.29050788283348083, -0.21884691715240479], [0.07635229080915451, 0.4075338542461395, -0.20026424527168274, -0.23729564249515533, -0.22044503688812256, 0.04300777614116669, -0.04124420881271362, -0.02055029384791851, -0.1726386994123459, -0.04775654897093773, -0.1604190319776535, -0.005826632957905531, -0.18363423645496368, -0.13718295097351074, -0.13501198589801788, 0.10281681269407272, -0.1891515851020813, -0.14341691136360168, -0.06569155305624008, 0.11802498251199722, 0.30221113562583923, -0.1407090276479721, -0.16005665063858032, 0.23501913249492645, 0.0351482592523098, -0.17822113633155823, 0.2260611206293106, -0.1116209477186203, -0.12513945996761322, 0.043586019426584244, 0.004994639195501804, 0.014842201955616474], [0.3070838153362274, 0.2638484537601471, 0.0855131447315216, -0.06197114288806915, 0.1361963003873825, -0.21186308562755585, 0.1466539353132248, 0.0030167801305651665, -0.050847992300987244, -0.2644692659378052, -0.15476897358894348, -0.1642659604549408, 0.07453443855047226, 0.027197716757655144, 0.07205034047365189, -0.20010773837566376, 0.06673439592123032, 0.05370218679308891, -0.19057241082191467, 0.182582288980484, 0.10083158314228058, -0.1814742386341095, 0.0847039744257927, -0.0460897833108902, 0.09907504171133041, 0.018212590366601944, 0.2138334959745407, 0.20081903040409088, -0.14800497889518738, 0.19335073232650757, 0.11130266636610031, 0.1567230075597763], [0.26372241973876953, 0.1723325252532959, 0.09467484802007675, 0.024451278150081635, 0.22637398540973663, -0.31868961453437805, 0.10958287864923477, 0.04362059012055397, -0.13283903896808624, -0.06883136928081512, 0.24680033326148987, -0.09660486876964569, 0.06080135703086853, 0.09129485487937927, 0.0028340222779661417, 0.04845882207155228, -0.1094304770231247, -0.2533590495586395, -0.1517445296049118, -0.18263621628284454, -0.05434143543243408, -0.12380131334066391, -0.0808124840259552, -0.017665181308984756, 0.3292900025844574, 0.09413883835077286, -0.03742680326104164, -0.10679559409618378, 0.07352390885353088, 0.030174409970641136, -0.19779658317565918, -0.23278211057186127], [-0.2737721800804138, 0.3035888075828552, 0.07438260316848755, -0.03499400615692139, -0.17216108739376068, 0.268211305141449, -0.03482143580913544, -0.3301936089992523, -0.04641905426979065, -0.050236381590366364, -0.10682787001132965, 0.1720464527606964, -0.10105215758085251, -0.12610769271850586, 0.06747852265834808, 0.10323558002710342, -0.14607270061969757, 0.22143377363681793, 0.03660663962364197, -0.17405478656291962, 0.03477988392114639, 0.04367324709892273, 0.11800156533718109, 0.20741991698741913, -0.053762227296829224, -0.06642910838127136, 0.08956032246351242, -0.12869103252887726, 0.31057727336883545, -0.1661272943019867, 0.06374721229076385, -0.2725101411342621], [-0.11387380212545395, 0.4048846662044525, 0.13766153156757355, 0.29985713958740234, 0.11362259835004807, -0.1684195101261139, -0.007361066527664661, -0.03061344102025032, -0.18979133665561676, -0.1486911028623581, -0.06047997623682022, 0.05327343940734863, -0.12472179532051086, 0.1995430439710617, 0.14343343675136566, -0.09993930160999298, 0.005354651715606451, 0.09899376332759857, 0.2268761396408081, -0.17245915532112122, 0.0884329155087471, -0.0965457409620285, 0.10095343738794327, 0.11141616851091385, -0.06396502256393433, 0.03991612792015076, 0.16894732415676117, 0.10534568876028061, 0.028684036806225777, -0.10453470051288605, -0.0519300140440464, 0.02842223457992077], [0.11947231739759445, 0.283804714679718, 0.15220053493976593, 0.041644543409347534, 0.18146741390228271, -0.34121906757354736, 0.1351565569639206, 0.03512875735759735, -0.03992589935660362, -0.16009004414081573, 0.2317654937505722, -0.15210391581058502, 0.20608922839164734, 0.0835844948887825, -0.021123936399817467, 0.13502350449562073, -0.15415392816066742, -0.28791308403015137, 0.055434200912714005, -0.15208108723163605, 0.11291005462408066, -0.11546850204467773, -0.13766101002693176, -0.15806268155574799, 0.2065284550189972, 0.024175241589546204, 0.0653635635972023, -0.043709658086299896, 0.09554964303970337, -0.03937084227800369, -0.3785817623138428, -0.3949569761753082], [-0.07881445437669754, -0.035945046693086624, 0.10099617391824722, -0.29337504506111145, -0.2073775678873062, -0.13755564391613007, -0.0007629928295500576, -0.14005780220031738, 0.010968394577503204, 0.0722523108124733, 0.05984635651111603, 0.13842250406742096, 0.22476817667484283, 0.0611848384141922, -0.1916435807943344, 0.19265946745872498, 0.055777452886104584, 0.21478140354156494, 0.018796522170305252, -0.12586423754692078, 0.15391290187835693, -0.34300604462623596, -0.22949586808681488, -0.019406061619520187, 0.07090096175670624, 0.058816008269786835, -0.4013464152812958, 0.30312031507492065, -0.11493270099163055, 0.22157081961631775, 0.019131449982523918, 0.2374553680419922], [0.18399056792259216, -0.2515256702899933, -0.119130440056324, -0.02186538465321064, 0.20029200613498688, 0.09806764125823975, 0.321056067943573, 0.05333671718835831, -0.010403670370578766, 0.12804953753948212, 0.1946328729391098, -0.13071349263191223, 0.02101912349462509, -0.039085503667593, -0.024459948763251305, -0.061560340225696564, 0.012063799425959587, 0.006105181761085987, -0.20624463260173798, -0.10176339000463486, -0.16111287474632263, -0.2097882479429245, -0.13955287635326385, -0.206015482544899, 0.2566226124763489, -0.21752521395683289, -0.11396709084510803, 0.08545777946710587, 0.39665132761001587, 0.05337688699364662, -0.1311376988887787, 0.049011342227458954], [0.19006535410881042, 0.42510566115379333, 0.12377038598060608, 0.10813256353139877, 0.05711841210722923, 0.10304679721593857, 0.15185779333114624, -0.11912520974874496, -0.31228190660476685, 0.08379797637462616, 0.03166040778160095, -0.2893270254135132, -0.008813838474452496, 0.008237316273152828, -0.09219574183225632, -0.06560812890529633, 0.11578712612390518, 0.18480348587036133, -0.015892695635557175, -0.18766473233699799, -0.10053476691246033, -0.1342879980802536, 0.38243213295936584, -0.13106189668178558, 0.27145034074783325, 0.06043533235788345, -0.03825845569372177, 0.019265424460172653, -0.17319317162036896, -0.02867353893816471, 0.18536899983882904, 0.2483544945716858], [-0.12754853069782257, 0.025916259735822678, -0.01781786046922207, 0.24040251970291138, 0.2820962965488434, 0.07077039033174515, 0.14365282654762268, -0.10258540511131287, -0.05119065195322037, 0.05716618895530701, 0.13089923560619354, 0.08302448689937592, -0.26828551292419434, -0.14636114239692688, 0.24680542945861816, 0.13775858283042908, -0.11201012879610062, -0.08100228011608124, 0.2260027378797531, -0.21400664746761322, 0.20643717050552368, 0.27116668224334717, 0.28062358498573303, -0.044113706797361374, -0.057886168360710144, 0.17034542560577393, 0.13906055688858032, -0.4300846755504608, 0.3622528612613678, -0.07259910553693771, -0.33415359258651733, -0.07701050490140915], [0.09624660760164261, 0.09195780009031296, -0.06364385038614273, -0.05779483914375305, 0.074862040579319, -0.4136659502983093, 0.29495862126350403, -0.21152959764003754, 0.06030242517590523, -0.15460026264190674, -0.2816517949104309, -0.07331591099500656, 0.15142349898815155, 0.05776248127222061, -0.20159895718097687, 0.06509781628847122, 0.22610481083393097, -0.07702146470546722, -0.08171634376049042, -0.09227900952100754, 0.16907477378845215, 0.1208200752735138, -0.0009326375438831747, -0.09320120513439178, -0.10839581489562988, 0.15096676349639893, 0.09911631792783737, 0.21740934252738953, -0.36345985531806946, 0.3431852459907532, 0.0016441410407423973, 0.0021474487148225307], [-0.09258635342121124, -0.17273905873298645, 0.06268588453531265, -0.25735414028167725, -0.24961209297180176, 0.22689451277256012, 0.22733066976070404, -0.30144450068473816, 0.1088571846485138, 0.07543301582336426, -0.09645560383796692, 0.1950347125530243, 0.07790625095367432, -0.06119789555668831, 0.24553582072257996, -0.1808188408613205, 0.009903407655656338, 0.3113323152065277, -0.11302628368139267, -0.21219757199287415, -0.18125233054161072, -0.23362486064434052, -0.17567458748817444, -0.20285655558109283, 0.20942041277885437, -0.17077703773975372, -0.11437629163265228, -0.1295304000377655, 0.2602866291999817, -0.07122884690761566, -0.1147327795624733, -0.053073007613420486], [0.06862840056419373, 0.24045811593532562, 0.08632849156856537, -0.10539472103118896, 0.07037748396396637, 0.248289093375206, 0.24482285976409912, -0.1282719373703003, -0.13288351893424988, 0.06289658695459366, 0.14654555916786194, -0.18841485679149628, 0.2651037275791168, -0.01980307139456272, -0.0052397889085114, -0.27152392268180847, 0.028705213218927383, -0.028656119480729103, -0.11506855487823486, 0.06320253014564514, 0.03426475450396538, -0.4296586215496063, -0.022084595635533333, 0.20081987977027893, 0.05871633440256119, -0.012309995479881763, -0.08285672217607498, 0.03930944949388504, 0.36550992727279663, -0.02319885976612568, 0.012216380797326565, 0.06706339120864868], [0.3178900182247162, 0.3468024730682373, -0.19665449857711792, 0.2001708447933197, 0.20061732828617096, 0.07560645043849945, -0.4132738411426544, 0.13136892020702362, -0.2081776112318039, 0.13436010479927063, -0.03928215429186821, 0.04982808977365494, 0.1651785671710968, -0.06276882439851761, 0.04847874492406845, 0.03365825116634369, -0.01826665922999382, -0.0786488875746727, -0.17808769643306732, -0.10853457450866699, 0.385302871465683, -0.17170430719852448, 0.046170253306627274, -0.02745421975851059, -0.1081114187836647, 0.1649499088525772, -0.026755046099424362, -0.29962244629859924, -0.1796388179063797, -0.16574907302856445, 0.08273763209581375, 0.14657534658908844], [0.13321258127689362, 0.003856780705973506, 0.10982145369052887, 0.237595796585083, 0.14714138209819794, -0.18015111982822418, -0.1934751272201538, -0.11089007556438446, -0.3409331142902374, -0.13406436145305634, -0.1372622549533844, -0.21731877326965332, 0.04950686916708946, 0.19772395491600037, 0.11501538008451462, 0.03492750599980354, -0.03465680778026581, -0.14121432602405548, 0.014077423140406609, -0.1084950640797615, -0.21686552464962006, 0.14453908801078796, -0.026615314185619354, 0.1078258752822876, 0.3046736419200897, -0.1415208876132965, 0.06372225284576416, -0.09260576963424683, -0.37418150901794434, -0.28254416584968567, -0.3225736916065216, -0.3199063539505005], [-0.10806890577077866, -0.02754112333059311, -0.15091244876384735, 0.18014736473560333, 0.19788329303264618, -0.1028919443488121, -0.009954007342457771, 0.33306393027305603, -0.22624127566814423, -0.23124609887599945, 0.05154652148485184, 0.28243425488471985, 0.3737128973007202, -0.04966869205236435, 0.0910472571849823, 0.186611145734787, -0.02088603377342224, 0.055161621421575546, 0.13145267963409424, 0.030700594186782837, -0.3245849907398224, 0.06917978823184967, -0.14679281413555145, 0.0485844686627388, 0.34221842885017395, 0.19651387631893158, 0.13086701929569244, 0.04897095635533333, -0.07717189192771912, 0.004888698924332857, -0.04024471342563629, -0.3106749355792999], [-0.26859450340270996, -0.02785351127386093, 0.2400566190481186, -0.019522367045283318, 0.21286745369434357, -0.07166137546300888, 0.12393174320459366, -0.2236201912164688, 0.11080307513475418, 0.16222842037677765, -0.22402217984199524, 0.040029894560575485, 0.028931554406881332, -0.11274993419647217, -0.07930099964141846, -0.20101812481880188, -0.18115060031414032, 0.33167463541030884, 0.230776846408844, -0.13875462114810944, 0.10343892127275467, -0.3542746305465698, -0.035213734954595566, 0.14346368610858917, 0.11692660301923752, -0.0524684339761734, -0.07499827444553375, 0.2845849394798279, 0.06775335967540741, 0.21364571154117584, -0.06141253933310509, 0.0158536434173584], [0.27178215980529785, -0.044138241559267044, -0.012940884567797184, -0.21954485774040222, 0.0462305024266243, -0.09417662769556046, 0.2623673975467682, -0.1994408667087555, 0.09497040510177612, -0.10889710485935211, 0.13941334187984467, -0.15480944514274597, 0.06708835065364838, 0.06214084476232529, -0.07685095816850662, 0.024449395015835762, -0.21909432113170624, -0.02101506106555462, -0.11018132418394089, 0.03465735539793968, 0.07095519453287125, -0.32647013664245605, -0.19727492332458496, -0.2245408296585083, 0.17790380120277405, 0.08398839831352234, -0.17617477476596832, 0.27280697226524353, 0.08461004495620728, 0.17522665858268738, 0.17989926040172577, -0.15461450815200806], [0.16355757415294647, 0.04096775874495506, 0.13877038657665253, 0.11970728635787964, 0.28861716389656067, -0.3803638517856598, 0.015670493245124817, 0.19050487875938416, 0.07711677998304367, -0.1384556144475937, 0.008113151416182518, -0.1183348074555397, 0.06675978004932404, 0.03522493690252304, 0.327295184135437, -0.11743376404047012, -0.22290292382240295, 0.0925520807504654, -0.027464864775538445, -0.03458482772111893, -0.029555272310972214, -0.09655442088842392, 0.010272909887135029, 0.0853760689496994, 0.09911928325891495, -0.013149240985512733, 0.27616560459136963, 0.30339986085891724, 0.1681600660085678, -0.04889628663659096, -0.18630003929138184, -0.08247272670269012], [0.03357316553592682, 0.3343040943145752, -0.14941422641277313, 0.020805491134524345, -0.03793896362185478, -0.13046830892562866, -0.07233928889036179, 0.17363600432872772, -0.1201023980975151, 0.05672100931406021, -0.1699337661266327, 0.026833724230527878, -0.023805886507034302, -0.047000568360090256, 0.006075978744775057, 0.09481214731931686, -0.016412679105997086, 0.16263826191425323, -0.06420426070690155, 0.18029895424842834, 0.13067832589149475, -0.09405186027288437, 0.1593979001045227, 0.3682404160499573, -0.25455963611602783, 0.12230303883552551, 0.04804302379488945, -0.29607662558555603, -0.1376587301492691, -0.10018352419137955, 0.21378517150878906, 0.20534105598926544], [0.25851044058799744, 0.1913091093301773, 0.0652923732995987, 0.029601208865642548, -0.014508870430290699, -0.015093041583895683, 0.32983365654945374, -0.13616839051246643, 0.04795030876994133, 0.020933080464601517, -0.19278794527053833, -0.1505807787179947, 0.24279367923736572, -0.028596792370080948, -0.2863161265850067, -0.37494271993637085, 0.11955704540014267, 0.013325738720595837, -0.043639231473207474, 0.053763773292303085, 0.09837865084409714, -0.15927231311798096, -0.07581925392150879, 0.03362280875444412, 0.1686394214630127, -0.1599559783935547, -0.19570384919643402, -0.023630984127521515, -0.1532926708459854, 0.23828673362731934, 0.1481274664402008, -0.08474118262529373], [0.3924589157104492, -0.2214871346950531, 0.062362153083086014, -0.13777776062488556, 0.012939737178385258, -0.292727530002594, 0.23174062371253967, -0.19730713963508606, -0.15266557037830353, -0.15167580544948578, 0.11722555756568909, 0.05039087310433388, 0.11485467106103897, 0.060384370386600494, -0.23047606647014618, -0.028012393042445183, -0.13545164465904236, -0.03735162317752838, -0.15087755024433136, -0.09370853006839752, -0.10203121602535248, -0.13140816986560822, 0.04044891893863678, -0.042066413909196854, 0.13481557369232178, -0.21023106575012207, 0.15120339393615723, 0.2645139992237091, -0.1551162153482437, 0.3924251198768616, -0.032731760293245316, 0.19053544104099274], [0.30993106961250305, -0.11857607215642929, -1.0927205948974006e-05, -0.20232261717319489, 0.13768446445465088, 0.009797525592148304, 0.081954225897789, 0.0752512663602829, 0.05234912037849426, -0.0613015852868557, -0.2795831263065338, -0.21327292919158936, 0.043023012578487396, 0.052569106221199036, 0.02056819200515747, -0.26533079147338867, -0.26807722449302673, 0.07749786227941513, -0.2528056204319, -0.15914101898670197, -0.11696064472198486, -0.1830185204744339, -0.01996758207678795, -0.28851985931396484, -0.026797426864504814, -0.0022507463581860065, -0.09855233877897263, -0.024088973179459572, 0.1588861644268036, 0.0998878926038742, -0.23536613583564758, -0.03894652798771858], [0.15942145884037018, 0.3194894790649414, 0.10652270913124084, 0.06897065043449402, -0.03952518478035927, 0.08621419966220856, 0.14441223442554474, -0.18110042810440063, -0.3111889958381653, -0.03276938945055008, 0.11796560138463974, -0.26796436309814453, -0.3709273040294647, 0.03617751598358154, -0.29702773690223694, -0.08963485807180405, 0.09829769283533096, -0.2461806684732437, 0.09252302348613739, 0.020630275830626488, 0.20934201776981354, -0.2001367211341858, -0.10972843319177628, -0.15459229052066803, 0.2660215497016907, -0.01368493027985096, 0.23239538073539734, 0.053409747779369354, -0.01620468683540821, -0.25775426626205444, 0.1772991418838501, -0.22886110842227936], [-0.26332977414131165, 0.27905938029289246, -0.14255768060684204, 0.01690283790230751, -0.050625912845134735, 0.19756878912448883, -0.017895624041557312, -0.33975133299827576, -0.0643664300441742, -0.08854551613330841, -0.060468096286058426, 0.09189014881849289, -0.03519599512219429, 0.029930364340543747, 0.39232173562049866, -0.09320792555809021, -0.12578584253787994, -0.18114487826824188, 0.22223854064941406, 0.06207460165023804, 0.31827789545059204, -0.17544451355934143, -0.0208086259663105, 0.10044176876544952, 0.15213832259178162, 0.2578343152999878, -0.018696775659918785, 0.023052683100104332, 0.22004564106464386, -0.032684966921806335, -0.07577145099639893, -0.022749528288841248], [0.27910923957824707, 0.11192402243614197, -0.07188096642494202, -0.14207203686237335, -0.024496624246239662, -0.3308700621128082, 0.02431461401283741, -0.034853141754865646, 0.05260922387242317, -0.20610637962818146, -0.024111449718475342, 0.011193808168172836, 0.06202947720885277, 0.09426791965961456, 0.13932447135448456, -0.07433691620826721, -0.3299005627632141, -0.008973794057965279, 0.09217541664838791, 0.26051029562950134, 0.26094627380371094, -0.3239167034626007, -0.06576283276081085, 0.14724749326705933, 0.14796876907348633, -0.0904032364487648, -0.08929946273565292, 0.1838918775320053, 0.08654221892356873, -0.07291986793279648, 0.10616971552371979, 0.1558544635772705], [-0.04239939525723457, 0.2949813902378082, -0.16791404783725739, -0.16951884329319, -0.2980375289916992, 0.03834093362092972, 0.07534517347812653, 0.16079625487327576, -0.1723267138004303, 0.06059898063540459, 0.013930505141615868, -0.20918427407741547, -0.15159739553928375, -0.4474852979183197, -0.2090727537870407, 0.019313393160700798, 0.0011303513310849667, -0.09460378438234329, 0.1715603917837143, 0.22245332598686218, 0.04434138163924217, -0.20076097548007965, -0.14012199640274048, 0.12726445496082306, 0.059254467487335205, -0.20005595684051514, 0.1297200471162796, -0.08541806787252426, -0.016219409182667732, 0.08719872683286667, -0.035393595695495605, 0.13219976425170898], [-0.27709832787513733, -0.032607655972242355, 0.05221389979124069, 0.3940671384334564, 0.1284986287355423, 0.10915188491344452, -0.10790504515171051, -0.2007652074098587, 0.04756451025605202, -0.22512473165988922, -0.03340033069252968, 0.070872463285923, -0.16778969764709473, 0.19286952912807465, -0.315319687128067, -0.010343752801418304, -0.016878947615623474, 0.30893975496292114, 0.023463789373636246, 0.14724287390708923, -0.23097150027751923, -0.10297860205173492, -0.3093135356903076, -0.015757324174046516, -0.12134770303964615, -0.11729350686073303, -0.14415401220321655, -0.11013133823871613, 0.004559374414384365, 0.20166495442390442, -0.0216069258749485, 0.3486382067203522], [0.3063510060310364, -0.07413351535797119, -0.16040091216564178, -0.042268190532922745, -0.061699237674474716, 0.12528575956821442, 0.2984083294868469, -0.1412339210510254, -0.05634336918592453, 0.0015408401377499104, -0.16329704225063324, -0.18742713332176208, 0.007670945022255182, 0.04385417327284813, -0.13149580359458923, -0.18403613567352295, -0.012682407163083553, -0.07455851882696152, -0.30343833565711975, -0.06232404708862305, -0.22872529923915863, 0.012591101229190826, 0.02337031625211239, -0.09032505005598068, 0.149553582072258, -0.13709484040737152, -0.021909339353442192, -0.10841063410043716, -0.06366857886314392, 0.13699792325496674, -0.26363953948020935, -0.07128812372684479], [-0.24505171179771423, 0.2263466864824295, -0.38230323791503906, 0.009316970594227314, -0.12477880716323853, 0.012770053930580616, -0.025541964918375015, 0.1874738186597824, -0.16529493033885956, 0.07213583588600159, -0.027023807168006897, -0.0825585126876831, 0.01125611923635006, -0.13890278339385986, 0.005778318736702204, 0.13833749294281006, -0.0657181516289711, 0.20442676544189453, -0.12734900414943695, 0.21896150708198547, 0.12941808998584747, -0.19914978742599487, 0.07180433720350266, 0.4141083061695099, 0.16665560007095337, 0.06647489219903946, 0.011018975637853146, -0.27571600675582886, 0.2423093169927597, -0.04028184711933136, 0.19226093590259552, 0.028941217809915543], [-0.11020825803279877, -0.21969793736934662, 0.20055340230464935, 0.0834486335515976, -0.05692112445831299, 0.0698016881942749, 0.18022799491882324, 0.363432377576828, 0.13126543164253235, -0.2808915078639984, -0.20923011004924774, 0.06899160891771317, -0.2005447894334793, 0.15425829589366913, 0.2783881723880768, -0.0768771693110466, -0.08044412732124329, 0.1895548701286316, 0.027139699086546898, -0.07466036826372147, 0.02882814034819603, 0.228189617395401, 0.058824848383665085, 0.018372779712080956, -0.15140622854232788, 0.1961558312177658, 0.022398406639695168, -0.04998179152607918, 0.1559467613697052, -0.0014138411497697234, 0.018306534737348557, -0.04667641222476959], [-0.2115136831998825, 0.2736790180206299, -0.15072068572044373, 0.24797338247299194, -0.2483397275209427, 0.3499128222465515, -0.07155979424715042, 0.01699519157409668, -0.15447087585926056, -0.08382084965705872, 0.21636220812797546, -0.05344654619693756, 0.08396012336015701, -0.0974828451871872, -0.4149245023727417, -0.07487142831087112, 0.11314646154642105, -0.4211687445640564, 0.1400604546070099, 0.12023592740297318, 0.1441470831632614, -0.14791163802146912, 0.07959304749965668, 0.19489562511444092, 0.18384511768817902, 0.2285221964120865, 0.10613501816987991, 0.141824871301651, 0.04761394113302231, 0.03457876667380333, -0.018765484914183617, -0.06679730117321014], [-0.20938153564929962, -0.1434798240661621, 0.06984400004148483, -0.03886764124035835, -0.358369916677475, -0.001400813809596002, -0.07618159055709839, -0.28098365664482117, 0.11228415369987488, 0.057238802313804626, -0.09401556104421616, 0.09699580073356628, 0.051867976784706116, -0.10467537492513657, 0.25626659393310547, -0.04357718303799629, 0.2477266639471054, 0.09096213430166245, -0.04044473171234131, -0.20868299901485443, -0.06636809557676315, 0.012061910703778267, -0.22557848691940308, -0.16148234903812408, 0.07292817533016205, -0.10076315701007843, -0.09257011115550995, -0.27914538979530334, -0.004768783692270517, -0.08918876945972443, -0.2526050806045532, -0.032808706164360046], [-0.37322282791137695, 0.27326712012290955, -0.01633458398282528, 0.02101786620914936, -0.2746258080005646, 0.08533604443073273, -0.014352891594171524, -0.09900354593992233, -0.1932581663131714, -0.17121241986751556, -0.04627205803990364, -0.02740374393761158, 0.01422196812927723, -0.2375548928976059, 0.0002842546091414988, -0.12080921977758408, 0.1384330689907074, -0.15528680384159088, 0.010190526023507118, -0.138264998793602, 0.07131742686033249, -0.11479439586400986, -0.21301299333572388, 0.09956441074609756, -0.13651910424232483, 0.15443667769432068, -0.0013071089051663876, 0.04417683184146881, 0.1989903450012207, -0.08135709166526794, -0.13933280110359192, 0.056261274963617325], [-0.13292957842350006, 0.37051135301589966, -0.21086962521076202, -0.23152217268943787, 0.018009565770626068, 0.08526545017957687, -0.04744316264986992, 0.3672698736190796, -0.14806073904037476, -0.17214888334274292, 0.18620222806930542, -0.08268700540065765, -0.0802462175488472, -0.30504852533340454, 0.08243346959352493, -0.03518609702587128, 0.03497828543186188, 0.16869568824768066, 0.12499154359102249, 0.16650322079658508, 0.10125260055065155, -0.1582142412662506, -0.358508825302124, 0.3276035189628601, 0.20779350399971008, 0.19598396122455597, 0.1398341953754425, -0.30685970187187195, 0.14649689197540283, 0.017561620101332664, 0.06406612694263458, 0.10999852418899536], [-0.05872810631990433, 0.44164758920669556, -0.08621562272310257, 0.0030795542988926172, -0.2300473153591156, 0.1983000934123993, -0.3296319544315338, -0.10954853892326355, -0.21321527659893036, -0.10384341329336166, 0.027097946032881737, -0.0012374329380691051, 0.11089736223220825, -0.06679094582796097, -0.005604125093668699, 0.0793876126408577, 0.019771454855799675, -0.08812004327774048, -0.016541603952646255, -0.23072528839111328, 0.061951350420713425, -0.16072165966033936, 0.335319459438324, 0.2039039134979248, 0.06222934648394585, 0.01921268366277218, 0.2275414615869522, -0.062317293137311935, -0.11349683254957199, 0.06734003871679306, -0.24651095271110535, -0.02111613005399704], [-0.008187549188733101, -0.16709506511688232, -0.03355606645345688, 0.1487831473350525, 0.24555666744709015, -0.3284018039703369, 0.07002979516983032, 0.09763190150260925, -0.2963869571685791, -0.16741164028644562, 0.03318514674901962, -0.24371878802776337, -0.3111579120159149, 0.058054208755493164, -0.0005028166924603283, 0.026282377541065216, 0.06869327276945114, 0.0092480992898345, -0.043593622744083405, -0.06610843539237976, -0.056407198309898376, 0.1873079538345337, 0.11614479869604111, 0.08232985436916351, 0.34749749302864075, 0.03797842934727669, -0.1515844762325287, 0.03946831822395325, -0.20681250095367432, -0.16819489002227783, 0.15701714158058167, -0.2054448425769806], [-0.0995522066950798, -0.10062871128320694, -0.30312344431877136, -0.06925617903470993, 0.04306632652878761, -0.15175515413284302, 0.1012197732925415, -0.09070439636707306, 0.15187913179397583, -0.0038864281959831715, -0.05399971827864647, -0.023846430703997612, 0.06195973977446556, 0.007581860292702913, 0.2513430118560791, -0.11993253231048584, 0.09695474058389664, 0.07524631172418594, -0.14590729773044586, -0.1287875771522522, -0.1997409164905548, 0.04085373133420944, 0.10176484286785126, -0.29006460309028625, -0.261707067489624, -0.13915394246578217, 0.13535572588443756, 0.33180081844329834, 0.012630200944840908, -0.12331788241863251, 0.058386366814374924, -0.13540151715278625], [0.29023170471191406, 0.052904438227415085, 0.1454966962337494, -0.1516108363866806, -0.029686180874705315, 0.042640965431928635, 0.15971429646015167, -0.007533409167081118, -0.1836443394422531, 0.09892642498016357, 0.07560278475284576, -0.23007597029209137, -0.04197077825665474, 0.11747057735919952, -0.08434171974658966, 0.06934018433094025, 0.05963241308927536, 0.08330116420984268, -0.07208037376403809, -0.1626325398683548, -0.18265028297901154, -0.3244400918483734, -0.054371170699596405, -0.10439646244049072, 0.17024441063404083, 0.030405301600694656, -0.32187414169311523, -0.21573476493358612, 0.006222237832844257, -0.21297280490398407, -0.2536831796169281, -0.1376924365758896], [-0.16060924530029297, -0.08054441213607788, -0.18951624631881714, 0.21634672582149506, 0.2007312774658203, 0.09388630837202072, 0.05350367724895477, 0.001826480496674776, 0.39906007051467896, 0.27123934030532837, 0.12105275690555573, -0.007324574049562216, -0.03642743453383446, -0.2590024173259735, 0.34317663311958313, 0.30373769998550415, 0.10619266331195831, 0.04494893178343773, 0.04272623732686043, -0.03163910284638405, -0.11427543312311172, 0.14482128620147705, -0.1945287436246872, 0.02587316744029522, -0.11894840747117996, -0.362750381231308, 0.16638140380382538, -0.06177034229040146, -0.29822322726249695, -0.07891622930765152, 0.21072536706924438, -0.02169046178460121], [-0.26683422923088074, 0.2834833562374115, -0.3773304224014282, 0.22024519741535187, 0.13349013030529022, 0.014709952287375927, -0.04484197497367859, 0.32405126094818115, -0.2383069545030594, 0.12432058155536652, 0.10976662486791611, -0.21844524145126343, -0.05196576938033104, -0.1208142563700676, 0.16816751658916473, 0.043831586837768555, 0.32083722949028015, 0.12597090005874634, 0.011811790987849236, 0.09920182079076767, 0.14982277154922485, -0.04371397942304611, 0.16004019975662231, 0.2402188926935196, 0.2977466285228729, 0.15057530999183655, 0.019668981432914734, 0.0745483860373497, -0.0327797569334507, -0.20688365399837494, 0.2329399585723877, 0.08076980710029602], [-0.3123418390750885, -0.23387713730335236, -0.3633282780647278, 0.25849148631095886, 0.19887585937976837, 0.0780017077922821, -0.21909576654434204, 0.17239762842655182, -0.12356779724359512, 0.01154289860278368, -0.18157273530960083, -0.12103017419576645, 0.07789179682731628, -0.14806827902793884, 0.15219323337078094, 0.05646134540438652, 0.040832072496414185, 0.21782973408699036, 0.13929136097431183, 0.10965168476104736, -0.02948935702443123, 0.16870258748531342, -0.1266668736934662, -0.33810800313949585, -0.2721954882144928, -0.18966493010520935, -0.1202332153916359, 0.12421459704637527, 0.20381441712379456, -0.09352205693721771, 0.21588490903377533, 0.020986879244446754], [0.33691269159317017, 0.2404995560646057, -0.26055702567100525, -0.11380434036254883, -0.02396814525127411, 0.05794807896018028, -0.20088225603103638, -0.121694415807724, -0.09810511022806168, -0.11370106041431427, -0.015301486477255821, -0.11397316306829453, -0.07756933569908142, 0.168229341506958, 0.2359848916530609, 0.1637338548898697, -0.09798530489206314, -0.1069801077246666, 0.20097613334655762, -0.08599147200584412, 0.22862231731414795, -0.18390510976314545, -0.16767792403697968, -0.36301159858703613, 0.04880288243293762, 0.21902808547019958, -0.0930432602763176, 0.18776309490203857, 0.24684756994247437, 0.057494498789310455, -0.0011056087678298354, -0.294126957654953]], "b": [-0.13846641778945923, 0.03468719497323036, 0.11114531755447388, 0.06261320412158966, -0.04044405743479729, -0.10579390823841095, -0.017802149057388306, 0.05698425695300102, 0.11313740164041519, -0.05448514223098755, -0.013387899845838547, -0.09050285816192627, 0.044399991631507874, 0.04374891519546509, -0.09949195384979248, -0.05584622919559479, -0.1327986717224121, -0.0027999819722026587, -0.0516621470451355, -0.03321032598614693, 0.05043348670005798, -0.14540614187717438, 0.13587667047977448, 0.06475140899419785, 0.13304196298122406, 0.14322833716869354, -0.08894127607345581, -0.14007951319217682, -0.14898177981376648, -0.07348265498876572, -0.09837270528078079, -0.3091098964214325, 0.03467949852347374, 0.06948676705360413, -0.0967622846364975, 0.01125207170844078, -0.19568458199501038, -0.2281893938779831, -0.027083255350589752, 0.07454818487167358, -0.11924088001251221, -0.14464446902275085, 0.020441176369786263, -0.013748363591730595, -0.13327282667160034, -0.10334250330924988, 0.10813922435045242, -0.03605935350060463, -0.16556090116500854, -0.23768830299377441, -0.04160367324948311, 0.03679761290550232, 0.056133002042770386, -0.05095507577061653, 0.1418079286813736, -0.059681326150894165, 0.049608491361141205, 0.016794567927718163, 0.10171755403280258, 0.07859499007463455, -0.14280039072036743, 0.08877138048410416, -0.10035448521375656, -0.11043092608451843]}, {"type": "lin", "act": "relu", "W": [[-0.0665445402264595, 0.18871811032295227, -0.060915395617485046, -0.27439337968826294, 0.0910007581114769, -0.2435302883386612, 0.06198162958025932, 0.02307874895632267, 0.14973996579647064, 0.04207414388656616, 0.03983822092413902, 0.10605038702487946, -0.0026750273536890745, -0.06408372521400452, -0.05233099311590195, 0.1308533251285553, 0.14938612282276154, 0.1181146651506424, 0.12548010051250458, 0.24760743975639343, 0.046508777886629105, -0.01199294626712799, -0.029809847474098206, -0.07863375544548035, -0.07824385166168213, 0.23693709075450897, -0.0976940244436264, -0.008449383080005646, -0.046988729387521744, -0.03437104821205139, -0.0006743641570210457, -0.0686739906668663, 0.0739845484495163, -0.10151717066764832, 0.14050596952438354, 0.2163897454738617, 0.0006851631333120167, 0.20682887732982635, -0.2437281310558319, 0.15391255915164948, 0.10262460261583328, -0.12556080520153046, -0.0937936082482338, -0.09156437963247299, -0.03307021036744118, -0.037802983075380325, -0.028752632439136505, -0.06718472391366959, 0.12754873931407928, -0.17700926959514618, 0.1575835645198822, 0.018179964274168015, -0.002739974530413747, 0.02649332955479622, 0.033768706023693085, 0.1483522206544876, 0.09298518300056458, -0.025988813489675522, 0.12420425564050674, -0.21896688640117645, 0.036334726959466934, 0.08533312380313873, 0.1918867528438568, -0.041088975965976715], [0.15461066365242004, 0.07649121433496475, 0.1537913680076599, -0.05700753256678581, 0.14128617942333221, 0.2419498860836029, 0.08153040707111359, 0.07748974859714508, -0.0607108548283577, 0.2562604248523712, 0.05103624612092972, -0.1011814996600151, 0.18626566231250763, 0.07614047080278397, 0.1333102434873581, 0.10041891038417816, -0.05536443740129471, -0.10347499698400497, -0.23252631723880768, 0.061510708183050156, -0.009916792623698711, -0.037450943142175674, -0.06635290384292603, 0.15325488150119781, -0.0837944820523262, 0.08630724251270294, 0.14924894273281097, -0.08110683411359787, -0.011310960166156292, 0.0012668126728385687, 0.09010425955057144, -0.17622074484825134, -0.2582668960094452, 0.08550894260406494, 0.16307973861694336, -0.006021449808031321, 0.15759044885635376, -0.12640966475009918, -0.0866302102804184, 0.0038279013242572546, -0.04782363399863243, -0.09075478464365005, -0.18076764047145844, -0.14965350925922394, 0.13826748728752136, -0.06661198288202286, -0.1539304554462433, 0.1234724223613739, 0.03273265063762665, -0.17330704629421234, 0.1439140886068344, -0.02304958552122116, 0.2402443289756775, -0.23758725821971893, 0.15528443455696106, 0.027642203494906425, 0.003258563345298171, 0.15043434500694275, -0.14496956765651703, -0.13202807307243347, -0.03206704929471016, 0.19477154314517975, 0.12756042182445526, 0.13302189111709595], [0.026949377730488777, 0.03033008612692356, 0.03826998546719551, 0.029102982953190804, -0.2603894770145416, 0.001012897351756692, 0.0375235341489315, -0.0055235945619642735, 0.04758043214678764, -0.053556956350803375, -0.11969265341758728, 0.11976656317710876, 0.14672701060771942, -0.1797897070646286, -0.03715850040316582, -0.09456226229667664, 0.21763154864311218, 0.09006819874048233, 0.08065037429332733, 0.08164352923631668, 0.14367955923080444, -0.08751579374074936, -0.13808465003967285, -0.015339197590947151, 0.05067209526896477, 0.022755693644285202, -0.10003124177455902, 0.2696859538555145, 0.031986914575099945, -0.19779779016971588, 0.00451628677546978, 0.03551241010427475, 0.2254130244255066, 0.13834373652935028, -0.2711960971355438, -0.09217730909585953, -0.2887449562549591, 0.10535293817520142, 0.1740225851535797, 0.0028580515645444393, -0.20689517259597778, 0.018429873511195183, 0.11656268686056137, 0.15926575660705566, -0.17981913685798645, 0.04746337980031967, 0.15364670753479004, -0.07896462082862854, 0.042190779000520706, 0.14130273461341858, -0.055122409015893936, 0.015253448858857155, -0.15445193648338318, 0.1810275912284851, -0.03651410713791847, -0.2862025499343872, 0.08306889235973358, -0.21380506455898285, 0.07301361858844757, 0.09651799499988556, 0.2125043123960495, -0.11941930651664734, -0.028448550030589104, -0.14547796547412872], [-0.26317083835601807, 0.0042038848623633385, 0.03689899295568466, 0.1339922994375229, 0.029490740969777107, -0.03390450403094292, -0.03840549290180206, -0.2055598795413971, -0.2257470190525055, -0.09992325305938721, -0.016391312703490257, -0.10194657742977142, -0.06963532418012619, 0.26048246026039124, 0.12952682375907898, -0.053665682673454285, 0.033904366195201874, -0.1261647641658783, 0.03739769011735916, 0.04197186231613159, 0.026722731068730354, -0.13342784345149994, -0.20717082917690277, 0.05561596155166626, 0.022954730316996574, -0.1986396461725235, -0.14559710025787354, 0.2038733810186386, 0.1478392630815506, -0.03387405350804329, -0.008447364903986454, -0.0794631615281105, 0.08350932598114014, 0.01894572004675865, 0.24688805639743805, -0.02063404582440853, 0.07385598868131638, -0.0041818474419415, 0.1230480968952179, -0.08896199613809586, -0.012775400653481483, 0.11659031361341476, -0.18243400752544403, 0.0399148054420948, 0.10514825582504272, 0.002274350030347705, -0.06709624826908112, -0.1512153446674347, -0.08607977628707886, 0.10091385990381241, -0.1793411523103714, -0.06285261362791061, -0.11323466897010803, 0.05209369584918022, -0.030934160575270653, -0.31422948837280273, 0.03841676563024521, 0.04598738253116608, -0.24006301164627075, 0.20428550243377686, -0.14513933658599854, -0.2075483500957489, -0.01953181065618992, 0.11467376351356506], [-0.009559878148138523, 0.06563801318407059, 0.15942834317684174, -0.3085111975669861, 0.1149110347032547, -0.007821643725037575, -0.11743183434009552, 0.03856942802667618, 0.04034721106290817, 0.09416457265615463, 0.11558394134044647, 0.0899454653263092, 0.25333982706069946, -0.06132698804140091, 0.08159977197647095, 0.1017892062664032, 0.03021337278187275, -0.06721871346235275, 0.10533158481121063, 0.06552087515592575, 0.13857850432395935, -0.16510528326034546, -0.10509509593248367, 0.010727987624704838, -0.00917889829725027, 0.22941645979881287, 0.09829600155353546, 0.06876298785209656, -0.09222788363695145, -0.22335834801197052, 0.14591921865940094, -0.3230237066745758, -0.0733431875705719, -0.0907224714756012, -0.25907424092292786, 0.352962464094162, 0.06948094069957733, 0.11863665282726288, -0.14584431052207947, 0.10263172537088394, -0.11412710696458817, -0.29470762610435486, 0.04757775366306305, -0.07286777347326279, -0.12591779232025146, -0.14035215973854065, -0.14281344413757324, 0.003313086461275816, 0.05205833539366722, -0.0867028683423996, -0.05060316249728203, 0.20609894394874573, 0.002445385791361332, -0.006478554103523493, 0.008930563926696777, -0.030756184831261635, 0.09424517303705215, 0.13432784378528595, 0.08298119902610779, -0.05861092731356621, 0.004111122339963913, 0.13738031685352325, 0.11112211644649506, -0.21330814063549042], [-0.18217432498931885, -0.17848679423332214, -0.10374223440885544, 0.09733366221189499, -0.19947966933250427, 0.07068611681461334, 0.02887961082160473, -0.1525249183177948, 0.12643630802631378, -0.3201325237751007, -0.03486206382513046, -0.23505134880542755, -0.3136403560638428, -0.13125672936439514, 0.15922068059444427, 0.04350392147898674, -0.13665485382080078, 0.11058145761489868, -0.13377711176872253, -0.2647838294506073, 0.21878600120544434, 0.002493783598765731, 0.18336129188537598, 0.110936738550663, -0.2295958250761032, 0.00772723788395524, 0.14481095969676971, 0.07525521516799927, 0.18287895619869232, 0.2059190273284912, -0.31008923053741455, 0.16641706228256226, 0.1912338137626648, 0.17125536501407623, -0.22896257042884827, -0.046818576753139496, 0.018989531323313713, 0.08850767463445663, 0.008877968415617943, 0.0536394938826561, 0.09092025458812714, 0.15306036174297333, -0.004220632370561361, 0.12305084615945816, -0.14297868311405182, -0.05681340768933296, 0.21662360429763794, -0.06591963022947311, -0.30705225467681885, 0.07926090806722641, -0.08761409670114517, -0.013888495974242687, -0.12330703437328339, -0.19735492765903473, -0.22917498648166656, -0.34687939286231995, -0.3343665599822998, 0.02060372196137905, 0.10939053446054459, 0.11467977613210678, -0.12304411828517914, -0.26962295174598694, -0.19539907574653625, 0.13684575259685516], [0.20439472794532776, 0.1568252593278885, 0.13876879215240479, -0.07562132924795151, 0.11510054022073746, -0.03985990956425667, 0.12294179946184158, 0.15659986436367035, -0.03959212452173233, 0.18001268804073334, -0.0372215211391449, 0.09931721538305283, 0.20639368891716003, -0.033904194831848145, -0.2690201699733734, -0.140513613820076, 0.20456011593341827, 0.0021185805089771748, -0.06729213893413544, -0.011679422110319138, 0.09502046555280685, 0.07744504511356354, -0.022964665666222572, 0.05134135112166405, -0.02574228122830391, 0.03637910261750221, 0.11427754908800125, 0.06532679498195648, -0.016119608655571938, 0.029305925592780113, 0.001654499676078558, -0.08784699440002441, 0.11367276310920715, 0.0056853932328522205, 0.12300748378038406, 0.07909953594207764, -0.028524773195385933, -0.09121380001306534, 0.018495481461286545, -0.18947890400886536, -0.009104892611503601, -0.029444696381688118, -0.05908893421292305, -0.1489783078432083, 0.2431294471025467, 0.1897684633731842, 0.006663152016699314, 0.12144900113344193, -0.021557768806815147, -0.1395254284143448, 0.16327005624771118, -0.0009859640849754214, 0.22165001928806305, 0.051777180284261703, 0.1997397541999817, 0.12759706377983093, 0.22782045602798462, -0.139689102768898, 0.00866640917956829, -0.015885069966316223, -0.05545425787568092, 0.0017617642879486084, 0.037128254771232605, -0.09671211987733841], [0.09266886860132217, -0.14966687560081482, -0.009452438913285732, 0.14491990208625793, -0.1552256941795349, -0.013195991516113281, 0.10058335959911346, -0.19026166200637817, 0.20142431557178497, -0.10444491356611252, -0.16298475861549377, 0.019010325893759727, 0.02560766413807869, -0.13385586440563202, -0.08407877385616302, -0.1914181411266327, 0.09677954763174057, 0.06968852877616882, -0.029220808297395706, -0.1102338582277298, 0.19091393053531647, 0.15188664197921753, 0.11835946887731552, -0.02389967441558838, -0.07941698282957077, -0.07415708154439926, -0.04730404168367386, 0.27646368741989136, 0.2105695754289627, -0.06281917542219162, -0.21445195376873016, 0.2148389220237732, 0.14363864064216614, 0.237309530377388, -0.351923406124115, -0.15848399698734283, -0.2041022926568985, 0.2387610524892807, 0.23086506128311157, 0.013721243478357792, 0.004502476193010807, 0.13910268247127533, 0.019118107855319977, 0.1205236092209816, -0.15598933398723602, 0.10655635595321655, 0.13834886252880096, 0.09420782327651978, -0.11608102172613144, 0.1741008311510086, -0.044959165155887604, -0.21535690128803253, -0.15960098803043365, -0.02705860324203968, -0.008066672831773758, -0.06802472472190857, -0.07133010029792786, -0.21944676339626312, 0.08020962029695511, 0.13048309087753296, 0.13306967914104462, -0.08135737478733063, -0.2398359328508377, 0.027347903698682785], [-0.09965790063142776, 0.18564073741436005, 0.19357796013355255, -0.26457932591438293, 0.11216945201158524, 0.09416564553976059, 0.07549101859331131, 0.07530934363603592, 0.05873413383960724, 0.07422569394111633, 0.10095125436782837, 0.01449546404182911, 0.03302152082324028, 0.23992769420146942, 0.16011089086532593, 0.20441541075706482, -0.015492814593017101, -0.0011246775975450873, -0.12882612645626068, -0.044326018542051315, -0.25452667474746704, -0.05242685228586197, 0.0054127867333590984, -0.02364260144531727, -0.1231486052274704, -0.12170775979757309, 0.1585419774055481, -0.15720458328723907, -0.08699633926153183, -0.04023641720414162, -0.11246459186077118, -0.07673683762550354, -0.25172510743141174, -0.10258107632398605, -0.07900165021419525, 0.16906003654003143, 0.12488516420125961, -0.06600000709295273, 0.05191078782081604, 0.08782045543193817, 0.012527474202215672, -0.19374221563339233, 0.12454377114772797, 0.08529777824878693, 0.031571414321660995, -0.3440633714199066, 0.0655827447772026, -0.06312856823205948, 0.19063816964626312, -0.1397942453622818, 0.15164805948734283, 0.06810835003852844, 0.04493160545825958, -0.17897269129753113, -0.18312278389930725, 0.09226582199335098, -0.053776815533638, 0.1456921249628067, 0.16156317293643951, -0.18552671372890472, 0.17627154290676117, 0.11858338117599487, 0.19587409496307373, -0.11045205593109131], [0.09262260794639587, -0.07884620130062103, -0.11540322750806808, 0.029134467244148254, -0.004029592499136925, -0.31950944662094116, -0.2036251723766327, 0.11610663682222366, 0.1440267562866211, 0.12528255581855774, -0.10416342318058014, 0.16206778585910797, 0.09869906306266785, -0.15732847154140472, -0.21402908861637115, 0.00411952193826437, 0.1813456416130066, -0.20293723046779633, 0.15687213838100433, 0.22804902493953705, 0.1988450288772583, -0.0987013429403305, -0.2182166427373886, -0.22699402272701263, 0.21347369253635406, 0.12281306833028793, -0.20213302969932556, -0.06117672473192215, 0.06238721311092377, -0.2674591839313507, 0.16561394929885864, -0.15289972722530365, 0.18439380824565887, -0.19565702974796295, -0.09557511657476425, 0.14260126650333405, -0.28728583455085754, 0.22424843907356262, -0.11795894801616669, -0.09662521630525589, -0.23141776025295258, -0.057631637901067734, -0.014073400758206844, -0.14913152158260345, -0.27266743779182434, 0.1011643335223198, -0.061315055936574936, -0.23641610145568848, 0.019444672390818596, 0.016528252512216568, -0.19687047600746155, 0.03631152585148811, -0.1014065220952034, 0.17080403864383698, 0.11775323003530502, -0.212763711810112, 0.16236072778701782, -0.18948525190353394, 0.10543086379766464, -0.09232689440250397, 0.1490340530872345, -0.11610766500234604, 0.08000585436820984, -0.2207777500152588], [0.0278896726667881, 0.16618230938911438, -0.00871507078409195, 0.094025619328022, 0.1481391340494156, -0.1505810171365738, -0.187982439994812, 0.04172694310545921, -0.18268945813179016, -0.03351547196507454, -0.0572538860142231, -0.008096587844192982, 0.15625058114528656, -0.013077935203909874, -0.2140001505613327, -0.20750339329242706, 0.06334946304559708, -0.07211897522211075, -0.00478294026106596, -0.004041995853185654, -0.04350186884403229, 0.15177187323570251, -0.14826823770999908, 0.16238734126091003, 0.0395437590777874, -0.03252901881933212, 0.17956691980361938, 0.022173017263412476, 0.013064582832157612, 0.04667540639638901, 0.15086834132671356, -0.36800074577331543, 0.006864796858280897, -0.1337098479270935, -0.05900305137038231, 0.1743844896554947, 0.21225999295711517, -0.12643490731716156, -0.0972583219408989, 0.08231544494628906, -0.09726879000663757, -0.1487734168767929, 0.00645675091072917, -0.10580219328403473, 0.09188150614500046, -0.057369619607925415, -0.1407068520784378, -0.1359516829252243, -0.07654611021280289, -0.023118754848837852, -0.2937854528427124, 0.029034940525889397, 0.20779944956302643, 0.16527383029460907, 0.21658752858638763, -0.29531174898147583, 0.256092369556427, 0.13402092456817627, 0.05262652784585953, 0.06970790773630142, -0.16253691911697388, 0.06041792780160904, 0.06384909898042679, -0.05465986207127571], [0.013722767122089863, -0.2035447061061859, -0.04674742743372917, 0.17266727983951569, -0.042873166501522064, -0.0630548819899559, 0.12745362520217896, -0.19323982298374176, -0.003023653756827116, -0.20436078310012817, -0.12191187590360641, -0.21926793456077576, -0.06797105818986893, -0.17367371916770935, -0.13869665563106537, -0.2706701159477234, -0.1134907528758049, 0.10642275214195251, -0.03958943113684654, 0.046374525874853134, 0.09563453495502472, 0.1420077383518219, 0.10704068094491959, 0.09236079454421997, 0.12074169516563416, 0.09378514438867569, 0.03279965743422508, 0.13263216614723206, 0.16117437183856964, 0.0933854728937149, -0.10447890311479568, 0.014006000012159348, 0.07179945707321167, 0.0670141652226448, -0.12741737067699432, -0.02687518298625946, -0.13032472133636475, 0.1641208678483963, 0.21407611668109894, -0.12902209162712097, 0.20835533738136292, 0.257167786359787, 0.025718046352267265, -0.019125541672110558, 0.14668893814086914, 0.23298579454421997, 0.13062945008277893, 0.20869672298431396, -0.09203384071588516, 0.12531082332134247, 0.14254918694496155, -0.22589217126369476, -0.044756460934877396, 0.08638283610343933, 0.11221900582313538, 0.04233664646744728, 0.14966967701911926, 0.07899810373783112, -0.145910382270813, 0.007245059125125408, -0.07253152132034302, 0.028336571529507637, -0.24650637805461884, 0.12214429676532745], [-0.08733858913183212, 0.005886494182050228, -0.00485747866332531, -0.18459533154964447, 0.12383478879928589, 0.0752248615026474, -0.18369346857070923, 0.11696682125329971, -0.09363603591918945, 0.10527662932872772, 0.12605945765972137, 0.04042360559105873, 0.017060432583093643, -0.09145168215036392, -0.009888333268463612, 0.15880030393600464, -0.14420269429683685, 0.13064579665660858, 0.09583934396505356, 0.038523998111486435, -0.008684961125254631, -0.060672882944345474, 0.14791938662528992, 0.11063773185014725, -0.21526266634464264, 0.2180854231119156, 0.12734311819076538, -0.07894226163625717, -0.05050843954086304, -0.04674769937992096, 0.18725545704364777, 0.038235172629356384, -0.1745927929878235, -0.01652986742556095, -0.09958680719137192, 0.18762783706188202, 0.1893748790025711, -0.06402911245822906, -0.024113241583108902, 0.17692317068576813, -0.0656362995505333, -0.18815860152244568, 0.023836646229028702, 0.041154615581035614, -0.04102761298418045, -0.24425509572029114, 0.12642642855644226, 0.018331747502088547, -0.059269439429044724, 0.01716878078877926, 0.05037836730480194, 0.033805523067712784, -0.1122329831123352, -0.08328724652528763, -0.0617666020989418, 0.061338551342487335, -0.11597690731287003, 0.059156887233257294, 0.07985316962003708, -0.06886355578899384, 0.02239667810499668, 0.17942394316196442, 0.03900183364748955, -0.1057552769780159], [-0.05249926820397377, 0.045951101928949356, 0.10882403701543808, -0.11323156207799911, 0.21912436187267303, 0.07225678861141205, 0.009809477254748344, -0.06310062855482101, 0.013965373858809471, 0.16220605373382568, 0.1281708925962448, -0.016645343974232674, 0.1365697681903839, 0.21280285716056824, 0.09948883950710297, 0.06720618158578873, 0.01663113757967949, -0.0449211522936821, 0.13401901721954346, 0.0715993121266365, -0.13165341317653656, -0.11922316998243332, -0.06502334773540497, 0.20913702249526978, -0.05811214819550514, 0.0579194575548172, 0.054952748119831085, -0.04707706347107887, -0.12323664873838425, -0.07523927092552185, 0.010602924972772598, -0.14225780963897705, -0.07430896908044815, -0.034263916313648224, -0.1284635365009308, 0.17111605405807495, 0.02248048409819603, 0.057154156267642975, -0.11941654235124588, 0.04783330857753754, -0.0768066868185997, -0.10019393265247345, -0.033166300505399704, 0.04696865379810333, 0.03324446082115173, -0.20939046144485474, -0.05284472182393074, 0.03369080647826195, 0.16517238318920135, 0.019142571836709976, 0.11895714700222015, 0.15057890117168427, 0.21590571105480194, 0.05943165719509125, 0.00839260034263134, -0.07673709094524384, -0.03793736919760704, 0.16604770720005035, 0.048056308180093765, -0.005533426534384489, 0.16097639501094818, 0.04518895968794823, 0.09242039918899536, -0.19504445791244507], [0.21390478312969208, -0.19630925357341766, -0.09136432409286499, 0.008698904886841774, -0.011995678767561913, -0.3021632730960846, 0.08090928196907043, -0.028753560036420822, -0.08740142732858658, -0.11166820675134659, -0.21435703337192535, -0.051992472261190414, -0.09232668578624725, -0.3345955014228821, -0.36837512254714966, -0.25732019543647766, 0.02220999076962471, 0.028735235333442688, 0.04042778164148331, 0.1827017068862915, -0.003914665896445513, 0.18036112189292908, -0.03456748649477959, -0.1157582551240921, 0.16142578423023224, 0.19343900680541992, 0.0511259064078331, -0.14021086692810059, -0.03587697446346283, 0.09566909074783325, 0.00894220732152462, -0.030220456421375275, 0.08423202484846115, 0.11680371314287186, 0.12687626481056213, -0.18523667752742767, -0.17648042738437653, -0.014478960074484348, -0.1463930755853653, -0.28253597021102905, 0.1982693076133728, 0.09987568855285645, -0.22111481428146362, -0.22221751511096954, 0.12548013031482697, 0.2787249684333801, 0.06553823500871658, 0.16164404153823853, 0.03255981579422951, -0.23256759345531464, 0.12858591973781586, -0.05773057043552399, 0.1309344321489334, -0.047374427318573, 0.27283480763435364, 0.11154118180274963, 0.06953055411577225, -0.25822946429252625, -0.06430470198392868, -0.1075739860534668, -0.02879667654633522, 0.23598313331604004, -0.17083683609962463, 0.06283401697874069], [-0.06321923434734344, 0.16232027113437653, 0.1014767438173294, 0.05608990788459778, 0.0857459157705307, 0.16684189438819885, -0.002228792756795883, -0.01280827447772026, -0.017722787335515022, -0.03406111150979996, 0.07521338015794754, -0.02598894014954567, 0.0919586643576622, 0.11519742757081985, 0.14254535734653473, 0.0321991927921772, -0.044063981622457504, -0.09818950295448303, -0.11164793372154236, -0.1486167460680008, -0.05305274575948715, -0.006803767289966345, -0.0039244405925273895, 0.037269383668899536, 0.061674825847148895, -0.06453558057546616, 0.07313909381628036, -0.08746492117643356, -0.05555899813771248, 0.04644142836332321, -0.12622547149658203, -0.09433206915855408, -0.09858130663633347, 0.0703512579202652, -0.1199181079864502, 0.031138528138399124, 0.09067051112651825, -0.0831984281539917, 0.06537818908691406, 0.007421612273901701, -0.047612134367227554, 0.020053524523973465, 0.07145261764526367, 0.00685023283585906, 0.13672597706317902, -0.15404687821865082, -0.08205022662878036, 0.035000018775463104, 0.11580626666545868, 0.04038852080702782, -0.029169250279664993, 0.10282395780086517, 0.20942427217960358, 0.05571945756673813, -0.1087900698184967, -0.1317092478275299, 0.07196984440088272, 0.09275835752487183, 0.011790001764893532, 0.08397810161113739, 0.028324438259005547, -0.011422473937273026, -0.0026028018910437822, -0.034168872982263565], [0.05905609577894211, -0.013177449814975262, 0.07742355763912201, 0.1463967263698578, 0.016207249835133553, 0.01452148612588644, -0.161940336227417, -0.09595002979040146, -0.23025667667388916, -0.13948610424995422, -0.08388269692659378, -0.33891043066978455, -0.09941501915454865, 0.11132574826478958, -0.04101909324526787, -0.17668452858924866, -0.3099275529384613, -0.03611966595053673, -0.14534954726696014, -0.1411435604095459, 0.10045304894447327, 0.11807599663734436, 0.04996795579791069, 0.1779152750968933, -0.09342782944440842, 0.06917788833379745, 0.15805047750473022, -0.020105751231312752, 0.16040103137493134, 0.26747679710388184, 0.07480818033218384, 0.025691337883472443, -0.04319104552268982, 0.20779377222061157, -0.06714751571416855, 0.18692441284656525, 0.17753899097442627, -0.07786942273378372, 0.11030219495296478, 0.1936076134443283, -0.13816730678081512, 0.18607939779758453, 0.2253471165895462, 0.11416346579790115, 0.19260387122631073, -0.07209285348653793, 0.12290072441101074, -0.14493539929389954, -0.17317208647727966, 0.08988549560308456, -0.1828651875257492, -0.12046299129724503, 0.06519877165555954, -0.0955304428935051, -0.0523817241191864, -0.34159958362579346, 0.05735257267951965, 0.15527302026748657, 0.004028423223644495, 0.2008354216814041, -0.31798508763313293, -0.07902837544679642, -0.2609291672706604, 0.10812380164861679], [0.12276759743690491, 0.008035477250814438, -0.17636939883232117, 0.01838538609445095, 0.0199782345443964, -0.21439485251903534, 0.02689395286142826, 0.12172745168209076, 0.08284397423267365, 0.15604129433631897, 0.14031286537647247, -0.011843233369290829, 0.12826915085315704, -0.05339780077338219, -0.12060283869504929, 0.09594131261110306, 0.10259238630533218, 0.14342457056045532, 0.04751698300242424, 0.11279140412807465, 0.056019216775894165, 0.06780587881803513, -0.06185929849743843, -0.0777251347899437, 0.2242916077375412, 0.09021876752376556, -0.008604278787970543, -0.11357472091913223, -0.07721476256847382, -0.08368188142776489, -0.08873222023248672, 0.033766984939575195, 0.12042844295501709, -0.07282085716724396, 0.007477202918380499, -0.04842396080493927, -0.08529465645551682, -0.0688357725739479, -0.08011868596076965, -0.15959689021110535, 0.15646013617515564, -0.014131257310509682, -0.23751194775104523, -0.11827963590621948, -0.1200638860464096, 0.18620364367961884, 0.04432971775531769, 0.010934124700725079, -0.04241248965263367, -0.20040683448314667, 0.11909648030996323, -0.07270588725805283, 0.05104236304759979, 0.09807192534208298, 0.09273252636194229, 0.07081563025712967, 0.0421416349709034, -0.030257027596235275, 0.1314569115638733, 0.0014971677446737885, 0.19693529605865479, 0.18065614998340607, 0.11860388517379761, -0.1166415885090828], [6.635198224103078e-05, 0.07823899388313293, 0.1013135313987732, 0.08978491276502609, -0.2347591370344162, 0.11584623903036118, 0.1690022051334381, 0.1330449879169464, 0.0899057686328888, 0.06032424420118332, -0.0691191777586937, 0.154017835855484, 0.09279989451169968, -0.134494349360466, 0.035052720457315445, -0.07959668338298798, 0.12418882548809052, -0.2058357447385788, 0.043434545397758484, -0.05172409117221832, 0.07411890476942062, -0.02575245499610901, -0.15216794610023499, -0.023289639502763748, 0.18457379937171936, -0.12629538774490356, -0.16221500933170319, 0.018070008605718613, 0.08561810851097107, -0.2130955457687378, -0.020353036001324654, -0.10525647550821304, 0.14654208719730377, 0.23938912153244019, -0.24634405970573425, -0.050304610282182693, -0.13616706430912018, 0.16517439484596252, 0.08309203386306763, -0.12360916286706924, -0.040278345346450806, 0.04768235608935356, 0.10205124318599701, -0.0066649774089455605, -0.020774859935045242, 0.0740324854850769, -0.07659461349248886, 0.05196801945567131, 0.15007737278938293, 0.06156637519598007, 0.05557786300778389, 0.1008777841925621, -0.02314065769314766, 0.17337362468242645, 0.04920085892081261, -0.14442722499370575, 0.12136460095643997, -0.1161101683974266, 0.08061519265174866, -0.06588401645421982, 0.1818302422761917, -0.14675433933734894, -0.05275310203433037, -0.15908567607402802], [-0.20954629778862, -0.25894755125045776, -0.05788017064332962, 0.05544479191303253, -0.25652995705604553, 0.12753036618232727, 0.12504516541957855, -0.31479308009147644, 0.18817730247974396, -0.15842604637145996, 0.046525828540325165, -0.1748906672000885, -0.2540549337863922, 0.049482207745313644, 0.16341443359851837, 0.07154561579227448, -0.05618681013584137, 0.13321955502033234, -0.10206622630357742, -0.2620213031768799, 0.16357266902923584, -0.027158834040164948, 0.1938835233449936, 0.017075737938284874, -0.27187779545783997, -0.11966518312692642, -0.006566923577338457, 0.052941177040338516, 0.11980482935905457, 0.1040099486708641, -0.27451732754707336, 0.07735490053892136, 0.1658344864845276, 0.08726174384355545, -0.2853422462940216, -0.06245928257703781, -0.08716979622840881, 0.23700077831745148, 0.20245914161205292, 0.22926414012908936, -0.1914242058992386, 0.19269385933876038, 0.08282951265573502, 0.07750092446804047, -0.1284818947315216, -0.049491629004478455, 0.06127788498997688, 0.02632930502295494, -0.2594187259674072, 0.12353432178497314, -0.1733267456293106, -0.1462988406419754, -0.17601607739925385, -0.129405677318573, -0.19741763174533844, -0.1584457904100418, -0.3363199532032013, 0.03795691952109337, 0.10132995247840881, 0.16505225002765656, -0.2001045197248459, -0.16653454303741455, -0.14601697027683258, 0.044107574969530106], [-0.04509679228067398, 0.07794813811779022, 0.12147071212530136, -0.0669875368475914, 0.23203565180301666, 0.03702645003795624, 0.11828596144914627, -0.05117865651845932, -0.144364133477211, 0.14669206738471985, 0.21112558245658875, 0.02983124554157257, 0.03418609872460365, 0.14659443497657776, 0.06803207844495773, 0.04271189123392105, -0.22334352135658264, 0.15061669051647186, -0.06511955708265305, 0.12473386526107788, -0.11607719957828522, 0.08159694820642471, 0.11902684718370438, 0.02467198297381401, -0.05141320452094078, 0.04637596011161804, 0.07562614232301712, -0.2138092815876007, -0.09081531316041946, 0.0734090581536293, -0.05107488855719566, -0.12227605283260345, -0.2331656813621521, 0.022963160648941994, 0.2548580467700958, 0.011401076801121235, 0.19188691675662994, -0.20218758285045624, -0.1936667263507843, 0.17836621403694153, 0.236015185713768, -0.15846960246562958, -0.1403113156557083, 0.0066299703903496265, 0.0031996897887438536, -0.05987190827727318, 0.038824863731861115, -0.006489704828709364, 0.13666455447673798, -0.10192988812923431, 0.10491332411766052, 0.04218018427491188, 0.08595465868711472, -0.16971227526664734, 0.09801112115383148, 0.12098006904125214, 0.05855678394436836, 0.1367882341146469, -0.050616294145584106, -0.015139948576688766, -0.038893669843673706, 0.20812441408634186, 0.10128223896026611, 0.10960525274276733], [0.16463571786880493, -0.1304626166820526, -0.0029682526364922523, 0.07234806567430496, -0.1891448050737381, -0.1451237052679062, -0.07637796550989151, 0.056975603103637695, 0.09118019044399261, 0.023869523778557777, -0.06186031922698021, 0.0005551044596359134, 0.08697815239429474, -0.046854134649038315, -0.2175857126712799, -0.08335918933153152, 0.0386163704097271, -0.2136732041835785, 0.244500994682312, 0.181609645485878, 0.14758552610874176, -0.066450335085392, -0.07213559001684189, -0.04672025889158249, 0.02713538520038128, 0.17055681347846985, -0.09873251616954803, 0.009308023378252983, 0.12398689985275269, -0.068667471408844, 0.1947854459285736, -0.16726109385490417, 0.038833897560834885, 0.056195322424173355, -0.180734321475029, 0.001997648272663355, -0.28486496210098267, 0.008935152553021908, -0.13241416215896606, -0.015693865716457367, -0.24995116889476776, 0.11208219826221466, 0.1470900923013687, -0.14143191277980804, -0.19817715883255005, 0.14103879034519196, -0.048481300473213196, -0.13587938249111176, -0.029204225167632103, 0.13567176461219788, -0.19171369075775146, 0.15287961065769196, -0.17221243679523468, 0.10729259252548218, 0.06580162048339844, -0.13321593403816223, 0.02354280650615692, -0.22891895473003387, 0.1275070458650589, 0.015132157132029533, 0.10340837389230728, -0.1606876403093338, 0.12545350193977356, -0.13577580451965332], [-0.10320030152797699, 0.054848477244377136, 0.035451002418994904, 0.01034088060259819, 0.07291610538959503, 0.03158164396882057, 0.10964091867208481, -0.10197868943214417, -0.17180059850215912, 0.048320699483156204, -0.02251085638999939, -0.05289923772215843, -0.28831955790519714, 0.021822020411491394, -0.07880011200904846, 0.07704819738864899, -0.2393106073141098, 0.16922709345817566, -0.058984193950891495, 0.17568588256835938, -0.040165361016988754, 0.07204442471265793, 0.2175179123878479, 0.07004888355731964, -0.10294179618358612, 0.23815637826919556, 0.010328440926969051, -0.26058319211006165, -0.11248563975095749, 0.2432302087545395, 0.060593653470277786, 0.18214702606201172, -0.20277468860149384, -0.0629635751247406, 0.32419389486312866, -0.03846888616681099, -0.014601961709558964, -0.10146758705377579, -0.09887339174747467, 0.14125216007232666, 0.22476698458194733, 0.061492275446653366, -0.12699224054813385, 0.013772152364253998, 0.06660371273756027, 0.14104218780994415, 0.14600078761577606, -0.0989934653043747, 0.04077845439314842, -0.05109123885631561, 0.07008479535579681, 0.006783568300306797, -0.016525790095329285, -0.192667618393898, -0.08202380686998367, 0.006368834059685469, -0.05889049544930458, 0.1347869634628296, 0.04486866295337677, -0.09357046335935593, -0.06923249363899231, 0.1615665704011917, 0.09585078805685043, 0.22083765268325806], [0.109652079641819, -0.07631778717041016, 0.051451265811920166, 0.2079026997089386, -0.17602942883968353, -0.07941324263811111, 0.11406965553760529, -0.0013268864713609219, -0.008837862871587276, -0.15914054214954376, -0.06805453449487686, 0.02783150039613247, 0.010306455194950104, -0.16916197538375854, -0.2165837585926056, -0.13513433933258057, 0.022332889959216118, 0.06998106092214584, 0.04855012521147728, 0.1188662126660347, 0.178977832198143, 0.15086211264133453, 0.03446506708860397, 0.1192132756114006, 0.10550834983587265, 0.14190609753131866, 0.07872829586267471, 0.13900065422058105, 0.2222386598587036, 0.14939679205417633, 0.1261298954486847, 0.13021275401115417, 0.16607826948165894, 0.1896693855524063, -0.012407380156219006, -0.17126260697841644, -0.20039226114749908, 0.10137103497982025, 0.158830925822258, -0.003996840212494135, 0.12461774051189423, 0.12134065479040146, 0.1254677027463913, -0.058968622237443924, -0.09668430685997009, 0.19693569839000702, 0.08859037607908249, 0.03640683367848396, -0.15315324068069458, 0.15686416625976562, 0.1090274304151535, -0.10910242795944214, -0.09037601947784424, 0.015614209696650505, 0.15432831645011902, 0.1057351678609848, 0.05241869390010834, -0.22790133953094482, 0.005797810852527618, 0.09430509060621262, 0.040514253079891205, -0.10658252239227295, -0.10049420595169067, -0.012026062235236168], [0.07436543703079224, -0.17577847838401794, -0.10162580013275146, 0.0021369215101003647, -0.000589067698456347, -0.39386463165283203, -0.19295847415924072, 0.1606927514076233, 0.0746290534734726, 0.14243699610233307, -0.05474788323044777, 0.16104890406131744, 0.18627271056175232, -0.24029622972011566, -0.13755474984645844, 0.074262335896492, 0.09787195175886154, -0.1724494844675064, 0.1442304104566574, 0.2501758933067322, 0.20859506726264954, -0.07773891091346741, -0.15480482578277588, -0.2388310581445694, 0.07715459167957306, 0.21088600158691406, -0.2364932745695114, 0.0981108546257019, -0.06499078869819641, -0.23462913930416107, 0.2138432413339615, -0.09128788113594055, 0.18882237374782562, -0.18313276767730713, -0.16355592012405396, 0.03242075815796852, -0.3780883848667145, 0.18665078282356262, -0.15628372132778168, 0.001256760093383491, -0.31191813945770264, -0.1080254390835762, 0.11038626730442047, -0.13876724243164062, -0.3606760501861572, -0.047821156680583954, 0.00112661044113338, -0.24860113859176636, 0.1363835483789444, 0.03726695477962494, -0.17837822437286377, -0.004418997094035149, -0.18713083863258362, 0.007381589151918888, 0.18217389285564423, -0.1671610176563263, 0.0023519869428128004, -0.3055799603462219, 0.07119787484407425, 0.06372243911027908, 0.07746859639883041, -0.17650048434734344, 0.12846308946609497, -0.15157990157604218], [0.0922388955950737, 0.1476273536682129, 0.24384184181690216, -0.10521072149276733, 0.05277105048298836, 0.2001158446073532, 0.13964048027992249, 0.03843003511428833, 0.058348335325717926, 0.24274428188800812, 0.16181500256061554, 0.14416563510894775, 0.051162268966436386, 0.1284295618534088, 0.07951024174690247, -0.10426564514636993, 0.16188469529151917, -0.07299960404634476, -0.003911635838449001, 0.08568236231803894, -0.15277212858200073, 0.025650570169091225, -0.1891619861125946, -0.03004581108689308, 0.048058293759822845, -0.08814672380685806, 0.009415709413588047, -0.023806162178516388, -0.14679144322872162, -0.18718798458576202, -0.04391565918922424, -0.05846995487809181, -0.008621868677437305, 0.08244264125823975, -0.03715329244732857, -0.06068648025393486, 0.08646820485591888, -0.1375710368156433, -0.02983258292078972, -0.061808470636606216, 0.029652003198862076, -0.19348642230033875, -0.1826792061328888, -0.20587573945522308, -0.057833921164274216, -0.10312152653932571, -0.01204652525484562, 0.24141953885555267, 0.07899550348520279, -0.22281137108802795, 0.005411256104707718, -0.035539377480745316, 0.2511790692806244, -0.06529203057289124, 0.09694121778011322, 0.14723670482635498, 0.02506367675960064, 0.03462749347090721, 0.09342163056135178, -0.201030433177948, 0.11066175997257233, 0.18734724819660187, 0.1319313496351242, -0.08152158558368683], [0.10961031913757324, -0.20430563390254974, -0.09822212159633636, 0.11718858033418655, -0.05109944939613342, -0.15821905434131622, 0.188510462641716, -0.23125505447387695, -0.12119817733764648, -0.07200937718153, -0.1842522770166397, -0.27103716135025024, -0.14103126525878906, 0.021636513993144035, -0.018526196479797363, -0.21176135540008545, -0.2503741383552551, 0.15346430242061615, -0.2189355492591858, 0.04730953648686409, 0.0946016013622284, 0.181478351354599, 0.1561955213546753, -0.059981510043144226, 0.13711731135845184, -0.00965829100459814, 0.00020837488409597427, -0.009112643077969551, 0.30754005908966064, 0.14933747053146362, -0.08249977976083755, 0.10917629301548004, 0.15413539111614227, 0.0291414987295866, 0.09856314212083817, 0.06623517721891403, -0.00740087078884244, -0.03251488879323006, 0.06756375730037689, -0.04684074595570564, 0.18548034131526947, 0.18505768477916718, 0.17922574281692505, 0.040609296411275864, 0.14525021612644196, 0.15242162346839905, 0.0025109241250902414, 0.15088403224945068, -0.21767830848693848, 0.16044358909130096, 0.07035621255636215, -0.3233718276023865, 0.029511749744415283, -0.2528400123119354, -0.05287468433380127, 0.1135970875620842, 0.13594846427440643, 0.009017652831971645, -0.16461911797523499, 0.132135272026062, -0.15623913705348969, 0.13740386068820953, -0.2753295302391052, 0.22218823432922363], [0.12006871402263641, -0.1054854691028595, 0.046016085892915726, 0.1975216567516327, 0.026392577216029167, -0.050272196531295776, -0.02064489759504795, -0.17788764834403992, -0.18451474606990814, -0.1585141271352768, -0.1646391749382019, -0.3483492434024811, -0.13100257515907288, -0.002689073095098138, -0.13939131796360016, -0.12933963537216187, -0.27087047696113586, 0.12339996546506882, -0.3031322658061981, 0.017677757889032364, 0.08928423374891281, 0.1888083964586258, 0.14548079669475555, 0.11114994436502457, 0.05560089647769928, 0.0391046516597271, 0.25167423486709595, -0.06217106059193611, 0.19639952480793, 0.08507093787193298, 0.12785309553146362, 0.1406061053276062, -0.0439179465174675, 0.15097470581531525, 0.04990648105740547, 0.14707210659980774, 0.04033760353922844, -0.021886572241783142, 0.07759832590818405, 0.09003937244415283, 0.061185065656900406, 0.05430753529071808, 0.13024508953094482, -0.005038049537688494, 0.23415987193584442, 0.060089193284511566, 0.11379393935203552, 0.1097530722618103, -0.14038683474063873, 0.18024232983589172, -0.013718358241021633, -0.19128026068210602, 0.12508505582809448, -0.12278353422880173, -0.01105313841253519, -0.007698397152125835, 0.24638214707374573, 0.0666203424334526, -0.07704918086528778, -0.022125625982880592, -0.41964036226272583, -0.054069407284259796, -0.2979549169540405, 0.10353615880012512], [-0.05791222304105759, 0.09293700009584427, 0.09043038636445999, -0.24887396395206451, 0.11729305237531662, 0.21919898688793182, -0.00934328231960535, 0.12014750391244888, 0.08057326823472977, 0.1996997892856598, 0.14735862612724304, 0.06984327733516693, 0.07545258104801178, -0.0155434375628829, 0.064041867852211, 0.1440928876399994, 0.2754116952419281, -0.18088428676128387, 0.2163018435239792, 0.10266001522541046, 0.04596782103180885, -0.1526545137166977, -0.27490246295928955, -0.027689538896083832, 0.11478833109140396, 0.017335394397377968, -0.030953029170632362, 0.14956295490264893, -0.1230713278055191, -0.32863131165504456, -0.06410559266805649, -0.11685878783464432, 0.0719958245754242, -0.1258501261472702, -0.13169193267822266, 0.10300662368535995, 0.007310234475880861, 0.07019709050655365, -0.015482298098504543, 0.014879658818244934, -0.13405491411685944, -0.20236200094223022, -0.034629687666893005, -0.08716609328985214, -0.23916618525981903, -0.08585362136363983, -0.13831377029418945, -0.034741874784231186, 0.1948564648628235, -0.043987732380628586, 0.05464277043938637, 0.09701309353113174, 0.03490680456161499, 0.16989852488040924, 0.10916294157505035, -0.03402036800980568, 0.06696118414402008, -0.06881573051214218, 0.22232814133167267, -0.027113424614071846, 0.1796053797006607, 0.07896175235509872, 0.1700456589460373, -0.25521165132522583], [0.02097277157008648, -0.1049409955739975, -0.02357429265975952, 0.19753767549991608, -0.04877214878797531, -0.06405466794967651, -0.02910030446946621, -0.02583329938352108, -0.039545875042676926, -0.020034924149513245, -0.22144530713558197, -0.17763163149356842, -0.02205396257340908, -0.016193987801671028, -0.15698400139808655, -0.1443716287612915, -0.01353402528911829, 0.16885557770729065, -0.02269580028951168, 0.07876942306756973, 0.1312205195426941, 0.10769958794116974, 0.13990351557731628, 0.024772416800260544, 0.04814383387565613, 0.17165766656398773, 0.22870196402072906, 0.16259421408176422, 0.2055302858352661, 0.10054215788841248, 0.05663593113422394, 0.10463817417621613, 0.19956836104393005, 0.12283910065889359, 0.012750204652547836, 0.026706403121352196, -0.02472495473921299, 0.021781202405691147, 0.13052791357040405, 0.035356465727090836, -0.002555381041020155, 0.2100655436515808, 0.07143399864435196, 0.05347878485918045, 0.009071269072592258, 0.13434413075447083, 0.13410115242004395, 0.043275102972984314, -0.13397710025310516, 0.13784320652484894, -0.03249479830265045, 0.013560737483203411, 0.005278631579130888, 0.002512692240998149, -0.03184867277741432, -0.10204984247684479, 0.23198360204696655, -0.005588088184595108, -0.08850524574518204, 0.2504022419452667, -0.15025374293327332, -0.13673603534698486, -0.1426910161972046, 0.06378264725208282], [-0.2119114249944687, 0.017747949808835983, -0.09408806264400482, -0.0606631301343441, -0.05563373118638992, -0.018196655437350273, -0.04442572966217995, -0.07222194969654083, 0.23411771655082703, 0.02530067041516304, -0.006712387781590223, 0.14874352514743805, -0.13989819586277008, -0.05674494430422783, 0.16414347290992737, 0.03507544845342636, 0.17359179258346558, 0.0704704076051712, 0.25660440325737, 0.11337048560380936, 0.1194620206952095, -0.07158695161342621, 0.19649721682071686, -0.18965943157672882, -0.06950826942920685, 0.05550401657819748, -0.17890730500221252, 0.1324019879102707, 0.11300666630268097, -0.07920542359352112, 0.11810146272182465, 0.1876244843006134, 0.0666525810956955, -0.007088148966431618, -0.0657622218132019, 0.04910987615585327, -0.03990339860320091, 0.14252932369709015, 0.04143878445029259, 0.14200682938098907, -0.003837152384221554, 0.19811391830444336, -0.027871064841747284, 0.16458669304847717, -0.16220347583293915, 0.004366260953247547, 0.0943351611495018, -0.017104055732488632, 0.10894783586263657, 0.03587256371974945, -0.05588425323367119, 0.11991117149591446, -0.35545143485069275, -0.054325565695762634, -0.16190920770168304, 0.01068784762173891, -0.23771429061889648, 0.04902629554271698, 0.19944967329502106, -0.07912969589233398, 0.0690876692533493, 0.09100200980901718, 0.17745502293109894, -0.030490562319755554], [0.038947995752096176, 0.17361637949943542, 0.13163603842258453, 0.055162593722343445, -0.2601994276046753, 0.2622548043727875, 0.147302508354187, 0.0902368500828743, -0.023634672164916992, -0.06352601945400238, -0.03706984594464302, -0.04028556868433952, -0.0076248967088758945, 0.1342877745628357, 0.15455561876296997, -0.0538068488240242, -0.06408180296421051, 0.08447563648223877, -0.06781807541847229, -0.16154491901397705, 0.015622095204889774, 0.06360521912574768, -0.010092955082654953, -0.03884580731391907, -0.006288384553045034, -0.07757458835840225, -0.02056744508445263, 0.012753631919622421, 0.014155866578221321, -0.048748888075351715, -0.08710485696792603, -0.038215674459934235, -0.07558389008045197, 0.14977800846099854, -0.3809485137462616, 0.04306517913937569, 0.2374035120010376, -0.09429729729890823, 0.068283811211586, -0.06292814016342163, 0.0033240006305277348, 0.019363315775990486, 0.08562212437391281, 0.1805116832256317, -0.022623244673013687, -0.23213621973991394, -0.027710700407624245, 0.09129193425178528, 0.10149431973695755, 0.17175884544849396, 0.011782651767134666, -0.07079322636127472, 0.047963738441467285, -0.1321512758731842, -0.05779184028506279, -0.09688347578048706, -0.053817201405763626, 0.17538410425186157, 0.014936099760234356, -0.13334733247756958, 0.1028124988079071, -0.05963844433426857, 0.11842088401317596, -0.11200680583715439], [-0.2559613585472107, 0.10177332907915115, 0.008109761402010918, 0.0528702475130558, 0.28300249576568604, 0.16954725980758667, -0.1925659328699112, -0.045336026698350906, -0.23587296903133392, 0.0456119067966938, 0.19254079461097717, -0.05701819807291031, -0.014452398754656315, 0.17273318767547607, 0.08002813160419464, 0.1412225067615509, -0.09265044331550598, -0.013380155898630619, -0.025994662195444107, -0.009557068347930908, -0.06878569722175598, -0.18608586490154266, -0.03740004822611809, 0.20849089324474335, -0.139595165848732, -0.011320515535771847, 0.08104627579450607, -0.08902347832918167, -0.09873097389936447, -0.01636592298746109, 0.1166815534234047, -0.21876774728298187, -0.23127950727939606, -0.053014691919088364, 0.1912633776664734, 0.17169342935085297, 0.13652700185775757, -0.08260974287986755, -0.08976532518863678, 0.170166477560997, -0.100892573595047, -0.26609647274017334, -0.012647191993892193, -0.01909768208861351, 0.08637386560440063, -0.25823038816452026, -0.04590434953570366, -0.09051834046840668, 0.019080093130469322, 0.0389772467315197, -0.020347660407423973, 0.08460697531700134, 0.14525984227657318, -0.15258418023586273, 0.05020961910486221, -0.0017988613108173013, 0.000526184681802988, 0.10551229119300842, -0.04138905927538872, -0.02667575143277645, 0.11469124257564545, 0.005126822739839554, 0.022182852029800415, -0.011150836013257504], [-0.34065714478492737, 0.09603465348482132, 0.04846975952386856, 0.0599193349480629, 0.12843267619609833, -0.11725246906280518, -0.2815876007080078, -0.014028462581336498, -0.1481950581073761, 0.1255587488412857, 0.20821788907051086, -0.05672828480601311, -0.1749640256166458, 0.017319330945611, -0.054118309170007706, 0.16995498538017273, -0.30951908230781555, 0.12512259185314178, -0.010648073628544807, 0.08915022760629654, -0.018767498433589935, -0.30828994512557983, 0.15755081176757812, 0.02772791124880314, -0.19109821319580078, 0.21379756927490234, 0.17367973923683167, -0.10600477457046509, -0.17436647415161133, 0.12410731613636017, 0.0587272047996521, -0.20665046572685242, -0.20818185806274414, -0.1290508210659027, 0.1888890415430069, 0.20460878312587738, 0.21084903180599213, -0.03843022137880325, -0.11993630230426788, 0.08291161060333252, -0.09348613768815994, -0.20186880230903625, -0.07394945621490479, 0.054339971393346786, 0.03551893308758736, -0.22732897102832794, -0.0005177594139240682, -0.18013896048069, 0.044297751039266586, -0.06243396922945976, -0.08081906288862228, 0.07746822386980057, -0.17906013131141663, -0.1117514818906784, -0.10905507206916809, -0.03174334391951561, -0.08149741590023041, 0.16098915040493011, 0.003993224818259478, 0.044837623834609985, -0.02761191874742508, 0.13662761449813843, 0.13584285974502563, 0.11000723391771317], [0.16480304300785065, -0.1186075210571289, -0.013102646917104721, 0.11082489788532257, 0.17765256762504578, -0.19600927829742432, 0.06802242249250412, 0.1122070774435997, -0.10874243080615997, 0.07626251131296158, -0.11660526692867279, -0.03367626294493675, 0.18965288996696472, -0.27472826838493347, -0.4637771546840668, -0.24668118357658386, 0.08457443118095398, 0.10435628890991211, 0.04834509268403053, 0.07886428385972977, 0.0005701377522200346, 0.2901095449924469, -0.12860612571239471, 0.034146275371313095, 0.0873309001326561, 0.08772330731153488, 0.16840675473213196, -0.0017990776104852557, -0.0867152065038681, 0.1254446655511856, 0.1238735020160675, -0.10393208265304565, -0.03219427168369293, 0.11663868278265, 0.12079700827598572, -0.008897779509425163, 0.0254039503633976, -0.18949535489082336, -0.08661171793937683, -0.06831096857786179, 0.056257229298353195, -0.048698246479034424, -0.06774221360683441, -0.2311817854642868, 0.04681664705276489, 0.12446293979883194, 0.009025495499372482, 0.23718014359474182, -0.04132293909788132, -0.24604274332523346, 0.00935367587953806, -0.20061001181602478, 0.08730403333902359, 0.04471295326948166, 0.1194160059094429, 0.044801365584135056, 0.24240773916244507, -0.003745053196325898, -0.11973851919174194, -0.000149571817019023, -0.13720543682575226, 0.07259542495012283, -0.14443199336528778, -0.09631980210542679], [-0.12074817717075348, -0.1732793152332306, 0.054184626787900925, 0.06959714740514755, -0.06933260709047318, 0.17494170367717743, -0.005192699376493692, -0.12641605734825134, -0.06795699149370193, -0.20402468740940094, -0.06353005021810532, -0.1605776697397232, -0.0768134742975235, 0.07058759033679962, 0.008337531238794327, -0.06343228369951248, -0.006235560867935419, 0.03572660684585571, -0.09889023005962372, -0.10028481483459473, 0.0775618627667427, -0.040003035217523575, 0.12228535115718842, 0.09433279931545258, -0.11638800799846649, 0.09436354786157608, 0.09187169373035431, 0.11669328808784485, 0.1148783266544342, 0.010477566160261631, 0.1431480348110199, 0.0981471836566925, 0.006550787482410669, 0.10080261528491974, -0.142347052693367, 0.1865096092224121, -0.08362023532390594, 0.1442171037197113, 0.20679248869419098, 0.2207126021385193, -0.11392851918935776, 0.12363772094249725, 0.20608925819396973, 0.11840557307004929, -0.024022391065955162, -0.20939423143863678, 0.18919870257377625, -0.08624138683080673, -0.18201585114002228, 0.0429261215031147, -0.25474047660827637, 0.06304646283388138, -0.10651601850986481, 0.04083643853664398, -0.15068523585796356, -0.20100949704647064, -0.035289157181978226, 0.09665881842374802, 0.09072946012020111, 0.18755675852298737, -0.04862379655241966, -0.2220340371131897, -0.1705394983291626, -0.07039309293031693], [-0.12469397485256195, -0.28520655632019043, 0.059914082288742065, 0.15343554317951202, -0.2715013027191162, 0.04063136875629425, 0.1620892733335495, -0.20008204877376556, 0.0710693821310997, -0.28029727935791016, -0.11825672537088394, -0.13476413488388062, -0.24300874769687653, 0.0022600332740694284, 0.1210724413394928, -0.10604764521121979, -0.10294263809919357, 0.13661055266857147, -0.2308468520641327, -0.20223075151443481, 0.13512596487998962, 0.06479102373123169, 0.11206400394439697, 0.04114248603582382, -0.2558521330356598, -0.14483021199703217, 0.127873957157135, 0.10029485821723938, 0.13003197312355042, 0.0427374504506588, -0.2994072139263153, 0.05439683794975281, 0.17120876908302307, 0.06773769855499268, -0.23079045116901398, 0.05395287647843361, -0.11445510387420654, 0.09136105328798294, 0.08470840007066727, 0.0728595107793808, -0.17057804763317108, 0.06246720626950264, 0.17915020883083344, 0.13384990394115448, -0.06495605409145355, -0.10710464417934418, 0.12046319246292114, 0.0013072595465928316, -0.27296245098114014, -0.0023693437688052654, -0.15908363461494446, -0.18990002572536469, -0.16645999252796173, -0.2044481784105301, -0.26573023200035095, -0.20567210018634796, -0.3175639808177948, 0.06045949459075928, 0.04651165381073952, 0.0220183115452528, -0.1375361979007721, -0.23314063251018524, -0.23179861903190613, 0.20430243015289307], [0.2133628875017166, -0.18232007324695587, -0.24855174124240875, -0.0060609509237110615, -0.08525549620389938, -0.2914015054702759, 0.15167813003063202, -0.18440674245357513, -0.05591206252574921, -0.12000013887882233, -0.1653275042772293, -0.17835679650306702, -0.1432604342699051, -0.18725234270095825, -0.14779113233089447, -0.2501932978630066, -0.1557733714580536, 0.043253086507320404, -0.2177315056324005, 0.1834753304719925, -0.025288525968790054, 0.2023363560438156, 0.14015163481235504, -0.10870451480150223, 0.2010471671819687, 0.06291382014751434, -0.07686526328325272, -0.062273792922496796, 0.11656511574983597, 0.20020724833011627, -0.1995542198419571, 0.18443180620670319, -0.019846253097057343, 0.16151398420333862, 0.012571529485285282, -0.255802720785141, -0.031195880845189095, -0.08326728641986847, 0.10878041386604309, -0.10495667159557343, 0.08052605390548706, 0.08769925683736801, -0.2885705530643463, -0.24178360402584076, 0.16154977679252625, 0.115482397377491, 0.14267753064632416, 0.004835687577724457, -0.1363915503025055, -0.03810426592826843, 0.13135939836502075, -0.1638966053724289, 0.1833357810974121, -0.2669795751571655, -0.025849461555480957, 0.08460479974746704, 0.10058856755495071, -0.15823237597942352, -0.005537299904972315, -0.016002127900719643, 0.002685792278498411, 0.2184179276227951, -0.3254692852497101, 0.23740415275096893], [0.17391745746135712, 0.09500928223133087, 0.13369932770729065, 0.08476360887289047, -0.11475490778684616, 0.16504596173763275, 0.13586315512657166, 0.17675171792507172, 0.09063030034303665, 0.10791068524122238, -0.0011915292125195265, 0.17548684775829315, 0.10281767696142197, -0.020706575363874435, -0.010179964825510979, -0.03471482917666435, 0.07180538773536682, -0.18496939539909363, 0.21181711554527283, -0.03925289958715439, 0.03412913531064987, -0.11804043501615524, -0.37467125058174133, -0.17887167632579803, 0.16239741444587708, 0.01997702196240425, -0.26717478036880493, 0.22159890830516815, -0.10250493139028549, -0.3880046308040619, 0.09124399721622467, -0.21911637485027313, 0.172410786151886, 0.07686590403318405, -0.23600584268569946, -0.10959569364786148, -0.2530747652053833, 0.18218185007572174, 0.1468769758939743, -0.28203293681144714, -0.1390240639448166, -0.11898065358400345, 0.07919859141111374, -0.24578985571861267, -0.1904830038547516, -0.06648550182580948, -0.21482451260089874, 0.025193501263856888, 0.19920283555984497, -0.024211594834923744, -0.08018822968006134, 0.11885520070791245, 0.07685253769159317, 0.20948579907417297, 0.2003534585237503, -0.08679378032684326, 0.1520089954137802, -0.2756519913673401, -0.008618124760687351, -0.10177105665206909, 0.1994621753692627, -0.06716308742761612, 0.14870727062225342, -0.2732316255569458], [0.08488322794437408, -0.03320343419909477, -0.04822703078389168, 0.06302400678396225, 0.02089274488389492, -0.08436411619186401, -0.09000953286886215, -0.1444128006696701, -0.04111151024699211, -0.1207018494606018, -0.03908899798989296, -0.07117494940757751, -0.2594809830188751, -0.02650374360382557, -0.04061907157301903, 0.12048481404781342, -0.2689124345779419, 0.17315174639225006, -0.09166436642408371, 0.042352475225925446, 0.06748136132955551, 0.11392909288406372, 0.07397805154323578, 0.19123803079128265, -0.02349252626299858, 0.03422534838318825, 0.1543314903974533, -0.1186690628528595, 0.21354807913303375, 0.2430068701505661, 0.10956906527280807, 0.08922083675861359, -0.05112798139452934, 0.16502918303012848, 0.2043965756893158, 0.03134680166840553, 0.08980827778577805, -0.03206619620323181, 0.025382526218891144, 0.19508099555969238, 0.1275634616613388, 